,0,1,2,3,4,5,6,7,8,9,10,11,12,13,14,15,16,17,18,19,20,21,22,23,24,25,26,27,28,29,30,31,32,33,34,35,36,37,38,39,40,41,42,43,44,45,46,47,48,49,50,51,52,53,54,55,56,57,58,59,60,61,62,63,64,65,66,67,68,69,70,71,72,73,74,75,76,77,78,79,80,81,82,83,84,85,86,87,88,89,90,91,92,93,94,95,96,97,98,99,100,101,102,103,104,105,106,107,108,109,110,111,112,113,114,115,116,117,118,119,120,121,122,123,124,125,126,127,128,129,130,131,132,133,134,135,136,137,138,139,140,141,142,143,144,145,146,147,148,149,150,151,152,153,154,155,156,157,158,159,160,161,162,163,164,165,166,167,168,169,170,171,172,173,174,175,176,177,178,179,180,181,182,183,184,185,186,187,188,189,190,191,192,193,194,195,196,197,198,199,200,201,202,203,204,205,206,207,208,209,210,211,212,213,214,215,216,217,218,219,220,221,222,223,224,225,226,227,228,229,230,231,232,233,234,235,236,237,238,239,240,241,242,243,244,245,246,247,248,249,250,251,252,253,254,255,256,257,258,259,260,261,262,263,264,265,266,267,268,269,270,271,272,273,274,275,276,277,278,279,280,281,282,283,284,285,286,287,288,289,290,291,292,293,294,295,296,297,298,299,300,301,302,303,304,305,306,307,308,309,310,311,312,313,314,315,316,317,318,319,320,321,322,323,324,325,326,327,328,329,330,331,332,333,334,335,336,337,338,339,340,341,342,343,344,345,346,347,348,349,350,351,352,353,354,355,356,357,358,359,360,361,362,363,364,365,366,367,368,369,370,371,372,373,374,375,376,377,378,379,380,381,382,383,384,385,386,387,388,389,390,391,392,393,394,395,396,397,398,399,400,401,402,403,404,405,406,407,408,409,410,411,412,413,414,415,416,417,418,419,420,421,422,423,424,425,426,427,428,429,430,431,432,433,434,435,436,437,438,439,440,441,442,443,444,445,446,447,448,449,450,451,452,453,454,455,456,457,458,459,460,461,462,463,464,465,466,467,468,469,470,471,472,473,474,475,476,477,478,479,480,481,482,483,484,485,486,487,488,489,490,491,492,493,494,495,496,497,498,499,500,501,502,503,504,505,506,507,508,509,510,511
Oceania_11.png,-0.16211501,0.38237193,-0.09246484,0.08052232,0.011802927,-0.08435287,0.26460707,0.50272137,0.27021152,0.12501912,0.23182414,-0.39073545,0.5791784,-0.4278284,0.4788539,-0.031037673,0.099728644,-0.18278196,0.18500209,-0.09722312,-1.1638708,0.14180282,-0.088806674,-0.34253678,0.30921867,0.012804583,-0.10119277,-0.23837437,-0.3031125,0.18803363,-0.61400574,-0.24237695,-0.17010266,-0.06720179,-0.2958632,0.041808255,-0.28457612,-0.21644896,0.2790295,0.46964553,-0.46457395,0.4656105,0.19024529,-0.22283569,-0.14226808,-1.0936581,-0.020815391,0.34566098,0.16605814,0.23650005,0.08699754,-0.09386346,-0.10504665,0.16872549,-0.07404427,0.09693627,-0.018156692,0.05162158,0.09753547,0.08954444,-1.4250932,0.12464097,-0.30361378,-0.018437006,-0.37457883,0.071898036,-0.3116263,1.0596496,-0.10221188,-0.02247782,-0.4923982,-0.2558093,-0.56389475,0.030532733,-0.25247478,-0.32099748,-0.3984602,-0.70718414,-0.2345213,-0.31204283,-0.06269419,-0.217272,0.26210296,0.37546092,0.13257052,-0.15829627,0.062023908,-0.5111809,0.42952606,-0.23514262,0.30545563,0.04249356,-7.8360248,0.49543327,-0.43670788,-0.14409289,-0.09790238,-0.30209488,-0.25174433,-0.53848946,0.19737032,0.12451865,-0.6025662,0.18028714,0.06947022,0.20950207,0.47283998,-0.13415545,0.36723655,-0.15000436,0.31930214,0.076969996,-0.20768604,-0.13993034,0.33212203,-0.12629093,0.52553576,-0.3541945,0.17550063,-0.8529587,0.13342565,0.073783696,0.38701656,-0.2928738,-0.08815017,0.3211945,-0.051512495,0.36741632,-0.15673137,0.4285881,0.014302816,-0.3636791,0.2308895,0.91083527,-0.11895682,-0.36729637,-0.16196488,-0.31607363,0.40887427,0.21471173,-0.28327048,-0.0069777966,0.2832783,-0.3156916,-0.17442648,-0.0046230257,-0.10697912,-0.033615626,-0.23195781,-0.27397403,-0.041281335,-0.1739484,0.59681016,-0.08284238,-0.16904336,-0.28185636,0.2222709,-0.38765758,-0.6544305,0.3527667,0.40046123,-0.13657402,0.056644693,-0.09687998,-0.056731537,0.16803803,0.43173522,0.44030017,0.017064214,-0.016932577,-0.089750454,0.37827808,-0.2201078,-0.4269019,0.03477014,0.19746605,-1.0204023,-0.49280596,0.19433224,0.06431411,-0.36563691,-0.5879326,0.102376595,0.4533105,-0.029545529,-0.17103834,-0.30904186,-0.023303572,-0.010973066,0.007868834,0.12183119,0.37368995,-0.045974836,0.358004,-0.3961664,0.07052233,-0.49734327,-0.4246597,-0.20310919,-0.050976872,0.14818819,-0.34887582,0.10750912,-0.10069838,0.5390461,-0.40645772,0.1256971,-0.19256847,0.01639776,0.3653427,0.10480591,0.5237459,-0.2289984,-0.13363618,0.40523008,-0.45188895,-0.37649247,0.5612199,0.32347023,-0.14010894,0.4569085,0.8075944,-0.21330164,-0.35081667,0.12558939,0.29832157,0.49176234,-0.058083154,-0.4965862,-0.25999892,0.12597223,0.021865487,0.2664251,-0.4294605,0.1417869,0.4807578,0.20444176,0.061453443,-0.034377076,-0.10908937,0.14287214,0.083945096,0.6124732,-0.1163878,-0.25411654,-0.67147046,-0.06966592,0.08948725,-0.028526323,-0.26811528,-0.37270212,0.28166375,-0.012663394,-0.0606544,-0.1357404,0.14696802,0.058660522,0.2716983,0.547819,-0.23855644,0.018151663,0.39381477,-0.33492747,0.5657536,0.4001102,0.017406777,-0.33314615,0.33238634,0.023531683,0.3184118,0.5316884,0.0043974444,-0.43652475,0.3651017,-0.16016276,0.11950545,-0.48666748,-0.45003918,-0.11693114,0.21783975,0.58615613,0.43360272,0.6000681,0.15748343,0.17263722,0.07990292,-1.7891941,0.08058745,0.22660445,-0.17771581,0.20248324,0.17493385,0.20782834,0.06993686,-0.25963846,0.53901136,0.28407282,0.11798405,0.080753244,0.12733155,0.12472903,-0.16617988,-0.36850458,0.29696333,0.02998703,0.50081354,-0.18281624,0.54909444,0.2630884,-0.065645985,-0.05388326,0.10337147,0.9095373,-0.4173625,-0.0926933,0.38939136,0.6954905,0.57399416,0.1795034,0.2835137,0.49961925,0.9317608,-0.10882142,-0.04628598,0.034029365,-0.07483728,0.005058959,-0.05975423,0.24178608,0.2584268,-0.32445493,-0.4928272,-0.024287805,-0.090035856,-0.26118803,0.113195285,0.5000998,-0.31256062,0.023299068,0.21427856,0.21370569,-0.021953046,0.04446368,-0.19109109,0.026878111,0.06943585,-0.49790522,0.3935528,0.40750217,0.40854555,0.13367581,-0.19103563,0.48078215,-0.041682888,-0.05035622,-0.23424506,-0.16582751,-0.19214977,-0.0030669272,-0.02203282,-0.9445859,0.1608608,0.3676228,0.8798466,0.22807944,0.04446023,-0.58362603,0.64830595,0.04709796,-0.3788398,0.14284317,0.15075526,-0.15080509,0.271708,-0.3773028,-0.4335596,1.5618477,0.31872737,-0.045399174,-0.19574651,0.0067942217,-1.4701625,-0.03888565,-0.44125238,0.4363892,-0.28508762,0.03103447,0.18652251,-0.2245963,0.47489634,0.78136945,0.24940985,-0.098304406,0.08319362,-0.60075957,0.21172765,-0.11075474,-0.21696028,0.28050476,-0.10051749,0.6329276,0.50219405,0.17388637,-0.6070023,0.2170592,-0.31728178,-0.026251987,-0.2435486,0.24324617,-0.29674965,-0.34942392,0.2411122,-0.16373678,-0.17366706,-0.23753582,0.098102145,0.13238478,-0.1796233,-0.044832528,-0.19820276,0.007725197,-0.26551712,0.6859411,-0.33320948,-0.34686697,-0.07541198,-0.1945719,0.15909828,-2.8030324,0.083868705,-0.005001355,0.2854168,0.74592793,-0.22583306,-0.019412555,-0.46989143,-0.42024517,-0.054670244,-0.36330754,-0.07826555,0.21038502,0.19184682,0.10802927,-0.04605642,0.22659728,-0.16520584,0.13939802,0.06133144,-0.052386284,0.07099386,-0.33257112,0.17378908,-0.047347635,-0.0032060444,-0.020122066,0.34154716,0.26623395,-0.60107976,-0.5905877,-0.18443906,-0.1980473,-0.28368622,0.07103591,-0.56161654,-0.20700327,-0.22814119,0.059340708,-0.375651,-0.24475253,-0.07897213,0.51655877,0.07541329,-0.16794515,-0.43221822,0.25687957,0.09377253,-0.009384766,0.15169446,0.9280969,-0.26290601,-0.029237501,-0.14711086,-0.039888963,0.22649503,0.02459412,-0.13416083,-0.09884736,0.06935136,-0.13435042,0.022655837,0.28779218,-0.064140916,0.14195743,-0.67168623,0.025649138,-0.3089496,0.018503554,0.24832627,-0.012064517,-0.04863444,0.37177524,0.07922599,0.15628867,-0.12257815,0.3895385,0.27251017,0.31658608,0.11727727,-0.28518137,0.40236604,0.12229818,-0.3747546
Oceania_14.png,-0.06245447,0.4798099,-0.12712762,0.26236758,0.012199998,-0.18910024,0.037707392,0.07941899,-0.040137738,0.12619084,0.59973514,0.12516484,0.107005626,-0.5766013,0.20008938,-0.06387472,0.35575905,0.07546157,0.035243005,-0.17029545,-1.7443289,0.30744565,-0.053237848,-0.20753765,-0.2660511,0.20768613,-0.17229062,-0.2144394,-0.36403093,0.44667006,-0.6954767,-0.5600229,0.46302676,-0.26141185,-0.03260161,0.21753809,-0.5064415,-0.19450423,0.69635195,0.22289985,0.16134912,-0.0005726069,0.13446079,-0.16074778,-0.17272168,-0.8325124,-0.056725964,0.03902982,0.12712204,0.068129346,0.034300894,0.035675064,-0.22729158,-0.41292408,0.03578587,-0.30996853,0.14281696,0.11690695,-0.06687653,0.1315431,-0.7142123,0.12337406,-0.19232869,-0.047173206,-0.33821532,-0.29947084,-0.34116372,1.046284,-0.039088205,-0.07607131,-0.5555216,-0.03641723,-0.34516653,-0.09342892,-0.2997206,0.1568969,-0.108621135,-0.49680936,-0.1408022,-0.16171306,0.51734805,-0.26084015,-0.044007055,-0.06512615,0.33809856,0.22770144,-0.06131096,-0.17938781,0.1484401,-0.12793106,0.2274863,-0.27559966,-5.6960397,0.4241958,-0.018174425,0.17426988,-0.024348028,0.42943674,-0.21245338,0.16877413,0.029317766,0.18229933,-0.24269158,-0.1694792,-0.3115175,0.022473034,-0.7623054,-0.041772768,0.35363814,-0.22636577,0.28866407,0.088401146,-0.09218918,-0.02702351,0.31975818,-0.2807646,0.26415727,0.05045061,0.20125684,-0.7836446,0.15798809,0.2563275,-0.34435362,-0.11971695,-0.25968105,0.39493102,0.06102602,0.12015521,-0.15728137,0.38456795,-0.25397295,-0.18820725,0.42631146,0.8517159,0.50612116,-0.12876648,-0.23217303,0.034546666,0.38502634,0.5220514,0.08623402,-0.0951665,0.06584623,0.3075148,0.010633022,-0.089160316,0.0420354,-0.19244015,0.023459662,-0.21903104,-0.2286552,0.47031435,-0.08029418,-0.22185063,0.0019184202,0.08677587,0.37873316,-0.1123748,-0.2903521,0.2650329,0.31278586,-0.4533354,0.09429696,0.24859832,0.035029396,0.6516558,0.27881154,0.31903288,-0.17773671,-0.3674972,0.009961486,-0.090348214,-0.2724133,-0.43637305,0.043612536,-0.12913503,-1.1411368,-0.1414459,0.0053554997,-0.04257278,-0.30587277,-0.58352244,0.18277253,0.04927753,-0.09202303,0.0021148473,0.04880999,0.2855281,0.17130485,-0.23750204,0.26930127,0.46392775,0.07889749,0.036599386,-0.11157653,0.23247057,-0.38451278,-0.54683524,-0.1631144,0.3447359,-0.04373388,-0.07671422,0.45236504,0.36637533,0.61019015,-0.058305956,-0.5301542,0.054764703,-0.029260114,0.4640245,-0.24371953,0.6989466,-0.33295214,-0.17284392,0.699832,-0.37703687,-0.0001645051,0.19619548,0.68591845,-0.18201154,0.59025943,0.88235843,-0.15854602,-0.70804554,0.680749,0.38005114,0.011895895,0.20317078,-0.19234456,-0.47347453,-0.08724182,0.09103048,-0.014891151,-0.25652748,-0.12233658,0.32477242,0.38419837,0.218871,0.08559889,-0.17718087,-0.3446563,-0.101472616,0.42554376,-0.049968317,-0.39487198,-0.33616582,0.27179056,0.0503717,-0.26365852,-0.16357605,-0.5307875,-0.5730836,-0.0042889267,0.06149803,0.17572585,0.19556783,0.086168826,0.16943854,0.46602088,-0.13125601,0.11481042,-0.013910008,-0.645446,-0.4021777,-0.091988556,0.25257114,-0.26137087,0.18553998,0.26193997,0.44084233,0.35002476,0.23194301,-0.653944,-0.12576869,-0.19260274,0.33968803,-0.5540018,-0.082041115,-0.059823245,-0.4109536,0.70489264,0.3936243,0.21171588,0.025530644,-0.088427715,-0.25336832,-1.050012,-0.19050345,0.058886606,-0.2477417,-0.058862615,-0.45016268,0.15304074,-0.005717382,-0.31621101,0.22546159,0.6587752,0.040161327,0.13004059,-0.040643707,-0.22759993,-0.10315566,-0.5887704,-0.07842937,0.41058132,0.30347112,-0.13543904,0.49937597,0.38952252,0.23659505,-0.32899237,0.19574781,0.85030425,-0.283122,-0.024456538,0.43277678,0.25846347,0.8761802,0.30219704,-0.4381126,0.44033942,1.9731965,-0.2237779,0.24160384,0.19918749,-0.24908367,0.23623464,0.08082074,0.171335,-0.0059205443,-0.1308554,0.0009834445,-0.071070366,-0.4093005,0.17772841,0.48240086,0.47517812,0.022442576,-0.016101543,0.15871182,0.26280347,-0.15946504,-0.34711087,-0.21769886,0.08938964,0.35966045,-0.6967212,0.2707234,0.13542753,0.23942609,-0.099727675,0.107492805,0.47644287,-0.26065683,-0.18300404,-0.30181855,-0.32909164,-0.20866063,0.2012181,0.10019241,-1.0419097,0.06526005,0.15022469,0.6787329,-0.695224,0.15731809,-0.19798855,0.6875444,0.36211753,-0.32524934,-0.18285292,0.5228592,-0.09373429,-0.41013283,-0.27318728,0.00088008866,0.5939212,0.23403332,-0.027985707,-0.21729255,-0.06782749,-1.1589571,-0.33920234,-0.7347776,0.45156065,-0.1648301,0.10547601,-0.18369825,-0.426858,1.9284391,-0.036624454,-0.29670632,-0.17808524,0.14943078,-0.2777478,0.22585931,-0.45535582,0.005922124,0.46954066,-0.3966331,0.39524913,-0.0798312,0.48029673,-0.63077193,0.4009242,-0.5509052,-0.6909031,0.11525694,0.1506047,-0.3116523,-0.014021829,-0.0021501407,-0.17709711,-0.15806891,-0.19828367,-0.07346243,0.1039533,-0.56174815,-0.14660405,-0.023167685,-0.45253146,0.089520425,0.26282844,-0.11190303,-0.29492366,-0.03735844,0.27482387,0.009085521,-1.1420395,0.23119628,0.108100645,0.34918606,1.3982942,-0.28130522,0.034077227,-0.38313824,-0.5411233,-0.013326667,0.12418799,0.431327,-0.029757053,0.30998886,-0.04839572,0.36507347,0.10580178,-0.24417946,0.18010622,-0.20540625,0.12627184,0.3827345,-0.27078635,0.020836398,-0.18613191,-0.3123206,-0.23619196,0.28729582,0.37796527,-0.30974582,-0.23918715,-0.5987376,-0.0973958,-0.29754218,0.10494255,-0.22678123,0.14503863,-0.070924625,0.1806823,0.04090441,-0.23491928,-0.07192256,0.16105875,-0.020741977,-0.100260824,-0.85131246,0.43706512,-0.18938616,-0.053283215,-0.13536455,1.0982494,0.18348515,0.5428942,-0.38659078,-0.2751352,0.2619615,0.5332369,0.041831516,-0.32046738,0.51280135,-0.24796933,-0.056492485,0.54489154,-0.23592216,0.110670015,-0.784446,-0.18421961,0.065576494,0.013760127,0.18856116,-0.0072385594,-0.20833701,0.65663457,0.014116906,0.2718401,0.1475466,0.33506054,0.33081827,0.019149732,0.008811399,0.060517885,0.5816935,-0.29310387,-0.48921373
Oceania_26.png,-0.10535243,0.1979122,0.24432029,0.23702978,0.037307024,-0.21702525,-0.06017666,0.3233844,0.46142113,0.23437445,0.39210212,0.0979261,0.46987832,-0.53828156,0.4227574,-0.21076357,0.20216754,0.20917822,0.5242547,-0.29334202,-0.9444236,0.058441773,0.062437534,-0.17567708,-0.068057634,0.20270173,0.09407432,-0.21132831,-0.47528207,0.39633316,-0.16826852,0.018966407,-0.10605395,0.030084245,-0.24899381,-0.007143423,-0.24178033,0.18884788,0.13547029,1.1517475,-0.010745928,0.18649265,0.25970286,-0.20758688,-0.22604772,-1.646575,0.020667456,0.4016417,0.028070986,-0.031449765,-0.054930538,-0.023499351,0.13538815,-0.11998077,0.044495024,0.056947194,-0.020018399,0.18749742,0.062234163,0.23934901,-1.453352,-0.064007215,-0.34253904,0.09814717,-0.37487027,-0.32952464,-0.2149415,0.8434905,-0.08097366,-0.017345652,-0.8104167,-0.43517572,-0.6509614,-0.38166112,-0.16842541,-0.14938375,-0.7468916,-0.74662256,-0.3989432,-0.21079102,0.01450767,-0.111766994,0.21688867,-0.17472012,0.14309357,0.33181226,-0.41268206,-0.2928841,0.034713984,0.19603775,0.3173573,-0.4967519,-5.9478765,0.42464155,-0.45956367,-0.27332512,-0.13919106,0.24497803,0.6143876,-0.69916606,-0.43846828,0.31751016,-0.0759044,-0.3478773,-0.10926165,0.38967696,-0.17332959,0.17685579,0.27285475,0.012226939,0.0141761005,0.35596263,-0.29043868,-0.5092246,0.36601913,-0.3316166,0.27757582,-0.07105892,-0.11186237,-0.1334382,0.23451245,0.27023813,-0.18476582,-0.13176839,-0.1379153,0.28227305,0.12864524,0.29745513,0.08246517,0.45009565,-0.58911395,-0.6912431,0.07668488,0.84342885,0.1915448,-0.09432523,-0.025693394,0.2547145,0.2585312,0.11293052,0.11754145,-0.23896278,0.69067943,-0.20470473,-0.28586483,-0.2546394,-0.13287242,0.2560649,-0.0662259,-0.13379368,-0.19257048,0.35891163,0.45416266,-0.25483155,-0.17590718,-0.13306277,0.3932126,0.4973584,-0.5052766,0.17270353,0.5718362,-0.061369665,0.03282599,0.6122334,0.12338119,0.013193391,0.6413085,0.4232421,-0.25640532,-0.3252034,0.14683884,0.021290477,-0.27415374,-0.31939313,0.2196301,0.08293007,-1.201023,-0.31185356,-0.5234704,0.35619897,0.38970858,-0.43524045,0.22912543,0.14633544,-0.16553667,0.050648868,-0.029924229,-0.06150292,-0.025903955,-0.11999599,-0.006283258,0.16570318,0.22066528,-0.15700933,-0.4077282,0.25286353,-0.5821584,-0.1075439,-0.049508035,0.28011066,-0.04728105,-0.23384064,0.2949127,0.11304139,0.7507386,-0.17456913,0.15844668,-0.007261336,0.058666494,0.3649115,-0.0769891,0.62595844,-0.28469682,-0.14901987,0.115593955,-0.33566412,-0.08266349,0.13270842,0.26499507,-0.14646913,0.95050484,0.61153746,-0.29883102,-0.56067705,0.7318065,0.5307573,0.1895012,-0.20523599,-0.33232176,-0.4909221,0.11207384,0.006596893,0.1552317,-0.16456452,-0.4088551,-0.29695594,0.10685837,0.058342867,0.32638833,-0.11662595,0.058210447,0.015585475,0.19419184,-0.19716108,0.1879683,-1.1186779,-0.27809718,0.34291482,0.00048452616,0.05222234,-0.46364728,-0.53102887,0.14554697,0.056641396,0.024013504,0.029829592,-0.2769292,-0.050552893,0.6904206,0.19082701,0.41194734,-0.060177803,-0.45717102,0.6619785,0.18683976,0.46147653,-0.0789732,0.24843985,-0.25748506,0.274696,0.41780758,0.1637912,-0.4635993,0.065913185,0.17393005,-0.004251112,-0.56802326,-0.47718596,-0.033867046,-0.19591874,0.8690212,-0.09820993,0.59162766,0.40786242,-0.06940563,-0.0015682876,0.18082815,-0.39664617,-0.09599711,-0.16406494,-0.12683329,-0.051693104,0.31728378,0.15259528,-0.29481798,-0.0744822,1.0073283,-0.040894955,0.24223879,-0.03432569,-0.26307052,-0.5301685,-0.55970794,-0.0769427,-0.23264752,0.02528027,-0.2489278,0.33745033,0.46630213,0.26405543,-0.29694676,0.33984596,0.8413325,0.09068542,0.002837032,-0.093424335,0.38834745,0.663828,-0.05004399,-0.030773304,0.6608377,0.9418242,-0.34054568,0.0674835,-0.08055763,-0.27255386,0.6495681,0.24203098,0.2677154,0.060714513,-0.12116018,-0.34307867,-0.29647762,-0.30811688,-0.33238387,0.060696032,0.2700724,-0.24189362,0.40261084,-0.025138333,0.15069926,-0.11945304,-0.2761022,0.023905436,0.11986243,0.12761685,-0.4870305,0.31716415,0.27114835,0.19498944,0.37416798,0.08320776,0.12683244,-0.30595717,-0.07037212,-0.7048107,-0.067886695,0.28907505,0.06694129,0.23713087,-0.28355128,-0.094156,0.22268431,1.1232123,-0.5623529,0.1120624,-0.17039356,-0.0036793947,0.1515371,-0.44978887,-0.010321945,-0.0008510053,0.17447822,-0.021432318,-0.2676244,-0.16979842,0.6124334,0.31339166,-0.4974866,0.09115261,0.13281174,-1.0978061,-0.31749168,-0.56930757,0.56594867,-0.03567504,-0.20828229,0.13249716,-0.49037033,1.5586947,0.050378926,-0.118191816,-0.05547249,0.27266654,-0.10365821,-0.1174811,-0.3206436,0.028819755,-0.31058654,-0.28427812,0.2222071,0.24064755,-0.10925429,-0.7007936,-0.165966,-0.2829572,-0.5613487,-0.2832329,0.07684384,-0.31464565,-0.04529401,0.19476658,-0.4576816,-0.301545,-0.23842287,-0.18954976,-0.047562674,-0.094113156,-0.38528806,0.16043055,-0.17358667,0.16116849,0.52945375,-0.6896822,0.30297154,0.06163867,0.25094256,-0.032026812,-2.427834,-0.23556116,-0.23586723,0.057188734,0.71079695,-0.15344745,-0.069156006,-0.026679665,-0.5887453,-0.116523355,-0.08804503,0.17843956,-0.15524632,-0.01992404,-0.5310846,0.17913154,-0.08251232,-0.36388603,0.022510454,-0.319045,-0.036267817,-0.19455045,-0.36947304,0.12401873,-0.41662395,-0.26067814,-0.030101836,0.20079489,0.7385959,-0.05048436,-0.17543563,-0.36136386,-0.35643706,-0.92847,0.041438513,-0.33868396,-0.08410983,-0.09874644,0.3232776,-0.1456365,0.12727398,-0.010017663,0.15559842,0.25065175,-0.21505144,-0.8659973,0.07528736,-0.04458627,-0.19282278,0.3752262,0.19840513,0.14470166,0.3643977,-0.6375029,-0.10805005,-0.023330301,-0.12143812,-0.10069555,-0.36715463,0.29737708,-0.38736162,-0.25862196,0.13976072,-0.118912235,0.2764526,-0.43079025,-0.11940473,-0.22010584,-0.08640346,0.1436045,-0.09054504,-0.3581547,0.42496014,0.15018237,-0.13256337,-0.04774101,0.32972458,-0.11298597,0.07298752,-0.027443238,0.24575247,0.5204075,-0.029928472,-0.2150188
Oceania_39.png,0.14852484,0.4810852,-0.2824403,0.43557993,-0.22101544,0.07694792,-0.28363073,0.40679115,0.34926367,0.3764003,0.36573645,-0.09384871,0.37687573,-0.91869956,0.4544204,0.24007516,0.65458596,0.17056596,-0.25835338,-0.17762095,-1.3366253,-0.17335112,-0.1606982,-0.17525515,0.27976942,0.16547756,0.29284662,-0.26295352,-0.2557798,0.15389886,-0.48954874,-0.4445209,0.13231766,0.1865445,-0.20552173,0.09515163,-0.49677363,-0.23224813,0.3027979,-0.1365121,-0.060173124,0.039132833,-0.12693822,-0.4335295,0.065014124,-1.3364093,0.12267611,0.17287022,-0.08507075,-0.054288417,0.01689282,-0.06971073,-0.015503153,-0.41674826,0.0021282583,-0.26821876,0.58327997,0.01760175,-0.25825933,0.108210854,-0.8556655,-0.09833176,-0.37420958,0.07122738,-0.4257976,-0.5054618,-0.45633215,0.9827562,0.041822173,-0.5153077,-0.720736,-0.49543267,-0.4455499,-0.15620646,-0.25159374,0.22987726,-0.51457983,-0.3603176,-0.015192762,0.12760937,0.2800376,-0.280384,0.29885784,0.19048059,0.40519705,0.08120655,-0.115997136,-0.21567799,0.20025769,0.01957386,0.22565341,-0.19698635,-6.6624727,0.4964817,-0.052683793,-0.059027538,-0.13435279,0.33044875,-0.4294925,0.11212897,0.28805742,0.078728914,-0.061439134,0.06770285,-0.4207085,0.12091481,-0.25175315,0.13666779,0.3350994,-0.20351598,0.40625262,0.045317877,-0.4819377,-0.049250677,0.12295902,-0.40211517,0.5878227,0.34615955,-0.048886716,-0.46109822,-0.05853085,-0.2697645,0.2573524,-0.119496174,0.034070116,0.41360408,0.098832905,0.77922714,0.13802645,0.4813158,-0.20829698,-0.005624652,0.051046282,0.8879303,-0.14845133,-0.3860191,-0.19232501,-0.14068267,1.0303792,0.28218457,-0.18354839,-0.26547337,-0.0014901832,-0.43647817,-0.21872449,0.12151062,0.09579463,0.20945208,0.22436689,-0.36416402,0.21953276,0.04129836,0.16914073,0.0054048896,-0.26634115,0.12817171,0.34239286,0.28737256,-0.65064573,0.06979961,0.016199,-0.12418069,0.07331661,0.24033506,-0.114141956,0.52442414,-0.45445254,0.13570905,0.12540454,-0.20970866,-0.07208228,-0.06971651,-0.12462719,-0.45009023,0.14954291,0.053337604,-0.86833125,-0.1768021,0.33896312,-0.1803152,-0.5805132,-0.6096225,0.17889664,0.20438746,0.28311244,0.3094731,0.1562297,0.2044729,0.20296787,-0.46834794,0.20661864,0.3408073,0.44218516,0.28022015,-0.3065381,-0.012245689,-0.4204672,-0.5239692,0.49734253,0.36147898,-0.07886438,-0.1567572,0.4600347,0.28694677,0.5007836,-0.2960724,-0.108333305,0.04767239,-0.11224906,0.5477942,-0.13883281,1.0215733,-0.013870604,-0.13683069,0.6084734,-0.17192477,-0.43956593,0.2436884,0.66753745,0.5604012,0.6283259,0.45863965,-0.35207227,-0.502001,-0.03819126,0.2974493,0.36292648,0.16597834,0.23097728,-0.64817333,0.28668743,-0.14941576,0.12306051,-0.73145866,-0.12585795,0.4397787,0.6624779,0.16238393,-0.042789966,0.027144365,-0.28905106,-0.00368049,0.61128104,-0.36921352,-0.13402039,-0.2607974,0.11872722,0.124329194,-0.06806583,-0.07816309,-0.41237992,-0.34147435,0.04433109,-0.06537648,-0.16160879,0.21908851,0.13576666,0.35597646,0.5489968,0.23015186,0.32057828,-0.062404327,-0.5683615,0.22355142,0.5249788,-0.111048624,-0.05595868,0.4935651,-0.020545695,0.5749609,0.41942513,-0.061813965,-0.6171836,-0.17257746,-0.2503097,0.3026464,-0.27119955,0.44470307,0.23584977,-0.13553783,0.58554906,0.48842132,0.49550304,-0.03548689,-0.21475364,-0.027427256,-1.742859,-0.66340333,0.41876796,-0.36979008,0.23973091,0.41941297,0.4504733,-0.1968827,-0.14491846,0.3861388,0.28392744,-0.16839968,0.34441414,-0.12778382,-0.18874505,-0.21252443,-0.32412225,0.30092692,-0.2350635,0.34376785,0.23899898,0.45116866,0.3383589,0.21965913,-0.099969424,-0.10317181,0.88748235,-0.36610383,-0.10021536,0.77533704,0.24267411,0.7540872,0.060521662,-0.45438138,0.54249966,1.2779496,-0.24735992,0.06317618,0.3376732,-0.1750645,-0.10857586,-0.2974339,-0.092761345,0.13590285,0.24728423,-0.1741701,-0.15656823,-0.13884498,-0.07196894,0.16507463,0.44123697,-0.17560893,0.10051897,0.20354414,0.18488497,-0.011831194,-0.20513952,0.08596253,0.0591876,0.23313601,-0.22605094,0.5721179,0.19927588,0.30446565,-0.1149475,0.22377186,0.25011232,-0.10682048,-0.1391593,0.22564651,-0.6394542,-0.514804,0.19797465,0.24903892,-0.8104458,-0.2132083,0.13295133,0.35723123,-0.44877404,0.022861019,-0.53644586,0.64141,0.2624212,-0.4268725,0.02410718,0.14851576,-0.40099823,-0.18644102,-0.24942574,0.14337464,0.52309424,-0.12401721,-0.4696827,-0.211161,-0.07675103,-0.96431416,-0.14107293,-0.8088628,0.29061225,-0.07406257,0.1334212,-0.3638719,-0.34464827,0.85167176,0.14005159,-0.367293,-0.054483898,-0.13263033,0.05903001,0.035053242,-0.48135617,0.097463846,0.4429475,-0.46660075,0.20509891,0.20104337,0.51315325,-0.46917042,0.43462625,-0.52555335,-0.02587896,0.08802371,0.317092,-0.167401,-0.60537654,0.27040654,-0.07931808,-0.2343667,0.0003543347,0.19467172,-0.2002641,-0.31331575,-0.09944792,-0.058107346,-0.13439131,-0.29920965,0.18779889,-0.14163655,-0.23765264,-0.043658957,0.20550506,0.0074780285,-2.6146138,0.10836713,-0.03543842,0.55808115,0.74217933,-0.13302946,0.1134242,-0.0032041594,-0.55680233,0.005562663,-0.24688698,-0.13879582,-0.29648274,0.2708083,0.0793195,-0.109981716,-0.10237398,-0.041663438,-0.13096318,-0.42083538,-0.0040443838,-0.033136025,-0.4704073,0.103181124,-0.17339796,-0.24068119,0.027125776,-0.04971111,0.22646588,-0.3921985,-0.58978033,-0.14773063,-0.567651,-0.60483485,0.0822473,0.14327607,0.013998821,0.5100534,0.25241387,-0.16491538,0.14772892,0.26235324,0.27552944,-0.07288312,-0.07330597,-0.33031827,0.3805558,-0.07441255,-0.14547336,0.10704014,0.790377,-0.023966871,0.076043345,-0.43836612,0.0146879405,0.6382348,0.19126987,0.15977484,-0.34460986,0.49158657,0.066912375,-0.0241669,0.108348496,-0.23726964,0.14428075,-0.6547349,0.19084239,0.005433608,0.3048847,0.16439465,-0.056174632,-0.21148407,0.4712419,-0.18005408,0.3172908,-0.33805785,0.06941054,0.24492216,0.044785194,-0.25577536,0.011656165,0.22550473,-0.5802679,-0.49025378
Oceania_10.png,-0.024101362,0.3864658,-0.39881417,-0.042741627,0.05404584,0.1304197,0.26275522,0.5515626,0.37526855,0.31850785,0.40959847,-0.23222159,0.60125566,-0.4821853,0.32298243,-0.19022247,0.14997646,0.031314194,0.014250189,0.17719984,-0.9457458,0.29178882,0.20492084,-0.040909074,0.11873616,0.009504445,-0.16548696,-0.31182078,-0.254228,0.08593613,-0.46163422,0.0023655891,-0.33056536,0.13665082,-0.20642824,-0.17719859,-0.4712189,0.115613215,-0.03689237,0.36436594,-0.41763306,0.5036889,0.4127645,-0.03657578,-0.017732374,-1.0100992,0.003986519,0.36730826,0.14564872,0.2552744,-0.028678954,0.24419755,-0.015843071,0.229214,0.073078565,0.12702675,0.32218102,0.2126692,-0.054816186,0.33986163,-0.95869684,0.23424381,-0.41671035,0.07208268,-0.012906842,-0.27672836,-0.46203363,1.3269669,0.033372834,0.052565202,-0.56461394,-0.31193167,-0.3708031,-0.054216832,-0.011914991,-0.30975914,-0.4090448,-0.56250703,0.17165916,-0.1874001,-0.061182596,-0.10565112,0.4640152,-0.03224024,0.22284743,-0.0960343,0.02367017,-0.29223067,0.6302039,-0.13965514,0.3971567,0.046704195,-6.2837553,0.34673023,-0.2910016,-0.09886759,-0.24078198,0.0028592795,-0.31898016,-0.17123334,0.40923443,0.06307402,-0.3980253,-0.18454485,-0.032602884,-0.23234545,-0.6035705,-0.14995174,0.54893917,-0.25691015,-0.015259981,0.39621812,-0.09939426,-0.14367679,0.15057704,-0.35265797,0.40708208,-0.21562882,0.06741517,-0.75349474,0.16014172,0.28718174,-0.08765067,-0.12813441,0.08942016,0.3877169,-0.17187715,0.21639702,-0.38867736,0.57742405,-0.06429879,-0.22371352,0.28278974,0.8462546,0.31997883,-0.09615664,-0.11972672,-0.32909718,0.29468113,0.18403831,-0.31059206,0.093766004,0.37833667,-0.26652932,-0.21812668,-0.109429955,0.10022971,0.10306339,-0.13294855,-0.19423614,0.23037387,0.122494586,0.5083106,-0.11881471,-0.36646438,-0.3183916,0.33164227,-0.25400388,-0.5954069,0.17016679,0.21911964,-0.09953286,-0.22349332,0.27748874,-0.26227844,0.47236001,0.35837758,0.5293197,-0.08282589,-0.18480247,0.16463539,-0.01821363,-0.18800783,-0.6828507,0.2009647,0.4000784,-1.3585806,-0.14385718,0.51240367,-0.21287271,0.06303987,-0.5247762,0.102353,0.28869903,-0.3288722,-0.11647661,-0.23401134,-0.060299464,0.24926615,-0.15606175,0.3868478,0.42421407,-0.069209844,0.2338525,0.10576765,0.31146902,-0.23189726,-0.19879991,-0.17324834,-0.16995919,0.08074877,-0.2787695,-0.01568377,0.26345587,0.50752795,-0.33770624,-0.34827906,-0.06737311,-0.062251568,0.29494825,-0.06167525,0.52583915,-0.3176654,0.26073307,0.2188994,-0.5829466,-0.40537798,0.52407134,0.34904537,-0.12383391,0.3338686,1.0245228,0.021293595,-0.45766973,0.2899854,0.4591651,0.04346879,-0.06316103,-0.30147374,-0.5324215,-0.17953482,0.010082066,0.3634615,-0.37560728,0.3418745,-0.016821928,0.15972313,0.026635215,0.0016639438,0.020707011,0.20493458,-0.21306357,0.589926,-0.08775535,-0.2761943,-0.6826012,0.051060133,-0.02121666,-0.12797435,-0.1395357,-0.3610874,-0.18136661,-0.071876034,0.12646656,0.0062420517,0.0047196746,0.07238401,0.3918267,0.68072355,-0.07317515,-0.034115195,-0.03196831,-0.523846,0.46481496,0.15342538,-0.01085642,0.006514782,0.4709747,-0.07778472,0.37959552,0.7497231,0.036103204,-0.18036294,0.28961256,-0.056078702,0.13837004,-0.23524156,-0.2739126,-0.23519203,0.09844082,0.8960182,0.27273965,0.3600847,0.12954128,0.10830425,-0.059263926,-2.1460772,-0.13137187,0.19257581,0.17983514,0.54169506,0.40405393,0.33524263,-0.029431581,0.07713707,0.15804088,0.5832284,0.2582125,-0.11723237,0.17310223,-0.22268209,-0.40729034,-0.32956517,0.09559733,0.013641857,0.6290294,-0.2546604,0.49503055,0.5484989,0.30508476,-0.22757633,0.23882863,0.84583163,-0.5385554,-0.10385623,0.23462445,0.86341184,0.529196,0.07981014,0.5243075,0.20154887,0.9938524,-0.41701353,0.11911313,-0.26431224,-0.34036037,0.39405328,-0.015412301,0.13670285,-0.042329684,-0.23742703,-0.411309,-0.24200271,-0.11900071,0.10270797,-0.2383227,0.42911702,-0.036754653,0.19352034,0.14504106,0.3072436,0.20687519,-0.0339,0.1370043,0.039317034,0.10614723,-0.41919,0.18838924,0.51239187,0.48888218,0.009768516,-0.2486268,0.4171097,-0.15712403,-0.030928686,-0.4916898,0.057369564,-0.044204295,-0.06805068,-0.23302606,-0.9754081,-0.09847121,0.22955035,0.79171556,0.075746305,-0.049098823,-0.40347266,0.55184364,0.34828696,-0.48745492,0.05876937,0.20772362,0.050192915,-0.07204965,-0.46052712,-0.4283271,0.98383653,0.24632093,-0.06500059,0.08250942,-0.27348545,-1.0200664,-0.2108022,-0.41164955,0.2554217,-0.25967497,0.25163063,0.111294046,-0.0044149356,1.1427923,0.52409357,0.25154874,-0.45464176,0.073021665,-0.43282875,0.30536935,-0.19224195,-0.17297289,0.042001806,-0.10815118,0.922337,0.20282978,-0.07340589,-0.62002194,0.21890895,-0.42365643,-0.49557972,0.07765248,-0.086017184,-0.31690666,-0.07516623,0.099297106,-0.4346981,-0.4951622,-0.2844859,-0.09477041,0.13664244,-0.059056558,-0.04650589,-0.42242527,-0.13000062,0.063414335,0.54521525,-0.43895543,-0.13537192,-0.19143847,-0.33488962,0.4883148,-3.3095677,0.22865492,-0.3613024,-0.05030492,0.6134778,-0.08898462,-0.113384485,-0.17692864,-0.30747467,0.041190103,-0.5008804,0.086527474,-0.017181814,0.2120724,-0.14224935,-0.0018133819,0.17181641,-0.037531093,0.21791428,-0.20422283,0.03365852,0.25893041,-0.2756307,-0.014900029,-0.026464775,-0.12216174,-0.07445437,0.19091198,0.43411684,-0.4594176,-0.54337806,-0.38210797,-0.2787356,-0.31375518,0.05335357,-0.34264052,0.05830524,-0.18280792,0.24942529,-0.18349662,-0.08201464,-0.18889919,0.4902581,0.22455412,-0.35103732,-0.78102136,0.30857855,-0.027017549,0.17256354,0.22798306,0.8875317,-0.015555546,0.29720724,-0.47593153,-0.08868187,-0.13059397,0.25040847,-0.24409069,-0.3890674,-0.028278634,-0.11497365,-0.13780108,0.43090606,0.11228961,-0.060238324,-0.3769526,-0.26343474,-0.23768559,-0.004895482,0.3764755,-0.04321592,-0.15146843,0.02740322,0.2064778,0.15468335,-0.1843759,0.37505502,0.34328103,0.06320475,-0.04825522,-0.11963703,0.23133454,0.033200257,-0.22903836
Oceania_31.png,0.06471787,0.5704905,0.079961546,0.2541966,-0.33390105,-0.12410139,0.3059402,0.32907555,0.030742109,0.36437607,0.42535505,-0.11309736,0.32127804,-0.4090918,0.31825,-0.051614247,-0.12365554,-0.0970668,-0.077832215,-0.012469441,-1.0498923,0.095656306,-0.13160697,0.017862111,0.32126224,0.09882745,-0.1470854,-0.2059918,-0.317025,0.29313505,-0.45361033,-0.02232999,0.015980221,-0.23916566,-0.15050787,0.06567313,-0.5895655,-0.2458189,0.17115015,0.18472382,-0.07653674,0.4884675,0.17221814,-0.31523654,0.20220688,-1.1412554,-0.010677112,0.35475513,0.3273188,0.116205245,0.24309589,-0.119925,-0.053587057,-0.040369373,-0.4000883,-0.42769778,0.13646594,0.25959533,0.23131405,-0.16928461,-1.1308112,0.18237317,-0.13076061,-0.10028829,-0.20889834,-0.1794052,-0.3424858,0.96897334,-0.14334096,-0.51518476,-0.52142704,-0.27938154,-0.47923112,-0.1654043,-0.1251086,-0.27067146,-0.2003246,-0.5680666,0.18615143,-0.27363196,0.13415018,-0.34307772,0.07931108,0.16378768,0.5144803,-0.1853983,0.13540407,-0.07573606,0.50978285,-0.16987737,0.3314535,0.11276509,-6.6099534,0.37198448,-0.2889554,-0.13028061,-0.26682147,0.1749947,-0.41368598,-0.27894217,0.24430671,-0.1271346,-0.19073531,-0.11275807,-0.09390108,0.27375162,0.082589716,-0.040054604,0.48218638,-0.15852724,0.18598005,0.12410959,-0.42657298,-0.15227117,0.2537008,-0.493908,0.5642536,-0.00945127,0.114933,-0.96606016,-0.12005788,0.09635013,0.016135804,-0.2546184,0.022244614,0.4067554,-0.111938685,0.229729,-0.33285463,0.606549,0.0865929,-0.118797906,0.34184292,0.8696575,0.33660775,-0.33640075,-0.096486405,-0.3587849,0.40825367,0.46244678,-0.10856658,-0.032308564,0.3857406,-0.20995551,-0.1730383,0.06256222,-0.07783362,0.2823341,-0.02430654,-0.2737719,0.110756345,0.07391791,0.2715969,0.01038979,-0.20072621,-0.10000951,0.46599406,-0.02377104,-0.54836714,0.2413708,0.22252151,-0.31917405,-0.17199437,0.07436174,-0.15517858,0.5618841,0.021108944,0.3844421,0.0108422935,-0.4725349,0.26855892,-0.1279757,-0.36544025,-0.34020132,0.09340215,0.030096292,-1.2634825,-0.18807843,0.23707479,-0.1552019,0.00056794286,-0.7596061,0.30779088,0.32995445,0.029988142,-0.11436765,-0.10433252,0.14959571,0.27622736,0.012438871,0.23128396,0.42574084,0.24580455,-0.05141885,-0.36032888,0.35490376,-0.41687864,-0.48042816,-0.14567411,0.10459757,0.025147945,-0.41706324,0.49456042,0.1961855,0.5336441,-0.15908617,-0.22278889,-0.08252083,-0.11104281,0.31662813,0.03440556,0.7652718,-0.10306231,-0.09871515,0.3687408,-0.44761142,-0.27586353,0.31260708,0.44407627,-0.18419982,0.49749303,0.86133957,0.056785934,-0.7420436,0.10789107,0.35422972,0.6803041,-0.06765652,-0.3691959,-0.46655154,0.010114303,0.07038006,0.22471061,-0.6608625,-0.0073126033,-0.02083369,0.2307356,-0.112369955,-0.019238636,-0.425019,-0.1434026,-0.1123516,0.78181016,-0.288921,-0.43759272,-0.38354203,0.0045344243,-0.1951184,-0.077651024,-0.09634434,-0.14428961,-0.26736876,0.044229507,-0.22253767,0.046849407,-0.24036252,-0.09961812,0.26593626,0.5247336,-0.2025997,0.029717535,0.16973183,-0.5716265,-0.030733854,0.10275843,0.13940683,-0.15533923,0.3119121,0.19875306,0.4883291,0.48093015,-0.22501355,-0.43029824,0.08073008,-0.30777484,0.11985755,-0.25833252,-0.5439955,-0.05609436,0.113609135,0.6511269,0.24761826,0.38783598,0.24566019,0.08027286,0.032599255,-1.8360195,-0.15180668,-0.015935764,-0.3085,0.14671893,-0.08394855,0.2870652,0.036617782,-0.022374816,0.4565106,0.41526926,-0.014557649,-0.061317034,-0.11003473,-0.32435283,-0.29569167,-0.4723805,0.24769732,0.07508987,0.3121584,-0.106656,0.5829243,0.30974567,0.005065277,-0.40475035,0.29220688,0.8688163,-0.41001403,-0.06713532,0.6533705,0.48209703,0.6516534,0.19428553,-0.16878814,0.0113707185,1.7365599,-0.17558855,0.111772545,-0.08873287,-0.23808594,0.11283017,-0.1634027,0.065984234,0.042690217,0.034206808,-0.3884846,-0.14499293,-0.18963942,0.18837112,0.16606109,0.6032295,-0.029184379,-0.078912534,-0.17088346,0.2797917,0.050645575,-0.0024901293,-0.16671185,-0.015286807,0.42064607,-0.5364469,0.6005195,0.40283653,0.5485803,-0.15805133,-0.23261514,0.5201311,-0.2601418,0.0567052,-0.47081313,-0.12299956,-0.28134912,0.09176122,-0.034813784,-0.68975145,0.110868454,0.11923367,1.036992,0.004795909,0.087007225,-0.56207514,0.779724,0.31832296,-0.29252437,-0.009124234,0.18480459,-0.28526855,0.03519009,-0.32694656,-0.14992574,0.85266846,0.012164168,-0.19147795,-0.20306446,-0.39794338,-0.9332314,-0.32357338,-0.6954515,0.41701847,0.013960019,0.16608337,-0.27384764,-0.31906855,1.6702003,0.81570566,0.17516199,-0.04104565,0.18904921,-0.24041048,-0.031419113,-0.42297497,-0.042305097,0.2020542,-0.2849289,0.61933863,0.44996032,0.6679235,-0.5803968,0.3737817,-0.53996533,-0.22882223,0.14247899,0.0822848,-0.35789376,-0.23653445,0.34006798,-0.25105923,-0.56483126,-0.16629577,0.052989766,-0.059082672,-0.42057207,-0.069296926,-0.44836622,-0.16178334,-0.08151682,0.3405071,-0.14719567,-0.27851808,-0.00074511394,-0.055098005,0.19732182,-1.9147042,0.08723207,-0.42458886,0.23434238,1.0243646,-0.2879113,-0.033587545,-0.41949067,-0.3619038,-0.00022874027,-0.09201786,0.27942023,-0.20994031,0.37689686,-0.016468666,0.28499445,0.27586657,-0.36529905,0.25906253,-0.25769836,0.22968353,0.3500841,-0.106456146,-0.079858765,-0.17933309,0.08027851,-0.3096025,0.47296792,0.24466257,-0.500224,-0.5052209,-0.6919217,-0.30061936,-0.49331975,0.17192835,-0.2548841,0.14578584,0.20142874,0.3945347,-0.21599701,-0.39148116,-0.016631644,0.6739848,0.14309177,-0.3812817,-0.6158862,0.53870916,0.14870939,0.046549015,0.07397907,0.61916435,0.03060852,0.23397166,-0.38833696,0.03526429,0.3165975,0.63229716,-0.08433376,-0.30822006,0.36495802,0.09211911,-0.09728759,0.5627533,0.10444281,0.19920504,-0.61010253,-0.16969018,-0.3805007,-0.009883478,0.45825958,0.13380337,-0.033637345,0.47023147,-0.11020001,0.23378327,-0.13751414,0.6107235,0.40846264,0.108408466,-0.0036071837,-0.12921895,0.15277098,-0.13426666,-0.64976716
Oceania_38.png,-0.27605218,0.493214,-0.05189857,0.26583767,-0.09606455,-0.0124323815,0.023377746,0.2446186,0.2828738,0.37416002,0.29174757,-0.2693607,0.564811,-0.5638546,0.293786,-0.07612256,0.27962396,-0.18899897,0.14061657,-0.20113048,-1.6248686,-0.09416126,-0.03714802,-0.07816244,0.34930307,0.15914077,-0.111747146,0.018784426,-0.44295454,0.0021784306,-0.5264407,-0.12482332,-0.19212289,0.060038414,-0.0683597,-0.05856304,-0.28794366,-0.012980387,0.015260555,0.8503568,-0.036462072,0.27690747,0.07351772,-0.2377511,-0.08479327,-1.5915582,0.05849147,0.32408884,0.146287,0.20042823,0.045922905,-0.29211354,0.004381839,0.11193912,-0.05407539,0.11077084,0.2548831,0.10603365,0.13355164,0.13071594,-1.1349423,0.16574253,-0.22327994,0.08462475,-0.22005248,-0.17360532,-0.59452,0.9492146,-0.25659788,-0.49200886,-0.28681132,-0.24806508,-0.49414057,0.22972155,-0.008910834,-0.46799523,-0.3071444,-0.5394826,0.021521881,-0.56752443,0.07599431,-0.3022791,0.07827683,-0.011147884,0.06750377,0.09468807,-0.17188588,-0.09377812,0.51095295,-0.25560975,0.56728834,-0.031170309,-6.6431584,0.11764035,-0.20518777,-0.23531061,-0.22665787,0.028068751,-0.652874,-0.1298825,0.27984524,-0.0117896125,-0.31934863,-0.070180744,-0.19594698,0.28101635,-0.057460025,-0.13698243,0.08052756,-0.25913206,0.55039054,0.015200295,-0.10642377,-0.18514097,0.39345285,-0.48294082,0.64181423,-0.12197784,0.19398801,-1.0408791,-0.070212804,0.3554983,-0.11176276,-0.39517784,-0.14563973,0.035625085,-0.14877486,0.21443509,-0.16421393,0.54830134,0.005674593,0.09156802,0.15330762,0.8497783,0.12837991,-0.0694287,-0.21219313,0.04579243,0.53595185,0.32212916,-0.33377302,-0.12289484,0.19178993,-0.45600373,-0.015713125,0.01569121,0.056346513,0.001453191,0.004355791,-0.37018993,-0.08511158,0.00457339,0.7754324,0.14280625,-0.16230452,0.013905428,0.28660923,-0.15119702,-0.32938662,0.24035764,-0.015216792,-0.1575682,-0.19300777,0.12511168,-0.27088016,0.191661,0.23098436,0.5584623,0.023792528,-0.23023434,0.11661077,-0.20148869,-0.47072828,-0.48477513,0.05829148,-0.2551408,-1.4938295,-0.26611418,0.16202205,-0.23362774,-0.22628555,-0.87359136,0.05462307,0.33017024,0.0036525577,0.06011326,-0.24282494,0.036350764,0.092554405,-0.0675222,-0.06615974,0.42412454,-0.015964776,0.14765899,-0.26297957,0.37991655,-0.5987513,-0.20161997,0.14084701,0.13316248,0.036411196,-0.46571183,0.023103893,0.1786711,0.46460328,-0.45334196,-0.360983,-0.32496977,0.07072486,0.1365861,0.048244283,0.40050063,-0.01075618,0.18072248,0.3516662,-0.34928817,-0.58809036,0.54275596,0.3983951,-0.08689094,0.19577456,1.0297109,-0.20738974,-0.35315806,0.12369348,0.42378542,0.3650383,-0.015471205,-0.42063996,-0.39388406,0.069255345,0.089362636,0.009821296,-0.5462185,0.29950044,0.30412304,0.27471375,-0.11339991,0.013637874,-0.20538536,-0.14118117,0.004420124,0.7232164,-0.20473672,-0.42382115,-0.32454726,-0.13625711,0.13435908,-0.1313704,-0.13242105,-0.31613183,-0.08641274,0.11755605,0.27864164,0.015772294,0.21227871,0.2207918,0.46187475,0.34898698,0.058631293,0.1364997,0.22164795,-0.526823,0.4550189,0.016034514,0.06264613,-0.22154272,0.3715338,0.23613575,-0.018134244,0.5043059,-0.08663488,-0.48651767,0.22484523,-0.34934902,-0.082147874,-0.35036308,-0.517511,0.03267204,0.48144606,0.5253141,0.28080326,0.582816,0.191475,0.14488783,0.21173637,-1.7151327,-0.1934485,0.083567716,-0.11207946,0.32601026,0.41660896,0.44104382,-0.14611295,-0.041090976,0.4331594,0.29095778,0.07895857,0.34570482,-0.1597908,-0.008054595,-0.14478436,-0.47054112,0.12581477,0.15050858,0.29551196,-0.24184902,0.40120435,0.49509364,-0.098170266,-0.29139945,0.1648087,0.8487621,-0.60191417,-0.096637204,0.22968693,0.5826864,0.479984,0.34658378,-0.0003280809,0.29459205,0.7960571,0.0721174,-0.20821716,0.0041124225,-0.13353972,0.123489246,-0.27541327,-0.03188667,0.008594781,-0.06199397,-0.30917916,-0.326883,-0.2911925,0.23745948,-0.025068864,0.40043318,-0.16135024,0.16255912,0.047547907,0.28363955,-0.15192053,-0.05879306,-0.079416506,0.27572688,0.7057412,-0.5733578,0.65422004,0.5977017,0.38974392,-0.17131108,-0.3375835,0.64826304,-0.30398038,0.010490343,-0.5729457,-0.054621257,-0.2086001,0.084300175,-0.21008354,-0.53222066,0.053290308,0.14467777,0.98937035,0.038672477,0.14702515,-0.65939415,0.380696,0.2554644,-0.19443229,-0.059252277,0.14757851,-0.1191676,-0.1998088,-0.28857782,-0.41264197,1.1256542,-0.08991744,-0.13561663,-0.42304498,-0.29763106,-1.1353397,-0.037258107,-0.8783407,0.13620065,-0.1680928,-0.04037299,-0.13798042,-0.2635398,0.7268966,0.7401289,0.42889464,-0.05262044,-0.26393354,-0.3536919,0.13619147,0.03263829,-0.012897536,0.28920487,-0.18573697,0.8648703,0.67335016,0.2557906,-0.37685433,0.5009839,-0.4634232,-0.37283066,0.2514662,0.51206654,-0.16205424,-0.18109329,-0.00972363,-0.39702433,-0.560781,-0.2096976,0.04563512,0.31903252,-0.025965676,0.0952885,-0.3456686,-0.0461027,-0.28335497,0.53204626,0.013359405,-0.60890156,-0.06514484,0.030882305,0.45892736,-2.6827927,0.18049246,-0.5055892,0.30945832,1.1610023,-0.27421921,-0.094099656,-0.36209983,-0.38491428,-0.05750434,-0.49257445,0.1647014,0.33476216,0.4708776,-0.097101144,0.08698505,0.042450964,-0.16321303,0.14384533,-0.0114728585,0.17526744,0.24710436,-0.338586,0.01422485,-0.1943601,-0.5918664,0.051588982,0.24801321,0.23185852,-0.6819787,-0.46002483,-0.7502011,-0.22973369,-0.21812516,0.16571292,-0.34816593,0.16366172,-0.11330107,0.075272575,-0.30323392,-0.36423227,0.16697866,0.36333382,0.09456822,-0.06355973,-0.5300684,0.13296713,-0.027173959,0.17638257,0.2092445,0.7468116,0.10255134,0.06658805,-0.22128427,-0.02552519,-0.09762889,0.31934544,-0.23167633,-0.62533855,-0.034693778,0.03361445,-0.13182998,0.38059694,0.08304552,-0.14537267,-0.95963293,0.056351557,-0.18660061,-0.3342744,0.26791722,0.16964729,-0.01931341,0.22868814,0.2413014,-0.06437503,-0.105015606,0.28414738,0.28893474,0.12320987,0.062215805,-0.156692,0.44339192,-0.14506909,-0.57231975
Oceania_47.png,-0.3979143,0.45734614,-0.19104606,0.17820746,0.32501504,-0.35085964,-0.030597642,0.4487189,-0.5459003,0.55786806,0.3680146,-0.4925562,0.6943457,-0.5419251,0.06507462,0.03969589,-0.42602253,0.067163214,0.50913393,0.09317497,-0.81952244,-0.031283498,0.014308453,-0.034446076,0.18917859,-0.19090125,0.117083445,-0.43499908,-0.25942227,0.44383118,-0.54203326,0.24970216,-0.17062329,-0.4204678,-0.10764967,-0.14107697,-0.14068991,-0.12784325,0.1173597,0.52775216,0.040746395,0.37748098,0.3255646,-0.116702646,-0.26693535,-0.57096505,-0.1354704,0.18222845,0.18513215,0.044143543,-0.03275787,0.008038348,0.09668832,-0.028612241,-0.21056713,-0.17990604,-0.17763509,-0.047235213,0.24268758,0.28815222,-1.2993754,0.37485704,-0.113762975,-0.12647595,-0.20042297,-0.17537652,-0.589674,0.55871165,0.10257375,-0.16160057,-1.0279665,0.31693268,-0.6335337,0.12000319,-0.057944037,0.21731879,-0.35819414,-0.7015859,-0.21636482,0.033704508,-0.053169046,-0.31500176,0.43656597,0.013654113,0.3718668,0.266861,-0.42262733,-0.46847856,0.45519602,-0.15595885,0.3788181,0.17598158,-6.468105,-0.08426666,-0.18566136,0.07751371,-0.29260635,0.24942353,0.21370482,-0.5458795,-0.30379286,0.041173197,-0.42813432,0.08051218,-0.34832922,0.12941593,-0.6005955,0.36069253,0.05218083,-0.055246368,0.16430138,0.34657905,-0.5971258,-0.08653656,0.0985038,-0.16344684,0.063923195,0.1166775,0.06751686,-0.5868971,0.15400848,0.22549336,0.2666583,0.05712154,0.10641584,0.3549948,0.1508142,0.14986925,-0.23404963,0.80894715,-0.1450294,-0.51547086,0.23402692,0.8944888,-0.027642962,-0.25311506,-0.23511873,-0.14798693,0.55516076,0.0017884299,0.03344257,0.109078705,0.5690841,-0.30653697,-0.30172426,-0.09146345,0.32129073,0.24679375,-0.076716036,-0.14252764,0.09171341,0.19660877,0.014585055,-0.35932842,-0.34218583,-0.28509516,0.39371762,0.31183866,-0.562157,0.25660506,0.40197206,-0.23477405,0.16648564,-0.0734453,0.12656465,0.37233305,-0.13960111,0.4294731,-0.14284098,-0.5504085,0.19605973,-0.06272342,-0.21369466,-0.30335256,0.03770999,0.27978736,-1.0863804,-0.32848805,-0.24324912,-0.13755113,0.18601027,-0.59417003,-0.03205196,0.012967229,-0.023308441,-0.10307336,0.24395636,0.3195561,-0.3638828,-0.15017112,0.5016254,0.25736478,0.19838862,-0.1149073,-0.5234879,0.097037405,-0.13943201,-0.0661952,-0.33865702,-0.075124405,-0.15837052,-0.31523472,0.2828115,0.5572314,0.5136929,-0.5269233,-0.09413682,-0.27973467,-0.107989684,0.16885959,-0.011960931,0.3891137,-0.2028289,-0.13708858,0.10951725,-0.2703189,-0.3613864,0.039661877,1.073082,0.14171438,0.2140302,1.2536147,0.22811675,-0.38600624,0.60547143,0.27871376,0.2900131,-0.011155248,-0.14535049,-0.41177145,-0.17457928,0.039192393,0.20145263,0.045010403,-0.04957896,0.7988657,-0.05546936,0.4171068,0.20461033,-0.3526384,0.3327303,-0.031611137,0.4303059,0.1431643,-0.11965974,-0.46683574,0.08988635,-0.2709159,0.10526898,-0.33717746,-0.2515906,-0.7049779,0.11956044,0.35834244,-0.014515765,-0.11179279,-0.038516134,0.40074378,-0.99253035,0.28284732,-0.014925167,0.21049377,-0.24180192,-0.11517084,0.3208005,0.13999625,-0.30912375,0.3279675,-0.1322052,0.28899828,0.3223414,-0.078452736,-0.44670773,0.19752812,0.33990967,0.38721463,-0.5792046,-0.37623477,-0.15270942,-0.36619434,0.49385118,0.068362504,0.48362625,0.10671407,0.40009516,0.17521498,-0.92424685,-0.14540258,-0.25695986,-0.017406523,0.53916705,-0.27544054,0.4845081,0.03598862,-0.062953964,0.12665913,0.0015975833,-0.059157096,0.357602,-0.07285929,-0.12072764,-0.18834102,-0.08830747,0.38943982,0.22384419,-0.10855465,-0.5476583,0.46266344,0.4646695,0.07901642,-0.14438835,0.33776152,0.89241606,-0.19362858,-0.114673145,0.630888,0.5110078,0.7041976,0.28435367,0.27453157,0.2413634,1.391141,-0.16825904,-0.10958837,-0.2702251,0.15013638,0.52306366,0.13216089,0.31304893,0.008854091,0.06161116,-0.20750993,0.0519211,0.068879105,-0.2116218,0.3635917,0.40353888,-0.10748021,0.29482573,0.016985476,0.20169172,0.0862792,-0.1582759,0.18438448,0.03530906,0.024061346,-0.51424956,0.37034634,-0.025023412,0.22460315,-0.2040548,0.26116648,0.07132214,-0.1327898,0.21114399,-0.5783966,-0.15830496,-0.38798034,-0.13949254,0.18878308,-1.071569,-0.107609145,0.15215865,1.0494683,-0.19252884,0.13808587,-0.45385277,0.48587158,0.41782486,-0.7108304,-0.06992082,0.08160208,-0.26462483,0.16930732,-0.09038253,-0.18801719,1.3234977,-0.22547995,0.41253522,-0.27088362,-0.2310487,-1.2226288,-0.09816981,-0.9086021,0.542146,-0.3060466,-0.100903034,0.16692525,-0.4344323,0.8047766,0.018080238,0.119985335,-0.14139059,0.22347298,-0.7813138,-0.08422877,-0.6812893,-0.065403916,0.28989398,-0.40133768,0.20136409,0.21644053,-0.6555405,-0.3964467,0.005456269,-0.3966726,-0.4221184,0.0065603703,0.14174286,-0.5635015,-0.5627305,-0.07998261,-0.35309088,-0.40315595,-0.21205245,-0.12347646,0.10773738,0.014358191,-0.24045636,0.017227978,0.037822634,-0.41555887,0.33114153,-0.03370004,-0.14476068,0.091808766,-0.1968405,0.12212366,-1.3009605,-0.36963725,0.14602059,0.014590815,0.09056611,-0.14123559,-0.40323704,-0.22468057,-0.32954106,-0.18729189,-0.25724274,0.14130543,0.076568045,0.4106624,0.5697566,-0.06938949,0.14112918,-0.73156965,0.14445986,0.019361004,0.055987835,0.08641068,-0.10277152,0.19207394,-0.0014147386,-0.09273229,-0.21916084,0.3886235,0.50527185,-0.46862996,-0.5623011,-0.15006112,0.04784409,-0.64620334,0.23921257,-0.52563286,0.048112474,-0.34835094,0.37452894,-0.3089542,-0.044600412,-0.24062456,0.3309924,0.3525554,-0.08189289,-0.57225835,-0.10836835,-0.08641748,0.0062235445,0.032336235,0.35910726,0.32884127,-0.09824878,-0.4187713,-0.14255401,0.3754344,0.37109452,-0.21711017,-0.3165267,0.41937238,-0.10703881,-0.09672163,0.42623734,0.10188148,-0.11152852,-0.35995817,0.1917859,0.28689516,-0.103873044,0.4844951,-0.26292485,-0.44743717,0.4294268,-0.036034808,-0.24785285,-0.073292404,0.46743047,0.40849796,-0.12595582,0.16732688,-0.09821894,0.34811598,-0.07855358,-0.07454696
Oceania_22.png,-0.06891759,0.48845336,-0.29567438,0.011828447,-0.1324009,-0.14941569,0.24873784,0.2713732,0.19139302,0.15173717,0.21494852,-0.31422812,0.7193287,-0.3406139,0.08370153,-0.014285371,0.22345982,-0.040115878,0.15330246,-0.24167815,-1.3807113,0.20832248,-0.11559151,0.00080791116,0.10279725,0.21158592,-0.23435329,-0.3334386,-0.4553032,0.34873998,-0.47202018,-0.12218397,0.18955979,-0.10513893,-0.18763877,0.118589655,-0.56182534,-0.22135597,0.48020265,0.23227637,0.053257555,0.08437264,0.2596856,-0.28152215,-0.10309254,-0.7821078,0.19565731,0.3208366,-0.087306224,0.18264431,0.10421081,-0.09878873,0.165448,0.045579676,-0.044888616,0.25209862,0.0761341,-0.0017177165,0.32141984,0.05342772,-1.072863,0.17741704,-0.146022,-0.010088336,-0.2101449,-0.22501507,-0.6935861,0.93000185,-0.37031054,-0.29519126,-0.78673077,0.049031842,-0.5050558,-0.027934358,-0.20568678,-0.31956786,-0.42084756,-0.6039219,-0.00465066,-0.35289425,0.50221384,-0.238475,-0.119575456,-0.122363806,0.15114479,-0.22773805,-0.57290083,-0.026009604,0.18656486,-0.1423611,0.38990468,-0.37184793,-5.8265047,0.60102147,-0.33994174,0.06301257,-0.086535454,0.24940132,0.17733358,-0.22142753,-0.011051875,0.25829685,-0.36241898,0.037174,-0.209005,0.3207053,-0.085841626,0.03218706,0.530348,-0.18354873,0.48729378,0.17163453,-0.20037812,-0.19080761,0.47095427,-0.7462936,0.4961396,-0.333119,0.32697743,-0.7500798,-0.28427547,0.14063945,-0.2972546,0.058117896,-0.1689856,0.49088246,-0.09327406,0.4060706,-0.34237447,0.7348583,-0.056547888,-0.2121853,-0.07875247,0.8644638,0.2859293,-0.1852736,-0.3002892,0.25911117,0.7071637,0.316778,0.12497946,-0.19169362,0.085933164,-0.097426474,-0.293554,-0.08152353,0.019396082,0.4124351,0.0768692,-0.31742197,0.29014307,0.12551662,-0.19028577,-0.35203642,-0.1032169,-0.07002694,0.28229564,0.012315594,-0.5014972,0.42750353,0.23345521,-0.15235633,0.03563252,0.09917931,-0.3844205,0.54078144,0.5769588,0.26719993,-0.08893432,-0.31357008,0.13309476,-0.24295287,-0.32803544,-0.34691566,0.028880814,-0.0098980665,-1.477981,-0.06600405,-0.47588176,-0.03641426,0.280869,-0.47597432,0.25527132,0.21795784,-0.078943744,-0.03634766,-0.14543013,-0.01504226,0.3714422,-0.1294209,0.14412332,0.679513,-0.18875794,-0.05733365,-0.23717426,0.2395613,-0.5874526,-0.31479114,0.08758111,0.21929002,0.08307576,-0.11268285,0.4004509,0.3481036,0.50429845,-0.11614071,-0.51713896,-0.29400617,0.09480736,0.18548526,-0.08669563,0.7908992,-0.49812907,0.11495021,0.3141039,-0.42551836,-0.48993945,0.19331321,0.30079305,-0.22079389,0.3873626,1.1134971,-0.21573052,-0.7361745,0.59298575,0.71994776,0.58687437,0.023833156,-0.13405757,-0.48586938,0.23400028,0.017542094,0.063778594,-0.51958436,0.13513352,-0.0032994458,0.09599736,-0.065221086,-0.0251861,-0.093252346,0.12490732,-0.06083222,0.3003584,-0.18965405,-0.02529426,-0.6250327,0.07232882,-0.077635296,-0.028990783,0.20670469,-0.14729293,-0.17435199,0.12398997,-0.086998664,0.047005657,0.11153649,-0.104173705,0.10222084,0.40573066,-0.04721991,0.23679544,0.13047388,-0.78382075,0.17696911,0.20813191,0.364226,0.20744678,0.3783937,0.15128501,0.23225321,0.45887285,0.033599243,-0.5463311,0.3575838,-0.30199826,-0.20864347,-0.41243604,-0.4027075,0.1551266,0.034825902,0.68976736,0.26285103,0.5551074,0.20668598,-0.023189723,-0.041585337,-0.8704907,-0.42809832,0.12674467,-0.15566294,0.3904563,0.013721168,0.45232013,0.2916961,-0.036282063,0.039049476,0.58652765,0.05528795,0.09765594,0.116140455,-0.16169208,-0.45143446,-0.38093072,0.2865707,0.07819218,0.27667966,-0.09960775,0.34790626,0.37345248,0.24372423,-0.49413043,0.22620569,0.8628674,0.0040418953,-0.0810717,0.37612408,0.40143728,0.8136071,0.085005425,-0.032606825,0.30566773,1.5843704,-0.107244045,0.25996223,0.08415948,-0.43042052,0.20471157,-0.23642752,0.38775367,0.08973816,0.019319177,-0.200431,-0.017732859,-0.10813143,0.3148315,0.15105742,0.48128563,-0.082641155,0.23198655,0.039024875,0.36146125,0.1054905,-0.0970597,0.13452695,0.2601169,0.23602,-0.42628598,0.74338233,0.45507824,0.54690534,-0.07384917,-0.40148836,0.5359261,-0.08427946,-0.107166275,-0.54830575,-0.06913081,0.38250142,0.020331338,-0.13306168,-0.700102,0.0994546,0.012606315,1.0932126,-0.40922892,0.02130086,-0.44058108,0.3889066,0.29166082,-0.5220946,0.10716109,0.26180464,-0.14502446,-0.22866447,-0.015053451,-0.060741007,0.7755787,0.06971227,-0.40355217,-0.06107184,-0.10568026,-0.8997785,-0.44642723,-0.67826194,0.49956435,-0.12772205,0.07229971,-0.112190485,-0.17109586,1.6884265,0.5422973,0.13316517,-0.13361725,-0.059344143,-0.40055746,-0.1343559,-0.53573275,0.04259284,0.033936843,-0.40862298,0.43497002,0.5072668,-0.0059133843,-0.54610264,0.26832995,-0.41014087,-0.28894982,0.20369118,-0.13093384,-0.049999334,0.37393796,0.07850134,-0.27719384,-0.6303734,-0.028753169,0.16031505,0.3081842,-0.27082106,-0.063904166,-0.18394607,-0.10586579,0.022516973,0.44834855,-0.1457856,-0.09956333,-0.33348805,0.28209454,0.2538917,-1.5155888,-0.0891494,-0.17044729,0.06833404,1.1916604,-0.30917495,-0.18589528,-0.32472923,-0.43838155,-0.17672959,-0.13178441,0.095314056,-0.039758652,0.1193934,-0.34437564,0.10007587,-0.025057599,-0.18523458,-0.024839751,-0.557791,-0.1905899,0.0790282,-0.6355258,0.14022231,-0.0965449,-0.22799172,-0.06619793,-0.011244014,0.3095589,-0.5016278,-0.588312,-0.69879806,-0.13037919,-0.48581585,-8.517504e-05,-0.37463453,0.08655134,-0.011854053,0.061739005,-0.13149333,-0.26878956,-0.1541654,0.33282262,0.16808024,-0.2804463,-0.79735625,0.30605304,0.14822349,-0.13039443,0.37909117,0.4627456,0.092825815,0.42992553,-0.6326776,0.08592004,0.036896255,0.26975363,-0.17084253,-0.54120713,0.16987526,-0.30544186,0.018178046,0.42959014,0.11414139,-0.012179781,-0.74916375,-0.22737825,-0.12936758,-0.04067687,0.1002288,0.08469687,-0.14075379,0.28007966,0.004934784,-0.077445924,-0.22094308,0.16221888,0.34089786,0.045977235,0.012416631,0.1566486,0.38764107,-0.21996987,-0.4226038
Oceania_19.png,0.06017813,0.38955247,0.13978657,-0.098930135,-0.4527195,-0.495605,0.21184196,0.4559271,0.208934,0.24403146,0.45973992,-0.013796132,0.36704537,-0.4927868,0.20625015,-0.18533939,0.08563643,0.1104425,-0.10097527,-0.10724937,-1.7078717,0.43345624,0.28108463,-0.05271627,0.15623541,0.056940667,-0.0031936541,-0.029562047,-0.27779633,0.50601476,-0.489355,-0.058040828,0.13139403,0.013865866,-0.25912195,-0.10066833,-0.5057196,0.22738692,-0.0059939176,0.7964558,-0.45691833,0.47851983,0.5401453,-0.073501185,-0.06717759,-1.0389997,0.32336017,0.24203965,0.3655189,0.24130125,0.3643903,0.020753134,0.03335587,0.17522222,-0.3286239,-0.08780414,-0.014431179,0.4010982,0.024992526,0.13779697,-1.307081,0.095386416,-0.3314603,-0.19074503,-0.09484655,-0.17144728,-0.27291447,1.4077507,-0.26407695,-0.09274864,-0.39845747,-0.16740695,-0.3865922,0.033615146,-0.017598055,-0.2850956,-0.28327453,-0.59481907,0.074908495,-0.19547993,-0.021108307,-0.34812993,0.2704356,-0.5120667,-0.13669096,0.08097951,-0.6377884,-0.29010725,0.05741957,-0.30475616,0.6950708,-0.09032877,-5.841948,0.07327136,-0.6797454,-0.038303513,-0.3766705,0.09935492,0.009403363,-0.52027804,0.1182397,0.1310972,-0.38928574,0.18035074,-0.14117727,0.08814156,0.89323765,0.19297758,0.37079576,-0.16045551,0.5140688,0.50151587,-0.3314796,0.10972672,0.5280115,-0.60981035,0.18607712,-0.2014959,0.18865182,-0.45583367,0.046353016,0.35113135,-0.025655538,-0.2412352,-0.09972861,0.2796881,-0.12120378,-0.3897137,-0.27642983,0.77171195,-0.05616185,-0.26453,0.1873748,0.85165375,0.19972512,0.049831763,-0.13135178,-0.00094529986,0.38654846,0.12772404,-0.06806964,-0.062363416,0.90298015,-0.28814209,-0.09874381,-0.30529627,0.42038223,-0.2215443,0.0066466257,-0.032997906,-0.22382522,0.059499368,0.46676287,0.24095893,-0.36773002,-0.5023151,0.43008348,-0.10197019,-0.56250775,0.30933833,0.1450634,-0.34908104,-0.050446607,0.32982963,-0.29383036,0.6128253,0.41187042,0.42894408,-0.20261341,-0.37016535,-0.02309654,-0.011597469,-0.22355135,-0.31436568,0.024796482,-0.2477727,-1.1544572,-0.13948087,0.46175823,0.1936709,0.38165766,-0.3822314,0.30338904,0.563164,-0.2043334,-0.15371753,-0.05364202,0.08231473,0.28435892,0.16583404,0.30763325,0.49613082,-0.09500384,0.04130301,-0.0016286336,0.20116134,-0.33553785,-0.13184403,-0.12124553,0.22975668,-0.069333926,-0.48331493,0.6131673,-0.07866421,0.8075461,-0.29385248,-0.10790108,-0.023478972,0.19347388,0.1866056,0.31500703,0.39647752,-0.35792398,0.35181683,0.19366713,-0.27816045,-0.13538426,0.5226907,0.5393242,-0.38590288,0.46129295,0.89970946,0.05644287,-0.51048577,0.39976692,0.39170712,0.07984019,-0.23019649,-0.24453211,-0.39863202,-0.031748246,-0.20914981,0.25823787,-0.11731213,-0.0068829022,-0.38549596,0.04086885,0.045927174,0.026024219,0.07641269,-0.022093296,-0.13670225,0.4314453,-0.063362464,0.04647678,-0.41334346,0.0068513006,0.3231334,-0.04682432,-0.08923515,-0.46564662,-0.12683648,-0.077233344,-0.19621895,-0.032304335,0.2978578,-0.29992354,0.13819095,0.8928232,0.12658137,0.40735894,0.060207225,-0.3753245,0.036113814,-0.26109853,0.022717267,-0.11801812,0.39303237,0.11734335,0.30138677,0.22934441,-0.34320283,-0.46807408,0.41210037,0.179131,0.16897151,-0.34928033,-0.46176782,0.00067169964,0.14752905,0.8053411,0.13017784,0.1595074,0.18107422,-0.15123987,0.11084859,-1.0002335,0.060445786,0.2198797,0.048418835,0.061690867,0.054007426,0.4507331,-0.18871957,0.011831716,0.6037096,0.6418236,0.01188349,-0.024822235,0.013070151,-0.15646617,-0.3263982,-0.36703086,-0.034307778,-0.17077884,0.27867797,-0.29633188,0.12354981,0.51363856,0.07525319,-0.29671454,0.147798,0.8505139,-0.48476118,-0.16538766,0.2052702,0.71714556,0.6034596,0.13454548,-0.10326935,0.59816605,1.5315084,-0.3527168,-0.09314018,-0.010212913,0.080976136,0.3666861,-0.08646714,0.061939865,-0.075193,0.20668717,-0.27132982,-0.42256546,-0.6558723,0.059671983,-0.034932703,0.50421035,0.15228465,0.036506247,0.09829004,-0.031997263,-0.43031752,-0.28568918,0.06811306,-0.049261592,-0.12762523,-0.66308796,0.03907536,0.37933066,0.34560743,0.2326729,-0.27755424,0.38324302,-0.42923534,-0.29214233,-0.13465627,0.052169085,0.15261991,0.15575677,0.20135877,-0.8621922,-0.14004672,0.06376545,0.6758616,-0.33261156,0.22096556,-0.35358816,0.29590327,0.020212509,-0.22638465,-0.24415186,0.098259136,-0.2043247,-0.14006099,-0.60666835,-0.1669298,0.6084272,0.22445866,-0.27311203,0.02441686,-0.21545908,-0.99793607,-0.015139908,-0.5291794,0.43520728,-0.03984258,0.03747922,0.08076191,-0.5973758,1.041243,0.08946305,-0.011639938,-0.1583102,0.18771468,-0.15391387,-0.13407052,-0.4350135,0.007153645,-0.22068538,-0.36714938,0.6245003,0.16827464,0.31460392,-0.47337604,0.20527475,-0.04244843,-0.355908,0.1432001,0.21705389,-0.19049571,0.2438343,0.0092938915,-0.33288226,-0.5884184,-0.10952246,0.18847626,0.07219499,-0.10635093,-0.2105898,-0.04913178,-0.16107422,0.04828371,0.40743437,-0.6538917,0.029585004,0.28321522,-0.11917679,0.12502006,-2.6180646,0.29441652,-0.41111282,0.24228051,0.8921298,-0.12750515,0.12666714,-0.28160748,-0.42043284,0.015419409,-0.31339628,0.10979399,-0.35335645,0.19050005,-0.31918114,0.08502856,-0.10176418,-0.12232593,0.2845618,-0.008889914,-0.25041354,0.39416116,-0.6038467,0.10181025,-0.1049487,0.067646705,0.05244442,0.3531241,0.4842231,-0.33202267,-0.18001361,-0.27521038,-0.6870208,-0.4768778,0.16230963,-0.322957,0.3265034,-0.1879104,0.45150506,-0.1905092,-0.16704354,-0.10144548,0.5964838,0.2896984,-0.046168573,-0.6827841,0.23104651,-0.06842079,0.0671787,0.092234306,0.5105877,0.27919975,0.090534955,-0.7889339,-0.45647588,0.24108064,0.20913395,-0.20601183,-0.30186278,0.38033843,-0.0076107383,-0.37066233,0.49860504,0.21743152,0.26948905,-0.627832,-0.40320268,-0.27981532,0.2510711,0.5514236,0.21407427,-0.08322917,0.2768658,0.06916126,0.24116296,-0.13965693,0.03366197,0.20570575,-0.04194404,0.17502242,0.13613515,0.3932783,0.16038531,-0.49228176
Oceania_06.png,-0.4248226,0.46932754,-0.15472867,0.32618755,-0.0026598573,-0.24574906,0.24078502,0.24286109,0.090007305,0.2369959,0.523388,-0.059248127,0.5301878,-0.39148086,0.32507792,-0.1287935,0.2808373,-0.0845529,-0.031664245,-0.16006035,-1.8338096,-0.05009754,-0.13573763,-0.36827826,-0.032382935,0.17568427,-0.12631235,-0.13956116,-0.46242666,0.37382475,-0.7589707,-0.1180943,0.1840316,-0.006361153,0.20533091,-0.14115196,-0.271302,-0.17919666,0.46866703,0.3420263,0.27872264,0.39714485,0.02510067,-0.26283133,0.037619807,-0.80526304,-0.28419995,0.08536126,0.44979295,-0.12806118,0.29071063,0.1490365,-0.34661114,-0.12697391,-0.23258427,-0.17495589,0.11719543,0.36135232,0.23828648,-0.010743171,-0.82481277,-0.02317696,-0.1681093,-0.024940245,-0.303739,-0.43605122,-0.69683546,0.98245716,-0.025239438,-0.20038636,-0.48119056,-0.20436533,-0.2618882,-0.15474291,-0.36447817,-0.5076697,-0.18187132,-0.57872534,0.005998481,-0.4491346,-0.07511617,-0.16622603,0.06574353,-0.18108375,0.25166237,0.29106647,-0.44416472,-0.16689685,0.7756692,-0.08647996,0.37207997,-0.033702284,-6.083627,0.32327324,-0.09725069,-0.0044739656,-0.13043496,0.45840406,-0.43334132,0.0349243,0.00030965358,0.23479462,-0.38815257,-0.098383576,-0.0370372,0.001010105,-0.6191647,-0.043500654,0.29513955,-0.3852208,0.47557876,0.0014149919,0.03055797,-0.108164735,0.27964583,-0.3915708,0.28259617,-0.20150346,0.29866964,-0.69986445,0.0809545,0.5141029,0.053937145,-0.24375486,-0.0037997365,0.3939827,0.030860826,0.18165813,-0.27427986,0.42195478,-0.22989014,0.031099439,0.5459422,0.82869536,0.5144115,0.011447314,-0.25733393,0.11216672,0.30836013,0.3941324,-0.21451768,-0.2892043,0.06667476,-0.1831534,-0.27122253,0.051259182,0.22583866,-0.19529937,0.07230001,-0.04229103,-0.13225673,0.20305873,0.12271165,0.14183342,-0.30550528,-0.18491223,0.37107825,-0.3842284,-0.34635937,0.07683791,0.07634631,-0.26853395,0.034872733,0.004495397,-0.14045131,0.43680558,0.34814227,0.34199896,-0.17578909,-0.4935876,-0.20395842,-0.03501883,-0.36321187,-0.4792313,0.18231456,0.22705993,-1.5591736,0.024447784,0.38120756,-0.14147592,-0.4180409,-0.71170026,-0.22121786,0.13144362,-0.09455711,0.22150123,0.16302156,0.19302258,0.09067142,0.035172366,0.10040902,0.2963361,0.20744279,0.19367476,-0.09528811,0.30733916,-0.3914979,-0.33311355,0.007886052,0.106021434,-0.23059618,-0.2297231,0.2040735,0.33297053,0.32744944,-0.24875659,-0.38051087,-0.07715374,-0.1964834,0.31870598,-0.04728321,0.4838328,-0.051580347,-0.05818554,0.52049685,-0.40291673,-0.19988215,0.38060087,0.3746373,-0.43212867,0.3964152,1.2988592,-0.09165992,-0.4840802,0.24465686,0.4619391,0.20849353,0.22954027,-0.38296288,-0.6119552,-0.34994316,-0.11710134,0.07444787,-0.62028813,0.2754066,0.21701644,0.17988071,0.14530237,-0.15017231,-0.05270995,-0.24969393,0.0048618615,0.9380158,-0.14448449,-0.46876442,-0.28843644,-0.0074446574,-0.15392682,0.03603588,-0.27087265,-0.3818307,-0.34253353,-0.031898677,0.42062825,0.14471003,0.0045438185,0.020082697,0.3700893,0.9643669,-0.15306723,0.06900857,0.20738426,-0.3204003,-0.047619063,-0.014630549,0.050402224,-0.18738715,0.51941603,0.17770928,0.27789918,0.3029699,-0.08097247,-0.78026104,-0.012643278,-0.101919256,0.25490394,-0.3016863,-0.66078365,-0.10804644,-0.22743958,0.71654916,0.31464872,0.42285547,0.19619255,0.0779532,0.27910993,-1.8982997,-0.021596761,-0.23325008,-0.008116275,0.32793078,0.035211325,0.39933065,0.014369978,-0.22498497,0.10543081,0.7956455,0.15313114,-0.07805303,0.18886176,-0.23689038,-0.17865154,-0.44758826,0.17387499,0.0800817,0.19155109,-0.19669826,0.44279292,0.39755473,0.10260405,-0.12569147,0.1724869,0.8275819,-0.45275941,0.1726264,0.47622383,0.5910686,0.6178391,0.17303021,0.15501319,0.29551706,1.696337,-0.24482441,-0.061283898,0.05774104,-0.0865772,-0.036138996,-0.29384768,0.08195383,-0.10096345,-0.16845325,-0.37357658,-0.087545805,-0.32047215,-0.07607379,0.2867566,0.5623542,0.059468046,0.20682669,-0.08940512,0.4246901,-0.0905617,-0.13113987,-0.028597225,-0.36062127,0.3362403,-0.8071602,0.476639,0.22699961,0.25819433,-0.20510384,-0.47521007,0.5417558,-0.328736,-0.02739188,-0.51865274,-0.18475167,-0.26067916,0.100446925,0.097096495,-0.76711714,-0.11329162,0.16085926,1.1972324,-0.010418266,0.26626474,-0.22055314,0.25389826,0.17611521,-0.4026208,-0.24419336,0.054681577,-0.22537977,0.06773467,-0.48829046,-0.43050092,0.4067269,0.19772893,-0.24717921,-0.41684067,-0.06921729,-1.2467219,-0.22907884,-0.79281014,0.2831542,-0.34677494,0.033417568,-0.27488983,-0.299655,1.735279,0.5073909,0.0829746,-0.2072183,-0.11638608,-0.17521039,0.030062567,-0.38014364,0.021985188,0.3157649,-0.4035784,0.7452832,0.3756753,0.43106577,-0.5851539,0.30495715,-0.51140094,-0.34450692,0.14111207,0.25866026,-0.17772916,-0.09088926,0.11528508,0.13862224,-0.63937724,0.029172197,-0.058064602,0.2942658,-0.39910108,-0.18233337,-0.24522062,-0.43634003,-0.23857647,0.26534396,-0.04898919,-0.3574266,-0.20763214,-0.008358508,0.05335535,-1.8569773,0.31081054,-0.051288065,-0.03088297,1.1102941,-0.09525809,0.17717998,-0.5889745,-0.45604366,0.09935409,-0.2876553,0.392928,0.03197944,0.34040064,-0.11439173,0.2975808,0.13705522,-0.050551504,0.058941547,-0.08135155,-0.21118808,0.28908038,-0.19607662,0.10669373,-0.2446903,-0.13858432,-0.060921654,0.20450032,0.17534333,-0.41134304,-0.3544259,-0.6526357,-0.1072909,-0.40579295,0.4073027,-0.48766336,0.039660737,-0.15450099,0.27870208,-0.03491526,-0.43449765,-0.20591506,0.07874487,0.018229112,0.05683258,-0.645895,0.074246526,0.09612578,-0.0074921697,0.18015479,0.846946,-0.05978006,0.25259897,-0.57807684,-0.09287681,0.023127642,0.19696553,-0.017344221,-0.3988667,0.22815582,0.12418597,-0.009823427,0.41236427,0.16827524,-0.096828595,-0.6592542,-0.18173568,-0.068213224,-0.15590647,0.0701291,-0.06128383,0.08354534,0.39911848,0.03416736,0.07393825,0.19141369,0.3263948,0.67152584,-0.265722,0.37665835,-0.17557202,0.27927256,-0.007695712,-0.63442963
Oceania_34.png,-0.5740564,0.44433516,-0.17891821,0.46830663,-0.1725192,-0.0558765,0.45691642,0.13755569,0.37682915,0.3675018,0.34751856,-0.104464546,0.36660346,-0.2788359,0.1654231,-0.38003415,0.11745605,-0.13522923,0.25378218,-0.16236812,-1.8841957,0.18428008,-0.04922784,-0.15455668,0.14635833,0.31616732,-0.3206094,0.21130952,-0.40030593,0.49120966,-0.062291242,0.020375267,-0.0032521933,0.17234251,0.1994662,-0.095179,-0.3404726,0.09883396,0.12849127,0.926419,0.10594932,0.28742456,-0.11086204,-0.00057863444,-0.094439596,-0.45870966,-0.19707404,0.119754955,0.30721498,0.095636785,0.41446406,0.24391885,0.26262712,-0.040887922,-0.23065448,0.4859252,0.012797385,0.12050651,0.250971,-0.060965315,-0.81387395,0.039651513,-0.3353193,-0.17838764,-0.40776056,-0.19275767,-0.45299262,1.7142138,0.03138005,-0.25668812,-0.45102304,-0.41752058,-0.28092942,-0.18649152,-0.0037719347,-0.33157483,-0.042371675,-0.56548804,-0.18363938,-0.32347783,-0.059220247,-0.13261259,-0.14883909,-0.4926114,0.02011329,0.19132102,0.018834285,0.06694251,0.4060538,-0.14750266,0.5776789,-0.14634368,-6.1901774,0.124608405,-0.38551465,-0.015733019,-0.02182369,0.3617645,-0.23137702,-0.22233054,0.12555812,0.31148785,-0.076188326,-0.3383631,-0.24528405,-0.051796466,0.03953938,0.001033593,0.15194255,-0.26984227,0.14660594,0.21451357,-0.05666577,-0.053897366,0.4161451,-0.6873402,0.35083568,-0.3269532,0.26059702,-0.16504346,-0.03503882,0.81320965,-0.27096838,-0.39348888,-0.18855155,0.12860811,0.035023525,-0.13989729,0.0037570894,0.4841779,-0.18210812,-0.030782014,0.4364791,0.83606315,0.5304834,0.03667243,-0.22075823,0.12631232,-0.01846774,-0.05838658,-0.43931296,-0.44877622,0.07998913,-0.35084927,-0.025351763,-0.3443933,0.2195522,-0.0322482,0.06264844,0.18552285,-0.26729625,0.24809209,0.4301737,0.37051025,-0.27094534,-0.10235741,0.5646718,-0.15394288,-0.22027211,-0.1156275,0.13031381,-0.33629382,0.028686494,-0.026686788,-0.3539044,0.20240176,0.24461755,0.3064837,-0.22238249,-0.4644108,-0.099460706,-0.25321278,-0.4347147,-0.5669484,0.2356104,0.3449067,-1.6614993,0.08487429,0.41604513,-0.18233171,0.1143738,-0.689442,0.017557211,0.2189651,-0.15727413,0.07549403,-0.0017747208,0.07320608,0.52639407,-0.13942967,-0.20272452,0.44182545,-0.0848469,0.014561355,-0.020500377,0.3384067,-0.44697505,-0.10110762,0.27511495,-0.12843831,-0.028154358,-0.33594227,0.41519222,0.2780126,0.25729454,-0.08703998,-0.43094006,-0.0831645,-0.07882121,0.2877496,-0.109580055,0.4670692,-0.14766216,0.4001277,0.18715039,-0.28259456,-0.35885358,0.17832224,0.64008135,-0.13448875,0.3597102,1.2636536,-0.1251392,-0.5082114,0.44986165,0.44845927,0.14601359,0.37096107,-0.04410149,-0.76645017,-0.24131754,-0.011479087,0.28879365,-0.30368575,0.053973988,0.05389598,0.1731649,0.20716676,-0.047779527,-0.14346564,-0.20025405,0.2303939,0.64428633,-0.19063891,-0.023208298,-0.5563533,0.2902993,0.4439957,0.10095122,-0.04514755,-0.4073111,-0.43165156,-0.17708413,0.20067513,0.017914206,0.16328022,0.04214386,0.52038956,0.98187155,0.1845381,0.2676487,0.2607127,-0.31468263,-0.4371539,-0.024524525,0.05996933,0.0040065423,0.4800153,0.031718656,0.22400163,-0.03716299,0.02739568,-0.6589421,-0.0045197904,-0.090233915,0.3681469,-0.4239973,-0.31412062,-0.11607036,0.063461326,0.6739484,0.30711553,-0.06715317,-0.064515434,-0.024423327,0.22637103,-1.4308172,0.20905603,0.20262992,-0.05034919,0.535877,0.17294851,0.3850038,-0.24255374,-0.12540084,0.6248967,0.81668824,0.21638137,0.21118146,-0.20425656,-0.49762568,-0.35354567,-0.5725598,0.18195227,-0.13543937,0.61174786,-0.22190502,0.31125903,0.28331816,0.31389594,-0.5973289,0.30867675,0.8353364,-0.2333838,-0.15472558,0.033799663,0.39085346,0.42959556,0.3243861,0.15115228,0.21913317,1.739606,0.06647053,0.33051208,-0.1608831,-0.05535485,0.2772113,-0.21239573,0.2557218,-0.018320426,0.36972678,-0.2953234,-0.085941166,-0.10570824,0.10895688,-0.067239836,0.6133406,0.009882316,0.25139096,0.3726025,0.16925928,0.014130369,-0.2606054,-0.1389882,-0.1984517,0.29599702,-0.7838298,0.2266973,0.5077899,0.22698613,0.25509912,-0.34547734,0.7263749,-0.27079588,0.05215227,-0.43641502,0.19210932,0.24996394,-0.17559096,0.10771109,-0.79976237,0.12780693,0.23520169,0.47212523,-0.6461728,0.19388711,-0.3567727,0.15023609,0.37117982,-0.14103824,-0.29543197,0.20746209,0.13706711,0.063457996,-0.32799792,-0.22009534,0.3485025,-0.013977617,-0.30400357,-0.29092813,0.11626842,-0.979044,-0.026960194,-0.45646882,0.14670445,-0.36098737,0.20923673,-0.037013113,-0.17975959,1.0218155,0.29895908,-0.06876251,-0.33031514,-0.21879469,-0.16946721,0.12417883,-0.2476136,-0.012323096,-0.15913242,-0.67495334,0.7940197,0.56466347,-0.017798088,-0.5964637,0.10653761,-0.34330428,-0.39691043,0.34908435,0.36985826,0.36860266,0.27593425,-0.16337855,0.049705643,-0.43980092,-0.38372338,0.13435057,0.27398777,0.1421231,-0.13048469,-0.18199834,-0.24456376,0.17337477,0.076550655,0.03862135,-0.21425945,-0.12858793,0.031223336,0.539462,-2.7197957,0.106548645,-0.42896312,-0.07424682,0.86895764,0.015956923,0.025258422,-0.61025757,-0.490489,0.10404107,-0.5732062,0.15320078,-0.20175284,0.2997049,-0.26566717,0.13386664,-0.15487997,0.057910163,0.032437764,0.08925198,-0.28779572,0.16752002,-0.363293,-0.084909946,-0.22440365,-0.120251715,0.2247689,0.21957934,0.4068291,-0.5251135,-0.12660705,-0.55545443,-0.20411445,-0.27480692,0.19940083,-0.2839284,0.07972537,0.11701072,0.07886689,0.16282953,-0.41814524,-0.2033025,0.69059616,0.2692156,-0.05640661,-0.82368565,0.19997673,-0.010236847,0.18056151,0.20752637,0.4534505,0.055175506,0.30913338,-0.5828296,-0.2441366,0.02437286,0.27188712,-0.27124402,-0.6264607,0.30173826,-0.19794211,-0.09950254,0.42811638,0.30962595,-0.1331476,-0.4269217,-0.1345495,-0.2700046,0.01259936,0.23448735,0.16213113,-0.22067611,0.43763274,-0.038304634,0.03726785,0.07479203,0.046323027,0.37204948,-0.12850177,-0.019740267,0.010952614,0.61279714,-0.023749998,-0.406408
Oceania_12.png,-0.4959858,0.54541445,-0.06909898,0.14799026,0.4804772,0.032149687,-0.23723991,0.30175486,0.37988907,0.15745464,0.4761694,-0.14066619,0.8750776,-0.46528107,0.4977066,0.0021757483,0.35971048,-0.191377,0.368402,-0.08841458,-1.5465031,0.05573818,0.075382866,-0.5156153,-0.15993258,0.2699848,0.0063396133,-0.18823329,-0.42748567,0.56155115,-0.56044495,0.051785655,0.19050905,-0.081368595,0.09639703,-0.33600453,-0.24559723,-0.078395575,0.17497605,1.141643,-0.09060003,0.52251005,0.3370732,-0.28525686,-0.2994543,-1.3013961,-0.08771342,-0.14517494,0.09401623,0.2924545,-0.15388738,0.074824944,-0.2577679,0.040510766,0.12136989,-0.056807972,0.36331624,0.12632042,0.34262294,0.5047053,-0.4028592,0.034403995,-0.21167538,0.0631868,-0.38515466,-0.25542593,-0.27847874,0.84461397,-0.08865656,0.0072729588,-0.41693002,-0.093061276,-0.57290816,0.10498983,-0.15270387,-0.26742673,-0.31231132,-0.68643445,0.06601384,-0.30512196,-0.17644823,-0.28562498,0.16081855,0.31892595,0.21369773,0.22358052,0.13560477,-0.48560375,0.87118703,0.038714748,0.11725547,-0.24328661,-5.852008,0.49637908,0.18337527,0.26111224,-0.43965024,-0.015795998,-0.5590534,-0.09653252,-0.20139232,0.02889324,-0.82108617,0.18802936,0.22223717,0.0057573617,-1.0182042,0.15363058,0.14846244,-0.18043366,0.27570978,0.057438333,-0.31971115,0.121199146,0.08398637,-0.34097362,0.025085256,0.083665065,0.23473197,-1.1137389,0.32182243,0.7895146,-0.23945072,-0.09176205,-0.0023895688,0.45174548,0.18506521,0.14478981,-0.38773596,0.31601483,-0.21229202,-0.36525995,0.4107815,0.78534925,0.16674708,0.028884739,-0.14459172,-0.22124517,0.37197065,0.29402417,-0.28788885,0.14690797,0.0055766106,-0.049314708,-0.2981758,-0.14627877,0.016991809,0.01242061,-0.08526385,-0.07373804,-0.18068805,0.18955104,0.54418594,-0.0296126,-0.28551704,-0.20967403,0.2382506,-0.015156582,-0.33767873,-0.032647714,0.32722673,-0.039548717,-0.0015279353,0.041830495,-0.12604997,-0.13797231,0.038603313,0.47221348,-0.113494,-0.14913532,0.33946484,0.19556387,-0.015213236,-0.21031852,0.50178957,0.50814575,-0.93206185,-0.5214608,0.17516607,-0.113619015,-0.48290226,-0.24179949,-0.034500785,-0.42279723,-0.07960509,0.058270384,0.05182018,0.23103616,-0.13789102,-0.19375063,0.36812317,0.21654812,-0.20125015,0.4034001,-0.07786083,0.66600126,-0.09843904,-0.07918581,0.076480664,-0.056838084,0.2949406,-0.20949179,0.222458,0.16151835,0.32536656,-0.5037067,-0.16579387,-0.41636395,-0.42996097,0.22882843,0.3210876,0.2935244,0.15757251,-0.3466858,0.45811635,-0.54674953,-0.22527915,0.59569216,0.4777524,-0.2942225,0.43807542,0.8528874,-0.023289204,-0.103702575,0.27229422,0.33904064,0.07627062,-0.13699229,-0.33241725,-0.07812619,-0.16608903,0.05890712,0.4716124,-0.44010705,-0.072408475,0.48520008,0.14170781,0.38583428,0.3596189,-0.19609992,0.2268284,0.18825647,0.6148597,-0.054394692,-0.5371629,-0.3570153,0.0767902,-0.06934986,-0.22259128,-0.57963806,-0.087610096,-0.58304167,0.13299909,0.6410042,0.10686433,-0.04296553,0.29197592,0.42943695,0.20942435,-0.12563673,-0.11327547,0.14828327,0.027973458,0.5604659,0.14533597,0.25553232,0.048848998,0.1784668,0.29465544,0.16627528,0.6786571,0.45279974,-0.1407814,-0.07374641,-0.1501155,-0.045926835,-0.012160756,-0.7119031,-0.026429987,-0.27903685,0.5330336,0.31762552,0.28404254,0.26850346,0.041542932,0.42789814,-0.99204344,0.18858345,-0.20848554,0.09306764,0.27861467,0.19388157,0.53084975,-0.1198864,-0.40800345,0.16101348,0.4263271,0.04003358,0.16970757,0.07706167,-0.05531417,-0.57529324,-0.22703509,0.33586866,0.51879007,0.31242403,-0.7870785,0.39077735,0.21791643,0.23221019,-0.12596288,0.34942615,0.78395593,-0.13806179,0.20222524,0.42364562,0.6962991,0.33594513,0.29891717,0.4390617,0.22719552,1.4488685,-0.46493503,-0.22092816,-0.48340932,-0.06377801,0.28001353,0.074456185,0.18887788,-0.1363691,-0.5761075,-0.10981846,-0.10333371,-0.47708374,-0.0930318,0.48644346,0.23912638,0.18326944,0.40762475,-0.13737676,0.33208185,0.11395945,-0.041207094,0.23761396,0.08449587,0.25568458,-0.73161924,0.14733304,-0.02842629,0.37819952,-0.2738527,-0.019527555,0.26663628,-0.22728702,0.28069767,-0.50482935,0.14956954,0.08776516,-0.19341667,0.0032430533,-0.55617887,-0.26352167,0.0022729542,1.6488146,0.6107411,0.06703568,-0.3268836,0.15534025,0.06873743,-0.322855,-0.11865206,-0.14295918,0.13764429,0.20752215,-0.48765355,-0.54097915,0.99854314,-0.10453298,-0.14890203,-0.2904632,-0.1726284,-1.1797003,0.08488041,-0.86438763,0.22651479,-0.3328601,0.0833276,0.42444733,-0.430701,0.7699636,0.56013,-0.021152481,-0.3858677,0.33512822,-0.3311804,0.021398805,-0.30645072,-0.2229593,0.4820059,-0.18655553,0.54016525,0.08126591,0.20066184,-0.41526175,0.063091435,-0.14865601,-0.20592883,-0.33782277,0.1845687,-0.11018363,-0.13436146,0.22882012,-0.13148865,-0.29503268,-0.18605933,-0.47003147,0.13846001,-0.21618648,-0.23860423,-0.65716714,0.11117298,-0.17677271,0.34486157,-0.19037876,-0.4073201,-0.099914625,-0.122817546,-0.29884475,-2.3710632,-0.009748906,0.36212957,0.15069647,0.6471354,0.11370264,0.2049015,-0.43482208,-0.080891564,0.29282704,-0.38646674,0.3103373,0.4357411,0.16029453,-0.0018321872,0.1899052,0.46218824,-0.19496308,0.13502596,-0.16453129,-0.11504219,0.068642035,0.0340845,0.4936342,-0.084992416,-0.1458314,-0.24206251,0.21442148,-0.01047907,-0.19294912,-0.3233052,-0.4854523,0.048589498,-0.6420275,0.28314254,-0.58123136,-0.25013658,-0.13024297,0.2339815,-0.21381328,-0.20546038,-0.59868,0.014697835,-0.10752201,0.024459,-0.7781946,0.056381002,0.27813148,0.1446,0.28044173,0.75834227,-0.057591327,-0.049745828,-0.30474067,-0.023296714,0.016949411,0.31540075,-0.07291274,-0.3805474,0.13213328,-0.11462759,-0.08946558,0.043407843,0.04277311,0.30819863,-0.38466558,-0.29866245,-0.121984065,0.04500869,0.116537064,-0.37522322,-0.44871604,0.057148412,0.18637206,-0.03725283,0.17365235,0.2866678,0.2814757,-0.09620926,0.1862652,-0.30315274,0.445682,-0.012779564,-0.29843804
Oceania_46.png,0.22858402,0.50691146,0.036543187,-0.18247598,-0.17115638,-0.2273176,-0.3888362,0.4528192,-0.3128268,0.21497786,0.63412863,0.05874175,0.33330685,-0.6932267,0.29623795,0.009128377,-0.1061334,-0.062813,-0.12556429,0.22551236,-0.8437452,-0.015027732,0.02242443,0.40260476,0.08589089,0.1398861,-0.072073236,-0.17776003,-0.14192449,0.19142169,-0.46240416,-0.06666439,0.16109501,-0.22637528,-0.2979617,0.04214652,-0.26619247,-0.16943514,0.37115037,-0.13028474,0.059300303,0.2809465,-0.1763837,-0.24885473,0.20253932,-0.8714127,-0.057216913,0.19662383,0.16162038,0.34352902,-0.028926104,0.08704671,-0.26609778,-0.10625319,-0.33314914,-0.067480475,0.2573713,-0.078909025,-0.060157128,0.18444729,-0.54846656,-0.3557369,-0.06289841,0.13121167,-0.21887656,-0.33818197,-0.13271986,0.5676197,-0.2056201,-0.09349704,-0.49878722,-0.04681413,-0.08531814,-0.31826422,-0.09031263,-0.17996545,-0.24811985,-0.4327164,0.09803567,-0.025283381,0.16423827,0.3214148,-0.28057405,0.2049424,0.116754554,0.5237977,-0.29220274,-0.17491737,-0.05910912,0.042784765,0.03930843,-0.34854555,-7.438169,1.1232154,-0.35901406,0.25147069,0.34067413,0.11105944,-0.6015057,-0.3854506,0.21387388,0.0631444,0.26256108,0.10954515,0.38171694,-0.051019177,-0.7905773,-0.28266644,0.272717,-0.32064414,0.14624125,-0.34135816,-0.2892408,0.13148774,0.47183615,-0.8531984,0.6262722,-0.08783326,0.25061008,-0.17162175,-0.32341915,-0.18909225,-0.23555422,0.21012424,-0.15725997,0.53308475,0.18422928,0.24530447,0.117353775,0.12711683,0.096673705,0.14490435,-0.3876351,0.94276017,0.7201739,-0.4067911,0.3749411,-0.6735419,0.25936055,-0.24695772,0.03554946,-0.088854216,0.030697256,0.19964182,-0.38605726,0.0021406915,0.09171325,0.371477,-0.39075997,0.059729353,0.22114787,0.13552314,0.0031744018,-0.124085836,0.06254095,0.0022137836,0.16532657,-0.09628553,0.1115734,0.123630896,-0.10857885,-0.43304598,-0.011280671,0.2784562,-0.29718667,-0.025332898,-0.024358056,-0.13093528,0.14956027,-0.50170887,0.27766037,0.03308232,-0.35592318,-0.18902266,0.24982814,0.10814287,-0.41721615,-0.38589817,0.46384797,-0.32061777,0.00914596,-0.3749677,0.08638662,-0.08047067,0.119167775,0.15128464,0.33405486,0.040269233,0.04184106,-0.42840427,-0.09182094,0.39819512,-0.03538198,0.2852992,-0.084992975,0.15746921,-0.11996072,-0.6624611,0.025793076,0.18431044,-0.3855692,0.02364052,-0.07554396,-0.07161136,0.2571199,0.058159783,-0.22227857,-0.29342335,-0.33830598,0.37644905,-0.26493627,1.3358866,-0.40144935,-0.25055483,0.4242551,-0.039619315,-0.16848794,-0.026195453,0.24246967,0.22176541,0.87944245,0.82000434,-0.19429058,-0.5671693,0.32258457,0.02914832,0.22819558,0.19277418,-0.18210422,-0.1416948,0.1024141,0.15493795,0.1755864,-0.29829535,-0.17700186,0.7252736,0.20042151,-0.23812193,-0.15707262,-0.37264073,-0.22147106,-0.068523414,0.26779497,-0.15999997,-0.27001646,-1.2235702,0.13887228,-0.08830558,0.025677439,0.14273866,-0.15628794,-0.20346585,0.31439698,0.07314369,0.06861521,-0.15268826,-0.16499779,0.019058779,-0.4146622,-0.28526422,0.8267606,0.06477098,-0.27840665,-1.6748824,0.34728113,0.22530392,0.06201952,-0.02061081,0.22001645,0.26825225,0.1459412,0.08777054,-0.28009957,0.13757242,-0.1092047,-0.07181947,-0.3436365,0.0694076,0.029195607,-0.1580281,0.18660621,0.54453164,0.14794107,-0.10456555,-0.18221293,0.035341494,-0.19942471,0.013840616,-0.05291123,-0.1039675,0.434256,0.30783385,0.4111941,0.0080781765,-0.24526075,0.018150002,0.29780495,0.39776513,-0.08075166,-0.0039742906,-0.15978895,-0.5076084,-0.62234837,0.029547483,-0.0010621697,0.3616641,-0.31789646,0.1808462,0.51538044,0.18985069,-0.39097205,0.24606487,0.9400351,0.54220545,-0.015128002,0.58121866,-0.1592508,0.30146015,0.19440643,-0.7915301,0.018674284,1.7405152,-0.23264857,0.09068599,0.6006407,-0.44706076,0.65117157,-0.29275003,0.31621876,0.30845138,-0.019545935,-0.14640939,-0.15329725,-0.3448949,0.06268695,-0.10051967,0.22107211,0.33744267,0.045628242,-0.30896524,0.07149093,-0.116839945,-0.19311099,0.21851367,0.068619266,0.085357785,-0.28169566,0.23045018,0.48236054,0.30318874,-0.73069704,-0.010547385,0.5291762,-0.31888336,0.053363163,-0.079148255,-0.4016524,0.3072765,0.48859978,0.0020262934,-0.25712034,-0.1906852,0.092027694,0.619896,-0.7431308,0.06928811,-0.4921468,0.6040902,0.39150256,-0.10366694,-0.4140241,0.075637266,-0.14362611,-0.2713726,0.31832537,0.0382673,-0.08417049,0.050516788,0.2143529,-0.077423334,0.0632094,-0.9109585,-0.4498811,-0.5971985,0.36549518,0.42239508,0.46264285,-0.07892069,-0.3516699,1.7283404,0.031595618,-0.163152,0.031932622,-0.24682793,-0.33182842,-0.2239005,-0.6963452,0.169433,0.028134644,-0.5491426,0.050710365,0.3263223,0.63330036,-0.5464692,-0.0020572394,-0.4264717,-0.12339036,0.26221347,0.23284397,0.32739234,0.28210664,-0.07185824,-0.24168372,-0.2357922,0.1055281,-0.08208729,-0.032104865,-0.29826844,0.058839872,-0.5123744,-0.2692235,-0.048802845,0.09359737,-0.6105969,-0.21643378,0.13901863,0.32508913,-0.10083141,-0.31655014,0.17062105,-0.26675797,0.1730653,0.6636815,-0.10232166,-0.04716543,-0.12826835,-0.4309108,-0.07902009,0.0008721426,0.1721861,-0.47356203,0.029204939,-0.15663546,0.14535704,0.1449311,-0.07892003,0.262281,-0.46826544,-0.17221996,0.21238112,-0.026192352,-0.021340266,-0.13537344,-0.11545411,-0.107339196,-0.24239135,0.2188064,0.13009202,-0.1097894,-0.35293078,-0.2699818,-0.28133568,0.07326185,-0.087942876,0.43492508,-0.050139427,0.1893416,0.051030293,-0.3772998,0.08687759,0.037324373,-0.03342323,-0.07353918,-0.8337232,0.42838007,-0.26104122,-0.047461733,0.35765716,0.27004892,0.40018088,-0.17173679,-0.34638795,-0.43737498,0.24396002,0.051168382,0.3977512,-0.25563473,-0.027161809,0.060967878,-0.52466625,0.0030681752,0.062182784,-0.28264332,-0.53675926,-0.33308905,-0.36177143,-0.09868243,0.37675565,-0.014827132,0.14074004,0.6199173,0.086353794,0.5484747,0.12756687,0.26684007,0.37029052,-0.16822167,-0.010731958,0.07677449,0.740636,-0.054855403,-0.28172922
Oceania_02.png,-0.14366582,0.6102252,-0.17312986,0.37120786,0.049868837,0.114836395,-0.26006547,0.35235402,0.2028772,0.23545341,-0.060195185,-0.037540562,0.20577742,-0.4912785,0.25884914,0.0004987195,0.016361684,0.09227879,-0.013917841,-0.3734492,-1.375262,-0.008223645,-0.22980705,-0.14109477,0.24763557,0.21615471,-0.14665309,-0.24676456,-0.5224597,0.38097402,-0.5881406,-0.32791847,-0.12073803,0.21569215,-0.119299814,0.04317537,-0.5950111,0.020025596,0.4248248,0.08719028,-0.03670212,0.18508461,-0.012310877,-0.14992289,0.07002247,-0.33631104,0.021391153,0.19120708,0.2710322,0.10444336,-0.12633611,0.05856988,0.07470369,-0.34184998,0.19880082,0.19119611,0.5838121,0.27712825,0.16925696,0.23383622,-0.30154625,-0.016825274,-0.32215407,0.19085328,-0.51586753,-0.5582615,-0.3169935,0.86328745,-0.09364222,-0.39699492,-0.87172914,-0.16658612,-0.30490693,0.16103357,-0.32963747,-0.14968663,-0.45651668,-0.6570704,-0.29904175,0.046712026,-0.0076894797,-0.23023394,0.07254183,0.30319995,0.47587425,0.20218776,-0.2433437,-0.33503184,0.29802954,0.24041629,0.19250326,-0.17393747,-6.1953793,0.3977435,-0.1568739,-0.104858235,-0.041821793,0.48414728,0.111093655,0.116278715,0.41668105,0.3329484,-0.4459377,0.41927847,-0.20427498,-0.023039177,-0.49341962,-0.2282298,0.17939484,-0.22912377,0.23102474,0.02057523,-0.5134885,-0.3128125,0.29330438,-0.47845447,0.43981528,-0.21023327,-0.08712394,-0.75427794,-0.09132597,0.3531099,0.31375083,0.12261444,-0.3109884,0.39927006,0.21267228,0.28852028,0.48648417,0.5980205,-0.04228279,-0.12677445,0.2649573,0.87784755,0.21332383,-0.40531975,-0.015535146,0.047140658,0.21018028,0.0928331,-0.10997262,-0.28950423,0.47216052,-0.45296216,-0.41273004,0.109380364,-0.20702076,0.40938622,-0.029711321,-0.20771936,0.00051000714,0.38550383,-0.10784601,-0.08184706,-0.12588876,-0.034278538,0.4617592,0.2000145,-0.51800525,0.23342648,0.03942157,-0.3005196,-0.0050590187,-0.010814579,-0.2075041,0.21628839,0.29413083,0.31930953,0.083597586,-0.2087971,0.040128812,-0.16165459,-0.38690877,-0.2998582,0.23824601,0.1685035,-0.9837113,-0.2576842,0.303319,-0.18765914,-0.4746274,-0.8658638,0.28240246,0.16266444,-0.032037362,0.24539506,0.18744668,0.104514375,0.19198091,-0.36458498,-0.043495283,0.1003643,0.33324564,0.15468541,-0.17905043,0.4339242,-0.51234597,-0.60666853,-0.34157765,0.64768666,0.0015791059,0.039830163,0.59763014,-0.02751252,0.34273803,-0.15498172,-0.42575794,-0.12913689,-0.23769635,0.43126684,-0.28155038,0.99325275,-0.4198913,-0.27561894,0.5501704,-0.33711475,-0.22312808,-0.12069873,0.12754259,0.19244613,0.49934196,0.21299544,-0.16992092,-0.73917454,0.4665935,0.11112428,0.17028008,-0.043290094,-0.081753105,-0.5574887,0.2170702,0.21855506,0.21095219,-0.60250056,0.037220925,0.5645709,0.39272657,-0.111778915,0.3495181,-0.06995874,-0.13315675,0.1956664,0.6948652,-0.52217746,-0.6152067,-0.4695205,0.037492685,-0.0004402548,-0.28865564,-0.078016564,-0.28305924,-0.5514764,0.2479091,-0.008725159,-0.029656123,-0.013212308,0.16086766,0.30131215,-0.30870286,0.06837451,-0.07616989,0.23975344,-0.24400553,-0.38440412,0.31224588,0.19811098,-0.43285704,0.14625666,-0.0148332305,0.56925285,0.4340229,0.019972593,-0.6266885,0.08669323,-0.050060518,0.21633497,-0.2065051,-0.24477561,-0.023657002,-0.2745403,0.61288697,0.4272839,0.5169381,-0.06366109,-0.05585672,0.06567766,-0.2338717,-0.47965237,0.14078507,0.026270956,0.24294364,0.2302871,0.29365548,-0.10826867,0.03515442,0.2226525,0.21162298,0.15648735,0.17743672,-0.016696826,-0.4284671,-0.6341994,-0.48829854,0.0048121493,0.2101044,-0.2786064,-0.31355372,0.46184865,0.312838,0.36488852,0.0180749,0.04751937,0.8765494,-0.41606474,-0.21184063,0.54666406,0.3838147,0.5772042,0.36440957,-0.036790416,0.21171238,1.5078069,-0.21239156,0.42034128,0.04117422,0.018256798,0.38186592,-0.25718263,0.24081643,0.111579955,-0.2412121,-0.20842277,0.048712876,-0.039815187,0.15717822,0.23678975,0.6277097,-0.088623665,-0.0011716262,-0.0063588917,0.07277769,-0.2982101,-0.09110768,-0.25291675,0.39172918,0.29979053,-0.277845,0.44439796,0.1341851,0.35383615,-0.29794973,-0.036029644,0.18283752,-0.13043097,0.16136378,-0.29436022,-0.053504433,0.38218877,0.04835348,-0.114320874,-1.4026016,0.13433222,0.2908756,0.86019987,-0.66280574,0.03682457,-0.391166,1.3544588,0.083734706,-0.4285918,-0.12242994,0.21759462,-0.14727199,0.014229157,-0.33390942,-0.13038367,0.5254463,-0.028719604,-0.10666886,-0.121336535,-0.06920501,-0.9141437,-0.16821186,-0.6952752,0.39848223,-0.1822963,0.13307405,-0.109940335,0.051794402,1.2370133,-0.00022482127,-0.46119747,-0.32185096,0.009277299,-0.3729437,0.19229397,-0.48821625,0.114392824,0.23542511,-0.46115965,0.43465757,0.2998039,0.42700705,-0.7908839,0.2750553,-0.5828751,-0.5314319,-0.054771572,0.30444184,-0.06741183,-0.15448579,-0.020712234,-0.382363,-0.37408715,0.09224445,0.07995197,-0.48213282,-0.07213962,-0.17203836,0.091226816,-0.17094776,-0.12979087,0.14163297,-0.23640877,-0.20568028,-0.061041676,0.23801556,-0.01191292,-1.9322078,0.1020069,-0.33856955,0.116177626,1.1309438,-0.30399004,0.09793404,-0.46392667,-0.46188116,0.009405933,-0.3390785,0.02191016,-0.17499904,0.1842676,-0.1089857,0.3316679,0.15856314,-0.26400983,-0.0935995,-0.48523045,0.32691354,0.0006685145,0.29518917,0.25810552,-0.06262814,-0.06512128,-0.04707867,0.41647828,0.19641908,-0.4138767,-0.48874953,-0.9873326,-0.465877,-0.31471878,-0.06245275,-0.20352612,0.2814173,-0.081161335,0.29628414,-0.07151805,-0.030448865,0.11198695,0.33297578,0.38071293,-0.35459423,-0.50944984,0.65437853,-0.10713523,-0.21835697,0.054487173,0.32855356,0.01698549,0.28593406,-0.65516794,-0.059148677,0.11859367,0.3110425,-0.018680416,-0.47416583,0.5591089,-0.12914552,-0.25651476,0.5144023,-0.44583037,-0.008003101,-0.54640305,-0.060720026,-0.08433303,0.048947852,0.052493326,-0.16296287,-0.021857038,0.43073237,0.18870357,0.18712533,0.19721754,0.457211,0.17249976,0.07907793,0.08800128,-0.017677993,0.2245534,-0.21653263,-0.49710667
Oceania_21.png,-0.07449831,0.7211357,-0.15078107,0.2531653,-0.045797616,0.08898084,0.087918684,0.37023827,0.09093331,0.27346545,0.41994303,-0.11015358,0.25024417,-0.585921,0.32335058,0.0112601295,0.056287944,-0.20287183,0.087657064,0.10401039,-1.6504917,-0.0926678,-0.27527893,-0.13446519,0.26078397,-0.032223552,0.18827048,-0.406744,-0.3487486,0.004530862,-0.39683944,0.009354118,-0.019641578,-0.11050208,-0.4654344,0.28985965,-0.43561545,0.17056851,0.3741472,0.20659386,0.06888458,0.12440461,-0.1826084,-0.2697389,0.3570374,-0.86229074,0.023096956,0.3493706,-0.24600035,0.3004472,-0.03938283,0.27691904,-0.047322765,-0.116400704,0.0046086162,0.39390045,0.097050935,-0.13432702,0.07892536,0.05895768,-0.9356349,-0.0047768503,0.049336128,-0.06603744,-0.43191975,-0.3220682,-0.097634606,1.2438555,-0.13962862,-0.2922991,-0.43759653,-0.2746004,-0.2899766,-0.37047985,0.052577227,-0.087718174,-0.3907085,-0.35424772,-0.034815587,-0.14313075,0.2978424,-0.16240962,-0.14460406,-0.33448818,0.18609715,0.35790274,-0.120864615,0.013153799,0.21196368,-0.004405014,0.32731414,-0.15326235,-6.7231164,0.30802414,-0.23497805,-0.17445451,0.27433917,0.22723952,-0.20024297,-0.36710814,0.32481208,0.31515408,0.018666055,-0.1564546,-0.47693476,0.022403255,-0.7175772,-0.35620248,0.39259326,-0.27662086,0.37016645,-0.18096825,-0.2389004,0.064668596,0.3530928,-0.65515983,0.8379462,0.05036816,0.12674414,-0.14420345,-0.3575687,-0.049263358,-0.065359876,0.12490535,-0.2990701,0.26760864,-0.08232814,0.3378948,0.20223546,0.41695324,-0.031630315,-0.01089938,0.074074835,0.93935555,-0.036512095,-0.040564656,-0.15273732,-0.022085838,0.76644576,0.049176544,-0.21108149,-0.29430342,-0.0041101202,-0.31815878,-0.1984222,-0.09035955,-0.017478108,0.07087423,0.32476825,-0.40219668,0.16749197,0.28257635,0.111517936,0.12753946,-0.27362218,0.2631914,0.26248705,-0.17454256,-0.026596662,0.23366852,0.14540493,-0.37097922,0.06572158,0.120289735,-0.3269729,0.422373,-0.0072831064,0.18285693,-0.06790882,-0.28688636,0.17749177,-0.26805395,-0.64170116,-0.47201234,0.0593054,-0.110587865,-1.3283944,-0.13944158,0.23158334,-0.27702525,-0.09516968,-0.7556071,0.2224596,-0.003856182,-0.02631212,-0.070952386,0.35789597,0.20174372,0.1693027,-0.32167366,-0.001571808,0.56297815,0.042991936,0.34565622,-0.27671814,0.21400708,-0.45905054,-0.47934413,0.05952443,0.4592951,-0.06531179,-0.10575076,0.32602286,0.076224655,0.420897,-0.14940055,-0.5541466,-0.61181164,-0.21832621,0.18251133,-0.5233122,1.0444963,-0.30928773,0.2378732,0.45469132,-0.382519,-0.59150314,-0.10516937,-0.043811798,0.5303911,0.62487996,0.74346435,-0.16416952,-0.59022415,0.5981544,0.17689188,0.29655972,-0.028272837,0.061288133,-0.39038485,0.26762864,-0.07533339,0.2279127,-0.6445639,-0.14639476,0.27111518,0.21568197,-0.11055212,-0.09909088,-0.24619846,-0.03072697,-0.0034885611,0.4593998,-0.24810815,-0.18311986,-0.9426886,0.3563602,0.27555427,0.02928272,-0.04654649,-0.3522726,-0.26389247,0.15510085,-0.022499502,-0.22636583,-0.047314137,-0.09126544,0.23524131,0.39179677,-0.18166411,0.37605596,0.07085675,-0.55792123,-0.28838122,0.33182624,0.28082696,-0.08155778,0.10012749,0.37749472,0.20535007,0.49602354,0.002550818,-0.5918724,-0.045989096,-0.2742076,-0.0441987,-0.23246711,-0.16747126,-0.06776081,-0.16437761,0.30474555,0.4302678,0.56280977,-0.14439158,-0.34263974,0.012747847,-1.538992,-0.10504085,0.14286856,-0.2221624,0.48019505,0.42010576,0.44783196,0.15205638,0.09720756,0.2575026,0.57123554,0.2885812,0.36117667,-0.001293689,-0.085313834,-0.2640912,-0.8155539,0.33358243,0.112957746,0.35628462,0.090337336,0.25070485,0.4575277,0.3277583,-0.041436985,0.2938252,0.93850577,-0.05530014,-0.049420796,0.48858094,0.2920105,0.6940839,0.29766196,-0.6114012,-0.009031728,1.4929634,-0.38993555,0.22898068,0.16925657,0.0754283,0.37778705,-0.26413423,0.27603787,0.19049497,-0.055480525,0.07134667,-0.3790444,-0.10798267,0.23477021,0.22285743,0.3915906,0.041943923,-0.03393347,-0.044536725,-0.189103,-0.29755157,-0.21427807,0.1413305,-0.0459572,0.33642203,-0.30988804,0.4855273,0.46150663,0.5123723,-0.066031724,0.06990236,0.59531355,-0.18117097,0.034228347,0.046673506,-0.32974893,0.16148826,-0.006172821,-0.0020215511,-0.5600724,0.21102601,-0.13515851,0.0858458,-1.1213002,-0.05180524,-0.62875533,0.63900685,0.28199112,-0.20162538,-0.35491803,0.32128778,-0.18084899,-0.062056962,-0.114965394,-0.2917517,0.18502335,0.084657505,-0.24990991,-0.21606892,0.080282606,-0.9779764,-0.3461285,-0.6806557,0.28550452,0.21153165,0.33159387,-0.40590134,-0.2680327,1.1267142,-0.36599338,-0.030330181,0.1201452,-0.5328891,-0.14668657,0.21162467,-0.33769885,-0.016194167,0.05513142,-0.4156009,0.1189397,0.43014854,0.5162071,-0.47468844,-0.05442652,-0.30349085,-0.41059506,0.28590134,0.25237587,0.23005132,-0.102788165,0.039728217,-0.3784474,-0.038269363,-0.0143781565,-0.033991575,0.4756406,-0.060520872,-0.07337048,-0.17436182,-0.48179826,0.019976139,0.3571828,-0.32623965,-0.18285018,-0.3013392,0.33657053,0.3667472,-0.99326587,0.178463,-0.04620456,0.4568957,0.9384973,-0.28761268,0.12522937,-0.32201013,-0.6627947,-0.21227531,-0.1718233,0.017182391,-0.2642772,0.0737779,-0.17726062,-0.3906519,0.18894382,-0.17940867,-0.053613603,-0.38791487,-0.02323021,0.061096556,-0.22183797,0.16049814,-0.15961733,-0.35732073,-0.23703897,0.16432156,0.5020497,-0.07221641,-0.49058437,-0.635702,-0.13659726,-0.68967366,0.008060008,0.048144266,0.070337996,0.15769963,-0.10950241,-0.0039673895,-0.17520362,0.1590089,0.46877888,0.20939451,0.0050784796,-0.74219406,0.6917702,0.02592896,-0.20207036,0.1736408,0.28842574,0.042803153,0.19325994,-0.3286022,-0.17660905,0.32739222,0.15651795,0.36090806,-0.22292668,0.2626481,0.06362012,-0.27875358,0.120787874,-0.029945798,-0.27358413,-0.82074976,-0.02829234,-0.091050334,0.1047393,0.67345065,0.13372323,-0.2810883,0.23686808,0.1453626,0.06882441,-0.23871762,0.33958918,0.3231032,-0.0038034245,-0.06179464,-0.034904763,0.74587536,-0.44989857,-0.27828872
