,0,1,2,3,4,5,6,7,8,9,10,11,12,13,14,15,16,17,18,19,20,21,22,23,24,25,26,27,28,29,30,31,32,33,34,35,36,37,38,39,40,41,42,43,44,45,46,47,48,49,50,51,52,53,54,55,56,57,58,59,60,61,62,63,64,65,66,67,68,69,70,71,72,73,74,75,76,77,78,79,80,81,82,83,84,85,86,87,88,89,90,91,92,93,94,95,96,97,98,99,100,101,102,103,104,105,106,107,108,109,110,111,112,113,114,115,116,117,118,119,120,121,122,123,124,125,126,127,128,129,130,131,132,133,134,135,136,137,138,139,140,141,142,143,144,145,146,147,148,149,150,151,152,153,154,155,156,157,158,159,160,161,162,163,164,165,166,167,168,169,170,171,172,173,174,175,176,177,178,179,180,181,182,183,184,185,186,187,188,189,190,191,192,193,194,195,196,197,198,199,200,201,202,203,204,205,206,207,208,209,210,211,212,213,214,215,216,217,218,219,220,221,222,223,224,225,226,227,228,229,230,231,232,233,234,235,236,237,238,239,240,241,242,243,244,245,246,247,248,249,250,251,252,253,254,255,256,257,258,259,260,261,262,263,264,265,266,267,268,269,270,271,272,273,274,275,276,277,278,279,280,281,282,283,284,285,286,287,288,289,290,291,292,293,294,295,296,297,298,299,300,301,302,303,304,305,306,307,308,309,310,311,312,313,314,315,316,317,318,319,320,321,322,323,324,325,326,327,328,329,330,331,332,333,334,335,336,337,338,339,340,341,342,343,344,345,346,347,348,349,350,351,352,353,354,355,356,357,358,359,360,361,362,363,364,365,366,367,368,369,370,371,372,373,374,375,376,377,378,379,380,381,382,383,384,385,386,387,388,389,390,391,392,393,394,395,396,397,398,399,400,401,402,403,404,405,406,407,408,409,410,411,412,413,414,415,416,417,418,419,420,421,422,423,424,425,426,427,428,429,430,431,432,433,434,435,436,437,438,439,440,441,442,443,444,445,446,447,448,449,450,451,452,453,454,455,456,457,458,459,460,461,462,463,464,465,466,467,468,469,470,471,472,473,474,475,476,477,478,479,480,481,482,483,484,485,486,487,488,489,490,491,492,493,494,495,496,497,498,499,500,501,502,503,504,505,506,507,508,509,510,511
Africa_43.png,0.068069175,0.38709328,-0.066918515,0.20284832,-0.0070524886,0.11844833,0.38205194,0.0042464733,0.6595992,-0.29893437,0.055736504,0.20311536,0.118534386,-0.27462858,0.23483732,-0.42307734,0.9485297,0.28612366,-0.1693742,-0.16333702,-1.4417279,0.16291103,-0.2757517,-0.21912768,-0.010643415,0.2651655,0.28508252,0.17916891,-0.2328932,0.33010036,-0.069484286,-0.06914834,-0.042143077,-0.16105098,-0.48279968,0.32504833,0.008487955,-0.0005259067,0.11396626,-0.22395724,-0.16166581,0.041889578,0.4572798,0.27109924,-0.076440915,-1.0712321,0.4382289,0.59240204,0.16630898,0.068423964,0.12729761,0.057431445,-0.09406358,-0.42299858,0.3353668,0.07846231,0.392825,-0.26590994,-0.43402344,0.08886565,-0.7432819,0.27198255,-0.20782639,-0.19600709,-0.72321445,0.1985945,0.2614548,1.3235923,-0.27357852,-0.12637234,0.08488334,-0.5223363,-0.24837902,0.027713679,-0.25416517,0.31756848,-0.7785617,-0.6256131,0.4069949,0.09137127,-0.0001611159,-0.2465505,-0.20853245,0.030023262,0.0013044104,0.15461987,0.07033713,-0.2449923,0.68979037,0.4855041,-0.07256015,-0.13076295,-6.253128,0.40884548,0.00958395,-0.3265756,0.3865983,-0.26929763,0.44113058,0.17133905,0.051728457,-0.07255498,-0.40361613,-0.12901555,-0.22715652,-0.0829263,-0.47218224,0.17301916,-0.007751286,-0.48522627,0.5586218,-0.27384305,0.16538222,-0.33092457,0.18934584,-0.5977809,0.83964074,0.26917675,0.052274693,-0.7450535,-0.38915712,0.2129734,0.3386647,0.065612055,-0.08522215,0.13264222,-0.12576047,0.07637566,0.0071772337,0.110104665,-0.061940223,-0.32891557,0.31284037,0.8223735,-0.11254089,-0.2409947,0.054177478,-0.64569473,0.55396414,0.40543374,-0.22113375,0.09304404,-0.07123648,0.0062925536,-0.39819407,-0.24134737,-0.14465034,-0.032085918,0.09317462,-0.13742763,-0.25209397,0.20271733,0.78236955,-0.08250865,-0.1807804,0.07056065,0.22322917,0.5651471,-0.14388457,0.31306753,0.23318699,-0.6562756,0.06856322,-0.037345648,0.3760068,0.33895436,0.1736381,-0.19127607,-0.12853359,-0.2969994,-0.2957592,0.2288699,-0.27119473,-0.3363036,-0.15037161,0.58784986,-0.98102236,0.017384041,0.96921355,0.3832075,-0.5183108,-0.93197006,0.099572554,-0.4672985,-0.23529774,-0.043022886,0.13165084,0.17397903,0.02076058,-0.13045856,0.34808177,0.1956419,0.06063833,0.22858393,0.098312244,0.16827977,-0.706933,-0.004045889,-0.23362513,-0.057913937,-0.043508172,-0.12497951,0.24886237,0.018708443,0.028315919,-0.28885946,-0.304502,0.23833263,-0.08125822,0.16580674,-0.46726105,0.24596035,-0.077886455,0.2520174,0.36429745,-0.40461865,-0.46441507,0.24405974,0.42965218,-0.003966946,0.3659167,0.5081244,0.18694715,-0.20115158,0.34778276,0.23582512,0.13205096,-0.2946007,0.1664807,0.029202878,-0.12065756,-0.09702462,0.004256021,-0.60066235,-0.15913367,-0.1655482,0.05973611,0.03253238,0.029386096,0.23658322,-0.42406046,0.16923265,0.23572132,-0.043340236,-0.53213006,0.10174849,0.25789785,0.42078334,0.06268879,-0.037614055,0.17939444,-0.05270425,-0.05027371,-0.287783,0.08581616,-0.114867926,0.22247128,0.63158053,0.035209626,-0.1335025,-0.22692075,0.30165917,-0.2781976,0.7202125,0.3513094,0.0873647,-0.080519564,0.22120261,0.53918946,0.23624179,0.14787066,-0.1356318,0.034224935,-0.26417735,-0.009801447,0.32069147,-0.1513525,0.08577493,-0.124690354,-0.19682585,0.53011763,0.07064001,0.3715075,0.23203263,-0.18840848,0.35184708,-1.2653643,0.54380924,0.3698566,0.04766965,-0.073668115,-0.12322818,0.4283774,-0.0673314,-0.09206281,0.6807339,-0.537583,0.15622646,0.28250542,-0.08002105,-0.16931033,-0.3680451,-0.7281694,0.5178738,0.24168915,0.59000313,0.14473128,0.27028215,-0.16192213,0.2336402,-0.4331375,-0.1438869,0.82145536,-0.3172322,0.04906467,0.59965134,0.32239997,0.78832376,-0.02530426,-0.32261968,0.3949841,1.7385585,-0.08730542,0.20832598,-0.48436216,-0.060337476,-0.0914294,-0.014527775,0.07791471,-0.10866818,0.26288453,-0.18243924,0.09342268,-0.280788,0.0034014583,0.016334074,0.21019134,-0.57955766,0.0765929,0.044717893,0.3511593,-0.20563254,0.008604132,-0.099059425,0.4444366,-0.30382052,0.14408422,0.048382994,0.066228785,0.5580491,0.2978474,-0.25878942,0.8324154,0.09169528,-0.15924168,0.11721282,0.06934948,0.2992068,0.2467689,0.6805528,-0.7006254,0.2220918,0.11163489,0.33856863,-1.0919999,-0.020529673,-0.06473481,0.8685949,0.17322221,0.2819727,0.2831277,0.56806016,0.088834554,-0.1129473,-0.65277314,0.0014254302,0.7411376,0.57830334,-0.19206277,0.22775526,-0.04035413,-0.95965016,0.25953776,-0.38421226,-0.24253947,0.12599166,0.15788895,-0.5905246,-0.33131722,0.9692493,0.6812544,0.0018006265,-0.042262502,0.38189712,-0.14745598,0.13144816,0.30321974,-0.65684706,0.32152453,-0.5815838,0.4329712,-0.110184364,-0.03627047,-0.350782,0.04182481,-0.0522902,-0.32256547,-0.09323923,0.23649877,-0.6067609,-0.08581928,-0.03090556,-0.61182505,0.19844757,-0.07251657,0.17429546,0.31875682,-0.25182796,-0.42564246,-0.2552007,-0.1844889,0.11540596,0.17680094,0.44241583,-0.027308466,0.37607127,-0.10422914,-0.41198075,-1.8692491,-0.22043718,0.03073049,0.2627317,0.8840034,-0.06929771,0.21354388,-0.4230606,-0.35947576,-0.13624921,0.14488912,0.41830635,0.30085322,0.39121237,0.03724046,0.18783516,0.27857366,0.23957995,-0.06611205,0.14629856,-0.07634642,-0.0955223,-0.308828,-0.21822679,-0.31098035,-0.7339238,0.03079772,0.20360874,-0.23523569,-0.7579357,-0.12855862,-0.6356334,-0.08495507,-0.119044326,0.0016342402,0.08889088,0.18512194,-0.21469933,0.04906165,0.4002773,0.13751528,-0.20913085,0.2774005,0.20637044,0.28331354,-0.5613112,-0.078644305,0.03886457,0.22328274,0.013673939,0.6318313,-0.26812187,0.1639141,-0.26017386,0.31568193,0.1699363,0.23403485,-0.080233425,0.14370482,0.2165089,-0.025124937,-0.20053129,0.13135526,-0.71507084,0.2623679,-1.1218827,-0.017086938,0.14597027,0.3175454,0.15956753,-0.22575039,-0.3938676,0.71598256,-0.2279644,-0.15955447,0.3641396,0.36383435,-0.14490946,0.37187085,-0.09172415,-0.12543087,0.60725933,-0.21998227,-0.14778368
Africa_11.png,0.023589246,0.31591728,0.2166827,0.146326,-0.096863516,0.15619284,-0.2076449,0.3643164,0.29201972,0.17530906,0.29988885,-0.032038115,0.18640292,-0.13775873,-0.18167451,-0.19544753,0.9562168,0.15882769,-0.062486924,-0.06687626,-2.017612,-0.10425407,-0.09474203,-0.11320806,0.346106,0.33181012,0.30608195,0.21385843,-0.029628068,0.10671876,-0.08745925,-0.09520764,-0.015826598,-0.076102056,-0.67423296,-0.29976958,-0.32814357,-0.1256661,-0.034942836,-0.4340079,-0.30328247,0.27294835,0.6867168,-0.004715875,0.0076022297,-0.8457725,0.13989797,0.17905802,0.097319685,-0.13092227,0.30434552,-0.062470146,-0.22598922,-0.079265885,0.04277835,0.1802782,0.17425269,0.082411185,-0.507902,-0.07315258,-1.1170027,0.6668908,-0.1410501,-0.08853217,-0.35484958,0.023880156,0.21206376,1.5306172,-0.17159893,0.10251407,-0.5417675,-0.5064754,-0.27986592,0.7272123,-0.18283519,0.027482796,-0.7305088,-0.6121465,-0.1941913,0.37874988,0.30905685,-0.32978892,0.12439626,0.30223098,0.24238789,0.14844951,-0.2997641,-0.33660334,0.8045454,0.16201755,0.033968836,0.055127434,-6.7558784,-0.03251365,0.10246496,0.10842174,0.08760394,0.25276718,0.47171673,0.35142678,-0.19044119,0.62972236,-0.6072809,-0.18084837,-0.4631731,-0.20388383,1.1617951,-0.057457212,0.07486422,-0.527331,0.4526372,-0.091084406,-0.13333997,-0.47863686,0.41418755,-0.6061757,0.30644447,0.1347637,0.011767482,-0.5725927,0.10177819,-0.20651035,0.043137804,0.4080343,0.17005876,0.43695724,-0.38514662,-0.21532948,0.30036303,-0.08524495,-0.21439832,-0.6055783,0.062673435,0.91831577,-0.25121453,-0.10054908,-0.542227,-0.44266775,0.40863967,0.5263058,-0.025394978,-0.16147488,0.30730656,0.020324381,-0.21226978,0.0046455897,-0.04697135,0.18919268,-0.10906238,-0.11873777,-0.65569335,0.26921326,-0.14117745,0.17477304,-0.45621288,0.02865836,0.29014468,0.20896226,-0.021181852,0.4521339,0.5574229,-0.31132564,-0.07718122,-0.11964661,0.027819235,-0.099193856,0.21299791,0.041989982,-0.17802584,-0.07858461,-0.12992896,-0.07451688,0.07010314,-0.47878313,-0.16863695,0.2875073,-0.9560777,-0.3157948,0.10458263,0.43778205,-0.11252226,-0.9075496,0.19577049,-0.15886775,-0.46522206,-0.120004065,0.23604622,-0.23413175,0.05208548,-0.1776686,0.6149399,0.41830778,0.037173122,0.027758893,-0.107878536,0.173906,-0.7396428,0.073510885,-0.2693292,-0.036171123,-0.13523577,-0.23678425,0.5896926,0.25623855,0.043645438,-0.23891221,0.063010976,-0.26189044,-0.33347207,0.3666473,-0.04543052,0.48532793,-0.066228285,-0.54365766,-0.119214594,-0.2714246,-0.43781024,0.4092432,0.8636751,-0.27116504,0.48010457,0.17594513,-0.0726888,-0.53952855,0.31654254,0.16035172,0.09972364,-0.10340542,-0.4702409,-0.09522165,-0.4351648,-0.19013241,0.4186814,-0.1485954,-0.30993176,0.28685412,0.045989238,-0.122341916,-0.14529042,-0.027616352,-0.3490112,-0.10934696,0.6556046,-0.05549003,-0.33783686,-0.03155625,0.18534002,0.7940207,0.10678072,-0.3153839,-0.2671095,-0.0968179,-0.10060636,-0.03500428,-0.16324307,0.13340023,-0.09613762,0.30314362,0.39301038,0.110367656,-0.08879054,-0.03377846,-0.21290056,0.5897409,0.20952152,0.30475363,0.09214884,0.030537724,-0.016844943,-0.033431306,0.7871223,-0.20165709,-0.018700197,0.056489483,0.06430009,0.28757995,-0.24620043,-0.3308069,-0.24108787,-0.18235955,0.5908725,0.17213312,0.34505984,-0.05120386,-0.19645149,0.34806627,0.15428805,-0.110616304,0.21726269,-0.028581344,-0.09303138,-0.34655753,0.40094,0.132295,0.24403769,0.6186122,-0.19963065,-0.24707006,0.08403388,-0.023434691,0.078763396,-0.5596118,-0.35860837,0.33354905,-0.2754256,0.5928799,0.15621608,0.39465138,0.11863562,0.43665814,-0.2780662,-0.045570716,0.9158975,-0.07394417,-0.116793714,0.38564417,-0.042377993,0.7367325,0.32296526,0.07893631,0.0063181967,1.6949158,-0.059005205,0.07372236,-0.5579017,0.19014697,0.2794535,-0.43161577,-0.045871668,0.31011656,-0.07791266,-0.35447314,-0.08335502,-0.58260334,-0.19940203,0.1810004,0.053001173,-0.041315824,-0.035020687,0.33264905,0.4877466,-0.2390331,-0.0035759509,-0.06557959,0.5272224,-0.35880053,-0.458529,0.030450417,0.33248588,0.39746368,0.82209337,-0.023486387,0.40646702,0.23288657,0.024999157,0.4886369,-0.53842366,0.66568494,0.116319604,0.35191283,-1.3478422,0.17721605,0.15434115,0.5397348,-0.87341547,0.16925597,-0.28635904,0.89741397,0.12673242,-0.18856129,-0.06785923,0.2646858,0.048061486,0.1466564,-0.6592902,0.107471436,0.2528493,0.45526135,-0.51582915,-0.042390242,-0.35524094,-0.50198907,0.012612298,0.05472081,0.11458505,0.14796239,0.42820057,0.09525642,-0.8899276,0.332309,0.2906769,-0.019066527,0.024697043,-0.0007749414,0.024568237,0.15408982,0.07724002,-0.18470381,0.4329338,-0.26025158,0.22934401,0.07584716,-0.113887995,-0.19069362,0.032733887,-0.3328002,-0.24748766,-0.08808306,0.19556774,-0.22431238,-0.11599582,-0.1609411,-0.53384656,-0.010984777,-0.38862875,0.21852937,0.012723595,-0.050143518,-0.25302085,-0.18104859,-0.10679671,-0.11376508,0.16314635,0.20382853,-0.20628142,-0.14451654,-0.07030598,-0.70631665,-0.47925293,0.21203446,-0.00054711103,0.230061,0.80700034,-0.19183731,0.2815324,0.20193438,0.2460773,-0.2168983,-0.52047724,0.15135655,0.15091622,-0.19698104,-0.16933948,-0.0112333,0.021650333,0.107343554,-0.24594598,-0.09724677,-0.2158488,0.2125554,-0.46757504,-0.23119049,-0.5882694,-0.5425284,0.031237155,0.36387533,-0.3808748,-0.51690334,-0.06378277,0.2504663,-0.14637639,0.35095298,-0.17374799,-0.54353464,-0.05257407,-0.5988597,-0.1153328,0.18291517,-0.10843401,-0.051061332,-0.17282909,0.5455783,0.09639725,-0.6777673,-0.069890484,0.13890296,0.010746226,0.1428169,0.55847067,-0.2588731,-0.19819795,-0.06109938,0.10221433,0.49279606,0.15733954,0.006204903,0.387814,0.2552161,-0.09235936,-0.4934767,0.16394559,-0.39676684,0.42049024,-0.8356241,0.12860587,-0.20010592,0.023943335,0.050686277,0.081786275,-0.41501355,0.20598882,-0.19450513,0.08147916,0.39467436,0.20073852,-0.36460266,0.35782263,-0.24571171,-0.15356362,0.7066058,0.12852967,-0.1483765
Africa_34.png,-0.20324862,0.546899,0.24311456,-0.12981078,0.1867396,0.078565866,0.09353627,0.35412323,0.6138594,0.4823251,0.12378643,0.060727682,0.920039,0.0020978483,0.16418596,-0.20504217,0.5909584,0.5050466,-0.5675267,-0.43568572,-0.75860286,0.014582567,-0.3195029,-0.12565377,-0.15951459,0.26847115,-0.025434516,-0.043978207,-0.254939,0.5343114,-0.23884082,-0.03639008,0.03508769,-0.05230757,-0.4291443,-0.20358649,-0.42071435,-0.122210085,-0.029661149,-0.284387,-0.35378456,0.15920213,0.14018694,0.16512713,-0.20287535,-1.3920683,0.39242268,0.37181738,0.117202155,0.018213712,-0.07565652,-0.033348814,0.012664527,-0.21095121,0.13751008,0.36023265,0.122326076,-0.09460823,-0.5367964,-0.038793806,-0.7708972,0.117410876,-0.068541124,0.09271005,-0.25141492,0.2782872,-0.2760429,0.7994633,-0.19099076,0.19631886,-0.032466248,-0.24944703,-0.004259225,0.0037258584,-0.062181458,0.12899284,-0.8646574,-0.43093938,0.034237064,-0.10002444,0.29616007,0.26645255,-0.23395056,0.030470558,0.043495294,0.34838527,0.56385684,-0.13490081,0.4609916,-0.13120432,0.09744325,-0.41267195,-7.228729,0.68502754,0.037545443,0.19664721,0.2404587,-0.20048796,-0.07914423,-0.0297658,0.22972256,0.16157365,0.2774293,-0.036478326,-0.3723039,0.13928664,-1.1614159,0.004036203,0.2387645,-0.3619315,0.5149144,-0.5621215,-0.123400815,-0.3893785,0.007119715,-0.68279016,0.35066047,0.062201392,0.16835934,-0.63704485,-0.10140881,0.069269136,-0.26810697,-0.31195718,-0.13563454,0.28354746,-0.06099333,0.31441465,-0.058044996,0.47329393,-0.12287852,-0.52454686,0.06992464,0.90723455,0.03273545,0.15302676,0.048133507,-0.83420676,-0.17202565,0.62874043,-0.047816224,0.08100828,-0.20790353,-0.40105915,-0.2400246,0.08810364,-0.41466695,0.05716458,0.017337061,-0.114659,-0.27883118,0.09259529,0.6707793,-0.11357251,-0.12335642,0.18970224,0.20767002,0.13093147,0.141253,0.11324197,-0.15502523,-0.50826746,0.20180568,0.15700595,-0.21553609,0.79924864,0.0615704,0.036432415,0.1552662,0.1349842,-0.013684895,-0.22020027,-0.59009,-0.8286891,0.034610968,0.05731609,-0.2409854,-0.05597879,0.510024,0.16632512,-0.7918082,-0.77800477,0.113868855,-0.35895136,0.12948194,-0.3115731,0.035415486,0.2606761,0.105752364,0.006481558,0.20884964,0.30157387,0.75896424,0.22610815,0.09662449,0.0006095357,-0.95233023,-0.18230817,-0.3544908,0.04644408,0.24742572,-0.47019312,0.2380633,0.33520737,0.15004548,-0.14919464,-0.38986462,-0.12310524,-0.078252986,0.067280166,-0.18820134,0.7695143,0.1336664,0.33990097,-0.045506105,-0.20338808,-0.17874709,0.33912316,0.47303295,0.019940766,0.7396306,0.35409522,-0.08506395,-0.45078853,0.5870182,0.48227724,0.17017129,-0.3879392,-0.20246822,-0.04415199,0.11368592,0.17428872,-0.38548508,-0.8973052,-0.3169507,0.34194884,-0.017169636,-0.102359295,-0.056398492,-0.04978335,-0.42815298,-0.089744,0.3771122,-0.124947205,-0.3456304,-0.06502436,0.26812434,0.30943805,0.15891814,0.07846524,0.16523314,-0.26754156,0.035697132,0.0021848176,0.09258215,0.120848596,0.06425863,0.038664795,-0.11445017,-0.012448076,0.14894047,0.27204293,-0.73564816,0.16210662,0.24570528,0.06426776,-0.061106928,0.3410843,0.41595104,0.13225,0.34441736,-0.039277032,-0.43138006,0.07064281,-0.25940394,0.2848313,0.046789378,-0.24344303,-0.4265797,0.08464826,0.295341,0.16438371,0.31699178,0.34357563,0.19589451,0.6003075,0.031289637,0.011186655,0.03627427,0.07556816,-0.1130355,0.27964115,0.26269466,-0.21242772,0.211457,0.6321036,0.41780776,-0.112091415,0.3932668,-0.37010926,-0.27061194,-0.36187863,-0.45384336,0.50813586,0.18317488,0.2966447,-0.1512779,0.34163773,0.30689433,0.095429584,-0.2870605,0.0116168875,0.90617025,-0.06064873,0.1714701,0.47204167,0.030773796,0.6695609,0.0054357946,-0.2655001,0.46545488,1.8542502,0.09550917,-0.31075758,-0.05958021,-0.058819227,-0.430991,-0.2471489,0.14334823,0.27641204,0.14615774,0.22928149,0.1710151,-0.43195015,0.013992136,-0.23624976,0.41736606,-0.06915535,0.4504909,-0.29414076,0.8580649,-0.16336407,0.07221994,-0.25714958,0.23396528,-0.020270187,0.015157789,0.12208085,-0.0038771443,0.5742168,0.109161146,0.06469981,0.13659407,-0.296349,0.025520846,-0.2806683,-0.13509326,0.4073373,0.039696507,0.0026968531,-0.6423346,-0.2470259,0.5039556,0.5554481,-1.0865556,0.04872711,-0.07868346,1.0797565,0.39272478,-0.035860267,-0.0840147,0.33338386,-0.096760474,-0.08895858,-0.5337571,0.1796292,0.5680244,0.35318294,-0.72477436,-0.25518075,0.029323682,-0.53775656,0.3094706,-0.30328283,-0.074450545,0.05823922,0.44360906,-0.4538349,-0.29748347,1.0378819,0.27593642,-0.28482994,0.079396166,0.13871181,0.02253934,0.5106749,0.0439263,0.02532994,-0.03083606,-0.47505504,0.21709074,-0.12938204,0.567569,-0.39566934,-0.18505424,-0.6259816,-0.4177822,0.24299489,-0.12577635,-0.0895288,0.064818256,-0.17341065,0.017421663,0.05970376,0.11656423,0.026919916,-0.04039134,-0.04866116,-0.51432586,-0.7159105,-0.28976184,-0.1646797,0.257883,-0.20765176,0.11565454,0.47275707,0.19995748,-0.18317509,-1.8258837,-0.0111060515,-0.15502135,0.23093715,0.7544949,-0.16879031,0.317575,-0.40879542,0.0617321,-0.7308253,-0.014314942,0.34161228,0.29940015,0.043652046,0.110114604,-0.046445847,0.28007877,0.19137955,-0.0402515,-0.671597,0.09775257,0.53784597,-0.5308601,-0.011030763,-0.10851748,-0.7525214,0.15565597,-0.115119636,-0.23201063,-0.5752673,-0.37286532,-0.7272437,-0.20385695,0.04441745,0.12728173,-0.2683903,-0.030647784,-0.24384531,-0.119084954,0.49300992,0.026908865,-0.08468692,0.43477425,0.2235694,-0.22676133,-0.4478415,0.077892855,0.29687503,0.06897573,0.17297925,0.29534757,-0.4710469,0.018292814,-0.28310797,0.047692165,0.009847276,0.32528096,0.007219121,-0.19481505,0.1533373,0.031060234,0.08014381,0.03238432,-0.4243192,0.052119493,-0.6479014,0.10752888,-0.062390134,-0.25373444,0.030173287,-0.16013202,-0.75758386,0.4019866,-0.14279553,0.008425236,0.53402305,0.78930694,-0.06229934,0.49130714,-0.3290535,-0.40303004,0.5881925,-0.25120372,-0.55195767
Africa_35.png,0.45348126,0.4303639,0.53735876,-0.14011079,0.13890465,0.11981681,0.08971229,0.24313572,0.3167593,0.31302997,0.18324971,0.3776507,0.39737296,-0.07354645,0.22578892,-0.2304214,0.85600454,0.08965306,-0.040512066,-0.43956506,-1.6059173,0.07805945,-0.38827345,0.19311827,0.07526946,0.14793262,0.09098487,-0.2776089,-0.10390558,0.25461766,-0.01984436,-0.23303303,0.050105453,-0.2009032,-0.37177536,-0.06177304,-0.043332253,-0.12416227,-0.25006527,-0.5858203,0.35714942,0.2434211,0.432017,-0.069836974,0.028458495,-0.51096106,0.08096048,0.106673315,-0.117143,-0.02837681,0.13469735,-0.19070016,0.12251428,-0.55582297,0.17217396,-0.16631855,0.1268622,0.41744912,-0.33365852,-0.081479624,-1.1469433,0.36179486,-0.11471244,0.13370943,-0.33383074,0.029053971,0.043162722,1.059544,-0.29991403,-0.052238606,-0.110141486,-0.24122654,-0.37388408,0.42716843,-0.002119109,0.056199513,-0.5888279,-0.17557731,0.24968302,0.19810326,0.363881,-0.20308712,0.4351767,0.456283,0.27774996,-0.32993895,-0.41238353,0.39035025,0.5134677,-0.14740193,0.025864705,0.17055917,-6.422012,0.58811814,0.08549252,0.07018238,0.015738407,-0.098462075,-0.18563576,0.045341853,0.038801074,0.3730072,-0.1744163,-0.11401221,-0.5307886,-0.132391,-0.64107823,-0.30212772,0.17289434,-0.18235318,0.26934412,-0.28131923,0.15777153,-0.21165565,0.20296744,-0.28890318,0.34915227,-0.2876187,0.30588534,-0.7387126,-0.05060564,-0.4295321,-0.11277681,0.10070722,-0.07570422,0.117060676,-0.25679803,-0.09714405,0.07299623,0.27050912,0.056839302,-0.0054490836,0.7472554,0.8983318,-0.078647435,-0.25750175,-0.36292678,-0.49312842,-0.05527391,0.66522723,-0.18072161,0.111273445,-0.0720228,0.20808783,-0.89822197,0.14545542,-0.46489838,0.08237655,-0.07726715,0.015065968,-0.19664335,0.00042781606,0.35362005,0.4340654,-0.24302906,-0.25447765,0.45317405,-0.10845104,-0.09814951,0.14595908,-0.19920301,-0.46778476,0.3503796,-0.22260363,0.4228567,-0.023827175,0.47045928,0.143333,-0.085608475,-0.0119834095,0.13478933,0.103807,-0.26266816,-0.16352695,0.0928707,-0.17058381,0.059493035,-0.40048993,0.9265031,0.27871424,0.049096826,-1.0416112,0.20638728,-0.23903415,-0.25368503,-0.087433316,0.21817602,-0.12515905,0.4325022,-0.025174037,0.62320286,0.07755284,0.2377416,0.25390184,0.067031994,0.32058263,-0.3050902,0.12587515,-0.20793477,-0.068399474,0.0814442,0.00096989796,0.65707046,-0.038719475,0.13024366,-0.2858556,-0.2987966,-0.40670782,0.07223719,0.30706203,-0.35864636,0.6412953,-0.077368096,0.32333568,0.4002203,-0.30321574,-0.3568646,0.55763793,-0.022534795,-0.074552536,0.4096012,0.33130437,0.046145335,-0.6585715,0.19391544,0.10151699,0.30293417,-0.28868473,0.043037042,-0.19541638,0.27102828,0.2127724,0.19241688,-0.73123014,-0.04508317,-0.0020946264,-0.025510482,0.015355848,0.4665374,-0.45701516,-0.082638636,0.011312112,0.40490425,-0.14347318,-0.2798062,-0.75412667,0.03907332,0.009113416,-0.19584437,-0.28177172,-0.06547359,-0.6576217,0.24401295,-0.14753336,0.11665227,-0.3309378,0.039043278,0.09143761,-0.30592704,-0.023784563,0.49501747,0.24371634,0.23518404,-0.06486936,-0.11548531,-0.10857928,0.073886946,0.056812108,0.21665744,0.43912464,0.06351147,-0.16590294,-0.02343485,0.010856997,-0.20591775,0.51669896,-0.19719556,-0.46715325,-0.24791367,-0.112787694,0.3935634,0.12314106,0.0818344,0.20909321,-0.20515653,0.35826403,-1.2719878,0.20409991,0.54710025,0.030516447,0.46722594,-0.3814927,0.39650106,0.10404427,-0.27626908,0.46747482,0.7888969,-0.27951583,0.14044479,-0.029578581,0.08371264,-0.4772673,-0.511234,0.44226825,-0.19571938,0.17292373,0.09444486,0.42011306,0.22365753,-0.069005184,-0.24625236,-0.1273586,0.89685446,-0.4727375,-0.34473753,0.24898344,0.027036548,0.5931525,0.11146954,-0.20840868,0.35438585,0.6474174,-0.15663044,0.36320347,-0.42663842,-0.10112496,0.17891529,-0.35833657,-0.26784784,0.084832,-0.088445,0.35546565,0.088418245,-0.30140322,0.12678729,0.25886142,0.17338437,0.15055558,0.29424554,0.303726,0.09841621,-0.2857427,-0.051054567,0.3529178,0.18562108,-0.33176917,0.0021085418,0.286847,0.049856544,0.32209918,0.29297504,0.047263607,0.48630014,0.07207909,-0.20310652,0.08233462,-0.35160345,-0.15313116,-0.28177467,0.27933,-0.6221054,-0.18052524,0.56554323,0.4960975,-1.0194547,0.027871221,-0.40086606,1.3445549,0.5451451,-0.447988,-0.12246083,0.25893268,-0.10820915,-0.08643727,-0.20275521,-0.22744364,0.19064741,0.23602432,-0.3491699,0.073320076,-0.095743775,-0.64167905,-0.11614309,-0.33560717,0.061557025,0.42830408,0.26829365,-0.08980311,-0.25954998,1.0789702,-0.12857732,-0.16810444,-0.15246955,0.06206116,-0.021865133,0.14094737,-0.1653383,-0.28169367,-0.040116936,-0.5072693,-0.23685724,-0.08086829,0.06568887,-0.13403109,-0.13265947,-0.077009745,0.024216808,-0.31516078,-0.28477773,-1.016112,-0.77094775,0.47372946,-0.37752283,0.054824255,-0.44656956,0.23759729,-0.29397362,-0.30333173,-0.09113538,-0.612508,-0.07929955,-0.23734707,0.3403245,0.79347795,-0.19603616,0.4669927,-0.19607118,-0.33300504,-1.085388,0.31203324,-0.48041028,0.2737815,1.436212,0.17375562,0.5126922,-0.25481078,0.25055468,-0.29880553,-0.18334925,0.20365772,-0.07884567,0.10140473,-0.024475373,-0.34263054,0.19048537,-0.0032680668,0.046423405,-0.064758494,-0.31274545,0.044209667,-0.3143779,-0.11284077,-0.2737717,-0.3636544,-0.11214572,-0.29897374,0.15010646,-0.5667829,-0.48875606,-0.5842394,-0.14615507,0.18222803,-0.4215792,-0.41837266,0.04667829,0.041281313,-0.19522463,0.17484799,0.091907,0.17628235,0.1598639,0.17179118,-0.3270936,-0.4858784,-0.28378567,0.32090977,0.12690368,0.13497761,0.7553541,0.15728797,0.35133904,-0.56803507,-0.12214887,0.21608737,0.4404342,0.10126914,0.25665975,0.23705316,-0.16682571,-0.48705652,0.668759,-0.19323805,0.23129365,-0.93047,0.0254879,-0.24140285,0.10959615,-0.1310879,-0.068778835,-0.0658102,0.013085468,-0.12924871,0.21707126,0.7105941,0.4106701,0.05855409,0.23075327,-0.40501878,-0.442845,0.31685466,-0.12288945,-0.0064793527
Africa_47.png,-0.6064374,-0.09413823,0.22558191,0.25861883,0.10072735,0.11261548,-0.28191012,0.11942959,0.39052755,-0.0064611584,0.5559046,-0.47454742,0.4589057,-0.101103224,0.60555834,0.35276675,0.7039932,0.19102113,0.09471215,-0.14700937,-1.6863014,-0.049298838,-0.11552801,-0.31617466,-0.20187473,0.14815417,0.32693988,-0.21191582,-0.06005709,0.21051429,-0.12360346,-0.032403603,-0.34896573,-0.21728656,0.047633305,0.12350645,-0.13792643,0.13383868,-0.3383789,0.20121016,-0.099947564,0.33879218,0.61559594,0.15441318,-0.52384603,-0.83581305,-0.16428593,-0.099238366,-0.23919466,-0.07465008,0.1815598,0.25002176,-0.14109218,0.088346064,0.5421699,-0.19946972,-0.20458359,-0.2169,-0.4359373,0.32674414,-0.907105,-0.26337665,-0.16588971,-0.16091351,-0.41710836,0.0076592453,0.06860876,1.2442589,0.10637696,0.19462863,-0.07424564,-0.17811581,-0.66989666,0.5888247,-0.18881376,0.20505443,-0.52674854,-0.36454976,0.0050705224,0.18957043,-0.07428548,-0.49079558,0.023719382,0.6855361,0.32074642,0.048355132,-0.44543692,-0.5239933,0.8118584,0.24666415,-0.11436586,0.043757647,-5.137203,0.45521998,-0.15746152,-0.21088444,0.037652306,-0.36059847,-0.14264014,0.32480636,-0.3119082,0.272491,-0.7137076,0.29073495,-1.0465763,-0.30866602,-0.4403652,-0.25938815,-0.13594943,-0.21011579,0.4667105,0.2264054,0.21389154,-0.38725618,0.10522017,-0.22241801,0.03866487,0.22768058,0.31318823,-0.6863492,-0.15070057,0.3370329,0.16878614,-0.07256589,0.1171985,-0.15221013,-0.18214697,-0.018317746,0.08692634,0.5421082,0.12531008,0.07745835,0.3948282,0.7632374,-0.46974757,-0.22947758,-0.36982638,-0.8397763,0.14101294,0.47318834,0.352986,0.09213436,0.2610001,-0.046981275,-0.47015324,-0.12162185,-0.45614114,-0.20438851,-0.16693383,0.13800095,-0.6451647,-0.19979618,0.9007174,-0.09532733,-0.03900092,0.0012212992,0.118525416,0.5049752,-0.49106425,0.07863327,0.08787858,-0.11473787,0.028723687,0.20572636,-0.025354221,-0.021737166,0.117623836,0.24435438,0.09749201,-0.43872288,0.29986346,-0.13610451,-0.0722087,-0.42073187,-0.47651422,0.0063822865,-0.58653426,0.039631836,0.5613058,0.26951206,0.1637227,-0.5507839,0.15156667,-0.022420883,-0.35621056,-0.09108266,-0.019160457,0.15709953,0.3201113,-0.23967263,-0.015242502,0.16845766,-0.05988218,-0.31669268,-0.009050861,0.26597324,-0.5868005,0.12027742,-0.12699531,-0.19043836,0.24290214,-0.074393444,0.1385037,-0.17187276,0.008213181,-0.14010073,0.23395593,0.20676221,0.18938595,-0.27986747,0.009064585,0.3188849,0.18568552,-0.052796938,-0.47057647,-0.012787417,-0.2368469,0.5647029,0.12088978,0.044880807,0.24819882,0.25930804,-0.027359158,-0.10755536,0.46206608,0.31992993,-0.052882165,0.25220537,0.3315274,-0.055499226,0.008609131,-0.4301648,-0.29204604,-0.7231877,-0.22053501,-0.12954275,-0.030421562,0.31908703,0.38301122,-0.054837346,0.16180187,-0.074947864,0.55310756,-0.06799126,-0.18604138,-0.36145192,-0.16617233,0.1250948,0.14915912,-0.4466138,0.47144088,-0.23796184,0.07174104,-0.030174881,-0.08132209,0.05847451,0.010795802,0.25692067,0.13976997,0.056148425,-0.2933267,0.14018306,-0.023116339,0.51956433,0.086744666,0.20481825,-0.12570089,0.55747986,0.4293036,0.19400984,0.27617416,0.3199762,-0.49423596,-0.040119696,0.508507,0.31782734,-0.01058504,0.043861415,0.07326824,-0.011756491,0.61260074,0.15664892,0.09407178,0.20163545,0.0022309944,0.046049416,-1.1005099,0.29885107,0.47230312,0.17650364,-0.20177142,-0.08268963,0.25051636,-0.36274415,-0.24226992,0.4178732,-0.06177342,0.1984656,0.60749364,-0.15366076,-0.25865483,-0.22830254,-0.41515642,0.57031465,0.32517397,0.49194252,-0.357657,0.40526655,0.64198565,0.16512695,0.05494064,-0.26256302,0.76348686,0.02170904,0.024492867,0.29986367,0.49311087,0.43060097,0.41292208,-0.09530657,0.9398354,0.7686407,0.06404383,-0.081250146,-0.08942923,0.039298277,-0.25249517,-0.023559354,-0.016746443,-0.22733432,0.08306381,0.06827452,0.174858,-0.011322044,0.2050135,-0.16374011,0.025137037,0.09176956,0.26170468,0.091506734,-0.37629768,-0.4546415,0.08380992,0.2634161,0.5911893,0.4945058,0.27000362,-0.09541074,-0.06841561,0.5396676,0.48377353,-0.38315362,0.298188,-0.19231173,0.00046366453,-0.01366163,-0.050529987,-0.49592614,-0.55743736,0.064111605,-0.34930602,-0.4529817,0.18120882,0.4594534,-1.2475948,-0.009249739,0.17274417,0.9877815,0.16130176,-0.060409255,-0.18970026,0.1398989,0.20326415,-0.47735524,-0.47238517,0.06461918,0.12389009,-0.19839483,-0.35461584,-0.09756323,0.15782218,-0.692908,0.08932951,0.16327488,-0.59032565,0.078590274,0.14865878,-0.16321778,-0.17466992,-0.553163,0.22691564,0.3597026,-0.14500326,0.16763048,-0.020616755,-0.16170073,-0.24884066,-0.24249518,0.15128845,-0.16826186,0.5543899,0.1037231,-0.20429543,0.14973019,-0.07024244,-0.3903798,-0.35315925,-0.21363609,0.2755197,-0.69241655,-0.76915604,0.35930791,-0.25542378,0.2647906,0.05471865,0.57018286,0.1387623,0.024665687,-0.45691413,-0.51737213,-0.13061163,0.23744425,-0.04971513,0.45711434,0.056648906,0.31894508,0.24857965,0.2830159,-1.908697,-0.358485,-0.19786815,0.38584444,0.6130716,-0.29713655,-0.2047993,-0.46973103,0.36511892,0.020679042,0.19752814,0.077037476,-0.16154705,0.1382186,0.1488782,0.08683011,0.41209877,0.17210032,-0.18944952,-0.07965189,0.16942155,-0.19859143,0.039817378,-0.3449279,-0.14431804,-0.9195496,-0.22583951,0.09770324,-0.38353074,-0.6817708,0.12041922,-0.18559846,0.038481925,0.4593657,-0.06098006,-0.37683108,0.029220074,-0.5137372,-0.16125047,-0.010167889,-0.16337079,0.17420636,0.36111194,0.4355899,0.033871494,-0.3964069,-0.10267816,-0.44972566,-0.070275515,0.050492994,0.10906614,0.022984397,-0.4764212,-0.082584366,-0.33508685,0.06946792,0.3472657,-0.08454208,0.05839616,0.10112949,0.03319587,-0.3837037,0.34171844,-0.22681789,0.71948016,-1.0238978,-0.18038726,-0.07376687,0.3045728,0.55676055,-0.0767496,-0.2997961,-0.17670509,-0.44004166,-0.39834073,0.4361425,0.043976918,0.11349457,0.23640062,-0.03960785,-0.12679744,0.8663398,-0.27140445,-0.09349876
Africa_49.png,0.07904971,0.33752558,0.28884724,0.33182466,0.01874549,0.22931293,0.11697269,-0.060498476,0.49928728,-0.12674996,0.08810963,-0.22202736,-0.5146498,-0.19778183,0.22328942,-0.3349371,0.3310356,-0.22392239,-0.10679452,-0.20664328,-1.5207944,0.08827086,-0.416472,0.11254526,0.10708351,0.35233697,0.4112582,-0.006279275,-0.0343581,0.11391581,-0.2200639,0.044575028,-0.12749405,-0.35388878,-0.13760145,0.1294045,-0.37934756,-0.14308825,-0.5634403,0.029307723,-0.5573393,-0.07602283,0.7371569,0.14049698,-0.20051447,-0.9595518,-0.23982456,-0.06749189,0.45637476,-0.15818164,0.21401253,0.27825785,0.2530007,-0.3367915,-0.13596234,0.13752356,0.8014467,0.15205227,-0.5887018,-0.11358518,-1.1951907,0.29165334,-0.08199977,-0.20027393,-0.2841624,-0.38351336,0.2948449,1.443656,-0.03097418,0.2683208,-0.30375388,-0.28167582,-0.26540312,0.3342048,-0.31726027,0.037066627,-0.925477,-0.37808838,0.1746195,0.33982047,-0.021848477,-0.27681276,0.2129103,0.5394018,0.36463645,0.15922129,0.16473654,-0.38897076,0.5509648,0.037434377,0.051161766,0.0030561537,-5.115238,0.59262645,-0.28334397,-0.12381596,0.2587703,-0.12827079,0.008529693,0.27830288,0.18422358,-0.13787183,-0.08461669,0.0927133,-0.6485775,-0.050630186,0.77842206,-0.08016229,0.106009394,-0.5864226,0.17779711,-0.1995689,-0.052839603,-0.1661921,0.07765575,-0.22028841,0.42518568,0.13258216,0.016141355,-0.98474747,0.141424,0.29384878,0.4062578,-0.067944005,-0.19085997,-0.15050183,0.12024531,-0.5583412,-0.18481344,0.25477517,-0.03983526,-0.3114041,-0.101984695,0.796946,-0.13599078,-0.32710126,-0.15014154,-0.43999952,-0.099640176,0.5505533,0.13432708,0.2174644,0.13183598,-0.32013184,-0.60880864,0.15211295,-0.3105397,0.38412145,-0.40427107,0.16696759,-0.32622316,0.4412637,-0.14408328,-0.03247481,-0.25879478,-0.2061704,-0.24779043,0.33722758,-0.14078787,-0.057612643,0.24799617,-0.8272107,-0.42015707,0.010569394,0.11498483,-0.28838307,0.28442556,0.071882576,-0.033969313,-0.15291877,-0.089954376,0.19440976,-0.24434718,-0.2729831,0.105064474,0.38572678,-0.32913148,-0.36424187,0.74147683,0.07386638,-0.094938874,-0.81484824,-0.09793472,-0.09538125,-0.46446967,-0.1063431,0.23883775,-0.10394664,-0.07977241,-0.05951141,0.045535892,0.13989726,-0.08643774,-0.1346494,-0.18685898,-0.20492576,-0.28571564,-0.06453516,0.045091197,-0.08028585,0.09460467,-0.05345826,0.22890846,-0.30150878,0.12052268,-0.473726,0.17596057,0.18242821,-0.16703886,0.38481975,-0.50629056,0.6070709,-0.15014386,-0.095537774,0.05439841,-0.2126978,0.0859948,0.58955395,0.806327,-0.19040288,0.37194413,0.23537338,0.14755195,-0.4883263,-0.3445046,0.04500206,-0.15962908,0.09974349,0.282344,0.08166991,-0.48949352,0.36275497,0.4279307,-0.37189934,-0.24686526,0.04845348,0.073502876,-0.28008932,-0.19549684,-0.15403634,-0.20094705,-0.083300956,0.48800805,-0.3284997,-0.5251226,0.2156323,0.079347976,0.488764,-0.1622538,-0.03353925,0.16316418,0.426965,-0.53951395,-0.007084459,-0.31125867,0.1549257,0.16627671,0.32200894,0.14398244,-0.09520738,-0.15593979,0.17625499,0.047274448,0.87854135,0.75446886,0.54139817,0.2310495,0.48801324,-0.028221447,0.04142735,0.37764168,-0.5449312,-0.15744914,-0.32749617,0.30658072,-0.026652096,0.01688378,-0.21703982,0.07971836,0.19896913,0.3744278,0.11579563,0.56333125,0.16063763,0.2355858,0.14663404,-0.8680174,-0.08068273,0.23547304,-0.054103132,-0.00673835,-0.550026,0.15991466,0.0067297667,-0.107853696,0.46547127,-0.35350525,-0.13450183,0.2417269,-0.005679967,-0.0067906454,-0.46385604,-0.25043598,0.4579438,0.26527712,0.91694474,-0.09523844,0.37942472,0.14472505,-0.38636303,-0.29660025,0.20702636,0.79504824,-0.34903544,-0.041458875,0.3916,0.67276675,0.8786174,0.20009544,0.24013275,-0.052662194,1.8855834,-0.46895313,0.0515035,-0.18220961,-0.41883954,0.397438,-0.3173321,0.01942309,-0.17782918,-0.23906924,-0.0021597005,0.29005635,-0.14136456,-0.24775776,0.42781547,0.6610397,-0.58732116,0.27271706,0.22586375,0.23158777,-0.26973975,0.3967704,-0.019433519,0.17262536,-0.3089233,-0.19552338,-0.08660872,0.24110067,0.5396847,0.14303899,0.013839491,0.5431479,-0.045619264,-0.09926496,0.51076794,-0.3176092,0.8451177,0.17822456,0.23381382,-0.7674137,0.2331704,0.6744833,0.5800773,-0.5064408,0.03216882,-0.36544597,0.40878808,0.1433605,-0.04424036,-0.07062158,0.15561813,0.38748226,-0.10908481,-0.16934532,0.25429878,0.7917361,0.050616715,-0.40549332,0.35912082,-0.14042078,-0.8757275,-0.05661851,-0.05579644,-0.17799003,-0.0035340488,0.42405027,-0.2382742,-0.85770977,0.78688765,0.44091678,-0.23213974,-0.095490634,0.47766566,-0.0017075911,0.11518583,0.201173,-0.44088334,0.2810445,-0.4343481,0.42526352,0.2954454,0.14213996,-0.28160426,-0.038123883,-0.32638085,-0.22132842,-0.41909856,0.20839351,-0.31510654,0.20006704,0.06888759,-0.7641701,0.17152034,-0.14009888,-0.041171193,-0.23199052,-0.36153048,-0.44958887,-0.41813114,-0.09516701,0.23197417,0.4397353,0.2344268,-0.059348203,0.31640968,-0.38952017,-0.5484958,-1.3812835,0.2744053,0.0059574395,0.37423337,0.81325984,-0.39999,0.3501668,-0.07333659,-0.074246325,0.043924287,-0.02496507,0.09964169,0.041104153,-0.20002589,0.5230476,0.417728,0.5490531,0.27208623,-0.6220491,-0.3966892,-0.16006266,0.1655713,-0.2984714,0.044324998,-0.5667758,-0.5138677,-0.39345577,-0.055233404,-0.5664008,-0.8304645,-0.28630325,-0.18220522,-0.07498179,0.5850016,-0.034973606,-0.77203417,0.09957038,-0.006291803,-0.0303438,0.275691,-0.090265065,-0.16872841,-0.15435669,0.21331309,0.046217665,-0.47075903,0.045335025,-0.073804006,0.115261406,0.34400448,0.70120645,-0.07243419,-0.14988682,-0.09390372,0.06836891,0.43337095,0.37151915,-0.09900878,0.22545901,0.49657226,-0.19271114,-0.21135382,0.23058285,-0.43244058,0.05073282,-0.8516297,0.041894022,0.021340862,0.4023365,0.12660512,-0.13325723,-0.44366765,0.46766827,-0.34784776,-0.17465293,0.37326002,0.4266581,-0.06114555,0.11614201,-0.26732802,-0.23668227,0.47662026,-0.19824299,0.01035811
Africa_42.png,0.22492662,0.26642254,-0.16250014,-0.3115285,-0.044777095,0.2282714,0.17919828,0.17619306,0.419091,0.03707439,-0.27405772,0.41337395,0.28529233,-0.23260337,-0.01395341,0.03151018,0.92422163,0.0074829906,-0.20942533,-0.12665896,-1.6636822,-0.24894634,0.03963261,0.41830748,-0.21608524,0.32827336,0.1631988,-0.3189173,-0.059347488,-0.20828441,-0.41248566,-0.35753074,-0.32668445,-0.11794389,-0.5245534,-0.24355468,-0.39916465,0.04302889,-0.33320308,-0.19308707,0.11448411,0.39277315,0.33167472,-0.035729736,-0.34211516,-0.7318188,0.44852692,-0.09552476,0.01332204,0.23620026,0.26463312,-0.032482788,-0.1329167,-0.382792,-0.23445547,0.27235252,0.2997389,0.22023712,-0.2915297,0.11450942,-0.9652142,0.29214942,-0.36265224,0.40507355,-0.21305116,0.060971193,-0.0453215,1.2623885,-0.17514732,0.04978665,-0.12183654,-0.12011407,-0.34485254,-0.18555923,-0.031846218,-0.09469162,-0.3961255,-0.4913872,-0.2374197,-0.30047262,0.33417317,-0.0822614,0.12002345,-0.413935,0.18444474,0.3888735,-0.5170244,-0.46121094,0.7576258,-0.3357228,-0.29062793,-0.27742782,-6.1272454,0.28737614,-0.21846247,-0.3765905,-0.31474918,-0.05865176,-0.22178319,0.3719231,0.06966176,0.14645796,-0.21097407,-0.024553735,-0.17473806,-0.08938943,-0.8685181,-0.02397886,0.23569164,-0.34852868,-0.016905293,-0.44462729,-0.021589201,-0.21564573,0.074778415,-0.5825283,0.6536083,-0.37772936,0.3748595,-0.7967658,0.003966041,-0.47585797,-0.04966348,0.3332678,-0.0674553,0.58436775,-0.16444798,0.062407672,0.18900394,-0.39251664,0.05049423,-0.0041695237,-0.2852145,0.8812463,-0.22914387,0.060396176,-0.17124222,-0.37949133,-0.049130164,0.42698658,0.20857666,0.29956007,0.45337206,0.0309261,-0.76622117,-0.5994344,-0.25281817,0.041457444,-0.29951453,-0.23260584,-0.25045565,0.06410682,0.43380165,-0.031411532,-0.22118214,-0.05201897,0.22672558,0.0068031475,-0.062943116,0.35525048,0.06240752,-0.5122338,-0.26992106,0.023945406,-0.009529337,0.32422316,0.46727896,0.07430673,-0.16919488,-0.087126195,0.14302707,-0.55614805,0.04929964,-0.13667901,0.13027924,0.32598445,-0.42326212,-0.28841707,0.726009,0.103263445,0.049806178,-0.8141854,-0.19357687,-0.03866911,-0.059475943,-0.08588427,0.16664836,-0.26272273,0.015548816,0.10934476,0.1798257,0.12398744,0.21637659,0.09052895,0.25920862,-0.09695172,-0.46365118,-0.47086453,-0.49447227,0.2731754,-0.20943765,-0.0661873,0.3779088,0.32801902,-0.21099985,-0.25826406,-0.093246385,-0.31928474,-0.2066393,0.121954784,-0.46532303,1.25666,-0.3475681,0.3596428,-0.217842,-0.35121834,-0.30630434,0.21574794,0.21860154,0.27583623,0.27233252,0.73469603,-0.037042826,-0.3580994,0.45264107,0.49410856,0.5725907,-0.5183728,-0.113950096,-0.2717633,0.13474654,0.20310567,0.35335246,-0.7257326,0.13226114,0.11417735,0.15903448,-0.606961,-0.08034763,0.039154112,-0.46625715,-0.18911113,0.39584294,-0.35654292,-0.5678803,-0.79545027,0.09782353,0.12647027,-0.25297186,-0.420396,-0.031102084,-0.24796736,0.21137868,0.060351387,0.27169994,-0.03917541,-0.15110642,0.031839915,0.024002865,0.07035424,0.14875403,-0.01342237,-0.20150481,0.2413946,0.06305823,0.34471685,0.24171694,0.029072046,-0.054835007,0.29801148,0.5417497,-0.023724034,-0.0042217076,0.19395937,0.27144727,0.22937372,-0.40952027,-0.2618413,-0.1393709,0.24355692,0.6118187,0.50066245,0.6881314,0.21573201,0.35848537,0.3299672,-0.328305,0.28715897,0.040645935,-0.0065353513,-0.15900493,0.051502466,0.23012109,-0.12939437,-0.0025928263,0.41298625,0.7379119,-0.06860123,0.3348338,0.09290834,-0.6059381,-0.757348,-0.44583428,0.599728,-0.18361905,-0.15952002,-0.28042802,0.56087035,0.46061274,0.3939064,-0.29678953,-0.19088998,0.8794655,0.18860951,0.11514497,0.45877016,0.23168938,0.47217157,0.038593635,-0.41187304,0.33409292,1.4060204,0.010024175,-0.21500215,-0.726822,-0.19681658,0.29114372,0.018109493,0.15110719,0.08744393,-0.26031035,0.35710293,0.16237745,-0.7088396,0.31316152,-0.050767917,0.28700823,0.07423419,0.05239648,0.1694843,0.1332058,-0.16846195,0.089160986,-0.1537707,0.5404529,-0.33660984,-0.1834724,0.35924977,0.037865374,0.26121438,0.55909127,0.13776729,0.43087697,-0.12242547,-0.27791506,0.3119925,-0.42502287,0.46276465,-0.035003506,0.086127855,-0.5580707,0.27883172,-0.14623326,0.6573596,-0.8710825,-0.32718,-0.15448394,0.90035796,0.38914156,-0.017304093,-0.11188324,-0.13300219,-0.0917513,-0.20001815,-0.046559155,-0.001816079,0.3982929,-0.06444126,-0.44827682,-0.07043686,0.20914263,-0.27332234,-0.19061841,-0.15555017,0.020417169,0.27973354,0.4410634,-0.09237057,-0.20128143,1.9655151,-0.3526518,-0.5056428,-0.14710553,0.10991296,-0.017144272,-0.10807115,0.55001974,-0.13498716,0.3558151,-0.60131335,-0.05810071,-0.35138214,0.07226282,-0.3306313,0.25144294,-0.3904056,-0.5285387,-0.09773636,-0.09580427,-0.45763087,0.25052777,0.22360617,-0.44774923,0.23672634,-0.00971809,0.3819908,0.030441433,-0.13575299,-0.27286547,-0.4053524,-0.31475103,0.04270571,0.036914796,0.4147394,0.17712384,-0.029616192,0.33346844,-0.24253643,-0.6109771,0.3957002,-0.32975522,0.39822966,1.2668936,-0.15363255,0.3635755,0.09840251,0.13635421,-0.18615101,-0.19279669,-0.019264892,0.2525801,-0.026145572,-0.27933726,-0.07062234,0.1887624,-0.091466665,-0.09443109,-0.35725647,0.06771988,-0.07478395,-0.4372372,-0.30366337,-0.4991505,-0.7987804,0.07979843,0.13910115,-0.034156237,-0.09081342,-0.7165693,-0.5180469,-0.13460708,0.37846068,-0.08611263,-0.5310836,0.20886903,-0.16666041,-0.038160816,0.33811975,-0.44841546,-0.038649164,-0.15492143,0.51513773,-0.049482137,-0.58325064,0.104208335,0.021443605,0.14818431,0.11165488,0.5371388,0.109118804,-0.15515763,-0.47300392,0.118384,0.08209613,0.25008273,0.43855846,0.03539719,0.04885716,-0.6389882,-0.014854327,-0.026356995,-0.36652595,0.05189413,-1.1994165,-0.08517183,-0.055088595,-0.13892889,-0.10178617,-0.1446472,-0.7680389,0.5750288,-0.04958071,0.20773609,0.3193751,-0.2526398,-0.019608468,0.07046762,-0.3098715,-0.15323195,0.53950953,0.07549004,0.1993404
Africa_12.png,-0.18161261,0.8398445,0.28553015,0.0753213,0.3722611,0.3559688,-0.32313466,0.21310657,0.61096346,-0.12606618,0.10651053,-0.2316926,0.21473655,-0.11594017,0.2881793,-0.20627984,-0.017816208,0.2310669,-0.03233348,-0.1033733,-1.4126121,0.18970624,0.09557754,-0.18140793,-0.34325364,0.2480096,0.4642166,-0.0866597,0.0095963925,0.058309466,-0.2588177,-0.15681599,-0.13303664,-0.25114012,-0.39333034,-0.06233111,-0.12859657,-0.054689184,-0.11378131,0.4223758,0.138975,-0.0443846,0.35476872,-0.21082228,0.055369347,-1.7894621,0.12150657,0.048308015,-0.057503607,-0.099311896,0.21331167,0.23666188,-0.19923618,-0.19049728,-0.008139661,0.5439503,0.32476044,0.42311108,-0.69860494,-0.2350877,-1.5402911,0.30264884,-0.2551809,0.029987134,-0.33684528,-0.102320604,0.08076988,1.0368967,-0.16715023,0.08778227,0.120428555,-0.4417454,-0.5490401,0.07013182,-0.31217048,0.00028564036,-0.74841964,-0.6727637,0.19734964,0.34135488,0.05744586,-0.2559087,0.014544668,-0.06458917,0.52242255,0.18409984,0.2408176,-0.17207262,0.28090915,-0.18567546,-0.19556348,0.047736563,-6.8331213,0.9025682,-0.25007567,0.062376514,0.05981709,-0.4199159,0.15549469,0.5151872,-0.30722708,0.104907125,-0.38003576,-0.030189183,-0.6206504,0.15210512,-0.23694189,-0.2367947,0.38289297,-0.39753413,0.3014321,-0.082740605,0.084884346,-0.48059344,0.07243194,-0.3001425,0.22877742,0.29910493,0.131863,-1.238502,0.026347056,0.08802806,0.21523654,-0.04614788,-0.21019919,0.21581078,0.1272343,0.11913097,-0.22238544,0.26286155,-0.41616988,-0.1369704,0.07163307,0.8425729,-0.11744494,-0.22299017,-0.39028016,-0.13275272,0.16710478,0.42267445,-0.4839399,0.14223325,0.37431443,-0.13288298,-0.5187647,0.04762364,-0.25824076,0.14341839,0.01819355,-0.115209825,-0.6449535,0.26874956,0.61554193,0.01417936,-0.13451919,-0.35197812,-0.045960717,-0.00726936,0.17089283,0.23867145,0.47663575,-0.5621338,-0.0043348074,0.15228099,0.26580045,-0.07382435,0.55323833,0.17941435,0.20953467,-0.24011527,0.089655645,0.25831914,-0.00015567988,-0.30000135,0.078681275,-0.049347915,-0.36900336,-0.21340844,0.5072077,0.10807014,0.012206867,-0.6894634,-0.13407129,-0.032787465,0.02713492,-0.08299535,0.14867607,-0.1306737,0.1499069,-0.37066478,0.47821468,0.20132113,0.19738212,0.375909,-0.20762675,-0.1079023,-0.5676862,0.054434218,-0.96278274,0.023778558,0.024102077,-0.101293705,0.18073545,0.20717038,0.1274806,-0.42061684,0.1474635,0.0661975,-0.35039213,0.1760957,-0.6245754,0.5163703,-0.35421118,0.14422217,-0.17873539,-0.68009627,-0.14592388,0.16137215,0.6222038,-0.17590809,0.4283822,0.6486926,-0.07712659,-0.29889703,0.35705847,-0.19627604,0.03155878,-0.25066316,-0.22830026,-0.09657706,-0.083205275,-0.045832306,0.102420956,-0.74896157,-0.11076425,0.09275338,0.082807384,-0.32371798,0.13941854,-0.03309135,-0.2643911,0.1826596,0.56324196,-0.3234958,-0.59636754,-0.69441956,0.13271442,0.47987178,-0.21580681,-0.19397402,0.16952917,0.046638973,-0.00037054718,-0.06730911,0.05663075,-0.3400045,-0.1570633,0.26825133,-0.26500905,-0.3603875,-0.10392245,0.212021,0.14539827,0.7250234,0.4534599,-0.12226125,-0.12872922,-0.12261489,0.14628118,0.10336117,0.76383084,-0.017903518,0.15968534,0.08836581,0.39330307,-0.34262985,-0.28532088,-0.08540264,-0.20444724,0.116809994,0.50504947,0.04861001,0.2105783,0.23118365,0.09320579,0.06051985,-0.5919677,-0.0920425,0.17947443,0.024233818,-0.39984775,0.12988792,0.25330603,-0.19234785,-0.03782574,0.10002896,0.35809958,0.1617351,0.683367,0.053784806,-0.13095063,-0.4171667,-0.24268982,0.33396286,0.21203063,0.44187433,-0.02843881,0.12285504,0.4618679,-0.10572875,-0.05965215,0.15636133,0.8409096,-0.06858881,0.09003678,0.20410179,0.4963789,0.67103624,0.14101154,0.13181885,0.38932067,0.8369009,-0.29367217,-0.24320826,-0.20034695,-0.14580756,0.21248132,-0.14962624,-0.39938372,0.15497649,-0.27282333,-0.21343285,-0.06901966,-0.061414048,-0.038559824,-0.06729977,0.11583201,0.0020019412,0.34556526,-0.03970515,0.38119987,-0.1644538,-0.032624714,-0.019110778,0.103666745,-0.096385986,-0.22915952,0.054150403,0.24527705,0.31199825,0.31449383,0.019442037,0.59902287,-0.09044567,-0.07638778,-0.53514516,-0.5295549,0.63239324,0.26612708,0.080828175,-0.27574873,-0.05293695,0.19235238,0.6996297,-0.5432657,-0.031266876,-0.29427734,0.4914108,0.3592694,-0.15591785,-0.22191325,0.45144588,0.2377984,0.14367,-0.22839217,-0.09205466,0.88786477,0.14890829,-0.008547902,0.0116006285,-0.036303986,-0.9257149,-0.30969876,-0.2045255,-0.13687831,0.12150672,0.25918037,0.065422155,-0.2825045,1.6114777,0.59993416,0.10398075,0.07228218,-0.015520304,-0.11628334,0.36726514,0.113685265,-0.6715579,0.059985504,-0.1802032,0.45665902,0.04688695,0.15625826,-0.44459075,-0.24877445,-0.005452819,-0.8411354,-0.29087335,0.7999714,-0.4429325,-0.035895564,-0.0075244308,-0.55563223,0.07389311,-0.3798638,0.32155806,0.048657045,-0.17265472,-0.27191907,-0.89163744,-0.32927102,0.07318279,0.2922156,0.007188022,-0.07536109,0.28072295,-0.4405605,-0.46416873,-2.2561178,0.018181948,-0.022441514,0.16136298,1.584671,-0.5913791,0.25663808,-0.06978992,-0.07244231,-0.4516491,0.06551072,0.23981693,0.42334595,0.06324307,0.101299986,0.020900905,0.22959569,0.12892985,-0.037806794,0.04191468,0.13153817,0.10047454,-0.206514,0.20878582,-0.22208217,-0.54109067,-0.07838814,-0.27347115,-0.2633018,-0.65340376,-0.13699198,-0.466416,0.26865828,0.012854531,-0.07010458,-0.39337665,-0.16135094,0.089252844,-0.26662198,-0.0162884,0.31282943,0.12849984,0.18308234,0.32546538,-0.027012173,-0.66007316,-0.22302222,-0.24908997,0.14305703,0.20160729,0.44303972,0.017617509,-0.13806477,-0.1802975,0.10154541,0.33372965,-0.10689865,0.05232104,-0.1797342,0.102014974,0.030795522,-0.43018252,0.314018,-0.15628785,0.17375171,-0.94924486,-0.13804811,-0.0055276733,-0.2873225,0.036352154,-0.07183203,-0.5890562,0.22896901,-0.14863044,-0.19299972,0.30326295,0.27650368,0.12470991,0.24873632,-0.18121739,-0.16145867,0.9677141,-0.3656963,0.20979516
Africa_18.png,-0.15502854,0.5047362,0.16183764,-0.1770607,0.3422289,-0.20948474,-0.24151988,-0.1285305,0.3614365,0.1357575,0.03940688,-0.28862053,0.80760926,0.09648861,0.34520411,0.18955296,0.21003297,0.11537887,-0.25502807,-0.4684497,-1.0112237,-0.43470922,0.07360245,-0.47088754,-0.017225452,-0.20346639,0.31583717,-0.7187649,-0.21649384,0.38714778,-0.41347754,0.14607781,0.0821833,-0.19092536,-0.24655046,0.14505234,-0.5075146,-0.033898517,-0.41397572,-0.8081325,-0.375117,0.14194483,0.26323298,0.0895002,-0.4695927,1.0824481,0.35877636,0.10015094,0.024235234,0.28192753,0.28063878,0.061051324,-0.0076450966,-0.23315838,-0.006112635,0.026808217,0.52077377,0.09229404,0.018371042,0.008282661,-0.4310715,0.50554097,-0.29136187,-0.2914628,-0.6030638,-0.035742804,-0.098871745,1.0236452,0.14468136,0.016590433,0.0865402,-0.41944492,-0.48635057,0.18489103,-0.13708062,0.46903694,-0.9837179,-0.31429425,-0.079190955,-0.026299953,0.0778075,-0.32969198,0.123730294,0.15426965,0.25674897,-0.3953902,-0.26947084,0.1098502,0.1731773,0.2627597,-0.07854921,-0.0329459,-5.6904135,0.7569417,0.105378866,0.06776833,0.17930523,-0.040539805,0.75973344,0.647328,0.33219916,-0.041062154,-0.12159907,0.09242733,-0.5254972,-0.09415492,-0.8685696,0.091006786,0.32097545,-0.5094484,0.55284303,-0.027337836,-0.20344032,-0.47093308,-0.032436214,-0.08189739,-0.08968997,0.37835935,-0.34005383,-0.25615147,-0.13157566,-0.27292955,0.04784151,0.29914787,0.1299755,0.28777826,-0.20261154,0.2607214,-0.2614028,0.20990753,-0.6387644,-0.5454497,-0.115853176,0.80997914,-0.06661056,-0.0993892,-0.6679894,-0.43504748,-0.13254921,0.2735884,-0.16863975,0.076805234,-0.055220857,0.16279991,-0.48732305,0.05263079,-0.15916157,0.15317485,0.54583555,0.00914586,-0.48883963,0.65956354,-0.21290363,0.33769876,-0.31296584,0.04579647,-0.010155633,-0.091231674,-0.018430874,0.41724348,-0.0321379,-0.4309223,0.14069325,0.34027666,-0.53424454,0.8408481,1.0153482,-0.021499049,0.01720117,-0.047417887,0.09767848,-0.15100712,-0.24765368,-0.6638332,0.1287643,0.058516018,-0.5924149,0.166484,0.17564468,0.40300888,0.23993054,-0.3511935,0.64391667,-0.32586664,-0.35171276,-0.06858985,0.03623143,0.11158845,-0.42590356,0.030056931,0.29590458,0.00715141,0.593646,0.41137177,-0.4140203,0.13534027,-0.5052205,0.23310766,-0.864859,-0.05327498,0.16314569,-0.2856285,0.15332212,0.21781212,0.5709832,-0.30381626,-0.08462504,0.14242995,0.29889923,-0.18793908,-0.03792359,0.08387862,-0.2873161,0.014697749,0.19828828,-0.047942966,-0.6929419,0.27164114,0.6784969,-0.41028336,0.6125353,0.124403685,-0.12899955,0.16687544,0.637861,0.03084442,0.025729444,0.26720873,-0.00574854,-0.20668568,0.13998474,-0.25359607,0.57401586,-1.0646036,0.029183835,0.23708254,0.2899653,0.45693037,-0.21509387,-0.033387944,0.48351213,-0.21817896,0.45825803,-0.173523,-0.05615685,-0.47077754,-0.07174127,0.6047225,-0.051615514,-0.10896079,-0.23803653,-0.015993912,-0.038762085,0.3003054,0.18335089,-0.12185496,-0.21962796,-0.023070045,-1.5929892,0.14179291,-0.16239195,0.2971772,-0.3886094,0.4856619,0.3066269,0.47360903,0.36341476,0.040666983,-0.09522879,0.4949505,0.17987312,0.039216794,-0.52503353,-0.43224704,-0.15586694,0.5222734,0.21250889,0.61008275,-0.107942976,-0.15396783,0.55964184,0.23559108,0.20557185,0.18271635,-0.17061344,0.44242555,1.14776,-0.21398766,0.032250665,0.08370216,0.4950158,-0.092324875,0.46874475,0.23008789,-0.37783396,0.14714295,0.2407819,0.07322365,0.20034099,0.026590675,-0.014704261,-0.11560156,-0.4817409,0.06758593,0.425692,0.40271053,-0.03501551,-0.010747962,0.36333805,0.064386666,-0.06474436,0.3546036,0.8083105,-0.45247218,-0.053435624,0.20811181,0.22699061,0.46825057,0.18933341,0.8060732,0.4800357,2.2439585,0.17738639,0.027006894,0.2530305,0.20658913,-0.03260556,-0.43632984,-0.11466193,-0.6069093,0.4401029,0.45978212,-0.35026544,-0.3928904,0.2058233,0.002846024,0.553764,-0.26190138,0.20694724,0.74574244,0.1281323,-0.39685386,0.1923097,0.62354976,0.43205655,-0.0023816675,-0.09793143,0.2381902,0.04383146,0.17714122,-0.1454938,-0.15415531,-0.013257235,0.5770838,0.057448067,-0.29074013,0.20460802,1.2771802,-0.29363266,-0.0550259,-1.1214468,0.097098865,-0.1847523,0.48683494,-0.99723697,0.1969167,0.18473756,0.3862814,0.37069005,-0.34563628,-0.29449558,0.2755896,0.31007457,-0.28222728,-0.15419783,0.0059061125,0.047348637,0.29061067,-0.4105212,-0.069647565,0.43666723,-0.5215124,0.2658434,-0.19383088,-0.47609478,-0.4397974,0.259826,-0.24089709,-0.77603656,-0.6284637,0.01748953,-0.18400592,-0.06567389,-0.027384467,0.29253107,0.020627692,-0.35602623,0.28028262,-0.42141414,-0.20274591,0.25393268,-0.42084882,-0.21671739,-0.25547242,-0.4921024,-0.018626835,-0.3238745,-0.07417345,-0.28142524,-0.43722278,-0.51163465,0.35363734,-0.15785235,0.44471723,-0.040576667,-0.3102252,0.33030358,0.37025714,-0.35179102,-0.6789057,0.21012515,0.05328568,0.50843054,-0.4790486,0.18655203,0.18070054,0.27848995,-0.5861292,-0.37405235,-0.06125521,0.010691762,0.6013624,0.7125447,-0.14076433,-0.06362477,-0.24950776,-0.13860604,-0.04014375,0.2888927,0.39473087,-0.03683731,0.32481816,0.02496985,-0.40396568,0.38864312,-0.041386873,0.17402261,-0.2642669,-0.06701642,0.5455306,-0.33842018,0.34027356,-0.3820682,-0.6625508,0.35454795,0.25546682,-0.14991653,-0.5255293,-0.89618814,-0.43055508,-0.22892943,0.02728644,-0.21751668,-0.5375496,0.05381321,-0.5209438,-0.36719713,0.21459554,-0.29477385,0.07824083,-0.23474474,0.52933,0.1522188,-0.56258494,-0.5930666,0.270864,0.1468761,0.12792364,0.012630219,-0.041381612,0.2500108,-0.68564427,-0.3869565,-0.10429314,-0.049743105,-0.049441382,-0.36304796,-0.029404879,0.014251504,-0.17938653,0.2688582,-0.3311957,-0.06750971,-0.0046874434,0.04061535,-0.10185656,0.41864488,0.3782146,0.23930228,-0.30301306,0.43731135,-0.18209848,-0.35562062,0.55332136,-0.07114496,-0.13937707,0.6603993,-0.56373787,-0.1479073,0.33629453,-0.10825786,0.34130484
Africa_19.png,-0.15101813,0.5261626,-0.07002625,0.2543971,0.22794232,0.16496,0.40531927,0.22806692,-0.06979023,-0.35120025,0.072800875,-0.4207412,-0.24336435,-0.34937358,0.29400045,-0.06647466,0.09421813,0.047378395,0.012183011,-0.108587325,-1.7426599,0.28733853,-0.07577154,0.06260351,-0.04251045,0.4305459,-0.0019301586,-0.13695092,-0.1806503,0.18219607,-0.5749959,0.20846622,-0.107104585,-0.5177422,-0.29106858,-0.22164002,-0.07113044,0.042828068,0.08926283,1.3929124,-0.072486944,0.17241341,0.35256174,-0.11475702,-0.0103254765,-1.3138708,0.20148823,0.066343874,-0.0326161,-0.10218238,0.15141132,0.21411899,-0.24470358,-0.38606092,-0.05711802,0.2416859,0.35783225,-0.35974407,-0.007130958,-0.32207868,-1.4951981,0.36621478,0.051610716,-0.21854356,-0.32022327,0.09748776,0.023841023,0.9369206,-0.015748903,0.24422482,0.07742958,-0.49682254,-0.121537015,0.28230727,-0.19285482,0.051191904,-0.3579246,-0.15775198,0.49676573,0.004720658,0.59459054,-0.4919938,-0.040659964,0.38049126,0.13715139,-0.06643064,-0.20828363,-0.2660549,0.74468786,0.025933266,0.07091737,0.099259295,-6.6668234,0.31760305,-0.30411607,0.36728117,-0.066624925,-0.054467544,0.20306644,0.3941458,-0.06733819,0.2733719,-0.46154636,-0.021230442,-0.3249516,-0.21055211,0.67093116,-0.12447143,0.34083217,-0.2982595,0.2708734,-0.27739,0.28938985,-0.40210444,0.09590038,-0.5233801,0.4083942,0.24257722,-0.11535408,-0.9218306,0.39142394,0.17686272,0.61086357,0.031525854,-0.07213729,-0.25926757,-0.009552851,-0.030840069,-0.17940259,0.22387187,-0.039494716,-0.0044429153,0.040385067,0.81877065,-0.066206746,0.0074137254,-0.40807685,-0.10291645,-0.2158433,0.46260566,0.23479974,0.34516856,0.28435087,-0.01639229,-0.4246024,-0.21560918,0.19995254,-0.5810963,-0.059641287,0.24308312,-0.67905784,0.378522,0.35122174,0.014505979,0.116302416,-0.29621124,0.2889815,-0.0566824,-0.43266097,-0.044483796,-0.14621282,-0.3963045,-0.057124972,0.23708753,0.22840609,-0.36800474,0.955585,0.3162666,0.15637846,-0.22736417,-0.23523346,0.12858382,-0.17327708,-0.3115384,-0.18764848,0.27014568,-0.50038886,0.069754735,0.80263907,0.27365583,-0.09286515,-0.6771084,0.120067984,-0.036889806,-0.16896963,0.3503034,0.24931158,0.04572344,0.08871445,-0.110195376,0.4109287,0.33386123,0.14538077,0.33901745,0.2517386,0.25240958,-0.46608692,-0.02837938,-0.57651526,0.15812284,-0.34996068,0.09576857,-0.0029142052,0.034069367,0.09743484,-0.060463767,0.10209419,0.252222,-0.21736299,0.23873475,-0.35450834,0.5291259,-0.43205103,-0.3105594,0.084842935,-0.43503466,0.045312487,0.82359374,-0.062135946,-0.60891086,0.20846213,0.498578,-0.15771008,-0.31056204,0.05672591,0.10811907,-0.4407115,-0.17739019,-0.25415698,-0.30699483,-0.09854846,-0.319936,0.42350817,-0.15517935,-0.07690622,0.41202113,0.3322943,-0.39889216,0.040510252,-0.038368642,-0.22596966,0.06974153,0.29762167,-0.4230073,-0.6113379,-0.48233154,-0.05218552,0.28475237,0.087616704,-0.019883564,0.32711366,0.076720804,-0.40145272,-0.093736276,-0.42834473,-0.2365846,-0.20486128,-0.08448841,-0.0008203089,-0.1978487,-0.22219872,0.11053707,0.16741382,0.8889468,0.28021783,-0.30702487,-0.1588784,0.22738203,0.25614804,0.27043557,0.25602365,-0.10652689,-0.21640536,0.14776824,-0.17980313,-0.03948313,-0.35063916,0.08728117,-0.12128934,-0.027027238,0.6146254,0.19588655,0.19937785,-0.05368211,0.0843608,0.28019625,-1.0574465,-0.08773036,0.40669757,-0.017495513,-0.065910354,-0.18678656,0.2811355,-0.042652674,-0.28671014,0.26301172,0.10171771,0.1929251,0.36400568,-0.32166037,-0.22663176,-0.24384297,-0.44366795,0.47017652,0.38612694,0.091823965,0.08152268,0.022640504,0.15162227,-0.07123207,-0.029032327,-0.08459083,0.8165904,-0.34488976,-0.019060731,0.45726871,0.22139144,0.62145257,0.20832999,-0.19683726,0.34667188,1.2161107,-0.3641408,-0.019404665,0.07751553,-0.25035298,0.45402813,-0.15551601,-0.027072616,-0.07490751,-0.22858194,-0.49930936,-0.3294673,-0.36130524,-0.33703277,0.23464808,0.35593635,-0.21411964,0.32621217,0.022116672,-0.07912925,-0.17974131,0.269238,0.09938899,-0.042754114,0.010353565,-0.41107532,-0.019217603,0.14437732,0.3720142,-0.19608283,-0.118936434,0.6257124,0.21297522,0.04722517,-0.22056618,-0.50857097,0.15275091,-0.18205053,0.29342896,-1.6640514,-0.085965365,0.12045501,1.2166567,0.018395424,0.18159366,-0.14672296,0.9091097,0.03213907,-0.07776493,-0.13426991,0.05742211,-0.13153195,-0.3657174,-0.34546706,-0.16669047,1.2675941,0.07324891,-0.13127187,-0.11205192,-0.29877135,-1.242261,0.016635776,-0.23088148,0.25612974,-0.37586957,-0.037612006,0.11286955,-0.41341513,1.7668862,0.03300528,0.09948277,0.17350213,0.020768262,-0.45754674,0.21398896,-0.3632751,-0.42187864,0.19223872,0.14705718,0.33406913,0.15740952,0.50116116,-0.058584623,0.10233633,0.17080976,-0.05131805,0.13038829,0.2253254,-0.5037088,0.20775732,-0.030314704,0.06382516,-0.24095829,-0.30903554,0.041971207,-0.17427348,-0.27666846,0.0017038025,-0.020721503,0.09826553,-0.1375827,0.24583799,0.120461315,0.17780104,0.024834212,-0.49690464,-0.3022381,-1.2365913,0.19080678,-0.4803443,0.20667437,1.3838876,-0.57641447,0.18275645,-0.24790259,0.16089626,-0.208714,0.28767917,0.12615745,0.4619491,-0.15058097,0.51875556,0.25802958,0.12089788,0.5883046,-0.11143981,0.45345193,0.10207046,0.11051366,0.067460716,-0.49326718,-0.43790796,-0.37619084,0.15714188,0.17448151,-0.35890815,-0.24267705,0.09149994,-0.3352744,-0.003978293,0.21251568,-0.009109177,-0.098352835,0.3386794,-0.56500936,0.25793317,-0.10189339,-0.265679,-0.100054726,-0.18453425,0.63826567,0.102217466,-0.49621922,-0.0024020374,-0.30287078,0.11133011,0.60266006,0.41089016,0.06506425,-0.0917176,0.106387794,-0.13986875,0.24661055,-0.03717332,-0.0917752,0.19443466,0.13926837,-0.078813225,-0.5771404,-0.031569943,-0.31979194,0.10754189,-0.9327239,-0.037972957,-0.20007177,0.13298903,0.13364701,0.025543585,0.06260351,0.29688454,-0.31884047,0.34423375,0.019166954,0.70630306,-0.06624924,0.08202471,-0.28290725,0.10433886,0.8806132,-0.21449581,-0.31031036
Africa_01.png,0.0072095245,0.54348886,0.08384829,-0.039504603,-0.07072737,0.098594874,-0.0082823485,0.49822557,0.4014084,0.08814978,0.36701098,0.043252528,0.52722484,-0.24289778,0.44247955,-0.093054056,0.5647916,-0.19174296,0.028267216,-0.33213824,-2.1975682,-0.06326425,-0.15591742,-0.28491598,0.26897386,0.12775305,0.29987013,0.11509581,-0.31707034,0.26315284,-0.5239455,-0.14726934,-0.36259398,-0.43880367,-0.1916767,-0.05281715,-0.21695688,-0.015014738,-0.21313,0.24855173,-0.13870677,0.057808474,0.5023681,0.13208604,-0.34127396,-0.63146025,-0.24103813,0.24032359,0.4212531,0.021215051,-0.099786654,0.05599454,-0.25886458,-0.14001954,-0.035030097,0.3854066,0.5506636,0.19405642,0.13845436,-0.06894847,-0.7240915,0.2638651,-0.15341952,0.05411753,0.1533526,-0.10905112,0.043183215,1.3889712,0.12512995,0.0060136328,-0.20430608,-0.75562096,-0.43064183,0.40779284,-0.41302395,-0.10354279,-0.38243547,-0.34390295,0.10856111,0.43748954,0.36571446,-0.34418455,-0.16608338,0.24922031,-0.02182439,-0.2158348,-0.36831737,-0.29530263,1.2228293,0.106722325,0.06088385,-0.27232555,-6.048261,0.74355435,0.090523735,0.30917528,-0.096417814,0.23292792,-0.120639086,0.9992631,-0.037778955,0.054373745,-0.27750593,0.28618684,-0.5854329,-0.36861995,0.19605371,-0.03718421,0.30891433,-0.51357734,-0.009862915,-0.012462787,-0.01104688,-0.08061032,0.106888026,-0.714466,0.34356382,0.060487054,-0.13238643,-0.7295859,0.12964806,0.09064409,0.1943303,0.05761434,-0.005064331,0.62325454,-0.048965886,0.106080785,-0.36284658,0.025648564,-0.29360676,-0.48640594,0.40083745,0.83294904,0.015393324,-0.3152203,0.25669065,-1.0099748,0.3007613,0.8489569,-0.23311378,0.064953215,0.17127919,-0.5300535,-0.2655766,0.14519125,-0.1944461,-0.22899795,0.03689892,0.067895204,-0.49418792,-0.047776084,-0.10000037,-0.0069531277,-0.24791218,0.25784877,0.29462734,-0.2822188,-0.10150817,0.12698083,-0.14662647,-0.1139171,-0.35832202,-0.13176543,-0.071461014,0.20255306,-0.20562819,0.26695615,0.016168006,-0.1787372,0.0090947,0.17900512,-0.09573254,-0.4944978,0.042025324,0.9028473,-0.62704474,-0.3214305,0.50469106,0.024440616,-0.36814493,-0.33843708,-0.05148916,-0.2719809,-0.48477954,0.04745213,-0.09429166,0.03290458,0.20315088,-0.21875025,0.5852844,0.35772324,-0.18108022,0.022099838,0.14099643,0.33345297,-0.27395767,0.09277052,0.088816434,0.09095377,-0.13072011,0.40956864,0.43146694,0.10896962,0.10812673,-0.69176644,0.093822986,-0.23642729,-0.06082403,0.39867193,-0.1309258,0.30428123,-0.07623218,-0.35727656,0.2738513,-0.30700362,-0.050892167,0.6883803,0.1343463,-0.2076957,0.61736417,0.70997196,-0.037591234,-0.3874261,-0.2129305,0.14614156,0.06816538,-0.24601766,0.12899083,-0.034000576,-0.21218348,-0.31503338,0.16742644,-0.42556438,-0.028560875,0.53064924,-0.02024424,-0.5098129,-0.39774805,0.18215464,0.18579611,0.14331312,0.31657243,-0.19817322,-0.49477178,-0.26213044,-0.00636857,0.22511256,-0.29597107,-0.25705454,-0.34272927,0.16189824,-0.24037495,0.06941062,-0.07634115,0.04277488,0.31206638,-0.082259715,1.2708869,-0.21990767,0.056598272,-0.0006032884,-0.11405806,0.61640006,0.012432143,0.31385314,-0.049731813,0.09204507,0.64219177,0.19965608,0.39729542,-0.43124217,-0.07024133,0.21058129,-0.30383703,-0.11660541,-0.38541612,-0.7447482,-0.5804034,0.2110185,0.41662738,0.42513424,0.45840383,0.10579627,-0.044250283,0.4103141,-0.07455462,-0.0669135,0.40747222,-0.056904715,-0.19023418,-0.3565991,0.23256277,-0.044136394,0.28910673,0.42473942,0.38076454,-0.03685148,0.36020595,-0.13742223,0.062803105,-0.21249701,-0.41530073,0.7836758,-0.18608026,0.57997453,-0.11293561,0.599526,0.21578786,0.38210618,-0.27164698,0.46553862,0.83127856,-0.10726297,0.06870997,0.3765183,0.25341395,0.85300696,0.10094111,0.117384374,-0.17692637,2.1111033,-0.18862249,0.11329201,-0.23165016,-0.044102613,0.6005684,-0.10352997,0.2630609,-0.03303069,-0.22624917,-0.25077048,0.20761405,-0.64541554,0.24640812,-0.19187537,0.23900908,0.3508243,0.25637233,0.019164696,0.4862442,0.017086178,-0.06903398,0.10193245,0.37769923,0.0043497384,-0.23152992,0.055432834,-0.06430714,0.4075723,0.3902464,-0.23551247,0.38821068,0.18097128,-0.17146942,0.024300903,-0.5688992,0.5451481,-0.20691568,0.15361428,-0.9895928,-0.10142422,0.1459504,0.93264925,-0.62033147,-0.0047768913,-0.10233789,0.7921634,-0.020652693,-0.48319817,-0.30257863,0.41874784,-0.3680733,0.19787785,-0.31586748,0.040969297,0.84386164,-0.07874185,-0.24671966,-0.014304683,-0.5472285,-0.59853524,-0.19356483,0.0016113892,-0.06707053,-0.29491448,0.59700334,-0.30453584,-0.2978807,1.3112438,0.28033403,0.16567601,0.026256382,0.13547486,-0.037447944,-0.035291456,0.25431132,0.10828237,0.50470144,-0.22589538,0.043304555,0.3017396,0.04459317,-0.30462313,0.18769184,-0.27095616,-0.27917114,-0.29386535,-0.24104556,-0.17840704,0.42931166,-0.17252335,-0.44183332,-0.14053676,-0.0012663826,0.36063236,0.0015391558,-0.19632667,-0.45001072,-0.25885683,0.08493011,-0.032253712,0.5396324,0.12894106,-0.005651012,-0.049945716,-0.121352166,-0.2635462,-1.5830514,-0.10612172,0.03564363,0.25966743,1.3294492,0.22741991,0.38287327,0.13735777,-0.24617742,-0.2333683,0.07119703,0.2751372,-0.14998658,-0.3036613,0.3266307,-0.43316898,0.510511,0.049047142,-0.4228968,-0.12843923,-0.1486542,0.3066451,-0.32823357,0.0123702325,-0.55868226,-0.5858213,-0.40947098,-0.1490485,-0.7717264,-0.14173289,-0.23329073,-0.19362392,-0.14773753,0.17227845,0.028965496,-0.58551633,-0.08994478,-0.08322637,-0.125797,0.41580763,-0.14463696,-0.15342209,0.4803634,0.23357987,-0.17153597,-0.6283027,-0.4218083,0.08038754,0.0868507,0.55716026,0.60484064,-0.23104672,-0.23042431,-0.4828194,-0.017724589,0.33515435,0.59130824,0.19585927,0.035232276,0.5227871,0.2432372,-0.526731,0.27057865,-0.64750874,0.08161468,-0.83631617,0.06740034,-0.02229508,0.08462182,-0.11767082,0.08789344,-0.4387248,0.20171157,0.15942435,-0.20928432,0.18417814,0.5121039,0.26825297,0.09472676,-0.4617757,-0.5857624,0.3794691,-0.035194192,-0.17968696
Africa_45.png,-0.11362579,0.13858518,0.48677757,0.5877658,0.19504027,0.38627774,0.0007747784,-0.15468124,0.25126073,0.056190014,0.11330792,-0.47106698,0.18038298,0.38320884,0.29632428,-0.059819862,0.43050054,0.053701058,-0.17511769,-0.097315185,-1.7547073,0.18103935,-0.07764943,-0.21710233,-0.39480183,0.18212369,0.064643286,0.029363692,0.08532246,0.37327516,-0.1633709,-0.27942014,-0.10749251,-0.16942438,-0.30818665,-0.041579723,0.044400655,0.21887974,-0.14371042,0.45145163,-0.13639002,-0.05589275,0.07795012,-0.014603369,0.19337504,-1.3788221,0.3781479,0.43197504,0.16575713,0.17095429,0.48351204,0.21226807,0.12917985,-0.27453664,0.42509502,0.4847449,0.7683333,0.021579504,-0.88549924,-0.10791163,-1.3445524,0.3547789,-0.021409735,0.27661136,-0.2371121,0.020534867,0.4618095,1.1163561,-0.23180805,0.0037313849,-0.105163306,-0.25303084,-0.21914768,0.29031456,-0.063786194,0.29119852,-0.6912776,-0.266984,-0.16568068,0.4329927,0.12022124,-0.4880032,0.14637186,0.29704407,0.41080496,0.526576,0.01103963,-0.416525,0.64712423,0.15851793,0.022525638,-0.022884337,-6.104248,0.5275601,-0.047621652,0.36505613,0.43044937,-0.25124454,0.66838783,0.47376952,-0.000107523054,0.22377783,-0.35331976,-0.27247083,-0.4742087,-0.09578434,0.4254973,-0.01900962,0.46035475,-0.2813532,0.13563478,-0.63152325,0.008352317,-0.535606,-0.096747175,-0.023731966,0.1826791,0.21095093,0.47147787,-0.76675,0.288863,0.24671146,0.32063073,0.03250867,0.17957325,-0.46651867,0.0431137,-0.26412013,-0.057023156,0.30941334,0.059743784,-0.23416494,0.11285677,0.81079876,-0.09597157,-0.2635509,-0.34908667,-0.56459135,0.3412408,0.73099864,0.0075712427,0.14710662,-0.05151841,-0.007120937,-0.6553501,0.20976743,-0.29199737,0.009281136,0.1276761,0.21478952,-0.8310483,0.20013425,0.1776499,-0.006929159,-0.15396509,-0.12732449,0.115909025,0.231858,-0.21908653,0.2036322,0.18302694,-0.61423504,0.04792133,0.31485274,0.07948267,-0.042539462,0.7559707,0.078015685,0.111055955,-0.22229359,0.008491952,0.27529928,-0.4279402,-0.32299945,0.07410924,0.0825896,-0.1881288,-0.2989407,0.7480538,0.12492641,-0.22743806,-0.4928497,0.3249499,-0.30868265,-0.2716785,0.09537549,0.15485391,0.03306362,0.17578773,-0.16317092,0.17443897,0.090256676,0.17036328,-0.10177709,0.33139583,-0.22929288,-0.6847136,0.08850004,-0.3883498,-0.1660609,-0.33240688,-0.055317514,0.09516193,0.25159004,-0.059591018,-0.026303098,0.036014378,0.310588,-0.13899332,-0.01635684,-0.27855393,0.5955219,0.07748936,-0.032148182,-0.024514835,-0.1402391,-0.020916339,0.7180656,-0.10258983,-0.20428611,0.51055396,0.42525625,-0.24923882,-0.084127106,0.14014554,0.07881385,0.045342434,0.128166,-0.24439076,0.1672014,-0.2981889,0.026794374,0.0070991516,-0.6423824,-0.009908408,0.50282216,-0.19912747,-0.41012254,-0.057305638,-0.09652792,-0.28509283,0.3147197,0.5643401,-0.23258907,-0.33665773,-0.25339252,-0.17748204,0.4226527,-0.060338218,0.0073827896,0.08457025,0.0764726,-0.17803603,-0.15111516,0.01645162,-0.17802177,-0.12815578,0.3857272,0.5050714,-0.3355033,0.08085789,0.3066539,-0.074712686,1.2774913,0.040952217,-0.0733041,0.05946963,0.1836681,0.19008462,0.062510006,0.7191451,0.06262883,-0.3845783,0.20721193,0.37732795,0.031610012,-0.47868666,-0.1876075,-0.14348075,0.06428204,0.28229433,-0.26471692,0.14726129,0.0019369423,-0.17511696,0.13200788,-0.5326115,-0.05712014,0.24063294,0.18663764,-0.06727671,-0.4681878,0.19086696,-0.072600126,-0.14267026,0.35475695,0.5095057,0.16810045,0.18827896,-0.035988983,-0.060385168,-0.17280386,-0.5672733,0.25973338,0.44209605,0.7986343,-0.0173955,0.062307008,0.18398054,-0.23685351,-0.0034109205,-0.38069338,0.80835867,-0.4143145,-0.07799724,0.4138049,0.5981745,0.75494015,0.23038188,0.49817368,0.21796803,1.8541901,-0.16787785,-0.070216015,-0.18520361,0.158851,-0.11078738,-0.43897828,-0.14084792,-0.058773004,-0.15023585,-0.08370684,0.15498617,-0.24902442,-0.23035604,0.10391462,-0.04557377,-0.27831718,0.31085455,-0.10972508,0.07554039,-0.34936947,-0.04095415,-0.04151047,0.24899015,-0.17049478,-0.2695089,0.069611825,0.16235793,0.3877306,0.117911935,0.043678254,0.54624504,-0.09946856,-0.09590455,0.07275219,-0.4546514,1.1668584,-0.34611797,0.045490377,-1.0295938,-0.074740134,-0.13009422,0.8288375,-0.33949727,0.022196606,-0.31709993,0.78830355,0.29879057,0.04480794,-0.4911247,0.12106471,-0.015465625,-0.2470118,0.083939046,0.15725747,0.20335416,0.13791306,-0.5987128,-0.1486924,0.03149351,-1.1494675,0.031485967,0.058333337,-0.11206773,-0.02992244,0.015198693,0.11568373,-0.5293065,1.6352701,0.6502992,0.15010758,-0.09383228,0.037604257,0.011179514,-0.2989759,-0.17165366,-0.41339055,-0.23963645,-0.16298893,0.44014496,-0.25184596,0.36830527,-0.021721773,-0.15246189,0.15624721,0.07682176,-0.29069206,0.19417867,-0.44057167,-0.02986706,0.31242794,-0.19324397,0.05411209,-0.37591416,-0.16036694,-0.21624775,0.020248407,-0.19835323,-0.4930828,-0.11326222,-0.10786429,-0.038548786,0.033619195,-0.36442205,0.2218745,-0.025041975,-0.48061594,-0.76422054,0.13174847,-0.19665882,0.19742486,0.7548682,-0.08966106,-0.1221536,-0.10164057,0.23443654,-0.02280432,-0.07620227,-0.14436653,0.6757351,-0.34414124,0.16461018,0.19430804,0.24895538,0.28482974,-0.37634432,-0.33470964,0.037644,0.09284428,-0.3453256,-0.18881078,-0.41814208,-0.34598774,0.060591724,-0.39479852,-0.4971403,-0.56551033,0.0132394135,-0.026834201,-0.20196237,0.29192752,0.0025243405,-0.5643152,-0.2586083,-0.3968358,-0.1779032,0.040853567,-0.12729834,0.010483041,0.32180083,0.4229143,-0.20630291,-0.5358317,-0.39270902,-0.5237311,0.33310384,0.44154435,0.34624398,-0.34352243,-0.3126449,0.019406032,0.20637903,0.26802525,0.010401562,-0.04818012,0.110510714,0.45804667,-0.047434494,-0.47825682,0.09996688,-0.02108536,0.15544191,-0.99473125,0.120529294,-0.1994689,-0.2297033,0.08275822,-0.4529142,-0.19031313,-0.21513799,-0.0695033,-0.14399768,0.22390577,1.0045466,-0.121708296,0.34643155,-0.40666103,-0.37425086,0.7707193,-0.06452558,0.06044276
Africa_37.png,-0.029136881,0.5162588,0.21987464,0.26946256,-0.048306875,-0.06321475,0.48677227,0.18998232,0.56647736,0.33154982,0.09004436,-0.06495797,-0.39794195,-0.07359542,0.36338204,-0.5662274,0.21251282,0.5395808,-0.07846637,-0.30582505,-1.4553368,0.16954973,-0.2839937,-0.17412773,-0.14069514,0.08836223,0.14290655,0.056475237,-0.058990963,0.33494017,-0.34048522,-0.18491969,-0.12385629,-0.09028052,-0.269364,0.21925569,-0.29612294,-0.36060518,-0.026142612,-0.042220153,-0.62978786,-0.17183907,0.7762453,0.35183737,-0.107001066,-0.6318612,0.12752847,0.4894675,0.19930035,0.30343065,0.09037526,-0.054049857,0.02858223,-0.3602202,0.34252644,0.010648303,0.5037686,-0.095168605,-0.8528774,-0.11463388,-0.6183511,0.536879,-0.066745326,-0.43351758,-0.44587559,0.07839771,0.11696469,1.1769022,-0.37993413,-0.17028224,-0.028275594,-0.7094314,-0.33882284,0.24429262,-0.09564385,-0.01955241,-0.5488608,-0.5997432,0.14017384,0.15329933,0.12687589,-0.3607235,-0.060527727,0.52232647,-0.037912488,0.43310383,0.7602601,-0.49120864,0.51107186,0.0019827653,0.26645947,-0.021044519,-6.3543534,0.49652052,-0.005405329,-0.1233729,0.40424836,-0.085410796,0.27625185,0.27558362,0.24032673,-0.11843484,-0.2545941,0.0053562038,-0.31757826,-0.118587226,-0.37336433,0.44700027,0.19977552,-0.40884417,0.629884,-0.5082863,-0.040200464,-0.36576766,-0.0318325,-0.46079627,0.67092294,0.14155962,0.03868628,-0.82434624,-0.0008624792,0.36739543,-0.053269826,0.18768068,-0.16233346,0.061275877,0.021200106,-0.14091742,-0.42684233,0.5485695,0.10138899,-0.455216,0.31844214,0.85493165,-0.05928833,-0.22857508,0.14544064,-0.70650053,-0.05482021,0.46131995,-0.26319778,0.13129991,-0.23429191,-0.0912714,-0.30884078,-0.21114078,-0.12855792,0.086682945,0.25443316,0.07148793,-0.3908083,0.101054326,0.034261815,-0.21274571,-0.07569439,-0.088241994,0.08759716,0.18542758,0.07206607,-0.034573935,0.026247837,-0.60211766,0.15568829,0.23520082,0.047391698,0.26280868,0.11579648,-0.18637046,0.08934731,-0.34806824,-0.10711441,0.2589653,-0.36867085,-0.39170697,-0.16179532,0.30403534,-0.42577887,-0.20932455,0.66313356,0.33513588,-0.60852766,-0.60045815,-0.025307447,-0.29314405,-0.21265641,-0.057966128,0.12046008,0.24205014,0.11126064,-0.029822879,0.32137161,0.092349075,0.41029677,0.3609134,-0.05085081,-0.23466714,-0.5700823,-0.12989004,0.28300714,-0.22390342,0.07821831,-0.12465529,0.32181713,0.08710543,0.04635295,-0.32054794,-0.4061324,0.3293461,0.01926966,0.622146,-0.07677474,0.20944825,-0.19361779,0.01918745,0.41987312,-0.38678336,-0.08504069,0.33652467,0.090201505,-0.06000306,0.63244236,0.28497794,0.08413644,-0.271701,0.34360504,0.09590134,0.051291473,-0.44556332,-0.18800426,0.21674734,-0.010844383,-0.23793215,0.025562212,-0.40468168,-0.43900022,0.041076243,0.18929896,-0.3678861,-0.19902898,-0.13334918,-0.13124257,0.19313361,0.1879732,-0.15478528,-0.28054458,0.25909275,0.23657963,0.28983563,0.21007387,0.23721454,0.17322907,0.026997294,-0.19285814,-0.42484105,0.04245209,0.2321039,-0.06237149,0.1648366,0.01869151,-0.08594971,0.11914661,0.056066986,-0.3587889,0.93934864,0.56186354,0.17407958,-0.053396612,0.28516418,0.36778098,0.26951963,0.21703947,-0.3569399,-0.24642424,-0.12151231,0.011070684,0.4112935,-0.22334878,0.01336848,-0.2231072,0.047883064,0.5133251,-0.0028500035,0.14160535,-0.023932427,0.024930729,0.36308467,-0.49682066,0.09163013,0.4473322,0.053126816,0.123378985,-0.18779281,0.41263533,-0.10797513,0.086672,0.22671168,-0.24361205,0.09968306,-0.13569058,-0.15472345,-0.30366924,-0.16125871,-0.7230649,0.36182052,0.04504354,0.60297936,-0.09234154,0.059745356,0.2724511,-0.12924331,-0.40439472,-0.100391164,0.8533875,-0.4337319,-0.14897269,0.29013595,0.1517109,0.8097639,-0.017892037,0.15901528,0.3713026,1.7836312,0.092135176,-0.010030158,-0.4198455,-0.020906758,-0.05666679,-0.3532052,0.016192466,0.0929957,-0.07173273,-0.15716836,-0.098231144,-0.32979,0.02994895,0.064838484,0.50250727,-0.4310694,0.2372427,0.08697478,0.3851382,-0.09980356,0.16134122,0.13802621,0.3506334,-0.08903698,-0.064886466,0.055442527,0.07443729,0.67454636,-0.039338633,-0.04057412,0.43784028,0.115820795,-0.40488175,0.4538882,-0.2534038,0.7198385,0.03118717,0.50065166,-1.299527,0.117689006,0.39622706,0.37403595,-0.543178,0.054071307,-0.27880353,0.83153564,0.30839467,0.18161485,0.0013628975,0.6634338,0.16184637,-0.0390828,-0.48487583,0.347339,0.58233213,0.45845655,-0.6089971,0.29795155,-0.12791646,-0.7989106,0.19942081,-0.23146543,-0.04084684,0.16450714,0.16765845,-0.3256016,-0.67274505,1.2936391,0.5770717,-0.028814822,0.013270482,0.1929256,0.004046563,0.24997409,0.3881415,-0.47056487,0.19537807,-0.288223,0.34980488,-0.056719363,0.5546315,-0.098750554,-0.084653825,-0.29733276,-0.25665608,0.12064045,0.26843813,-0.17265387,0.27007413,0.050621405,-0.6644346,0.04011541,-0.026900709,-0.0894216,0.2259466,-0.37157026,-0.42659828,-0.19479114,-0.044909574,-0.17644258,0.11331144,0.08984108,-0.26169336,0.62130004,-0.19183372,-0.7404298,-1.3646134,-0.27871484,-0.07574783,0.23502484,0.761685,-0.23798493,0.13617091,-0.20875818,-0.1550146,-0.22690976,0.13983971,0.2892557,0.04876571,-0.029973097,0.26923636,0.07012546,0.22193284,0.34900296,-0.33506548,-0.23957019,-0.23610346,0.5336448,-0.08058362,-0.1367077,-0.3750023,-0.49018455,-0.10254647,0.002509337,-0.54239166,-0.6125099,-0.13536961,-0.4768695,-0.19677901,0.13737541,-0.1560401,-0.3710733,0.15147027,-0.38235044,-0.16411364,0.50221753,-0.1553207,0.097000055,0.2929127,0.40448722,0.030276522,-0.7330435,0.08299076,0.09865588,0.36386466,0.018805385,0.36444438,-0.15945,-0.18623997,0.009768046,-0.0914648,0.17566024,0.26421404,-0.2831238,-0.24367589,0.29452062,0.18365578,-0.21650958,0.16842799,-0.58299667,0.37101778,-0.8125115,-0.034498885,0.16475792,0.30532444,-0.016408637,-0.29646957,-0.47036567,0.6053945,0.06542408,0.07736939,0.2454706,0.5990596,-0.018228263,0.49714845,-0.48195693,-0.13688283,0.37691796,-0.17943737,0.08076071
Africa_16.png,0.055968694,0.19485779,-0.24439935,-0.24091214,0.5600902,-0.2476131,0.52818644,0.3498158,0.91998214,-0.3769705,0.15395613,0.3726878,-0.021383159,-0.67525256,0.10757819,0.03294821,0.86897945,-0.16556683,-0.102195546,0.74565065,0.020406902,-0.29786482,0.46701917,-0.12522365,-0.09146631,0.32779068,-0.2523761,-0.2091704,-0.27209908,-0.0061486065,0.2400666,-0.45371348,0.2066563,0.15805712,-0.81521684,0.16910063,-0.20655939,0.41494632,-0.111593336,-0.51396096,-0.45752066,0.13057095,0.24077658,-0.11997494,-0.18024245,0.84342086,0.11252062,0.12253776,-0.50591534,0.10193479,0.14823467,0.053882644,-0.046926126,-0.18786986,-0.383995,0.07136278,0.060621493,0.1559564,0.41338056,0.11546715,-0.5384176,-0.06653315,-0.0538384,0.15022013,-0.2084987,0.034393214,0.3417614,0.00479874,-0.30502638,-0.38535103,-0.3553017,-0.26104614,0.42815533,-0.09329021,0.20921895,0.30973032,-0.12636049,-0.59899336,-0.35360336,-0.48871186,0.18055966,0.20006424,-0.3576129,-0.058787048,0.14776649,0.20906147,-1.2075474,-0.17679006,0.34573567,0.08177887,-0.05391398,-0.19459029,-6.8720727,0.1558758,-0.30475867,0.2553315,0.17142783,0.026735947,-0.66303027,-0.68731886,0.3886687,-0.065137,0.15990673,0.30189905,0.5629246,-0.7034762,-2.3189116,-0.05234018,0.27152315,-0.12732379,-0.06806627,-0.5824655,-0.12390317,0.11781129,-0.1247652,-0.29100704,0.13398653,0.19809282,0.33924097,0.43514976,-0.1326162,0.04434161,0.069337636,0.08506896,-0.13679723,0.10202298,0.49913448,-0.12031002,0.015626289,0.20751101,-0.2247205,0.23284698,-0.3382355,0.9064253,0.05079201,0.14437473,-0.0793776,-0.33714,-0.26842213,-0.16701473,0.12695798,-0.22613844,-0.352785,-0.024385601,-0.15394732,0.37884638,0.15292571,0.29877335,0.11252945,-0.33078635,0.44840217,-0.22559789,0.9641611,0.5240955,-0.13467462,0.19211407,0.105014734,0.79123455,0.19727696,0.3616026,0.08152538,-0.512738,-0.14778815,0.17406192,-0.12912935,0.055272907,0.8804145,0.028068347,0.18832675,0.13252363,-0.08922565,-0.218797,-0.6812807,-0.3310562,-0.014294661,0.08977105,-0.5870545,0.25276697,-0.19267194,-0.12054367,-0.25662768,-0.3787335,0.35743314,-0.48919082,0.29459497,0.07985942,0.34243855,-0.49342996,0.031322867,-0.3510075,0.46553385,0.16425683,0.18593639,-0.35018045,0.5136386,0.15110515,-0.36348045,-0.15948518,0.007115636,-0.14879292,0.10787627,-0.011837386,-0.07326974,-0.19505292,-0.12082575,0.30311435,-0.268335,0.32210448,0.20105265,-0.1391919,-0.78017426,0.45806146,0.15960538,-0.035220593,-0.1036537,0.07358196,-0.066167355,0.8188014,-0.19096167,0.079306744,0.66246974,-0.3712801,-0.13549888,-0.16191271,0.42951795,-0.50045115,-0.31673497,-0.14477834,0.24677685,0.15779875,0.3120583,0.5569487,0.36753297,-0.5991043,0.2583076,0.51262194,-0.019418657,-0.2053257,-0.19580051,-0.21809769,0.10188407,0.026977977,0.32226184,0.070364475,0.017116487,-0.09529853,-0.44445175,-0.34008783,-0.3350063,0.53296673,-0.35325944,0.3209331,-0.18447338,0.1816045,0.1525638,-0.0041514337,-0.110218376,-0.35162044,1.2290518,-0.16085683,-0.41076678,-0.3318606,-0.6250902,0.060780466,0.3479148,0.03826847,0.06704631,0.50033855,-0.21018419,-0.11371924,-0.117868066,0.13609485,0.27501494,-0.2844432,0.03957422,-0.1477884,0.11623666,0.3795755,-0.011149585,-0.006022781,0.3935218,-0.06498442,0.71776736,-0.36488515,0.5507761,0.14591381,-1.5168347,0.63396,0.0701433,-0.2732837,0.058624834,0.12699574,0.13214481,0.019504376,0.13625033,0.27005038,0.06376392,-0.05340167,0.24837942,-0.3858899,0.0024317876,0.22840276,-0.74023294,0.16644016,0.07624467,-0.040248357,-0.13609482,0.13657919,-0.25858152,-0.08818191,0.30228496,-0.26084846,0.90570706,0.35885528,0.158997,0.06145891,0.21173492,-0.6993899,0.16950268,-0.73824906,0.20761153,0.49700984,-0.23838487,0.03664107,-0.3574651,0.16886437,0.5654892,0.017707117,-0.37052134,0.1130474,0.16485469,0.204227,-0.17019445,-0.45851743,-0.46361777,-0.28535897,0.143495,0.10374111,-0.20352699,0.7182231,0.054257795,0.04021225,-0.09911003,-0.10134068,-0.121813625,0.27747452,-0.07557443,0.13536458,0.120666385,-0.12153205,0.283489,0.31114596,0.15299532,-0.17832813,-0.46141067,0.40716892,-0.08736232,0.13770545,0.30465913,-0.34133285,-0.0035282224,0.07817869,-0.46655127,-0.50086695,-0.9514716,0.1813355,0.009514071,0.41612336,0.16591632,0.15912066,-0.13785055,-0.19170746,-0.1294024,-0.118287206,-0.0070471764,0.23631956,-0.11025065,-0.29653478,-0.08115052,0.24560463,0.75517416,-0.3886609,0.3041176,-0.16365065,0.10484886,-0.06969212,0.42015374,0.2072131,-0.48867726,1.1499294,-1.0271131,-0.8818865,-0.16728449,-0.2872669,0.7112425,0.060969494,-0.25727838,-0.124336064,-0.3230589,-0.50549734,-0.34375912,0.112367846,0.33842656,0.31237236,-0.016130581,0.08010925,-0.1259809,-0.27727365,0.40315855,-0.0787286,0.5021324,-0.015496984,0.12658605,0.08393096,-0.16856377,0.21608837,-0.2027975,-0.0826664,-0.3325533,-0.24251644,-0.41161457,0.115661755,0.4539265,0.8299459,0.19286543,-0.6457868,-0.057407625,-0.039174385,-1.362123,0.45313844,-0.3182078,0.15424572,0.9181812,-0.20343037,-0.07861878,0.06899598,0.0027115047,-0.07600744,-0.103504926,-0.0038785338,0.04923232,-0.08113775,-0.4692675,0.14881708,0.46164936,0.104545854,-0.37382793,-0.33827165,0.06888232,0.07015819,-0.4054436,0.35033432,-0.66028637,-0.94127935,0.030031027,0.3527639,0.7345124,0.16470838,-0.24078858,-0.17032418,-0.44802007,-0.28090066,0.22399369,0.2979548,-0.31356615,-0.033313483,0.65836394,-0.08656415,-0.086075574,-0.14224148,0.5845927,0.26222217,0.45772806,-0.635673,0.6238727,-0.2812104,0.11171636,0.25841588,-0.35633475,0.014164312,0.16959772,-0.53770137,-0.016908512,0.14182463,0.074997164,0.70556855,0.039519444,0.6733338,-0.5501585,-0.0018363744,-0.0149325505,0.08334299,0.05776535,-0.20616251,-0.38944656,0.034746006,0.40917778,-0.1441247,0.10799502,-0.084275685,0.24146485,0.087763906,0.48433065,0.08915441,-0.032812223,0.07526834,-0.3003347,-0.29463235,-0.050899997,0.36529127,0.003209263,0.51342076
Africa_13.png,-0.16683851,0.3055589,0.26368603,0.06708532,0.4016878,0.14679752,0.3065658,0.38743436,0.35463142,-0.40478414,0.38931784,-0.25292245,0.25730833,-0.35489386,0.14093104,-0.3327632,-0.25452694,-0.14401363,0.15421063,-0.16537116,-2.3458924,0.13333733,0.11196269,-0.29001385,-0.2562955,0.3262083,-0.4419496,0.06774573,-0.18328649,0.2307679,-0.49158463,-0.20093986,-0.5121868,-0.07615036,-0.23116083,-0.30379766,-0.40780884,0.16004239,-0.075370066,0.82806873,0.2256298,0.2295507,0.3877631,0.30466524,0.082386635,-0.95507795,0.33680737,-0.34342802,0.37690187,0.2438796,-0.22843966,0.26265106,0.052903235,-0.147992,0.18930905,0.6680789,0.6058677,-0.24566369,-0.077780426,0.14607628,-1.0741867,0.32947302,-0.35471487,0.3183823,0.011876692,0.18549451,-0.028475894,1.0612695,-0.10610031,0.27529573,-0.28124082,-0.44550204,-0.22770184,0.21228494,-0.35105157,-0.49984503,-0.5283054,-0.18836345,0.4824173,0.090209894,-0.065491915,-0.51180017,0.051646598,0.4436639,0.11048731,0.39010954,-0.41575533,-0.23731813,0.5260816,0.07843667,0.05537671,-0.00952651,-6.6495185,0.52748203,-0.016887497,0.1654067,0.009757847,0.06656607,-0.05642859,0.5715837,-0.13404286,0.4741486,-0.25548753,-0.0142734945,-0.60354763,-0.019476086,0.43861043,-0.05064322,0.26944786,-0.41873914,0.013768032,-0.21850123,0.4821302,-0.30449513,0.34457386,-0.47960383,0.3426566,0.1891819,0.14764109,-0.72686654,0.48262796,0.260713,-6.786734e-05,-0.11819165,-0.18942147,-0.1054796,-0.11273976,-0.13528016,-0.1375038,0.3968347,0.14683506,0.11257887,0.501103,0.854416,0.07061939,-0.17241313,-0.2005557,-0.11287002,0.06421639,0.19439444,0.18043044,0.467803,0.1192799,-0.14448121,-0.509676,-0.26870126,-0.00987412,-0.22358558,0.24117994,0.19226493,-0.6363605,0.026943177,0.3744611,0.13677992,-0.46190643,-0.53631747,0.025780931,0.012548968,0.048590645,0.17894095,0.35316288,-0.32811913,0.15519321,0.14000532,-0.15960872,0.057555564,0.43833673,0.25248638,-0.2345275,-0.3458249,-0.12555057,0.03283799,-0.1680103,-0.62393343,0.35501283,0.47099456,-1.1441544,-0.06632362,0.5217296,0.06557521,-0.3434443,-0.14544818,-0.19542374,-0.38866085,-0.015045892,0.06167786,0.19677123,0.0556575,0.12006608,-0.12895477,0.25285524,0.40750682,0.052191265,0.36622214,0.07256901,0.4343329,-0.18779545,0.30062056,-0.61303204,-0.004162051,0.03118816,0.33879247,0.006984137,0.40005088,0.12717581,-0.33467227,-0.03851822,0.020344015,-0.448945,0.30562907,-0.3066926,0.3320881,-0.4733672,0.024596786,-0.16414213,-0.5280028,-0.12375546,0.7687574,0.14258534,-0.3608173,0.13017339,0.84022987,-0.10051606,0.060326867,-0.09530511,0.56147474,-0.07482086,-0.41610545,-0.40823275,0.25089133,-0.23517929,0.0011532903,0.30857792,-0.39814806,-0.25481406,0.49041802,-0.1741522,-0.15503114,-0.33422762,0.2623474,-0.11376619,0.19304043,0.46078187,-0.30809528,-0.09369298,-0.53663313,0.13383693,0.05914233,-0.004099071,-0.3754683,0.20069402,0.08003334,-0.1896455,0.020069122,0.017661378,0.11233227,0.0772849,0.2776116,0.41209742,-0.05167591,0.044848412,0.27252567,0.48360008,0.2472042,0.05334816,0.11889956,0.11929742,-0.017710473,-0.17155403,-0.34013554,0.058875047,0.06236667,0.2826339,-0.07158086,-0.07704022,-0.0095345825,-0.43880397,-0.24433124,-0.25199163,0.06355486,0.48780918,0.016497612,0.19294518,0.3950155,-0.00029378943,0.33073685,-0.4280749,-0.12760878,0.033140466,-0.0026644766,0.05203356,0.024033414,0.03907496,-0.15716562,-0.1723268,-0.03491945,0.7269628,-0.07340738,0.44517857,-0.1542359,-0.102052435,-0.42649788,-0.5169407,0.63660675,0.63370514,0.14824477,-0.55081874,0.044081658,0.6082319,0.48899388,0.043732002,-0.10506046,0.8528192,-0.17150818,0.35156348,0.09640624,0.47850478,0.7160505,0.04182989,0.1347817,0.1528869,1.2032666,-0.1104625,0.048827495,-0.121194616,-0.13339183,0.49699908,0.0760147,-0.23934954,0.13017142,-0.33151576,0.19677514,0.13974242,-0.27520546,-0.16220441,-0.10250394,0.14456403,0.055691525,0.46356037,-0.04291609,0.35472554,-0.30623025,0.1397733,-0.1318998,0.26207954,-0.0455469,-0.261716,-0.07153174,-0.23200393,0.29282057,0.3627028,-0.28543583,0.38473323,0.12632625,0.122586146,-0.6507852,0.11580902,0.99789387,-0.41989028,-0.07987694,-1.1541749,-0.40832317,0.22210208,1.1329048,-0.37778872,-0.016450483,-0.35321084,1.0727165,0.53232,0.061567876,-0.14909098,0.016888529,0.24236481,-0.26783824,-0.16466708,-0.35983706,0.7638225,-0.21351753,-0.39894426,0.0003110096,-0.06276882,-0.98152363,0.35184902,0.13467859,-0.11950049,-0.39390185,0.1196439,0.008751205,-0.23787704,1.7266164,-0.031723782,-0.006758064,-0.33327252,-0.35603753,-0.37602317,-0.21374014,-0.12565252,-0.15925068,0.20951708,-0.44090092,0.5485349,-0.050234467,0.12583044,-0.57963353,-0.31490448,0.3133386,-0.3774095,-0.23748216,0.3320173,-0.17209971,0.36867917,-0.11758419,0.021945432,0.25464833,-0.3147398,0.010622006,-0.3315826,-0.10879825,-0.113972194,-0.34506068,-0.28063017,-0.27442563,0.08848112,0.00094118714,-0.5992284,-0.16491723,-0.35710245,-0.3169561,-1.3700964,0.47841525,-0.24694334,0.39901185,1.7931422,-0.24384455,0.3215832,-0.05456664,0.2989592,-0.2029765,-0.26313806,0.05177802,0.4173169,0.3726869,0.082144834,0.16084129,0.26245654,0.028309882,-0.008072242,0.021394424,-0.28966144,0.090789616,-0.5135784,0.34747884,-0.2972965,-0.57861984,-0.025844086,-0.1431421,0.16162148,-0.44218153,-0.13833728,0.1211811,0.013632675,0.49016634,-0.14933902,-0.35413814,-0.096031725,0.0018474385,-0.40840784,0.0739789,-0.1075515,-0.29175937,0.009200618,0.33770412,-0.20747676,-0.6162608,-0.2099894,-0.14040592,-0.15268418,0.47953025,0.46163195,-0.26292944,0.032492757,-0.59399986,-0.055038016,-0.16507022,0.27556685,-0.0851115,-0.29341534,0.041690275,-0.35404485,-0.3458967,0.35135245,-0.19551343,-0.029939115,-0.70046717,-0.04060303,-0.29530677,0.09926391,-0.16063163,0.060724214,-0.049710836,0.28222266,-0.12950245,-0.01720284,0.07257621,0.67323685,0.15041155,0.40820467,-0.49508205,0.19681397,0.663624,-0.002166789,-0.16972588
Africa_31.png,-0.24843363,0.38164684,0.3378045,0.15402365,0.16257545,0.066486105,0.15194258,-0.105130285,0.6429159,0.030575726,0.43221706,0.07574764,0.17614725,-0.06145959,-0.23385456,-0.4512134,0.7832548,0.23798884,-0.16157182,-0.29495758,-1.5836269,0.3704302,-0.34982806,-0.2956054,-0.21788569,0.4299328,0.43088663,0.11207355,-0.14733425,0.16075289,-0.62748384,-0.3155672,0.23294522,-0.18479392,-0.33261162,-0.005137792,-0.13085261,-0.06682151,-0.0005541444,-0.6274033,-0.25800663,-0.046181023,0.25544873,0.18847018,0.008063674,-1.0177774,-0.004439948,0.31996077,0.1540895,-0.07449288,-0.16986696,0.24791119,0.09527804,-0.21018183,0.1836381,-0.23448226,0.32495925,0.00011205673,-0.03406935,-0.093631916,-0.33649966,-0.0038660467,-0.2333282,-0.06540373,-0.3867479,-0.0308848,0.33236486,1.0457678,-0.14631288,0.062644705,-0.085863486,-0.6045254,-0.17670256,0.06763668,0.015028819,0.2424781,-0.92126197,-0.52480704,0.122746676,0.004465282,0.36038554,-0.46584874,-0.13378012,0.122128695,0.297323,0.3080212,0.052018203,-0.089988336,0.6140268,0.3219395,0.21410376,-0.07640599,-5.066769,0.30685878,0.12858778,0.010928072,0.6198295,0.061262302,0.49207687,0.6432607,0.15448046,0.27861768,-0.052862495,0.133596,-0.21991536,0.08846233,-0.49068177,0.045333683,0.09379594,-0.52242064,0.57749534,-0.16324708,0.35452482,-0.23114288,0.048807055,-0.42448014,0.46505696,0.37947524,0.30677795,-0.8629539,-0.2685654,0.39719468,0.38272923,0.08550388,0.14770356,0.1937488,-0.19694251,0.058930017,0.006274894,0.030200016,-0.13639948,-0.18254986,0.06636774,0.7680534,0.03570233,-0.35125354,-0.1715,-0.37391186,0.19858257,0.5517588,0.14731833,0.23613149,-0.3016801,-0.19494578,-0.5369355,-0.012751382,-0.12932356,-0.056303687,-0.08097575,0.15671454,-0.19579409,0.26821184,0.24999893,-0.095216945,-0.26248673,0.01940158,0.14778388,0.32264736,-0.044292465,0.34019044,0.057802223,-0.44039732,0.22719076,0.0003668368,0.075451314,0.24835819,0.34676456,-0.018965423,-0.11819744,-0.022873998,-0.18689966,0.18949401,-0.41012543,-0.37230313,-0.112375155,0.17886439,-0.20107813,-0.09927457,1.1700796,0.2771914,-0.43720362,-0.62956864,0.30810893,-0.25987127,-0.24528694,-0.07476996,0.0186444,-0.031873062,0.2610844,0.020660803,0.39885348,-0.2042925,0.07193639,0.1200985,0.35789862,-0.09148897,-0.4771116,-0.17581958,-0.60031295,0.0010468885,0.043516226,0.08648204,-0.0090480335,0.06877747,0.15989804,-0.06267239,-0.3578398,0.26242357,-0.25604084,-0.16944586,-0.21378402,0.58749133,-0.1974226,0.023946568,0.44953388,-0.08445968,-0.14777061,0.38008168,0.41042942,-0.2197817,0.4206865,0.3371826,0.29526395,-0.34291732,0.32056922,0.4759742,-0.037146583,-0.121335715,-0.15915444,0.04434023,-0.02194578,-0.031000346,-0.025219336,-0.79472023,0.114015535,0.2442312,0.18222323,0.05508863,-0.059068628,0.025074653,-0.27812567,0.05557368,0.18239248,-0.33174455,-0.5896113,0.30630863,0.012371384,0.54621994,-0.21257734,0.10949482,0.17426415,0.21825919,-0.29178107,-0.19810817,0.20331177,0.032971945,-0.031716626,0.51005745,1.0562125,-0.026898846,0.1927346,0.22571477,-0.22058415,0.6556184,0.21457195,0.055398718,0.14894874,0.0346971,0.48156783,0.31449267,0.46854848,-0.14698245,-0.11982663,-0.255477,-0.060278803,0.049238086,-0.2803756,-0.14188758,-0.29211998,-0.13782899,0.58506405,-0.06414437,0.4017662,0.30446127,-0.15318963,0.26900727,-0.55570567,0.15400623,0.01424703,0.26073217,0.120216265,-0.31341392,0.099538274,-0.08230318,0.03299126,0.727535,-0.15601441,-0.16175164,0.1155226,-0.08830139,-0.48910218,-0.3507133,-0.6561183,0.3413096,0.057468697,0.7961768,0.109983854,0.113124706,0.12880862,0.21388933,-0.2974782,0.030153658,0.767596,-0.52727497,-0.011304531,0.13683,0.5471614,0.71400887,0.10954022,-0.29057643,0.33619267,1.8620522,-0.018772267,-0.20071387,-0.07210158,-0.1396191,-0.0061543286,-0.29141706,-0.09669214,-0.26469117,0.32875237,0.11271866,-0.034191865,-0.3564192,-0.017767891,0.12026915,0.4114538,-0.12455334,0.10968804,-0.15350175,0.0825139,-0.282315,0.065631,-0.034705583,0.54259014,-0.21902451,-0.14551967,0.06828815,0.045153473,0.72770476,0.19877797,-0.31380823,0.835484,-0.1580719,-0.2438043,-0.10873496,-0.020035185,0.58280367,-0.05656956,0.34906897,-0.5287555,-0.06066707,0.30790058,0.8161851,-1.6411669,0.042606097,-0.28719804,0.8572089,0.15176651,0.022139799,-0.3743611,0.33050698,-0.00050056726,-0.08519545,-0.6140957,0.042398654,0.61806744,0.31135112,0.22122362,0.3781393,0.0074498616,-0.7240619,-0.008235477,-0.37189353,-0.09757191,0.155832,0.22591737,-0.30039686,-0.3464145,1.3079787,0.56178486,0.10585159,-0.016137246,0.12536673,-0.14897376,0.15620698,0.1474769,-0.8331955,0.43423373,-0.46072274,0.33706632,-0.13680029,0.15484639,-0.38783413,-0.23606282,-0.42694637,-0.6974866,-0.2492006,0.32441667,-0.36226964,0.095633335,0.06536271,-0.50234234,-0.14042291,-0.111688346,0.1288727,0.14342026,-0.20745966,-0.18033034,-0.3378935,-0.24905565,0.08310975,0.13116862,0.5209147,-0.049104042,0.4980908,0.10439713,-0.472,-1.9220979,-0.29241058,0.084343866,0.11412153,1.3052795,-0.24845982,0.30237284,-0.17978631,0.096370555,-0.092064574,0.23177078,0.39047605,0.08957554,0.179887,0.13645831,0.15381616,0.14598745,0.15983112,0.08975888,-0.06430422,0.15104523,0.02591945,-0.102527186,0.004488092,-0.078805596,-0.77033204,-0.1677153,0.09981662,-0.35308382,-0.68088996,0.0528228,-0.7465335,0.12366695,0.2787829,-0.14458844,0.031333294,0.23199622,-0.0678619,-0.21446376,0.34605938,-0.013103791,0.1273919,0.6459314,0.2235643,-0.014557317,-0.6980989,0.10702095,0.28625017,0.20080231,-0.2148936,0.46247053,-0.43304414,0.09508549,-0.43020988,0.2293378,-0.052834682,0.22259638,-0.042084306,-0.021613806,0.358166,0.3666104,-0.054080047,0.12753269,-0.29104638,0.083256215,-1.1184267,0.08822718,0.16797125,-0.12649381,0.2509804,-0.41284782,-0.40777075,0.523396,-0.10363093,-0.034983337,0.4656123,0.23720908,0.030707479,0.42586368,-0.3539508,-0.14662457,0.47796255,-0.06776652,-0.079183415
