,0,1,2,3,4,5,6,7,8,9,10,11,12,13,14,15,16,17,18,19,20,21,22,23,24,25,26,27,28,29,30,31,32,33,34,35,36,37,38,39,40,41,42,43,44,45,46,47,48,49,50,51,52,53,54,55,56,57,58,59,60,61,62,63,64,65,66,67,68,69,70,71,72,73,74,75,76,77,78,79,80,81,82,83,84,85,86,87,88,89,90,91,92,93,94,95,96,97,98,99,100,101,102,103,104,105,106,107,108,109,110,111,112,113,114,115,116,117,118,119,120,121,122,123,124,125,126,127,128,129,130,131,132,133,134,135,136,137,138,139,140,141,142,143,144,145,146,147,148,149,150,151,152,153,154,155,156,157,158,159,160,161,162,163,164,165,166,167,168,169,170,171,172,173,174,175,176,177,178,179,180,181,182,183,184,185,186,187,188,189,190,191,192,193,194,195,196,197,198,199,200,201,202,203,204,205,206,207,208,209,210,211,212,213,214,215,216,217,218,219,220,221,222,223,224,225,226,227,228,229,230,231,232,233,234,235,236,237,238,239,240,241,242,243,244,245,246,247,248,249,250,251,252,253,254,255,256,257,258,259,260,261,262,263,264,265,266,267,268,269,270,271,272,273,274,275,276,277,278,279,280,281,282,283,284,285,286,287,288,289,290,291,292,293,294,295,296,297,298,299,300,301,302,303,304,305,306,307,308,309,310,311,312,313,314,315,316,317,318,319,320,321,322,323,324,325,326,327,328,329,330,331,332,333,334,335,336,337,338,339,340,341,342,343,344,345,346,347,348,349,350,351,352,353,354,355,356,357,358,359,360,361,362,363,364,365,366,367,368,369,370,371,372,373,374,375,376,377,378,379,380,381,382,383,384,385,386,387,388,389,390,391,392,393,394,395,396,397,398,399,400,401,402,403,404,405,406,407,408,409,410,411,412,413,414,415,416,417,418,419,420,421,422,423,424,425,426,427,428,429,430,431,432,433,434,435,436,437,438,439,440,441,442,443,444,445,446,447,448,449,450,451,452,453,454,455,456,457,458,459,460,461,462,463,464,465,466,467,468,469,470,471,472,473,474,475,476,477,478,479,480,481,482,483,484,485,486,487,488,489,490,491,492,493,494,495,496,497,498,499,500,501,502,503,504,505,506,507,508,509,510,511
Oceania_11.png,-0.08442455,0.744161,-0.07047582,0.22702475,-0.292281,-0.14857426,0.0035254844,0.05596429,-0.06728337,0.27344474,0.26395762,-0.31210297,0.4338477,-0.16538028,0.4253563,0.1914429,1.1456192,0.056428958,-0.050369218,-0.44217053,-1.247096,0.4678141,-0.14000529,-0.0022032745,0.06853648,0.3531364,0.018492669,-0.01966533,-0.07172044,0.10563043,-0.33983177,0.25871852,-0.113957,-0.37186453,0.15304497,-0.114157066,-0.5814157,0.21522531,-0.24391714,1.3485782,-0.36060375,-0.06730522,0.15374805,-0.10202582,0.17739941,-2.1499758,0.9661212,0.13049935,0.24486199,0.30865777,-0.070738725,-0.113774054,-0.1982913,0.12722814,-0.5444658,0.3071264,0.5521219,0.08913182,-0.22358006,-0.06266734,-0.78648627,0.20304026,-0.48656672,0.1574021,0.0394604,-0.066145144,-0.076157406,1.3775091,0.11581762,-0.30204642,-0.063436545,-0.1376396,-0.5921407,0.4771574,-0.025363699,-0.22271655,-0.5581699,-0.17913981,-0.45725673,0.05835955,0.12672244,-0.48133478,0.65373385,0.34686643,0.022972517,0.079664886,0.24323027,-0.2599683,0.809056,-0.6471456,0.5567359,-0.12599924,-5.5447226,0.17384577,-0.06663241,0.1471285,-0.20873038,-0.2175006,-0.44083732,0.37982237,-0.012929171,0.51192474,-0.42088002,0.04559078,-0.3960294,0.51553947,0.4836227,0.14908265,0.0037598312,-0.31836656,0.6606249,0.15429473,-0.39714396,0.10237555,-0.21399635,-0.4922042,0.45564777,0.5549033,0.09578908,-1.153284,0.2944697,0.12248887,-0.061779134,0.026423478,0.19215176,0.2409094,0.273957,-0.24669553,-0.26195747,-0.013153523,0.23510036,-0.02315858,-0.09288114,0.745829,-0.009480543,0.061129246,-0.26993027,-0.3695675,-0.05275613,0.11206683,0.0296316,0.34086856,0.69085956,-0.27686572,-0.5927675,0.27932474,0.053781804,0.029903993,-0.19219302,0.13343324,-0.30526322,-0.28085673,0.6783896,-0.6222873,-0.16717431,-0.239004,0.13000512,0.22702953,-0.42593694,-0.18271732,0.24205486,-0.45389813,-0.5973513,-0.13435094,-0.3809401,0.0005299002,0.054405376,0.5390588,-0.18446803,0.2186194,0.23999296,0.102589466,0.118683614,-0.5673041,0.04236269,0.66703725,-0.98637867,0.10480833,-0.22296497,-0.1983311,0.080534644,-0.86898834,0.24351831,0.23362567,0.100532874,-0.32681587,0.4331894,0.04100676,-0.057030454,0.038814716,0.029192213,0.41695598,-0.06355511,0.05022143,-0.33392203,0.37995252,-0.715012,0.29013425,-0.16023487,-0.3836531,0.12136915,-0.4344191,0.12944236,0.09329573,0.32651222,-0.5204117,0.07497454,-0.29645312,-0.14035612,0.10360257,-0.09095347,1.1767105,-0.026748851,-0.21456426,0.44068775,0.060637355,0.036771476,0.4003194,1.007243,-0.11365524,0.5394061,0.6040447,-0.15263286,-0.28372052,-0.05535981,0.20760888,-0.18188155,-0.34732217,0.10595669,-0.033462998,-0.3936315,-0.54229444,0.39333013,-0.29277784,0.14411108,0.12835974,-0.31302407,-0.14906056,-0.044635218,0.27501774,0.30770433,-0.038794316,0.22634593,-0.24900249,-0.39762813,-0.0015743971,0.1198096,0.03803657,0.013255425,-0.5539833,0.21078816,-0.07023469,-0.030357674,0.63408184,0.031162672,0.1330725,-0.17454308,0.33719096,0.82759625,0.111693606,0.028511062,0.054607555,0.34697482,-0.36080563,-0.043331712,0.037154377,-0.1846925,0.16150437,-0.16863996,0.118056536,0.40181684,-0.02493769,0.0626134,0.8015522,0.106921665,-0.2428806,0.21449944,-0.34306568,-0.0009944588,0.24048717,0.4444003,0.041058097,0.08042742,0.4263231,0.033252887,-0.018124186,0.0033650547,-0.29174286,0.10061974,0.16610892,-0.3383482,0.19176169,0.538831,-0.0630929,0.08024583,0.32691285,0.5326705,-0.11604856,-0.03738579,0.04271152,-0.22421673,-0.18129893,-0.17547026,0.33800822,-0.04238593,0.29308516,-0.35724747,0.34684062,0.45203364,-0.06044629,0.04521862,-0.13547882,0.74324214,0.16484055,-0.057592407,0.052065358,1.0236177,0.34806168,0.38453156,0.08927508,0.10795548,1.7277052,-0.26329058,0.098327726,-0.024126545,0.03067177,0.06532225,0.06797074,0.24243599,-0.16474348,-0.22036935,-0.43294483,0.080385074,-0.400553,-0.1855808,-0.098428115,-0.3671857,-0.24941461,0.23487476,0.37349495,-0.21092029,-0.5977844,-0.3214054,-0.083764955,0.25080147,0.32143068,-0.22820672,0.013333429,0.3717076,0.63586146,0.28793538,0.21271254,0.30123833,-0.055968635,0.104285605,-0.5386184,0.05896008,0.4793107,-0.07670279,-0.17410661,-0.44015238,-0.15381277,-0.06109727,0.33166367,-0.0019305199,0.2883233,-0.107249126,0.22486684,0.24487475,-0.40594208,-0.4389692,-0.32335022,0.010203488,0.056242198,-0.49108163,0.52874434,0.67442155,-0.17629448,-0.2669704,-0.026442423,-0.5953754,-0.7818607,-0.25246692,0.032596193,-0.075434074,-0.609979,0.00208164,0.188427,-0.55355954,0.081805736,0.22341889,0.37692684,-0.0016686395,0.21523802,-0.24503443,-0.29793382,-0.08374658,-0.15296194,0.33086917,-0.2985627,0.4410836,0.23558216,0.07704056,-0.2670234,-0.2188153,-0.35781482,-0.34951872,0.08423364,0.5739024,-0.2569631,-0.19669789,0.098027825,-0.15346032,0.1745029,-0.3486573,0.34640917,-0.38432905,0.28912008,-0.284197,-0.45485315,0.06429711,0.025225282,0.42527768,-0.22641459,-0.5469427,-0.1455209,-0.42720795,0.10260301,-2.535961,0.17889106,-0.21319836,0.3546147,1.4124305,-0.3551945,0.40889573,-0.02797477,0.03527689,-0.1325939,-0.50010455,0.12035798,0.2591876,0.21320483,0.17784965,-0.3152243,0.19953479,-0.7861421,0.36455756,0.07989267,0.09338455,0.15640081,-0.2642945,0.20724872,-0.14502501,-0.49370322,-0.018736187,9.37134e-05,-0.5909171,-0.23830248,-0.01113072,-0.089275874,0.06405778,-0.09195857,-0.014419049,-0.12793812,-0.32626107,0.24638525,0.44771624,-0.27542263,-0.55418634,-0.20986244,0.34201112,-0.32267871,-0.49663228,-0.177688,-0.18378901,0.39421865,-0.07711586,0.25109652,0.20345512,-0.4274391,-0.24085997,-0.19624665,-0.1587474,0.0683712,0.3517438,-0.5274401,-0.14506826,0.31431237,0.16851118,-0.2520483,0.5362936,0.3047753,0.13896891,-0.7880219,0.10464163,-0.28181133,0.36070603,0.31118855,-0.055636063,-0.07126409,0.084013164,-0.20932736,-0.15882601,0.09207708,0.13013893,-0.45263326,0.7067504,0.17543164,-0.39874437,0.7151504,-0.30497783,-0.0776003
Oceania_14.png,-0.09403499,0.40268892,0.18260995,0.1936702,0.32372102,-0.054582477,-0.34200656,0.19161788,0.24447674,0.13975663,0.22135082,0.06754984,0.042877883,-0.33712855,0.5998228,-0.192037,0.20125058,-0.1309436,0.41687262,-0.44393927,-2.0416784,0.23656559,0.10193605,0.095985,-0.21011475,0.23907477,-0.3499296,0.32444513,0.032032758,-0.043634307,-0.046782415,-0.1626699,-0.027308509,-0.17656256,0.0715455,0.054059207,-0.56510353,-0.068497956,0.011639677,0.62546813,-0.06848666,-0.21346174,0.565161,0.14481133,0.175881,-1.9853969,0.97948074,0.19672486,0.25348997,-0.21230939,0.035289153,-0.12455344,-0.0762237,-0.15530436,0.3859172,0.17105372,0.43321693,-0.084343314,-0.14525247,-0.16734347,-0.34899145,0.15146439,-0.30430472,0.033580914,-0.2285274,-0.26382172,0.25683472,1.3085784,0.019869322,-0.097553805,0.055921078,-0.119854674,-0.40254772,0.25638178,-0.08680531,0.024935246,-0.68570894,-0.56388915,-0.052238032,-0.011161253,-0.044849657,-0.08750638,-0.028710708,0.25964904,0.36063653,0.23761636,0.1802173,-0.31438053,0.22416006,-0.28988186,0.14204256,-0.448214,-5.6362066,0.36065194,-0.347535,-0.11721611,-0.19584934,-0.066845395,0.09013894,1.2938342,0.19189067,0.60573035,-0.11886096,0.010540927,-0.58627427,0.16968885,-0.17623204,-0.31405896,0.5699798,-0.275064,0.44479904,-0.042974025,-0.035231993,-0.10590969,0.06415393,-0.3685537,0.14551109,0.20559937,0.034475118,-0.8312543,0.14943443,-0.10196554,0.22384226,-0.15021946,0.29308796,0.10877735,0.30048627,0.32106018,-0.21804634,0.010054141,-0.12281723,0.03258384,0.14359245,0.77817655,-0.022176087,-0.25197187,-0.15215784,0.11940653,0.06740462,0.27322203,0.06976223,0.2253671,0.66419804,0.20403591,-0.18664744,0.124843955,-0.40680644,-0.15049037,0.21745351,0.054447815,-0.44126624,-0.028811693,0.1844619,-0.33736628,0.05990708,-0.25277162,-0.07369435,0.21058804,-0.027134977,-0.10307914,-0.16019772,-0.20669746,0.051529817,0.43887725,-0.21176118,0.25822702,0.82821894,0.18203992,-0.43435323,-0.006786585,-0.11939275,-0.040995307,-0.06380609,-1.0954537,-0.18993868,0.14680602,-1.0087107,-0.14497651,0.31266028,-0.27491778,-0.21595103,-0.61084354,0.16328451,0.08968811,0.015074059,0.09934266,0.06430358,0.07673699,-0.07400662,-0.11031006,0.24376082,0.22128546,0.11669975,0.24408053,-0.32593694,0.26710495,-0.56512344,0.15318635,-0.6500008,-0.34785956,-0.1021567,-0.24573945,0.39359632,0.18171866,0.51906604,-0.3020522,0.112620205,0.12827003,-0.05578518,0.28733176,-0.27575582,0.8495269,0.41977343,-0.19218619,-0.23645765,-0.744479,-0.024213716,0.50991905,0.30405724,-0.874823,0.44778228,0.9866842,-0.09094536,-0.10970679,-0.13300957,-0.1076526,-0.39670277,-0.37349546,-0.23861681,0.064112574,-0.05107595,-0.24785075,0.16986282,0.15237337,-0.13938105,0.37876505,0.02294536,-0.26414648,-0.426471,-0.08718905,0.100097746,0.3958674,0.4191011,-0.39670435,-0.42489284,-0.48202595,0.36659485,0.28063443,-0.101787634,-0.5357074,-0.28234515,0.04199984,-0.07944593,0.24777666,-0.007435262,-0.18960883,-0.047857165,0.30638242,0.86866945,-0.23288122,-0.034121357,-0.035794422,0.26602846,0.09822558,0.011626262,-0.09566536,-0.3438281,-0.21761432,0.13359976,0.030471325,0.42363292,0.5355619,-0.27592584,0.105143026,0.39866254,-0.06903961,-0.09396927,-0.36875647,-0.12774912,-0.06474602,0.42010424,-0.046296522,0.04005727,0.5011818,-0.22024222,-0.15188603,-0.22153908,-0.33441776,0.022552848,-0.17682305,-0.17131597,-0.07304621,0.6866226,-0.17071964,-0.21603784,0.08081904,0.23945038,0.15967423,0.095434204,0.08080287,-0.022205472,0.0017687976,-0.4207646,0.32960576,0.09221544,0.13613048,0.004754871,0.3604212,0.2128115,0.23540139,0.055329572,-0.012482831,0.7756101,-0.2924048,0.17791218,0.37188274,0.5660965,0.527773,0.30769274,-0.09775366,0.76808226,0.90649295,-0.33166754,0.026252553,0.106059134,0.12183127,0.5259875,0.045097016,-0.21404478,0.013326168,-0.06036532,-0.17523028,-0.31902948,-0.22569552,-0.088084854,0.10115613,0.19981691,-0.30699533,0.36366734,-0.105020545,0.10468781,-0.36347932,-0.2008072,0.08666839,0.08616472,-0.23533413,-0.045150846,-0.1566531,0.08195492,0.1875863,0.44192207,0.400903,0.32206354,-0.025133148,-0.109022036,-0.83778995,-0.055833027,0.4494182,-0.29141086,0.36676803,-0.74332976,-0.10599401,0.15008093,0.38803798,-0.33227873,0.34035486,-0.0938851,0.23578596,0.056491476,-0.19303578,-0.25029457,0.20191991,-0.004271617,-0.26688543,-0.49000287,0.15371911,0.9000896,0.08614236,-0.76947486,0.19903441,-0.49145117,-0.5780355,-0.61032665,-0.051798783,0.4390388,-0.3515926,0.17511404,0.31949562,-0.68516743,1.9073757,0.2362493,0.13445166,0.108761296,0.111716084,0.03592261,-0.119570255,-0.33215627,-0.011452895,0.42285353,0.05150561,0.14221472,0.05535814,0.2860008,-0.44967908,-0.36208993,-0.10293888,-0.10781806,-0.1921402,0.6736474,-0.033106357,-0.12841596,0.108238235,-0.045702375,-0.017271955,-0.20304903,0.26541373,-0.3474172,-0.30422255,-0.051923122,-0.030186858,0.26943725,0.025435142,0.111774996,0.018750869,-0.42192817,-0.051912572,-0.2150783,-0.20655651,-1.6589819,0.392583,0.14948294,0.7545195,1.9435725,-0.3188651,0.18681657,0.32496455,-0.48488325,-0.3511834,-0.4771526,0.17865363,0.04714343,0.3430678,0.16181163,-0.111862585,0.43965548,0.16416338,0.5763756,-0.08563826,-0.3894884,-0.035701863,-0.27616298,0.2161099,-0.26367268,-0.6076531,-0.04604283,0.0064105093,-0.03985204,-0.598815,-0.06743136,-0.2880562,0.060647048,-0.041169573,-0.015889868,-0.084230065,-0.4563457,0.1709286,0.06320113,0.2285855,-0.42082727,-0.2764477,-0.08500576,0.45721662,0.013438508,-0.3617425,0.038345724,0.27248108,0.14898714,0.08793356,0.76835036,-0.38674226,-0.18841612,-0.25919324,-0.13351206,0.33648157,-0.13922682,-0.050787523,-0.14733993,-0.1575936,0.31825408,-0.44151074,0.2735595,-0.22048523,0.24102041,-0.9805359,-0.15304238,-0.334196,0.33727944,0.03678978,-0.054917432,-0.18147081,0.21367577,-0.10348497,-0.26647606,0.26797837,0.105687164,0.07568428,0.44736654,-0.17744887,0.08041613,0.9202992,-0.19469447,-0.38827538
Oceania_26.png,-0.13223627,0.6880362,0.011875857,0.11703997,0.039191622,0.14430302,-0.44366673,0.10268429,-0.024150714,0.011501741,0.40325165,-0.014516424,0.46673214,0.013508812,0.511238,-0.16082908,0.62292963,-0.43200725,0.4415041,-0.48655504,-1.8913314,-0.06572418,0.16866462,-0.7038614,0.14867255,0.585468,0.31128943,-0.063075095,-0.39797363,-0.0015237331,-0.29268122,-0.18829826,-0.23368485,0.26193303,0.17858452,-0.23988473,-0.34493586,0.051229898,-0.51285803,1.0264776,-0.20129381,-0.31087703,0.3898849,-0.4535244,-0.07414876,-1.0386252,0.28827727,0.2772168,0.117070496,0.4226496,-0.59287274,0.052946977,-0.07217127,0.09830717,-0.12745368,0.6415274,0.31810236,0.3058381,0.034431744,0.14273536,-0.571542,-0.22892332,-0.58772475,0.17509441,0.1387269,0.32210705,0.217307,1.5548917,0.3979219,-0.35788506,-0.023238178,-0.08954131,-0.28556585,0.17400694,0.034375682,-0.32464492,-0.5574758,-0.5758943,-0.18484984,0.10503706,-0.042629506,-0.46732074,0.36429885,-0.039803296,0.32032892,0.22688809,-0.23962566,-0.092479505,0.8715384,-0.59444207,0.32243904,-0.16612062,-6.1558075,0.27580196,0.121972814,-0.18727471,-0.059211403,-0.047041304,-0.38868713,0.7144954,-0.08507104,0.65090317,-0.04559003,0.040963426,-0.49924445,-0.12402403,-0.0009975135,-0.099297345,-0.005961299,-0.39103812,0.12464749,-0.33429307,0.09456161,-0.09368006,0.14410393,-0.54340595,0.08317658,0.5516852,-0.036720105,-0.8079565,0.3253339,0.5320034,0.32329816,-0.05249235,0.13918614,0.27142584,0.5104717,0.016431652,-0.32701108,0.07102066,-0.36022758,0.12930088,0.086819574,0.810108,0.33495745,0.18351041,-0.26676464,-0.45893458,0.33990997,-0.06690603,-0.018827766,0.47392374,0.075113356,0.048953608,-0.13007073,0.017181095,-0.17158991,-0.00012972578,-0.14291129,0.49249357,-0.20039299,-0.19179752,0.012449734,0.13479233,-0.5452124,-0.19094667,0.35066217,0.1945676,-0.3617833,-0.18988134,-0.54593104,-0.07860432,-0.042443857,0.24672012,-0.54206026,0.12508178,0.3055235,0.27485234,-0.36519676,-0.19194452,0.22134387,0.22172478,-0.2158306,-0.6701506,0.16598868,1.2667915,-0.9841218,0.27514857,0.49113956,-0.53489727,-0.13460454,-0.2919318,-0.4794401,-0.33713993,0.029474437,0.12171157,0.0018649101,0.46344015,0.5058237,0.1380806,-0.00019773841,0.25291616,0.01806559,0.26151705,0.05393993,0.5373238,-0.58616585,0.033328876,-0.6229896,-0.12587763,-0.08390823,-0.077252746,0.308645,0.2659394,-0.26245013,-0.42421472,0.123937346,-0.40448046,-0.34318107,0.117502615,-0.07867828,0.83480024,0.35510945,-0.17252484,-0.19184,-0.24302451,-0.049889937,0.25936037,0.51144934,-0.0022623017,0.52208364,0.65920687,0.18309495,0.10580494,-0.09324674,0.086016655,-0.36078992,-0.58452314,-0.084327035,0.015987312,-0.2343697,-0.062439263,0.50376016,0.020548567,0.3845111,0.740196,-0.22061269,-0.5836347,-0.12604623,0.19850041,0.08221519,0.34387878,0.32226992,-0.42227465,-0.24371237,-0.090173595,0.32144257,0.29300994,-0.19883348,-0.71973383,0.17317088,-0.17797747,0.53168446,0.5424073,0.16720909,-0.00969319,-0.20775914,0.24322516,1.1503495,-0.04814589,0.030850187,0.27510172,0.31880212,0.5019871,0.09344839,0.34196675,-0.13539869,0.087972865,-0.23164067,-0.37874845,0.18678202,0.19539905,-0.116511084,-0.031772256,0.17794043,0.07791121,-0.3829333,-0.37783676,-0.17814486,0.29769704,0.078527726,0.22840545,0.08661167,0.410985,0.1658074,0.14600855,0.16013823,-0.33847192,-0.30251244,-0.08685239,0.056631893,0.3910085,0.40620694,-0.038223878,0.1264816,0.73830193,0.82177025,-0.15160675,0.14283055,0.096040204,-0.12785508,-0.10776517,-0.008907035,0.2264111,0.43597037,0.64057076,-0.41230237,0.14790855,0.47356215,0.16586554,-0.21016967,0.46157902,0.8083775,0.1100007,0.20741251,0.2799767,0.27796096,0.37297666,0.076881476,0.3844192,0.020156354,2.2581673,-0.6513172,-0.3688824,0.13393313,0.065080725,0.3729575,0.23161851,0.3044802,-0.09729995,-0.34848022,-0.051773477,-0.106223494,-0.13836701,-0.056686696,0.07672721,0.053367555,0.28442636,0.09664293,0.029367357,0.08106554,-0.2845542,0.09465259,0.27823317,-0.047834247,0.05695431,-0.21695346,0.011724018,-0.08162521,0.049287185,0.35607624,0.09784726,0.06546055,-0.10619126,0.20476538,-0.6789706,-0.045545302,0.47222364,-0.027093425,-0.21459487,-0.9393257,-0.09349473,-0.13116212,1.5451708,0.053936005,-0.051326424,-0.04591903,0.6393227,0.1689383,-0.52390444,-0.31194803,0.15559992,0.055130348,0.011000611,-0.16665219,-0.028480172,0.25825095,0.12543887,-0.28682727,-0.33579928,-0.6324107,-0.9153036,-0.25978738,0.13651656,-0.0027599111,-0.48926032,0.021584682,-0.057132423,-0.3997157,1.3072721,0.7780063,0.3106487,-0.07066831,-0.08149829,-0.13927397,-0.17334369,-0.10579571,-0.1787007,0.6012655,-0.0074955,0.19608516,-0.34531307,0.54842424,-0.016954824,-0.24312764,-0.052281745,-0.2976641,0.061613888,0.3299473,-0.14264001,0.35122678,0.05383423,-0.08843913,0.2647194,-0.24840641,-0.06396204,-0.44469696,-0.21257457,-0.41467088,-0.3119242,-0.16948894,-0.5506144,0.35710877,0.19619243,-0.5642084,-0.5047363,-0.36926076,-0.7171856,-1.5951037,0.3558464,-0.19075295,0.57530445,1.4473116,0.17861378,0.0330815,0.2180371,0.012982342,-0.11564863,-0.42541203,0.32704896,0.3104184,-0.258037,-0.03880515,0.059036195,0.08038868,-0.4288163,0.11569129,0.025872022,-0.04958999,-0.14684474,-0.08138024,0.1495533,-0.38125813,-0.59167224,-0.038448945,-0.14291956,-0.36624134,-0.1817837,-0.2555431,-0.1054533,0.19675392,0.040119506,-0.20274007,-0.31700486,0.2869985,0.0286549,0.2589928,-0.14723936,-0.88217413,-0.16138086,-0.21345025,-0.22974104,-0.33257228,-0.35717356,-0.3833235,0.074018955,0.14686683,0.50439864,0.4443618,-0.4308653,-0.26394525,-0.32217124,-0.2821724,-0.03787452,-0.08886504,-0.04074429,-0.36614415,0.23782323,0.22357845,-0.17366791,0.0035089105,0.32671946,0.074723676,-0.6027029,-0.1728897,-0.18250865,-0.016491279,0.33549148,-0.4226296,-0.062633224,-0.6184277,0.110212274,-0.5891604,0.15623897,0.33539772,0.14070258,0.23695627,-0.1709744,-0.34056404,0.665904,-0.01754355,-0.16796672
Oceania_39.png,-0.208504,0.78929317,0.058205865,0.021044217,0.0366871,0.3288573,-0.033665966,-0.013635546,0.3575405,0.19731057,0.18654922,0.097505465,0.40188348,-0.20978473,0.024732813,-0.18575439,0.7784924,-0.19577911,0.49915722,-0.5055204,-2.1546383,-0.1836253,-0.44806758,-0.72443515,-0.20079115,0.67824537,-0.0054643378,-0.05052723,-0.07533132,0.07127044,-0.3371314,-0.01884219,-0.20574616,-0.071100816,0.3078273,0.16978069,-0.19009575,-0.22337538,-0.46095458,0.87200594,0.38797134,0.08664237,0.2448313,0.0936608,-0.05902549,0.10215023,0.5244655,0.08374402,0.46557885,0.23107745,0.41407567,0.003925912,-0.17864464,-0.44601756,0.007976234,0.35678843,0.26532978,0.23637822,0.22025868,0.153911,-0.11183602,0.15507305,-0.1334469,0.4555947,-0.10081727,0.046090543,-0.24400252,1.555765,0.045723915,-0.21450289,-0.16155757,-0.20655487,-0.3260299,0.11131269,-0.40576455,-0.44328701,-0.07930965,-0.3574851,-0.34792477,0.3838691,0.23899189,-0.29147726,0.03933029,0.029788768,0.65619737,0.30082008,-0.29348797,-0.15794183,1.2261894,-0.48438266,0.32311964,0.01415224,-5.7732797,0.3272634,0.051349085,0.08018692,0.08395526,0.024231687,0.045084387,0.6363565,-0.15898319,0.6091789,0.08094573,0.0929956,-0.59072423,-0.17759049,-0.5738404,-0.15014452,0.30106696,-0.77304703,0.07614595,-0.543576,-0.10202726,-0.058849335,-0.2177032,-0.48230237,0.8417753,-0.00089582056,0.442392,-1.4052898,-0.16220151,0.41505337,0.19920991,-0.08861863,0.05726382,0.020373918,-0.08956091,-0.69106364,-0.3134062,0.025844991,-0.056919366,-0.14987521,0.24310344,0.78790957,-0.07086991,0.13560577,-0.04004796,-0.45201057,-0.35495335,0.28350878,0.18645927,0.11308696,0.023911946,0.011136889,-0.23867992,0.19199692,0.05554407,-0.025680587,0.020733135,0.12826015,-0.23873754,0.36783233,-0.2517492,-0.22758545,-0.14266084,0.17810926,0.11618185,-0.27244976,-0.12440522,-0.06756894,-0.15909064,-0.23770252,-0.1887952,-0.17449325,-0.39898854,-0.26570743,0.24502692,0.23251475,-0.06389479,-0.15904158,0.31489107,-0.34453714,-0.32513392,-0.66760045,0.060691323,0.39845186,-0.5501064,-0.2998882,1.026274,-0.17868534,-0.17192464,-0.54873866,0.05127221,-0.4636276,-0.06669154,-0.038435854,0.18718536,0.13096204,-0.07380943,-0.059861846,0.067646906,-0.10396446,-0.17684098,-0.29818588,0.48261622,0.43184635,-0.25825894,-0.38938457,-0.71186596,0.1979421,0.036743656,0.4448322,0.407476,0.11357193,-0.2416992,-0.5666763,-0.3092059,-0.3451841,-0.59193814,0.41309616,0.089535266,1.1741712,0.32138374,-0.2585569,-0.004256822,-0.30860063,0.23433745,0.57197624,0.32464343,0.20900527,0.081796646,1.1615574,0.26782808,-0.41752946,0.02430306,0.10690519,0.17605919,-0.2676707,0.16174506,-0.051080674,-0.2806008,-0.05638529,0.25847462,-0.28449446,0.26276943,0.57376003,-0.08339233,-0.3825369,-0.16302745,0.044245794,-0.05337234,0.42722228,0.41529888,-0.6011894,-1.0236148,-0.3518411,0.38518217,0.41604963,0.07804295,-0.36626366,0.16330099,-0.14717844,0.34289697,0.08827546,0.03244567,0.068050176,0.010026857,0.15895271,1.2710145,0.17941813,0.11310243,0.41404155,0.15285617,0.6209334,-0.16390194,0.31832576,-0.07063004,0.31078738,0.06494857,-0.027249042,0.019811645,0.2089137,0.11856887,0.179846,0.12771963,-0.11333864,-0.3892181,-0.39867494,-0.30476505,0.4300379,0.44825467,0.5185698,0.41617078,0.2815539,-0.0370488,0.53714144,-0.1788132,0.2756256,-0.101036474,-0.0002989471,-0.101228476,-0.055594444,0.33422166,-0.30093637,-0.1478057,0.45829996,0.4461785,-0.13822684,-0.0887796,-0.035578176,-0.048780303,-0.059952047,-0.123233154,0.5893235,0.08175781,0.013623077,-0.38467866,0.0926139,0.039931342,0.31218845,0.33768982,0.13365997,0.78768957,0.073432624,0.31952733,0.5500536,0.0039846525,0.2796715,0.12451124,-0.06035371,0.28186822,2.4265978,-0.41088682,-0.30122766,-0.11379023,0.028008658,0.44767678,0.0058974177,0.034616366,-0.15173876,-0.41962084,0.18704367,0.2746229,-0.21764936,0.18130757,0.41080263,-0.16591595,0.1555997,0.4888361,-0.024841694,0.08018048,-0.42008412,-0.02618865,0.38512397,0.02144716,-0.0035936683,-0.34566063,0.16942202,0.12013735,0.10400066,0.29270303,-0.102794506,0.16125315,-0.05030163,0.09225516,0.13274516,-0.036628947,-0.26480675,-0.54533845,0.0008286238,-0.8115238,0.105856985,0.20975786,1.6250268,-0.24546249,-0.3558973,0.21544042,-0.0037604272,-0.45257765,-0.15771276,-0.53505266,0.06463151,0.033257633,-0.14747897,-0.23667744,-0.22661498,0.22606032,-0.3688064,-0.5734478,0.03775303,-0.2757767,-0.51361084,-0.24018016,-0.16603133,0.3042652,-0.37024346,0.11800526,0.0728322,-0.10043684,1.297023,0.50456375,-0.21155116,0.052707847,0.24709465,-0.06718978,0.06183289,0.078531474,-0.72521317,0.5277078,-0.24713673,0.37684453,-0.015972644,0.4546532,-0.17890297,-0.5593821,-0.16963536,-0.20456265,-0.30163005,-0.038355388,-0.28913087,0.26829368,-0.18952686,0.2074385,0.06513043,0.18300167,0.048996508,-0.19558564,-0.37939858,-0.15625848,-0.15378089,0.1807187,-0.41702095,0.34993452,0.6881342,-0.3020079,-0.002275318,-0.18054843,-0.5784386,-0.92196465,0.44895518,0.11796964,0.3585074,1.1783801,0.07654241,0.28268087,0.42034867,0.08984093,0.17217547,-0.2339114,0.2572308,0.13316162,0.058583267,0.31008267,-0.004425898,0.3271222,-0.44034785,-0.10276412,-0.21068245,0.0021877708,-0.15012254,0.25795448,0.44216403,-0.020661328,-0.62931144,-0.17195298,-0.011320926,-0.26216644,-0.5881044,-0.22760577,-0.3818601,-0.01134406,0.031030122,0.033318363,-0.4072343,0.05375658,0.12921883,0.4010266,0.07591302,-0.21216068,-0.26145673,-0.44718856,-0.04899004,-0.19911206,-0.6594251,-0.3361223,-0.18293177,0.03043145,0.48548108,0.18752064,0.06455123,-0.33480945,-0.5045148,0.00017610192,-0.09564904,-0.16594365,0.1893608,-0.014349883,-0.14231618,-0.21585046,0.14587706,-0.030181095,0.13610303,0.3851624,-0.62434506,-0.24658069,0.097678855,0.1345615,0.025766158,0.012890741,-0.19497654,-0.5128395,0.014337081,0.045679092,0.67003214,0.21932757,0.4065867,-0.16706508,0.020344384,-0.2504408,0.57008684,-0.09249746,-0.3111413
Oceania_10.png,0.028995277,0.50903594,-0.11450148,0.034620773,-0.0587278,0.31138763,0.05330915,-0.04175073,0.35341913,0.17903675,0.08642188,-0.30843392,0.18696502,0.041581057,0.4973038,-0.24051878,1.3065856,-0.17351048,0.053700134,-0.6354078,-1.7209255,0.018668517,0.3429423,-0.33392638,-0.29463843,0.71752924,0.1936016,0.13857836,-0.2379947,0.26015753,-0.38907838,-0.07528764,-0.21134597,-0.04626604,0.32946244,-0.16537525,-0.30826914,0.012090802,-0.473982,1.5474782,0.07909003,0.037672445,0.36054504,-0.62719166,0.1400098,-1.6292953,0.4280177,0.19529822,-0.27168083,0.30955055,-0.20216413,-0.5982982,-0.46067482,-0.021174338,-0.25272334,0.060080335,0.9849169,0.20204028,-0.0787031,0.007919848,-0.38199377,0.0810335,-0.22970481,0.037081458,-0.20857167,-0.365276,0.2006156,0.6931188,0.1475212,-0.034504168,0.47423223,-0.2878976,-0.7126808,0.16938661,-0.10742069,-0.18842506,-0.29722574,-0.60149837,0.033950903,-0.15272292,0.6700485,-0.3765819,0.3624001,0.13612136,0.058939606,0.28697053,-0.3517322,-0.35610554,0.6356324,-0.5784662,0.30956364,-0.39584512,-4.9596376,0.40085953,0.058863964,0.81335783,-0.22170132,-0.24770364,-0.54582405,0.4548482,0.08820405,0.06221565,-0.513471,0.19115494,-0.36668968,0.42462403,-0.14059697,0.25856408,0.21641695,-0.16824889,0.14005056,-0.37063792,-0.25259185,-0.030705858,-0.18792993,-0.23550881,0.4766724,0.47191602,-0.19347973,-0.8591151,0.56045496,0.061167,-0.07597557,-0.24186525,0.06333207,0.11572824,0.012793958,-0.049140997,-0.12943321,0.5277075,-0.059423655,-0.01705946,-0.20524183,0.7482675,-0.14373243,0.45103258,0.019562736,-0.16373089,0.13932674,0.24403872,0.13181376,0.4528197,0.36069265,0.255897,-0.42645648,0.061316058,0.096023224,0.033756427,-0.5040553,-0.16925795,-0.09454854,-0.055359177,0.6981855,-0.37384656,-0.1869806,-0.31095037,0.09135997,0.34051597,-0.32895884,0.031292766,-0.050334003,-0.06528451,-0.11741486,0.056472465,-0.049864743,0.24278416,0.26762262,0.41830978,0.3816565,0.095084146,0.3806522,0.21719761,-0.18573965,-0.32892418,0.19971302,0.4814413,-0.2945212,-0.19563498,0.56827784,-0.31575447,0.0004845485,-0.5610434,0.069409065,-0.38731298,0.22246343,-0.08744665,-0.021469332,0.2195798,0.39239442,-0.23680755,0.2726719,0.27999005,-0.4192605,0.18990944,0.14925355,0.15330769,-0.75829566,-0.06240304,-0.006615579,-0.098197535,0.32381776,-0.07197714,0.052777603,-0.13526514,0.17670806,-0.4398301,0.095518276,-0.2634754,-0.14451168,0.3519407,0.19272983,1.0458487,-0.00091458857,-0.0057025156,0.21519825,-0.20024012,-0.016038826,0.7827419,0.45361778,-0.34248707,0.3007793,0.4157643,-0.08880656,0.0049929656,0.00034521148,-0.023964666,-0.10631195,-0.8369335,0.31051722,0.25497228,0.16995044,-0.12617645,0.4235782,-0.41931185,0.23129982,0.5433854,0.4149464,-0.8320093,0.47445828,0.34308377,0.03830298,-0.098573394,0.38755947,-0.5223573,-0.11092742,-0.25907606,0.016655222,0.018153112,-0.29653633,-0.8226113,0.44329512,-0.2561021,-0.061829403,0.4479843,0.04421728,-0.14374748,0.015301796,0.10920808,1.1380132,-0.15943734,0.13411182,0.06079502,0.46441564,0.6608671,0.002904456,0.18764994,-0.14736483,0.29377124,0.63683736,0.018309895,0.6715559,0.2861633,0.30965796,-0.023240224,-0.25677267,-0.032814503,0.19025847,-0.24865463,0.24766642,0.16562854,0.11945117,0.28483635,0.2943911,0.20985515,-0.0946488,0.12667607,-0.17952143,-0.44893986,0.3184469,-0.5780645,-0.20580307,0.39577612,0.43737173,0.25473228,-0.07089807,0.6527022,0.9851144,-0.021606982,0.42005527,-0.025807476,-0.46513206,-0.0682331,-0.11984955,0.63387537,-0.42653912,0.46493515,-0.1299712,0.23051059,-0.019224972,-0.15202838,0.15961707,-0.31638488,0.74607646,0.20944123,0.013998952,0.3220604,0.5073521,0.44825256,0.18730925,0.2910524,0.19409192,1.6574684,-0.4114806,-0.61205953,-0.16308945,0.2607475,-0.00075627863,-0.3050902,-0.14023027,-0.12089805,-0.6802351,-0.05585588,-0.0043354053,0.014993668,-0.05533886,0.11683181,-0.10591251,-0.0383388,-0.018533126,0.1479778,-0.047999956,-0.14961715,-0.1725743,0.08044639,0.35986283,0.023791246,-0.26126873,-0.2306666,0.13342564,0.16722316,0.74156356,-0.079284966,0.44748,-0.07180356,-0.1886242,-0.3734885,-0.29935145,-0.22210835,0.013627714,0.05572803,-0.6392206,-0.2674455,0.10942836,0.70396847,0.06471574,-0.06184128,0.19835424,0.15323071,0.35466826,-0.36491325,-0.37101722,-0.068156816,-0.016902164,0.25362965,-0.61382943,0.31742352,0.58762425,0.059936512,-0.35479888,-0.12577145,-0.13838054,-0.83418596,0.10787767,-0.13723603,0.3927188,-0.5704668,0.21062739,0.5305736,-0.40125215,1.2025685,0.3549978,-0.093676895,0.020240426,0.47456837,-0.51223886,-0.10814172,0.34131774,-0.26508525,0.26511282,-0.11732033,0.26868147,0.053241625,0.26081717,-0.23038629,-0.12581813,0.14256914,-0.1952756,-0.3346236,0.7691032,-0.5516396,0.02281503,0.1004843,-0.16010012,-0.01752448,-0.3544374,0.36312336,-0.1357622,-0.1679491,-0.44782254,-0.22988635,0.25811085,0.04104784,-0.04803461,0.11178092,-0.28319657,-0.6243381,-0.073614866,-0.3191562,-1.6001368,0.15322475,-0.104278624,0.45844445,1.3115177,-0.41057426,0.36730435,0.49150124,-0.35808608,0.24444818,0.21814352,-0.27817956,0.4091711,0.03613744,0.093383774,-0.2039976,0.018663764,-0.07545486,-0.0065889806,-0.13085982,0.12665266,0.1287739,-0.26536363,0.65348727,-0.5359171,-0.036216713,-0.0006448738,-0.1447617,-0.48351473,-0.16078834,-0.008578494,-0.1129044,-0.22998048,-0.11241069,-0.3107452,-0.20465052,-0.017561622,0.51225257,0.5556785,0.24634674,-0.34380472,-0.35447174,0.09079506,-0.01564075,-0.069429286,-0.19164616,-0.14077525,0.04284276,-0.28077433,0.43300438,0.30392715,-0.28481305,-0.43696788,-0.231215,-0.26036513,0.20222399,-0.1567558,0.017906636,-0.40874413,0.3387138,-0.096064046,-0.12525025,0.18809061,0.39397794,0.13341193,-0.8656207,-0.06857079,-0.45132592,0.0042336527,0.113370754,-0.08333441,-0.44137597,-0.3114538,-0.30667597,-0.5748297,-0.13604158,0.23888591,-0.024512358,0.10237391,0.23973069,-0.2850751,0.85521805,-0.5142439,0.42964727
Oceania_31.png,0.7128765,0.21215846,-0.071221635,-0.03840536,0.14153555,0.17624772,-0.01710851,0.18796733,0.5196903,-0.0800761,0.057843983,-0.44801128,0.29336414,-0.06427243,0.25426865,0.21202496,1.7443984,-0.4761086,0.40217248,-0.3034299,-1.522092,0.31595212,-0.30606246,-0.056194685,-0.2758957,0.39107183,-0.30925432,-0.09204163,0.050735086,-0.119713366,-0.110812925,-0.39175707,0.38330308,-0.42943802,0.10754484,-0.01366584,-0.15236127,-0.058927245,-0.19637656,1.0636946,-0.43791533,-0.33348858,0.12726092,-0.55574447,-0.21032187,-1.3129251,0.79033726,-0.048377573,-0.27504683,0.12543455,0.07323281,0.20627663,-0.5365656,-0.08411759,-0.25795332,0.054426238,0.5678122,0.29074922,0.12902457,-0.024768472,-1.4137154,0.08568153,-0.22437921,0.23132002,-0.023036722,0.15851304,0.06924641,1.2848231,-0.059393447,-0.27676532,-0.10287298,-0.11961648,-0.43708873,0.33862224,-0.2190443,-0.2061304,-0.39862582,-0.35417432,-0.26556906,-0.0927416,0.3298655,-0.3649344,0.14773789,-0.005989939,0.23523442,0.052328676,-0.94437706,-0.03368769,0.47516415,-0.29540974,0.29272482,0.15861121,-5.751103,0.7109486,0.09838692,0.49647665,0.15624723,0.0035643578,-0.4225636,0.5201371,-0.2819621,0.10494439,-0.53573656,0.34191507,-0.21603069,0.16332707,-0.18056837,-0.37116748,0.48983818,-0.21876468,-0.48962492,0.006994847,-0.009362996,-0.19672921,0.07930073,-0.2140446,0.4584331,0.091109514,0.13787332,-1.2692399,0.45053285,-0.34733307,0.2874024,0.21977265,0.24274333,0.07589877,-0.033982478,-0.100815035,-0.50123125,0.24995919,-0.25515804,-0.22530372,-0.54688466,0.7928967,-0.17977397,0.04349982,-0.16215728,-0.45856827,0.3968039,0.5943202,0.4589759,0.061665222,0.023301937,-0.10090332,-0.106682405,-0.12501761,-0.22672424,-0.34836367,-0.15634291,0.26069868,-0.34550273,-0.17852405,0.36494058,-0.10151006,-0.42794383,-0.06122288,0.4390437,0.04227801,-0.3014961,0.11737888,-0.26696664,0.0319013,0.20250775,-0.00020376733,0.34309015,0.061247393,0.1441776,0.4779129,0.05532311,0.15028223,0.3980984,0.021269813,-0.029128574,-0.22622778,-0.14016423,0.58013326,-0.03568369,-0.06685737,0.5081464,-0.21541543,0.37770006,-0.77575624,0.02278728,-0.007841766,-0.07816248,0.06822373,0.44520494,-0.36646092,-0.12437392,-0.4906735,0.4952395,0.23403695,-0.27461717,0.049891934,-0.19703631,0.21266285,-0.6143932,0.15546253,-0.6823044,-0.3348745,0.39576682,0.070929706,0.018069416,-0.11315401,0.40811348,-0.51083595,-0.25274506,0.15282919,0.09856371,0.16207641,-0.2135621,0.7304579,0.017071512,-0.16232288,0.17783082,-0.34034157,0.35014838,0.07013731,0.29721305,-0.30450952,0.54090333,1.0654469,0.035303593,-0.09106833,0.019706108,0.066597044,0.2268705,-0.14464349,0.29627547,-0.33033913,-0.29873157,-0.28457776,0.055345867,-0.20972884,0.6894182,0.38286325,0.03681538,-0.209066,-0.073044,0.40312845,-0.27784324,0.04512313,0.40583476,-0.54479176,-0.2987081,-0.38476062,0.032187253,0.007755168,-0.03977681,-0.36519784,0.15847057,0.028909877,0.30603814,-0.13293184,0.2790273,-0.20430362,-0.094198465,0.042871576,1.2603242,-0.41599005,-0.20996815,0.04865376,-0.020587765,0.359542,-0.1282982,0.32897797,-0.14796567,0.75237954,0.33356264,0.066192344,-0.0057721618,0.14247268,0.19532868,0.29786026,-0.2884756,-0.753932,0.11677118,-0.2156314,-0.3533089,0.48501492,0.003326498,0.2688878,0.582965,0.34416372,-0.056795835,-0.29961088,-0.1419328,-0.03097707,0.26851767,-0.12963963,-0.44238514,0.021292087,0.50009954,0.05180031,-0.15280026,0.45138955,1.1271234,-0.17274427,0.3268308,0.6087023,-0.018107135,-0.13629305,-0.55952543,0.44230017,0.20736349,0.3056652,-0.032935426,0.31838518,-0.2649287,0.25279865,-0.3088522,-0.29426682,0.7895839,0.30664834,-0.3730835,-0.15103228,0.09589365,0.40968943,0.089939505,0.22805633,0.8127482,1.18938,-0.016751856,-0.3651076,0.051466655,-0.6483905,0.18355599,-0.03624349,-0.0069590993,-0.10291383,0.006929131,0.07410234,0.40195012,-0.559202,-0.04202731,-0.111369014,-0.08346918,-0.0141229555,0.13298166,0.5063217,-0.048731778,-0.44272053,-0.01394001,-0.17798394,-0.0578451,-0.023722231,-0.15744594,-0.17698212,-0.24208598,-0.026846424,0.75394094,-0.6085241,0.4601903,0.07192646,-0.34950995,-0.767218,-0.20262824,-0.5379616,-0.129016,-0.13596052,-0.38930288,-0.12548687,0.27337185,1.0930567,0.44177654,0.35092267,0.25464487,-0.016064037,0.08872637,-0.43248826,-0.2868147,0.17535815,-0.026600862,-0.34765375,0.012034103,0.058996655,0.67740804,0.09978446,-0.7588537,-0.28778082,-0.47235143,-0.8750297,0.12288059,0.11913904,-0.03344223,-0.32498524,0.034380153,-0.27269316,-0.30217314,1.3787165,0.595748,0.17326728,0.09626952,0.028452173,-0.42011726,0.17289566,-0.2255357,-0.39077926,0.16584097,-0.14172032,-0.108883366,-0.31295007,-0.061771438,-0.11913111,0.015364993,0.33711815,-0.057095915,-0.12020771,0.2053537,-0.33332792,0.5856643,-0.0042188615,-0.2935468,0.3747648,-0.28844324,0.12718743,-0.23405355,-0.13366833,-0.24800135,-0.24478573,0.013102567,-0.19614497,0.5106118,0.5554741,0.01081939,-0.38426396,0.08169336,-0.370426,-1.6574705,0.6344918,-0.10673442,0.25002468,1.6415985,-0.20371136,0.0722633,0.5613545,0.014063586,-0.026862081,0.18819632,0.010186255,0.0025115702,0.1644319,0.1116963,-0.10037731,0.16003287,-0.5361638,0.11895467,-0.1870884,0.40491682,-0.14625764,-0.2176397,-0.0024638325,-0.2239371,-0.30261424,-0.28383404,-0.15722483,-0.5360044,-0.17163177,-0.49179035,-0.2465954,-0.23098573,0.2275123,0.0615402,-0.4679063,0.19579087,0.4462407,0.34335962,0.040273793,-0.22906694,-0.14318345,0.094350785,-0.0008082092,-0.061972007,-0.73448133,-0.19474839,0.22625414,-0.1350705,0.26796174,0.16161841,-0.65066373,-0.15322006,-0.25846636,0.30912194,0.38006005,-0.02818504,0.3222599,-0.17969865,0.07252355,0.080518246,-0.17681597,0.59472793,0.35203433,0.33226633,-0.59230924,-0.33308604,0.056150585,0.34852973,-0.21940657,-0.14797652,0.17686082,0.30283165,-0.24685629,-0.3264346,0.009829335,-0.0122049,0.3936633,0.35572967,-0.3540444,-0.23982903,0.6611019,-0.17829792,0.026990637
Oceania_38.png,-0.1810754,0.39974487,0.14132929,0.09298803,-0.21227708,0.15317562,-0.045980737,0.06746724,-0.033491686,-0.3183745,0.34693027,0.07368678,0.23735873,-0.36525536,0.25209272,-0.017558187,1.0424132,-0.41493672,0.4736404,-0.4055035,-2.0563846,0.35972434,-0.13922128,-0.016995013,-0.26601574,0.2780413,-0.21540271,0.08008716,-0.31763807,-0.03969388,-0.21248555,-0.26547843,0.24194215,-0.33662164,0.6050639,-0.09421751,0.00048701465,-0.34666812,-0.5490177,1.3222857,0.28337178,-0.18180159,0.110629246,0.009690911,-0.036358144,-0.35279065,0.22336377,0.11440177,0.41354886,-0.17147756,-0.016735554,0.21138507,0.052711576,0.079486534,-0.06256887,0.6205143,0.4577844,0.22990352,0.1698212,-0.044333104,-0.5229339,0.088809654,-0.3821064,0.09400642,0.02914162,-0.030944139,-0.007932983,1.9924477,-0.022022106,-0.1629122,-0.002168212,-0.58115524,-0.10289477,0.24815466,-0.12775388,-0.18056811,-0.1063089,-0.34717286,-0.26119775,0.13134098,-0.023987152,-0.19271691,0.36189035,-0.64883363,0.29830363,0.22032887,-0.28358728,-0.1715363,1.1656551,-0.72441673,0.79331696,-0.0040344447,-5.619415,0.5658008,0.05392798,-0.24646285,0.23859897,0.4763109,-0.7563237,0.83317876,-0.6084866,0.21027866,0.14321008,0.099727824,-0.36036962,0.06456195,-0.95562774,0.054766208,0.12606016,-0.06900009,-0.12914619,-0.30613512,0.26552835,0.2350935,0.19631483,-0.33255157,0.42745358,0.49244696,0.30170763,-1.1678299,0.59174144,0.52026093,-0.03575322,-0.24303278,0.29667106,-0.020228237,0.56750625,0.03404721,-0.32244354,0.07911292,-0.13370487,-0.26859903,0.29722184,0.76295805,0.20241645,0.12861018,0.22888339,-0.5536752,0.10653658,0.31402117,0.0697513,0.13714424,0.0561215,-0.1898525,-0.29621798,0.061898094,-0.2945553,-0.250636,-0.053576794,0.17095724,-0.5398195,-0.16510272,0.1816003,0.2725435,-0.17706142,-0.13065419,0.023240969,0.3090433,0.10244396,-0.17556097,-0.36320692,0.084462,0.08271158,0.29526895,-0.34445083,-0.051857248,0.17895466,0.2963476,-0.2667055,-0.18928558,-0.14403236,0.41943735,-0.37625307,-0.6922314,0.0718603,0.32081294,-0.554176,0.27162576,0.65514934,-0.31427926,0.2526669,-0.0872682,-0.24173954,-0.10984506,0.13769153,0.061061673,0.07015526,-0.04080188,-0.31342405,0.012210637,0.061296746,0.20719253,-0.019127794,0.28509712,-0.04588227,0.14689183,-0.56335557,0.21935147,-0.36800045,-0.008804132,-0.030432642,0.1836104,0.08340366,0.19456047,0.35107064,-0.26611808,-0.5523443,0.004179202,-0.27627403,0.15186572,-0.026924431,0.7152657,0.4560163,0.3160995,0.09531772,-0.24309768,-0.17528751,0.22310098,0.54140323,-0.42801714,0.41028643,1.1730756,-0.045465767,-0.2632824,-0.41620484,-0.013203766,-0.21480185,-0.049692348,0.19163933,0.19692643,-0.5281776,0.046332896,0.29333076,-0.19817112,0.1879295,0.6232668,-0.15170707,-0.20411497,-0.17118461,0.2063969,-0.20269962,0.11105475,0.2647268,-0.31661916,-0.7442861,-0.5457034,0.33051452,-0.085814565,0.03861768,-0.53767097,-0.07558213,-0.10044691,0.113929,0.5329319,-0.11169149,0.101396784,0.2215338,0.28181794,1.6081809,0.14837267,0.05149404,0.14113088,0.47601715,0.7274311,0.0033301283,0.19413655,-0.28747034,0.4659942,-0.25944436,-0.2715681,0.06594999,0.17164233,-0.54272366,0.012263805,0.05513336,-0.43957585,0.061895087,-0.48362535,-0.31273016,0.0142185,0.055184543,0.21609554,0.19847332,0.31444144,-0.08665224,0.06476292,-0.8118582,-0.23136704,-0.49775147,-0.0085110925,-0.12043531,-0.29025817,-0.22348605,-0.3445851,-0.021435067,0.23612368,1.1882186,-0.42777446,0.085679956,0.15663436,-0.28500372,-0.38247013,-0.59758246,0.3414423,0.43212408,0.42837366,-0.6689646,0.28469262,-0.01601326,0.2777065,-0.1771327,0.52525514,0.76195747,0.108287506,-0.22822227,0.13908271,0.38078147,0.05492638,0.3479441,0.194092,0.08534509,2.059955,-0.5708995,-0.100024514,-0.108909026,0.28669465,0.4076038,0.36033273,-0.07353964,-0.27787638,-0.00446862,0.08227882,0.031392448,-0.50530654,-0.042358145,0.09341494,0.3467573,-0.0584158,0.55316633,0.52125907,-0.092824325,-0.55197984,0.0555664,-0.17396453,-0.18457125,-0.12269449,-0.17684568,-0.03898562,-0.26460528,0.24942449,0.70428944,-0.18635055,0.49375024,0.055659458,-0.15026873,-0.48531175,-0.25684443,-0.19300918,-0.040814675,-0.35244557,-0.4416476,-0.114541255,0.15879014,1.272696,0.26893607,0.15287548,-0.05189328,-0.096042514,-0.013307892,-0.18762338,-0.104642764,-0.15475956,0.007908277,-0.42787373,-0.43360433,-0.42708114,0.3516409,-0.5347059,-0.47761172,-0.035871856,-0.7753264,-0.57031596,-0.16036108,-0.14175503,-0.22766855,-0.6511197,0.21743767,-0.03144177,-0.25292638,1.6687573,0.48634377,-0.24101092,-0.0001313407,0.3527472,-0.18952082,0.10568358,-0.14740849,-0.013603985,0.25575632,-0.34555966,-0.21732424,-0.0788205,-0.04429564,-0.38747334,-0.3281389,-0.25393263,-0.42684954,0.14291549,0.1640431,-0.26143837,0.48806563,-0.4693904,-0.0085372105,0.16848592,-0.5575109,0.3437057,-0.1157586,-0.029843401,-0.22830033,-0.27430102,-0.16451052,-0.45824364,0.68009794,0.5513034,-0.4932008,-0.059547823,-0.022617131,-0.31799814,-2.5667052,0.34264857,-0.02625198,0.011728749,1.0224704,0.052709296,0.0011271685,0.06694847,-0.005407255,0.050814677,-0.33974335,0.17090347,-0.1705141,0.10076979,-0.02256224,-0.16434893,0.5304714,-0.42183143,0.17722587,0.10949314,0.17539966,0.38238788,-0.014992427,0.021023259,-0.15188171,-0.91081274,-0.16742106,-0.23893751,-0.04698503,-0.12014287,-0.13381532,-0.03778717,-0.037932023,0.21763201,-0.1826193,-0.12655182,-0.006373808,0.28877994,0.26969102,-0.10573889,-0.53934413,-0.07702781,0.3670385,-0.018374458,-0.28553057,-0.60954565,-0.39606386,0.036438115,0.3271612,0.41639274,0.6113026,-0.48122835,-0.37571585,-0.3641318,-0.033769745,0.033002608,0.068374306,-0.079734564,-0.09801936,-0.031724066,0.30033088,-0.2655102,0.48533565,0.07389411,0.103388235,-0.37817216,0.12461516,-0.26417926,-0.22618365,-0.07096925,-0.15618184,0.42958766,-0.022311546,-0.19151953,-0.013675235,-0.013286021,0.20323691,0.30654967,-0.0377428,-0.06350257,-0.33668727,0.7130513,0.038003832,-0.23954983
Oceania_47.png,-0.3057902,0.21385682,-0.16183856,-0.10460612,0.17051215,-0.21561164,-0.1654023,0.20422277,0.1406117,0.2800527,0.21300557,-0.5100985,1.0008199,-0.012635015,0.22660801,0.035558484,1.2607921,-0.09161946,0.28526717,-0.20857944,-1.3575954,0.011160895,-0.15476072,-0.389717,-0.017117677,0.25318682,-0.2247772,0.13238338,-0.12400512,0.30196625,-0.33767864,-0.37890726,-0.2868995,0.07108667,-0.26955882,-0.30365846,-0.3114717,0.21482806,-0.40610284,1.2363569,-0.06095694,-0.2564496,0.0012368783,0.23593284,-0.035067063,-1.5934825,0.78281504,0.10928041,0.036628604,0.40807718,0.08979105,-0.008029416,0.12805417,0.3081548,-0.21475737,0.5365459,0.26364458,0.35512835,0.32785517,0.02554762,-0.9752321,0.023322672,-0.4708483,0.017078012,0.0045847893,-0.12729259,-0.19012934,1.7452923,-0.2463715,-0.17498067,-0.24475059,0.12186371,-0.55063903,0.09906234,-0.02418539,0.0786493,-0.7108561,-0.73203146,-0.07821836,0.06995936,0.11058393,0.32834956,0.08102679,0.26170164,0.3520159,0.3473118,-0.45224625,-0.28887486,0.498624,-0.55170107,0.7532704,-0.41333693,-6.685112,0.46601927,-0.09305268,0.29869077,-0.2954636,-0.07327536,0.2858715,-0.0938469,-0.103701726,0.6300699,-0.4901616,0.1603717,0.12299936,0.14820932,0.7683838,0.094268605,0.36798462,-0.39994445,0.4927684,-0.014899507,0.31354782,-0.31105262,0.06376429,-0.24622221,0.087242424,-0.21516,0.2715634,-0.6791538,0.16454303,0.19183081,0.020068333,0.25276047,0.0730028,0.12065868,-0.3960842,-0.18526495,-0.2834381,0.3296922,0.23077226,-0.23596461,-0.3208228,0.8546976,-0.55645853,-0.093909584,-0.518149,-0.027628228,0.22131085,0.03788906,0.038397424,-0.1192153,0.5053461,-0.077664874,-0.4267913,-0.009653363,0.3303714,-0.20156917,-0.029077493,0.22260398,-0.5334233,0.11981189,0.83206147,-0.2110474,-0.29951468,-0.701577,-0.3239085,-0.48384598,-0.27684683,0.2747346,-0.016870424,-0.14392631,0.08265969,-0.09851944,-0.13614962,-0.0040050447,0.58798957,0.3948798,-0.04091291,0.44596016,0.21578647,-0.087984666,0.07943608,-0.21330978,-0.10437161,0.45526442,-0.6851131,-0.14851968,0.36085394,-0.15851614,0.028940126,-0.3536698,-0.054847363,0.21184482,0.073800854,0.0488678,0.026704684,-0.17898442,0.17724276,-0.2682109,0.25055206,0.36471406,0.0037592724,-0.20324217,0.1397436,0.19689144,-0.60164404,-0.018449888,-0.5878114,-0.5472002,0.38167855,-0.14025064,0.38253903,0.398401,0.4803474,-0.48728064,-0.13492842,-0.500611,-0.17782068,0.23584051,0.25584948,0.74743176,-0.16551888,0.22262001,-0.12862898,-0.11991221,0.2083452,0.53557086,0.72521734,-0.64209765,0.23149115,0.98628855,-0.21272138,-0.052820988,0.1542233,0.021990985,0.13346346,-0.30195335,0.031909652,0.58176255,-0.10872048,-0.1541814,0.34049553,-0.3499653,0.18922862,-0.4151668,0.18071698,-0.22112966,0.13115802,0.13989073,0.38888264,0.17525914,0.027695036,-0.46039987,-0.52798635,-0.31169924,-0.20981346,0.3694967,-0.20743161,-0.28761712,-0.2426501,0.276712,-0.10408524,0.20631395,0.062435564,0.24193974,-0.5162636,0.0907123,2.315675,-0.13462885,0.0077180937,0.17469473,0.22079468,0.9499709,0.18034598,0.16911575,-0.26252514,0.4570683,-0.06150923,0.10537618,-0.0038147792,0.27674568,-0.15208797,0.45139343,-0.011378236,-0.2658865,0.1168614,-0.6247301,-0.35088262,0.5332582,0.4886319,0.32230562,0.115939885,0.22433616,0.28854448,0.06057112,0.22518516,-0.5268457,0.15906271,-0.027216554,0.29932263,-0.21202008,0.46862862,0.27383858,0.020449087,0.62315905,0.82953495,-0.12376213,-0.198203,0.08838555,0.06398289,-0.5278454,0.1983422,-0.14170721,-0.12548912,0.8124542,-0.29984435,-0.1199584,0.20076337,0.2929242,-0.21944852,0.0054878145,0.8520052,0.07305556,-0.115816936,0.23610212,0.7839231,0.49210262,-0.103642166,0.44051334,0.47572306,1.4130852,-0.14548402,-0.19274427,-0.25987816,-0.105541535,0.25751495,0.16824551,0.32354733,0.14560959,-0.34487373,-0.33997038,0.16471806,-0.18476127,0.10635406,0.14163668,0.19553727,-0.1939035,0.35944757,-0.002696827,-0.27240255,-0.080638155,-0.51114285,-0.03518402,-0.06585081,0.015976273,-0.33790004,0.37736857,0.2339305,0.50478035,-0.06774272,0.016790904,0.20105335,-0.35272664,-0.25862193,-0.6967813,-0.2367121,0.6469414,0.055149093,0.19633192,-0.6026797,-0.16898152,0.09866742,0.9438208,0.1827665,-0.015585804,0.017353922,0.2028149,-0.14004992,-0.31084764,-0.25690204,0.30626947,0.074694455,0.1358533,-0.07141861,0.013123432,0.80920064,0.4033012,-0.6450194,-0.12543978,-0.16616137,-0.75099665,-0.12724036,0.5029422,0.009041086,-0.61196524,-0.18639398,0.25138998,-0.54693615,1.463582,0.47510773,-0.03588048,0.32988006,0.057741534,-0.2819684,-0.05131694,-0.06594179,0.22721538,0.00077426434,0.25816327,0.22835176,0.16550669,-0.03015928,-0.25431406,-0.30770892,-0.31383073,-0.36215734,-0.18085346,0.05263693,-0.317439,0.08073435,-0.36781165,-0.09406018,0.29327595,0.08622928,-0.0399442,-0.16550522,0.51366794,-0.39693537,0.018299937,0.14188176,-0.07714846,0.24365583,-0.37072474,-0.39927173,0.0060349107,-0.4029627,-0.31611824,-2.2040038,0.42892843,0.07039692,0.4309325,1.0923891,-0.24227314,-0.2561749,0.23985672,-0.57377946,-0.4408872,-0.28846818,-0.15769711,0.29017884,-0.33096924,0.22330032,-0.060613826,0.19633605,-0.10307165,0.113204375,0.07198035,0.14730084,-0.23640905,-0.2955429,0.07797101,0.12572622,0.0704976,-0.13043919,0.09434395,-0.46224123,-0.4734144,-0.5572095,-0.12826502,-0.023860678,0.2038309,0.059619125,-0.30990484,0.042014986,-0.40565887,0.19804166,-0.33130902,-0.35091412,-0.48598903,0.204939,0.16491923,-0.08797541,-0.19472618,-0.3538421,0.12606782,-0.41691798,0.04001315,0.22611879,-0.48276097,-0.27014023,-0.14149354,-0.4664312,-0.16947916,-0.047624893,-0.31233713,-0.45384693,0.11753593,0.0340705,-0.040548936,0.38236532,0.55138695,0.23658389,-0.61939156,0.02183428,0.21257299,0.2111547,-0.31033376,-0.0056999624,0.025794066,0.25165161,-0.0137637835,-0.18632431,-0.14661445,-0.013350746,0.12045267,0.35249898,0.072900236,-0.50581,0.74013245,0.38452,-0.046485484
Oceania_22.png,-0.5844669,0.83614373,-0.13803214,0.127109,0.0033326,0.38117296,-0.07415769,0.2642202,0.020360976,0.13609162,0.32842493,-0.18029638,0.28050774,0.1641556,0.31093514,-0.022833765,0.75373554,-0.14275555,0.53162587,-0.5290595,-1.6379716,-0.11882205,0.1789899,-0.5225712,0.2880177,0.41504827,0.26508784,-0.10243793,-0.29907888,0.12620361,0.032127142,0.10963735,-0.29390955,-0.16523865,-0.23607086,-0.27495906,-0.2643637,-0.07390444,-0.6323453,0.65112555,-0.28551143,-0.14563686,0.24023524,-0.33005068,-0.33885124,-1.0901012,0.61793464,0.2839599,0.33692378,0.3315587,-0.062018976,0.11769562,-0.26952186,0.16321024,-0.30351546,0.40978503,0.5064642,0.20706685,0.059059165,0.11429482,-0.26899847,0.32386938,-0.08297822,0.28576303,-0.3188033,0.45083788,0.11017729,1.2750098,0.17941344,-0.47078517,-0.05282118,-0.40093344,-0.448568,0.14252391,0.004452482,-0.4372219,-0.7584821,-0.52916837,-0.25210297,0.02423818,0.17686884,-0.41292098,0.29154748,-0.20983338,0.20939894,0.073962994,0.049332976,-0.08024456,0.7416424,-0.47479135,0.33565712,-0.20127249,-6.9027805,0.2958477,0.04917366,-0.021980166,-0.12955353,-0.34065172,-0.031754807,-0.029067952,-0.038131423,0.45368433,-0.22252433,-0.16295797,-0.49792776,-0.02535677,-0.33570355,0.12304334,-0.24107762,-0.18719327,0.19421466,-0.32360893,-0.14378414,0.07111301,-0.11044961,-0.15361072,-0.05640772,0.40706503,-0.059598304,-0.811808,0.0008382872,0.1515702,0.4170485,0.12554163,-0.030673452,0.22901899,-0.0110218935,-0.14194703,-0.27188206,0.30288732,-0.21944131,-0.19150151,0.08923452,0.90838146,0.01799453,-0.09604764,-0.30589247,-0.58429796,0.14574918,0.05125699,0.04269682,-0.35912675,0.5861937,-0.3232363,-0.3761543,0.42990375,-0.20883228,0.007273957,-0.5318233,0.03449925,-0.14811343,-0.25901163,0.15595305,0.1265629,-0.45686954,-0.0922572,0.16475323,0.09868543,-0.3534477,-0.23848785,-0.12074083,-0.33212057,-0.03730095,-0.21125677,-0.14096807,-0.2484879,0.34995407,0.72869754,-0.06884658,0.1283527,0.3868134,-0.05836314,-0.32708642,-0.09790065,0.14708251,0.7202768,-0.35296416,-0.146155,0.68778074,-0.22932813,-0.24344003,-0.8908405,-0.3444139,-0.15503173,-0.18977061,-0.2829411,0.061345637,-0.006998956,0.450596,-0.26368976,0.1487891,0.117564306,0.10172178,0.2734766,-0.016198587,0.22847733,-0.6766107,0.024422958,-0.57972294,-0.30950043,0.33401752,-0.039218448,0.45935684,0.0062401835,0.37458014,-0.7031432,0.095196664,-0.3639385,-0.0029033422,0.31300452,0.14372402,0.6625046,0.02493617,0.08183483,0.13043582,-0.15343921,0.3102695,0.32756987,0.5939338,0.09713463,0.30976564,0.5563157,0.09853281,-0.0658594,0.01715969,0.12557036,0.2623685,-0.32743764,0.011090204,0.15535086,-0.076510094,-0.39645165,0.68381006,0.19966455,0.10556607,0.6633199,-0.20248441,0.002036102,-0.2625294,-0.09646347,-0.060411192,0.18226099,0.4728788,-0.39682817,-0.2641509,-0.9124224,0.27569786,0.7436924,-0.09362699,-0.28214708,-0.03301491,-0.021322206,0.34678155,0.44168967,-0.31206065,-0.081260726,-0.4269719,-0.11807634,0.7087751,0.1551684,0.0057919845,0.5760969,0.23463105,0.46438968,0.106933005,0.24907574,0.0117600635,0.1142419,-0.1747675,0.10732442,0.0024432018,-0.25471783,-0.2615177,0.22482045,0.32262447,0.08227525,-0.15087035,-0.2803314,0.015383646,0.35933873,0.25740668,0.34951454,0.59877855,0.13156064,-0.21388829,0.425812,0.016683042,-0.39581206,0.03365799,-0.039113387,-0.033779748,0.13813035,0.3534077,0.039735183,0.16276787,0.750111,0.3147945,-0.06542608,0.24725167,-0.1033674,-0.23404846,-0.15000224,-0.31347328,0.6960281,0.14105769,0.39316875,-0.2271349,0.16859883,0.35797405,0.26592314,-0.25084358,0.5962025,0.9068999,-0.008843169,0.0011155978,0.09213814,0.20109445,0.2257935,0.23469952,0.32510158,0.26499304,1.455337,-0.090381905,-0.5566096,-0.1125869,0.16426101,0.4868105,0.21281336,-0.06761147,0.33549023,-0.35259393,0.12416174,0.30406934,-0.39821473,-0.13575578,0.2423391,0.13343123,0.2323379,0.3674149,0.2659104,-0.1720607,-0.6157825,-0.09143032,0.39088684,-0.20977607,0.15114819,-0.38895077,-0.039290026,-0.049890667,0.33283174,0.25773764,-0.06551993,0.4964241,-0.33372727,0.101874635,-0.24649228,-0.43255767,0.9003489,0.10897327,-0.02861955,-1.1372558,0.008719493,0.02233158,1.0356244,0.08373919,0.09379701,0.14464912,0.36517647,0.07026764,-0.34578028,-0.53592753,0.12587166,0.14408676,-0.18225542,0.09071007,0.016637698,0.67500126,0.017293163,-0.5137368,-0.06470822,-0.4244023,-0.8838862,-0.31451622,0.046426713,0.09855436,-0.30745333,0.11327832,0.2881995,-0.91086155,0.59008867,0.36181602,0.07579112,0.18965939,0.17130123,-0.010097578,-0.06421636,0.29151505,-0.21554305,0.17132238,-0.08343789,0.31973156,0.119223505,0.04460129,-0.32585627,-0.45768365,0.06835505,-0.038826305,0.10383889,0.37065768,-0.4339537,-0.287828,-0.349556,-0.19298828,0.052274346,0.1719773,0.3175075,-0.25931907,-0.08927128,-0.25826305,-0.3106191,0.07849567,-0.26002926,0.52242786,0.26113504,-0.18031925,-0.35084113,-0.23401794,-0.4622129,-1.230184,-0.066994384,-0.02999478,0.37685746,0.96691203,-0.034947388,0.207733,0.39496434,0.10759926,-0.21399653,-0.3767257,0.3012836,0.1855081,0.04490678,0.17385241,-0.30513036,0.22838409,-0.742189,-0.053569272,0.33509803,0.0002601482,-0.14791827,0.06728752,0.19979095,-0.5006763,-0.662626,0.13480626,0.21196598,-0.421018,-0.27321172,-0.12121343,0.06948415,-0.33222574,0.051894702,-0.18721472,-0.23252077,0.16226509,0.14461118,-0.08824313,-0.20932285,-0.7817686,-0.16605094,0.27303112,0.081607945,-0.12766054,-0.47472364,-0.5135531,-0.10715529,-0.105197504,0.35713896,0.17418279,-0.13961616,-0.5185927,0.14309064,-0.24921049,0.09241435,-0.05281213,0.018955216,0.01855369,0.40068895,0.40604442,0.112292275,0.34353346,0.4807012,0.21592405,-0.96409684,-0.022967339,-0.80976,0.23092028,0.13503689,0.023823857,-0.14220433,-0.08775926,-0.112409495,-0.13298263,0.11822261,0.14285432,-0.12766172,-0.0030010622,0.40068328,-0.5942719,0.77062196,-0.026971739,0.21664868
Oceania_19.png,-0.42815423,0.14725487,-0.23472206,0.6838049,0.24446625,0.15719981,0.39810115,0.6052914,-0.32632184,0.11642939,0.20558669,-0.39589944,0.088902265,-0.1821353,0.32311141,-0.06971501,0.5296364,0.44211864,0.107735775,-0.13629536,-0.9584796,0.33910578,0.00745951,-0.15121728,0.060482234,0.7203375,0.25879553,-0.43847513,-0.24205674,-0.03736663,-0.19689606,-0.13733958,-0.21508916,-0.17855734,-0.57914037,0.036100347,-0.18272951,-0.20745592,-0.48198575,0.4412284,-0.121157035,0.06393547,0.3649051,-0.35388616,0.11059156,-2.437871,0.23453647,-0.022954196,-0.060528688,0.093359835,-0.121624246,0.42850018,-0.02344837,0.19942094,-0.14026596,0.24894635,-0.15146506,0.3671379,0.39440203,0.11684246,-1.4495256,-0.026292622,-0.3361103,0.02438841,0.019081157,-0.14130639,-0.07977506,1.0278492,-0.069398634,0.01077395,-0.20589396,-0.3347857,-0.3811321,-0.14326555,0.2928962,-0.18651032,-0.64566684,-0.75252265,-0.5056032,-0.281403,0.35801798,-0.21778177,0.073103175,-0.011339683,0.38964477,-0.11647152,-0.12118277,-0.08572665,0.40107888,-0.33106568,0.37842047,-0.018151421,-6.9306774,0.036269642,-0.167354,0.0737427,0.12562974,-0.034470882,0.20989653,-0.033049762,0.12756568,0.15893175,-0.35777128,0.052248016,-0.03516743,-0.069318295,-0.029098451,-0.032157667,-0.067897834,0.10022334,0.24509357,0.16264504,-0.20674571,0.09720975,0.33915558,-0.24433392,-0.06325588,-0.2131851,-0.053705037,-0.36811966,0.58279705,0.40844217,0.43908414,-0.3700199,-0.1806561,0.070760295,0.13281494,-0.118318334,-0.08553672,0.09353809,-0.040322073,-0.25100142,-0.050911672,0.88609326,-0.08561154,-0.42970937,-0.062408224,-0.11474757,0.16950592,0.31256387,-0.13115428,0.20798314,0.20516261,-0.25559875,-0.33172232,-0.34939447,0.2259481,-0.044343993,-0.25065735,-0.1540808,-0.3254193,0.0075516775,0.9328201,-0.28204173,-0.11681205,-0.3251019,0.11464456,0.025474532,-0.30415112,-0.024066526,-0.2509805,-0.121868186,0.19607802,0.043483578,0.726227,-0.06372562,0.18419585,0.45141947,0.38118282,0.3285485,0.23047674,0.3078743,-0.06954837,-0.1113364,-0.15935396,-0.067417406,-0.59589636,0.15300569,0.11946678,0.031725682,-0.10187368,-0.6474048,-0.17089598,-0.04434669,0.122559085,-0.3806185,0.15096821,-0.28116682,0.26371735,0.07251409,0.15508664,0.03781393,-0.010956131,-0.009944044,-0.2711734,0.081477165,-0.2790568,-0.23384897,-0.65007615,-0.08000797,0.15155144,-0.14629345,0.5775038,0.37482637,0.5695213,-0.63375217,0.07159194,-0.49426928,-0.18414828,0.29079112,0.13080513,-0.065563016,-0.24434173,-0.21215901,-0.15009199,-0.20043257,0.15508595,0.24156645,0.59683704,-0.45928878,0.2022568,0.1789387,-0.23152795,-0.104111284,-0.34789562,-0.0039059073,-0.23133346,-0.08198955,0.01686519,-0.22367723,0.20910576,0.009184122,0.46563032,-0.17919233,-0.03903625,0.32898,0.34296572,0.20559376,-0.023179831,-0.31223112,-0.017186016,-0.17273551,0.020630278,-0.46271214,-0.7879416,0.33404,0.0072418116,0.33335546,-0.3027613,-0.07702543,-0.08551003,0.16421817,0.21280318,-0.06734354,-0.02584996,-0.098737985,-0.24494454,0.2561695,0.22905669,-0.18968597,0.5349715,0.4102684,0.21638323,0.66914964,0.18080008,-0.08594717,-0.120620154,0.265661,0.120638564,0.19059205,0.40440568,0.38770688,-0.14906104,0.25682425,0.16107634,-0.05164799,-0.43285358,-0.6072215,-0.24659789,-0.06019914,0.46190426,0.16488975,0.029441342,0.29507363,0.093715146,-0.040439583,0.061385497,0.056741975,0.088788345,0.06368494,-0.18005237,0.09516868,0.1801793,-0.036487512,0.06650206,0.4890294,0.37226373,-0.21865761,0.22449225,-0.38042653,-0.18528472,0.19225064,0.23265414,0.44836247,0.031101344,0.19010231,0.31336513,0.25136557,0.16520211,0.06620121,0.15957436,0.5429614,0.8848563,-0.3652724,0.17749591,0.22096129,0.5467924,0.08806401,0.3962633,0.036731087,0.39350626,0.30156982,-0.20849454,-0.2554869,-0.03871733,-0.07807529,-0.084247515,0.17685694,-0.04891231,0.25958508,0.0076619387,-0.12978725,-0.11242435,-0.19090196,-0.35101187,-0.08892886,0.29185715,-0.0643933,0.143285,-0.11828933,-0.021438569,-0.32756442,-0.40972364,-0.44311044,0.3168043,-0.1274077,-0.42364466,0.08597946,0.37456137,-0.008391821,0.41029596,0.62816185,0.41927373,-0.28512195,0.107841134,-1.1277788,-0.36249852,0.9211077,0.16289684,-0.306566,-0.90935475,-0.0064608976,-0.042672835,0.25858366,0.5336704,0.39490676,0.24358726,0.49066484,0.4475199,-0.4593891,-0.3091609,0.042359665,0.17405677,0.07922821,-0.085754305,0.06617213,1.4205669,0.18766798,-0.25210178,0.10137263,-0.24041975,-1.3536917,0.15245575,-0.43537855,0.43831536,-0.2790677,-0.033347733,0.12451314,-0.31561673,0.57143897,0.15245456,0.1456015,0.342238,0.30842978,-0.7604977,0.29556468,-0.03661742,-0.019810494,0.34024864,-0.004624516,0.14165114,0.107189626,0.4282597,-0.4477755,0.12359668,-0.13512819,-0.18394123,-0.26039475,0.61347234,-0.6279838,-0.5151914,-0.07272036,-0.3724082,0.06145622,-0.21006651,0.335759,-0.16432725,0.3650782,0.09771996,-0.034467634,-0.29334652,0.015081495,0.27625686,0.089638025,-0.15293881,0.016282275,-0.57835865,-0.5986033,-2.5850024,-0.035400435,0.13242605,0.5532492,1.1545837,-0.2959023,-0.090300456,-0.15666498,0.24600038,-0.42754248,-0.23912494,-0.026553795,0.58771497,-0.19845119,0.22557233,0.104826346,-0.44524133,-0.47543168,0.25797176,0.5008386,0.3145764,-0.23546918,-0.063585974,0.25865114,-0.097847685,-0.66700554,-0.01579367,0.15191846,-0.26559693,-0.42434952,-0.123806514,-0.23576948,-0.13885017,-0.23163769,-0.12448152,-0.11718864,0.041667596,0.43224314,0.32891217,-0.40465558,-0.51130927,-0.08602399,0.1594786,0.25051016,0.23571783,-0.020316273,0.2339488,-0.157213,0.052901357,0.042708665,0.80400765,-0.13019656,0.119053766,-0.12222244,0.010978647,0.1497868,0.24278311,-0.07336384,0.052795608,0.14930189,0.17940064,-0.060984194,0.30385262,0.05436065,-0.061073422,-0.8188053,-0.06392998,-0.14733382,0.20744921,-0.18063658,0.0009919656,-0.106242225,0.18956769,0.1218954,0.18304051,0.2004895,0.18581066,0.25286216,0.18017298,0.25637668,-0.58363646,0.77044356,0.33106783,-0.43272454
Oceania_06.png,-0.46060973,0.4045585,-0.19723481,0.3850926,-0.30870742,0.09961966,0.20976089,0.27377936,0.082257465,0.32860547,0.529325,0.058944374,-0.1681232,-0.1544252,-0.14206748,-0.29684022,-0.0896367,-0.060296807,0.3920152,-0.3872452,-1.9341699,-0.11453132,0.082831234,-0.1576038,0.2395197,0.61667615,0.15843113,0.07101982,-0.47759742,-0.20618157,-0.33627033,0.08599455,-0.5584787,-0.007670019,-0.1449945,-0.019261796,-0.046245992,0.19951126,-0.24477552,1.1940409,0.28523275,-0.121765584,-0.2875747,-0.40583062,0.31608576,-1.745986,0.25113228,0.28583938,0.42771652,0.37435323,-0.15838712,0.15635863,-0.07259551,0.31461632,-0.101897836,0.57935584,0.17369035,0.14347526,0.054879457,0.17599301,-0.31810343,0.06283806,-0.41081554,0.4101211,-0.17118213,0.29703888,-0.10433023,1.1848179,0.016024552,-0.49074495,-0.093744285,-0.25844562,-0.4462684,-0.5900954,-0.16100639,-0.3970148,-0.1887911,-0.48071986,-0.24957108,0.29828912,0.3591478,-0.51801074,0.027819313,-0.4908589,0.2802425,0.10184558,0.13595337,0.06874378,0.6961453,-0.5627951,0.42853534,-0.52445924,-6.7688065,-0.07791087,0.42724314,0.1769794,0.06470455,0.083691545,-0.8966216,0.1866367,0.052679434,0.77776176,-0.033247013,0.120708205,-0.42633665,0.14582188,-0.52336895,0.110985175,-0.3164599,-0.543811,0.17224419,-0.31488457,-0.22059748,-0.24450715,-0.123311624,-0.25507948,0.6400176,0.085582115,0.3479817,-0.8194664,0.17108783,-0.016496807,0.11196193,-0.30986017,-0.051855035,-0.19462925,0.24748838,-0.43692824,0.25280046,0.018884659,0.20836815,0.23693079,-0.031017821,0.8989686,0.23878749,-0.17695217,-0.17025161,-0.9805534,0.21407178,-0.08716216,-0.031772893,0.4411723,0.040667236,-0.07251759,-0.2503484,0.03201279,0.16730183,-0.016070843,0.038354374,0.093049094,-0.38987875,0.22396703,-0.058500603,0.08955638,-0.15530306,0.1717111,0.4240978,0.03758201,-0.21820179,-0.09550995,-0.07910164,0.21940461,-0.23777968,-0.14032635,-0.09681137,-0.12985834,0.32786992,0.7048663,-0.14626762,-0.2283594,-0.15619822,0.016722575,-0.22751659,-0.14544839,0.3393014,0.87830245,-1.0583533,0.24947257,0.16571124,-0.4671479,-0.24198115,-0.34350622,-0.45238978,-0.18810758,-0.0024518408,-0.35136294,0.25340816,0.22789893,0.03486128,-0.050477415,0.025900906,-0.18568024,0.07971497,-0.104405284,0.32802615,0.6367415,-0.20318483,-0.067963645,-0.0026748404,-0.06371495,0.34723693,-0.30181286,0.31348664,0.40078577,-0.069969326,-0.7728936,0.24111195,-0.60779667,0.09566954,0.28417844,-0.061464332,0.9072218,0.16434337,-0.42132914,-0.18942001,-0.37941277,-0.0012166519,0.3701535,0.53848946,-0.1692052,0.32492217,0.5660006,-0.032704473,-0.32528073,-0.101380005,0.331325,0.19741869,-0.38141602,0.018028684,0.14334425,-0.33551174,-0.35940945,0.37018016,-0.5869385,-0.22146213,0.817611,-0.11125869,-0.3340789,0.07039265,0.23551005,-0.10657436,-0.16289932,0.55321574,-0.50149435,-0.62231654,-0.30358192,0.44917423,0.41098386,-0.3254458,-0.30623955,-0.05493243,0.14745091,0.007318884,0.26544955,0.10951105,-0.010083698,-0.24906707,0.27635896,-0.04368356,0.06830348,0.3764392,0.31719378,0.37955457,-0.39676335,-0.0006131828,0.11700144,-0.40775687,0.15984744,0.1881161,0.22253925,0.37105322,-0.0575525,-0.12030579,-0.11270563,-0.19850026,0.039961416,-0.3749112,-0.49478608,-0.19012827,0.32219818,-0.086336896,0.2367623,0.12760352,0.33454245,0.05455008,0.32812643,-0.4192137,-0.08510938,-0.31861234,-0.41949928,-0.26710904,0.1269413,0.3975022,-0.07813332,0.17159286,0.78721607,0.10745299,0.024116665,0.3051365,-0.37114504,0.0037680026,-0.17486519,-0.28512037,0.22334641,0.12724172,0.24119593,-0.37061775,0.5736512,0.16978145,0.5016084,-0.08489597,0.41795465,0.8984068,0.05266139,0.015437566,-0.20239948,0.007794425,0.21372858,0.2147013,-0.15283617,-0.31517845,1.5773596,-0.050050057,-0.54622847,-0.058332592,0.20742506,0.27468377,0.10844718,-0.013149381,0.16846061,-0.76142013,-0.047221705,0.2469782,0.28649172,0.0067057908,0.048576146,0.28663284,0.06155169,0.13728079,-0.03488373,-0.007154491,-0.2185085,-0.29169506,0.16413316,-0.11269477,0.14079909,-0.20603389,-0.030854117,0.17939611,0.402901,0.3022769,0.034457494,0.10621506,-0.15807422,0.25447866,-0.33180112,-0.07376741,0.43177226,-0.07445331,-0.27504653,-0.715368,0.038384218,0.39605013,0.6440572,-0.3265584,0.0021645427,-0.0707863,0.4940909,-0.37205052,-0.13397527,-0.51368445,-0.016700253,0.13853532,0.37022668,-0.20083094,0.3556311,0.85988474,0.044477984,-0.58359694,-0.12365402,-0.1527525,-0.8051265,-0.23817979,-0.26418585,0.10806927,-0.33242792,-0.14307329,0.010644704,-0.48758414,-0.15189841,0.024402037,-0.11891331,0.4302429,0.013473174,-0.43096986,-0.0030740201,0.004486218,-0.21797344,0.53018326,-0.3291822,0.18152541,-0.17399903,-0.21221447,-0.40997404,-0.044729576,-0.23911256,-0.005795084,-0.06324695,0.57986146,-0.38985914,0.09198004,-0.23921238,0.07816878,0.13929899,-0.2263179,-0.18582632,0.11748281,-0.14657494,-0.25488722,-0.21956283,-0.4594713,-0.0834256,0.2762052,-0.07189855,-0.47202873,-0.24870142,-0.2601183,0.09358006,-1.205841,0.20784914,0.058265194,0.62435925,0.88937634,-0.23770013,0.25559437,-0.015218618,0.42127544,0.102535106,0.15526567,0.43619752,0.3978389,-0.008048907,0.11587373,-0.038450852,-0.46703318,-0.31644088,0.6461545,0.11624414,-0.037487537,-0.23279184,0.39444432,-0.0987391,-0.081507444,-0.93956554,0.060562525,0.27476597,-0.2246834,-0.13615833,0.11832787,-0.2810942,0.13857172,-0.28909275,-0.035809718,-0.14671136,0.23137629,0.0983275,0.0014956044,-0.3160099,-0.4503737,-0.16499041,0.12023771,-0.16757262,-0.03870447,-0.25187165,-0.28036627,0.05134443,-0.31811175,0.38279316,0.14533977,-0.030100413,-0.37856293,0.109396435,-0.15018335,0.08832802,0.2002211,0.13596624,0.045608796,0.3002833,-0.22528735,-0.052772112,0.21854344,0.3191955,0.20027593,-0.8929566,0.018812627,-0.083165824,-0.12631677,0.39028737,-0.20538977,-0.23581246,0.1314337,0.5507538,-0.020737015,0.6054895,0.46658173,-0.09930095,0.50292575,0.006065674,-0.40859216,0.8567736,0.20741454,-0.2718728
Oceania_34.png,-0.002221346,0.8457006,0.30244792,-0.13369092,0.14415711,0.0703982,-0.07607646,0.062972784,0.160524,0.19227536,0.20753825,0.38564864,0.39253467,-0.09482461,0.19892102,-0.14837568,0.5610986,0.03292156,0.4470031,-0.3586702,-2.0498536,-0.113119185,-0.18957049,-0.28809738,-0.41367957,0.6334555,-0.106239066,0.06941163,-0.54761755,0.575962,0.030257598,-0.019705787,-0.093162775,0.17618433,0.31584835,-0.27236682,-0.03792323,-0.11931521,-0.054760396,1.4360819,0.021628814,0.021761283,0.23915207,-0.038900316,0.06509568,-1.7680855,0.012255631,0.048196122,0.49078125,0.24450313,-0.41784683,-0.3337979,-0.01582294,-0.19632947,-0.021354884,0.19854157,0.0043099374,0.46147662,0.14588526,0.020647727,-0.5563514,-0.011535268,0.090390146,0.19949597,-0.22703615,-0.16254565,-0.42838293,1.2370929,0.114850536,-0.085372336,-0.17078185,-0.45272356,-0.66927725,0.12879652,-0.2544343,0.11112542,0.019797191,-0.62003374,-0.21400972,0.54785186,0.45932135,-0.39766112,0.016326267,0.064556256,0.27997357,0.040790245,0.13623807,-0.10755417,0.70714295,-0.05698876,0.4403103,-0.41416198,-5.4033628,0.011191562,0.36317855,-0.39025775,-0.27889153,0.01841647,-0.48671293,-0.09153412,-0.28911915,0.3307756,-0.38253307,0.059939176,-0.5688494,0.056887507,-0.26497534,-0.014004856,0.4188223,-0.43012428,0.31953683,-0.2957006,-0.3314261,-0.22904037,-0.2308712,-0.4163073,0.5799115,0.18902427,0.10540062,-1.0290082,0.16314165,0.3969655,-0.029220678,-0.45705414,-0.4260353,0.16325727,-0.015357584,-0.13233085,0.1556674,-0.2198501,-0.22939965,-0.17921118,0.1803517,0.7493986,0.27118078,0.3950637,-0.09585668,0.082657635,0.0288379,0.25565478,0.033939637,7.536542e-05,0.28644165,0.45203617,-0.05617183,-0.25094715,0.122039095,-0.072882794,-0.06605202,0.036571342,-0.3332295,0.5873774,0.24820477,0.08530874,-0.4037128,-0.12095164,0.24309918,-0.17707227,-0.27294528,-0.09086801,-0.286827,-0.1437999,0.23874305,-0.2658766,0.44019598,-0.20786902,0.49924502,0.2518406,-0.08438204,-0.4645354,0.39037615,0.07206166,-0.21659571,-0.33051592,0.17699283,0.44774875,-0.32659563,0.02342686,0.34980914,-0.18631895,-0.04536499,-0.8090343,0.026836455,-0.22134224,-0.10628593,-0.15245213,0.21985409,0.31666422,0.08744961,-0.25949544,0.13002835,-0.15862954,-0.12514047,0.12962016,0.57678795,-0.039392233,-0.38614693,-0.47447246,-0.3290404,0.29559,0.2716959,-0.17246377,0.6597337,0.022244863,-0.32929933,-0.784365,0.07888876,0.10832213,-0.58240354,0.3826281,0.18774508,1.0908183,-0.12213716,-0.14257677,-0.011446821,-0.54658914,-0.12497224,0.49207798,0.9177245,-0.04271803,0.25021204,0.605696,0.10043904,-0.5831471,0.433858,0.10004851,-0.051225603,-0.025337584,0.18336704,-0.0239079,-0.0012933612,0.25653303,0.64421797,-0.21341439,-0.13536075,0.0015002247,0.07965324,-0.15609477,0.10221653,0.16762356,-0.12063327,0.35093558,0.29533678,-0.47259325,-0.7034568,-0.31830648,0.2134389,0.5940527,-0.41817436,-0.19555521,0.34644416,-0.10000114,-0.41068944,0.24307236,0.47320515,0.033054665,0.19936015,0.5730756,0.5138951,0.062606946,0.07354884,0.14813653,0.193642,-0.32486343,-0.2722905,0.1722603,-0.39339668,0.070690915,0.36424813,0.088927545,0.15529421,0.26285857,-0.028133195,0.015081644,0.07420617,-0.026824169,-0.7301404,-0.265508,-0.11163195,0.031162158,0.394183,0.32366693,0.2786327,0.47270465,-0.001898326,0.6266451,-0.11694454,-0.2246499,0.083289236,-0.40097594,0.029477246,-0.40086251,0.25668433,-0.27847397,0.1528921,0.50631154,0.27789512,0.42117625,-0.120378226,-0.2193895,0.083652906,-0.36485982,0.014597341,0.26000047,0.055459708,0.4563228,-0.068942994,0.21299192,-0.07361549,0.3687219,-0.04005585,0.2569871,0.74772716,0.060911164,0.38594103,0.13005999,0.37913996,0.37557164,0.25362247,-0.060714312,0.15097779,1.9176409,-0.40412912,-0.2299849,-0.15748338,0.033005476,0.27206168,0.34019557,0.20643845,-0.09443865,-0.23345077,-0.0146799795,0.120363,-0.08008779,0.09751809,0.39161676,0.019384637,-0.0782868,-0.12041508,-0.15741247,0.23601025,-0.438447,-0.07947898,0.024430022,-0.13021402,0.042780064,-0.6136462,0.2404981,0.16049328,0.13646027,0.18541408,-0.1483764,0.08235377,-0.08894196,0.25355294,0.31519285,-0.037084706,-0.3758165,0.10653424,0.20232855,-0.32938096,0.11839004,0.3280347,1.3032353,-0.020106494,0.2767499,-0.11802766,0.41557035,-0.41367987,-0.60027456,-0.33830678,0.3360976,0.17125048,0.30086526,-0.3332972,0.019479752,0.44795465,0.71521974,-0.8819839,-0.097156085,-0.17674242,-0.5557032,-0.47672245,-0.49677444,0.47147435,-0.3695356,0.0924101,-0.29213038,-0.49423376,0.48826826,0.63037103,0.029370412,-0.36052248,0.18752602,-0.058452696,0.27739334,-0.31024402,-0.76032495,0.6059672,-0.065589845,0.27788252,-0.19813913,0.093212344,-0.2597497,-0.2266439,-0.60336936,-0.56747323,-0.15534154,0.44406798,-0.4342815,0.07803386,-0.4292485,0.027003795,0.31693745,-0.6215297,0.30644837,0.037660778,-0.14991814,-0.334535,-0.2863648,0.51721907,0.03387555,0.55894524,0.19595294,-0.18322963,-0.22556771,-0.08206744,-0.28693742,-1.6767079,0.08903912,0.3167359,0.40950903,0.8892845,0.06910057,0.3152993,0.16212219,0.0014065243,0.10017128,-0.20483339,0.29761553,0.46800488,0.246219,0.3165693,0.52269197,0.06980936,-0.21423754,0.06825283,-0.048385397,-0.14314939,-0.06319834,-0.10839013,0.1721769,-0.15788297,-0.510899,-0.21084127,0.082586765,-0.4601226,-0.47096288,-0.065958306,-0.6035714,0.069389954,0.03904307,-0.14566347,-0.1752002,0.016369887,-0.011428334,0.63183284,-0.0060768723,-0.33118296,-0.32769912,-0.15059894,-0.016933769,-0.2942046,-0.59416014,-0.423902,-0.4559924,0.14360152,0.3646514,0.82121366,-0.035615046,-0.31788948,0.0040016696,-0.30641767,0.20497425,0.23563293,-0.3241527,-0.32089412,0.13573305,-0.27554742,0.077479176,0.28239042,0.22698343,-0.0017449409,-1.0001321,0.20244463,0.3229847,0.08302486,-0.048717774,0.027614638,-0.4127967,-0.19483584,-0.05646366,-0.5246313,0.26631287,0.23513912,0.51974255,0.23140104,0.10219668,-0.1309651,0.74996114,-0.13980626,0.06682196
Oceania_12.png,0.4086344,0.4991138,-0.20794982,0.07040261,0.03406307,-0.28292924,-0.18028939,-0.09517822,0.5537974,0.3281572,0.13330771,0.024868459,0.21947485,-0.14453623,0.6512438,0.1739233,1.3074372,0.011100022,0.28808904,-0.094761506,-1.6042881,-0.036868773,0.19239762,-0.1950202,-0.14797698,0.304364,-0.028814685,0.13596913,-0.29905725,0.5281607,-0.39979172,0.027777227,-0.24926463,-0.20726681,0.38283193,-0.25079867,-0.13541248,-0.4279367,-0.34514844,1.1957681,0.032877907,0.18621574,0.5358661,0.050170813,0.17707942,-2.1458488,0.2866383,-0.06466572,-0.18783703,0.4928721,0.32132828,-0.26060906,-0.23664694,-0.30784422,-0.16764408,0.4736745,0.39101642,-0.21517193,0.011304446,-0.023383752,-1.0713211,0.21164599,-0.28295955,0.49582675,-0.25707376,-0.015832976,-0.07113593,1.1415043,-0.121224105,-0.4060679,0.1998561,-0.5601444,-0.61803377,0.40573913,0.1378282,-0.34587336,-0.3151611,-0.54053783,-0.010190129,0.24082619,0.19954075,-0.37552166,0.12472183,0.010565557,0.30813903,0.3441268,-0.04875769,-0.3568411,0.9085728,-0.348952,0.75332123,-0.16394547,-5.278978,0.17176627,-0.19879091,0.14696708,-0.06663127,-0.23280084,-1.0477965,0.6445604,-0.25950688,0.20263639,0.19580701,-0.24444199,-0.6379056,0.26497003,0.054552898,0.086337134,0.1443375,-0.27873242,0.073404625,-0.2893472,-0.34157357,0.090611145,-0.05482509,-0.45776057,0.7253734,0.54854125,0.09795354,-1.1801043,0.24465883,0.03383684,-0.23642603,-0.3909896,0.09076851,-0.01559943,0.42903435,-0.21163794,-0.45051354,0.28478247,-0.052693337,0.16556805,0.11774934,0.7346595,-0.036009844,0.30594787,0.07930249,-0.3515095,0.3478371,0.4630218,-0.11607718,-0.13858473,0.62009823,-0.06666558,-0.18432346,-0.089120865,-0.2931824,-0.25790238,-0.25748926,-0.24069113,-0.47062415,0.0027612606,0.6712802,-0.22747302,0.0032197386,0.14131415,0.29921106,0.6359205,0.16124776,-0.36904082,-0.17458504,0.22066602,0.053280532,0.2610526,-0.31713593,0.17582402,0.42719877,0.5922921,-0.10360728,0.00028914213,0.27953947,0.47623092,-0.021413647,-0.48254415,-0.032418936,-0.023697332,-0.77443516,0.22032383,0.644773,-0.07733958,-0.025287557,-0.418122,0.03018031,0.054351494,0.23138463,-0.019121759,0.009618439,-0.028281733,-0.34907007,-0.124080874,0.15020858,0.3680796,-0.08257857,0.10627044,-0.065083936,0.07689366,-0.88814616,0.117659524,-0.04197222,-0.16106372,-0.15881354,-0.32438534,0.1626759,0.046211667,0.2504714,-0.44411612,-0.10175015,-0.15510127,-0.10285925,0.3482098,-0.23877706,0.8708563,0.5285318,-0.12589732,-0.015269309,-0.20045102,-0.081343755,0.71519905,1.0611463,0.06455508,0.34629703,0.5979402,-0.27879882,0.082763985,-0.5696174,0.14471927,-0.17301577,-0.228297,-0.09423348,-0.14858545,-0.42813733,0.14068384,0.19625348,-0.39511406,0.042634718,0.39814812,0.09551266,0.03403476,-0.05966447,-0.0012213737,0.11152071,0.20125328,0.53844815,-0.06723015,-0.24675883,-0.23532718,0.27829516,0.2319892,-0.22405872,-0.6344286,-0.053296715,-0.32155856,0.10602324,0.5791475,0.19108526,-0.24580595,0.14625125,0.1242433,0.47921658,-0.0029275678,0.119741954,0.1965191,0.12308804,0.25027364,0.1292958,0.11277218,-0.17744412,0.5487421,0.2291134,0.27612853,0.4744501,0.27624395,0.038316004,-0.016848274,-0.19452642,-0.030915286,0.1799508,-0.6771523,-0.07257211,0.10178988,0.3226186,0.1301229,0.35253984,0.65454257,-0.008773357,0.09071271,-0.68728465,-0.3560088,-0.044200137,-0.2045822,-0.29539883,0.26157677,0.16964701,-0.07896596,-0.2745371,0.5943273,0.9395787,-0.51534903,0.6844668,-0.29325688,0.015437238,-0.11947557,-0.17955722,0.6224166,-0.14204621,0.3617402,-0.4618361,0.34195524,0.03924139,0.19958678,-0.2122141,0.13976677,0.7324141,-0.070742965,-0.14330631,0.44271925,0.2601151,0.45423037,0.32022184,-0.018095046,0.595432,2.3008738,-0.26140365,-0.44400662,-0.21130724,-0.17096278,0.48590207,-0.030377882,0.09131069,-0.2584765,-0.20744729,-0.17379466,-0.13951817,-0.34773043,-0.10309082,0.019405298,0.17884348,-0.06409168,0.24871436,0.57344615,0.02011703,-0.4685712,-0.2864971,0.13358614,0.16147676,0.17250016,-0.20276241,-0.31274518,0.026047299,0.2863953,0.50877225,0.22710848,0.33535588,0.12528366,-0.15212902,-0.52344865,-0.12096903,-0.58254176,0.1037516,-0.038959805,-0.1984681,0.044741333,0.15273397,0.77784324,0.49431425,0.26248392,-0.021656081,-0.057343706,0.15614532,-0.32312036,-0.23530325,0.00509098,-0.035201937,-0.15185902,-0.2657132,0.41686016,0.74187434,-0.05918567,-0.5431696,0.07754256,-0.525696,-0.8470395,-0.2219268,-0.107244894,0.03350027,-0.59897786,0.30031025,0.07413156,-0.45481303,1.1179248,0.28315073,0.100647956,0.3554783,0.45678294,-0.059367076,-0.21643816,0.005197093,-0.23309311,0.48885125,-0.22513296,-0.35039872,0.23627765,0.48185316,-0.08731745,-0.58318645,0.023707807,-0.19511822,-0.029708877,0.8211097,-0.16521871,-0.048392177,-0.21625307,-0.023451025,0.16531011,-0.24082634,0.026519597,-0.003006868,-0.019605987,-0.28247848,-0.38964957,0.23956221,-0.10500084,0.43309158,0.36435694,-0.4037884,-0.17991626,-0.1942677,-0.02064772,-2.0107262,0.22493285,-0.113717265,0.36674234,0.92873156,-0.09426716,0.34648976,0.24133265,0.02314165,-0.05652161,-0.6779399,0.30500722,0.18078567,0.061339974,0.038150504,-0.47644597,0.5607897,-0.2160686,0.11158366,0.16521987,-0.10173337,0.29228657,-0.27612546,0.5088051,-0.4077817,-0.6241558,-0.075143896,-0.049288098,-0.35054648,-0.48026457,-0.3601453,0.15671831,-0.60778445,0.23606905,0.20455632,0.1021142,-0.4891172,0.06778951,0.5806271,-0.17137642,-0.34613693,-0.2475926,0.024492458,-0.1244973,-0.0049469024,-0.64889175,-0.26552117,0.25696146,-0.19043055,0.19738705,0.7341864,-0.22814034,-0.24917527,-0.15192471,-0.10821532,0.46953875,-0.028445348,0.0054398626,-0.20448369,0.010499065,0.32609046,-0.3718934,0.38772225,0.015286811,0.31335622,-1.0482112,0.09085723,-0.03416577,0.28102776,-0.15548658,0.17645812,-0.16557097,0.010084629,-0.20107278,-0.31771258,-0.14640187,-0.19247653,0.2162902,0.16016833,0.13928416,-0.19013187,0.8804287,-0.4576826,-0.1841079
Oceania_46.png,0.1367681,0.25885415,-0.39480278,-0.06980595,0.12348075,0.017773252,-0.14762524,0.32075143,0.691689,-0.06231329,-0.2631512,-0.65047354,0.2941411,-0.07257268,0.15913267,-0.19585541,1.1503824,0.044500135,0.73460627,-0.17944369,-1.4444968,0.00873157,-0.030063108,0.060350217,-0.16397351,0.15879922,-0.13312179,-0.27277076,-0.08044216,-0.18346554,-0.111819774,-0.05770095,0.27207798,-0.5141266,0.23457393,0.37680206,-0.14694467,-0.3097715,0.07695088,1.2512603,0.21401289,-0.09258659,0.27604896,-0.22650596,0.015134171,-0.65631676,0.94362974,-0.47259045,-0.052586142,0.09458636,-0.19768235,-0.07363103,-0.2896784,-0.3653013,0.1979303,0.09323251,0.21992601,0.12117115,-0.058916613,-0.039510168,-0.51625836,-0.025766175,-0.2329783,0.089322135,-0.37562746,0.23303637,-0.038023636,1.3760257,-0.010395467,-0.29251486,-0.07894421,0.08957751,-0.7769429,0.1266813,0.10948136,-0.34298486,-0.36031723,-0.15867615,-0.42801613,0.1669727,0.30635524,-0.47908187,-0.000898337,-0.43349218,0.17634201,-0.35467157,-0.12559938,0.14285448,0.6216633,-0.4574584,0.46708348,-0.36566842,-6.322212,0.11788972,0.19038771,-0.19334999,-0.3531465,-0.2477466,-0.17987128,0.60277575,-0.33464018,0.38957226,-0.45371667,0.2566893,-0.29181746,-0.054885745,-0.9399383,0.17045996,0.11810835,-0.13496864,-0.47407436,-0.07412893,-0.13551481,-0.36777532,0.24851352,-0.39844894,1.1159809,-0.08857679,0.5290904,-0.77083635,0.14060423,-0.3886603,-0.14468835,0.28361923,0.030600317,0.07910745,0.05656226,0.0688902,-0.2793372,0.60465324,0.04402098,-0.17361207,-0.28119934,0.83335966,-0.10385054,-0.32855654,-0.6842179,-0.26963776,0.48207548,0.74161386,-0.057808667,-0.16730483,0.10979412,-0.21283185,-0.22627845,-0.033360958,-0.10477671,-0.088383436,-0.15247832,-0.26047966,-0.3602237,-0.64692104,0.4452985,-0.23162927,0.011371672,-0.41872817,0.34854698,-6.16163e-06,0.007864486,0.33021605,-0.14462548,-0.47993565,0.26406196,0.08898619,0.38696098,-0.102635406,-0.0109063685,0.2655176,-0.17116164,-0.19936994,0.30759114,0.056118958,-0.20112582,-0.14625475,-0.25569838,0.6265761,-0.18924266,-0.21016112,0.55396307,0.15094677,0.16955087,-0.45101756,0.055316217,-0.021455552,-0.091928184,0.30939913,0.38346103,-0.22843179,-0.30539885,-0.4306868,0.0012467206,0.1009344,-0.14694786,0.014025912,0.10642891,-0.03443092,-0.83098286,0.11025354,-0.83787155,0.13899915,-0.08139603,0.052498728,0.2340754,0.22338483,0.40912512,-0.09600507,-0.22291496,-0.20399553,-0.26188222,0.0979942,-0.12860425,0.80989784,-0.5063942,-0.038825482,-0.06562584,-0.06283387,0.011919111,-0.16829306,0.4334116,0.18442166,0.030397445,0.9947854,-0.3743767,-0.15103945,0.47234377,0.30887818,0.2096527,-0.13151851,-0.050978925,-0.40548187,-0.4094659,-0.11945991,-0.359327,-0.35935456,0.32130748,0.029976353,-0.12253833,-0.22913954,0.08343916,0.26643157,0.02435802,-0.1669856,0.58198273,-0.46907067,-0.31308395,-0.85320467,-0.19992498,0.07364417,0.07913664,-0.46011192,0.010575857,0.08753696,0.4510165,0.5179352,0.20648356,-0.2632963,0.116940305,0.078273594,0.38263398,-0.02886165,-0.14848192,-0.15336013,0.058350652,0.8275137,-0.1376272,-0.052509826,-0.112034135,0.41091007,0.48502296,-0.27680337,-0.32241315,0.15226911,0.15750107,0.36438152,-0.10734492,-0.38027653,-0.23657009,0.08947684,-0.45219916,0.29689452,0.022416428,0.22865163,0.659951,0.5474949,0.07840943,-0.24202669,-0.19854976,0.012568563,-0.13069268,-0.45811146,-0.050395668,-0.02403801,0.34629738,-0.20686656,-0.107145116,0.5575835,0.57686526,0.21648021,0.20491093,0.38991934,0.0067050345,-0.37395886,-0.0723243,0.18650176,0.40883496,0.06413393,-0.19852203,0.13196991,-0.14291523,0.2165412,-0.3665467,-0.3454916,0.8321878,0.28083792,-0.20297131,0.17735168,-0.189394,0.16115385,0.19212982,-0.08364533,0.6705956,1.6279474,-0.08052655,-0.11346667,-0.3124528,-0.3521611,0.3587222,0.1514067,0.2429853,0.08970654,-0.352193,0.28030002,-0.10709759,-0.5023217,0.15562654,0.066460684,0.081727594,-0.2116635,0.31008077,0.949911,0.27816316,-0.5811165,0.07605371,0.28039345,-0.17785996,0.1610621,0.4073056,0.02553299,0.027056187,0.3074674,0.7410234,-0.60968137,0.32704,0.13965991,-0.063977286,-0.5991514,-0.2568917,-0.64272994,0.35086644,0.41319776,-0.5630431,0.13754271,-0.10746036,0.8356892,0.48250148,0.12878703,6.8068504e-05,-0.19308716,-0.39940727,-0.55241096,-0.12515858,-0.20791756,0.24322964,0.018021986,0.23751628,0.18273543,0.67627484,-0.2202367,-0.9959326,0.15759201,-0.11085904,-0.69244385,0.037426647,-0.3357299,-0.1138827,-0.08356765,0.19170278,0.08323431,-0.42948985,0.5011242,0.47718817,-0.20656642,-0.10206651,0.2092274,-0.23506056,-0.01761511,0.27530292,-0.4177844,-0.23152363,-0.09971068,0.11774787,-0.15775639,-0.35280812,0.124997444,0.14639586,0.20988543,-0.5441391,0.068135634,0.23160955,-0.7583893,0.3605576,-0.31575185,-0.40164137,0.36011034,-0.48434252,0.11278662,0.11860718,0.37490395,-0.41099632,-0.280056,0.009894639,-0.25946397,0.3734626,0.69180715,0.03653259,-0.24657574,-0.12861937,-0.14347383,-1.5343692,0.30599183,0.15169962,0.07399354,0.94717956,-0.45989913,-0.41350085,0.37619358,-0.035992414,-0.28510022,-0.35710213,-0.19010346,-0.027405739,0.10663143,0.0075373426,0.10094796,0.06229911,-0.8268802,0.021378174,0.09763254,0.12612766,0.20558017,0.17386863,-0.14819887,0.12054133,-0.77040094,-0.23411879,0.14391196,-0.6020601,-0.14624526,-0.5423496,0.09986646,-0.20432587,-0.21190506,-0.12221304,-0.22625598,-0.10582402,0.19890597,0.5963054,-0.006798871,-0.34082723,-0.25645489,-0.2414256,-0.009836338,0.2189682,-0.86375487,-0.7517284,0.14807904,-0.35878322,0.1681684,-0.07856128,-0.4781699,-0.17514795,0.11436699,0.35862345,0.083232924,-0.6596832,0.01990667,-0.08371406,-0.2680932,-0.2393803,0.1057349,0.41026717,0.13119148,0.33690608,-0.6550703,0.09953634,0.14649582,0.04785296,0.11224881,-0.30970284,0.39251977,0.19714187,0.09834069,-0.38645142,-0.09286527,-0.041052893,-0.2509508,0.27938157,-0.05842731,-0.3611367,0.7072757,-0.112130225,-0.023188777
Oceania_02.png,0.47952163,0.11431736,-0.06485401,0.31213158,0.48301995,0.39429379,0.20143296,0.09561437,0.1827794,-0.2117207,-0.09457183,-0.29517487,0.33240435,0.17700669,-0.31979498,-0.12202659,1.622503,-0.1687622,0.2873006,-0.048523158,-1.6118087,0.3702028,-0.4983461,0.21167196,0.11121544,0.4357209,0.17856583,0.4685705,0.059002057,-0.320679,-0.20563723,-0.16067687,0.16470441,-0.2582138,0.085368514,-0.16380937,-0.28616393,-0.20849529,-0.76220584,0.7998163,0.087867066,0.20178844,0.46742353,-0.306289,0.18364912,-0.9612294,0.61744106,0.108547434,0.14905974,0.2842653,-0.22634263,0.24875629,-0.026297625,-0.23288187,-0.49352336,0.26540688,0.29041505,-0.051582463,-0.5298986,0.023860946,-1.3655565,0.3504237,-0.39073476,0.26083583,-0.10560169,0.26279408,0.20501855,1.061565,0.15559632,-0.025129914,-0.022257876,0.040023185,0.09955535,0.23937222,-0.2310707,-0.24793619,-0.7742725,0.21288334,-0.20662886,0.06693044,-0.060216907,-0.65596163,0.7727358,0.12598425,0.2075612,0.16104585,-0.5408082,-0.37737507,1.1148046,-0.3705395,0.3508153,0.33511722,-6.2838287,-0.27410206,0.6480387,-0.42171088,-0.024405468,-0.19462119,-0.18138242,0.8634465,-0.12074663,0.22002101,0.14971738,-0.016026601,0.0051237643,-0.092954546,0.035637718,-0.29725558,-0.08274489,-0.6852004,0.028505802,-0.4549061,-0.06317991,-0.22637267,0.24350086,-0.37744075,-0.24641775,0.34813368,0.21839072,-0.61452407,0.2095204,-0.5849031,0.13054216,-0.050651684,0.26090166,-0.4201209,-0.07660923,0.04357893,-0.31091508,0.1858004,-0.2432499,0.10689471,0.1520114,0.8816011,-0.13212004,0.39192927,-0.15220414,-0.3788058,0.062076397,0.25936273,0.16514727,0.22172973,0.27300018,-0.24198574,-0.26557195,0.36969262,0.059772138,-0.17901582,0.07462194,-0.091975644,-0.17895712,0.061819084,0.14359567,-0.10701394,-0.19639216,-0.17339379,0.45973665,0.43058652,0.31514788,-0.21991125,-0.09020294,-0.36495605,0.08928187,0.239064,-0.15367322,-0.32288048,0.7982597,0.0975991,-0.2687089,0.08801217,0.2282359,0.3496296,0.32617328,-0.53365356,-0.16016631,-0.01638262,-1.0873826,0.27642396,0.45288628,-0.3063572,-0.10704047,-0.928092,-0.040936247,-0.2889063,0.23073229,0.098259434,0.67918164,0.059641052,-0.27366063,-0.029562194,0.25802967,-0.1797601,-0.1426759,0.093380034,0.45395714,-0.2580717,-0.60977453,0.44503322,-0.722021,-0.33558682,0.045676664,0.49890387,-0.0062214416,0.14643213,0.00082362443,-0.33329833,-0.29978314,-0.18233158,-0.29613894,0.07255408,-0.38790435,0.6896719,-0.019564874,0.34107557,-0.48724076,-0.20370579,0.58077824,0.4133836,0.5167505,0.13680011,0.3657074,1.4460378,0.04891731,0.36289588,-0.29679185,0.049293496,-0.2792318,-0.040161744,0.13508716,-0.2582074,-0.45039558,0.15201351,0.24952188,-0.079850286,-0.08471699,0.54329944,-0.25506115,-0.49979815,-0.15289743,0.15517756,-0.08165285,-0.4550546,-0.25339794,-0.045165464,-0.24152265,-0.1067265,-0.37929538,0.5581598,0.12705605,-0.2081826,0.23504165,0.31955376,0.25732127,-0.06741075,-0.21663459,-0.08235542,-0.13550857,0.15695658,-0.58946276,-0.017784864,-0.42687297,-0.22595604,0.21779568,-0.668149,-0.24443512,-0.15504137,-0.13578092,0.043728642,-0.15888119,-0.61372876,-0.13377193,0.11966527,0.5045163,0.55031264,0.00682801,-0.39098436,0.041283738,-0.08836266,-0.30510446,0.045585126,0.14021455,0.005153775,0.24235503,0.38814783,0.036610425,-0.21849166,0.24508283,0.082766846,-0.44624838,-0.33977973,0.032477953,0.10627801,-0.04936312,-0.19411744,0.29791316,0.44820178,0.65123767,0.018919036,0.3813853,0.101843834,-0.016228937,-0.20492345,-0.47712755,0.41121748,0.33661392,-0.3609069,-0.3271411,0.21026254,0.17526266,0.48822132,-0.031585783,0.26253778,0.8781177,-0.17512359,-0.19697046,0.14335796,0.49347472,0.2572151,0.5380943,0.2606316,0.8316508,1.3610021,-0.09380079,-0.32240182,-0.13417582,0.09517164,0.03617069,0.26924238,-0.11614472,0.0431962,-0.603792,0.18446214,0.03681303,-0.27177075,-0.10747489,-0.062661454,-0.0560904,0.42571178,0.22505707,0.3819415,0.019952312,-0.42660472,0.27733773,0.30723462,-0.18237716,0.016109847,0.22951995,-0.38166866,-0.48376107,0.10537648,0.5030884,-0.33056158,0.2122893,-0.2040134,-0.19427198,-0.16325624,0.5722275,0.49859142,-0.41799223,0.021989994,-0.70380807,0.118037246,-0.028490458,0.69156855,-0.11354947,0.21765393,-0.10573658,0.70287013,0.36591455,-0.07281229,-0.23739764,0.083864905,0.19445573,-0.050395347,-0.022954866,-0.33604392,0.47869104,0.4488197,-0.33154148,-0.0861713,0.048993465,-0.9894079,-0.1464707,0.29391712,-0.027886644,-0.1957769,0.11765829,0.23455074,-0.2792576,-0.048045084,0.11181258,0.27427822,-0.09559309,-0.06079214,-0.38354015,0.46178544,-0.28966108,-0.61324143,0.36122078,-0.8006079,0.012553707,0.16763037,0.39403564,-0.3300915,-0.45188418,0.3449676,-0.4854356,0.093586385,0.531916,-0.35737252,0.009457916,0.11134106,-0.046752654,0.29142267,-0.31675828,0.2877314,-0.26234126,-0.33989167,0.04447424,-0.12767687,-0.05932726,-0.32487392,-0.015228882,0.9426285,-0.005492203,-0.28922987,0.21535443,-0.17882979,-0.24873209,1.0673791,-0.17282656,0.13375148,0.34871614,-0.43633297,0.053935386,-0.22250122,0.57438684,-0.008072987,0.28760535,-0.35656154,0.07802212,0.16147693,0.54559475,-0.0020605922,0.0064389706,-0.34307742,0.17789586,-0.40387893,0.102072075,0.1778233,-0.044728816,-0.06017547,-0.39255974,-0.98967004,-0.498084,0.13431492,-0.19562984,-0.3222323,-0.10779723,-0.12257707,-0.30690363,-0.022453919,0.11874847,0.18837418,-0.17308575,0.3338885,-0.03927566,-0.248586,-0.105577864,-0.020405687,-0.5211424,0.5934316,-0.09566413,-0.6900846,-0.2172847,-0.22041613,-0.15870851,-0.02603276,0.08247762,-0.19915947,-0.04315514,-0.40985775,-0.25286484,0.3391604,0.04132516,0.2335795,-0.11430981,0.113639794,-0.4309575,-0.535702,0.32374522,-0.13912681,0.3752296,-0.68065786,0.13141024,-0.19343932,0.5213849,-0.0620106,-0.12799099,-0.10990912,0.18329301,0.21782877,-0.05906631,0.4405539,-0.60235065,-0.28565064,0.2505383,-0.3197345,-0.07977562,0.6660609,0.24765667,-0.01292406
Oceania_21.png,0.051858738,0.30328548,0.13804048,-0.101316616,0.035346776,0.1712903,-0.17348534,0.22735563,0.23446515,0.4480158,0.15447666,-0.06103497,0.27651238,-0.41188228,0.37392163,0.24661185,0.7925309,0.032157436,-0.026781887,-0.37626943,-1.1497409,0.07590675,0.09862534,-0.32330492,-0.013869117,0.23608375,0.27480495,0.072619826,-0.30845168,0.0817796,-0.30529204,-0.6331061,0.19917363,-0.42311138,-0.0065753125,-0.26184934,-0.35084394,-0.13617773,-0.1901192,1.4884596,-0.2330451,0.22413507,0.41837844,-0.20815992,-0.31819746,-1.8863707,0.3998476,0.32131946,-0.20540293,0.18131441,0.3039715,-0.1517958,-0.22731146,0.10754976,-0.124001235,-0.0382725,-0.09354617,0.38717866,0.03333488,0.08981922,-1.1838366,0.15506399,-0.23610683,0.03175644,0.06297872,-0.067527965,0.040170506,1.2551875,0.20094855,-0.08159873,0.06133359,-0.08686793,-0.9522884,0.86521006,-0.031240862,-0.0048951767,-0.5444084,-0.72406507,-0.20055379,-0.033325937,0.07433295,-0.17956045,-0.07738345,0.25533015,0.35731637,0.0043494813,-0.14082167,-0.45317665,0.5462714,-0.446014,0.3589366,-0.34575427,-5.8284106,0.31720364,-0.13807248,0.3791741,-0.54802305,-0.0818004,-0.62759304,0.2120006,-0.20676966,0.32768708,-0.24361908,-0.23376396,-0.72802186,0.15133204,0.10729401,-0.058413815,-0.07828833,0.11756839,0.15290195,-0.12005551,-0.42520288,-0.04650023,0.14687315,0.013502762,0.17463452,0.3047873,-0.06147255,-0.57682055,0.18005274,-0.114721656,0.30480462,-0.12860529,0.17910232,0.4667831,0.105694816,0.34411108,-0.45469463,0.12655488,-0.2154676,-0.06521789,-0.028044961,0.79548496,-0.18532267,-0.09481172,-0.023766313,-0.41062823,0.23814985,0.50683886,0.104089655,0.091876164,0.8562835,0.14187886,-0.29537952,-0.46101654,-0.3343298,-0.20638856,-0.17804486,0.40910834,-0.5661196,0.2042382,0.5381386,-0.38394725,-0.5467278,-0.022948354,0.45621762,-0.2132812,-0.39308292,0.30012885,-0.042168505,-0.18291742,0.09702617,-0.043200538,-0.22577234,-0.12416852,0.457271,0.1886813,-0.06811288,-0.009054804,0.7232887,0.30373138,0.1737976,-0.46851858,-0.16109651,0.02842465,-0.72959936,0.115875855,0.35500997,-0.17309706,0.00010806415,-0.66563404,-0.04215729,-0.006124556,-0.29485595,-0.16201007,-0.048631668,0.10137565,0.04826273,-0.36058745,0.6486658,0.20525396,0.19247329,0.10799512,-0.22961867,0.46425992,-0.48428765,-0.15000837,0.1419262,-0.09485662,0.23876987,-0.53570074,0.8532847,0.08361588,0.0816672,-0.6698348,0.3278926,-0.18412015,-0.22131015,0.45960483,-0.20258018,0.40878966,0.03372449,-0.014041045,-0.19526589,-0.52029824,-0.0044604614,0.641573,1.038444,-0.2449545,0.43089536,0.4581797,-0.19099313,-0.39375874,-0.035933428,-0.11467299,0.025213316,-0.59781766,0.013835281,0.035888135,-0.35820764,0.17503844,0.030378718,-0.45131803,-0.11080979,0.15005897,0.2368597,-0.23698243,-0.26927334,-0.061327457,0.020702839,0.13074028,0.3379574,-0.03419411,-0.30615568,-0.1186349,0.09208712,0.29691646,-0.38056713,-0.34283724,0.029187962,-0.054148063,0.1882436,0.12640336,0.018852592,-0.3629669,-0.0077121705,0.57855695,0.5843785,-0.11164494,-0.23237407,0.30626315,-0.23025286,0.10790342,-0.25742534,0.042066798,0.008167535,0.019730572,0.38028497,-0.11471018,0.31828606,0.22646253,0.0682361,0.18153134,0.12816349,-0.097171836,-0.12795666,-0.53371674,-0.1672435,-0.35475487,0.34050077,0.18280947,0.38280374,0.13929424,0.011002697,-0.18220124,-0.4763692,0.15740663,0.21072084,-0.04955907,0.0083283335,-0.073238075,0.36183375,-0.09569946,-0.20926997,0.43064964,0.84953874,-0.2344286,0.26830533,-0.037301466,0.08738723,-0.3964183,0.3255751,0.4953321,-0.3173066,0.36609626,0.037323803,0.69073313,0.27138203,-0.14224982,0.14868021,0.5324466,0.79397035,0.08283524,0.19829535,0.3628668,0.8180574,0.4504696,0.3460248,0.38742813,0.17514206,1.4274458,-0.2717624,-0.3988778,-0.0970754,0.4334027,0.545847,0.3975431,-0.14478861,-0.039560676,-0.32357848,-0.16473858,-0.21963486,-0.37852758,-0.17994793,0.07550566,0.2250534,0.13499403,0.30703515,-0.1051107,-0.077857465,-0.4415875,-0.38001296,0.23044041,0.25733086,-0.029673219,-0.26509404,-0.16119647,-0.09218119,0.16637294,0.22831938,0.4717201,0.22463156,-0.13917935,-0.16865341,-0.36487454,-0.13640693,0.061383158,0.07963155,0.050191045,-0.5471535,-0.1729163,0.46714345,0.5738219,0.34306082,0.34839997,-0.020273134,0.35414103,-0.080980524,-0.38163063,-0.13928209,-0.013828993,-0.25933748,0.16370116,-0.6003835,0.27297333,1.4055932,0.3239893,-0.35413757,0.24232827,-0.44843596,-1.090851,0.119195074,-0.20744464,0.004480988,-0.38158703,0.113110006,0.43473744,-0.5416447,0.41641438,0.11915254,-0.089687854,0.15109345,0.38302618,-0.27178434,-0.015464798,0.16264868,-0.14341667,0.36070025,-0.18569112,0.23456444,0.23610461,-0.037204795,-0.28328025,-0.09291373,-0.24870266,-0.3567836,-0.5496959,0.35373247,-0.40043136,-0.24075964,-0.18347359,-0.083408296,0.11234219,-0.43927586,0.14184439,-0.03878343,-0.022662371,-0.2244467,-0.49797583,0.1772221,-0.38193518,0.5327041,-0.21346307,0.1804356,-0.06597176,-0.20311886,-0.44107485,-2.3937304,0.44820073,-0.009014947,0.34382272,1.1996574,-0.40870816,0.37432393,0.13680431,-0.03457373,0.04073459,-0.32537407,0.03133343,0.24482891,0.09336316,0.26633525,-0.43536705,0.55083346,-0.47392786,0.41347092,0.15961966,0.033692487,0.12719646,-0.507589,0.24614944,-0.36522466,-0.5850065,0.05134789,-0.04576105,-0.21890613,-0.5313724,-0.09789457,-0.42666322,-0.09537093,0.32137197,0.053405464,-0.3112202,-0.46219087,0.06622724,0.71524763,-0.2986498,-0.2664878,0.03794446,0.21669751,-0.07730925,-0.10497451,-0.33314776,0.11883938,0.09514095,0.18775178,-0.022015452,0.52665246,0.08968001,-0.15760152,-0.002492304,-0.58279073,0.37229756,0.090860575,0.3170144,-0.01013758,0.18070698,0.0640495,-0.6364657,0.39182508,-0.27139133,0.3934258,-1.0674475,0.04062447,-0.07160252,0.24101014,-0.0030574352,-0.22244024,-0.4660547,-0.30975252,0.124876454,-0.2434619,0.15441823,-0.14287853,0.06842296,0.017547015,0.2605308,-0.69721586,0.7840608,0.023610875,0.05285681
