,0,1,2,3,4,5,6,7,8,9,10,11,12,13,14,15,16,17,18,19,20,21,22,23,24,25,26,27,28,29,30,31,32,33,34,35,36,37,38,39,40,41,42,43,44,45,46,47,48,49,50,51,52,53,54,55,56,57,58,59,60,61,62,63,64,65,66,67,68,69,70,71,72,73,74,75,76,77,78,79,80,81,82,83,84,85,86,87,88,89,90,91,92,93,94,95,96,97,98,99,100,101,102,103,104,105,106,107,108,109,110,111,112,113,114,115,116,117,118,119,120,121,122,123,124,125,126,127,128,129,130,131,132,133,134,135,136,137,138,139,140,141,142,143,144,145,146,147,148,149,150,151,152,153,154,155,156,157,158,159,160,161,162,163,164,165,166,167,168,169,170,171,172,173,174,175,176,177,178,179,180,181,182,183,184,185,186,187,188,189,190,191,192,193,194,195,196,197,198,199,200,201,202,203,204,205,206,207,208,209,210,211,212,213,214,215,216,217,218,219,220,221,222,223,224,225,226,227,228,229,230,231,232,233,234,235,236,237,238,239,240,241,242,243,244,245,246,247,248,249,250,251,252,253,254,255,256,257,258,259,260,261,262,263,264,265,266,267,268,269,270,271,272,273,274,275,276,277,278,279,280,281,282,283,284,285,286,287,288,289,290,291,292,293,294,295,296,297,298,299,300,301,302,303,304,305,306,307,308,309,310,311,312,313,314,315,316,317,318,319,320,321,322,323,324,325,326,327,328,329,330,331,332,333,334,335,336,337,338,339,340,341,342,343,344,345,346,347,348,349,350,351,352,353,354,355,356,357,358,359,360,361,362,363,364,365,366,367,368,369,370,371,372,373,374,375,376,377,378,379,380,381,382,383,384,385,386,387,388,389,390,391,392,393,394,395,396,397,398,399,400,401,402,403,404,405,406,407,408,409,410,411,412,413,414,415,416,417,418,419,420,421,422,423,424,425,426,427,428,429,430,431,432,433,434,435,436,437,438,439,440,441,442,443,444,445,446,447,448,449,450,451,452,453,454,455,456,457,458,459,460,461,462,463,464,465,466,467,468,469,470,471,472,473,474,475,476,477,478,479,480,481,482,483,484,485,486,487,488,489,490,491,492,493,494,495,496,497,498,499,500,501,502,503,504,505,506,507,508,509,510,511
Asia_38.png,-0.21625046,0.48259792,0.22596465,0.09407385,0.3903958,-0.15901724,-0.19256847,-0.25519553,0.42973104,0.18178874,0.07656756,-0.34341574,0.24070409,0.1454888,0.09973834,-0.426115,-0.1711928,-0.032928564,0.5532983,-0.2591813,-1.7925248,-0.0134046525,0.02207908,-0.37912405,0.054233596,0.4893308,0.17705637,-0.19855711,-0.3140782,0.3582685,0.15040916,-0.22713278,0.231605,-0.022929102,0.11784381,0.19807819,-0.29765108,0.22786978,-0.32942826,-0.27137816,0.16209498,0.29475766,0.3650191,-0.047373038,-0.14247663,0.43886742,0.40614694,-0.14736024,0.40313983,0.17627957,0.076153435,0.41214836,0.039372645,-0.06241102,0.05086127,0.20216212,0.873564,0.45427334,0.16670671,0.2284727,-0.61021656,0.18643841,-0.33521938,0.028442949,-0.13995753,-0.041926626,0.28406,1.1974764,-0.2712022,-0.05874484,-0.16541111,-0.13107264,-0.3277774,0.27204853,-0.13309446,0.22267051,-0.34992293,-0.6756548,0.23305386,0.17282002,0.16930917,-0.446977,0.02797009,0.08767435,-0.08041936,-0.19703692,-0.21311119,-0.765431,0.35635486,0.09981152,0.16240725,-0.1299245,-6.2395616,0.20603226,-0.4431721,0.42428845,-0.16615926,0.0019336492,0.47434977,0.68361086,0.14182839,0.3385583,-0.39212272,0.35359603,-0.2946582,-0.37529433,0.06450379,-0.006914422,0.5310632,-0.33979055,0.12238671,-0.6519388,-0.15906689,-0.35858077,-0.13036846,-0.35745057,0.6498213,-0.08106372,0.2098107,-0.9380676,-0.11039936,0.5254636,-0.10505952,-0.2665866,-0.050480425,0.26785746,-0.06265549,-0.1604262,-0.0717118,0.5174624,0.022008657,-0.45412156,0.31144375,0.874783,-0.13890216,0.052917156,-0.26606858,-0.043556914,-0.1513007,0.43151367,0.27597576,0.38318193,0.26487613,-0.24387571,-0.21398711,-0.15426399,-0.05042684,0.28403908,0.045762997,0.3495221,-0.62041694,0.30611494,-0.13880002,0.04343631,0.051605377,0.29032502,-0.21327505,0.10335185,-0.027787361,-0.30648205,-0.15059209,-0.16315094,-0.110959604,-0.36542907,-0.26950082,0.15682295,0.26817834,0.4115367,0.036163237,-0.2672689,0.27664158,-0.13359524,-0.33689803,-0.76939744,0.15434599,0.7143462,-0.22706057,-0.05655981,0.37369868,-0.112067774,0.1443699,-0.4288855,-0.2837735,-0.20432681,-0.06997599,0.07686329,0.18498892,0.08087391,-0.10018429,0.1282089,0.45135885,0.037142165,0.1470743,-0.0465266,-0.317305,0.0908252,-0.4523018,0.51879454,-0.6171377,0.057432935,-0.20454282,-0.06529897,0.2632983,0.33096334,0.21639729,0.044118226,0.2266624,-0.24657935,-0.27656385,-0.07991809,-0.61877334,0.6736336,-0.15812865,-0.0629572,0.036413565,-0.21108004,0.3856141,0.5408301,0.055917278,-0.54103684,-0.003945425,0.82171595,-0.13573329,-0.44351998,-0.037704345,-0.119813114,-0.028170776,-0.3307343,-0.3505152,0.20902061,-0.25142622,-0.116019964,0.18195367,-0.4536207,0.17246269,0.80537456,-0.07100113,-0.071235925,0.05580406,0.41597897,-0.18276203,0.113117166,0.43985355,-0.43445143,-0.4903134,-0.31258702,-0.08545871,0.4702251,-0.2149145,0.1001589,0.2085992,-0.0731958,-0.16957158,-0.09676583,0.04127922,-0.016714722,-0.07645871,-0.016759053,0.49887186,-0.24544783,-0.18648839,-0.14453486,-0.1639304,0.4989799,0.27871054,0.16630325,-0.030155733,0.12302244,-0.1173637,-0.02802521,0.14574659,0.03826464,-0.1004839,-0.18093301,-0.06468114,0.05429569,-0.19658993,-0.6035771,-0.46182936,-0.14884008,0.42085868,0.3085951,0.01888036,0.3301752,-0.15900144,0.28768507,-0.118662566,-0.5256926,0.41786596,0.077337176,-0.11563668,-0.4990811,0.7640523,-0.35724774,0.008593611,0.24539879,0.9614002,-0.104715824,0.38582182,-0.15656745,-0.2178922,0.007680118,-0.7296687,0.72873116,-0.14597261,-0.05140588,-0.24322045,0.13702014,0.4821245,0.16796619,-0.08702907,0.12693074,0.8727233,0.22413865,-0.08428262,0.52129173,0.21822298,0.61983806,-0.20311353,0.12425822,-0.080290884,1.36007,-0.03253261,-0.24257612,-0.24283598,-0.1893047,0.35436183,-0.4170139,-0.31068403,0.024286166,-0.4957323,-0.0859395,0.2891355,-0.7546897,-0.09169918,0.29504833,0.17492309,0.03556525,0.49454537,-0.07336903,0.28978273,-0.18115473,-0.0009936243,-0.05972942,0.06613475,0.22779323,-0.8126706,0.04515372,-0.032507233,0.01655265,0.4549979,-0.21549137,0.09382982,0.002975393,0.04209639,-0.17050949,-0.32070652,1.206894,-0.004519403,0.3049286,-1.1965133,-0.080737054,0.100307986,1.3068343,-0.32201913,0.32083422,0.036068767,0.095579624,-0.0015999302,-0.30785745,-0.28787845,-0.082508445,0.28173718,-0.23920661,0.033503875,-0.20460871,0.7479769,0.011769429,-0.29294303,0.3495001,-0.17615004,-1.1895313,-0.42225015,-0.16833554,0.51243263,-0.013707764,0.29442972,0.030239783,-0.86022735,1.663491,0.4624382,-0.6014397,0.23560911,-0.11466244,0.23223528,0.14538491,-0.34631974,-0.12111939,0.30853766,-0.25331104,0.46879113,0.19791427,0.31121287,-0.2659135,-0.21649957,-0.030883297,0.033255965,0.01104556,0.37104705,-0.18126686,0.33593726,-0.024027865,-0.3833838,0.057081193,-0.1126892,-0.24646176,-0.5728719,0.03968713,-0.22932298,-0.20747791,0.017465696,0.18020433,0.41733393,0.46441698,0.38969073,0.23233828,-0.518732,-0.16575167,-0.7763742,-0.21945575,-0.047797948,0.10198048,1.2601926,-0.007126309,0.21972433,-0.022539377,0.0965293,-0.17530945,0.059379924,0.1425956,0.042642638,-0.47165352,-0.20828433,-0.48051345,0.17700993,0.32382122,-0.14520785,0.048743695,-0.36488432,0.22133663,0.058724612,-0.18866715,-0.36990273,-0.4045187,0.046884213,-0.18930557,0.03008045,-0.65897274,-0.13327995,-0.106548786,0.02402955,0.14821132,0.16734192,-0.46553922,-0.2776047,0.033194117,-0.01281995,-0.29755354,-0.033282764,-0.019153226,-0.16953307,0.44118562,-0.11875418,-0.13406691,-0.2542851,0.012943715,0.13705882,0.42133376,0.5213811,-0.4239772,-0.25018066,-0.47620142,-0.011218309,0.29214597,-0.4863341,-0.037530705,-0.34637982,0.17639135,-0.17850828,0.1336821,0.02654057,-0.16705668,0.49991614,-0.7018085,-0.5207527,0.09414204,0.06260222,-0.23051538,-0.07156649,-0.38136452,-0.30292785,-0.45598242,-0.07338557,0.11340292,0.9888402,0.1646466,0.45364833,-0.21043403,-0.093085125,0.8813381,0.10287863,-0.35237136
Asia_12.png,-0.27224278,0.5780848,0.33330175,0.21470281,0.67896914,0.111160725,-0.08244202,0.4319507,0.5373888,0.026614286,0.294372,0.25648347,0.37985194,-0.20244126,-0.100077584,-0.48007664,0.8475747,0.3802722,-0.07342306,-0.18321493,-0.81363904,-0.27499476,0.24319874,-0.10511863,0.4324491,0.17430058,-0.21150042,-0.40016302,-0.14908676,0.19048652,-0.48082542,0.07167077,-0.46648407,-0.040750258,-0.50827616,-0.22545752,-0.25722846,0.4385751,0.1589224,-0.38591427,-0.24111797,0.26260388,0.24123661,0.013939045,-0.012348056,-1.5137603,0.91112715,0.059910566,0.11561389,0.4929031,-0.15287656,-0.017136097,0.18523452,0.107366554,0.39915136,0.33585346,0.7808643,-0.11730581,-0.15791029,0.36415973,-0.98301166,-0.23244734,-0.25476968,0.23372239,-0.30168575,0.29302883,-0.20569736,0.7094011,-0.15987617,-0.04325947,-0.4499225,-0.49228472,0.15663485,0.2217983,0.17544201,-0.13513066,-0.70707697,-0.3531333,0.2740114,-0.21452697,0.12329599,-0.35621434,0.1993583,-0.21309271,-0.40455732,0.33508742,-0.40639514,-0.17551214,0.57675534,0.086817175,0.30891246,-0.15827718,-6.5513554,0.10406205,-0.27714318,-0.24572693,0.32964066,-0.26249227,0.5828623,0.25445944,-0.011248484,0.40070176,0.07548678,0.09849753,0.07600383,-0.14503773,-1.0086507,0.21008469,0.09886051,-0.15963145,0.51830274,-0.2551279,0.1641266,-0.52721274,0.2905506,-0.11178365,0.433717,0.2588127,0.14784636,0.039043546,0.118396,-0.019538715,0.20521557,0.18713096,-0.10269177,0.2613768,0.10054861,0.17153163,0.030485809,0.36680466,-0.10515799,-0.08331051,0.07511057,0.8705425,-0.21025655,-0.22250342,-0.34006026,-0.72915345,0.19232526,0.42247975,0.034577783,0.1939776,0.30008006,0.08111513,-0.113846034,-0.029733883,0.12735364,-0.58643687,0.34215787,-0.21471454,-0.033889294,0.19977163,0.42829502,0.15630473,-0.036403567,-0.08124468,-0.016674072,-0.09541411,0.21283372,-0.06453179,0.30330238,-0.029722683,-0.11735029,0.25082985,-0.3007475,0.1556768,0.35881743,0.086394876,-0.036097202,-0.3266219,-0.13182905,-0.0071057007,-0.47527754,-0.46886414,0.20164411,0.5165497,-0.030920092,0.4085244,0.48163015,0.19859847,-0.44161898,-0.7045057,0.04728897,-0.24627739,-0.29931298,0.008128941,-0.060986377,0.2344202,0.3686298,-0.0115690995,0.4642919,0.124302074,0.6107789,0.31094563,0.33106673,0.37418547,-0.74365556,0.2885737,-0.6637443,-0.16034016,0.034281895,0.11329602,0.42032877,0.21059862,0.26650617,0.10800279,-0.5869521,0.011945911,-0.40608492,0.29348665,-0.5328242,0.51499474,-0.20008661,-0.11302826,0.045618024,0.02693212,-0.5282075,0.12677687,0.4905073,-0.40916625,0.24775107,-0.31112158,-0.14975679,-0.11037816,0.81681585,0.22518708,-0.21137364,-0.29714328,0.09584591,-0.08623497,-0.13981377,-0.19265802,0.05873958,-0.41711974,-0.43989864,0.15586475,0.04631627,0.20870605,-0.20969762,-0.06161932,0.12196985,-0.025351781,0.069980875,-0.098020695,-0.29548067,-0.11299829,0.36903223,0.80375254,0.10014468,0.22130106,0.084817454,0.0011871308,-0.3698845,-0.06549022,0.06165384,0.057402752,-0.3094908,0.32427734,-0.6746287,-0.10594031,-0.10378829,0.33424264,-0.18309796,-0.93922615,0.26680493,0.106191844,-0.1871307,0.23373917,-0.21159394,0.11986557,0.21522227,-0.08573841,-0.10137616,-0.2604697,0.19772156,0.03639947,0.16715899,-0.028352112,-0.06743485,-0.2871552,0.3903219,-0.0023582205,0.18807629,0.15431446,-0.06487935,0.014734045,0.20671502,-0.20960696,0.03681831,0.07365768,0.09850761,0.16404232,0.26162055,-0.05719161,0.08414696,0.6395752,0.2677536,0.2765937,0.47345653,-0.0786522,0.1254339,-0.2541663,-0.4238823,0.04982937,-0.019570448,0.19784597,0.24434087,0.029574228,0.27434212,0.34190175,0.030829167,0.045545947,0.8682333,-0.244836,-0.18284035,0.43182617,0.30901897,0.5728638,0.2948607,-0.1483965,0.058808193,1.8899593,-0.44663453,0.054516867,0.27001905,0.030653603,-0.085851364,-0.11094548,0.113337554,0.13244303,0.35163975,-0.064505495,-0.3821311,-0.10535157,0.07402703,-0.28019756,0.20773382,0.31542683,-0.045189504,0.13850582,0.3220344,-0.08809111,0.11049272,-0.05156686,0.09899637,-0.0054911785,0.47466668,-0.01047503,0.073898405,-0.011561692,-0.32613844,0.31370828,-0.0098260995,0.035406664,0.24024555,-0.18950266,-0.3966343,1.4628564,-0.18363884,0.40143597,-0.5107294,-0.11256561,-0.118205436,0.22789963,-1.1451081,0.1698904,-0.1445614,1.2098659,0.30048814,-0.2607744,0.17668405,0.2910415,0.092120245,-0.22375992,-0.5670916,0.17727509,0.7739107,0.2006973,0.35042772,0.13057208,-0.15058947,-1.0652852,-0.36330593,-0.37491676,-0.09449477,0.37809712,0.6808673,-0.19371283,-0.6432106,0.8507389,0.13976581,-0.2188845,0.039120242,-0.082788765,-0.022329867,-0.011127785,-0.026660979,0.26959693,0.08651422,-0.6100558,0.112791836,-0.026055492,0.26196003,-0.18416095,-0.29211193,-0.55025285,-0.41521734,0.15599647,0.45281544,0.022546634,0.17102914,0.22026666,0.078797385,0.08716029,-0.15197057,0.19027872,-0.29824156,0.018783066,0.013069686,-0.28140277,-0.3298381,-0.22881657,0.066826805,-0.014891416,0.0038337084,-0.22421345,-0.093365915,-0.14016278,-1.3705745,0.25439176,0.06572665,0.09927973,0.9983866,-0.40299433,-0.1991885,-0.44633335,-0.0414923,-0.44396454,0.077655345,0.13184483,0.19026995,-0.3355428,-0.33112338,-0.1558749,-0.23146328,-0.13662209,0.24753709,0.36299708,-0.4281037,0.07862644,-0.2794589,0.08110343,-0.31099728,-0.7013669,0.31035107,0.49529764,0.045511167,-0.6167615,-0.29593524,-0.27863735,0.005088091,0.011104785,0.28521958,-0.17413574,0.2594584,-0.18549848,-0.55122936,0.18609732,0.030452069,-0.22735187,0.28363812,0.5152105,0.13303809,-0.5090207,0.0032959878,0.011517592,-0.36830905,-0.2358931,0.5910882,-0.20852971,-0.0264671,-0.56670666,0.19639719,0.04869772,0.118945524,0.06647234,-0.16080841,-0.1747775,0.103796646,-0.34616128,-0.2461726,-0.17257407,-0.008487731,-0.8349482,-0.2885263,-0.36653125,0.06467299,0.079052076,-0.11487241,-0.34591156,0.7466377,-0.41519806,-0.0034436118,0.25493053,0.42062306,-0.15819159,0.17251164,-0.22843713,0.020556152,0.98645467,0.025565851,-0.259539
Asia_28.png,-0.34349808,0.029827043,0.27770638,0.14174172,-0.04025774,0.11038154,-0.13120013,0.15531945,0.15621532,0.2550012,0.4848243,0.21856892,0.19066879,-0.43745202,0.16778636,0.038539156,0.89064777,-0.06388977,0.06425688,-0.7431961,-1.5415022,-0.20671695,0.082065016,0.46725482,0.20372963,-0.15767066,0.2633675,0.10247571,-0.29434046,-0.1522522,-0.24511206,0.12451893,-0.3108585,0.026009586,-0.64506066,0.324431,0.09243399,0.010701388,-0.14874949,-0.50369257,-0.28692234,0.2593341,0.2203509,0.124105975,0.0073676556,-0.92359686,0.06456343,0.3926251,0.30758756,-0.1082643,-0.12797365,0.21696031,-0.27089143,0.114718676,0.040611826,-0.14595628,0.33303106,0.5681331,-0.12472071,0.2537538,-0.33869755,0.20793843,-0.29623407,0.12744482,-0.13440871,0.13422719,0.028318252,1.2511469,-0.18729907,-0.43558383,0.034172818,-0.4106941,-0.46780345,0.25919104,0.05832429,0.20311758,-0.99916065,-0.5202918,0.23831733,0.1504487,0.15417613,-0.4328249,0.035562307,0.33532348,0.2646516,-0.13186947,-0.8945334,-0.24267948,0.7348457,-0.10535387,0.40710488,0.026898036,-7.094489,0.6514412,-0.21445051,-0.15368624,-0.23283581,0.23940462,-0.12455113,1.3708754,-0.2561727,0.28381997,-0.32292217,0.1565251,-0.553338,0.22882256,-0.06780447,-0.21428123,0.39458436,-0.27040958,0.31251222,-0.17053077,0.072083294,-0.29589993,0.10117725,-0.23953298,0.7884066,0.21470734,0.4384281,-0.60429764,-0.115295514,0.014969438,0.12093973,0.17519763,-0.05551607,0.33166635,0.16572644,-0.057710387,-0.23276444,0.36941013,-0.31714892,-0.06580465,0.11401433,0.9331392,-0.6455874,-0.14951491,-0.25049174,-0.79326016,0.20354207,0.18690583,0.18543246,0.24592572,0.4658655,-0.29973793,-0.28573394,-0.06453375,0.012437284,0.63425875,0.20093265,-0.20179912,-0.65423197,-0.38440552,0.38860905,0.14080912,-0.35758626,-0.20578519,-0.16345116,-0.017081521,0.022359133,-0.055540994,0.35014883,-0.08836932,-0.22684468,-0.31529278,-0.029535431,0.59800595,0.5007014,-0.19859046,-0.25409925,-0.19158807,-0.28252554,-0.011715753,-0.09806091,0.0035437755,0.18458489,0.15611231,-0.42971635,-0.44045663,-0.16576636,0.33137655,-0.36822724,-0.5200598,-0.39131624,-0.38433087,-0.16458318,-0.10210184,0.060407013,0.15551706,-0.42544657,0.071577944,0.40926743,0.1623433,-0.07361193,-0.11944389,0.13565359,0.41777128,-0.7783731,0.11125958,-0.29051828,-0.16470712,0.21996069,-0.6743796,0.35303062,0.6023489,0.20366773,-0.52968985,0.11455453,-0.08674964,0.034103565,-0.102585,0.1105245,0.53765535,-0.140905,-0.6537247,-0.28429052,-0.28685543,-0.37260967,0.63627625,0.26779178,0.0005543381,0.75085753,0.102865964,-0.407936,0.0047727246,-0.29811633,0.124824464,0.24060233,-0.28635287,-0.17174989,-0.07335472,-0.16325417,-0.332295,-0.15830196,-0.3991083,0.13297531,-0.15820351,-0.22790165,0.028282773,-0.2210322,0.13976194,0.7730994,-0.023469348,0.1286816,-0.17686574,-0.5527445,0.29642314,-0.19947566,0.6215865,-0.18611988,-0.67803514,-0.15028015,-0.17518905,0.31918603,0.35412472,0.11666517,0.23828506,0.32225415,0.4687421,-0.5736189,0.13101363,0.12513319,-0.17905438,0.40263784,0.6818373,0.0722712,0.12900788,-0.27574283,0.104780406,0.1443452,0.15823871,0.4290012,-0.083765686,-0.11045225,0.24606627,-0.14408343,0.01018475,-0.118046366,-0.33936888,0.23401593,0.19005817,0.048892193,0.124509215,-0.14312069,0.05739446,-0.4921975,0.047966864,0.4640473,0.28238645,-0.045591287,0.115765005,0.006170176,-0.2705174,0.033776104,-0.111988485,-0.10342644,0.43012995,0.024790391,-0.13082492,0.11528625,0.053118862,-0.008521557,-0.4773668,-0.18458487,0.31790727,-0.07890234,-0.3306281,-0.35818732,-0.052493855,0.6598796,0.4550743,-0.283149,0.11966694,0.9326854,-0.36323327,-0.057929717,0.6313253,0.14169358,0.5260416,0.16649887,0.16649893,0.120091416,1.3704789,-0.12272838,-0.20523237,-0.21694621,0.030707598,0.14090244,-0.13099256,-0.07853951,0.2181018,-0.6778632,0.076353185,-0.18777284,0.0117712915,0.00943619,-0.10576367,0.20836085,-0.09022135,0.11442454,0.3076224,0.048997268,-0.41532233,0.19731317,0.08602045,0.33899733,-0.0686449,-0.0707701,0.24043101,-0.1786448,0.33225712,0.3461104,0.8029993,0.14301756,0.049650278,0.0768257,-0.49003753,0.0014661513,1.7682407,-0.2006395,0.01969573,-0.4660306,-0.15452479,0.14290388,0.26955855,-0.38973457,0.28421727,-0.047870893,1.2510754,-0.12548305,-0.41694242,-0.52630466,-0.02479453,0.265339,0.08656532,-0.59963566,-0.12194253,0.14359589,0.0139975175,-0.9701983,0.19996762,-0.14896867,-0.3847049,0.09219949,-0.019894507,-0.34314042,0.021315329,0.05773063,0.2460206,-0.3871802,0.09836523,0.52261865,0.04694614,0.1048746,0.25906506,-0.07269473,-0.14680207,0.31388414,0.1336114,0.31634074,-0.9751245,-0.34543923,0.3388695,-0.22018702,-0.22827128,-0.041356273,-0.31388444,-0.28003904,0.120311484,0.22065873,-0.4316869,-0.18545236,0.33864677,-0.11811929,0.106325254,-0.2721313,0.17357662,0.07905497,0.51979804,-0.3018659,-0.5707983,0.037024155,-0.008566901,0.42448482,0.10337483,-0.33025354,-0.073544405,0.18347156,-0.60824174,-0.42054123,0.31399506,-0.15082587,0.1160104,0.3511992,0.01713517,0.0851162,-0.046078622,-0.35982814,-0.23600835,0.0124394,0.09422365,0.13739978,0.09620411,-0.003648378,-0.10039258,-0.10275878,0.105818704,0.05400285,0.10455662,-0.1228535,0.36719844,0.5109365,0.17909142,-0.39133948,-0.80573213,-0.3217693,0.15606387,-0.021487027,-0.2562261,-0.6077464,0.09243503,0.00782235,0.0871757,-0.098835856,-0.1829733,-0.1934819,-0.3788119,0.40610677,-0.24274975,-0.3668826,-0.23488438,-0.075930625,0.24820143,-0.33667463,-0.0066645443,-0.87056893,0.29610795,0.06920891,0.054157812,0.29472518,-0.23651537,-0.52416694,-0.29428965,0.087598845,-0.024697565,0.12446991,-0.18316475,-0.047807515,-0.20441562,0.16804944,-0.34778702,0.010578528,-0.22567624,0.057808608,-0.75883615,0.2673418,-0.116795294,0.16962942,-0.0784488,0.11444351,-0.019678004,0.058663297,0.2096969,0.09456877,0.29006138,0.6182156,-0.18503647,0.15202326,-0.1695233,-0.037874416,0.3021901,0.1683982,0.2010168
Asia_30.png,-0.26012927,0.42659166,0.31434986,-0.16010267,0.29326975,0.17133181,-0.23240095,-0.14227366,0.020374993,-0.26396224,0.8428832,-0.28813544,-0.18816367,-0.24578145,-0.25541252,-0.23205857,0.31692725,-0.017489448,0.2891626,-0.51941204,-2.3989825,0.3435231,-0.18003011,0.12696043,-0.1087659,0.2753188,-0.017043307,-0.04233567,-0.05796387,0.10521504,-0.54860246,-0.07255973,0.20192775,-0.12775671,-0.6204612,-0.1377483,-0.06600869,-0.21619374,0.14709838,0.8578552,0.037342537,-0.016925842,0.20410481,0.023818605,-0.046896666,-1.3416845,0.69257224,0.3277793,0.0027132705,0.016072482,-0.19700068,-0.17696977,-0.3986834,-0.46129972,0.13874206,-0.12722711,0.42687234,-0.0025151595,-0.023605512,0.20192531,-0.07088266,0.17328188,-0.18555418,0.020851903,-0.011273414,-0.0660414,0.15972504,1.4735806,-0.23924693,-0.043634675,0.10026493,-0.71674365,-0.42121673,0.43229145,-0.090889946,-0.28228787,-0.35060808,-0.64727366,0.12121809,0.29747534,0.02874839,-0.69585544,-0.029545322,0.07450117,0.14822632,0.15313299,-0.06895609,-0.7081072,0.386685,0.14664996,0.23495057,-0.1689497,-6.161869,0.26594317,-0.4307119,-0.17434779,-0.24974433,0.09753309,0.031927638,0.3833534,-0.05248539,0.16237172,-0.60327893,0.3889739,0.058523193,0.12358426,0.1665524,0.036104158,0.65718365,0.021128356,0.18081261,-0.2128169,-0.007045759,-0.22549714,-0.23615761,-0.25490808,1.0960929,0.5281428,0.2543571,-0.98437315,0.3023583,0.38851604,0.18423747,-0.23102736,-0.13261668,-0.053147256,-0.067249745,0.05426105,-0.22572847,0.06475154,-0.16077085,0.11299573,0.002802834,0.8148364,0.104540795,-0.49343747,-0.04421231,-0.35152915,-0.26194805,0.3963105,0.10293546,0.21490772,0.41464671,0.38510895,-0.19720657,0.052257895,-0.16101092,-0.49342906,-0.006611727,-0.0054495335,-0.19919229,0.23361504,0.44526464,-0.19116765,-0.15068091,-0.11965774,0.11412148,-0.24084122,-0.11535318,0.33565024,0.09176057,-0.4299859,-0.44671273,-0.053506628,-0.118755504,-0.23718189,0.36912537,0.5617296,-0.055441946,-0.14368252,-0.3786949,0.51354975,-0.19686918,-0.45755067,-0.115500204,0.28588435,-0.4301316,-0.13383743,0.59302664,0.20278475,-0.06419562,-0.13596407,-0.03533853,-0.31521624,-0.13747016,0.1737346,0.115355834,-0.163405,-0.077136815,-0.11481567,0.45441854,-0.13564278,-0.03771419,-0.17077337,0.21451612,0.38008928,-0.35231984,0.21906091,0.20291865,0.3127932,-0.07440886,-0.12653218,-0.053018373,0.304553,0.2603645,-0.3140754,0.017437294,0.3266485,-0.3852969,0.11756432,0.0357164,0.5138472,-0.20772529,-0.46805787,-0.022397406,-0.39185643,-0.22199284,0.35256106,-0.10049382,-0.4268343,0.68987846,0.33197424,-0.2930633,-0.2953344,0.0162251,0.36098176,-0.20903003,-0.15577984,-0.32430947,-0.07162219,-0.0571737,-0.16326596,0.053415775,-0.15131915,0.35060284,-0.25687656,0.40980378,-0.11297269,-0.12473885,0.21147814,0.101059325,0.11467257,0.50272363,-0.56215453,-0.7123524,-0.6333051,0.46696267,0.6427355,-0.12865177,-0.091209814,0.00845287,-0.07952413,-0.21025996,0.15065956,0.05963693,0.22773132,0.0097360555,0.19929945,0.51704663,-0.002986285,-0.063954264,0.091396436,0.057660952,0.080193676,0.33012077,0.064947814,0.024389483,0.02636977,-0.04646429,0.19048029,0.12979683,-0.098496914,0.1383056,0.032024056,-0.14021784,-0.08099961,-0.12366708,-0.34805626,-0.58452654,-0.35389757,0.53171796,0.07720989,0.26312044,0.6095565,-0.34147584,0.28761372,0.023537636,-0.24242523,0.08043462,0.072702296,-0.177648,-0.3090866,0.37178144,-0.1102075,-0.1738989,0.07181771,0.5107776,0.17897414,0.27281204,0.13866933,-0.04153087,-0.307137,-0.30694038,0.5012417,0.35432723,-0.0057538375,-0.24333875,0.08482726,0.5023337,0.022022083,-0.10224783,-0.009870879,0.81316006,-0.5809839,-0.09916726,0.17454934,0.46458977,0.66438186,-0.01897534,-0.181712,0.15839799,2.197081,-0.12407962,-0.24003011,-0.10443737,-0.36771503,0.22450754,-0.07263541,-0.061756764,-0.06300464,-0.27210447,0.038106505,-0.22800016,-0.53011596,-0.10537333,-0.06372219,0.3629666,-0.33111256,0.33051002,-0.030770477,0.3500818,-0.37516874,-0.2376154,0.016266424,0.20021272,-0.0404945,-0.36918396,-0.009181695,-0.09025643,0.12473452,0.6583303,-0.22556533,0.6165489,0.11324067,-0.020208783,-0.3371703,-0.11668118,0.58724195,-0.29272252,0.44442084,-0.7826956,-0.20908947,0.5282816,1.4613609,-0.5263115,-0.17616138,-0.14252692,0.3483823,0.25516045,-0.19788262,-0.100181766,-0.02724585,0.20529144,-0.094307765,-0.24555148,-0.04667658,0.8655964,-0.11286381,-0.44630557,0.16310596,-0.22856984,-0.74712163,-0.22512731,-0.36121565,0.20105292,-0.24129467,0.054093733,-0.047000654,-0.497844,1.5344758,0.20413888,-0.24502349,-0.3710422,0.040230744,0.0082432665,-0.18333313,-0.3028159,-0.49917346,0.41505322,-0.16747618,0.12981063,-0.20297715,0.94467306,-0.30384386,-0.3026346,0.34067574,-0.5377447,-0.09934941,0.6469662,-0.2344716,0.6135504,-0.076343656,0.018730216,-0.026677426,-0.482362,0.003535524,-0.18813372,-0.43202758,-0.086054176,0.029072167,-0.29581207,-0.053278923,0.5775012,-0.011813924,-0.22384535,0.098736934,-0.1535865,-0.17692994,-1.0442369,0.100184925,-0.081522755,0.392133,1.6229429,-0.3415631,0.6062347,-0.22608764,0.045138165,-0.06639508,-0.22465876,0.35332626,-0.20289145,0.26945096,0.00998495,-0.061492145,0.012751088,0.10326527,0.11327092,-0.17708227,0.028388679,0.13349472,0.25115424,-0.09842235,-0.16455358,-0.3082314,0.11648678,-0.06020021,0.034255262,-0.24455178,0.068056345,0.063706145,-0.25256768,0.21955717,0.2951812,-0.10740139,0.30484337,-0.11819883,0.5606894,0.063540906,-0.03383881,-0.13256063,0.13050385,-0.06341746,-0.14733213,-0.55400413,-0.279652,-0.32815173,-0.16100775,0.1701721,0.8894685,-0.3634645,-0.23944068,-0.4112335,0.23773229,0.1870415,0.07087296,0.03521402,-0.35827148,0.10427479,-0.060841188,-0.14633569,0.24285409,-0.35382932,0.3685429,-0.69147265,-0.025714532,0.019393869,0.07444255,-0.13324149,-0.054455042,-0.076603256,0.26960725,-0.11203505,0.110711895,0.2642191,0.9227077,0.068200134,0.2463809,-0.12448117,-0.18598929,0.59594834,0.11512193,0.05209373
Asia_32.png,-0.10968849,0.4440516,0.10283697,-0.08568291,0.30244404,0.109548025,0.41801575,0.23326236,0.6622445,-0.021635003,0.14979908,-0.51859826,0.40305743,-0.07185953,0.23196368,-0.40900075,0.055979297,0.2040892,0.16007003,-0.47160557,-1.802871,-0.11379659,-0.09538058,-0.3044581,-0.11834708,0.11091621,-0.12398079,-0.07691122,-0.048676446,0.12481551,-0.35173947,-0.1679586,-0.027757332,-0.15812707,-0.36935762,0.054762416,-0.37654006,-0.17242229,0.1946406,-0.12827362,-0.22858535,0.060113907,0.34510607,0.12291609,-0.28232127,-0.477926,0.16343834,0.37683368,0.28463063,0.09024469,-0.045634717,0.18689205,-0.1567249,-0.52810234,0.14480111,0.39563286,0.57184416,0.08491641,-0.30085754,-0.19301905,-0.8216866,0.44319254,-0.19891363,-0.28366053,-0.6387998,-0.003961742,0.06734994,1.2966136,-0.25945613,0.15263689,-0.32072365,-0.551645,-0.20590834,0.025273785,-0.29184866,-0.08396102,-0.8139279,-0.47601444,0.029472366,0.036610946,0.20067234,-0.25735635,-0.12248336,0.537657,0.054674454,0.4416994,0.3231899,-0.30326155,0.78327227,0.04228446,0.22722237,-0.08346405,-6.9294157,0.42880845,0.13587469,0.19320603,0.3626613,-0.28198412,0.3554361,0.1138273,0.0037809238,0.18507358,-0.28178793,-0.090409614,-0.6002222,-0.052755296,-0.5710829,0.098466784,0.14062226,-0.5805088,0.555716,-0.6463872,0.23463014,-0.18325545,0.012634106,-0.40924835,0.6358454,0.1952963,0.10607998,-0.6399083,-0.043267075,0.36973888,-0.04156159,-0.1118643,-0.2593708,0.31786036,-0.039653234,0.03852535,-0.3004756,0.5392627,-0.09922216,-0.40920413,0.2664602,0.87371385,0.061573036,-0.047381416,0.0755768,-0.5294529,-0.27007255,0.39684275,-0.03479071,0.19347739,0.09203787,-0.013555089,-0.5033385,-0.39013308,-0.112406045,-0.008473858,-0.053423084,0.061313223,-0.17396072,0.26972038,0.5882224,-0.032305036,-0.05369471,-0.11802894,0.108650595,0.27428097,0.21251366,0.072717614,0.28339618,-0.52888775,0.17633149,-0.0023417985,0.35895175,0.32277077,0.24378245,0.085167035,-0.12825724,0.05647005,-0.11920716,0.10362014,-0.4835895,-0.5146726,0.132352,0.3563948,-0.7900565,-0.36811066,0.9271508,0.38021496,-0.57112986,-0.62893724,0.3603705,-0.36078504,-0.090419255,-0.067362115,0.16784027,0.18985468,0.14455965,-0.11311156,0.28163946,0.30509013,0.30111468,0.68050796,0.26376593,0.107799456,-0.7163567,-0.13368163,-0.5059459,0.15343559,0.15712214,-0.22976571,0.04302995,0.2706322,0.0869451,-0.32357582,-0.3828053,0.15845598,-0.3024981,0.43298846,-0.35773394,0.37203592,-0.14564061,0.3433459,0.2923556,-0.3974447,-0.10334704,0.5700566,0.21389495,-0.21882874,0.5529239,0.45988896,-0.016456544,-0.36066365,0.52646095,0.3317917,0.21585158,-0.29862303,-0.27742654,-0.12090913,-0.07318838,0.04491949,0.24073519,-0.5482598,-0.37057295,0.5292084,0.2829449,-0.31402802,-0.23214422,0.12500873,-0.15900907,0.16193023,0.23574015,-0.40183482,-0.4334577,0.07337137,0.3548868,0.28975224,0.03503329,-0.2440511,0.16110308,-0.1075212,-0.41249764,-0.16613427,-0.18534148,-0.1274423,-0.07456428,0.21505336,0.17592445,0.015056744,0.032267466,0.32167992,-0.23977035,0.78006226,0.4562568,0.18677872,-0.01931761,0.10206324,-0.06488004,0.5884541,0.10673568,-0.1278455,-0.0008329004,-0.22572795,0.18636751,0.40409324,0.10207918,-0.22962055,-0.46361732,-0.11510366,0.6068336,0.15908101,0.16546974,0.313628,-0.16968463,0.57061887,-0.6684613,0.019584194,0.42898804,-0.25981843,0.016117128,-0.45399904,0.25761423,0.14122796,0.13839647,0.50885534,0.15970182,-0.023375407,0.24422687,-0.17427664,-0.21381259,-0.11209473,-0.2859729,0.55699533,0.03565167,0.5400847,0.007617831,0.06689798,0.31318688,0.10676444,-0.10245925,-0.19370554,0.8726972,-0.44555092,0.13142677,0.5733842,-0.071862414,0.75515807,-0.011786856,0.008236945,0.65935886,1.2693939,-0.2652309,0.15672088,-0.37007618,-0.087966,-0.0873355,-0.33288085,-0.16385278,0.1483627,-0.048911124,0.20846017,-0.0033817217,-0.30918667,-0.14006394,-0.031836595,0.43730205,-0.22669612,0.15857509,-0.10394165,0.37968916,-0.24295282,0.28243703,-0.12638806,0.03056713,-0.13005944,-0.2994559,0.059822287,-0.11314963,0.12037597,0.15993956,-0.14318071,0.53913283,0.4023118,-0.0355537,0.21457264,-0.20988095,0.76097286,-0.10074973,0.23921824,-1.5545903,-0.045739483,0.5900023,0.6956603,-0.76294583,0.00138947,-0.20716244,0.93797994,0.24477422,0.05667554,-0.15058401,0.2923209,0.013864394,-0.005518228,-0.23235574,-0.057504833,0.733685,0.45927685,-0.35175946,0.27819413,-0.28302944,-0.7751924,0.07499597,-0.32215577,-0.06710298,0.1856474,0.4138698,-0.5383123,-0.48663247,1.6328628,0.43725166,-0.13570353,0.3145913,0.3852141,-0.24065834,0.17319328,0.033519924,-0.31497723,0.31109318,-0.58395255,0.5688224,-0.21393083,0.02607885,-0.27242017,-0.05698374,-0.26235268,-0.41956308,-0.025113903,0.428698,-0.39613163,0.48670802,0.03888247,-0.35337994,-0.030210331,0.026147246,0.11489741,-0.091643944,-0.36536777,-0.30609843,-0.3394904,-0.21290867,0.0294201,0.19271316,0.27752537,-0.17092185,0.21553749,-0.09573139,-0.46417972,-1.6029962,-0.23896725,-0.12675396,0.2522289,0.6123054,-0.17489012,0.2555958,-0.30774426,-0.31240678,-0.15541646,0.2914813,0.5071173,0.31995428,0.14295264,0.2525679,0.068407506,0.6016642,0.31680065,-0.31525138,-0.08794978,-0.06983943,0.28322905,-0.10639313,-0.13282698,-0.43139866,-0.83302426,0.024902817,0.22602916,-0.6255477,-0.6336858,-0.0527782,-0.42220706,-0.053634197,-0.0039749574,0.08124076,-0.39922002,0.21885064,-0.26069558,0.0034712255,0.34228307,0.02757956,-0.046130624,0.08246738,0.45571774,-0.19024955,-0.46524698,-0.15557872,-0.049635783,0.053186268,0.25898352,0.22216484,-0.4720921,-0.22249141,-0.2741832,0.00735119,0.19445895,0.09520856,-0.13545929,-0.09264195,0.30743265,-0.09075719,-0.045703307,0.18464155,-0.5611776,0.36015892,-0.84812164,0.01608698,0.16341202,0.03342122,-0.0008930564,-0.12582111,-0.54464257,0.19076316,-0.058003545,-0.27329424,0.2920127,0.36952618,0.109006114,0.6509848,-0.4494185,-0.31984693,0.47573543,-0.090741076,-0.16847698
Asia_41.png,-0.39473712,0.15318467,0.293253,-0.114186496,0.09035939,-0.32737118,-0.049266845,0.57270724,0.52738386,-0.2199339,0.22469886,-0.45613757,0.054416686,-0.24192975,0.087966934,-0.21353072,-0.15602975,0.08487359,-0.054293424,-0.023037996,-2.038941,0.11442629,0.15309873,-0.058314852,0.1200363,0.13319279,0.23489477,0.13963088,-0.23336336,0.29654267,-0.6550476,-0.58670425,0.038237937,-0.023574386,-0.60517603,-0.3585892,0.09806426,0.17526896,-0.34891286,0.96271026,0.15495797,0.19824284,0.34469634,0.09002468,-0.25402156,-0.6413021,0.36327344,0.034511052,0.0856506,0.10432289,0.20252024,-0.0012953803,-0.5699693,-0.46810412,0.050595045,0.12350571,0.49270213,-0.19960834,-0.3959136,-0.31065133,-0.8760238,0.15360494,-0.053396188,0.16988489,-0.062173724,0.29882416,0.2213484,0.8921182,-0.1338183,0.049739286,-0.43180114,-0.47391254,-0.3676855,0.49002668,-0.3201977,0.08180547,-0.6542374,-0.52295405,0.04786279,0.32154024,0.03594193,-0.5887056,-0.2687854,0.20682362,0.36199045,-0.057084903,-0.07026647,-0.15245438,0.88372076,0.1741162,-0.1891904,0.07343063,-7.0189533,0.49234694,-0.21436487,0.3865273,0.42391098,-0.0537033,0.6837115,0.09424518,-0.1838254,0.12673664,-0.6774415,0.016265132,-0.057243273,0.09358185,-0.81327677,0.12873489,0.36788478,-0.3147401,0.17801397,-0.19437693,-0.08179491,-0.23864053,0.0869548,-0.12238339,0.5078234,-0.13309768,-0.03788747,-0.62812,0.048575047,0.32459927,0.06789617,0.2687937,-0.06442792,-0.18698667,-0.06123066,-0.05028847,-0.42144766,0.6367309,-0.022968099,-0.13968828,0.36971688,0.8721361,-0.24380651,-0.36472875,-0.53365016,-0.4081691,-0.052991744,0.5117802,-0.189478,0.20568037,-0.015349731,0.2043391,-0.46347433,-0.10487078,-0.2727156,-0.34766063,0.2974624,-0.03538643,-0.4898472,0.34359705,0.40313694,0.11666795,-0.44910723,-0.48035032,0.22628741,-0.26008916,0.077104636,0.14375895,0.34500635,-0.43404454,-0.022072911,-0.071212396,0.11985149,-0.06844944,0.13613655,0.085710704,-0.3066607,-0.2000815,0.037396766,0.08470629,-0.25210723,-0.28626314,0.2275028,0.2604944,-1.0358245,-0.07913899,0.6209781,0.49982503,-0.4282546,-0.2510399,-0.08717026,-0.36769426,-0.42426994,0.1790167,0.037183,-0.05949603,-0.06308246,-0.19095545,0.19250965,0.41198575,0.0933788,0.14884368,0.15849452,0.7040653,-0.1050473,0.14759238,-0.27607802,-0.15102449,0.07491187,-0.020651016,0.2008829,0.22461951,0.14846063,-0.32270792,-0.115900666,0.16122991,-0.1247285,0.19922508,0.02093859,0.06969821,-0.21437004,-0.27854228,0.05308027,-0.70884377,-0.25043517,0.4838912,-0.8654069,-0.40834042,0.63098586,0.5429596,0.020255122,-0.46403843,0.16605315,0.34777665,0.2415602,-0.17736197,-0.46375588,0.20639242,0.16204464,-0.11536074,0.22624072,-0.44836164,-0.068189256,0.14938878,0.33697876,-0.22236028,-0.4945252,-0.24533635,-0.009140745,0.44017687,0.5212703,-0.43694508,-0.56122494,-0.8488358,-0.16319497,-0.06831792,-0.45775396,-0.0015667714,-0.1229494,-0.151559,-0.108593285,0.22192092,-0.27448463,-0.24142048,-0.113407925,0.1518872,0.30322802,0.13442343,0.08944941,0.1686521,-0.16953653,0.4659347,0.10241905,0.3369097,-0.07371271,-0.18045223,0.07413408,0.21297278,0.26708582,-0.20457649,-0.15233283,-0.18245046,-0.33397087,0.4458089,-0.27315307,-0.21455464,-0.40811187,0.06970918,0.7795812,0.25762445,0.49297944,0.05410838,-0.46864676,0.5306164,-0.56666315,0.024069041,0.13125591,0.028389832,0.24612436,-0.4594904,0.5706051,-0.18881333,-0.19550991,0.1516456,0.7260435,0.1287209,0.29020524,-0.23294291,-0.08081923,-0.058155864,-0.42200783,0.37423164,0.028579727,0.21231034,-0.38891587,0.1765316,0.31658533,0.008820832,-0.09082725,0.081662126,0.87043697,-0.46717352,-0.034604415,0.4270169,-0.084925294,0.47727138,0.05106888,0.26763296,0.13892552,1.5058856,-0.24813503,0.06903221,-0.35427925,-0.4507721,0.4507767,-0.06608258,0.048117824,0.1469404,-0.48305553,-0.057541627,-0.28767917,-0.87811995,-0.21524562,0.19423927,0.3761621,0.062191486,0.23357621,-0.26416966,0.3706696,-0.1362196,-0.33711419,-0.08892297,0.07414776,-0.17426491,-0.4209796,-0.17504537,-0.11250946,-0.22121656,-0.0723417,-0.016993025,0.34425643,0.0805406,-0.05913525,-0.10473587,-0.25986376,0.862003,-0.10836072,0.346034,-1.4160678,-0.103466175,0.053629868,1.452842,-0.24331081,-0.22640944,-0.22472927,0.47159645,0.21417433,-0.123264685,-0.25047532,0.21913335,0.2836091,0.09571503,-0.23953879,0.06327504,0.13610286,0.07207544,-0.60087234,-0.042805046,0.09458918,-0.8293157,-0.08356459,-0.2719198,0.05250869,-0.082795456,0.14016518,-0.10346814,-0.43504384,2.151452,0.099211484,0.18824215,0.012424882,0.09319308,-0.16657856,0.34555632,-0.3829865,-0.38056242,0.09316264,-0.40133575,0.2179256,-0.36509243,0.27889186,0.052993525,0.008625735,0.2639413,-0.04430013,0.11864987,-0.18434449,-0.45219088,0.19308567,-0.14203101,-0.099569745,0.12331583,-0.22004831,-0.36229354,-0.23046741,-0.43045765,0.14000131,-0.19257069,-0.29160735,-0.01257379,0.17555805,-0.31926626,0.16348234,0.00039439648,0.008913994,-0.3726384,-0.3545654,0.057401314,-0.028437309,-0.05644086,1.1451066,-0.32376343,0.057944298,0.07010089,0.13938701,-0.019397423,-0.29665017,0.18965304,0.38517252,-0.20594235,-0.07228105,-0.267227,0.57918966,0.24432424,0.07829329,-0.22987318,0.077364966,0.22575697,-0.053359166,0.10012926,-0.05199159,-0.08265416,0.06593086,-0.0738799,-0.1296223,-0.08456985,-0.2199139,-0.09162934,-0.00017594546,0.21676517,-0.09915677,-0.08638194,0.24630496,-0.25839368,0.008779433,0.10027734,-0.41479105,-0.18984246,0.13292865,0.38686433,0.1913402,-0.45060405,0.08881259,0.015674908,0.18530487,0.50145024,0.646114,-0.050019324,-0.16377039,-0.5434396,-0.05763045,0.3672064,-0.20441599,0.5995908,-0.16587968,0.08647113,-0.33224487,-0.15586287,0.040632427,-0.24264176,0.20122033,-0.24109454,-0.41594335,-0.115621366,0.30100664,-0.1897852,0.096501306,-0.012165375,0.14757472,-0.13927752,0.55244434,0.40114075,0.9485866,0.24624279,0.42854685,-0.49313542,-0.06373543,0.07098724,0.069299325,-0.19974467
Asia_42.png,-0.38989484,0.45952722,0.29737675,0.010961905,0.40761384,0.02566573,0.09869525,-0.06041926,0.5358731,-0.020349845,0.026909538,-0.15783948,0.53064084,-0.0054595545,-0.015684705,-0.09788279,0.57161385,0.20948738,-0.060318448,-0.56423885,-1.5969375,0.1844826,-0.086079545,-0.5405687,-0.34395194,0.31202292,0.053038705,-0.1938969,-0.18319882,0.34661317,-0.100842215,-0.15418687,0.24164382,-0.048788153,-0.31678936,-0.21089637,-0.098593265,0.04474642,-0.2817711,-0.90177757,-0.39881587,-0.28997543,0.1911624,-0.019698486,0.05983933,-0.9081496,0.3065002,0.5189559,0.44213545,0.22236711,0.13284923,0.12720035,0.023020793,-0.20775487,0.37593922,0.26906875,0.50946546,0.4866893,-0.67528045,0.12919359,-0.5450995,0.040058345,-0.1666955,-0.22099571,-0.66461754,0.07136238,0.22722208,1.2577671,-0.14169362,-0.15441819,-0.026367385,-0.46017528,-0.29793406,0.17622523,-0.23264545,0.36886945,-1.0649964,-0.4991107,-0.10025161,0.2976052,0.09212467,-0.1172998,0.1425177,0.44488642,0.25561234,0.45208126,0.042670608,-0.5693965,0.6893293,-0.16868167,0.26625496,0.3015291,-7.0420704,0.395693,0.088891536,0.09561351,0.40628356,0.011397466,0.82027227,0.52886635,-0.030411243,0.19359112,-0.2223417,0.01563558,-0.04252578,0.15755688,-0.15408283,0.062667735,0.42817727,-0.3449313,0.7315541,-0.4777879,0.19542596,-0.5890615,-0.1877434,-0.12979037,0.2449507,0.06530113,0.2822174,-0.598264,-0.16721573,0.4437818,-0.048942257,-0.079602346,0.054449454,0.37106702,-0.069795735,-0.18529573,-0.05803611,0.37938958,-0.01920965,-0.44579044,0.016463876,0.88414335,-0.069085985,-0.034629945,-0.5390591,-0.16211271,0.07229021,0.34435725,-0.18570714,-0.040820017,0.08103685,-0.12294548,-0.3195616,-0.05755979,-0.20543155,0.048841357,-0.023414746,-0.12249254,-0.6417419,0.16423884,0.7423131,-0.038529966,-0.28534555,-0.19847612,-0.2178056,0.16756304,0.0872664,0.21162027,0.37091166,-0.47648874,0.21313642,-0.2510657,0.04164182,0.44105002,0.5079041,0.14104585,-0.34133622,-0.016751394,-0.16781226,0.050663505,-0.32957876,-0.7275565,-0.13261005,0.37243053,-0.3401017,-0.1637755,0.5581258,0.1894112,-0.3648525,-0.45532873,0.280258,-0.14937317,-0.18160623,-0.047978967,0.058285918,0.33873796,0.008790642,-0.013526682,0.14153564,0.23352775,0.56874907,0.31458873,-0.06251566,-0.11618946,-0.8698652,0.2341439,-0.7505617,-0.35222262,0.24313375,-0.3071492,0.06630207,0.4815457,0.12687665,-0.4696126,-0.22778419,-0.012675747,-0.2821588,0.25913435,-0.35904327,0.41314444,-0.06638758,0.05548224,0.048056155,-0.37494248,-0.34094274,0.5319508,0.5862536,-0.27138463,0.30557394,0.44228107,0.08259232,-0.10845919,0.44293824,0.013005525,0.15851171,-0.2582913,-0.31141815,-0.03347432,-0.11978971,-0.12999168,0.121916905,-0.88313305,0.16732511,-0.012668852,-0.07013452,-0.07890542,-0.050039835,0.12360892,-0.28337148,0.24684078,0.16328913,-0.53799325,-0.28387892,-0.0070142746,0.056126922,0.6418622,0.21213454,-0.05525057,0.07528236,-0.08015214,-0.08289166,0.20154682,-0.02865187,-0.37577468,-0.17710647,0.22682142,0.8009347,-0.015967462,0.016817015,0.057664886,0.055607494,1.3465924,0.57387495,0.09730724,-0.030696101,-0.0053922534,0.04122872,0.59286094,0.30971572,0.03623397,-0.15024167,-0.13605273,0.13659607,0.3219849,0.23028202,-0.13002172,-0.36047956,-0.22234073,0.27645734,0.1086424,0.234857,0.088505976,0.04542502,0.6151035,0.3756038,-0.14181925,0.18789718,0.18280919,0.016086087,-0.07560414,0.4780125,-0.029057968,0.0058649015,0.58724236,-0.0007767081,-0.12658295,0.30009592,0.14335051,-0.14091171,0.031576693,-0.6314231,0.35022098,-0.14889531,0.44054693,0.071170524,-0.009799177,0.35080642,0.29586756,-0.022573028,-0.080494724,0.8827176,-0.10158693,0.07951715,0.57244045,0.26507315,0.607625,-0.07293612,0.41806614,0.6491076,2.0067286,-0.14059263,0.019769266,-0.17933357,-0.008179592,-0.15059543,-0.5775808,-0.012742311,0.14230876,-0.19246061,0.09041329,-0.26331016,-0.35549465,-0.17794755,0.19109881,0.4301682,-0.22142759,0.23169202,-0.20778227,0.3078199,-0.110848546,-0.0918179,-0.1812708,0.14860323,-0.369903,-0.2749297,-0.22803326,-0.059966445,0.37397876,0.64644647,-0.08582069,0.34516686,0.4870124,-0.05735358,-0.31905568,-0.25526637,0.95531106,-0.20812276,0.28916335,-0.9559649,0.04930059,0.17249197,0.57015157,-1.3494608,-0.08378821,-0.15249315,0.41343027,0.19518904,-0.07290578,-0.294793,0.37324965,0.019176329,0.1448015,-0.75748116,-0.0013093799,0.38894072,0.55444354,-0.6438408,0.19954567,-0.13792092,-0.6238755,-0.060901374,-0.25584048,0.075662024,0.09348115,0.33968523,-0.27459157,-0.34900022,1.8023138,0.8320195,-0.021283329,0.07374979,0.19636734,0.18341345,0.20993088,-0.04992184,-0.23396975,-0.05476427,-0.5612887,0.43433958,-0.22315264,0.026560664,-0.52446187,-0.4941995,-0.11953376,-0.22958402,-0.25803253,0.42827982,-0.11560681,0.3033818,-0.3208393,-0.1379143,0.27145067,0.17009656,0.05867365,-0.09017399,-0.3412371,-0.32008302,-0.2988745,-0.26615357,0.07016448,0.23961732,0.047734752,-0.17621577,0.18644755,0.017169908,-0.29459888,-1.8781106,-0.07960395,-0.017903917,0.35916704,0.55691844,-0.13329704,0.1678744,-0.35172078,-0.3720732,-0.39457685,-0.07010632,0.2887898,0.38401815,-0.34696528,0.20902026,0.07201052,0.469818,0.013468958,-0.27797118,-0.010477573,-0.0002875477,0.26386777,-0.26330942,0.0147064775,-0.21744815,-0.45746204,-0.10522476,-0.09287954,-0.49864975,-0.5842002,-0.3514886,-0.15757523,0.037042562,0.25606686,-0.019695964,-0.23485824,-0.043457463,-0.5225569,-0.10731417,0.06973863,0.17143658,-0.15314135,0.3006882,0.5752218,-0.008526519,-0.63319606,-0.28510132,0.30228096,-0.044379503,0.1087541,0.40483785,-0.5848874,-0.23938234,-0.37539083,-0.094296105,0.10023066,-0.09383109,-0.10733478,-0.18396337,0.058962874,-0.01277547,-0.023848664,-0.2710816,-0.19022161,0.14547479,-0.44747695,0.101284586,0.20636344,0.016354978,-0.20950654,-0.1253833,-0.41592532,0.20929387,-0.036580734,-0.15577133,0.2929958,0.4329577,0.07241036,0.6287035,-0.25517976,-0.29307434,0.8071548,-0.13003144,-0.13334337
Asia_44.png,-0.4276192,0.5393612,0.05142688,0.6682522,0.44188923,0.1475575,0.5403642,0.29526615,0.57853514,-0.2568178,0.17043431,-0.22168785,0.42503756,0.12706119,-0.103803426,0.15858093,0.28422582,0.41820052,-0.15965013,-0.16434619,-1.3646313,-0.06418172,-0.04160592,0.09675821,0.00027031824,0.24393646,0.017225854,0.31648803,-0.37459695,0.4288741,0.10929541,0.19672558,-0.07523197,0.075934045,-0.5706994,-0.297438,0.03054418,0.019632705,0.17478923,-0.23263572,-0.39791912,-0.27484974,0.24415609,-0.12868315,0.086810365,-1.0828786,0.77899647,0.39945787,-0.030293826,0.42646456,0.50657177,0.018333495,-0.2429375,-0.39980477,0.19703737,0.3653178,0.17302342,0.12790526,-0.29589957,0.07475913,-0.62385935,-0.058767408,0.09856483,-0.13108052,-0.43439925,0.3446668,0.19876634,0.59565103,-0.0067785084,-0.26164308,-0.23383597,-0.6014662,0.09476945,0.245399,-0.39219204,0.1636734,-0.6647185,-0.52698624,0.16281106,0.319125,0.13471791,0.23493814,-0.028858203,-0.12886645,0.3171,0.21446142,-0.24205725,-0.212343,0.10043157,0.32992962,0.27900302,-0.052742854,-7.343149,0.4069835,-0.08792525,-0.13762116,0.1822886,0.070686065,1.0320526,0.5016041,-0.019560367,-0.21946898,-0.6923221,-0.42007864,-0.45084682,0.15933795,0.37411416,0.07573934,0.24953486,-0.07696043,0.7908375,-0.33282673,0.34792328,-0.6924393,-0.118877925,0.051628035,-0.015169994,0.4197539,-0.095270574,-0.7671963,-0.087780535,0.34730834,0.27742094,-0.10427336,-0.018316768,0.031127624,-0.0013774186,-0.3914026,-0.08333898,0.116459265,-0.13457072,-0.48673773,0.32309967,0.9814919,-0.35450673,-0.18421516,-0.40506643,-0.6792351,0.17844874,0.06686644,-0.15725948,-0.012111157,0.2658978,-0.12152021,-0.22998458,0.24089251,-0.36978847,-0.1970193,-0.44551325,-0.2594809,-0.47400388,0.53503686,0.6346497,-0.13571076,-0.35171577,-0.41991004,0.022632211,0.19730508,0.27433512,0.27572456,0.623286,-0.66375947,0.3782913,-0.08080169,-0.09400954,0.37033355,0.26838753,0.16991016,-0.18839279,-0.19318184,0.18026054,0.40217423,-0.342208,0.11383509,0.14090559,0.39156047,0.245945,-0.092308864,0.3904932,0.16346934,-0.41973054,-0.83363116,-0.15381134,-0.34938154,-0.055201158,0.16258794,0.35589954,0.08953197,-0.029324085,-0.16897315,0.2310549,0.2255711,0.62855786,0.21738641,-0.20109525,0.015036538,-0.85445184,0.58889395,-0.71035844,0.066884525,0.008981362,-0.12741032,0.6571885,0.40775114,0.014822181,-0.22137535,-0.0956171,0.108125955,-0.10291819,0.25067005,-0.021858566,0.18250762,0.08697233,-0.0904143,0.086168684,-0.37138623,-0.006677665,0.21949454,0.3483603,-0.26976824,0.29390913,-0.21896838,0.0524131,-0.027931098,0.4489917,0.36482614,-0.0482105,-0.35945457,-0.33895648,0.13842437,-0.0045544878,-0.18967357,0.40943485,-0.29286626,-0.55548763,0.11579989,-0.17670722,0.16009462,-0.18922667,-0.1848546,-0.039152905,0.11604362,0.24032253,0.00037349947,-0.4825182,-0.35346758,0.40973833,0.5216328,0.3557942,-0.044818193,0.06157041,0.023064464,0.07004014,0.11764561,0.2847545,-0.4764462,-0.443188,0.37829328,-0.3451438,-0.112275496,0.10025856,0.32318664,0.34671932,1.0730617,-0.15825987,0.12769498,-0.27929193,0.02040486,0.0126282945,0.43502137,0.5000306,-0.22111541,-0.2866374,-0.052297667,0.28607115,0.25390115,0.33560178,-0.0010351241,0.07745066,0.068332225,0.1205654,-0.12886533,-0.06320229,-0.016804509,0.043156922,0.6348293,0.0413661,-0.14983447,0.17673577,0.3287162,-0.04643114,-0.12289731,0.18918236,-0.053508587,0.019118384,0.4900607,-0.14744012,0.05479441,0.44549254,0.10908073,0.00044468045,-0.06565972,-0.6888428,0.47847694,-0.018647127,0.069405824,0.01921478,0.018034425,0.049588963,0.30862975,-0.1850504,-0.010548815,0.97999114,-0.3673535,0.39385003,0.32058555,0.3539936,0.93180966,-0.2557709,0.3264811,0.56638026,1.8683699,-0.103665404,0.036440983,-0.36613834,-0.31043887,-0.1768709,-0.027775213,0.2150299,0.3304064,-0.025188163,-0.2498719,0.118454635,-0.17713118,-0.030326512,0.08458101,0.021594234,-0.41425174,0.081571564,-0.3914465,0.2633723,0.012103587,-0.08656402,-0.103652224,-0.12224593,-0.22289482,-0.18103723,0.12553696,0.30259663,0.3192616,0.14461052,-0.067043625,0.26313815,0.0020449236,0.32376376,-0.55605114,-0.22110704,0.83461726,0.038387682,0.24355644,-0.90879107,0.15483528,0.22441058,0.22914693,-0.8828206,0.43988255,-0.1718927,0.62219524,0.1499021,0.018862016,-0.04630407,0.59638643,0.09943805,0.13992879,-0.35285923,0.4789667,0.43305352,0.2249091,-0.6738658,0.027945824,-0.20839296,-1.1696755,-0.13088644,-0.15832785,0.10973103,0.09569903,0.27027732,-0.20733927,-0.31993204,1.166504,0.5386922,-0.030876786,-0.20818314,0.2577346,0.16720845,0.1517372,-0.15729909,-0.12606464,-0.17866033,-0.2837196,-0.05952879,-0.07375017,0.34561026,-0.19298592,-0.35587215,0.2486828,-0.12601365,0.26428717,0.6415051,-0.17228067,-0.31119937,-0.30915987,-0.23549229,0.37771988,0.22499955,-0.30287147,-0.07102413,0.0654449,-0.25455433,-0.23352505,-0.52476335,0.3706786,0.34332192,0.09020539,-0.45205584,0.12651998,-0.18202715,-0.557813,-1.0089246,0.13440922,-0.044836342,0.13965383,0.3635002,-0.43832344,0.14864883,-0.1922186,-0.096019655,-0.39299175,-0.25414222,-0.11134575,0.44468194,-0.57073915,0.4300109,0.10535456,0.10690545,0.018303975,-0.14934675,0.22321258,-0.11905722,0.25019318,-0.49647337,0.028956063,-0.46943998,-0.36381808,-0.047514245,-0.0823168,-0.20131773,-0.42174172,-0.044005536,0.06463623,-0.15972276,-0.092628114,-0.0664666,-0.55319655,-0.08849039,-0.41964898,-0.16000639,0.0684405,0.20577575,-0.37427756,0.23578155,0.26777148,-0.20598587,-0.7874527,-0.6030424,-0.028472483,0.0015678592,0.50420004,0.13350473,-0.5872391,-0.29184362,-0.059815697,-0.29028088,0.036287546,0.24500331,-0.062253803,-0.11572816,0.6288766,-0.10603027,-0.33050668,-0.22782451,-0.3920886,0.1897176,-0.6024318,0.18746378,0.11743718,-0.105210915,0.09947293,-0.0576419,-0.635103,0.15296271,-0.20676215,0.13141409,0.464532,1.2630175,-0.089434095,0.33671677,0.17387205,-0.15524566,0.86931074,0.0094271675,-0.28846848
Asia_19.png,-0.31862536,0.7994065,0.29979315,-0.015849322,0.33470207,0.2229917,-0.08363064,0.1379836,0.38939214,0.06415741,0.082535416,0.02596806,0.264908,-0.09806716,0.13819581,-0.13449809,0.16502336,0.116483524,0.31074023,-0.65068674,-2.4896104,-0.08887631,-0.042948395,-0.07727636,0.08835356,0.48239225,0.120166905,-0.25154486,-0.22374347,0.06395848,-0.47673732,-0.005209393,-0.19142249,0.04359837,-0.30041587,-0.15297294,0.061089784,-0.072152875,0.6587167,1.525089,0.17180404,-0.28752655,0.10487467,-0.18647031,-0.026668992,-1.369395,0.6189252,0.03657055,0.14064175,0.63371885,0.120255396,-0.20735653,-0.39360046,-0.4290325,0.2975046,0.4257846,0.31942776,0.21237959,0.00071952865,0.36699685,-0.10783279,-0.4446541,-0.20206153,0.018676413,-0.47123992,-0.09886009,0.004497841,1.2839677,-0.15285271,-0.3119143,0.15545927,-0.31821567,-0.3781086,0.18999985,-0.22868004,-0.27495512,-0.22207552,-0.5933751,-0.40358835,-0.33573997,0.23465154,-0.48739997,0.0061396044,-0.023234352,0.0519282,0.16180894,0.070163995,-0.4740656,0.2584422,-0.2047086,0.13017565,-0.7299197,-6.737923,0.2713529,0.18820143,0.22293411,-0.45714307,-0.09411664,0.238714,0.7004653,-0.05819968,0.068843976,-0.63632643,0.3218983,0.2408461,-0.09123698,-0.5939418,0.43432605,0.30091834,-0.3335453,0.506327,-0.27780467,-0.101191334,-0.4120381,-0.2147747,-0.27736366,0.28007072,0.27364638,0.11370253,-0.8689695,0.11715702,0.69708467,0.24588166,-0.14412718,0.05410857,0.31006533,0.27447388,0.053900912,0.005945176,0.06615108,0.11264981,-0.31573293,-0.08696045,0.8268761,0.10676062,0.0704809,-0.22356893,0.097165205,0.18727358,0.2873121,-0.06383843,-0.032864943,0.51982766,0.19555159,-0.48317772,-0.20537242,-0.15909508,-0.3834772,0.044362165,-0.23550788,-0.3369432,0.1832678,0.6858078,0.049299613,0.22242747,-0.20703797,-0.056638524,-0.22677283,-0.088054925,0.0014680773,0.14040819,-0.377827,-0.105593085,-0.10080446,-0.065136805,-0.106730334,0.2989919,0.17462677,-0.33185545,0.14682715,-0.111695364,0.07668913,-0.072694674,-0.17653595,0.061616693,0.6345525,-0.7633424,0.034448937,0.1938628,0.25969574,-0.14110547,-0.2219634,-0.18733306,-0.19811398,-0.3472776,0.17001869,-0.07158493,0.018100299,-0.17292577,0.14882961,0.24820274,0.056908354,0.23928896,0.0020291544,0.33631155,0.37351453,-0.7906486,-0.05198785,-0.47677597,0.5437352,0.011675432,-0.21366832,0.16295935,0.33679992,0.1660937,-0.53338546,0.025547497,0.3232604,-0.60426366,0.3570777,0.48327267,0.64168,-0.029986136,-0.53820163,0.36422557,-0.72338617,-0.090191424,0.50926185,0.109994225,-0.22596423,0.5078421,0.28479257,0.15337306,-0.034233853,0.17932567,0.38892674,-0.13382368,-0.19586183,-0.08713393,0.28469282,0.16737436,-0.053841755,0.026411513,-0.22914223,0.10799508,-0.15705107,-0.09391874,0.26668286,0.34340045,0.16295762,-0.05765801,0.29980165,0.5875971,-0.38811564,-0.63842046,-0.7346449,0.32291442,0.39382324,-0.5249851,-0.48865607,0.21159762,-0.13787203,0.3805015,0.5757231,-0.063666396,0.06392029,0.087254494,0.24122907,0.3354236,-0.10971225,-0.046537653,0.28826872,0.2614909,0.47068152,0.18615678,0.22790292,-0.22209758,0.17181969,0.43614843,0.19465438,0.47404507,0.14383793,-0.33766454,-0.37975225,-0.11120716,-0.022242948,-0.26123515,-0.22548176,-0.13150221,0.100258246,0.2597252,0.11806089,0.2456607,0.24008356,0.35678458,0.35588834,-0.14049566,-0.017371573,0.03545082,-0.07197884,0.036694303,-0.14394218,0.2921563,0.24149795,-0.16762969,0.269213,0.40765747,0.24230354,-0.014509052,0.019176587,-0.19711593,-0.48838338,-0.06426461,0.12280132,0.3223621,-0.17585066,-0.46171373,0.0696315,0.18008928,0.12496561,-0.17286025,0.22267444,0.8258026,-0.19519049,0.20537263,0.297257,0.5555415,0.3352732,0.3661006,0.29967394,0.57476926,2.0411127,-0.25484517,-0.102450565,-0.08428928,0.33818126,0.2799902,0.21889175,0.22339913,0.015285045,-0.21186593,-0.53529084,-0.33452278,-0.3275404,-0.23337588,0.32626632,0.2246042,-0.3481882,0.2616251,0.30160397,0.24716288,-0.48847467,-0.24729232,-0.24322692,0.1193041,-0.5459211,-0.046098307,0.11038146,0.09355548,0.40647063,-0.018812567,0.0015911087,0.3121024,0.18289153,0.095254615,-0.43920326,-0.26514634,0.20144925,0.15991578,-0.19501483,-1.2241815,0.060266092,0.31983444,1.6156135,0.04606192,-0.12378295,-0.35970312,0.20267767,-0.41844767,-0.045658186,0.09202274,-0.31674826,0.44054735,0.13417082,-0.39160272,0.2757072,0.70542276,0.042626522,-0.53027475,-0.13344514,0.08932274,-0.9201414,-0.18632399,-0.40143943,0.2691103,-0.13561942,-0.017973177,0.3334558,-0.19686344,1.43474,0.42011,-0.013530858,-0.1975903,0.45541567,-0.36918408,0.004450947,-0.27319205,-0.33178315,0.24308778,0.062779844,0.2971503,-0.061971493,0.5782121,-0.41882128,-0.20307674,-0.084667236,-0.33330613,-0.06999028,0.15110658,-0.095552325,0.055039763,-0.062729165,-0.117741615,0.34262788,-0.094788164,0.18035474,0.028429821,-0.15648018,-0.5227174,-0.19547635,0.074710205,-0.2034933,0.2033702,-0.04897272,-0.45744374,-0.2840488,-0.3366984,-0.32596612,-1.8328022,0.19947115,0.46654272,0.07518096,1.040554,-0.3878066,0.7302961,-0.29421222,-0.14544076,-0.021383718,-0.5002789,0.20218205,-0.050441228,-0.058447912,-0.055767618,0.33828425,0.05728361,-0.2815271,0.20087782,-0.09912107,-0.19174476,0.23953386,0.10988818,0.11188896,0.17142554,0.06948212,-0.09266937,-0.028040022,-0.18761554,0.059757646,-0.3759616,-0.38700014,-0.090588644,-0.21098489,0.042670302,-0.3803243,0.087910146,0.0037544332,0.37545806,-0.07887793,-0.29071516,-0.54236376,-0.09298107,0.4318383,0.5580754,-0.64031994,-0.08607359,0.059646636,-0.07783042,0.2843619,0.66917074,-0.1338321,-0.34092975,-0.055614106,-0.2757879,0.27297303,-0.27768475,0.09057201,-0.3357567,0.15295696,-0.24290925,0.047491215,0.17066672,-0.05965734,0.3273546,-0.6067302,0.021097437,-0.015920753,-0.31023136,-0.24224725,-0.029012859,-0.08478222,0.21656403,0.15598838,-0.081005245,0.29116076,0.8079927,-0.1064493,-0.11318304,0.123214096,-0.37224427,0.62548625,0.014783487,0.04737103
Asia_25.png,-0.54512393,0.26732513,0.1454432,0.2886506,0.2937858,0.123493984,-0.040421486,0.44534376,0.6220794,0.08635639,0.17902799,-0.22956505,-0.10303803,-0.12892684,0.3812871,-0.40849322,-0.1869815,0.08907271,-0.09229095,-0.31359026,-2.2761822,0.4767317,-0.04768899,-0.10721613,-0.14148697,0.42305264,0.117396906,-0.30225,-0.09151809,0.2759907,-0.120160066,-0.07758911,-0.19133893,0.14964196,-0.40923184,-0.17094971,-0.2493503,0.11132926,-0.1534124,0.16761687,-0.41885567,-0.38379085,0.2632684,0.31721187,-0.28419444,-0.98734045,0.23876265,0.19878641,0.262432,0.21986951,0.16465977,0.372021,-0.10602863,-0.26240712,0.23619464,0.15676397,0.7561971,0.1365076,-0.6573794,-0.21882582,-0.7060652,0.31594667,-0.25300485,-0.08308633,-0.346265,0.21107042,-0.040503234,0.8716363,-0.20109732,-0.13456893,0.030400287,-0.37862855,-0.42228448,0.106991336,-0.22937033,0.14684606,-0.6673728,-0.3777504,0.29274613,0.03270483,0.010628954,-0.20910342,-0.17241766,0.7120265,0.4051285,0.18016702,0.3986802,-0.3066458,0.3083313,-0.39940885,0.040359944,-0.098353446,-6.93965,0.68096685,-0.32438037,0.33376467,0.2160413,0.040303107,0.5192842,0.62237376,0.20371512,0.264573,-0.29659012,0.12769267,-0.49089354,0.24413258,-0.3922724,-0.15419564,0.53071904,-0.28344175,0.267094,-0.23539878,0.13131224,-0.33362892,0.1469945,-0.27846602,0.314434,0.061149605,-0.12444918,-0.85958445,0.029105872,0.43405092,0.1605227,0.028849602,-0.10013818,-0.018303394,0.16277176,-0.02684065,-0.21318871,0.80599165,-0.06728768,-0.44539297,0.3330365,0.88996947,0.23710701,-0.34029365,-0.14991164,-0.5992321,0.03183872,0.2913217,-0.20521507,-0.15168697,-0.18362388,0.06254821,-0.35257465,-0.102126524,0.033178978,0.08567991,0.020109616,0.059119422,-0.45869854,0.17966963,0.24223995,-0.16797712,-0.47606155,-0.45944607,-0.045123313,-0.11827862,-0.25882322,0.35142,0.19340089,-0.24839568,0.09976174,-0.05403616,-0.0046969578,0.4161019,0.7059176,0.05344054,-0.016232178,-0.090613194,0.14876632,-0.24644688,-0.3385972,-0.1969097,-0.25331396,0.31858522,-0.71741164,-0.4689537,0.4900859,0.13247415,-0.45023754,-0.84829015,0.26631582,-0.3530574,-0.35013917,0.19533733,-0.14295585,-0.32897666,0.30769467,-0.24895085,0.12257634,0.30319837,0.3506158,0.4973966,-0.08946223,0.12634228,-0.53157115,-0.052625574,-0.31894678,-0.07501081,0.34763688,-0.35619432,0.12689693,0.49943176,0.2725089,-0.73171186,-0.0045648515,0.09092606,0.15020575,0.6069253,-0.003920935,0.11581316,-0.04905503,-0.2310119,0.029075816,-0.7118349,-0.27612132,0.5908147,-0.43286982,-0.5023125,0.74747247,0.28697506,-0.053365983,-0.12734765,0.45798704,0.15478672,-0.04610002,-0.40820986,-0.2911969,0.1451756,0.10866277,-0.13812229,0.020147476,-0.31879598,-0.13099724,0.25864843,0.40702638,-0.36055177,-0.20416223,-0.16872637,0.14956269,0.4010089,0.27277625,-0.4223821,-0.34131178,-0.07342693,0.1436597,0.20482352,-0.055559963,0.10264975,-0.1941919,0.09598906,0.17259714,-0.15908152,0.10967112,-0.21671225,-0.4049834,0.023842596,0.2628479,-0.23720884,0.20859647,0.22297993,-0.10476448,0.8233756,0.37865984,-0.23625481,0.0624611,0.29396605,0.016025543,0.29074934,0.28842068,-0.26702926,-0.1890131,0.027256966,-0.110822976,0.33690745,0.02849646,-0.08652208,-0.23389144,0.0034257472,0.7143895,0.3812532,0.15445022,0.02287014,-0.17464374,0.25273207,-0.8551344,0.0434895,0.38594702,-0.0689906,0.080544725,-0.14449868,0.4882592,-0.32222885,-0.14964813,0.44786686,0.2452871,0.2671941,0.18495739,0.22433347,-0.11688021,0.063470624,-0.6993265,0.4533862,-0.047327448,0.31570572,-0.1118073,0.10883128,0.76402783,-0.05076229,-0.115523115,-0.112910934,0.888526,-0.5838845,0.086539194,0.36331314,-0.107410766,0.6323777,0.013970926,0.49003807,0.6446916,0.6754346,-0.26983312,-0.15994468,-0.10516058,-0.28247178,0.11694559,-0.3824522,-0.30087924,0.24108331,-0.24601902,-0.08275634,0.05043172,-0.4162327,-0.20275164,0.32413483,0.43577704,-0.41880107,0.548511,-0.30539706,0.14359733,-0.11384688,-0.044516146,0.054905847,0.36995512,-0.1310035,-0.31573248,-0.101132214,-0.06970453,0.18735373,0.2990892,-0.2967313,0.46750873,-0.09897193,-0.26919,-0.5241049,-0.503423,0.58437306,-0.31132546,0.27540445,-1.2447917,-0.22720848,0.6243351,0.2737233,-0.48485178,-0.009400055,-0.17450005,0.45184514,0.3214098,0.021791564,-0.13067582,0.3909675,0.0055436427,0.049119566,-0.25626004,0.20733438,0.3728642,0.2341747,-1.1476254,0.116783574,-0.20269825,-0.7767147,-0.1982202,0.06894703,-0.14830391,0.011920601,0.47664052,-0.03612489,-0.59041464,1.2768648,0.45376968,0.5244286,0.2512998,0.2339864,0.05481367,0.23798203,-0.2113683,-0.54266125,-0.006142944,0.057383582,0.6520748,-0.31254846,0.41552532,-0.20939982,-0.057934076,-0.12253529,0.057509925,-0.25061145,-0.027481735,-0.08868184,-0.073852934,-0.111345544,-0.25189024,0.048661172,0.056702122,0.025127262,-0.17477845,-0.5251497,-0.10211122,-0.36675912,-0.33784983,-0.16077143,0.38938934,-0.107543156,-0.41526613,0.34787345,0.0750124,-0.35667685,-1.1006033,0.043151073,-0.2767579,0.37890056,1.3862813,-0.047436304,0.19867925,0.0006338358,-0.28900748,-0.10352324,-0.15184455,0.35147163,0.24203038,-0.2285518,0.14412148,0.055375442,0.4611766,0.2588925,-0.1862893,-0.29944766,-0.15993607,0.26860777,-0.51873314,-0.22717623,-0.2556308,-0.15377519,0.02881144,-0.3423917,-0.15494342,-0.21665508,-0.090681925,-0.27275425,-0.16358736,0.102732554,-0.0023764782,-0.361287,0.053797677,-0.15149996,-0.17188656,0.14328346,-0.14859091,-0.20405711,0.29347035,0.34549287,-0.06984419,-0.83792067,0.15315044,0.097262286,0.41389558,0.22201523,0.40158942,-0.39710152,-0.07685858,-0.19880967,-0.30941796,0.25218827,0.11858548,0.1403924,-0.1723795,0.22479756,0.06507617,-0.25349653,0.31050867,-0.29029286,0.124418095,-0.60350245,-0.14114435,-0.16788745,0.24068673,-0.1825687,0.025749348,-0.14563575,0.103929475,0.3167585,0.0812304,0.5497874,0.8984548,0.12934703,0.48255235,-0.442056,-0.25033352,0.3659617,-0.1666781,-0.21406445
Asia_45.png,-0.4500712,0.5466855,-0.013368163,0.1615485,0.41618446,0.4146449,0.07437304,0.35494772,0.44948056,-0.300398,0.26280105,-0.37246686,0.45084247,-0.08407105,0.2134455,-0.24804646,0.06096133,-0.3518461,0.09966808,-0.4041286,-2.1042798,0.3261824,-0.43102014,-0.39982408,-0.055135187,-0.068294615,-0.4098652,-0.2020979,0.1407364,0.04157792,-0.63539064,-0.23837,0.07268773,0.1076787,0.08572888,0.21650602,-0.4189003,-0.019540727,0.16743067,0.81980026,-0.34955785,-0.11357352,0.12940317,0.3913822,-0.3539304,-1.1534137,0.26437795,-0.19483887,-0.11175944,0.3735422,0.016348675,0.2901838,-0.33706257,-0.0863058,-0.04620323,0.096035734,0.6691559,0.13667998,-0.08895938,-0.0075820573,-1.0105301,-0.07671207,-0.09262282,0.33622685,-0.08623414,-0.14740045,-0.008994099,1.4339564,-0.1231953,0.04975213,-0.014225181,-0.39835596,-0.26008835,0.3084839,-0.46355122,0.127794,-0.47477886,-0.1998126,0.36276907,-0.1456896,-0.07838288,-0.43207884,0.28643322,1.009047,-0.09088689,0.02167055,-0.0798763,-0.54348576,0.5391617,0.31185892,0.16261292,-0.09961888,-7.2599697,0.61431557,-0.18729302,0.3734798,0.29686534,0.15703166,0.33001453,0.2664706,-0.24676523,0.2846861,-0.37769848,0.35996294,0.13266377,0.121231996,-0.41730306,-0.03125444,0.4243361,-0.36779612,0.12437008,-0.5465114,-0.007904891,-0.21724756,0.16625603,-0.018007766,0.30824777,0.18552041,0.0114029795,-0.7017661,0.16005784,0.92378366,0.027080376,0.07012221,-0.11274683,0.2508498,0.02980712,0.20333168,-0.43347314,0.18034165,-0.045861706,-0.37923053,0.24013628,0.8243672,-0.19055459,-0.5017257,-0.22011858,-0.13371408,-0.0059794113,0.19099659,-0.33731273,0.13317293,-0.17154269,0.06902167,0.13961035,0.14719167,0.0023086965,-0.41328296,-0.15516575,0.3410926,-0.31633332,0.014571816,0.6179657,-0.15689085,-0.25435963,-0.004236549,0.030927658,-0.3829227,-0.26638472,0.27637658,0.48575053,-0.23035935,-0.12045008,0.147907,-0.18400054,-0.04673713,0.29776704,0.4636546,-0.036895663,-0.11025842,-0.26078358,0.18030752,-0.23250943,-0.5746672,0.3307547,0.303301,-0.8171357,-0.49058652,0.30328152,0.21087115,-0.45643663,-0.53042203,0.15285818,-0.45396462,-0.05682552,0.10898586,0.22938599,0.11549407,0.10736789,-0.18832554,0.53199404,0.29256243,-0.080546886,0.4427396,0.1678388,0.5637593,-0.20030063,0.5423246,-0.5197195,-0.12066276,0.28010017,-0.0835767,-0.2855479,0.21986313,0.32064214,-0.4858955,0.0045797825,-0.09091525,-0.043402076,0.15115184,0.30786133,0.4845603,-0.047404096,-0.2363493,0.59253883,-0.28297782,-0.013495192,0.36631387,-0.049626768,-0.75786716,0.45036978,0.81401706,0.13081203,-0.2347143,0.5659781,0.19634491,-0.29314202,-0.12386554,-0.20851868,0.055524945,-0.011002991,-0.23265734,0.3922506,-0.31602874,0.19164544,0.43246076,0.37109718,-0.12350406,-0.33965895,0.12617636,0.26931867,0.47269368,0.3099321,-0.49025184,-0.61270344,-0.09457651,-0.13902724,0.35051376,0.19264708,-0.08478684,-0.064278215,0.28927284,-0.30212802,0.1618398,-0.19249515,-0.061772346,-0.20373312,0.3017527,0.56339324,-0.18836659,-0.117787324,0.3242188,-0.17859313,0.6495873,0.31648868,0.11708106,0.0047566146,0.3645981,0.12993291,0.3310625,0.29458955,0.14435047,0.10598206,-0.26823735,-0.023573048,-0.13545002,0.016244274,-0.21108732,-0.6796037,0.13548836,0.47723123,0.25011367,0.35285667,0.091215044,-0.17226419,0.58088434,-0.5289943,0.02765594,0.266791,0.29175276,-0.10358097,0.07408712,0.44895226,0.1029757,-0.2835207,0.53168416,0.7145575,0.076902635,0.20738953,-0.059494816,-0.2798214,0.025658116,-0.63476413,0.3180783,0.3943013,0.3575919,-0.0549428,0.051371068,0.5228066,0.1355772,0.10816139,-0.56452817,0.8232291,-0.46601212,0.38605347,0.32919684,0.20594382,0.47610945,0.0123139545,0.57386184,0.30570835,1.2660452,-0.08194226,0.04511133,0.0029443093,-0.20097165,0.22106308,-0.2123179,-0.03832171,-0.1076628,-0.18428273,-0.025714166,0.013998792,-0.6160328,-0.17308745,-0.22420996,0.5597298,0.050251365,0.14051004,0.018466786,0.41935572,0.08059978,-0.30929115,-0.004180588,0.05786774,0.07046845,-0.20197508,-0.11784486,-0.29625383,-0.13299134,0.011253975,-0.4012756,0.25234237,0.08429246,0.012341764,-0.33113372,-0.46285725,0.9983148,-0.38325226,0.34815255,-1.1299269,-0.34620655,0.37507877,1.5802989,0.3777382,-0.00014920533,-0.41303957,0.83380735,0.24937259,-0.18348563,-0.0726222,0.5037739,0.14808807,-0.09518361,-0.48890287,-0.019423872,0.69952,0.07317583,-0.39041972,0.019582372,-0.19722831,-1.0626361,-0.034139447,-0.48596612,-0.20108047,-0.26608637,0.26742172,-0.10559187,-0.2344842,1.4204717,0.7330386,-0.06575522,-0.2935164,0.025554243,-0.02586089,0.17310196,-0.19319898,-0.43438828,0.119151995,-0.36099502,0.6442572,-0.4027201,0.40041372,-0.26345196,-0.13975416,0.3534158,-0.40206298,-0.23424989,-0.005268067,0.22889821,0.25471306,0.13629685,0.034062378,0.039767914,-0.025202654,-0.37002534,-0.54017365,-0.2868415,-0.06418429,-0.30447602,-0.19170606,0.1157855,0.5363232,-0.014543965,-0.35701334,-0.15691188,-0.21044828,-0.09887608,-1.6806397,0.07184402,0.21048072,0.33879834,1.0991803,-0.4207778,0.12323774,-0.22323808,-0.17055057,-0.1121629,-0.038248688,-0.01800032,-0.05683258,-0.11508532,-0.12197823,-0.17852144,0.25670117,0.12620924,-0.1744615,0.043747548,-0.25845134,0.11803439,0.20382544,-0.124819234,-0.09145373,-0.34963295,-0.042112343,0.15753345,-0.25763866,-0.12590554,-0.24847206,-0.29425517,0.3642342,0.030508518,0.37590787,-0.49470967,0.23065314,-0.22131734,-0.08752668,-0.069267526,-0.2395087,-0.36069006,0.18644378,0.22570518,0.1010052,-0.6370539,-0.1015423,-0.09875922,0.21768384,0.11851053,0.4645821,-0.39942515,0.030323312,-0.46363935,0.0018523242,0.18708211,0.03479469,-0.015407028,-0.26391587,0.055655688,0.21976879,-0.25898066,0.20676821,-0.18467243,0.022420112,-0.077993914,-0.24936187,-0.1303824,0.4014713,-0.28535432,-0.23372775,0.09799304,0.24336252,0.06360703,-0.075158216,0.52189624,1.0910597,0.068648964,0.2646801,-0.6204178,-0.36132586,0.26729703,0.15744205,-0.27620083
Asia_40.png,-0.2737614,0.5626719,0.07632384,0.23621476,0.3598889,0.19165544,0.18453589,-0.10720521,0.7536324,-0.39935648,0.13186906,-0.32147837,0.18337315,-0.0703844,-0.085826695,-0.6373533,0.21786153,-0.07548492,0.05443947,-0.2792194,-1.8733675,0.3151642,-0.43745267,-0.038593933,-0.10856062,0.41600928,0.17550306,-0.06300052,0.16283478,0.26283804,-0.43002352,-0.2744301,0.14235221,0.29645833,0.20886904,0.012736097,-0.29319102,-0.1824629,0.0762676,-0.0042646527,-0.25725737,-0.049328983,0.1429679,0.2025737,0.061134376,-0.54954994,0.08461022,0.64690524,0.32534456,0.23147628,0.3144349,0.11229702,-0.15828449,-0.19556811,-0.002276197,0.43879932,0.63306665,0.07190428,-0.60928345,-0.015983045,-0.97141004,0.4218648,-0.22729519,0.11798247,-0.5533949,0.06468609,0.14028865,1.6231477,-0.0775039,-0.049740143,0.16905653,-0.27067173,-0.2609559,0.19112138,-0.11089197,0.021151692,-0.5595798,-0.60960525,0.08238827,0.22664593,0.18649906,-0.46105257,0.17350411,0.43579918,0.35875005,0.45217884,-0.34896886,-0.16544294,0.67992836,0.06501749,0.15667439,-0.017403744,-5.3879786,0.47993103,-0.059555095,0.1619946,0.3491236,-0.02356816,0.63667077,0.50926405,-0.12132724,0.28196996,-0.36778945,0.044530813,-0.36656582,-0.11794085,-0.08265002,0.11632995,0.5882112,-0.1614488,0.23574656,-0.53485036,0.1713748,-0.4343714,-0.14400317,-0.3513031,0.57427454,0.4314204,0.50128305,-0.7844058,0.13718103,0.865353,0.47513434,-0.29613477,0.036597453,0.024186328,-0.26061004,-0.16758081,-0.1345984,0.2513214,-0.25086197,-0.13704145,0.09450913,0.7671232,-0.12989533,-0.46713433,-0.257796,-0.26825368,0.3298889,0.48299122,0.12979893,0.2306776,-0.12564701,0.041172847,-0.39540437,0.22125067,0.04283046,-0.27755633,0.038936652,-0.032702222,-0.598441,0.02303917,0.095493585,0.0746033,-0.31605515,-0.2466684,0.026878506,0.012799665,-0.0106203705,0.27258888,0.37876126,-0.56798184,-0.008499727,0.025932513,0.09233558,0.058450557,0.6750747,0.34642655,-0.31652218,-0.17235753,0.020139642,0.12926722,-0.35923055,-0.4710102,0.03854975,0.3914714,-0.15360981,-0.5268156,0.64376456,0.23411667,-0.3269537,-0.43014053,0.080342166,-0.23792194,0.16291131,0.0291304,-0.027245201,0.18285684,0.090516225,-0.25492373,0.24809432,0.077716336,0.15718947,0.007926612,-0.06791648,0.04040321,-0.44904175,0.047668338,0.11035609,0.02732426,-0.10410337,-0.35537416,0.1475105,0.36863342,0.057420127,-0.22394612,-0.15780488,0.28122416,-0.4955843,0.16475375,-0.1598405,0.3693468,0.04165259,-0.002272889,0.12326188,-0.24900629,-0.3329016,0.38421628,0.6121954,-0.2692497,0.1807091,0.6958592,-0.09749638,-0.1947244,-0.11152306,0.43180054,-0.117979966,0.043007493,-0.31718355,-0.04513745,-0.12327493,-0.27924865,0.02685751,-0.6649474,0.23608987,0.1446763,-0.06382871,-0.3895719,-0.07748181,0.20449653,-0.038949627,0.29373297,0.19508712,-0.3402366,-0.4178432,0.07265099,-0.060950775,0.5143592,-0.06695983,-0.09421854,0.23804246,0.5455728,-0.35192937,0.20010231,0.15011518,-0.109480664,-0.07570123,0.39864552,0.7479742,-0.0037442893,-0.019963115,0.20595384,0.08262971,0.6889983,0.36142498,-0.1302103,0.46462604,0.47893715,0.48249617,-0.038837798,0.58984137,0.029124662,-0.24080648,-0.21928513,-0.04596959,-0.15445125,-0.38246554,-0.4330876,-0.42836943,0.08147314,0.38839763,-0.10931341,0.38941523,0.2957955,-0.12523961,0.16596682,-0.71031046,0.05962026,0.3989587,0.035425425,-0.018229783,-0.21351716,0.49658003,-0.17499164,-0.10389796,0.2913788,0.6216748,0.23011884,-0.071843825,0.33004507,-0.34186417,-0.21320045,-0.5305019,0.3145892,0.19147128,0.87365055,0.0024538934,-0.055918273,0.09817635,0.05822245,-0.20392723,-0.37279776,0.7654349,-0.04438743,-0.15812746,0.45338953,0.2531791,1.0609007,-0.07142899,0.31295446,0.016008452,2.174227,-0.3064749,-0.27495718,-0.40118307,0.13728605,-0.026527941,-0.31081343,0.2936652,-0.27547535,-0.08996011,-0.21611333,-0.16971883,-0.11046083,-0.31013253,0.09902943,0.13422064,-0.20976368,0.28996497,-0.13131286,0.376037,-0.089125134,-0.22907169,-0.074122414,0.4042483,-0.24774295,-0.6022142,-0.04456383,0.16081998,0.31865692,0.55330396,-0.33594424,0.620496,0.068425275,-0.07066816,0.29575858,-0.5285652,0.78139794,-0.08478698,0.59573597,-0.6185895,0.06465368,0.28599468,1.0458347,-0.656917,0.014177628,-0.11412498,0.18250965,0.059934415,-0.021850444,-0.23109362,0.08252847,0.04533328,0.01354304,-0.5432266,0.21775728,0.29858756,-0.019469135,-0.5867053,-0.015945919,-0.19454396,-0.8831701,0.017219834,-0.3112148,-0.009344503,0.10766846,0.26099885,-0.07782644,-0.607813,1.1578803,0.4896625,0.2807912,-0.23057567,0.124965936,-0.061782464,-0.124744266,-0.055814743,-0.67989165,0.06520729,-0.04810919,0.7277771,-0.064623155,0.39463454,0.11853004,-0.099362165,0.33203435,-0.04432212,-0.079919815,0.5263802,-0.25565022,0.29705304,-0.23762634,-0.004150301,0.001554355,-0.32517755,0.107613295,0.15840372,-0.027820177,-0.17516582,-0.3538823,0.057134043,0.20129368,0.39865673,0.21524957,-0.120095775,0.114103384,0.07466676,-0.30486065,-1.8600719,0.062486332,-0.015370801,0.4336372,1.0984364,-0.025197938,0.04493481,-0.23727354,-0.24755874,-0.0837138,-0.101934545,0.16385826,0.2602938,-0.034974165,0.33911055,0.06882553,0.21674386,0.32066327,-0.31212807,0.099279284,0.0420338,0.1640166,0.003420204,-0.22604638,-0.44126227,-0.30226973,-0.24380668,-0.25359052,-0.39944848,-0.55380476,0.04876429,-0.23833096,0.09814969,0.32121408,-0.31542674,-0.5559892,-0.10880667,-0.08703193,0.33420503,0.23531531,0.07867422,-0.075749524,0.38727206,0.11715959,-0.030230477,-0.37774828,-0.49786317,-0.02322444,-0.18959415,0.5788191,0.45019415,-0.5591091,-0.0599543,-0.31625295,0.10111271,0.21970402,-0.11604027,-0.20574802,-0.1735022,0.3628177,0.27938408,-0.3092807,-0.04454147,0.26009187,0.018134579,-1.0725421,-0.016010083,0.12896836,-0.098412424,0.17650235,-0.14448288,-0.29812527,0.25800997,-0.12767051,-0.10212893,0.17533505,0.47975492,-0.26515996,0.38915431,-0.24845567,-0.18081814,1.030225,0.32981297,0.18607667
Asia_46.png,-0.11002839,0.4624791,-0.023666598,0.1863282,0.2410915,-0.01958397,-0.13671306,0.23778701,0.34450623,-0.18050253,0.5346092,-0.12634984,0.4847885,-0.34017196,0.011463765,-0.2741482,0.17877835,-0.016273629,-0.014253568,-0.37677357,-2.121804,0.23704031,-0.16128704,-0.50336707,-0.062486485,0.30583748,0.30048487,-0.410485,-0.28528655,0.40047106,-0.2694682,-0.078312956,-0.14035204,0.18980242,-0.14159551,-0.075030625,0.24493407,-0.027823083,-0.008310854,-0.24211209,-0.19065766,-0.04554589,0.64633524,0.18580887,0.091407515,-0.55967945,0.23428628,0.11492959,0.050363623,-0.20296188,0.1415793,0.38921386,-0.26478904,-0.1848063,-0.107595585,0.5330528,0.49735403,0.010381997,0.17185354,0.37496853,-0.22592391,-0.11665483,-0.3226411,0.03229429,-0.3689257,-0.25257865,0.08157554,1.4416689,0.06164947,-0.26447266,-0.08879767,-0.1766204,-0.24309345,0.35716665,-0.30071408,-0.04133315,-0.6262743,-0.5488961,-0.011596451,-0.26398933,-0.110666946,-0.18893474,0.23233294,0.529027,0.35521263,0.20543563,-0.19795573,-0.33792123,0.19101061,-0.056821417,0.028732985,0.074519664,-6.36063,0.68100727,-0.01027403,-0.11727774,0.3218654,-0.04704657,0.4824885,1.1134176,-0.17086108,0.12046678,-0.14462465,-0.11574885,-0.45902222,-0.33063447,-0.73418844,-0.069215134,0.20641589,-0.3965428,0.31756648,-0.050602593,0.0929427,-0.27016866,0.29466766,-0.3197181,0.14015844,0.17754044,0.2815145,-0.7962996,-0.027929656,0.84374917,0.17702095,-0.2852136,0.37718278,0.27013406,-0.20214018,-0.21002167,0.15123181,0.12986477,-0.3112336,0.014587924,0.4726166,0.8357054,-0.121764295,-0.23008257,-0.44942397,0.034557804,0.25567752,0.4969925,0.0070284135,0.28646356,0.15533,-0.2313576,-0.74175036,-0.08809735,-0.060876384,-0.010966212,0.31556877,0.16261506,-0.4595352,0.43472174,0.35677916,-0.11888108,-0.43679568,-0.3456005,0.039462507,0.011793435,-0.08012246,-0.05948189,0.29550362,-0.14492282,0.21507016,0.31308982,0.28204384,0.22062716,0.30838734,0.083883315,-0.3940738,-0.041694358,-0.23878452,-0.1279954,-0.13186869,-0.61972195,0.33389097,0.6044383,-1.2966096,-0.2008394,0.27798253,0.07703846,-0.24833313,-0.80485815,0.11593549,-0.20943421,0.17632979,0.21911763,0.12602632,0.3171403,-0.08870512,-0.35920858,0.041311823,0.99112535,0.23965383,0.025603488,0.0002780035,0.26635104,-0.39269242,0.57148916,-1.0396374,0.2428481,-0.06386079,-0.11586662,0.16333194,0.21301945,0.14241745,-0.19266014,-0.028086785,0.068116315,-0.53177834,0.1310625,-0.0120667815,0.7491168,-0.04843618,-0.07710937,0.087401,-0.19204012,-0.33461708,0.59511554,0.5934096,-0.43424416,0.55577606,0.49198735,0.04309988,0.16032308,0.31283653,0.28704312,-0.34311354,0.051181965,-0.44027245,-0.14113335,-0.26619023,-0.24866873,0.023107111,-0.6678843,0.33726642,0.468805,0.09047129,0.29597723,0.018385917,-0.3848826,-0.23773836,0.44892344,0.63001585,-0.36007693,-0.37617746,-0.08106502,-0.13281974,0.40477747,-0.100501135,0.0070554093,0.03032551,0.07491291,0.011229768,0.124683574,0.034262396,0.008610606,-0.19412826,0.13211536,0.8307278,-0.15632264,0.113593526,0.21267892,0.14662874,0.7694226,0.45033514,0.19923767,0.06510156,0.0038108826,0.123599865,0.32762244,0.6249488,0.28601527,-0.36141694,-0.32598138,0.34244505,0.134214,-0.053600505,-0.25275862,-0.30663937,-0.15016088,0.7010052,-0.07552518,-0.0025370717,0.30808166,-0.16432282,0.2194252,-0.5445349,0.15901488,0.27345514,0.26927167,0.29650545,0.19947821,0.40673578,-0.02380301,-0.02973321,0.43980962,0.33937308,-0.23856322,0.2796288,0.1998182,-0.12842524,-0.07517719,-0.38455993,0.032538995,0.33018008,0.2813655,-0.2549163,0.42954662,0.39924628,0.28684413,0.01193478,-0.30964223,0.83601606,-0.6508124,0.16764633,0.5062036,0.27605668,0.6061834,0.29626995,0.30968976,0.106868446,1.5738902,-0.2677101,-0.30114082,-0.039733045,-0.011097759,0.11703868,-0.39544678,-0.1944125,-0.12625246,0.042867094,-0.038453296,-0.4145987,-0.3040574,-0.25567034,0.003175647,0.43199655,-0.2919466,0.31130275,0.11575697,0.22983329,-0.094017416,-0.11253981,0.15511027,0.06733511,-0.06916012,-0.03467854,-0.0008442849,0.11541215,0.16474038,0.066396505,-0.041167304,0.39161998,0.2402948,0.18606097,-0.47198287,-0.5337292,0.68637216,-0.17170736,-0.04537555,-0.9512403,-0.39221424,-0.07635997,0.8524481,-1.1363432,0.24495742,-0.27773234,0.64260274,0.25820327,-0.26157844,-0.26124296,0.055322543,0.287673,-0.31631792,-0.38111904,0.20993045,0.2665974,0.04376313,-0.057485282,-0.049848013,-0.023559064,-0.8001094,0.29185936,-0.57874095,-0.057465136,-0.0728568,0.16052037,0.17313473,-0.29805,0.9821522,0.20380345,0.1987283,-0.039129,0.007969168,0.33637863,0.23547883,-0.43940324,-0.3768447,0.18628016,-0.6512724,0.5603627,-0.21766606,-0.23496887,-0.42986584,-0.38695735,-0.03378191,-0.43423736,-0.04516387,0.44058055,-0.49225324,-0.3497164,-0.24717337,-0.32476515,-0.009830829,-0.055393293,-0.065852225,-0.3159219,0.0007173505,-0.24602287,-0.24070303,-0.29479912,-0.21443117,0.507087,-0.21652448,-0.28483906,-0.07086619,-0.54906577,-0.4944602,-2.4885921,0.40736926,-0.021164361,0.4572636,0.9375167,-0.612994,0.06960152,-0.28377104,-0.20749809,-0.057489723,-0.006964162,0.18578328,0.22958198,0.42047283,0.21503906,0.047034636,0.42562693,0.14245687,-0.27546236,0.21397018,-0.4055062,0.081879586,0.175679,0.30993414,-0.1635958,-0.7691333,0.0007209778,0.17970628,-0.0027182028,-0.40601823,-0.38525474,-0.1649898,0.2652846,0.11596263,-0.20153323,-0.116456404,0.2342895,-0.19338618,0.010986157,-0.048199452,0.06321379,0.22919586,0.026669383,0.6940069,0.27096885,-0.43476713,0.030295044,0.2839705,0.0015446916,0.19198567,0.5282661,-0.00036328286,0.3659133,-0.47950202,-0.2675466,0.29764548,-0.032649133,-0.18129571,-0.195581,0.09283173,0.069576845,-0.021751478,0.37585923,-0.24952233,-0.3381276,-0.6191775,0.0069530606,0.047813445,-0.12042078,-0.011266679,0.04429841,-0.1922764,0.34280306,-0.21353729,0.01825697,0.31358,0.38008624,0.16959862,0.4864945,-0.15854837,-0.08254656,0.6233762,-0.21694797,-0.074999176
Asia_09.png,-0.23587602,0.4678545,0.09026301,-0.120613605,0.030197278,0.045228716,0.15354347,0.3416743,0.38164923,0.036189552,0.24193113,-0.042453215,0.75282496,-0.14918157,0.18824603,-0.28925884,0.26107317,0.22477995,0.05761443,-0.48368633,-2.2797627,0.24943472,-0.25585526,-0.16665524,-0.29945192,0.30354875,0.024675969,-0.003316328,-0.3085178,0.13609242,-0.75701886,-0.37453663,-0.15324554,0.045773108,-0.37936667,-0.20875463,-0.1795555,-0.12303489,0.37502268,0.22152326,-0.15220593,-0.0222947,0.28582257,0.08890681,-0.09654872,-0.7196846,-0.07020543,0.28087142,0.3528335,0.042022143,0.12269068,0.3052587,-0.6406149,-0.5196089,0.5573141,0.6072336,0.54805064,-0.04865378,0.17530732,0.09682251,-0.91389155,0.37130487,0.14396463,0.057536595,-0.30445978,-0.018958839,0.051857136,0.87445617,-0.18913509,0.014024362,-0.18357915,-0.5355973,-0.21602236,0.07129252,-0.43171906,0.27255017,-0.53067565,-0.5176036,0.14920455,0.0616246,0.1583356,-0.14067432,0.05191192,0.22330393,0.15127918,0.23556003,-0.5398557,0.06451604,0.50671,-0.019140452,0.021340862,-0.39075992,-6.4875917,0.44508997,-0.13228741,-0.03948701,0.72036755,0.10893499,0.50731736,0.5594681,-0.13011563,0.2893144,-0.24663764,-0.05156432,-0.34127018,-0.2440745,-0.5552894,-0.09182759,0.3295588,-0.16663727,0.27761912,-0.14908189,0.06863543,-0.43397176,0.31197575,-0.31596953,0.6652294,0.39762416,-0.010033071,-1.0852249,0.1964241,0.54176146,0.09867246,0.06016706,-0.36784336,0.25705224,0.030309625,-0.02574499,-0.26382184,0.34717762,-0.22930773,-0.51518357,0.06811178,0.8460822,-0.4009139,-0.23978394,-0.469068,-0.13702683,-0.12752624,0.11360519,-0.23231268,0.0042133033,0.28640628,-0.2628581,-0.5653907,-0.33802235,-0.21272328,0.060490623,0.21623135,0.19672246,-0.056622356,0.34853226,0.41135156,-0.081713416,-0.26747409,-0.14535832,6.227195e-05,0.18835136,0.2862756,0.17939611,0.23604089,-0.117886335,0.107736066,0.012397878,0.26812387,0.30045462,0.20416571,0.09934084,-0.022643328,-0.31041497,-0.026413498,0.022606075,-0.29724073,-0.46170342,-0.031017505,0.47810653,-0.6771945,-0.25081772,0.7430406,0.2862063,-0.37971967,-0.5002701,0.18994033,-0.37985358,-0.2379265,-0.028001785,-0.026769713,0.016098365,0.12582009,-0.23994583,0.19712013,0.3331973,0.09919667,0.34512037,0.27741957,0.28764647,-0.57610285,0.19552268,-0.47232938,0.37287545,0.42604673,-0.06903213,-0.07672386,0.42990094,0.19496751,-0.3756218,-0.36872703,-0.021273397,-0.28260347,0.50085145,0.20879617,0.42072308,-0.3445027,0.15897301,0.2232966,-0.49064165,-0.19154233,0.39524794,0.13840735,-0.43009531,0.40172094,1.0397067,-0.043804154,-0.28568625,0.45515674,0.6636154,0.16152516,-0.42048997,-0.4200009,-0.367633,-0.0077378675,0.03866598,0.11868758,-0.8768747,-0.065083966,0.70044,0.26874486,0.026817463,0.006282121,-0.06573703,-0.10256757,0.32920718,0.40096688,-0.58822525,-0.2355139,-0.13456406,0.3084212,0.22280473,-0.15889834,0.008870959,0.09067677,-0.38959295,-0.10435355,0.15194876,-0.022036895,-0.04293324,-0.029756803,0.17785288,1.0040965,-0.0048510768,-0.06426786,0.25557655,-0.077048615,0.77108693,0.10059199,0.39715347,0.15009624,-0.20359004,-0.10264802,0.5687795,0.30184835,0.06746256,-0.10259769,-0.109331995,-0.12099803,0.051276803,0.085216746,-0.450258,-0.42443416,-0.14176397,0.25575268,0.44615376,0.17604202,0.20536657,-0.2473778,0.31844246,-0.0032641292,-0.21060716,0.45145363,0.2848115,-0.11336774,-0.38024443,0.3601735,0.2551144,0.21170712,0.5796876,0.67638975,0.17870834,0.3960911,-0.077773325,-0.14230257,-0.10928613,-0.42417082,0.6338211,0.1293967,0.22418037,-0.114831775,0.060038507,0.32513505,0.10758628,-0.06749018,-0.25634706,0.84463894,-0.109174,0.23675561,0.11298477,-0.22131899,0.8200668,0.039681584,-0.12614587,0.4153246,1.1083591,-0.015590355,0.007952578,-0.002776578,-0.14347377,0.27669042,-0.27901256,-0.01808976,0.08109081,0.20866941,-0.2563385,-0.2607342,-0.4159987,0.11735448,0.10971728,0.6388347,-0.10734827,0.20340477,-0.22794232,0.5712122,-0.20191249,-0.058676377,0.054421723,0.50443274,-0.12669927,-0.05538726,0.075197846,0.047868103,0.35071817,0.068952955,-0.2552504,0.70765746,0.30028772,-0.17926458,-0.36361164,-0.32986358,0.43171847,-0.16958079,0.13703193,-1.2859646,-0.21584022,0.37727636,0.72133774,-0.83678913,-0.19624318,-0.15734383,0.69735116,0.19421566,-0.099935144,-0.4449849,0.28140947,0.019341547,0.21639034,-0.513307,0.26755506,0.41249517,0.20427865,-0.44734812,0.13620064,-0.0113104945,-0.74867076,0.05960585,-0.5374712,-0.0055691972,-0.16828406,0.08477597,-0.6535327,-0.11690911,2.2858386,0.37591365,-0.076856434,0.07660295,0.35525942,-0.1571438,0.3966197,-0.22810096,-0.03794306,0.24740934,-0.2982607,0.5341267,-0.14597958,0.41309524,-0.3974911,-0.10898066,0.16147962,-0.45277095,0.009772107,0.4268877,-0.23041527,0.16165328,-0.2948225,-0.008142583,0.1219894,0.1288794,-0.02040279,-0.092873186,-0.19752152,-0.25227308,-0.4246192,-0.26844186,0.21034844,0.2781029,0.28906202,-0.4063224,0.063106604,0.17979169,-0.13207053,-1.3054844,-0.025423035,0.2956356,0.30781788,1.1088927,-0.24553809,0.0056242347,-0.32724887,-0.24298586,-0.023992099,0.108147256,-0.008102283,0.23000503,0.44443583,0.16180387,0.04856178,0.37692764,-0.00674852,-0.073987484,-0.0063763037,-0.09360583,0.5173149,-0.1589427,-0.08973834,0.34592474,-0.58339304,-0.014080912,0.18989867,-0.20677097,-0.33192307,-0.0039907247,-0.3614865,0.08185846,0.16632283,-0.062773615,-0.12005812,0.16800867,-0.17446704,0.09539052,-0.10737679,0.05407626,-0.37258747,-0.072064,0.26935494,0.07826854,-0.63364595,-0.012798116,0.053605177,0.18589059,0.079183996,0.44838393,-0.4567896,-0.099144384,-0.7866534,0.10201077,0.37184173,-0.07259286,-0.010019124,-0.19306229,0.32441834,-0.03822474,0.037787914,0.14465347,-0.26983964,0.21939433,-0.70207703,-0.007337764,-0.005785443,-0.060360163,-0.10746625,-0.10604227,-0.12787807,0.2736217,-0.0005151108,-0.025590613,0.37243235,0.5174475,0.30909353,0.6822343,-0.30601755,-0.24213342,0.40187728,-0.109829985,-0.28946108
Asia_11.png,-0.20521355,0.6023807,0.31070372,0.14531386,-0.0029764026,0.21393543,-0.34030122,0.07324141,0.52440363,0.05870121,0.40970474,-0.22316784,0.019632213,-0.0684631,0.16945791,-0.47360644,0.49203736,0.056383595,0.084504284,-0.28594908,-1.5677984,0.062184647,0.29126197,-0.30202854,-0.31264162,0.25957254,0.03740773,-0.021378607,0.014185101,0.31717503,-0.26610333,-0.4859844,0.023163036,0.05952844,-0.6267248,-0.46215641,0.02161916,-0.14554481,-0.15408948,0.42606205,-0.11643921,-0.32530886,0.4021194,-0.10276002,0.08752803,-2.0679348,0.526405,0.5650638,-0.08820447,0.20669144,0.11849254,-0.04809119,-0.2025397,-0.3249894,0.3186729,0.34027538,0.27284783,0.26633096,-0.4297417,-0.14526212,-1.0322037,0.47728485,-0.3726058,0.28251407,-0.3019129,0.031354323,0.07467137,0.9021595,-0.24300736,-0.23600182,0.12957793,-0.5323268,-0.3969164,0.3952561,0.030672088,0.2090132,-0.9671266,-0.3533815,0.28716305,0.28533888,0.1860368,0.019305736,-0.015885606,0.4529509,0.23543227,0.17680222,0.42040125,-0.16203696,0.7218035,-0.048758887,-0.048536524,0.13362855,-6.875911,0.08422527,-0.30640748,0.066709325,0.0796843,0.0044693258,0.42350614,0.07709077,0.22379155,0.38998786,-0.45647335,-0.21681967,-0.35760155,-0.034997717,-0.2555197,0.13556734,0.45120132,-0.29088408,0.45110995,-0.452659,0.24347459,-0.380292,0.090215914,-0.30134538,0.24171841,0.50531816,0.03657023,-0.64202374,0.13012479,0.03353308,0.17243622,0.124742866,-0.13565333,-0.0349589,0.074404344,-0.11241734,-0.359425,0.44399738,-0.06741341,-0.34116212,-0.07961947,0.87031734,-0.1256918,-0.33590582,-0.42427662,-0.6617062,0.2274476,0.7195797,-0.035751823,-0.072971314,0.1025292,-0.024197415,-0.33134115,-0.01568472,-0.24163531,-0.3247782,0.23542401,-0.09584182,-0.8248308,0.034469485,0.8586963,-0.02884111,-0.047627114,-0.33400756,0.101890296,0.06716774,0.016577221,0.25769055,0.22964528,-0.328552,-0.16252977,0.09641604,-0.04633443,0.13659646,0.34924266,0.45432895,-0.13124947,-0.003191188,-0.06027761,0.07403622,-0.21885985,-0.39330137,0.05803907,0.17421946,-0.8161354,-0.46006006,0.42564085,0.19344045,-0.06714983,-0.50921017,0.09557308,-0.06340408,-0.09548096,-0.1400718,-0.17881082,0.20048788,-0.14558807,-0.22015765,0.19211777,0.3684978,0.43127692,0.27885753,-0.14815536,0.31289148,-0.8935671,0.23538542,-0.52818614,-0.0396989,0.15639803,-0.3703764,0.66786903,0.548949,0.3717784,-0.578417,-0.17222849,-0.0910805,-0.05488292,0.27376062,-0.07277123,0.49982184,0.17135878,-0.12695004,-0.14021042,-0.62912786,-0.160943,0.29760364,-0.13203643,-0.4378463,0.44210482,0.39085227,-0.0024828315,-0.34837806,-0.07228677,0.05668682,-0.18275411,-0.5815496,-0.307844,0.42783958,0.054893084,-0.07212311,-0.17603634,-0.6412592,-0.18477619,0.12439573,-0.190655,-0.33971405,-0.25664455,-0.07445167,-0.0024726987,0.20739792,0.46676594,-0.5261586,-0.46107703,-0.19173294,0.054719843,0.30915648,0.017423294,-0.39474753,-0.08905221,-0.08700975,0.23097263,0.09328081,0.1497058,-0.30365688,0.012301035,0.12470053,0.21290702,0.048943356,-0.081491925,-0.01595749,0.25625548,0.9887866,0.30116808,0.18330467,-0.0679431,-0.08419481,0.1710968,0.32971922,0.41009262,0.02325527,0.058065712,0.39736718,-0.20511323,0.20344463,-0.11352849,-0.55473596,-0.4243365,-0.116853446,0.4791903,-0.15354525,-0.024860933,0.21423712,-0.16628505,0.28565902,-0.75479466,-0.25304163,0.17891887,-0.20915675,-0.32201272,-0.25848073,0.55463415,-0.26682547,-0.33008146,0.27748722,0.3528547,0.047433704,0.11206642,0.17374036,0.022362947,-0.27946544,-0.4325472,0.5501708,-0.22619438,0.12873246,-0.30051076,0.338706,0.42641565,-0.012544367,-0.35430956,-0.05528672,0.8681865,-0.19382124,0.14878853,0.35470778,0.2925026,0.68287486,0.17494322,0.19181839,0.5150387,0.73705846,-0.35200742,-0.06438082,-0.42031366,-0.03971914,0.23070449,-0.44682127,-0.08765594,0.20239411,-0.15925755,-0.1801916,0.13637891,-0.5467792,0.024373673,0.11464339,0.29966205,-0.072175354,0.3140984,-0.119810015,0.2608729,-0.1213842,-0.057222605,-0.024454288,0.58579445,-0.23218983,-0.034263477,-0.017823346,-0.09908919,0.33750236,0.81162596,0.17307617,0.37016204,0.14383519,0.09090706,-0.6602356,-0.21838601,0.8851401,-0.34479335,0.10263991,-1.1059779,-0.086694345,0.26197192,0.26003963,-0.38802898,-0.09346816,-0.49665803,0.84454197,0.2512258,0.0962725,-0.10573139,0.376049,0.169002,-0.120243475,-0.20764513,0.1484533,0.40045905,0.20047902,-0.63615227,-0.048524126,-0.28671023,-0.95100176,0.10782381,-0.022016145,-0.07607621,0.19841391,0.48759782,0.30175647,-0.32748014,1.6783671,0.6630805,0.6441549,0.22204843,0.23422825,-0.05903425,-0.08765758,-0.15299365,-0.17125723,0.26477212,-0.36560684,0.29045677,0.023815736,0.5404197,-0.26912755,-0.12063907,-0.13040274,-0.44070992,-0.20250906,0.04079231,-0.46689087,0.127081,0.41317677,-0.39481452,0.19249594,-0.11870226,0.11848223,-0.5449389,-0.12532362,-0.13960722,-0.5698615,0.043860417,-0.4903737,0.2506322,-0.20103432,-0.46494162,0.13685143,-0.015406059,-0.2529152,-1.0600044,0.07001164,-0.3821688,0.65998644,1.353513,0.0108753,0.50386786,-0.20468459,0.058717772,-0.41676575,-0.16179857,0.19902378,0.3850402,-0.51036084,0.05176899,-0.056161195,0.23182508,0.17861879,-0.07915375,-0.19956917,0.09801309,0.51441306,-0.16198403,-0.32794052,-0.53070533,0.08038293,-0.24109486,-0.19712542,-0.21474859,-0.5824297,-0.14258209,-0.049895994,-0.17179449,0.2922644,-0.18041795,-0.24354514,0.13642219,-0.047621034,-0.27612907,0.23395774,-0.080790676,0.028485239,0.29422012,0.10179726,-0.14438272,-0.59638166,-0.08016883,0.014312811,0.39527476,0.20335206,0.53878,-0.27080557,-0.13228303,-0.108852305,0.007399818,0.19128135,0.18323764,-0.05973003,-0.12507537,0.11142959,0.0383266,-0.7769152,0.3404837,-0.30128986,0.31439036,-0.8951708,0.3472308,-0.16803864,0.009546638,0.46446076,-0.20713127,-0.15239626,-0.20274657,0.068955794,-0.043058947,0.26679707,0.89087987,-0.114779696,0.5060233,-0.16467564,-0.17130223,0.77313375,-0.059498772,-0.051797986
Asia_48.png,-0.30664867,0.5292068,0.20966282,0.18629873,0.40836588,0.37505975,-0.073093385,0.02658242,0.16722806,0.12112107,0.44242194,-0.39234424,0.6893625,0.20987332,0.2413803,-0.09784663,0.032676727,-0.20255615,0.111559235,-0.33007213,-2.196144,0.11092146,0.07641275,-0.21441047,-0.13663974,0.34617966,-0.15224785,-0.20405819,-0.14294952,0.20310992,-0.52955556,-0.26670307,-0.36314052,-0.070639566,0.0725719,-0.30106816,-0.2525998,-0.13388287,-0.28601632,0.42562413,0.08862432,0.24279267,0.8128249,-0.19338393,-0.258354,-0.9911643,-0.30572408,0.032621935,-0.121763825,0.22176617,0.10854447,0.19687778,-0.054750763,-0.208524,0.027348638,0.4047109,0.528347,-0.055062525,0.15397635,-0.075312376,-0.69571143,-0.03239851,-0.07375819,0.21628094,-0.33905864,-0.13356072,0.22541891,1.2740822,-0.18222977,-0.16622354,-0.17302528,-0.46063164,-0.7454301,0.2089656,-0.2613145,-0.21451002,-0.58988047,-0.3499609,0.039876074,0.19271478,-0.16397014,-0.59224874,0.37737763,0.36872306,0.39173853,0.32088196,-0.119112715,-0.22980894,0.15762019,0.26326612,0.07079291,0.021405756,-5.7747154,0.43586653,-0.1811556,0.24190407,0.086808406,0.10652752,0.01569017,0.932202,0.008733638,0.32393506,-0.28906804,0.14621308,-0.5756429,-0.18284711,0.13974427,-0.16132715,0.28574878,-0.18973066,0.1482564,-0.15976733,-0.0397791,-0.34276202,0.1656051,-0.3950192,0.13766325,-0.11464715,0.1861112,-1.0367528,0.13140155,0.8723691,0.2924775,-0.26944378,0.13811074,0.2180376,-0.15439704,-0.15338978,-0.4522823,0.4322878,-0.07989233,-0.057090864,0.30752817,0.74744856,0.03405986,-0.3163516,-0.0509777,-0.078198135,0.18681934,0.39771757,-0.123824805,0.5262984,0.21266207,-0.2857803,-0.42602646,0.3617591,-0.10125167,0.19911338,-0.060625397,0.365997,-0.24670018,0.16427039,-0.065004274,-0.22041453,-0.38778967,-0.3953086,-0.0405799,0.016704708,-0.42891008,0.062312804,0.12323664,-0.09909751,-0.2565034,-0.14448047,-0.3303188,-0.021420311,0.17588013,0.4422155,-0.0975218,0.013749175,0.1696094,0.16260591,-0.23022556,-0.59043145,0.21303934,0.118667334,-0.42469865,-0.35718197,0.46092156,0.18303543,-0.2521756,-0.50854135,0.19998051,-0.04370966,-0.0668375,-0.038698316,-0.06921282,-0.10661228,0.35604045,-0.34250486,0.15532567,0.5276075,0.12494035,0.07312659,0.006232162,0.6149188,-0.49167657,0.20444426,-0.6779784,-0.112513885,0.048693866,0.14242099,0.106913194,0.22124086,0.22863121,-0.48003626,0.42057008,-0.011629537,-0.33645323,0.094384775,0.050989192,0.903825,-0.03635174,0.057247616,-0.15698354,-0.106557295,0.022904634,0.47447723,0.4467936,-0.70573187,0.27309722,0.42613488,-0.023618937,-0.21156527,0.24624072,0.37207443,0.008747213,-0.33428365,-0.43109483,0.14717302,-0.14798957,-0.0617145,-0.053833544,-0.4151739,0.11208048,0.6021566,0.0011227727,-0.22663508,0.056071468,-0.17792943,0.14878733,0.14523616,0.77560526,-0.6691807,-0.3446689,-0.44886273,-0.12034684,0.12600185,-0.3126197,-0.004953623,-0.027779296,0.016176406,-0.0384555,-0.051754773,-0.08561256,-0.22532833,0.010013759,0.37654912,1.1911908,-0.11276359,-0.16421464,0.15572436,-0.109990686,1.2998393,0.45320696,0.18475784,0.40718305,0.11796419,0.16076617,0.15237297,0.36883295,0.001102597,0.1337583,0.0029135346,-0.04053761,-0.042563803,-0.08109814,-0.5356321,-0.41824582,-0.05368702,0.5010648,0.42174464,0.19585854,0.25188038,-0.050555874,0.2193715,-0.60877806,0.005142685,0.041568093,0.016705126,0.17413041,-0.076574385,0.47952756,-0.16437297,-0.16336378,0.5256663,0.6467027,-0.17658159,0.43190873,-0.0039495323,-0.080433995,-0.22998214,-0.34036833,0.6351674,0.19244081,0.56182325,-0.4259261,0.2455177,0.3013485,0.2848197,0.0630645,0.048138425,0.74656415,-0.04742773,0.24862106,0.065088734,0.43351215,0.5350521,0.04210584,0.4511239,0.081633754,1.671424,-0.10630303,-0.023338117,0.09523885,-0.32799733,0.6516659,-0.452451,-0.26354396,-0.18108311,-0.3194968,0.19316286,-0.12976933,-0.51791936,-0.06156549,-0.04121489,0.54066527,0.14220834,0.6183384,-0.11679924,0.12127252,0.015318483,0.14438576,-0.08974731,0.3218827,0.3654638,-0.43058825,-0.07593527,-0.0907963,0.25487307,0.2940571,-0.16088134,0.33284572,0.091787934,-0.046624437,-0.35293508,-0.14111471,0.8252486,-0.3669274,-0.093006894,-0.83943784,-0.36465475,0.15556854,1.5605917,-0.73144525,-0.02783585,-0.36584604,0.6780373,0.40901962,-0.32217056,-0.31517023,0.14035249,-0.08249063,0.050647482,-0.39723197,-0.2599407,0.90948606,-0.26472145,0.19161119,-0.0562102,0.173428,-0.7113292,-0.02996695,-0.26545766,-0.0084616095,0.029045835,0.3563851,0.38588065,-0.281219,2.0879736,0.85695,0.20581286,0.08389446,-0.32844687,-0.31404704,-0.021308828,-0.1130411,-0.28087997,0.16115402,-0.37678385,0.6220352,0.06842829,0.2563579,-0.5045284,-0.41214362,0.19839041,-0.2527883,-0.3657663,0.3725377,-0.3197339,0.14380866,0.19948371,-0.18979324,0.06343058,0.15088448,-0.22180727,-0.46860272,-0.41249496,-0.20972875,-0.74533284,-0.056022603,-0.30810335,0.46821406,-0.13575673,-0.28304264,0.37408245,-0.21565959,-0.3734415,-2.2282557,0.14191653,-0.20598215,0.13082425,1.387867,-0.2571301,0.5730932,0.0086129755,0.34002924,-0.121080816,0.0052717123,0.02180183,0.117267676,-0.08454259,0.44237506,0.149207,0.46463364,-0.07276517,-0.29380545,-0.26110792,-0.044638544,-0.17213818,-0.32696754,0.35758623,-0.29675815,-0.43558383,0.27230275,-0.13463068,-0.32564914,-0.6818396,-0.27752513,-0.08125362,0.05039964,0.15498239,0.16764505,-0.5692847,-0.042443626,-0.18295884,0.09206623,-0.09372662,-0.085142404,0.059409678,0.18524265,0.16702661,-0.1635268,-0.5532908,0.091495946,0.12231383,0.24021369,0.24740478,0.37603694,-0.23295507,0.05055642,-0.4582986,-0.17160486,0.11108329,0.07696453,-0.14344954,-0.4536484,0.2527894,-0.04032413,-0.32119352,0.26362085,-0.21327952,0.26983023,-0.4820149,-0.12694885,-0.3425505,0.12635551,0.16420141,-0.22388864,-0.28567252,-0.21571308,-0.17422812,-0.11367625,0.35360438,0.7759054,0.10986152,0.43288797,-0.31117508,-0.39149335,0.5203798,0.050279383,-0.33265817
