,0,1,2,3,4,5,6,7,8,9,10,11,12,13,14,15,16,17,18,19,20,21,22,23,24,25,26,27,28,29,30,31,32,33,34,35,36,37,38,39,40,41,42,43,44,45,46,47,48,49,50,51,52,53,54,55,56,57,58,59,60,61,62,63,64,65,66,67,68,69,70,71,72,73,74,75,76,77,78,79,80,81,82,83,84,85,86,87,88,89,90,91,92,93,94,95,96,97,98,99,100,101,102,103,104,105,106,107,108,109,110,111,112,113,114,115,116,117,118,119,120,121,122,123,124,125,126,127,128,129,130,131,132,133,134,135,136,137,138,139,140,141,142,143,144,145,146,147,148,149,150,151,152,153,154,155,156,157,158,159,160,161,162,163,164,165,166,167,168,169,170,171,172,173,174,175,176,177,178,179,180,181,182,183,184,185,186,187,188,189,190,191,192,193,194,195,196,197,198,199,200,201,202,203,204,205,206,207,208,209,210,211,212,213,214,215,216,217,218,219,220,221,222,223,224,225,226,227,228,229,230,231,232,233,234,235,236,237,238,239,240,241,242,243,244,245,246,247,248,249,250,251,252,253,254,255,256,257,258,259,260,261,262,263,264,265,266,267,268,269,270,271,272,273,274,275,276,277,278,279,280,281,282,283,284,285,286,287,288,289,290,291,292,293,294,295,296,297,298,299,300,301,302,303,304,305,306,307,308,309,310,311,312,313,314,315,316,317,318,319,320,321,322,323,324,325,326,327,328,329,330,331,332,333,334,335,336,337,338,339,340,341,342,343,344,345,346,347,348,349,350,351,352,353,354,355,356,357,358,359,360,361,362,363,364,365,366,367,368,369,370,371,372,373,374,375,376,377,378,379,380,381,382,383,384,385,386,387,388,389,390,391,392,393,394,395,396,397,398,399,400,401,402,403,404,405,406,407,408,409,410,411,412,413,414,415,416,417,418,419,420,421,422,423,424,425,426,427,428,429,430,431,432,433,434,435,436,437,438,439,440,441,442,443,444,445,446,447,448,449,450,451,452,453,454,455,456,457,458,459,460,461,462,463,464,465,466,467,468,469,470,471,472,473,474,475,476,477,478,479,480,481,482,483,484,485,486,487,488,489,490,491,492,493,494,495,496,497,498,499,500,501,502,503,504,505,506,507,508,509,510,511
Asia_38.png,-0.18662073,0.5290775,-0.07215926,0.26521367,0.14495383,-0.16778588,-0.303097,0.32935324,0.082319215,0.05610063,0.26146892,-0.28343573,0.7288823,-0.3329494,0.38809395,-0.36511248,0.21271811,0.19308765,0.051238917,-0.150094,-1.8984399,0.1410393,-0.19029194,-0.37410277,-0.30267325,0.19065988,0.07261194,-0.43370953,-0.30290824,0.47351372,-0.755528,-0.23933032,0.35312992,-0.18029174,-0.3081016,-0.080927335,-0.36501753,0.07819225,0.18467723,0.9997229,-0.23176572,0.050600573,0.5578146,0.029681846,-0.25117272,-0.7589047,0.0056235306,-0.14958785,0.47264335,-0.08887502,0.12604731,0.040869556,-0.21681502,-0.21793707,0.15817168,0.0013765246,0.52793694,-0.0009382367,0.1338552,-0.15399686,-0.89477134,0.13120596,0.10677523,0.11144586,-0.22609524,-0.13871498,-0.14542884,0.8899582,-0.11755833,0.25820667,-0.7623117,-0.09078045,-0.5870703,0.3582828,-0.037220106,0.13903373,-0.2666529,-0.6817375,0.08424403,-0.077425286,0.033497706,-0.25549287,0.16262932,0.21179387,0.34733266,0.32088125,-0.19516417,-0.31854856,0.42600244,0.19564481,0.449693,-0.11145176,-5.585782,0.51619506,-0.045050263,0.10795072,-0.26805857,0.25572938,0.25522786,0.04964206,-0.16319132,-0.066767134,-0.7827908,0.23909186,-0.049029246,-0.09802736,-1.1671239,-0.20586544,0.42221415,-0.16345143,0.25598463,-0.05369986,0.06846336,-0.10198139,0.53444844,-0.23241962,0.050297514,-0.033767927,0.079481006,-1.1422741,0.3014051,0.6607303,-0.19170928,0.34793097,-0.06295924,0.26150656,-0.06664717,0.27479014,-0.43838012,0.7454799,-0.14841658,-0.3933117,0.37549505,0.78481627,0.08438027,-0.24325591,-0.5629639,0.098382436,0.27219388,0.39146885,0.12309803,0.16017023,0.02810996,-0.19572292,0.030317105,0.075754136,0.09925047,-0.28069773,0.1628933,-0.024062976,-0.33502465,0.41805547,0.10916187,-0.5212356,-0.47595683,-0.23277488,0.05082749,0.026585285,-0.386315,0.28209627,0.4259972,-0.08305611,0.1928963,0.13902423,0.3675632,0.16638792,-0.112484716,0.30186322,-0.088394254,-0.46647745,0.4785925,0.05473633,0.056704506,-0.550812,0.06511623,0.32631058,-0.76407754,-0.30426905,0.13454574,-0.052515328,-0.23570985,-0.62664425,0.03320191,-0.20310174,-0.19872266,0.037953198,0.2471241,0.21391045,0.03846468,-0.14875108,0.5481922,0.4099353,0.083150014,0.014650464,-0.19482912,0.4557324,-0.038990274,-0.30227378,-0.2918551,-0.25144503,-0.013309032,-0.113596454,0.16041186,0.19087322,0.4254366,-0.44919917,-0.12303279,0.057529733,-0.06157364,0.5125688,0.15827632,0.29781535,-0.25864258,-0.31372046,0.5636095,-0.7363603,-0.06142962,0.550379,0.31451488,-0.6252056,0.5141515,0.71867174,-0.18250324,-0.12776642,0.42278928,0.31301683,0.1353598,-0.07184741,-0.06591672,-0.26707304,-0.19529162,-0.09737432,0.3305489,0.16886365,-0.13821417,0.460957,0.2858648,-0.027406067,-0.07415858,-0.025823958,0.054310143,-0.008536187,0.3362241,-0.5774585,-0.3997469,-0.05497939,-0.16747612,-0.25116584,-0.26198402,-0.14010404,0.37043872,-0.18973832,-0.29677528,0.07439581,0.12177408,-0.16326435,-0.11397722,0.10179999,0.7338823,-0.28525877,-0.04202524,0.20561655,-0.5564066,0.6170579,0.2804367,0.3284562,-0.012682542,0.09846927,0.23851405,0.118707545,0.66171,0.41270307,-0.23678336,-0.022086263,-0.25252992,0.15866087,-0.4850017,-0.32933712,-0.24106058,-0.19604045,0.6920348,0.2328846,0.29280937,0.299661,-0.043016456,-0.3519379,-0.2587639,-0.28839016,0.26489818,0.2631558,-0.114566654,-0.15194443,0.36585236,-0.075547114,-0.096286595,0.0671691,0.49736595,0.15385227,0.058741763,0.122063875,-0.2872519,-0.2907945,-0.1404447,0.1638853,0.29786703,0.14876334,-0.23006415,0.14377473,0.4171952,0.25442752,-0.15133265,0.30025527,0.782465,-0.40360177,-0.113032945,0.32692873,0.5502238,0.5928446,0.24932638,0.29922885,0.5240658,1.6384504,-0.15034641,0.13044274,0.07836345,-0.19118208,0.3455008,0.09206544,0.3787578,-0.17736411,-0.16075042,-0.073462516,0.14758451,-0.5777998,-0.021803051,0.23070014,0.63038117,0.09487701,0.42171618,-0.23104227,0.16721475,0.025434569,0.046144757,-0.029227465,0.031079985,0.28777334,-0.34153163,0.21847923,-0.10836266,0.38831586,-0.1362443,0.010726159,0.15821481,-0.3274774,-0.0032585748,-0.6019118,-0.11435688,0.32507396,0.094562344,0.13265547,-0.8465389,-0.06743567,0.115202814,1.4719127,0.21150586,0.071375236,-0.4667625,0.55955076,0.17327093,-0.4745246,0.109696314,0.46700758,-0.042705864,-0.12431978,-0.5643973,-0.013138048,0.766404,0.2496488,-0.0072983503,-0.16159357,-0.44435644,-1.3032819,-0.14856963,-0.54609364,0.24230343,-0.4337478,0.051780805,-0.02321373,-0.647228,1.7582313,0.3379568,0.023440067,-0.052587822,0.22698238,-0.13736367,0.28290132,-0.32617903,-0.6290576,0.31985128,-0.14707074,0.5673899,0.043502003,0.4793852,-0.6102073,0.31787944,-0.09036182,-0.4499091,-0.26151425,0.036587663,-0.2481023,-0.053630263,-0.025464367,-0.3890503,-0.053281613,-0.2495052,-0.025740743,0.2045874,-0.26495075,-0.059084766,-0.21384095,-0.26920924,-0.085290775,0.5947097,-0.14367822,-0.11216502,-0.055106424,-0.036535278,-0.5476647,-1.876545,0.1747339,0.15665329,0.064593166,0.6484755,-0.30946034,-0.0010154992,-0.06995183,-0.48008627,-0.034780204,0.043936536,0.15379229,0.4074971,0.3448499,0.064859785,0.048041493,0.5496409,-0.3085888,0.11758304,-0.3751973,-0.091318265,0.22907332,-0.12638022,0.14254928,0.23517154,-0.38254678,-0.35689592,0.2966805,0.022626678,-0.2831224,-0.3097111,-0.6623793,0.18660828,-0.2032942,0.16574493,-0.7727234,0.113193765,-0.23780897,0.10417881,-0.3222082,-0.07233127,-0.35870835,-0.04196644,0.2063899,-0.08355882,-0.6495943,-0.04707752,-0.10017185,0.2296923,0.19470835,0.61853385,-0.05514981,0.012062311,-0.45081267,-0.09957777,0.16714458,0.23698232,-0.083109654,-0.13134003,0.15095496,-0.06628334,-0.08790445,0.36434418,0.06101526,0.09221558,-0.555722,-0.43131453,-0.13468653,0.15406616,-0.17462453,0.12058996,-0.27422825,0.231976,0.058374792,-0.0017855093,-0.028882738,0.64466846,0.43613118,0.35358247,0.09190355,-0.084523454,0.5360788,-0.16526592,-0.44052473
Asia_12.png,-0.61395425,0.4621564,-0.21605122,0.22468847,0.059325293,-0.2340675,0.102303475,0.12445426,0.40356466,-0.14370337,0.39486927,-0.48757556,0.53969216,-0.03131458,0.10832076,-0.33427846,0.018647224,0.05227664,-0.05879163,-0.24786618,-2.3251917,0.30260375,-0.109651245,-0.48599273,-0.1525293,0.10698925,-0.30540732,-0.24702455,-0.123546526,0.43795732,-0.49922025,-0.4630695,0.33443183,0.0644674,-0.023867242,-0.15607905,-0.49066278,0.13410626,0.15921652,0.69938916,-0.22311917,-0.27356303,0.033141963,0.32890725,-0.060491726,-0.11257845,-0.35858563,-0.1322135,0.115912125,0.29749337,0.28526434,0.07500152,-0.24040273,-0.2401271,-0.08045192,0.18244857,0.10897349,0.12412934,0.1229282,-0.03049063,-0.55582523,-0.03237462,0.085238785,0.41874135,-0.31239557,-0.20764214,-0.30692852,1.152534,-0.24817854,0.0062214658,-0.38522014,-0.2296237,-0.44419795,-0.043381326,-0.44914103,0.047269985,-0.26740155,-0.6325245,0.23865846,-0.33808142,-0.05491702,-0.40860212,0.24809384,0.6333326,0.22247177,0.6048586,-0.16928267,-0.58772385,0.33521354,0.08417952,0.3433892,-0.17229435,-6.4773135,0.38907504,-0.15862869,0.2275974,0.09160709,0.28201863,0.13894626,-0.27443185,-0.061529033,0.23431131,-0.8829802,0.216854,-0.24458732,0.23176937,-0.21024007,0.09560019,0.28207007,-0.10743572,0.53277934,-0.48504722,-0.009038165,-0.16962102,0.26063785,-0.00582844,0.6420413,0.01910742,0.034283917,-0.7563452,0.1818893,0.92917264,-0.4072556,-0.032467827,-0.20178682,0.50335854,-0.17546631,0.055603012,-0.4716075,0.58097285,0.14043179,-0.438739,0.65490615,0.8089837,-0.039021075,-0.26462138,-0.4844162,0.1626801,0.14955598,0.40911978,-0.1501408,-0.03304714,0.03915994,0.12904233,-0.10573415,0.023727328,0.3118209,-0.16487756,0.16503915,0.09954949,-0.2749928,0.115716994,0.5865484,-0.29419425,-0.41844663,-0.30158314,0.05134724,-0.47243035,-0.41839936,0.43244767,0.34057117,0.04532954,0.10967841,-0.14972234,0.15237482,0.40945446,0.390713,0.4390887,-0.21095833,-0.19143367,0.0020353794,0.05942422,-0.47113127,-0.6509143,0.06484549,0.43859684,-1.1970336,-0.4728433,0.30122164,0.046009563,-0.38450253,-0.3625839,0.15573154,-0.28718007,0.059318706,-0.05311154,0.077684015,0.21392795,0.028309196,-0.16527987,0.0034090877,0.44403958,0.30983055,0.21053195,-0.15730727,0.43421927,-0.18994494,0.1682882,0.09748611,0.1197492,0.30675834,-0.33472663,0.123581134,0.29320642,0.3831978,-0.5991669,-0.13953954,-0.072110415,-0.40446985,0.3541533,0.6820198,0.016409963,-0.2734904,-0.11313381,0.81714,-0.31530982,-0.6581402,0.46934062,0.01624155,-0.48752746,0.30788335,0.9444212,-0.011984393,-0.42620865,0.7928079,0.07248436,0.20557202,-0.043308534,-0.5172843,-0.17022723,-0.023743935,-0.17819983,0.39319313,-0.30784386,0.1643585,0.29147413,0.52312165,-0.33985162,-0.0039691967,0.21742715,0.16285646,0.3737867,0.08132367,-0.69175047,-0.44643492,-0.15592346,-0.23476619,-0.064779595,0.24334344,0.099655345,-0.057311013,0.023541292,-0.15995385,0.08795096,0.089157864,-0.015320245,-0.106998086,0.20665002,0.8180632,-0.067280404,0.11571385,0.082375415,-0.35655555,0.77220845,0.37336206,0.111631036,0.07449302,0.4787301,0.4235681,0.61739445,0.6725652,-0.18680805,-0.38082212,-0.017354816,-0.32894224,0.3873565,-0.04317134,-0.2638319,-0.34541702,0.04666722,0.6579369,0.40770203,0.21945928,0.23709083,-0.28161007,0.16555336,-0.42305788,-0.13610986,0.32963294,0.03571114,0.2582508,0.11768679,0.76212376,0.104500234,-0.29893366,0.49095473,0.5863013,0.15588938,-0.071302965,0.20283678,-0.1510957,0.19342275,-0.5582708,0.08909547,0.17206505,0.8271879,0.08647086,0.24781284,0.44821367,0.065123945,0.033088386,-0.1868558,0.8081523,-0.29884148,-0.044320613,0.3512378,0.27001038,0.62538713,-0.085096195,0.4232068,0.43903434,1.4164072,-0.09984143,-0.1403769,0.26173994,0.14189786,0.13986704,-0.07359294,0.36658514,-0.17929414,-0.30277598,-0.2726816,-0.16390751,-0.3321427,-0.2847482,0.10179967,0.5308714,-0.1399842,0.18477817,-0.159991,0.29105282,0.15504763,-0.21081701,-0.29739308,-0.028406978,0.14258775,-0.691571,0.33818042,0.062223926,0.18193258,-0.011406511,-0.603981,0.301827,-0.1152371,-0.33218455,-0.2734161,-0.46980104,0.63032013,-0.3033958,0.16655004,-1.2620924,-0.05444537,0.19754416,1.3080454,-0.26741558,-0.13287582,-0.15171398,0.37636378,0.060439743,-0.28490657,0.047906823,0.45673317,-0.1167884,-0.106160656,-0.52940595,-0.079796135,0.7327796,0.20737597,-0.34890214,-0.081066586,-0.24814925,-1.117352,-0.08762428,-0.2523,-0.0011557154,-0.1565867,0.20376879,-0.3331679,-0.087682486,1.0132211,0.759634,-0.124661416,0.003898263,0.2002047,-0.23011705,0.24611743,-0.20240618,-0.2623434,0.1275776,-0.028183341,0.81661624,-0.047849223,0.4851654,-0.28521115,0.29053044,-0.19264543,-0.26737773,-0.16499887,-0.05438274,-0.09849512,0.09169839,-0.00512621,-0.25437728,-0.15714584,-0.049065966,-0.2697231,-0.061584353,-0.25612944,-0.20635659,-0.14143796,-0.26511753,-0.23383538,0.4082623,-0.12967415,-0.17637299,-0.11816493,0.2508404,-0.12129018,-1.3927004,-0.00014819857,0.35495004,0.11082517,0.8961404,-0.05499582,0.013728581,-0.16636716,-0.47238073,0.019866709,0.10657965,0.2997813,0.1913411,0.23559219,0.07900717,0.18310368,0.40206552,-0.076204136,-0.29118267,-0.056575857,-0.30379215,0.23254123,-0.27575466,-0.015668824,0.17183876,0.014298148,-0.0010160431,0.08144039,-0.3324201,-0.32581198,-0.5111129,-0.27417874,0.114192665,-0.1668474,0.34650362,-0.5640087,0.16863987,-0.3968578,0.13646503,-0.3149768,-0.37811482,-0.18841754,0.28681284,0.22019228,0.083872914,-0.42087883,-0.16328256,-0.08424347,-0.18573275,0.061128065,0.43348977,-0.4168659,0.099237345,-0.38164338,-0.25810516,0.12788753,-0.044485565,-0.112705894,-0.280267,0.30122128,0.2665296,0.25249958,0.30497998,0.09289698,0.43658367,-0.40714025,-0.3712889,0.18701592,0.22076918,-0.12419495,-0.12898408,0.071061924,0.02656154,0.015471853,-0.0672442,0.09878366,0.52838004,0.33033708,0.26664603,-0.15103702,-0.46099088,0.28810883,-0.05226203,-0.4918825
Asia_28.png,-0.22880463,0.26405108,-0.13354562,0.08118352,0.1465006,-0.26796544,0.1446335,0.43384412,0.39540184,-0.014042437,0.534272,-0.39145812,0.40546724,-0.045846708,0.34754026,-0.18128738,-0.32102004,-0.038238324,-0.029021397,-0.013740531,-1.7674683,0.4266923,-0.11102632,-0.49113476,0.00091641396,-0.01894559,-0.23299965,-0.55483615,-0.13861334,0.45711356,-0.60275304,-0.33360112,0.1562702,0.02915844,-0.11473335,-0.06831737,-0.3572915,-0.0803396,0.37635154,0.7124114,-0.17494783,0.12595084,0.039568957,0.14736547,0.03968364,-0.7592789,-0.3320778,0.10140072,0.37332702,0.18574849,0.32191676,0.3713052,-0.07349181,0.0038947985,-0.01743494,0.24423164,-0.0516105,0.27944183,0.25206524,0.22994973,-0.9107038,-0.14542937,-0.16299477,0.21876584,-0.45154428,-0.19330525,-0.40822974,1.313716,-0.2200838,0.12182203,-0.45609173,-0.14912078,-0.29042608,-0.23583469,-0.36028427,-0.12941077,-0.37487623,-0.5421926,0.05464199,-0.4777609,-0.19678971,-0.3090343,0.21980184,0.20725945,0.07402682,0.29961473,-0.33970973,-0.48322147,0.35120037,0.09266477,0.48266786,-0.19613887,-6.5663795,0.5562669,-0.26215893,0.16156864,-0.16845481,0.18067497,-0.3658353,-0.27133885,-0.23509905,0.27820516,-0.9373964,0.30397984,0.27108663,0.12951536,-0.6668271,0.27184528,0.500495,-0.15723592,0.29290327,-0.09358184,0.072183006,-0.09838123,0.06986002,-0.029126547,0.40144974,-0.31622925,0.17442387,-0.83527416,0.15564923,1.0341752,0.039082304,-0.18006656,-0.17091863,0.38316542,-0.11893308,0.15363356,-0.4185724,0.63556516,-0.23411807,-0.48805133,0.35692674,0.8101069,-0.047042705,-0.25567275,-0.22728902,0.14727949,0.28825375,0.37489948,-0.17313644,-0.024211273,0.07571514,-0.049684525,-0.071586296,-0.08384861,0.43590176,-0.1140581,0.06339821,0.12011177,-0.22385749,0.22005332,0.85176075,-0.24492769,-0.30099744,-0.19542582,0.18568893,-0.52177036,-0.41940415,0.39848295,0.32068712,-0.08550366,0.107269555,-0.14273724,-0.04787624,0.25309828,0.18151608,0.2857371,-0.19529922,-0.10227406,-0.12585197,0.015670255,-0.21296835,-0.5140053,0.269385,0.33667457,-1.2633203,-0.4172901,0.034186378,0.04146167,-0.26870233,-0.13230813,-0.054872304,-0.064455226,-0.070837855,0.120204285,-0.018502325,-0.050930627,-0.13848859,-0.00011859834,0.115834996,0.23359519,0.3201869,0.23729165,-0.27250993,0.31331563,-0.06986301,0.054313827,-0.10079184,-0.043860063,0.1940849,-0.44034126,0.03498394,0.3802538,0.50401497,-0.66438925,-0.27342188,-0.21893707,-0.4763063,0.07619262,0.51281977,-0.16522096,-0.13009548,-0.00475166,0.8084377,-0.40587902,-0.5529261,0.37517968,0.14348857,-0.48365894,0.24444324,1.1143146,-0.031761453,-0.35733247,0.6616075,0.25950354,0.2078327,-0.05495865,-0.60522664,-0.28106585,0.11170636,-0.32493374,0.23363763,-0.46710628,0.38022158,0.17106403,0.32124045,-0.21259925,0.058361284,-0.01839749,0.26619554,0.19593434,0.40449628,-0.49381447,-0.2433284,-0.14351818,-0.19179082,-0.2622537,0.07279904,-0.08988157,-0.31754965,-0.0055997074,0.03611812,0.16654465,0.06193739,-0.027386136,-0.11782186,0.24352494,0.8342736,-0.029293627,0.17281193,0.29085508,-0.22035578,0.8949384,0.31866014,0.087599605,-0.101359814,0.5621887,0.13123876,0.3746153,0.40983135,0.11581894,-0.28015864,-0.0070287287,-0.0070693344,0.35165167,-0.1710621,-0.38739645,-0.33327615,0.11242675,0.6721816,0.3580998,0.27752632,0.087121256,-0.100370646,0.03535385,-1.350616,0.2683202,-0.027319247,0.20666195,0.038813174,0.12890802,0.44356406,0.2572787,-0.14761575,0.23970479,0.90195656,0.24937087,0.0023390874,0.45495826,-0.22104056,0.07566466,-0.4535091,-0.074501805,0.19680114,0.58004767,-0.15206376,0.16905537,0.73454434,0.28206116,0.12612371,-0.008362941,0.80920297,-0.3204304,0.0012645125,0.46620777,0.57926023,0.37545234,-0.089893736,0.8576718,0.49522755,1.4354113,-0.16218461,-0.057551317,0.00021326542,-0.06507161,0.11411173,0.15531489,0.11513288,-0.1872698,-0.2400366,-0.2124843,-0.22145596,-0.30306137,-0.36808884,-0.03555154,0.34423405,-0.29042193,0.12360252,-0.011758685,0.22432828,0.043727342,-0.24152778,-0.22013694,-0.32762307,-0.0023082271,-0.6519993,0.15978016,0.07363613,0.28138697,-0.16332881,-0.46319616,0.18349463,-0.10865914,-0.32686722,-0.45509818,-0.19805688,0.2783901,-0.26779422,-0.071172714,-1.1640601,-0.13464683,0.2739157,1.4525286,0.2598589,0.07917732,-0.25112182,0.16835749,-0.1903374,-0.2491683,-0.015161019,0.23789808,-0.18101445,0.23229158,-0.56453264,0.006241411,0.7858553,-0.13916449,-0.11512546,-0.14070892,0.042314127,-1.1533462,-0.13657117,-0.41055363,0.12191659,-0.23233965,0.024840191,-0.096537255,-0.26360092,1.4488398,0.49368453,0.14376545,-0.030571692,0.1192334,-0.3066441,0.14674264,-0.09987806,-0.12485934,0.06181696,0.038495123,0.7889277,0.033399254,0.33447307,-0.447739,0.21072432,-0.22175114,-0.42085618,-0.11184869,-0.23195624,-0.22048095,-0.12963569,0.16710344,-0.23563284,-0.31845668,0.007056877,-0.16199747,0.11397104,-0.41064763,-0.13311897,-0.15238106,-0.3849965,-0.38342306,0.66269404,-0.6517473,-0.21566232,-0.026670214,0.053536415,0.08017282,-2.6624062,0.012379212,0.18229173,-0.17080587,0.66744995,-0.011138849,-0.19078422,-0.25612587,-0.35197857,-0.09300764,-0.33513978,-0.09309232,-0.027484,0.18071958,0.03395282,0.3314732,0.433047,-0.19832087,-0.10683634,-0.20247337,-0.28059003,0.066545576,-0.3242205,0.052718595,0.08893654,0.08360478,-0.04276289,0.10043689,0.18727481,-0.36037645,-0.5632844,-0.20624745,0.09596635,-0.23900983,0.4010344,-0.86318845,0.14617889,-0.39276165,0.29192233,-0.37006205,-0.22318992,-0.4265797,0.22972512,-0.010696813,0.18741047,-0.5105436,0.15281102,0.06644103,-0.19434048,0.13186991,0.6385072,-0.19826655,0.2615552,-0.52777374,-0.22663662,-0.15790957,0.019239645,-0.0049962774,-0.2393407,0.09747452,0.09323095,0.24214755,0.40376717,0.1434099,0.40840834,-0.3014378,-0.37115526,-0.0015268773,-0.16126738,-0.13102299,-0.26357335,-0.0243951,0.10594021,0.18334132,0.09506819,0.09628224,0.56411016,0.53461844,-0.13623095,0.019307084,-0.2745626,0.24871,0.08915579,-0.25278348
Asia_30.png,-0.56821215,0.42749244,-0.25670946,0.26336384,0.43809813,-0.28270537,0.19035181,0.22596633,-0.017619371,-0.10147689,0.7583095,-0.29892862,0.98785865,-0.27599734,0.26030985,-0.088261455,0.103005834,-0.13025624,0.35798216,-0.073421985,-1.9110774,0.062588185,-0.3490297,-0.64440423,-0.32930276,0.1520685,-0.29749474,-0.2891295,-0.24834996,0.5110381,-0.91964924,-0.35841748,0.28587353,-0.09025264,0.046703137,-0.15662944,-0.40749437,-0.36156386,0.4146573,-0.24116263,0.12483697,0.2141113,0.09154139,-0.17388363,-0.22169834,-0.5176757,-0.32646507,-0.011331588,0.21737573,-0.015495807,0.054543227,0.3328527,-0.54901266,-0.14493272,-0.09045346,-0.0347881,0.33201408,0.1888603,0.5472338,0.13488314,-0.4902649,-0.14873926,-0.0030726362,0.14434282,-0.48310837,-0.47066507,-0.48020637,0.6028739,-0.21555324,-0.065512866,-0.62776005,-0.17140053,-0.53422946,-0.11803951,-0.76637167,0.13412172,-0.2595078,-0.73536325,0.09722073,0.032704383,0.24092731,-0.33871618,0.12086776,0.2258097,0.23490283,0.3629169,-0.947539,-0.394655,0.8496443,0.2638119,0.2504752,0.00072475336,-5.6937375,0.42451298,0.039147362,0.19309458,0.11304242,0.5062424,0.10198741,0.13850497,-0.27270862,0.33279413,-0.639719,0.20977896,-0.10094597,-0.089842096,-0.5588906,0.15129414,0.14233644,-0.3277559,0.12056391,-0.1987252,-0.032943815,-0.057597607,0.18715785,-0.22004446,0.2600034,0.37040353,0.3730247,-0.9851736,0.24534751,0.80037373,0.035292182,-0.008240476,-0.14479591,0.45505577,-0.015529364,0.1531008,-0.43158346,0.65337753,-0.42194968,-0.18652406,0.6094711,0.8103001,0.38314575,-0.2256966,-0.30374166,0.22755012,0.3658769,0.32390994,-0.1257261,-0.04144852,-0.035121124,-0.08371447,-0.27372375,-0.10662401,0.27998644,-0.10012443,-0.16910423,0.10375285,0.089981906,0.16572085,0.21791822,-0.07661444,-0.43802828,-0.2440741,0.15925129,-0.16188714,-0.26745752,0.29495627,0.23008047,-0.13907914,0.19761497,-0.11770275,0.08174695,0.36410463,0.37920126,0.1066307,-0.46942347,-0.5346316,0.0119950175,0.17543492,-0.28621805,-0.39385337,0.27037027,0.4734339,-1.2168584,-0.11328451,0.24340235,0.099399045,-0.17230915,-0.3796505,0.03204101,-0.39948744,0.11056423,0.06948507,0.063408226,0.3980102,-0.0701153,-0.08108335,0.24779974,0.29400778,0.15609097,0.24429718,-0.08239126,0.35149932,-0.015667178,-0.3534135,-0.30934983,0.052013166,0.056841314,0.17047423,0.38848326,0.40639612,0.256942,-0.025566146,-0.29205108,-0.18361002,-0.27582705,0.2434864,0.09209702,0.3846016,-0.2721656,-0.42278445,0.62229466,-0.539536,-0.20442897,0.3692957,0.38236943,-0.35096171,-0.07125839,1.003107,-0.21231806,-0.3527987,0.4788282,0.33897728,0.1315661,-0.117043726,-0.19038346,-0.43957603,-0.29193076,-0.08131118,0.22693503,-0.55179834,0.13810375,0.70211315,0.19038863,0.030365812,0.19366114,-0.21832371,0.0012919903,0.062231034,0.5867641,-0.28132302,-0.41217935,-0.3356918,0.042459212,-0.26615086,0.018117532,-0.21979384,0.035787374,-0.49819237,-0.14341798,0.260792,0.26916638,-0.16107166,-0.09691606,0.33092344,0.66289073,-0.09223971,-0.100643806,-0.0054722056,-0.5840623,0.124106765,0.12803242,0.45918706,-0.1545966,0.3530593,0.25513816,0.43058968,0.32558447,-0.00039578974,-0.24267697,-0.1769425,-0.04534197,0.23332278,-0.2787606,-0.5521383,-0.1209425,-0.4389342,0.3971081,0.4044022,0.5601904,0.02322068,0.004202239,0.3425172,-0.87656504,0.020272478,-0.12707303,0.09977862,0.13645637,-0.09864223,0.55992603,0.10145216,-0.06858538,0.13167857,0.6110571,0.08650915,0.27322298,0.2893893,-0.24675526,-0.22378239,-0.33892354,0.36473656,0.401856,0.13566229,0.049240164,0.45256028,0.22993027,0.46978807,-0.08342592,0.11235286,0.80874324,-0.056491956,0.39977387,0.5687824,0.46098322,0.5483271,-0.058987185,0.19827372,0.2556144,1.8427882,-0.35383838,-0.023609765,0.017460123,-0.037981898,0.28964204,-0.10505791,0.17784825,-0.2487355,-0.22534123,0.02510845,-0.13763846,-0.4821873,-0.15407033,0.29513124,0.40430242,0.13554132,0.44167972,-0.089575104,0.59365815,0.3074239,-0.030182406,-0.18901475,-0.2804757,0.25774384,-0.75768816,0.18895331,-0.11950478,0.15464236,-0.45553076,-0.2856695,0.43684286,-0.0043738633,0.15647668,-0.5697446,-0.3554833,-0.058812603,-0.2473167,0.10015394,-1.1300548,0.024207368,0.034020588,1.6064479,-0.41398907,0.17028926,-0.26559055,0.19925366,0.30722842,-0.25754324,-0.3851303,0.24373351,-0.15628955,0.06220345,-0.5091325,-0.028544433,0.70740914,0.20693758,0.27761748,-0.077626914,0.20808563,-1.0950773,-0.304756,-1.0084603,0.30881995,-0.01803495,0.057100564,-0.061625447,-0.4044322,1.6722054,0.76915073,0.16335052,-0.0040101763,0.041226037,-0.025490995,0.0022467133,-0.55623424,-0.37796426,0.50540185,-0.61510223,0.39367944,0.14418317,0.28893438,-0.5012772,-0.07961722,-0.066679284,-0.403589,-0.21912,0.01460804,-0.14636588,0.04934219,0.13222896,-0.019850448,-0.40202367,0.24244645,-0.3932914,-0.31825456,-0.641428,-0.26133138,-0.23683852,-0.2960439,-0.12020254,0.3509496,0.062532574,-0.36665502,-0.1698077,0.12372148,-0.5311762,-1.3067571,0.124981195,0.37092775,0.10443585,1.0585028,-0.18266273,0.08529965,-0.3690769,-0.25505236,-0.043317486,-0.088965274,0.3471883,-0.015709266,-0.00021110661,-0.007393673,0.1956783,0.18529049,-0.4135689,-0.124158286,-0.052348502,-0.1496776,0.24909873,-0.17090628,0.50488055,-0.05796574,-0.17343824,-0.45506102,0.37181246,0.0062885433,-0.20332868,-0.5133514,-0.43552145,0.14259979,-0.3065677,0.3321833,-0.5321828,0.030799419,-0.19136322,0.23959611,-0.09477436,-0.39845294,-0.42380658,0.09465,-0.07229452,-0.17998344,-0.69051576,-0.022089392,0.17172319,-0.31357533,0.25857988,0.6898511,-0.2624009,0.33545595,-0.7732272,-0.11823756,0.17097002,-0.002382815,0.06250925,-0.21735555,0.57959443,0.24192175,0.045498624,0.19597803,0.16642492,0.16359697,-0.49825102,-0.08082241,0.05007933,0.031718746,0.15198818,-0.30355847,-0.07424037,0.31581497,-0.110018335,-0.013287336,-0.058320694,0.3766865,0.6909503,0.039495446,0.18261215,-0.123843126,0.2063551,-0.1606363,-0.4667409
Asia_32.png,-0.046723202,0.51256067,-0.47995293,0.23745011,-0.23256388,-0.2041112,0.003086621,0.20223159,0.15563302,0.09392917,0.36632633,0.06265965,0.3476308,-0.3751579,0.29467157,-0.1299236,-0.11336823,-0.027969383,-0.012890752,0.005055979,-1.9293225,0.14499018,-0.293194,-0.12188867,0.18176797,0.27743065,0.016136192,-0.41361552,-0.15143389,0.4357131,-0.7707083,-0.17613176,-0.15387878,0.09553188,-0.18224166,-0.0331043,-0.5818872,0.13617653,0.35226363,0.21499641,-0.042582378,0.18708372,-0.024711479,-0.1561971,0.11828249,-0.3210637,-0.30609974,-0.0073653758,0.15080647,0.10640792,0.03977555,0.07218961,-0.016883045,-0.12583435,-0.060996562,0.17857362,0.43819872,-0.09005475,0.3875861,0.13044456,-0.40852654,-0.1611164,0.04602951,0.2118945,-0.34890237,-0.52031904,-0.19851804,0.9438049,-0.06801032,-0.42169556,-0.84252363,-0.06914546,-0.47442937,-0.060275726,-0.3431142,-0.081401035,-0.24889725,-0.487997,-0.04048138,-0.21662503,0.45956847,-0.4479663,0.2522745,0.3714863,0.64778006,0.16724679,-0.02946797,-0.3475513,0.3581999,0.23806216,0.31710958,-0.05615426,-6.3343544,0.20868012,-0.06186847,-0.22928065,-0.06712149,0.13842772,0.09637417,0.20023957,0.12986049,0.29173374,-0.5513407,-0.007631317,-0.16963041,0.08172311,-0.5337255,0.2092992,0.20572524,-0.21937427,0.20370962,-0.20809653,-0.07702339,-0.08344312,0.29873917,-0.20078595,0.63837427,-0.13038713,0.23241426,-0.78021073,0.03283809,0.85854846,-0.11271852,-0.30652454,-0.03883775,0.42541015,-0.059051096,0.22950584,0.09539743,0.63167286,0.10161582,-0.21497169,0.53555626,0.85284054,0.13903758,-0.27311593,-0.3611496,0.12594962,0.26870343,0.3269105,0.019750211,0.0064961314,0.3900017,-0.23553462,-0.23943947,0.26186362,0.054632314,0.09272835,0.026303988,-0.0723245,0.027067639,0.12710683,0.13346294,-0.062258035,-0.5107646,0.092483744,0.52687514,-0.20116907,-0.49897143,0.19109318,0.18463105,-0.28072047,-0.092214614,0.06290853,-0.08316859,0.38233292,0.28042108,0.23177278,-0.23868087,-0.40561044,0.0008633584,-0.19423777,-0.35422373,-0.5904813,0.27744514,0.25700393,-1.4120046,-0.21091199,0.108921684,0.012180006,-0.4995773,-0.33648816,-0.017481195,0.15429531,0.20493071,0.34952098,-0.17870793,0.22466582,0.35591736,0.01167769,0.04083012,0.5274185,0.28876752,0.21448228,-0.30355585,0.64869964,-0.1873929,-0.37065336,-0.19989416,0.3761081,-0.15865324,-0.087182306,0.33908188,0.21524152,0.48443043,-0.14538376,-0.19479975,0.005054936,-0.6458134,0.31123048,0.113447994,0.7119512,-0.21193412,-0.27998334,0.74790984,-0.37265277,-0.5397441,0.064368166,0.22150886,-0.20374584,0.48225778,0.689729,-0.11139677,-0.72897243,0.47199592,0.4574738,0.24577667,0.09101249,-0.44073543,-0.57774544,0.105064295,-0.0069635212,0.16815457,-0.26235205,0.22839084,0.40822643,0.39938876,0.06666848,0.04706576,-0.041103773,-0.23132485,0.017082006,0.6091975,-0.5789482,-0.5569197,-0.5006953,-0.027720613,0.13432881,-0.28919727,-0.075139895,-0.49705145,-0.18768862,-0.072263286,0.048714943,-0.1505476,-0.013315007,-0.0112149045,0.2775026,0.48604468,0.19068815,-0.14122766,0.028421625,-0.4844513,0.15165138,0.31528628,0.34093425,-0.022890024,0.33792078,0.21616274,0.41770715,0.5958169,0.0391955,-0.5789566,0.054711327,-0.31384873,0.3137607,-0.46113095,-0.06465739,-0.058833383,-0.20322415,0.94127697,0.26791555,0.5756763,0.16394258,-0.0163018,0.09241828,-1.4379379,-0.35577697,0.0107799135,-0.16057903,0.30896017,-0.07556684,0.2804609,0.057452384,-0.20390055,0.34644592,0.3195014,-0.1208878,-0.21435341,0.17458369,-0.45310065,-0.11379422,-0.45094317,-0.062515594,0.36981788,0.073053256,-0.19186996,0.32088935,0.57689613,0.33531502,-0.005117491,0.11202778,0.85261977,-0.43660834,-0.2497634,0.46615028,0.5127958,0.66871595,0.16533013,0.27508414,0.16940388,1.7112615,-0.37189886,-0.08106963,0.039420377,-0.20775256,0.3769443,-0.451128,-0.04772381,-0.067176975,-0.24823108,-0.2031304,0.23913158,-0.2429482,-0.036240533,0.20193788,0.73347735,-0.0639997,0.088538885,0.054434672,0.22521219,0.102305844,-0.10182527,-0.2680539,-0.036208376,0.18282996,-0.52043736,0.4453334,0.04512253,0.37920305,-0.14741884,-0.03408062,0.18202835,-0.2967921,-0.12553647,-0.122662336,-0.1010574,0.20252565,0.019553326,-0.2537973,-1.2890459,0.051224142,0.115158044,1.3835973,-0.84225106,-0.15241265,-0.34345755,0.7701607,0.26216602,-0.28375113,0.13916992,0.29976147,-0.2645386,0.037296236,-0.5985964,-0.14485975,0.81796545,0.08994311,-0.13073763,-0.2680327,-0.12565666,-1.025021,-0.1463351,-0.46254274,0.26325336,-0.3415659,-0.08781551,-0.25444603,-0.16212267,1.2080965,0.2723571,-0.14461935,-0.15321437,0.13401136,-0.31678998,-0.14993373,-0.20746356,-0.037184678,0.2604717,-0.36463162,0.6453018,0.36868876,0.67409325,-0.6083128,0.30899295,-0.41574496,-0.3482211,0.15792647,0.17214626,-0.07680674,-0.11164318,0.11022937,-0.24024796,-0.27004492,0.05715602,-0.18490005,0.09942758,-0.30629602,-0.3917057,-0.034878403,-0.48489755,-0.44729984,0.33762026,-0.3183214,-0.45680022,-0.33975255,0.13930339,0.1542409,-1.5876802,0.082043335,-0.20208867,0.16972804,0.9545891,-0.42287698,0.16234568,-0.37005424,-0.5807409,0.077859335,-0.24111775,0.18933056,-0.11884704,0.15566127,-0.12139051,0.33594215,0.2210176,-0.27146655,-0.07886435,-0.3497213,0.10293998,0.18516222,-0.037462853,0.06096673,-0.15880954,0.02146031,-0.062173232,0.2684816,0.07834887,-0.19220494,-0.33775824,-0.56564075,-0.09444422,-0.35934895,-0.009186643,-0.56457746,0.33170912,-0.15177879,0.17261298,-0.07965838,-0.3326046,-0.044776965,0.332067,0.030145645,-0.07781803,-0.50067997,0.56215954,-0.12194999,-0.342136,0.2113519,0.7118643,-0.004865527,0.48058063,-0.5107411,-0.21110785,0.029984668,0.13974571,-0.22380964,-0.25416243,0.33581647,0.004013799,0.092316,0.6128227,-0.043663636,0.3255139,-0.3687166,-0.1565279,-0.12272076,-0.040789127,0.3063978,-0.08946839,0.19617188,0.28534958,-0.013378844,0.26801997,-0.16809574,0.7468115,0.31752023,-0.018886015,0.041430473,-0.13132806,0.16625202,-0.21783292,-0.58489555
Asia_41.png,-0.41673052,0.50019705,-0.13361526,0.39197975,0.122042924,-0.049760364,0.035412565,0.017271876,-0.1494714,0.21470779,0.7781286,-0.24546403,1.0931377,-0.08571646,0.01836191,-0.40623385,0.2060827,-0.49449196,0.29907465,-0.051087126,-1.9344592,0.100569576,-0.10481708,-0.38899904,-0.19742864,0.25484303,-0.01800841,0.080194674,-0.185128,0.5236468,-0.8116325,0.31646565,0.008844197,0.22455584,-0.016805984,-0.26524612,-0.3658909,0.032599166,0.03116323,0.7055502,-0.12281477,0.4664936,0.055587582,-0.07300967,-0.07220631,-0.6648524,-0.20373353,0.0011315048,0.119490966,0.29187506,-0.17558078,0.10247495,-0.39609995,-0.043900788,-0.17139095,0.19474663,0.45707464,0.08227115,0.5097745,0.18124303,-0.62387997,-0.30326933,-0.26223433,0.0031300932,-0.2931378,-0.63118875,-0.2736348,0.99431264,-0.028430484,-0.16742943,-0.59662956,-0.092066094,-0.48053214,-0.1445809,-0.53171945,0.020090766,-0.33630097,-0.51998323,-0.13784412,-0.14549722,0.08455765,-0.24466598,0.27299708,0.37144482,0.5009752,0.37321162,-0.6037351,-0.33867395,0.6464933,0.39388323,0.46825016,-0.029214004,-6.27372,0.06790092,-0.1534945,0.15266329,-0.0024553388,0.3959894,0.04747563,0.19685909,-0.22584103,0.2546873,-0.7214814,0.051931087,0.04338293,0.0006973874,-0.383267,0.25398934,0.09778051,-0.31587273,0.25207895,-0.33535177,-0.175307,0.35368705,-0.03943619,-0.26116753,0.5657016,0.084420346,0.4659857,-0.8748418,0.454687,0.7390842,-0.27113116,0.10188205,0.14143486,0.25132722,-0.11107974,0.25184008,-0.1348267,0.47568876,-0.19384716,-0.34597677,0.4785179,0.8246928,0.470442,-0.2229486,-0.26335567,0.38390547,0.24307445,0.25419062,-0.15940738,0.11877297,0.051469557,-0.07808837,-0.029495016,-0.0024540722,0.13885203,-0.059590835,-0.1748317,0.18172815,0.05583243,0.07521352,0.17856021,-0.19482037,-0.6897392,-0.05599326,0.13272941,-0.105811544,-0.3988625,0.22388008,0.16131195,-0.2332472,-0.10209444,-0.026151612,-0.15986302,-0.16004917,0.26541883,0.39498305,-0.39379162,-0.23363641,-0.07363937,0.1597693,-0.11520124,-0.819951,0.60151255,0.6118202,-1.2487358,-0.2947833,-0.17437844,-0.01439243,-0.004578203,-0.0052731186,0.04711616,-0.29592273,-0.026873268,0.031255,0.03512275,0.36138728,0.017112881,0.21184415,0.2781689,0.3409056,0.3211346,0.23016676,-0.12749237,0.67003316,-0.024506733,-0.11985256,-0.079112254,0.061506666,-0.2436276,-0.10990328,-0.10189335,0.6575508,0.16305235,-0.13132803,-0.35249877,-0.35455325,-0.39606547,-0.05306405,0.035206877,0.35392952,0.059694506,-0.2075594,0.47938916,-0.3894262,-0.38454342,0.4878006,0.42828792,-0.5699426,0.3080768,0.9624047,0.11150972,-0.20006442,0.29772434,0.15743108,0.077181436,-0.32078838,-0.4945175,-0.37180433,-0.058136344,-0.07765949,0.75084037,-0.3123588,0.1779412,0.43542013,0.10448358,-0.24759841,0.2883414,0.19369724,-0.024212323,0.002190318,0.32021633,-0.41504455,-0.18627778,-0.0017618947,-0.1341998,-0.22979805,0.060240217,-0.35487822,-0.11601089,-0.46223825,-0.048032753,0.16642855,0.14620122,-0.2159555,0.0576628,0.141123,0.62447923,-0.008786514,-0.15693206,-0.09154938,-0.32413366,0.37616527,0.118459046,0.3816858,-0.054909267,0.1277775,0.17822719,0.1660955,0.36942267,0.018051684,-0.19098642,0.13698216,-0.1520536,-0.03558231,-0.123740345,-0.6816543,-0.09660657,-0.37489048,0.7950542,0.05747138,0.46812427,0.07124825,-0.42602533,0.4713517,-0.59498,-0.27671868,-0.47776335,-0.04578978,0.40492094,0.12960185,0.5238151,-0.022946,-0.10523339,0.10270454,1.0393564,-0.106610596,0.20458353,0.3995489,-0.21558334,-0.39461052,-0.23156011,0.59719414,0.4290746,0.041620426,-0.37897766,0.3462614,0.54803467,0.043829188,-0.08507874,0.03423968,0.8236834,-0.10902506,0.26822913,0.5639938,0.6719011,0.46659234,0.08000355,0.30979237,-0.1857959,1.8048134,-0.27879182,-0.26417726,-0.07122759,-0.11385166,0.44045347,-0.4117309,0.12938195,-0.18680872,-0.21918535,0.05379416,0.046235137,-0.37891185,-0.18016419,0.2515094,0.33392125,-0.07345534,0.4977414,-0.050085858,0.5284225,0.36275345,-0.11404688,-0.03714692,-0.07919471,0.51241803,-0.7557334,0.25884104,0.0669557,0.2552543,-0.21783197,-0.28007382,0.22667491,-0.40290874,0.055369303,-0.3554377,-0.28061026,0.25324684,-0.2190698,0.028033257,-1.1556113,-0.086909145,-0.28380334,1.8811032,-0.7424732,0.025684478,-0.27359062,0.31815502,0.17509556,-0.31853792,-0.31935534,0.13724701,-0.0064946935,0.17607978,-0.5965164,-0.3824102,0.66017926,0.015871882,-0.3264504,-0.53218377,0.037663184,-0.98360544,-0.19334309,-0.42558953,0.23504892,-0.5428255,0.090689614,0.095118955,-0.22794637,1.6243224,0.58942425,-0.0155766755,0.13286074,-0.12206294,-0.024795197,-0.2648276,-0.45060182,-0.1036211,0.14468622,-0.7536372,0.65074,-0.079081714,0.37722886,-0.5115844,0.1029558,-0.028453976,-0.1807417,-0.18079,0.4288071,-0.04219371,0.061273888,0.025166426,-0.09705238,-0.312315,0.12377478,-0.44755912,-0.20177796,-0.24862988,-0.30363283,-0.19524056,-0.20816132,-0.20820627,0.42171085,0.25307193,-0.660836,-0.4659438,0.049263015,-0.46758008,-0.8754176,0.114627115,0.101579964,0.257921,0.7725136,-0.20256574,0.3231985,-0.31015575,-0.105532065,0.026573054,-0.29535237,0.16537082,-0.06344403,0.085369304,0.04624234,-0.15521032,0.16489378,-0.52712977,0.00277628,-0.3658461,-0.29738468,0.27039498,-0.49542361,0.4678188,-0.28498784,-0.045289837,-0.23488532,0.21469079,0.17162186,-0.123928994,-0.34990454,-0.35070726,0.27883685,-0.38383824,0.47917974,-0.5902036,-0.13290662,-0.1866649,0.24777643,0.24188519,-0.31876785,-0.6963325,0.4018581,-0.08055737,-0.022578008,-0.3416109,-0.088801965,-0.12887374,-0.10208919,0.5552388,0.47059423,-0.24199721,-0.047720194,-0.67008805,-0.19997522,0.32811263,0.09865599,-0.19906506,-0.46850187,0.3736223,0.09844477,0.15450463,0.2771079,0.06420341,0.2529226,-0.25476718,-0.14108478,-0.03514661,-0.006505374,0.27647394,-0.3018361,-0.2693718,0.00284167,0.3540982,0.055464327,-0.12443193,0.909093,0.32382807,-0.14299694,0.23946165,-0.23591942,0.43230554,-0.26988488,-0.21286082
Asia_42.png,-0.6203589,0.5109603,0.013097484,0.28373164,-0.053647757,-0.05292736,-0.026249494,0.22134775,0.081471734,0.36518958,0.6975795,-0.33251783,0.78434384,-0.2686918,0.05433351,-0.10772184,0.06463666,-0.05326855,-0.04254572,-0.18489142,-2.5039911,-0.03685373,-0.16595532,-0.37589878,0.19796926,0.14258437,-0.100697696,-0.016604524,-0.3791084,0.39998603,-0.72422075,-0.23949197,-0.044306707,0.07606106,-0.021488987,-0.19744015,-0.6168021,0.18493238,0.13264744,0.91594756,-0.12012866,0.16376719,0.053249545,0.015096709,-0.34057355,-0.4879717,-0.104703456,0.23930812,0.32988888,0.5125478,0.004141733,-0.07627685,-0.29147813,-0.14061563,-0.22719553,0.2291705,0.18995863,0.11890555,0.35399348,-0.16157982,-0.4767064,-0.14084086,0.038208682,-0.012254301,-0.1617353,-0.39659446,-0.36475325,1.1562943,0.12353134,-0.029173095,-0.47615176,-0.2563503,-0.58911705,0.23696826,-0.5612895,-0.18729973,-0.13061468,-0.55853325,-0.116299,-0.097656,0.057763785,-0.49332085,0.22670314,0.46490887,-0.009229869,0.19075096,-0.12506339,-0.20775378,0.3761904,0.16411294,0.24462692,-0.31710362,-5.648248,0.12458304,-0.11643416,0.13778204,-0.295825,0.23111019,-0.5491325,0.30544275,-0.10103151,0.16636023,-0.59234464,0.03454136,-0.15644312,0.08238319,-0.556645,0.08739194,0.049912095,-0.33950877,0.21658616,-0.11776726,-0.1880613,0.12274864,0.08227114,-0.29476058,0.2906674,-0.092674986,0.24485855,-0.79855406,0.22714163,0.6453233,-0.047371082,-0.013279453,-0.14203253,0.42488527,0.24643904,0.10122317,-0.50975317,0.652998,-0.05191339,-0.23406738,0.4078064,0.77976143,0.39599103,-0.04561305,-0.09099142,-0.1311914,0.061686996,0.47836173,-0.1746155,-0.117340356,0.1957002,-0.22500485,-0.21392311,0.13946185,0.06802189,-0.1752129,0.014998202,0.08432289,-0.13075985,0.15072861,0.009884581,0.122516096,-0.52399886,-0.14914092,0.33922246,-0.42967772,-0.48843408,-0.010278512,0.10405968,-0.0036853775,-0.17602313,-0.14215651,-0.38465214,0.14229609,0.106005505,0.44459093,-0.36577788,-0.004442118,-0.1719593,0.057513177,-0.3546945,-0.27929658,0.15093796,0.49306405,-1.3587552,-0.47064248,0.36356848,-0.07129132,-0.3433182,-0.4299146,0.037685953,-0.032244474,-0.27056184,0.25156203,-0.07667495,0.3036431,-0.06873649,-0.20272268,0.19933581,0.38224837,-0.066238225,0.28298855,0.07137516,0.60786265,-0.20963575,-0.03580365,-0.05851984,0.17091279,0.3099401,-0.121578425,0.27722815,0.12013286,0.36091512,-0.721956,-0.3268188,-0.013657704,-0.40873793,0.44179207,0.25920758,0.57624114,0.049307525,-0.21633735,0.59934115,-0.39117232,-0.36890852,0.61591804,0.08164776,-0.50033265,0.5908532,0.79914916,-0.14317606,-0.6292474,0.297888,0.2265501,0.14496434,-0.26774642,-0.16579467,-0.4343801,-0.08121536,-0.048652664,0.24312273,-0.40966034,0.12858778,0.50369626,0.25747675,-0.3021088,-0.2791701,0.0011670217,0.1347257,0.21854982,0.49291158,-0.5077029,-0.62163377,-0.45864904,-0.046473887,-0.25019753,-0.056226633,-0.339181,-0.22325666,-0.13383919,-0.22195491,0.6360109,-0.12968802,0.20503834,-0.0351737,0.2094003,0.86950994,0.20415151,-0.08197173,0.033217028,-0.27690965,0.3838955,-0.045768704,0.24433182,-0.19441256,0.19906464,0.449899,0.27316487,0.53927904,-0.25227314,-0.20966786,0.12465365,-0.38559723,0.112635136,-0.19453381,-0.6696098,-0.2973431,0.0324597,0.63329124,0.40342727,0.32290325,0.16421834,-0.14105466,0.13903642,-0.73238534,-0.26723254,-0.0048324913,0.075576335,0.536332,-0.060852483,0.61526805,0.20536262,-0.23449221,0.14304861,0.67842275,0.17923087,0.20803043,0.12689228,-0.12588029,-0.5410159,-0.3611787,0.11731666,0.40683264,0.3446079,-0.45407712,0.42564806,0.4477906,0.03745553,0.052438274,0.24771938,0.7791625,-0.28707132,0.12774691,0.43183064,0.68061674,0.5667438,0.014861308,0.41837025,0.2069014,1.877346,-0.38669097,0.056851164,0.15451574,0.13076219,0.46258003,-0.24849935,0.27445337,-0.23303962,-0.22550389,-0.4113611,-0.13062964,-0.6692226,-0.31355762,0.027859448,0.37168857,0.11445777,0.3338094,0.14324704,0.3379997,-0.10120708,-0.19368969,-0.043416128,0.04614929,0.310343,-0.96046364,0.20217822,0.084250025,0.4445609,-0.17046201,-0.40382105,0.37277323,-0.25957087,-0.08948989,-0.1957111,-0.07539203,0.33200893,-0.24951337,0.06144267,-0.6861939,-0.034220725,0.37535405,1.2282895,-0.07798919,0.15519473,-0.2894644,0.17537887,0.12838295,-0.5122861,-0.10476763,0.14471546,0.15874904,-0.009578561,-0.7476734,-0.37084922,0.534828,-0.047850586,-0.24319434,-0.368426,-0.3307624,-1.0101275,-0.19969219,-0.3691153,-0.068766885,-0.28297004,0.23590474,-0.0135888085,0.019210398,1.5870273,0.32857975,-0.006501168,-0.06510951,0.09843741,-0.1538206,0.0648427,-0.52055717,0.027006164,0.4105242,-0.44067723,0.59246504,0.15388596,0.65981567,-0.5135486,0.15867172,-0.22965564,-0.49911907,-0.07864815,0.42026794,-0.12883508,-0.09747899,-0.18974327,-0.17165676,-0.26171684,-0.2248703,-0.22339666,0.036636382,-0.23464477,-0.35413116,-0.5231732,-0.1454654,-0.49872646,0.7577536,-0.21574451,-0.20345266,-0.12841287,-0.25072265,-0.10132083,-1.9603306,0.111540504,0.20613459,0.063510485,0.9405892,-0.15714577,0.4084474,-0.45458144,-0.36995655,0.20262,-0.25818402,0.41584674,0.017100193,0.01104597,0.07171344,-0.08424403,0.57086366,-0.059436448,-0.16792588,-0.3760789,0.042384535,0.14335322,-0.29493877,0.47299692,-0.043238662,-0.0014801174,-0.3303422,0.29728514,-0.1515231,-0.062469065,-0.36342284,-0.3996605,-0.16482043,-0.36770666,0.39665583,-0.49209064,-0.0028547496,-0.19750446,0.1979077,-0.020970425,-0.5900224,-0.28369913,0.16869935,-0.0452813,-0.12485473,-0.46022934,-0.09910214,-0.17804365,-0.061036654,0.33462003,0.7760328,-0.09367832,-0.18332818,-0.61853594,-0.15818383,0.08840627,0.26540667,-0.030024223,-0.27794385,0.42339206,0.011677317,0.06779756,0.43744537,0.13571472,0.34302357,-0.3161733,-0.043165892,-0.05842448,-0.06112867,0.09319456,-0.017809622,-0.05528733,-0.09819776,0.2787732,0.16871843,0.14059915,0.64567983,0.31537458,0.25205752,0.061544225,-0.4340268,0.30998528,0.109712765,-0.19083858
Asia_44.png,-0.12175205,0.47674832,-0.29357022,0.38138905,0.14305192,-0.5228177,0.31007153,0.072435975,0.23715556,-0.0110207945,0.3730289,-0.4499803,0.74178976,-0.20871684,-0.073335946,-0.19110924,-0.46796498,0.014308991,-0.007146381,-0.005062178,-1.7012968,0.15913892,-0.117950305,-0.3532502,-0.010829546,0.07183142,0.08265413,-0.48868725,0.0703349,0.39637926,-0.9673095,0.07014383,-0.089894086,-0.15625343,-0.08152264,-0.2499797,-0.56155664,-0.23224545,0.20154837,-0.35131797,-0.1285359,0.18644746,0.42752326,-0.04072295,-0.26782495,0.39220273,-0.3556115,0.15176257,0.20230156,0.16507575,-0.15581086,0.23100673,-0.16006316,-0.19402266,-0.28804356,-0.26623428,0.33144867,-0.055903148,0.24417788,0.25048783,-0.7857714,0.21915236,0.14959088,0.22263815,-0.4737063,-0.2266792,-0.3906045,0.5487398,-0.2876955,-0.08533285,-0.66919136,0.18994552,-0.37007424,-0.058295894,-0.25649005,0.12508774,-0.31676918,-0.5275264,-0.1919959,0.060797084,0.410514,-0.40508303,-0.14993738,0.03896093,0.23027164,0.18302715,-0.9127693,-0.13409087,-0.07115084,0.010933805,0.25675943,-0.017826382,-5.5618563,0.070876524,-0.09736244,-0.2376812,-0.026046708,0.14846991,0.64665306,0.22218186,-0.18110695,0.12792581,-0.6413455,-0.10559522,-0.08579543,-0.1595961,-0.42988506,0.14189564,0.38814777,-0.40039286,0.44924876,-0.18942264,-0.24113789,-0.037236445,0.35527396,-0.042173013,0.19875798,0.0019124635,0.44347715,-0.6075083,0.083824396,0.7233571,-0.30039355,-0.030606352,-0.07003887,0.31088707,-0.27770698,0.17989281,-0.45485064,0.8288249,-0.079190925,-0.02608502,0.33420715,0.85316205,0.20608993,-0.17778918,-0.40772265,0.3624873,0.5119577,0.3456438,-0.011181761,0.05964032,0.093951955,-0.30057514,-0.39934897,-0.16262835,0.3035548,0.10087529,0.15291083,-0.2390491,-0.1850088,0.3479908,-0.33221877,-0.2670765,-0.3466265,-0.15690053,0.21520078,0.31948584,-0.14558089,0.38131425,0.30597857,-0.43852153,-0.120366946,0.50326955,0.12791578,0.3817731,0.47457495,0.030574061,-0.2837349,-0.5261762,0.09841822,-0.012020104,-0.39836985,-0.551436,0.27774066,-0.09155944,-1.7052445,-0.3046525,-0.14369038,0.19648264,0.029246062,-0.29252142,0.34925553,-0.43682596,0.13405278,0.100823686,-0.27477938,0.13824067,-0.104020655,-0.110137545,0.36574575,0.36559898,0.13933615,0.05264116,-0.0517357,0.1587074,-0.0486717,-0.7206342,-0.33458805,0.36522815,-0.40167618,-0.1303031,0.22257641,0.48881307,0.600104,-0.010478377,-0.53734297,-0.19906667,0.18002082,0.15243933,0.15207595,0.18381518,-0.302166,-0.067615606,0.3483577,-0.69808334,-0.7241119,0.15355706,0.5641068,-0.5009574,0.36027774,1.1387198,-0.16084,-0.5161276,0.60647476,0.28435883,0.18839538,-0.0223338,-0.3658414,-0.40903443,0.011083901,0.022479802,0.38875312,-0.18217531,0.102545574,0.76758444,0.6099905,-0.052860454,0.23636563,-0.09852649,-0.061490543,0.07999076,0.21925882,-0.08043298,-0.05125419,-0.35369593,-0.09043583,-0.26141775,0.060993943,0.008188829,-0.030060276,-0.5410309,0.060784437,0.100487664,0.30918825,0.04527642,-0.13688962,0.08734246,-0.3816381,0.3127332,0.17002286,-0.13553208,-0.7342229,-0.3617477,0.1585076,0.28255332,0.03347929,0.25752145,0.12076864,0.38579354,0.5935016,0.089520186,-0.26662138,0.13003923,0.16050653,0.15854351,-0.60240793,-0.12985525,0.121114716,-0.054444175,0.71216136,0.34853098,0.7471723,-0.045019705,-0.21972099,0.064737745,0.36815813,-0.15528479,0.22865513,0.22179732,0.27158973,0.0018933862,0.54021466,0.05053317,-0.03155046,0.28487208,0.27210057,0.03236158,0.048022375,0.16846088,-0.1539244,-0.12970805,-0.16135034,0.47874823,0.38508072,0.013345741,-0.22052965,0.41508222,0.65542287,0.04175107,-0.10523784,0.30230832,0.8513305,-0.11386056,0.032257825,0.7063775,0.26280046,0.7389019,0.09941906,0.30113205,0.5657018,2.0877998,0.080604754,0.044486966,0.3692867,0.0022010542,0.27079612,-0.1815568,0.20908968,-0.20252709,0.12084548,-0.029737957,-0.10533903,-0.06468452,0.2489832,0.003376618,0.26391277,0.0762392,0.27111268,-0.029752433,0.3254474,0.34833434,-0.078371376,0.11000344,0.108693466,0.08844221,-0.35766354,0.15865944,0.06633791,0.2589355,-0.2710144,0.09163724,0.2851765,-0.27061206,0.053780146,-0.15834287,-0.36094403,0.118885934,-0.021836236,0.109968364,-1.4298898,-0.009313241,-0.34103796,1.3898463,-0.9633917,-0.06030295,-0.44212186,0.7695174,0.7664762,-0.5108866,-0.14116739,0.48346782,-0.37329558,-0.1320524,0.024054289,-0.016392156,0.503803,0.18851393,0.06176102,-0.136641,0.14119601,-1.094608,-0.019563287,-0.3792597,0.5347816,-0.05209153,0.2237569,-0.11809119,-0.44992998,1.4608722,0.15213928,0.26111275,0.16172412,0.09460858,-0.3449845,0.013902813,-0.32232833,0.032846995,0.45964178,-0.35753903,0.4892966,0.13440159,0.51548743,-0.37229845,-0.058249608,-0.12598695,-0.06541066,0.123313114,-0.032132424,-0.182417,-0.010700449,0.11745546,-0.43635136,-0.45645994,0.20446314,-0.41342002,0.28979206,-0.40494478,-0.22986156,-0.12160556,-0.2468664,-0.13597955,0.5097743,0.19144423,-0.13031593,0.05125834,0.14478232,-0.16290134,-0.19463784,0.10469894,0.07576529,0.2279061,0.8672984,-0.42478478,-0.14355017,-0.052068423,-0.26172894,-0.10283478,0.109131336,0.058678016,0.11441778,-0.07681607,0.13050282,0.32777876,0.12808745,-0.35637897,0.31671703,-0.37633055,-0.20344177,0.2981795,-0.58460367,0.24296787,0.11225185,0.21071377,-0.29678375,0.3108217,0.19880417,-0.09885416,-0.5722237,-0.513668,0.21375176,-0.08801778,0.0022831373,-0.71910846,0.121148,-0.4779656,-0.020962983,0.13005719,-0.32366964,-0.21257958,0.0975476,0.27574274,0.15981053,-0.68775946,0.46595457,-0.2566997,-0.08655378,0.19286568,0.42291915,0.28551757,0.35289782,-0.67210853,-0.16734943,0.08339246,0.34879547,0.0242965,-0.37977278,0.2864376,-0.0038192421,0.0066732615,0.66499126,-0.14062521,0.26138896,-0.30578497,-0.006091088,-0.16929853,0.069763474,0.4240714,-0.043723762,-0.013422519,0.44854277,0.09210036,-0.02507928,-0.19281952,0.08444051,0.5963397,0.051927675,0.058257103,-0.0057370365,0.30400044,-0.46634758,-0.2318471
Asia_19.png,-0.12865257,0.7087163,-0.03338781,0.23053122,0.26120922,-0.109028205,-0.35246357,0.31333175,0.1359944,0.08988795,0.14937426,-0.223157,0.7094381,-0.20579036,0.39487928,-0.40162942,0.67783856,-0.29514328,0.14297749,-0.3045708,-1.8112328,0.043654174,0.058465816,-0.3992303,-0.34941152,0.560287,-0.22363664,-0.07278072,-0.029888585,0.3650609,-0.60624236,-0.3856671,0.03438762,0.18483503,-0.041036036,-0.44964665,-0.4539768,-0.06722909,-0.08129379,0.68868774,-0.19518602,0.051300757,0.50018704,-0.11174497,-0.3432908,-0.7970153,-0.18561557,-0.19686945,0.29324228,0.22667298,-0.07122573,-0.012175884,-0.24841908,-0.04499708,-0.18657954,0.34745526,0.41428122,0.59244525,0.42694747,0.049532093,-0.6908436,0.052324988,-0.118476264,0.38377544,-0.42042887,-0.50412136,-0.41036555,1.1104181,-0.036344595,0.07301699,-0.7085774,-0.28051397,-0.51973855,-0.008582726,-0.43045294,-0.09875863,-0.3351962,-0.54747653,0.18427797,-0.13230917,-0.14753503,-0.5390316,0.37083834,0.35603896,0.46560305,0.38915068,-0.28725827,-0.5481532,0.69424915,-0.13904949,0.15755191,0.07778576,-6.086708,0.4363491,-0.076257765,0.26608264,0.0020934492,0.21405643,-0.36812422,-0.036334097,-0.27119684,0.2306986,-0.5710336,0.1470869,-0.37839225,0.02510298,-0.41662237,-0.10973662,0.20894413,-0.32362857,0.18219401,-0.15519136,-0.17072594,-0.11711715,0.08886281,0.024121016,0.4398979,0.011638258,0.31344473,-1.232829,0.18939954,0.76588476,-0.28177053,-0.20316675,-0.25374746,0.39811742,-0.052143198,-0.05449295,-0.36391038,0.65883386,-0.44222724,-0.31675345,0.38696033,0.8272717,0.4018163,0.16394323,-0.21018738,-0.001125887,0.4235587,0.49788675,-0.17706381,0.09069936,-0.041513838,-0.25668103,-0.11120793,-0.19790503,0.28123105,0.07662451,-0.16302836,0.059683695,-0.10917048,0.14325437,0.33471984,-0.19244765,-0.40940177,-0.36081663,0.17508557,-0.12386086,-0.36835963,-0.026683936,0.34341383,0.20233262,-0.088667706,-0.19577712,0.08627788,-0.105803445,0.08385218,0.33523425,-0.19076508,-0.23355073,0.3149767,0.27304733,-0.29332387,-0.5124596,0.3227563,0.48661005,-0.8809267,-0.57365507,0.2460458,-0.14008218,-0.07030996,-0.5328441,0.09087409,-0.04173341,0.09568288,-0.42934343,0.04094873,0.1755357,0.08951917,-0.22373006,0.23142277,0.41835403,-0.033058636,0.20911762,-0.18116426,0.36401385,-0.2677761,-0.14016858,-0.29554337,0.12467996,0.53582287,-0.23685344,0.4698809,0.23276591,0.47398221,-0.28722584,-0.19589779,-0.21265137,-0.7288773,0.28259456,0.25438696,0.5000911,-0.042010456,-0.03036566,0.28049156,-0.32089353,-0.10018674,0.4771654,0.3037416,-0.52123535,0.27296674,0.9856516,-0.087669,-0.038633883,0.36144468,0.12654726,0.1307657,0.039501354,-0.3076437,-0.3244339,-0.1943832,0.30559152,0.550962,-0.18707529,0.28978682,0.7008197,0.17313686,-0.04335868,0.20107149,-0.13069856,0.1562962,0.15654793,0.36344543,-0.41935846,-0.43642536,-0.31309298,-0.064742595,0.021857267,-0.21743129,-0.60097337,0.21230032,-0.40378833,-0.29706925,0.15173846,0.38799098,-0.07582116,0.09421113,0.35725525,0.93849826,-0.10383734,-0.13276897,-0.013548404,-0.37238085,1.0360166,0.043475557,0.18816157,-0.021411821,0.26869583,0.12483062,0.3663574,0.46919048,0.2534733,-0.06497278,-0.021515906,0.0077685937,-0.25174084,-0.17365438,-0.5158964,-0.21602249,-0.058069706,0.4659585,0.37843066,0.24955383,0.15684772,0.014233522,0.0984967,-0.3900911,-0.107854426,-0.054749046,-0.07622275,0.060530804,-0.035877906,0.6373766,-0.07683858,-0.123684496,0.1910376,0.7568799,-0.02047196,0.19112097,0.30320024,0.0031741578,-0.09433728,-0.13685513,0.3849768,0.38542378,0.4717852,-0.087462194,0.28657702,0.23169163,0.47040644,-0.20133808,-0.012066543,0.8256156,-0.20360474,0.09068607,0.20344633,0.3791564,0.45696616,0.14122224,0.6848235,0.14842965,1.6542473,-0.3471709,-0.25521594,-0.028427787,-0.1163885,0.2838815,-0.078960985,0.20423561,-0.006464705,-0.27043197,-0.1780413,-0.05067448,-0.44680083,-0.083063014,0.33783475,0.383862,0.15598708,0.47363907,-0.13249359,0.39095896,0.08722615,0.01642204,-0.06081184,-0.0017125309,0.592559,-0.81059325,0.1683541,0.20337972,0.103821106,0.30020282,-0.2868016,0.3567642,-0.21664858,-0.22368819,-0.4676296,-0.18565172,0.5285042,-0.14572653,-0.13179445,-0.6411846,0.08852437,0.096382335,1.6640223,0.15979534,0.05461464,-0.3078151,0.45034978,0.14335316,-0.529835,-0.17746511,0.3525929,0.09597884,0.29404208,-0.5549852,-0.29159075,0.96658474,0.07750101,-0.14979832,-0.015274743,0.21654019,-1.0381502,-0.15184063,-0.5032625,0.4607963,-0.4992659,0.24291223,0.10308663,-0.28290805,1.3032568,0.8892209,-0.047254078,0.063279614,0.28048265,-0.2065922,0.51776445,-0.0761306,-0.36949456,0.15764955,-0.44426033,0.66620797,0.15502764,0.31494623,-0.48544103,0.09805079,-0.19400385,-0.4283787,-0.46768546,0.20193233,-0.058657713,0.19470984,0.15765557,-0.2609402,-0.0301656,-0.021968022,-0.3588247,-0.43013877,-0.20728013,-0.24848315,-0.6719868,-0.013295803,-0.16344842,0.47070152,0.12860304,-0.094979614,-0.056742545,-0.06372167,-0.34317037,-1.9605285,-0.07253307,0.31230193,0.100876,0.5791792,0.09418053,0.05110015,-0.16449371,-0.25326037,0.043204907,0.0111957975,0.037311018,0.3440646,0.31737006,0.15281475,0.31598592,0.42542845,-0.54125524,-0.21034569,-0.06084189,-0.10317531,-0.1526001,-0.13130356,0.21951473,-0.053665638,-0.35141882,-0.29184788,-0.11439827,-0.3050429,-0.2715081,-0.29178655,-0.5633853,0.2953171,-0.27581105,0.19718285,-0.66169846,-0.1988206,-0.3705662,-0.065029085,-0.34093577,-0.3749262,-0.3925047,0.11467167,-0.16899115,-0.25470114,-0.57739,-0.27503577,0.025861144,0.15891598,0.26762348,0.6108825,-0.067691505,-0.24385835,-0.5639448,-0.042697255,0.15434709,0.2390905,-0.19710249,-0.23154657,0.23407853,0.09442783,0.09602377,0.37884432,0.112234585,0.35052136,-0.40668064,-0.071619414,0.19328567,0.29821774,-0.081102595,-0.13348989,-0.41943166,-0.06653328,0.09106017,-0.27858484,-0.035415545,0.42652017,0.3227285,0.08190318,-0.057370096,-0.25087494,0.41876444,-0.2760868,-0.4025816
Asia_25.png,-0.2674855,0.418724,-0.32310253,0.11359588,0.19758949,-0.3354975,0.18376708,0.3403021,0.26239732,0.37038204,0.53219056,-0.40385666,0.91209173,-0.1130879,0.27076456,-0.22030011,-0.433214,0.069224104,0.17127618,0.060857728,-1.6895282,0.36570963,-0.11675582,-0.4519976,-0.030634511,0.30946302,0.083516404,-0.4437484,-0.18705335,0.5294407,-0.6579815,0.0296708,0.15363835,-0.15535957,-0.17215325,-0.13479559,-0.36008468,-0.07919268,0.21059552,0.30587676,-0.12707904,0.18284735,0.08818738,0.037964456,-0.0838177,-0.0694899,-0.45970094,0.03726329,0.3914473,0.1219486,0.38044208,0.2652705,-0.15070382,-0.057074383,0.05439934,0.23016635,0.36212817,0.103211075,0.35504276,0.21799481,-0.7854272,-0.010979809,0.023431666,0.267362,-0.3109653,-0.3124361,-0.20455542,0.7010732,0.05148845,0.016211174,-0.7282551,0.1088296,-0.3633712,-0.24312048,-0.4901195,0.037862305,-0.45104408,-0.3961029,0.060779877,-0.25041813,-0.049158994,-0.41488636,0.23764542,0.5652721,0.5534793,0.37327635,-0.3395919,-0.40017584,0.42483273,-0.014068894,0.48777753,0.023167241,-6.459455,0.32390398,-0.08244809,0.3125916,-0.17930661,0.21778959,0.41568953,0.06740969,-0.13222227,0.0906,-0.8792416,0.2555447,0.031260986,-0.10568411,-0.89937663,0.016959786,0.2325027,-0.1619964,0.16698039,-0.2243976,-0.09807793,0.014861554,0.19088706,-0.0055375397,0.068951465,-0.21344224,0.31309506,-0.92137265,0.13364886,0.8579116,0.08476756,-0.09294061,0.06850672,0.52070695,-0.038921565,0.16537902,-0.34196264,0.8011049,-0.10317134,-0.60467166,0.6270242,0.85400355,0.06157031,-0.19097021,-0.34054032,0.30012935,0.27641365,0.18285364,-0.03151594,0.16992262,0.053711727,-0.1759997,-0.14440364,-0.036656626,0.29869303,-0.05573151,0.03852111,0.20787045,-0.1275164,0.13657178,0.35688454,-0.21885987,-0.34640697,-0.13016114,0.111410394,-0.28282088,-0.47017723,0.1309706,0.10506923,-0.054796442,0.3223608,0.10126966,-0.0136959255,0.29012552,0.14199048,0.32250893,-0.41553828,-0.39081126,-0.07488987,-0.09921183,-0.20566875,-0.68842065,0.35334507,0.46268559,-0.77831614,-0.3516909,0.077963226,-0.12098779,-0.17055076,-0.19965968,0.12885398,-0.31686148,0.0059109107,-0.026814595,-0.089010194,0.3433671,-0.19972545,0.08714914,0.25115025,0.48686615,0.44283193,0.013402335,-0.2414796,0.22484088,0.19066954,-0.26053846,-0.365668,0.19590585,0.10828856,-0.3487801,0.18136752,0.5798724,0.5161065,-0.45163912,-0.10959093,-0.35666057,-0.2893866,0.12139928,0.30922496,0.033274002,-0.10376279,0.07717152,0.58481765,-0.5300201,-0.2726317,0.44788647,0.530753,-0.46887672,0.21511978,1.0742466,0.1057399,-0.31668127,0.65780544,0.29676265,-0.003935203,-0.15368912,-0.38550174,-0.26906696,-0.042159937,0.01174444,0.49228662,-0.21393386,0.22033037,0.79189444,0.19865668,-0.012786418,0.11454771,0.03309727,0.058604777,0.176901,0.16013458,-0.4312718,-0.41519645,0.020340778,-0.22825104,-0.3557277,0.056921065,-0.08121514,-0.037779152,-0.24780194,-0.066415004,0.10039696,0.093505494,-0.037651658,-0.19876628,0.11676454,0.25472882,0.20729049,0.10753921,0.046883553,-0.34386882,0.28858507,0.23830302,0.20685086,-0.08036664,0.37113118,0.1203904,0.43567145,0.48098415,0.22361048,-0.2606945,-0.11080672,0.013270959,0.243876,-0.3223412,-0.414462,-0.32935774,-0.40575707,0.753894,0.3306547,0.48862004,-0.07338078,-0.13372687,0.02429495,-0.21405011,-0.08007641,-0.19746897,-0.04661393,0.30025655,0.16388929,0.58071685,0.13666967,-0.08035131,0.11257723,0.67230546,0.06279926,0.1403355,0.40170065,-0.3343325,-0.008928761,-0.26312983,0.28818217,0.40778074,0.11847278,-0.4368708,0.32883102,0.57270575,0.24946785,0.17952165,0.13934404,0.8524192,-0.26628083,0.21913663,0.43716353,0.57943225,0.606039,0.052862577,0.6656208,0.29079437,1.6867056,-0.29725945,-0.24669936,-0.01276204,-0.14710686,0.44856706,0.13209465,0.14493303,-0.17333633,-0.19565898,0.024440557,-0.11176779,-0.2193589,-0.19323963,0.1106669,0.43604222,-0.022185173,0.22775806,-0.05717638,0.37470004,0.13972262,-0.09607066,-0.06679191,-0.10684744,0.035862654,-0.8139069,0.21680808,-0.2171361,0.35373268,-0.1320521,-0.1667465,0.19542487,-0.3039068,-0.027392015,-0.4110224,-0.3756128,-0.01665619,-0.21008912,0.13215044,-1.6303266,-0.17377126,0.15366554,1.8607364,-0.4714097,-0.042781137,-0.23761812,0.5680741,0.09840624,-0.44356024,0.021884255,0.36196536,-0.33603173,-0.06650339,-0.42955947,-0.07687698,0.85714525,0.014186357,0.11230634,-0.1594245,-0.02466306,-1.1416757,0.04697869,-0.36456132,0.3603038,-0.5905259,-0.11458206,0.1147117,-0.23121639,1.3167148,0.1829071,0.07985789,0.056474663,0.2663964,-0.31477404,0.0013718568,-0.28019887,-0.26205528,0.2601827,-0.33661395,0.69472575,-0.0077086985,0.32149398,-0.5558638,0.14716479,-0.092643805,-0.10320531,-0.33097446,-0.12797464,-0.26612112,-0.18607259,0.15183477,-0.23449422,-0.2539098,0.071605355,-0.32097903,0.0044046193,-0.3690421,-0.44950938,-0.193209,-0.22459634,-0.38502955,0.5140486,-0.15234382,-0.24803656,-0.21303232,0.04847823,-0.25542718,-1.4912273,-0.07225087,0.23287132,-0.08148399,0.65324914,-0.27120912,-0.17110823,-0.21335804,-0.38821995,-0.08317663,-0.2137647,-0.010978907,-0.020725898,-0.040936705,0.21844961,0.23140448,0.45805183,-0.40266794,-0.13068886,-0.05048699,-0.40342343,0.11956416,-0.4481333,0.39527187,0.23685968,-0.11240396,-0.42574728,0.20907646,0.24417883,-0.30725026,-0.530447,-0.44475895,0.18911132,-0.31188923,0.33299744,-0.8519571,0.09778723,-0.23614305,0.24143909,-0.13803485,-0.26293197,-0.31739992,0.23369533,0.05923134,0.16695341,-0.3777001,0.0686008,-0.17261626,-0.07489811,0.37047893,0.47616673,-0.1805797,0.20360428,-0.626847,-0.37656435,0.25309733,0.01950753,-0.14556545,-0.38358027,0.3040418,0.081108995,0.1860362,0.27839282,0.09955496,0.4053346,-0.19326046,-0.29472443,0.10703546,-0.007914163,0.10396671,-0.28452647,-0.18913639,0.09218723,0.18170609,-0.016766772,-0.12581724,0.60711515,0.4212606,-0.027541623,-0.017634675,-0.059868902,0.2885943,-0.2397428,-0.20539157
Asia_45.png,-0.43822557,0.22898114,-0.19443434,0.20364396,0.25155124,-0.38137752,0.002654843,0.25588226,0.5760626,-0.12899555,0.7175512,-0.34295568,0.73412937,-0.44675022,0.12949243,-0.08747047,-0.06710005,-0.1689281,0.021528916,0.0009502843,-1.9366896,0.29873675,-0.3950773,-0.22596452,0.33316448,-0.04245469,-0.30817372,-0.4686581,-0.2030993,0.39097247,-0.3367543,-0.13816907,0.048602387,0.17271902,0.1605635,-0.2735829,-0.50992286,0.20898052,0.1330953,0.3448505,-0.17958283,0.33239633,-0.21667959,0.23673733,-0.12299116,-0.3680339,-0.26697567,-0.108849615,0.26703236,0.2902686,0.03862889,0.38032424,-0.25107026,-0.06740981,-0.24987552,0.172672,0.29760525,0.23891741,0.3523187,0.13399601,-0.47881517,-0.14429733,-0.09655861,0.26096648,-0.44142085,-0.61573297,-0.33326095,0.65562344,0.029123366,-0.14380649,-0.36940977,-0.15780237,-0.48361212,-0.13618134,-0.49275845,-0.12659337,-0.234519,-0.5517182,0.11187866,-0.20897791,-0.062387012,-0.20359176,0.16084743,0.5534538,0.36419684,0.020545572,0.08101627,-0.6101252,0.33498022,0.43078673,0.44305274,-0.15531494,-6.694743,0.42238718,-0.2790999,0.13625783,0.00050380826,0.1796743,0.005821958,-0.38238457,-0.25948697,0.3208925,-0.8382012,0.25710985,-0.017933942,0.11474568,-0.21548736,0.29514697,0.2777384,-0.15578905,0.24846002,-0.27538216,-0.039533466,-0.16804808,0.080069825,-0.08913779,0.88764644,-0.16090502,0.07352597,-0.6321562,0.32716283,1.0949509,-0.3963443,-0.42766112,0.066663496,0.73475903,-0.005998373,0.30217823,-0.22967118,0.5223004,-0.10821117,-0.235385,0.4554454,0.82232463,0.16361958,-0.446011,-0.32982907,0.056620568,0.29017118,0.29759982,-0.19998065,0.19252244,0.31983414,-0.038582757,0.0026232675,0.23057798,0.34585252,-0.060554978,-0.013114192,0.2436989,0.13317224,0.1594769,0.3604695,-0.23371905,-0.63711107,-0.36844987,0.06580752,-0.42309737,-0.62565184,0.2607332,0.5539735,-0.03813584,-0.08273055,-0.22061886,-0.07628699,0.2512523,0.25081494,0.44160876,-0.2727246,-0.2905783,-0.04391121,0.030281931,-0.44220036,-0.6117719,0.40578872,0.4259456,-1.2198925,-0.44238016,0.03966018,-0.0815348,-0.31182426,-0.13037784,-0.093357585,-0.16906372,0.119893685,0.30215254,0.031464785,0.08842592,0.13773522,-0.044509895,-0.080527216,0.16525738,0.20399404,0.15298161,-0.4459827,0.64523065,-0.17836063,0.038062237,0.25586587,0.07270116,0.19278952,-0.086819366,0.2159661,0.18854043,0.44082904,-0.28217804,-0.21545379,-0.062284768,-0.5880653,0.2509334,0.5503251,0.47563404,-0.11198265,-0.431325,0.5576879,-0.47425193,-0.66959846,0.26815233,0.11871535,-0.3874066,0.32749686,0.43299136,-0.1251525,-0.32079,0.6466697,0.40317625,0.38243487,-0.014304876,-0.6402767,-0.40235978,-0.124843895,-0.38892922,0.47302324,-0.41000494,0.12280497,0.32457152,0.26209837,-0.08029832,0.12734953,0.07422666,0.18972376,0.12878484,0.2549176,-0.72894275,-0.34639546,-0.30437613,-0.19907442,-0.13603164,0.051288053,0.01709412,-0.27559918,-0.17120759,-0.3800683,0.28917685,-0.07505151,0.09088889,-0.23321342,0.18023589,0.22480026,0.12618065,-0.062130958,0.08301216,-0.47994417,0.15764272,0.37527773,0.41239783,0.1075005,0.44938958,0.008054867,0.40553832,0.527605,-0.063164994,-0.16961801,-0.18000194,-0.2901064,0.2603492,-0.03781452,-0.05150281,-0.11093002,-0.085018754,0.79102,0.51513344,0.5693171,0.4116254,-0.43632448,0.33316624,-0.89793515,-0.0067647323,-0.041057274,-0.01702407,0.6217841,-0.017317906,0.65993106,0.16187179,-0.5092232,0.30903858,0.5543989,-0.07066605,0.15411167,0.30652392,-0.15168524,-0.110166565,-0.46943986,0.22333303,0.37677217,0.31590268,-0.15779306,0.34282258,0.64520264,0.19994138,0.10969055,-0.06302014,0.8222796,-0.1880197,0.12761284,0.36257088,0.4309281,0.484132,0.073510036,0.31216145,-0.017992392,1.4474037,-0.3673328,-0.033060767,-0.13370295,-0.1513851,0.14269075,-0.41392386,0.0817013,-0.07425386,-0.22822624,-0.28607127,-0.036109373,-0.39200723,-0.24146691,0.30314383,0.68377215,0.07947634,0.28351393,-0.21466678,0.35823113,0.21556972,-0.10863052,-0.24150914,-0.21077879,0.3073132,-0.7835909,0.3171641,0.021463595,0.102822885,-0.18677756,-0.5411985,0.1120625,-0.10440369,-0.076841645,-0.2149759,-0.09430116,0.51551574,-0.2505707,-0.029661372,-1.0593079,-0.059014067,0.29486293,1.450721,-0.26142645,-0.04335678,0.0068636537,0.47917247,0.09955132,-0.14215928,0.07510836,0.3128284,-0.026301458,-0.07264606,-0.55945885,-0.09163003,0.85908484,0.033196364,-0.3018662,-0.09620043,0.04726752,-0.82653266,-0.21500528,-0.459702,0.28906482,-0.25421953,0.07118677,-0.19547781,-0.1932898,1.1394393,0.73641616,-0.26624274,-0.19731498,0.2211499,-0.08415573,-0.22503747,-0.40337667,0.005157143,0.14155939,-0.5206233,0.6031207,0.30949563,0.3691018,-0.6621585,0.37780017,-0.08759008,-0.09270072,-0.27849823,0.31204188,-0.014740068,-0.086758584,-0.09482568,-0.0918575,-0.10968804,0.21833234,-0.38630846,-0.1818077,-0.4493183,-0.0743754,-0.22995198,-0.342848,-0.27259773,0.49050552,-0.2492137,-0.23044987,-0.19655019,0.2185864,-0.19137293,-1.3935457,0.03496021,0.08163951,0.10232945,0.38090444,-0.068158336,0.03020519,-0.17519337,-0.49217626,0.105924435,-0.032710694,0.12335464,0.14258155,0.21109748,-0.15635847,0.19459185,0.4988907,-0.028282031,-0.07144904,-0.44516864,-0.22850864,0.112695485,-0.18711591,0.5628513,0.014395189,0.10137101,0.2073892,0.28884822,-0.09458274,-0.01696138,-0.58351237,-0.31979603,0.026830932,-0.33870187,0.40805086,-0.58925503,0.14012189,-0.28238207,0.48180544,-0.06409479,-0.5266093,-0.29236704,0.35609567,0.08941269,-0.17890042,-0.21227926,0.12165084,-0.06996611,-0.3211542,0.4070456,0.74705714,-0.23279372,0.20583174,-0.60993993,-0.19256435,-0.046544492,-0.039373845,-0.17519102,-0.4961342,0.33659184,0.030845061,0.11237322,0.2829299,0.103625044,0.29142398,-0.10560522,-0.28680837,-0.061252736,0.17280674,-0.055425562,-0.22536717,0.004589364,0.09849474,-0.19029799,0.05350449,-0.021382987,0.99603534,0.3826028,0.0044496953,-0.07002765,-0.25808537,0.15482041,0.14300871,-0.4385901
Asia_40.png,-0.25327015,0.53675044,-0.22156654,0.5626616,0.30078763,-0.3669038,0.38848615,0.21026716,0.15057604,0.08816696,0.65670305,-0.33124036,0.2958387,-0.102631174,-0.14289239,-0.1309861,-0.6692611,0.14321345,0.12568432,-0.07281851,-1.698917,0.2982728,-0.15430543,-0.25607353,-0.21790646,0.15844662,0.11060118,-0.4202604,-0.22989225,0.33486325,-0.97842985,-0.0007769689,0.3863442,-0.31100768,-0.46524048,0.0769562,-0.4284781,-0.32448256,0.3351001,-0.14685468,-0.10945129,-0.017730534,0.09840159,0.12513334,-0.19231834,-0.30183166,-0.24652922,-0.15710694,0.24361072,0.029903293,0.34446052,0.2897007,0.07920516,-0.2584363,-0.14782107,0.16306731,0.32081407,0.06442551,0.26223844,0.0514754,-0.615785,0.11840505,0.061226267,0.1402897,-0.39931166,-0.35559082,-0.102310196,0.8207973,0.05180347,0.16376631,-0.87352705,0.087060094,-0.5070138,-0.05341608,-0.42197216,-0.08887683,-0.35459736,-0.5571896,0.15001893,-0.13293324,-0.008063227,-0.37909228,0.15535218,-0.017409101,0.48244473,0.33582357,-0.3193589,-0.29854548,0.14585283,0.115149766,0.3652451,0.044252105,-5.5798244,0.50200856,0.057607286,0.064158,0.02836808,0.2669679,0.4220947,-0.08191922,-0.101754665,-0.10662564,-0.66265965,-0.058760874,-0.34452927,-0.17382483,-0.9307988,0.17128153,0.2316906,-0.36357784,0.542352,-0.34230104,-0.0023217201,-0.15639694,0.26292986,-0.099955186,0.066943005,-0.13408805,0.37899026,-0.8449234,0.10719701,0.7333689,0.022102775,-0.02348657,-0.045339633,0.26101786,-0.11107123,0.33332944,-0.6911983,0.56809956,-0.30723402,-0.20813179,0.72066265,0.8336973,0.13165194,-0.27433878,-0.48558468,0.05303351,0.33257097,0.4025491,-0.008748069,0.16035399,0.12187913,0.011974558,-0.32056853,0.27898154,0.3807139,-0.14375979,-0.01635006,-0.0075738207,0.02632384,0.43170658,-0.23441891,-0.3696372,-0.48353875,-0.14863478,0.1307159,-0.09752808,-0.23992525,0.05436355,0.26219493,-0.14566854,0.21557449,0.23408796,0.09056857,0.3438499,0.46102887,0.1905334,-0.2622124,-0.6192908,0.026773408,-0.33591104,-0.29590744,-0.632148,0.118809804,0.39818913,-1.1475399,-0.029537573,-0.019314378,0.1078926,-0.17766024,-0.29521906,-0.18303162,-0.4335188,-0.05459001,-0.16281092,6.401539e-05,0.44799298,0.0075129867,-0.16009343,0.3979263,0.1540469,0.33217868,-0.023546867,-0.08525023,0.13736607,0.15996496,-0.3468145,-0.13728218,0.19202822,-0.14904654,-0.029759575,0.21770774,0.52393335,0.4367409,-0.15683527,-0.17944145,-0.28671888,0.06145543,0.264613,0.2658142,-0.0459431,-0.28649706,-0.22591943,0.46623605,-0.6062752,-0.5008461,0.15006566,0.5447798,-0.18317455,0.54981303,0.75569534,0.033213973,-0.40035582,0.57074904,0.21104708,-0.044941276,-0.018893514,-0.081522554,-0.27848643,-0.16380747,-0.1599321,0.5229837,-0.2015936,-0.0590747,0.3714043,0.24163581,0.27708626,0.20386913,-0.28321,0.14246127,0.10149348,0.3159132,-0.11348671,-0.21903324,-0.39003193,0.08289097,-0.23313518,0.092685446,-0.065762684,-0.14103344,-0.21751575,-0.027958075,0.26275933,0.1299858,-0.06260063,-0.2689365,0.14179075,-0.4573854,-0.020715177,0.22442338,0.16181248,-0.12156762,0.0947048,0.31335458,0.30269188,-0.017875955,0.12876558,0.081545494,0.39569223,0.7401306,-0.0670896,-0.5725366,-0.16236268,-0.32998008,0.35492295,-0.37396142,-0.38557196,0.019164994,-0.3512584,0.8035524,0.126415,0.72105163,0.042480215,-0.102411896,-0.11799517,-0.35726804,-0.10027301,-0.11067645,0.11025283,0.252928,-0.39945796,0.41085175,0.05106379,-0.10676021,-0.10794945,0.14040273,-0.15616453,-0.004936453,0.052778,-0.23656109,0.04007615,-0.28888422,0.24548222,0.63670784,0.16121112,-0.06145355,0.30737934,0.6458554,-0.05110635,-0.16775705,0.48053882,0.8321906,-0.35059345,0.23667859,0.35000807,0.587231,0.64364254,0.21076743,0.6794202,0.06728289,2.005209,-0.3002548,-0.113869056,0.20751958,-0.1332519,0.12879959,0.046556607,0.18455794,-0.2405442,-0.28200996,-0.1822486,0.068706885,-0.17237754,0.13233998,0.21651778,0.55432147,-0.029524473,0.35386738,-0.38488618,0.29763633,0.16696969,-0.08992352,0.10101052,-0.38924158,0.41477677,-0.58332944,0.3827423,-0.12383412,0.11526203,-0.43264937,0.016254837,0.32846272,-0.32785797,0.22155282,-0.06297687,-0.25556228,0.85130394,-0.22474456,0.114777535,-1.4691718,0.009201586,0.04234457,1.3956689,-0.4521385,-0.15846698,-0.12371662,0.61374193,0.18417796,-0.69922537,0.058652524,0.49444598,-0.21607834,-0.037718996,-0.19028991,0.096492715,1.0141561,0.22477561,0.4465193,-0.044974804,-0.03608742,-1.1783003,-0.25113022,-0.5380373,0.22682628,-0.562748,-0.28854942,-0.047420077,-0.49623507,1.7826818,0.15414615,-0.058185883,0.15286388,0.33946708,-0.18384144,0.2362018,-0.4529469,-0.4913928,0.3793872,-0.42067435,0.47067776,0.04852447,0.06416191,-0.60350347,0.067221835,-0.38050985,-0.4440049,-0.06682664,0.15715411,-0.25968084,-0.10999062,0.118492365,-0.34418175,-0.42819425,-0.13642368,-0.1982226,-0.0029835254,-0.48869216,-0.01111873,-0.11901585,-0.20496719,-0.09765926,0.42847782,-0.10315067,-0.39132634,-0.27322787,0.21624634,-0.33844286,-0.83414423,-0.1800439,0.3253137,-0.012039006,0.8052864,-0.18701531,-0.30960017,-0.2581452,-0.31628698,0.17204855,0.071852,0.16392964,-0.14711654,0.20906419,0.043430842,0.4630407,0.3635125,-0.27201727,0.19389372,-0.04786461,-0.28788418,0.08132345,-0.19216529,0.22315797,0.10291231,0.119697556,-0.45851716,0.38578022,0.1578217,-0.4347324,-0.32483274,-0.5723375,0.16082203,-0.293226,0.11080485,-0.7461088,0.1200494,-0.28263676,0.020477071,-0.12983507,-0.32281423,-0.35367855,0.064358115,0.18538563,0.2123476,-0.4500709,0.23742822,0.036384486,0.08525403,0.34775835,0.59438956,0.18816093,0.3168183,-0.52648544,-0.2769211,0.2538556,0.08565138,0.2392013,-0.37140983,0.49535877,0.018998876,-0.06287813,0.20597206,-0.032271568,0.19481176,-0.36131352,-0.19605479,0.17306131,0.18974659,0.2580617,-0.23917411,-0.037781775,0.28662306,0.26921955,-0.005182758,-0.11907817,0.48043153,0.46436417,0.016449384,-0.07033688,0.1683829,0.14030339,-0.36187708,-0.2280091
Asia_46.png,-0.020640194,0.255307,-0.19233388,-0.008288503,0.09092638,-0.3113781,-0.30760768,0.31795198,0.22525507,0.43136925,0.56650084,-0.23795697,0.66859376,-0.54533845,0.287571,0.012147471,0.42664507,-0.087002605,0.09748186,-0.027118042,-1.8698637,0.15596563,-0.21832067,-0.17232735,0.44219375,-0.16842861,-0.25265574,-0.49364945,0.01675561,0.33642152,-0.43884945,-0.17532219,0.24215207,-0.13575134,-0.28033358,-0.119119555,-0.85046047,0.04737702,0.17763832,0.03280711,-0.47731715,0.21742499,0.24759588,-0.04266642,-0.06985977,-0.5969962,-0.017356489,0.18120933,0.20974272,0.16661167,-0.22115256,-0.00040373206,-0.33490255,0.15349868,0.050496995,-0.06266908,0.35398638,0.16563779,0.2565478,0.1787353,-0.5425335,0.2929157,-0.21203282,0.2615256,-0.33511603,-0.5917959,-0.18541613,0.848464,-0.09789624,-0.35245496,-0.73941416,-0.036959685,-0.39873546,0.23736021,-0.04204261,-0.20031841,-0.52818644,-0.5412184,-0.11665697,0.08802214,0.2492368,-0.3176638,0.18598162,0.56513155,0.1469072,0.4082411,-0.22867575,-0.52482754,0.6593098,-0.09935957,0.3879298,-0.1603353,-6.1167054,0.45471478,-0.23026061,-0.03272444,-0.26187295,0.28508133,-0.012242548,-0.04834494,0.092884436,0.17535281,-0.5134418,0.3408138,-0.14159706,0.22093406,-0.54068375,0.2168175,0.54517764,-0.0240518,0.15717015,-0.13069916,-0.45344412,-0.14526752,0.17851673,-0.29587454,0.9470781,-0.12874705,0.1408633,-0.69874305,-0.010075055,0.5997244,-0.17413096,-0.0073718056,-0.05225925,0.40235734,-0.03155878,0.23373973,-0.3033581,0.49263355,-0.12441209,-0.13318539,0.06996515,0.8583112,-0.03196092,-0.40849918,-0.33016458,-0.21246746,0.5092403,0.44020915,-0.052892253,0.061311707,0.5644239,-0.4043569,-0.23875739,0.038409665,0.058814704,0.21136892,-0.22154771,-0.060721405,-0.11797337,-0.28754985,0.17175975,-0.101997435,-0.35645676,-0.16706485,0.504447,-0.050356217,-0.43514866,0.44052953,0.19304873,-0.283656,-0.10559623,-0.041642718,-0.16516349,0.54435253,-0.110803425,0.15294476,-0.35173568,-0.110447735,0.0032529011,-0.01842488,-0.18416487,-0.6185161,0.43803155,-0.11140734,-0.6093839,-0.5330568,0.27242866,-0.09879765,-0.16527858,-0.41467407,0.29778296,0.26550862,-0.017063133,0.09831735,0.06251131,-0.010002926,0.005321443,-0.1645039,0.22978854,0.50387675,0.004046336,0.13382888,-0.23154308,0.26648855,-0.29787564,-0.46918893,0.052518323,0.29002315,0.16182268,-0.20653732,0.44000655,-0.08504202,0.72581035,-0.12817377,-0.21282397,-0.2790607,-0.26071948,0.08061926,0.48063305,0.9287536,-0.09073824,-0.33108324,0.53710115,-0.37088472,-0.362138,0.29470164,0.47026208,-0.10872248,0.5582041,0.73847306,-0.28719586,-0.5833657,0.5023635,0.60599613,0.3873119,-0.110951126,-0.25352907,-0.3504335,0.1511066,-0.521343,0.3863495,-0.43495053,-0.12298615,0.42778346,0.018102735,0.12857676,0.20411251,0.21189554,0.1261468,-0.20261942,0.56219435,-0.36224014,-0.3106903,-0.61024135,0.2789647,0.13765153,-0.04861427,-0.2731154,-0.29985157,-0.36941266,-0.057734616,0.07826255,-0.02631617,-0.027016215,0.07668874,0.10109665,0.18379845,0.42839468,-0.15832292,-0.27910474,-0.89720535,-0.15006605,0.2821218,0.5186588,-0.0670622,0.19383885,0.22688554,0.56491125,0.2820434,-0.084808916,-0.3207497,-0.055225894,-0.21391284,0.005097082,-0.2600057,-0.28664693,0.039326556,0.013666637,0.7390114,0.28749195,0.5510965,0.3700053,-0.3850986,-0.024948332,-0.36815637,-0.15985596,-0.022289395,-0.03957778,0.38981542,-0.010703221,0.47587347,-0.18308927,-0.20144442,0.354877,0.11440188,-0.04670304,-0.12121682,0.5177828,0.02649106,-0.5494324,-0.46461838,0.13714616,0.26365924,0.013610661,-0.27185097,0.24692193,0.5898435,0.5902148,-0.43769047,0.09860434,0.8567008,0.05327873,-0.09956263,0.63175523,0.15818219,0.6328888,0.23962379,0.2232773,0.4187345,1.611439,-0.28614154,-0.020659618,-0.059373796,-0.1872515,0.32455218,-0.0545825,0.21688172,0.09200667,0.058320507,-0.13839518,-0.047311395,-0.57633424,0.0022103488,0.21155706,0.47005388,0.19299316,-0.016822038,0.03170088,0.22239184,-0.016335879,-0.15091673,0.12681924,0.08764967,0.579175,-0.43614984,0.14671206,0.05780145,0.40607294,0.18310897,-0.105407976,0.096457765,-0.22525963,0.030067839,0.23353021,-0.03182981,0.34104973,-0.02761938,-0.026710682,-0.9335611,-0.19080885,-0.04036307,1.1167654,-0.24038705,0.12070658,-0.52371204,0.56000245,0.29966235,-0.48060453,-0.15353529,0.18983608,-0.02339673,-0.30034038,-0.38049853,-0.09150761,0.33033055,0.05526926,-0.17785451,-0.3862186,0.0770812,-0.89168507,-0.063945845,-0.58724123,0.33180708,0.17763613,0.33978876,0.03241451,-0.54586434,1.1817095,0.2926902,-0.0799028,0.05193864,0.03416649,-0.1207523,-0.062293384,-0.37465888,-0.12556861,0.31841397,-0.6162806,0.1884675,0.2589523,0.60191727,-0.41138288,0.4135567,-0.22961709,-0.27087384,-0.078316465,0.18753779,0.039642338,-0.05735393,0.13687873,-0.4962079,-0.3564889,0.01898484,-0.35499823,-0.14235526,-0.09169038,-0.24003933,-0.47690606,0.106083155,-0.29483026,0.52935773,-0.3099421,-0.19065857,0.011232118,0.6729342,-0.25326583,-1.7594935,0.12143199,-0.09010634,0.33457297,0.73366046,-0.24122679,-0.004267007,-0.04086069,-0.375499,-0.15533565,-0.19709897,0.012244649,0.0011484623,0.07102221,-0.20875299,0.21725601,0.44480208,-0.20676875,0.16184606,-0.78414345,0.15953062,0.35749298,0.028621957,0.29446346,-0.1245843,0.31927577,-0.020103812,0.27589908,0.062978595,0.16460189,-0.5321464,-0.35219705,-0.13732253,-0.55385226,0.19091311,-0.48774204,0.20049992,-0.08688739,0.61465883,-0.020054273,-0.20919633,-0.042053312,0.24038249,-0.10162814,-0.2551548,-0.35627604,0.45702547,-0.1306904,-0.13911584,0.32353058,0.5148206,-0.041196436,0.2953063,-0.50819254,-0.17353497,0.23193161,0.19574241,-0.40472898,-0.28307623,0.20546679,0.025396872,-0.32906073,0.22664602,0.040411636,0.20095712,-0.5473405,0.20661074,-0.22620639,0.07186432,0.30227855,-0.03788661,0.103220485,0.09720329,0.020310491,0.29299712,-0.15892422,0.6625813,0.19919501,0.06874714,-0.39253372,-0.28356105,0.43781903,-0.0077588595,-0.6620977
Asia_09.png,-0.15460894,0.74162465,-0.14353494,0.47922808,0.23841296,0.39989838,0.016058542,0.10731232,0.083742216,-0.11867548,0.25883496,-0.7172262,0.8865847,-0.12972338,-0.00095660426,-0.38431674,1.0035789,-0.17076188,0.0064459294,-0.5136546,-1.59689,-0.24374424,-0.2567633,-0.5051513,-0.2721569,0.61712176,-0.37676603,0.14739934,0.14295545,0.23097706,-0.5863862,-0.5828595,0.4338609,-0.34299427,0.33019647,-0.16924112,0.16984385,-0.1661645,0.040953565,1.1890845,0.18706241,-0.12857766,0.114004835,-0.0215116,-0.085038066,-1.0319436,0.014963001,-0.19898808,-0.22079077,0.036879167,0.033273146,0.42492563,-0.039578546,-0.13578853,-0.25336662,0.2420575,-0.102517,0.073113546,0.17997217,-0.07756963,-1.2295516,0.1957942,-0.3099511,0.15309808,-0.4449027,-0.3783141,-0.40019247,0.9488891,0.079190716,0.008933589,-0.3793965,-0.3070976,-0.3117419,-0.10185756,-0.6815133,-0.23558648,-0.12131323,-0.25902492,-0.12112844,-0.14115275,0.14562911,-0.37260422,0.108209774,0.21407011,0.11190945,0.23512608,-0.54120916,0.2453171,0.46906346,-0.10992251,0.35034448,0.32186443,-5.550593,0.53898525,0.16743419,0.20176688,0.14408724,0.0114285275,-0.5212374,-0.0014915764,-0.092380434,0.26665497,-0.12424296,0.055279545,-0.8564885,0.115412585,-0.42561173,-0.5425683,0.10048383,-0.3422453,0.10339526,-0.10965511,0.16014494,-0.22108832,0.20059918,-0.40076047,0.5625063,0.34245124,0.23936483,-1.0224231,0.23518777,0.4655848,0.38754356,-0.19172913,0.038500484,0.12428549,-0.12772657,0.003951408,-0.015114009,0.6869093,-0.23720883,0.23119152,0.12531237,0.75562894,0.029527932,0.65384394,-0.25386915,0.14753701,0.08670037,0.21213803,-0.021048766,-0.0096677765,0.08974661,-0.07765446,0.011271499,-0.059673008,0.34913674,-0.22990043,-0.23288995,0.26296657,-0.1989497,0.19768757,0.31558987,-0.024438351,-0.22917579,-0.39346632,0.68813,0.21682076,-0.531342,0.24205518,0.100904666,-0.107875995,0.08727659,-0.07713622,0.55650145,0.014646858,0.70539343,0.45196277,-0.055332012,-0.006097764,0.13194367,0.10453355,-0.3559067,-0.14762953,-0.18134443,0.051702708,-0.89261866,-0.15904924,0.9771706,-0.25590178,-0.17778713,-1.0174096,-0.009251036,-0.20269991,0.06320021,-0.29277873,0.505902,0.06634052,0.27170154,-0.040574703,0.31964985,0.50149053,-0.06853605,-0.013291456,0.27575335,0.06310277,-0.38236496,-0.38123024,-1.0930241,-0.015972946,0.09038672,-0.108475156,-0.03720939,0.038163684,0.17708969,-0.35654306,-0.20730838,-0.038909763,-0.21535228,0.3135205,0.05179795,0.5281374,-0.06100072,0.55840296,0.53396845,-0.073470704,0.2222642,0.67153066,0.49284774,-0.06896262,0.051123068,1.1019697,0.05028212,-0.3460573,-0.07259433,0.34966335,0.06741643,0.23517406,0.013002485,-0.5474501,-0.0796076,0.58183926,0.21884748,-0.14803873,0.06664242,0.62276673,0.24510258,-0.16742033,0.09140155,-0.32296994,-0.0107112825,0.3352105,0.49324346,-0.40328693,-0.6598223,-0.08283644,-0.17149344,-0.020024963,0.059023738,-0.25636542,0.47047478,-0.14951172,-0.20247729,-0.13512471,0.1785428,-0.5891254,0.28540528,0.37352526,0.8308996,0.009445,-0.091144815,0.26329067,-0.4588825,1.2282503,-0.0477586,-0.14881332,-0.18466619,0.3610851,0.21591897,0.2438609,0.36876822,0.029885478,-0.2640258,0.055461407,0.07694632,-0.4223763,-0.08731227,-0.12739703,-0.08615205,0.11427953,0.3100475,0.23842797,0.31713516,0.6218609,-0.068954006,0.13253295,-1.5908403,0.13323046,0.0553928,-0.1858375,0.002279751,0.204201,0.4206211,-0.17269862,-0.021460183,0.40730327,0.65809494,0.029124953,0.35603625,-0.150482,-0.26138416,0.057734616,-0.13137285,0.50602335,0.25555837,0.60022104,0.33567265,0.43669423,-0.007724503,0.14112407,-0.17883262,-0.28898802,0.75478256,-0.5085278,0.025633972,0.20253138,0.07563867,0.32836396,0.27166826,0.004528571,0.6223361,0.822196,-0.19111809,0.061389342,0.156393,-0.19275188,0.026761454,-0.065752566,0.04560256,-0.34190917,0.06530611,0.06469029,0.018640457,-0.08931677,0.07695323,0.14630373,0.5253805,0.44055426,0.3158956,-0.20973596,0.07441902,-0.13416466,0.32894033,-0.1295276,-0.45246345,0.40879047,-0.5949695,0.2281434,-0.07484183,0.018534709,-0.185539,-0.24635154,1.0233257,-0.021307081,-0.06098357,-0.31343737,0.41102755,-0.08862597,0.14674005,0.027763471,-0.5978311,-0.3137172,0.10580288,1.0288761,-0.056656137,0.24678425,-0.29080272,0.3626446,0.3763249,-0.08160609,-0.3967808,0.48601317,-0.2791949,0.26407623,-0.33719796,-0.09925866,0.73485273,0.2577744,0.37864146,-0.46178606,0.19671497,-0.76012135,-0.41439486,-0.8321074,0.1515632,0.14654481,0.19078417,-0.0010343287,-0.50938165,1.8922147,0.9812128,0.40582496,0.26221097,-0.0065056384,-0.12843253,0.43346396,-0.13175955,-0.3650596,0.2700189,-0.6639591,0.6555971,0.2059809,0.39279348,-0.58045876,-0.013284057,-0.3603864,-0.3633677,-0.20884447,0.36692655,-0.3593719,0.08923203,-0.052236687,0.008831531,-0.041440465,0.02442649,0.22814432,-0.21162598,-0.85880005,0.052566152,-0.5262662,0.0030802563,0.08866601,0.39182448,0.26582074,-0.3386982,0.06761217,-0.04654286,-0.15564674,-1.7304523,0.3300471,-0.093786195,0.18711269,0.9499817,-0.13957864,-0.22592677,-0.21773764,0.016982883,0.21636742,0.07211237,0.1437096,0.21474038,0.3323508,0.7338602,0.0041324496,0.39753625,-0.057969444,-0.20717803,-0.057530135,0.051518314,-0.26162133,-0.43102336,0.14413768,0.16529968,-0.8227253,-0.32578743,0.5088479,-0.3808425,-0.5072916,-0.15185285,-0.5693985,0.034620754,-0.289213,-0.06840031,-0.57774067,0.030873999,-0.24385376,0.035680477,-0.11613376,-0.40397033,0.17917465,0.204403,0.07442368,-0.30185032,-0.5409209,0.2748515,0.036323205,-0.012799807,-0.25614762,0.6661942,0.038592547,0.35418892,-0.40509647,-0.031685118,-0.014553092,0.2136606,-0.042332403,-0.31270063,0.24087426,-0.09938879,-0.19892433,0.75767255,0.34108132,-0.19074422,-0.5192859,-0.141648,0.0008317977,-0.0031890143,0.00012073666,-0.08612155,-0.0095253885,0.11099673,-0.049452387,-0.37265232,-0.11331673,-0.43518317,0.59633106,0.14663163,0.045723237,-0.44655678,0.089514166,-0.42466867,-0.3034969
Asia_11.png,0.027144298,0.7984611,-0.1989068,-0.028117845,-0.17447199,-0.12113352,0.22616455,0.15104824,-0.18788108,-0.09928956,0.5469222,-0.27564374,0.75387317,-0.15046535,-0.3269804,-0.21041954,0.29146627,-0.27631193,-0.1326852,0.030695818,-1.8731537,0.06178221,-0.058515742,-0.22597922,0.13557956,0.2771143,-0.16220699,-0.13201529,0.19563207,0.16048826,-0.79769784,-0.040813267,-0.06003745,-0.00014700554,0.16547137,-0.11661203,-0.28888455,0.20190954,0.09559752,0.5563864,0.063535064,0.021373004,0.34380212,-0.10352517,-0.02032717,-0.04870516,-0.13188462,-0.022769392,-0.13051388,0.22931936,-0.21785231,0.43957826,-0.31239647,-0.038745567,-0.35573393,0.09677665,0.0738551,-0.29328492,0.22921239,0.06272365,-0.54551816,0.24657053,-0.070763595,0.10165275,0.0057715047,-0.065679386,-0.34124437,0.9390105,-0.11472814,-0.08988847,-0.36181062,0.10890582,-0.117320605,-0.08157025,-0.18687597,-0.3108142,-0.33703145,-0.48979622,-0.07402837,-0.18181726,0.03974779,-0.38024616,-0.30772042,0.19099285,0.041944534,0.43707287,-0.82784444,-0.13249986,0.26154834,-0.031191602,0.33124393,-0.31373557,-6.4208236,-0.11794949,-0.17511815,-0.3389291,0.16604733,0.17168927,0.19590774,0.17314734,0.2875509,0.1534105,-0.49336767,0.041003853,-0.2530261,-0.1784553,0.35263282,-0.421183,0.3204419,-0.5925936,0.5003521,-0.05131451,0.2135739,0.01574932,0.31004354,-0.7110597,0.44495422,-0.16743039,0.35820338,-0.4536632,0.3166973,0.47997805,-0.041452967,-0.03817253,-0.17512451,0.40144366,-0.43561062,-0.019249288,0.06412223,0.45045167,0.04239784,0.18894985,0.26757383,0.8978443,0.56011856,0.14572488,-0.23971379,0.16097878,0.14307198,0.387437,0.05393417,0.034430034,0.23852967,0.12941387,-0.16327915,-0.13560595,0.238616,-0.1857087,-0.04292681,-0.11521743,-0.30166286,0.18124801,-0.00060223043,-0.27619794,-0.25227076,-0.03066022,0.36486647,-0.4199129,-0.5225508,0.28411272,0.015047178,-0.3482644,-0.49860153,0.41811612,-0.17016013,0.24870656,0.61306685,0.30505347,-0.24066862,-0.41320762,0.072754055,0.17329109,-0.1934486,-0.6724615,0.011110872,0.06273569,-1.5512062,-0.23310977,0.50572515,-0.10612009,-0.51320106,-0.67582166,0.172175,-0.10569143,0.13526317,0.13753617,0.12703472,0.019499622,0.115305796,0.09502958,-0.012397371,0.8205882,0.12403129,0.2993532,0.40888187,0.7269123,-0.427621,-0.07064796,-0.24510175,0.37333602,-0.11122298,-0.042496353,-0.1392,0.35200727,0.1337122,-0.38460475,-0.43220103,-0.48909575,-0.23314208,0.27615863,-0.27714515,0.3826314,-0.27632582,0.0547058,0.7929143,-0.34327573,-0.4899383,0.55797935,-0.09812275,-0.29465935,0.5130967,1.1925576,0.19714253,-0.6474169,0.09759466,0.29295874,0.15570411,-0.21971971,-0.3412124,-0.6808451,0.32621738,0.3653782,0.1745725,0.09786013,0.34749702,0.4765312,0.3868959,-0.020854102,-0.30546394,-0.21106504,0.16858777,0.29347324,0.29701254,-0.25645155,-0.42371288,0.08280613,-0.25476035,0.023464281,-0.16200244,0.10755161,-0.21203287,-0.09427376,0.3279309,-0.07578262,0.057757452,-0.119842745,0.03269307,0.11673713,0.9632931,0.015920013,0.0066610873,0.15920906,-0.38048306,-0.0920316,0.03789581,-0.052638322,-0.315956,0.2020019,0.3322987,-0.17363867,0.6510932,0.0411162,-0.007409448,0.51111937,-0.10340957,0.0025377423,-0.5508392,-0.0035596192,-0.3985167,0.11300777,0.5137282,0.52717906,0.46364018,0.13491733,-0.13350698,0.1605548,-0.6868194,0.22049779,0.01671268,-0.051830143,0.5357073,0.31087148,0.12676033,-0.07960936,-0.34329054,0.5536692,0.027850635,0.23659128,0.163513,0.07519813,-0.07841049,0.39802235,-0.50969505,0.41397792,0.3318791,0.06349711,-0.10201697,0.4379673,0.55909985,0.01626262,0.033285305,0.262008,0.8969995,-0.6212908,-0.06629751,0.41978568,0.41260517,0.73817486,0.16280615,0.100045055,0.3236189,1.7714605,-0.1023933,0.07538743,0.20251425,0.080861524,0.28843236,-0.30404615,0.31268337,0.10242226,-0.2662745,-0.030477123,0.10648749,-0.54283464,0.3005341,-0.25857222,0.32414463,0.3144021,0.12294986,-0.121106595,0.19444093,-0.007105008,-0.08903247,-0.43214637,0.38622373,0.28478864,-0.20709166,0.30967343,0.34906998,0.4531139,0.013052434,-0.32021946,0.46810108,-0.45908487,-0.0306748,-0.17101921,0.17537661,-0.018408671,0.03721729,0.13367835,-1.2013272,-0.0015327334,-0.14242858,1.2238878,-1.1336038,-0.1758754,-0.3789948,1.1175258,0.5469172,-0.16512455,-0.20220234,0.3240472,-0.3430267,0.25305358,-0.3523192,-0.60407424,0.6734833,0.2701186,0.42374086,-0.26223516,-0.051558584,-1.1108285,-0.11030754,-0.35045844,0.34557,-0.2911064,0.2607628,0.07126284,0.048588857,0.93469524,0.45363444,0.24427141,-0.22094952,-0.29160908,-0.8442198,0.029792853,-0.15323108,-0.12367427,0.80958223,-0.39785194,0.5967901,0.17729568,0.7396113,-0.4556036,0.09076684,-0.42226985,-0.27645034,0.3327908,0.21855544,-0.11907798,0.37938505,0.1781658,-0.11437336,-0.217264,-0.24686587,0.061965995,0.07034585,-0.37093446,0.012713723,-0.1048401,-0.2670201,-0.2929048,0.4881236,0.2246332,-0.32927525,0.01624073,-0.06380488,-0.023145609,-0.63954055,0.5431569,-0.1981489,0.46790984,1.2497602,-0.035546698,0.47445035,-0.30703676,-0.34605446,-0.17900798,-0.14874545,0.088106416,-0.11553866,0.3336564,0.2500365,0.010507733,0.090773426,-0.31634915,0.12789185,-0.31896165,-0.0046377033,0.2570923,-0.060201883,-0.063165724,-0.10003528,-0.3528693,0.1857671,0.44549835,0.06580198,-0.21438691,-0.38568097,-0.62978804,-0.029079359,-0.09060353,0.2288926,-0.23510557,0.060286302,-0.6209258,-0.035046652,0.05836014,-0.46189135,0.09213334,0.2418791,0.25435746,0.11804901,-0.6357245,0.43993816,-0.015615098,0.088630244,0.18811698,0.5927504,-0.3633175,0.12990218,-0.37198812,-0.15195078,0.0719166,0.3513563,0.07616654,-0.23474938,0.021785248,0.007779628,-0.24642459,0.4247093,-0.14621095,-0.1244275,-0.7743247,-0.2586293,-0.25005496,0.027279668,0.30294558,0.0796628,0.10689511,0.3289258,0.29730758,0.29448885,0.2299074,0.308299,0.22914061,0.042873733,0.24143688,-0.304573,0.3409746,-0.06566715,-0.31907713
Asia_48.png,0.08471831,0.50540704,-0.5420142,0.19705358,-0.11864065,-0.23984829,-0.07705192,0.53723043,0.45809084,0.35405567,0.27874967,0.12225665,0.78637064,-0.85945874,0.058296815,0.037139356,0.25058615,0.038421646,-0.16782033,-0.15277338,-1.6556904,-0.18209016,-0.16877928,-0.31556466,0.021180145,0.17194371,0.023343988,-0.10205326,-0.1469371,0.3674373,-0.7570839,-0.37846845,0.014311105,0.24449384,-0.22360215,-0.3339371,-0.46010494,0.12043933,0.22622217,-0.26320603,-0.26711604,0.041966647,0.30350584,-0.0742759,-0.20710436,-0.09054354,-0.2606494,0.3431771,0.23546702,-0.10875286,-0.3974075,-0.0023312569,-0.32247946,-0.0930451,0.2263136,-0.054491792,0.41280746,0.06430619,0.36761427,0.21941653,-0.23432088,0.23510319,-0.29171133,0.301739,-0.01541438,-0.46263197,-0.42766437,0.9140568,0.14876598,-0.43814304,-0.5254395,-0.4148215,0.019418985,0.12244469,-0.21651132,-0.09157081,-0.4217767,-0.768723,-0.014023168,0.2894263,0.065332465,-0.40468025,0.21479248,0.34016144,0.4056487,0.1951034,-1.0460277,-0.33474487,0.61666524,0.09968655,0.44595763,-0.07847164,-6.4348,0.5618903,-0.34848037,-0.32170433,0.15637852,0.66070503,0.15713584,0.3575496,0.17962484,0.5211543,-0.30718037,-0.03728059,-0.36043835,-0.030335374,-0.015692592,-0.075280726,0.45078495,-0.34178644,0.27410418,0.29606628,-0.20083867,0.01449202,0.20871067,-0.17819193,0.775437,0.15229525,0.16129579,-0.43386906,0.003720656,0.47605962,0.050614458,-0.11225892,-0.013684381,0.6991512,0.110590085,0.4113069,-0.0022149682,0.33960366,-0.105482906,0.023313224,0.12420552,0.8716036,0.14022198,-0.05292286,-0.27848744,0.16983567,0.40381935,0.3462047,-0.07096032,-0.23032105,0.1144499,-0.3574924,-0.22123227,0.24135838,0.07571308,0.09449936,0.3066528,-0.23464262,0.010788618,-0.06651035,-0.42994183,0.16107213,-0.38797754,-0.04356829,0.3124285,-0.13862304,-0.4453762,0.22522135,0.1328062,0.0055820458,-0.05835776,-0.09259182,-0.54797894,0.7513144,0.1148503,0.028308868,-0.3374713,-0.2496292,-0.17912048,0.07410506,-0.339835,-0.72325945,0.33702233,0.11185518,-1.1940844,-0.5623467,0.68060446,-0.14326952,-0.25414485,-0.4251988,0.28888437,0.22668114,0.13222438,0.18736497,0.19515963,-0.030227818,0.15128937,-0.20482941,0.09374401,0.65850246,0.4788046,0.36784738,0.20233613,0.29160264,-0.3688708,-0.24016815,-0.11046663,0.4836593,-0.19288959,0.27580965,0.6040458,0.11121242,0.14568421,-0.42658454,-0.5617524,-0.02777028,-0.19873248,-0.007317364,0.32123137,0.697699,-0.05026515,0.047663435,0.33433244,-0.2851173,-0.72070014,0.023141444,0.34009984,-0.033699498,0.18462248,0.54425,-0.043713547,-0.54856527,-0.06497477,0.3507145,0.009941317,-0.21242931,-0.08550021,-0.5791221,0.20077887,-0.05075711,0.34919345,-0.97937346,0.10710706,0.40409723,0.38984787,-0.01657693,-0.33095056,0.13125256,0.11911555,0.05891413,0.5767131,-0.087055966,-0.41820663,-0.4209029,0.3061235,0.075823195,-0.17553288,-0.32558656,-0.19931741,-0.45374453,-0.13570064,-0.16056092,0.2994759,0.059238784,0.21344787,0.5770165,1.2042189,0.22954085,0.14992332,-0.028085638,-0.49805385,-0.39077196,0.37406138,0.31506613,-0.24118598,0.4278104,0.17716011,0.50086397,0.5492652,-0.1748688,-0.5551494,-0.031512752,-0.12315955,0.22465672,0.013675291,0.041691855,-0.2432573,0.07414646,0.62086153,0.5094842,0.7081243,0.32218978,-0.40698853,0.19237542,-0.77644575,-0.24763803,0.055908516,0.28250918,0.61167413,0.3547632,0.44400686,-0.10650272,0.21943116,0.6140327,0.6836661,-0.07070631,-0.16349988,0.3556803,-0.1230251,-0.23340058,-0.2062136,0.44279996,-0.03333813,0.3613493,0.018996151,0.23328167,0.14260475,0.54918104,-0.0043834657,0.12476602,0.8715595,-0.2896011,-0.073611,0.6195605,0.2674743,0.61221266,0.10317916,0.013854384,-0.034314632,1.5731893,-0.3511774,0.2826901,0.1499586,-0.027683824,-0.031480335,-0.3933854,0.2233619,0.023630738,0.12504108,0.049741685,-0.514322,-0.31859618,0.22210236,0.014579773,0.52347505,-0.12596203,0.009474143,0.09859332,0.30411682,0.4134794,-0.030781701,-0.16949882,0.052103728,-0.087304935,-0.47792596,0.6374208,0.35032055,0.4350977,0.080938034,-0.09750659,0.131648,-0.02244632,0.060780823,0.14741077,-0.032772623,-0.18087809,-0.191027,-0.03723024,-1.4775777,-0.17539597,-0.0473906,0.9297924,-0.54392135,-0.036827207,-0.44089544,0.95200264,0.26368988,-0.4426918,-0.19677535,0.230586,-0.4847718,0.33689284,-0.70638585,-0.25226268,-0.15833823,0.114527844,-0.27507722,-0.13614385,-0.08770584,-0.5977686,-0.0030138642,-0.77815324,0.45939195,0.1112088,0.42209134,-0.5226456,0.032812685,0.817309,0.15868203,-0.36655936,-0.0473364,-0.22050136,-0.2021334,-0.034409434,-0.22226521,0.10857114,0.29457974,-0.49632233,0.597671,0.20197523,0.45047486,-0.41723293,0.208413,-0.52615136,-0.4248345,0.09558101,0.0858492,-0.09872052,0.12379574,0.0736771,-0.07392569,-0.50239664,0.22874463,-0.25181553,-0.04650332,-0.3990414,-0.2552157,-0.2171389,-0.24210817,-0.37551394,0.36612207,0.091186404,-0.039757043,0.077049896,0.32568693,0.13367401,-1.91833,0.091326766,-0.18171252,0.23227163,0.85559934,-0.13574524,0.12643042,-0.024174508,-0.4673161,-0.09730218,-0.52762824,0.35758185,-0.17492595,0.25185004,0.19844556,-0.15861827,0.16476157,-0.18295719,-0.24940458,-0.47560343,0.21659485,0.53206885,-0.44709525,0.41220748,-0.044927925,-0.026106723,-0.05283062,0.16448817,-0.29107174,-0.1329405,-0.5509776,-0.39620036,0.01207418,-0.35891777,-0.073109925,-0.080303684,0.2056551,-0.36395347,0.42982364,-0.04771033,-0.12498878,0.043177254,0.47048464,0.031887624,-0.12765315,-0.24516872,0.30282924,-0.14262606,-0.16010284,0.043453984,0.6228101,-0.09344585,0.24290651,-0.81728137,-0.2489427,0.030057415,0.32049277,0.047485556,-0.5177664,0.3508362,0.22223975,-0.044299543,0.40057182,-0.003982477,-0.015595242,-0.23765701,0.2040403,0.06979052,-0.063545235,0.3747329,0.006979659,-0.04101692,0.16678654,0.26779532,0.41872945,-0.18330339,0.047194272,0.40933105,0.13022654,0.029072788,-0.18171684,-0.24618575,-0.0814758,-0.4179027
