,0,1,2,3,4,5,6,7,8,9,10,11,12,13,14,15,16,17,18,19,20,21,22,23,24,25,26,27,28,29,30,31,32,33,34,35,36,37,38,39,40,41,42,43,44,45,46,47,48,49,50,51,52,53,54,55,56,57,58,59,60,61,62,63,64,65,66,67,68,69,70,71,72,73,74,75,76,77,78,79,80,81,82,83,84,85,86,87,88,89,90,91,92,93,94,95,96,97,98,99,100,101,102,103,104,105,106,107,108,109,110,111,112,113,114,115,116,117,118,119,120,121,122,123,124,125,126,127,128,129,130,131,132,133,134,135,136,137,138,139,140,141,142,143,144,145,146,147,148,149,150,151,152,153,154,155,156,157,158,159,160,161,162,163,164,165,166,167,168,169,170,171,172,173,174,175,176,177,178,179,180,181,182,183,184,185,186,187,188,189,190,191,192,193,194,195,196,197,198,199,200,201,202,203,204,205,206,207,208,209,210,211,212,213,214,215,216,217,218,219,220,221,222,223,224,225,226,227,228,229,230,231,232,233,234,235,236,237,238,239,240,241,242,243,244,245,246,247,248,249,250,251,252,253,254,255,256,257,258,259,260,261,262,263,264,265,266,267,268,269,270,271,272,273,274,275,276,277,278,279,280,281,282,283,284,285,286,287,288,289,290,291,292,293,294,295,296,297,298,299,300,301,302,303,304,305,306,307,308,309,310,311,312,313,314,315,316,317,318,319,320,321,322,323,324,325,326,327,328,329,330,331,332,333,334,335,336,337,338,339,340,341,342,343,344,345,346,347,348,349,350,351,352,353,354,355,356,357,358,359,360,361,362,363,364,365,366,367,368,369,370,371,372,373,374,375,376,377,378,379,380,381,382,383,384,385,386,387,388,389,390,391,392,393,394,395,396,397,398,399,400,401,402,403,404,405,406,407,408,409,410,411,412,413,414,415,416,417,418,419,420,421,422,423,424,425,426,427,428,429,430,431,432,433,434,435,436,437,438,439,440,441,442,443,444,445,446,447,448,449,450,451,452,453,454,455,456,457,458,459,460,461,462,463,464,465,466,467,468,469,470,471,472,473,474,475,476,477,478,479,480,481,482,483,484,485,486,487,488,489,490,491,492,493,494,495,496,497,498,499,500,501,502,503,504,505,506,507,508,509,510,511
Asia_38.png,-0.25141248,0.80018353,-0.41690823,0.20446606,0.34205732,0.1407449,0.35469115,0.20315069,0.5566174,0.05695367,0.28503853,-0.02319438,0.29752812,-0.30259115,-0.10943944,0.09786216,-0.06423299,0.23415023,0.33263877,-0.48088962,-1.7687453,-0.5278078,-0.599377,-0.15189049,0.09395658,0.30719402,-0.13559492,0.10167113,-0.6868523,0.20818844,-0.36601478,0.10368333,-0.070221946,-0.06793627,0.23878847,0.114664614,-0.47619393,-0.05329594,0.14900309,1.1090406,0.21493492,-0.124403015,-0.07276645,-0.25108525,0.15889692,-1.356992,0.30547324,-0.060166746,0.34297466,0.19269033,0.106222555,-0.2949757,-0.37893534,-0.06970146,0.15263776,0.076301455,0.10297136,0.092385255,0.20175692,-0.3106119,-0.6206753,-0.08272493,0.47817028,-0.03677213,-0.15961859,0.27144226,-0.2293294,1.5109063,0.13525744,0.34403312,-0.2767533,-0.28025925,-0.8349652,0.36460173,-0.4083399,-0.18664372,-0.19561526,-0.14739475,0.07531306,0.17409316,0.29016775,-0.38037056,-0.21194349,-0.02723959,0.51049745,-0.122053534,-0.1487355,-0.060413264,0.75631154,0.077259436,0.21685602,-0.41077793,-6.0013766,0.18038258,0.10167332,0.070820846,-0.39548627,-0.02720546,-0.3114755,0.20629413,-0.49105597,0.08390351,-0.4336469,0.3340975,-0.45454606,0.2607487,-0.21145181,-0.04239899,0.010676786,-0.76811093,-0.14262137,-0.66648066,-0.15755743,-0.39643887,-0.108707674,-0.3086079,0.38579857,-0.12602463,0.15033656,-0.80061066,-0.21981403,-0.035937876,0.01376421,-0.23202752,-0.32928097,0.35997418,0.04446295,-0.12516478,-0.4176352,0.14873914,0.047454208,-0.17360133,0.4872784,0.79985154,-0.21532124,-0.027517458,0.021497589,-0.3453526,0.1646716,0.33451322,-0.0153209865,0.17517364,-0.11708608,-0.13437219,-0.49228856,-0.089067675,-0.07901431,0.23463532,-0.15543729,0.24410015,0.040254317,0.25055325,0.10876992,-0.1558528,-0.07461172,-0.48418537,0.15156698,-0.50952667,0.0305539,0.0924659,-0.30279124,-0.07248324,0.24345611,-0.43980747,0.12761024,-0.08968741,0.74099004,0.39275053,-0.06658514,-0.28862196,-0.06461473,-0.07185373,-0.0688887,0.059138477,-0.11522758,0.8895201,-0.4216079,-0.28282428,0.17599133,-0.06645825,-0.25359026,-0.67458755,-0.035695054,-0.044489466,-0.51364666,0.39938506,-0.09495032,0.12679441,-0.30006382,-0.04916923,-0.05528888,0.29577667,-0.32703945,0.38449296,0.42801744,0.22534098,-0.08050002,-0.16833425,0.16147374,0.14377289,0.37772918,0.10112006,0.576103,0.22656657,-0.20248519,-0.5869244,0.046439454,0.089663014,-0.53525853,0.5642643,0.086269826,0.6166543,-0.5457343,-0.10921166,0.22323635,-0.37399527,0.208577,0.6377582,0.53527486,-0.2225237,0.02022016,0.8534206,-0.15128979,-0.5407748,0.088889256,0.18538998,0.5672232,-0.04636457,0.12292051,0.056697637,-0.598699,-0.46205157,0.4943604,-0.41126555,-0.10336305,0.2832728,-0.22869882,-0.5500635,-0.30178207,0.19139531,0.0022520423,-0.04206451,0.20258807,-0.5323106,-0.91208327,-0.53895676,-0.021252833,0.32307583,-0.062202327,0.09375757,0.13199633,0.3272679,-0.10799377,0.51432574,-0.11930524,-0.050443232,-0.2733698,-0.021447819,-0.028673854,-0.26946044,-0.34134483,-0.031244284,0.0004399866,-0.009756114,0.0667696,0.2184926,-0.12747136,-0.09292295,0.42197162,-0.042750858,0.42392904,-0.06388025,0.018469587,0.09831567,-0.15276405,0.1704344,-0.4086721,-0.5508374,-0.32315424,0.35651377,0.010453841,0.46793368,0.13362595,0.21843955,-0.06994668,0.70120573,-0.03161314,-0.058823973,0.031931236,0.062759496,0.22530806,-0.24014944,0.2401125,0.13571712,-0.060809255,0.09837555,0.8000845,0.5307672,0.17759675,0.109234735,-0.13568324,-0.42085323,0.24334443,0.6752567,0.39970684,0.5423021,-0.084936485,0.60900456,-0.045918427,0.1785808,-0.28749686,0.02568657,0.7983357,0.109565035,0.39769045,0.2552858,0.4018395,0.6441524,0.07862476,0.2773031,0.022535637,2.136117,-0.058978707,0.14710271,-0.21295987,-0.056359477,0.3989601,-0.027862713,0.33394936,-0.12533881,-0.6440584,-0.32642037,0.1849834,-0.1657458,0.107819974,0.37366924,0.04965427,-0.21745631,0.75933766,0.10946992,0.80574906,-0.12381155,0.104166314,0.29543757,-0.054721326,0.18092854,-0.59006506,0.4474228,0.111864194,0.6269309,-0.41165107,-0.9157009,0.049295105,0.018641647,-0.12643078,0.13005562,-0.084981106,0.26426488,-0.34654796,0.5936697,-0.76487917,-0.104646765,0.28838542,1.275728,0.60483634,0.11462175,-0.027805328,0.2321762,-0.715782,-0.040773246,-0.20619135,0.071814924,0.0747269,0.00381081,-0.04798393,0.105289795,0.7402083,0.119629994,-0.9393474,0.047716767,-0.1987124,-0.65265757,-0.080681585,-0.32768416,0.09936229,-0.33818057,-0.095957965,-0.1324566,-0.16641515,0.60180885,0.37206775,-0.26244667,-0.240362,0.3120339,-0.05029016,0.14423695,-0.10475056,-0.17190725,0.21163431,0.038212843,-0.0023810565,0.15502927,0.13352342,-0.042225994,-0.15842345,0.04510218,-0.04562196,-0.13145071,0.46410894,-0.12169638,-0.079655565,-0.073642254,0.093931824,0.16471528,-0.16559216,-0.31709108,0.18385577,-0.40948045,-0.3920614,-0.37972385,0.21838662,0.017731652,0.5723674,0.09738371,-0.40358627,-0.2565482,-0.06139347,-0.22296444,-0.9699983,0.06694112,0.31552917,0.28176495,0.9299314,-0.012363046,0.19443505,0.030646604,0.04400094,0.014001101,-0.06199,0.2701724,0.21459813,0.11117377,0.25669286,0.09089503,0.19805768,-0.3137192,-0.5897177,-0.06758642,0.059217043,0.25667378,-0.13901928,0.49864495,-0.07962854,-0.47062504,-0.3624969,0.32110327,-0.48252228,-0.06151411,-0.42857242,-0.2182407,-0.09199183,-0.0026919246,0.17150494,-0.11900353,-0.24422598,-0.16419221,0.487127,-0.2202887,-0.2517681,-0.30031753,-0.4159031,-0.27041337,-0.0059149936,-0.31459266,-0.54736686,-0.26316917,-0.5877163,0.40525252,0.20997702,-0.35874423,-0.48006243,-0.107165284,0.19921315,0.074498184,0.118120745,0.37941578,-0.03733648,0.48933244,-0.16042097,0.2385846,0.10485413,-0.046605162,0.5753654,-1.063941,-0.008900747,0.054320514,0.15063116,0.010194557,-0.27288342,-0.22097766,0.18835843,-0.053796634,-0.2383099,-0.03741341,0.18448848,0.5836904,0.44059113,0.17930105,-0.4825377,0.61486113,0.14603844,-0.6140256
Asia_12.png,-0.23953268,0.87088835,-0.001996681,-0.05232784,-0.18620348,0.37659734,-0.2756426,0.15800452,0.3766332,0.03304625,0.17703675,0.13348265,0.6461489,-0.14701486,0.15758374,0.07488519,0.58584046,-0.06744283,0.6927373,-0.553144,-1.7142501,0.044161335,-0.1409021,-0.4347303,-0.5215687,0.28577083,-0.17960998,-0.020628896,-0.08935079,0.21868598,-0.43955025,-0.044531167,0.039868817,-0.049371805,0.13158305,-0.29956493,-0.06970015,-0.09741072,-0.19090596,1.1691195,0.01647795,0.107516184,-0.06327951,-0.07760618,-0.19465725,-0.52363753,0.19538818,0.24456622,0.18990284,-0.021047391,-0.1778599,-0.07780857,-0.26692882,-0.13030836,-0.02087441,0.41061574,0.6270046,0.33925414,0.6256333,0.049295172,-0.3298372,0.082397856,-0.52999985,-0.11351083,-0.32797837,-0.23122832,-0.13582373,1.7870663,-0.116748475,0.03631654,-0.27732852,-0.1866847,-0.4167511,0.24795881,-0.28204426,-0.3430856,-0.07007752,-0.46971667,-0.34307814,0.46552342,-0.045438863,-0.30846706,0.19303593,0.26395386,0.35582986,-0.106748804,0.007705245,-0.4735666,1.5057852,-0.20719495,0.73665947,-0.44455343,-6.2786736,0.23868175,0.1848629,-0.0072684735,-0.06255288,0.31811687,-0.5066469,0.331901,-0.633674,0.28191143,-0.20131683,0.44234926,-0.29131815,-0.06588876,-0.8456501,-0.033749297,0.23611431,-0.31802416,-0.26496556,-0.6154609,-0.1885108,-0.04883541,-0.24379638,-0.031813905,0.6010434,0.55219257,0.31525335,-0.9529959,-0.09405232,0.38858822,0.15315035,-0.016715817,-0.19034821,0.5016881,0.119952366,-0.10961957,0.083821476,0.1036078,-0.17386396,-0.3952164,0.0658056,0.80024385,0.18648681,0.1643126,-0.1563775,-0.38520944,0.014196176,0.39265555,0.04379359,0.24913533,-0.025041923,-0.2527124,-0.41550317,-0.2236425,-0.26813358,-0.13496341,-0.12629627,0.21257615,-0.31148803,-0.18520717,0.067323335,-0.006795734,-0.2562307,-0.27408382,0.1674676,-0.20217049,0.20049796,-0.031833053,-0.26194203,-0.1603135,0.34554785,-0.27150026,0.013653606,-0.15390724,0.5206914,0.17860994,-0.2772948,-0.15179822,0.0107555315,0.16108014,0.036231037,-0.29971486,0.033309713,0.8287148,-0.45918575,-0.13513738,0.4655897,-0.276326,0.15065709,-0.14226742,0.19726253,-0.1972659,0.06425304,0.1796273,0.2091327,0.231573,-0.28440246,-0.3133091,0.28135067,0.299719,-0.27879187,0.3399326,0.16272807,-0.16869816,-0.37736744,-0.23397726,0.15958202,-0.005409226,0.23916358,0.43817416,0.20263363,0.29244602,-0.22715329,-0.29643387,-0.21353565,-0.10358857,-0.58183175,0.307446,0.106886506,0.6213157,0.04456407,0.16227618,-0.07499509,-0.35358566,0.13455492,0.1699484,0.4487668,-0.18817908,0.45332617,1.0408229,-0.0956264,-0.67197937,-0.17403212,0.24680075,0.03732004,0.046900555,0.12938942,-0.1113517,-0.27425072,-0.05336596,0.5135045,-0.66516614,0.2227335,0.37537467,-0.26458076,-0.3919349,-0.031715497,0.52012306,0.19607894,0.1666462,0.594265,-0.36439532,-0.91238713,-0.26301935,0.2095958,0.20726342,0.21930926,-0.2129828,0.18031415,0.025316495,0.08762568,0.34262335,0.13225351,0.11619119,0.17078826,0.26391727,1.3281944,-0.30772942,-0.10894518,-0.15921715,0.066266105,0.6750643,-0.15430719,0.30408457,-0.34455386,0.30046636,0.24128053,0.14607406,0.16008788,-0.081649795,-0.13658172,-0.08265023,-0.026602872,-0.18975987,0.22321828,-0.59307337,-0.4518618,0.1929527,0.23759821,0.24777958,0.14741398,0.39775336,0.17612687,0.49496657,-0.4552117,-0.039784484,0.17346403,0.07958488,-0.27694345,-0.25335962,0.2505911,-0.0004798323,0.009195821,0.1875378,0.70891744,0.1684632,-0.210987,0.5703672,-0.20871404,-0.50528723,-0.107449025,0.80715334,0.10453635,0.45749143,-0.17008226,0.07417593,0.0047323406,0.52439517,0.16948952,0.23226908,0.7991058,0.19197315,0.11125991,0.6977494,0.57818437,0.15014116,-0.012883589,0.6488283,0.025782183,2.0321546,-0.50526196,-0.12356835,-0.39593816,-0.18741721,0.25580773,-0.12791497,-0.07359294,-0.08134313,-0.34306937,-0.33805355,0.6672097,-0.3461127,0.093976885,0.3522473,0.1913109,-0.2621306,0.33697093,-0.11300638,0.44435707,-0.12167427,0.2552855,0.23646793,-0.27651316,-0.39241284,-0.6652949,0.39997965,0.030727364,0.41116345,0.3550865,-0.46548092,0.18233712,0.06710783,0.12220469,-0.13920748,-0.082871586,0.11251159,-0.2721329,-0.008871585,-0.94359577,-0.052449666,0.32961738,1.3559111,0.4073185,-0.11066215,0.059979513,0.16138594,-0.1489288,-0.47545487,-0.5375997,-0.052413724,-0.19091335,0.22804657,-0.70999634,-0.2704221,0.4482977,0.11861648,-0.6830896,0.18164009,-0.29302856,-0.46805272,-0.5729947,-0.522835,0.33147466,-0.37960964,0.12023327,-0.29393727,-0.46451455,1.4369813,0.45446384,-0.15145667,0.16418551,0.4500679,0.054529976,-0.047931317,0.02656965,-0.07775119,0.451941,-0.101155415,0.4309732,0.36446857,0.40315452,-0.33271793,-0.22325459,-0.18966642,-0.4908505,-0.41154507,0.50557256,-0.3192202,0.02932176,0.257705,0.21617596,-0.086403206,-0.112715475,0.025386333,-0.3340004,-0.50795937,-0.4135841,-0.42269993,0.19531408,0.045427874,0.54890835,0.22958119,-0.5649793,0.19648713,0.017522015,-0.3380954,-1.592782,0.22955082,0.17226958,0.27091858,0.66263276,0.5677095,0.17209081,-0.13485178,-0.26769546,0.022072695,-0.025132447,0.39879048,0.17787221,-0.20277783,0.6526428,0.10430764,0.55455047,-0.14159554,-0.33008885,-0.071355194,0.21607758,-0.03889154,0.17033058,0.1660647,-0.3711781,-0.21139482,-0.64605564,-0.14228821,-0.27548063,-0.24468638,-0.16434917,-0.11131188,-0.14047775,0.06769847,0.062784925,-0.6576867,-0.17670009,-0.074257985,0.24171649,-0.31374586,0.023176908,-0.2632617,-0.015506507,-0.44163746,-0.4473412,-0.4980929,-0.4310629,-0.13552436,0.062193103,0.48530927,0.5449277,-0.41393346,-0.26724967,-0.2890756,0.19533387,0.34432814,-0.114316516,-0.019640148,0.35495043,0.020265352,0.18899153,-0.13016647,0.41497695,0.20106995,0.40216798,-0.5853276,-0.0152527485,0.27306116,0.14509046,-0.0859226,-0.36791566,-0.093143225,-0.1584985,0.35652918,-0.13164373,0.04052347,0.009861276,0.434115,0.091323845,0.12973617,-0.3738322,0.72279584,-0.08651952,-0.14076725
Asia_28.png,-0.139546,0.6523595,-0.22160308,0.102333136,0.2708435,-0.15371437,-0.45612764,-0.07959306,0.07076427,0.021615628,-0.1867839,-0.11425479,0.9002573,0.20669329,0.47629017,-0.22359082,0.84413636,-0.20883976,0.1898641,-0.605175,-1.8457932,0.011626855,-0.2642445,-0.6090048,-0.47808406,0.3714983,0.025368273,-0.05049363,-0.031639382,0.065373816,-0.20016031,-0.007957287,0.02415657,0.17317827,0.31876206,-0.34165925,-0.44380713,0.27217156,-0.5730846,1.5893564,0.026879001,-0.46003887,0.44169393,-0.27939796,0.19963744,-0.69865537,0.5808898,0.1581029,0.26781255,-0.004212633,0.021229573,0.08358304,-0.27937007,-0.18865265,-0.17533658,0.23760667,0.52105105,0.30336782,0.85372144,-0.070850834,-0.48027152,-0.000647597,-0.35822466,0.018577978,-0.08523842,-0.3745297,-0.035201237,1.8814323,0.35976046,-0.0903883,-0.2911475,-0.0028007785,-0.67857593,0.030419976,0.050688505,0.19639097,0.0039578304,-0.36940396,-0.0022790954,0.13740309,0.04954225,0.008694813,-0.08857052,0.35956442,0.5413671,0.33518276,-0.24546534,-0.73859125,1.0139366,-0.54331326,0.5140936,0.118035786,-5.1516685,0.50334036,-0.20874813,0.21893775,-0.5496145,-0.0060354397,0.013261214,0.37116894,-0.047380567,0.17222825,-0.5316128,0.19423322,-0.503788,-0.32336646,-0.3035121,-0.36451966,0.3945468,-0.613557,0.20705998,-0.59459406,-0.09889658,-0.08792615,-0.4119114,-0.2603297,0.48342088,-0.015638582,0.3315459,-0.66586226,0.10767621,0.63581896,0.011921346,0.30103445,-0.046499178,0.4897173,0.049407564,-0.27588636,-0.084698156,0.15879907,0.10985467,-0.55779684,0.021272495,0.7490406,-0.061175525,0.25790083,-0.20062345,0.13703859,0.21227413,0.46238756,0.047150113,0.2842611,-0.06802757,0.06486902,-0.21037348,-0.3361168,0.048989914,-0.113650516,-0.18932189,0.2377604,-0.358274,-0.026293758,0.04153903,-0.28596967,-0.3525283,-0.50997055,-0.26151577,-0.4314203,-0.04373282,-0.18282294,-0.39586255,0.031974092,0.1938684,-0.083068915,-0.16057603,-0.049720347,0.4999456,0.13798839,-0.13433245,-0.130565,0.3142646,-0.13270563,0.08367043,-0.5866942,0.07605685,0.68787,-0.57977223,-0.31391802,0.35934448,-0.275218,0.39173794,-0.47917923,0.42590475,-0.15877238,-0.0026894696,0.01366508,0.20942748,0.17140284,0.004909262,-0.17377147,0.17362043,0.65136564,0.1615722,-0.023824535,0.37940162,0.27486014,-0.23355788,-0.30997533,-0.6963396,0.021236181,0.2548772,0.2809996,0.8682141,0.55363315,-0.03037343,-0.15118413,0.1862186,-0.3887363,-0.73417526,0.28096834,0.34620443,0.8498609,0.16825947,0.050188467,-0.32033542,-0.39538372,0.27928215,0.5286184,0.46825907,-0.5387391,0.16573045,1.0931883,-0.17940056,-0.12825009,-0.04325295,-0.12935306,-0.03382866,-0.26487544,0.22892447,0.11435372,-0.5052336,-0.35930273,0.5949166,-0.29006782,0.39756703,0.16210142,0.03503725,-0.43399984,-0.03074596,0.50162566,0.046206437,0.28272057,0.36527196,-0.50195247,-0.7100411,-0.11375282,0.1751896,0.15395425,-0.34537822,-0.50045586,0.47584745,0.0075662136,-0.15081933,0.34223297,0.24687085,-0.27189535,-0.01759924,0.15238917,1.8613632,-0.20788893,-0.044856388,-0.16461678,-0.11628938,0.84766275,0.16861597,0.23432124,-0.16465119,0.024118716,0.32328635,0.26089358,-0.164845,0.30318385,-0.23054862,0.14214371,0.111400515,-0.3775885,0.023993596,-0.37486777,-0.1645332,0.33188298,0.29985824,0.21319237,-0.054397807,0.2924739,0.019999623,0.08986907,-0.074243724,-0.2382366,0.26437014,-0.025443867,0.0753899,-0.005919829,0.5467108,-0.23900571,-0.24134918,0.09930876,0.81652194,0.22039591,-0.27492857,0.40046537,-0.21377033,-0.31062767,0.1677984,0.18884204,-0.07976355,0.46774796,-0.23289508,-0.04772241,-0.12623729,0.28600305,-0.12659319,-0.4125031,0.74720454,0.21903223,-0.006610185,0.5946286,0.5824915,0.13002999,-0.02672933,0.5310891,0.13192563,1.7125714,-0.40395087,-0.3744297,-0.31570247,-0.23731019,0.2795665,-0.11690072,0.18185228,-0.35469496,-0.24710056,-0.17340407,0.09990433,-0.18845186,0.0016891196,0.559831,0.17793103,-0.04813995,0.4625999,-0.44610095,0.06649222,0.1633403,0.0045527965,0.47502425,-0.14909,-0.020862319,-0.59930146,0.29998952,0.37029326,0.14059542,0.3092935,-0.30969563,-0.058080733,-0.16539666,-0.063839495,-0.0904275,-0.31774396,0.31318885,-0.32252073,0.29697216,-0.49711528,0.021565273,-0.18819584,1.3978126,0.16822207,-0.042382777,0.019776613,0.3666243,-0.20217349,-0.31884375,-0.5167666,-0.17399728,0.014912605,0.08602913,-0.4276737,-0.1951046,0.113862015,0.2356726,-0.71551204,0.23920298,-0.512002,-0.44635728,-0.22311518,0.19384018,0.43522558,-0.69417244,0.15096398,-0.012099408,-0.57099444,1.4152273,0.41786936,-0.23453513,0.0042995885,0.05997076,0.1430736,0.08625937,0.0013609082,-0.22434369,-0.14428538,0.07836934,0.46196556,0.1409632,0.27109015,-0.22533779,-0.23218343,0.040597536,-0.2501803,-0.55044997,0.113619536,-0.10530793,0.12727898,0.11312816,-0.101578765,0.34871486,0.09603525,-0.28222275,-0.11206646,0.30108094,-0.41256538,-0.21771543,0.40644073,-0.16483589,0.4014672,0.15001698,-0.26855254,-0.021282826,-0.35603744,-0.55934376,-1.0716138,0.24419549,0.18812647,0.43648267,1.1670479,0.22564483,-0.072975084,0.3396031,-0.5431635,-0.20955613,-0.27179635,-0.16663224,0.006219849,0.1601142,0.68877786,-0.22143653,0.6240767,-0.3543471,-0.46658796,-0.09644672,0.16527274,-0.15022893,-0.38453534,0.4666118,-0.16414717,-0.121966645,-0.4525735,-0.05811806,-0.53298855,-0.43273413,-0.28798145,-0.2460966,0.06550597,0.11675416,-0.019977242,-0.5225803,-0.18714309,-0.018640205,0.3390441,0.07185259,-0.051834486,-0.4254651,-0.17818424,-0.43461257,-0.35762125,0.025337689,-0.4327772,-0.10245696,-0.170009,0.24665835,-0.007355362,-0.28896093,-0.5245509,-0.37121055,-0.24921817,0.29827854,-0.09875893,-0.047834188,-0.40426087,-0.07742955,0.41717023,0.2908751,0.026198596,0.40596128,0.41993356,-0.2826648,-0.318709,0.26371706,0.4420059,-0.073211245,-0.12398794,0.02238901,-0.15651023,-0.037726447,-0.4360414,-0.43609223,0.21334846,0.08479183,-0.09596671,0.06530844,-0.35234317,0.7530322,-0.063326806,-0.14821413
Asia_30.png,-0.09069644,0.5296663,-0.0036033392,0.44334024,0.21135765,0.4980024,-0.099867985,0.14255321,0.102733426,-0.32806373,0.6028301,-0.2802087,0.3199018,-0.12044118,0.2734387,-0.43169993,0.3203692,-0.14962108,0.18396515,-0.40762585,-1.6953969,-0.017726049,-0.010591961,-0.3284767,-0.27304578,0.2997526,-0.3203492,0.1227089,-0.23787953,0.07478954,-0.63045913,-0.0458306,-0.064967215,-0.45706773,0.13040076,-0.3030358,-0.060842283,-0.025135696,-0.2672904,1.0970142,0.051492285,-0.09647654,0.18198456,0.10451511,0.20712969,-0.86506194,-0.10569028,-0.03128098,0.12166585,-0.2400261,-0.047114342,0.48438704,-0.20306665,-0.07063872,0.04626012,0.6515173,0.1793738,-0.033739597,0.39690027,0.022294596,-1.1750975,0.3602113,-0.22764269,0.09971999,-0.007061027,-0.06758304,-0.28682858,2.0536273,-0.10980319,0.113017745,-0.018060952,-0.3101145,-0.3570618,0.3471114,-0.25060236,-0.32008493,-0.22583932,-0.44707274,-0.020415714,-0.03441575,-0.10469447,0.11367293,0.14424512,-0.055765636,0.35833484,0.14061707,-0.60528183,-0.23075081,0.8719535,-0.14203934,0.12972708,-0.14851685,-6.1093745,0.27039713,-0.2526949,-0.008069545,0.09362993,0.35554433,-0.11534581,0.3009004,-0.39115503,0.7687517,-0.060982294,-0.07793672,-0.74984956,-0.015124962,0.13946995,-0.4893214,0.33740643,-0.35474527,0.1386457,-0.005549252,0.20231175,-0.44671455,-0.008346483,-0.5204387,0.5920782,0.14725292,0.24379084,-0.8368547,0.33709475,0.32373673,0.069979005,0.19121322,0.082442254,0.2619605,-0.18752247,-0.3228244,-0.27329627,0.405774,-0.22180395,-0.2542834,0.44023824,0.8447596,0.075513065,0.0345991,-0.0926684,-0.4010781,0.07948156,0.46293113,-0.030329138,0.26263422,0.13037723,-0.31745186,-0.17975211,-0.17507604,-0.21537963,-0.4027611,0.17692375,0.16234067,-0.59920144,-0.007838163,0.1744402,-0.04631564,-0.20079857,-0.59506756,0.11017439,-0.4190223,0.05316733,0.20413503,-0.02500023,-0.15401886,-0.02882976,0.15006088,-0.23986287,-0.16327786,0.6649085,0.2829485,-0.35866603,-0.14644761,0.08891891,-0.0015388131,-0.2972273,-0.5040991,-0.16280134,0.14009786,-0.5724855,-0.24756435,0.3706688,-0.082885966,0.42563683,-0.64871323,0.1672711,-0.12887838,-0.03449233,-0.17797981,0.07107059,-0.03478667,0.06433688,-0.060077626,0.32611555,0.5865382,0.22179684,0.19035779,-0.19644949,0.07625756,-0.30668554,0.06499198,-0.487037,-0.102039546,-0.10044995,0.41770488,0.14749435,0.34877867,0.2519846,-0.17022067,-0.23100908,0.13040411,0.021746159,0.23652382,-0.14008361,0.4365905,-0.27815035,0.4830002,-0.070176885,-0.2588631,-0.042263463,0.3545569,0.45739746,-0.53237605,-0.2501626,1.4495671,-0.042884603,-0.34371835,-0.32889408,0.24985336,-0.30906147,-0.029448945,0.02574306,-0.0028343648,-0.61651677,-0.06999411,0.42987475,-0.22205605,0.07915055,0.009722199,-0.049748875,-0.18521772,-0.21170117,0.08088583,0.06650774,0.2634139,0.46352106,-0.29328462,-0.6036024,-0.3211808,0.46874154,0.0083235055,0.05503247,-0.12404774,0.2353919,0.22705412,-0.19486731,0.2222228,0.16358593,0.23829505,0.36628366,0.22080575,2.0868075,-0.073079035,0.13726754,0.17934066,0.017799217,0.7418705,0.00065337867,0.020057581,0.20541728,0.041109435,0.30501488,-0.035918944,0.1430947,-0.20441273,-0.021411046,0.3758824,0.14715244,-0.27403688,-0.032563694,-0.76012284,-0.405198,0.21415272,0.27558026,0.18883546,0.0084314495,0.28106672,-0.0056377575,0.3714642,-0.50276935,0.12442819,-0.009165846,-0.016783506,0.08699983,-0.22760786,0.11870018,-0.04286836,-0.032372884,0.193064,1.142494,0.20623267,-0.048505716,0.34657067,0.103679694,-0.41687915,-0.2915064,0.62987936,0.26655284,0.53073883,0.05830244,0.33745027,-0.0288971,0.02464728,-0.27886754,0.49873084,0.84333146,0.005781591,0.46386516,0.36857554,0.59072345,0.319437,0.120391145,0.32724738,0.023379296,1.1389613,-0.25466588,0.10667666,-0.27592933,0.17888243,0.46644115,-0.075555235,0.15896511,0.005505413,-0.0008802414,-0.15077417,-0.110526994,-0.64098656,0.2713495,-0.041870717,0.25715238,-0.11940046,0.3308232,-0.13136911,-0.11536151,-0.082579754,-0.10251063,0.07079208,0.24910441,-0.06365825,-0.34904304,0.289698,0.14485155,0.7142255,0.23207091,-0.8265806,0.6791475,-0.021971826,0.07672168,-0.55202746,-0.21712865,0.4758092,-0.15272874,0.061393492,-0.956336,0.013841486,0.038398445,1.030096,-0.302671,0.30278188,-0.062841095,0.31680527,0.075111754,0.18641607,-0.44881195,0.34895742,-0.012664638,0.39101166,-0.2381494,-0.17368023,0.49004814,-0.01343362,-0.42055678,-0.08889733,-0.1916437,-0.6406478,-0.19367675,0.23220757,-0.033082172,-0.58981264,0.38491613,-0.19180316,-0.44856432,1.2930651,0.36966094,0.39397454,0.17188875,-0.108571745,-0.27355003,0.32909277,0.04450719,0.04296632,-0.0055390894,0.0112746805,0.43558097,0.28411186,0.35136184,-0.3619259,-0.32684788,-0.08215029,-0.58742386,-0.08586556,0.5103501,-0.38473263,0.13149644,-0.29700935,0.03551986,-0.15575244,0.012364402,-0.29643166,0.036716353,-0.33399504,-0.17553961,-0.065642126,0.056982383,-0.17575955,0.7464717,0.2825048,-0.8163191,0.21209335,-0.09725754,-0.48706707,-1.3376192,0.0733538,0.051386595,0.26069623,1.7416873,0.011921132,-0.04688798,0.2124767,-0.10456806,-0.3229091,-0.08652036,0.14995515,0.04387875,0.06591144,0.50036526,0.013901606,0.124965146,-0.16127586,-0.3811534,0.2850611,0.16763109,0.22239254,-0.47741723,-0.17411174,-0.16398281,-0.55501735,-0.61565197,-0.09877315,-0.27947396,-0.4944189,-0.2288288,-0.040158514,0.05042255,0.66289264,-0.32707095,-0.18608877,-0.09467462,-0.18970063,-0.04650563,0.037608385,0.10864389,-0.16622451,0.3102266,0.09227449,-0.22808789,-0.5879298,0.033502027,0.23603022,0.04894282,0.10873888,0.21359971,-0.4490965,-0.037840948,-0.08915773,0.2882401,0.07983996,0.35311255,-0.04210785,-0.17848772,0.22738948,0.07358288,-0.4247562,0.43411776,-0.005829394,0.07871722,-0.8847395,0.36484864,-0.14664151,0.13877049,0.11392479,0.0050347373,0.11229262,0.13475473,0.06832859,0.17769814,-0.37917545,0.30858055,0.08396098,0.19766472,-0.14348038,-0.44482327,0.9637977,-0.026932519,-0.11474274
Asia_32.png,-0.25493896,0.5502684,-0.054234415,0.07900788,0.06473905,0.10201648,0.16264455,0.0018055737,0.38744798,0.26062,0.027011469,-0.17025462,0.35839796,0.0027429238,0.018633388,-0.3712683,0.83076197,-0.23707688,0.46554467,-0.35963243,-1.9632677,-0.09458509,-0.029036317,-0.32229134,-0.7540562,0.38199034,-0.019224942,0.018976256,-0.42744732,0.24015966,-0.79544544,-0.019524679,-0.21566609,0.026578695,0.008093551,-0.2854711,-0.022250649,-0.04082594,0.17300323,1.7268858,0.3970819,-0.5217505,0.10920649,-0.16802636,0.34826958,-1.4475268,0.3750997,0.27705085,0.23834532,0.35792327,-0.05279316,-0.3395036,-0.11036362,-0.07182909,0.13400914,0.36228132,0.34033826,0.5443274,-0.27102208,0.294033,-0.9111956,-0.27416128,-0.5496523,0.09209317,-0.057058446,-0.43992206,-0.25548607,1.5099348,-0.485902,-0.049744435,-0.0830535,-0.23514967,-0.43741548,0.005983553,-0.123372465,0.06327788,-0.18327482,-0.46233812,-0.48570925,0.23194702,0.21785107,-0.17361845,-0.16928625,-0.10961271,0.42093745,0.4435622,-0.16385046,-0.35706908,0.9731949,-0.4642883,0.37444985,-0.6552691,-5.6566243,0.031510003,0.2267168,0.16981834,-0.24470308,0.42744994,-0.22691447,0.099595815,-0.01644355,0.045293774,-0.39285567,0.17679214,0.21089906,0.030612633,-0.24111317,0.13620573,0.4135611,-0.56270844,0.2268674,-0.26017267,-0.32073122,-0.52411056,-0.28352213,-0.51702714,1.0286968,0.12377592,0.4028285,-1.1095482,0.35620147,0.0010153353,-0.63532007,0.08886783,0.079896316,0.003947884,0.0034962557,-0.5444363,-0.3744106,0.007254496,0.16290867,-0.6307335,-0.45601285,0.7845117,0.08101085,0.033465106,-0.17714718,-0.27878797,0.08774348,0.615731,-0.06380188,0.086389095,0.0005790889,0.118655324,-0.64360464,-0.059024602,-0.1747829,0.049889866,-0.25093892,-0.07957585,-0.2829669,0.06326109,0.35319072,-0.053919278,0.13296244,-0.45151216,-0.22800738,-0.026564337,0.021001993,0.15898359,-0.22641942,0.14288588,-0.3585773,-0.14408264,0.030547649,-0.16966999,0.3657324,0.10607791,0.09852029,-0.39432213,-0.06731797,-0.15182284,0.17585002,-0.23223191,0.22037043,0.5840538,-0.41292337,-0.33263263,0.18028383,-0.14199889,0.50942206,-0.11254819,-0.1675856,-0.024162747,-0.06074468,-0.028611422,0.0028306954,-0.045383353,-0.3500929,0.011145696,0.06815473,0.3708726,-0.021789968,-0.101496786,0.25225577,0.006201843,-0.76931226,-0.15777552,-0.12972136,0.22159727,0.17929617,-0.17260784,0.117125764,0.5169053,-0.21860303,-0.5233804,-0.52086663,0.12783034,-0.56581724,0.16836962,0.2773083,0.78741723,-0.011740796,-0.022988597,0.16122463,-0.50121963,-0.08389141,0.5334104,0.49337453,-0.3285179,0.2158049,0.89019495,0.091722734,-0.1295761,0.15616688,0.12545834,0.11513583,-0.06319556,0.23301437,0.25177696,-0.11700639,-0.1268219,0.05150394,-0.47512263,0.11705876,-0.032429732,-0.045083568,-0.39258897,0.40494075,0.7437732,0.21352114,-0.12261496,0.40500495,-0.45356548,-0.74649787,-0.21649057,0.2825687,-0.09885057,-0.30941588,-0.69389725,0.26256528,0.089457735,0.014170706,0.33657753,0.35692015,0.1938941,0.18341075,0.3650438,1.3428618,-0.1951312,-0.16785951,-0.064331025,0.39654136,0.29777056,0.09762071,0.3153484,-0.22586387,0.18393165,0.39105743,0.018805414,0.4853397,0.111523494,0.1614635,0.2858659,-0.20936742,-0.20917627,-0.29410118,-0.6198047,-0.290509,0.49102855,0.009614676,0.28314158,0.05470378,0.26234213,0.0874026,0.2711334,-0.06388116,-0.53135407,-0.08949976,-0.037017833,0.077437386,0.051913194,0.34519744,0.117388494,0.26943436,0.1253429,1.124167,0.2783053,-0.12549333,0.3073445,-0.1719641,-0.78721374,0.1913751,-0.02493295,0.111910604,0.5247737,-0.46096557,0.1874013,-0.2004693,0.31623203,-0.5549959,-0.019228034,0.78238374,0.22084168,0.21878882,0.12389402,0.5116673,0.4665798,0.11809815,0.34408164,-0.122180656,1.8669683,-0.08884232,-0.34353748,-0.26647574,0.13190918,0.1241758,0.047896937,0.26521397,-0.04203707,-0.49424502,-0.34345296,-0.19238082,-0.2756358,-0.07701333,0.19399664,-0.060669817,-0.2836558,0.34186435,0.3917844,0.17794126,-0.37819353,-0.16197327,-0.04146459,0.5032461,-0.07661555,-0.24513252,0.5447267,0.23291679,0.46684447,0.39889604,-0.3798625,0.26884264,0.08640369,0.01263687,-0.09951981,-0.29236546,-0.07083757,-0.10689717,-0.010884438,-0.36653376,0.24259774,-0.0044830423,1.1617671,0.08525625,0.08810809,-0.33564553,-0.019719005,-0.20290752,0.06613401,-0.1406978,-0.15231214,0.35139972,0.33843935,-0.096088886,0.20165095,0.09553107,0.24613044,-0.8893833,-0.17987332,-0.17126706,-0.5670392,-0.16319007,0.07937294,0.1686986,-0.09850229,0.2359697,-0.053411014,-0.11785332,0.9402513,0.86529934,-0.05378209,0.16806705,0.21689612,-0.1757654,0.35793597,0.16780774,-0.3114728,-0.24709561,0.015699748,0.16408214,-0.026753709,0.3796211,-0.29563224,-0.1849085,-0.27791125,-0.4626313,-0.12200841,0.35843962,-0.4661596,0.056185797,0.06946198,-0.29547998,0.34634653,-0.3765489,-0.13509002,0.03323731,0.35344505,-0.4733742,-0.22772612,0.14395875,-0.15209189,0.3632258,0.12435633,-0.8489552,-0.4067133,0.036273092,-0.36799932,-0.99338514,0.36356604,0.24849284,0.4293537,1.2461252,-0.018741816,0.24647686,0.11168986,0.018104516,-0.107926674,-0.24387261,-0.052058265,0.2547951,-0.048766952,0.0091322735,-0.032559246,-0.16817975,-0.293682,-0.19151513,-0.3108273,0.2190885,0.368328,-0.21436478,-0.14826852,-0.07820329,-0.042690508,-0.32665423,-0.097159915,-0.5019156,-0.34862864,-0.4088707,-0.3354392,-0.06508599,0.1757006,-0.25946745,-0.45581603,0.059518974,0.22679117,0.30331832,-0.32861015,-0.13045685,-0.22504754,-0.018961001,-0.19958663,-0.38782254,-0.19887963,-0.2429412,-0.2171688,-0.2141885,0.0016890727,0.321827,-0.15640248,-0.31810045,-0.13133928,0.13691148,0.107900456,-0.07235141,-0.22557351,-0.17869939,-0.13837023,0.07793841,0.2106584,0.0425589,0.3397224,0.045095786,-0.8427813,0.21787384,-0.039282344,-0.39519584,-0.2686891,-0.21118788,-0.02337937,-0.17666674,0.040960625,-0.2869836,-0.24647865,0.46980387,0.08365567,0.1864672,0.3682726,-0.52251214,0.9656045,0.0015032291,0.098894276
Asia_41.png,-0.036420703,0.7100183,-0.10429298,0.002673369,-0.22861913,0.45458597,-0.26030558,-0.11419466,0.32999605,0.055405453,0.051301897,-0.36446694,0.7825798,0.08281523,0.65744257,-0.19237722,0.8616458,-0.1741711,0.5484973,-0.5046737,-2.0502298,0.2648666,-0.031534135,-0.044165507,-0.43528467,0.3861707,-0.23185088,0.18393822,-0.22165753,0.1972865,-0.5471756,-0.14818178,-0.18855304,-0.048904184,-0.14119354,-0.10642747,-0.4149348,0.006552011,0.0037393123,1.0821198,-0.11129882,-0.21687618,0.4784017,-0.19234565,-0.264475,-1.3562773,0.22518651,-0.12252727,0.15664391,0.22989216,-0.5263622,-0.10940327,-0.4451149,0.009386852,0.00344418,0.5446752,0.7974396,0.1867711,0.33169112,-0.022484258,-0.15886033,0.14479814,-0.4508295,0.22260259,-0.16055444,-0.36474702,0.1301404,1.8920572,-0.082852595,0.04461133,-0.29358235,-0.43252307,-0.62740123,0.22642568,-0.0021029562,-0.20860738,-0.11910754,-0.3835249,-0.17676961,0.34761533,-0.13742647,-0.6308075,0.31908688,0.38839728,0.5394676,0.14820588,-0.58369815,-0.2266885,0.7971404,-0.046595924,0.3611623,-0.29576138,-5.1404634,0.63778174,0.105195805,0.19939399,-0.028902248,0.39418507,-0.31942666,0.90905416,-0.44226938,0.15832707,-0.15848267,0.22685802,-0.26815468,-0.008216914,-0.5134294,-0.079814345,0.403897,-0.33258006,0.019637696,-0.40326205,-0.25784796,-0.090499476,0.15996164,-0.33267123,0.23949096,0.4047882,0.14685476,-1.1494235,0.37255096,0.5915862,-0.27754316,0.3270616,-0.096917,0.43319798,0.05568234,-0.012762919,-0.31696287,0.06128846,-0.22534648,-0.26021785,-0.10819082,0.7335642,0.3521344,0.107141465,0.022988252,-0.33081412,0.22190261,0.13617268,0.030203968,0.12677148,0.13107586,-0.105294794,-0.119436,-0.13007247,-0.0026801974,0.0030766563,-0.1056346,0.26400545,-0.11824286,-0.33669528,0.14678414,-0.06372224,-0.13643327,-0.14102875,-0.32704076,-0.22142658,-0.017339138,-0.013746467,-0.06533739,0.32977632,-0.06694916,-0.052287415,-0.17028639,-0.08686483,0.17671308,0.33597916,-0.474142,0.03121784,0.50097954,0.26918906,0.017289355,-0.38387546,0.00058065355,1.0153097,-0.41727227,-0.50046015,0.15749985,0.023594838,0.29884937,-0.3814353,-0.09793182,-0.035686344,0.020724043,-0.084738255,0.12388461,0.024006438,-0.2650933,-0.3095163,0.27363455,0.32272545,-0.26909626,0.2428521,0.032402754,0.31238317,-0.6016221,0.17568676,-0.54510844,-0.113538556,0.33852333,0.11612977,0.11490488,0.41427878,0.008756705,-0.49241096,-0.15842792,-0.22246453,-0.30155078,0.24309245,0.16172132,0.80867106,0.074051365,0.075708985,-0.3540275,-0.05508125,0.16161372,0.13854595,0.6690251,-0.29718482,0.33561498,0.72694165,-0.0127642155,-0.09768056,-0.13245964,0.3320828,-0.12276978,0.0030457228,0.3790561,0.38000786,-0.11550093,-0.056302235,0.3267759,-0.3907579,0.3836437,0.47102153,0.06075263,-0.22486474,0.22934695,0.37119412,0.37161863,0.15123785,0.110456936,-0.4103523,-0.49588835,0.092510104,0.2134409,0.4862159,-0.20262074,-0.6133782,0.3765223,-0.07764911,-0.27236274,0.35142788,0.14775021,0.26749915,0.17272285,0.1109334,1.2064354,-0.54501796,-0.17184141,-0.3633592,0.44382527,1.1560295,0.00395591,0.1510098,-0.05982507,0.3637839,0.47590387,0.04954195,0.28903657,0.1465765,-0.12740543,0.13093123,-0.197642,-0.63144845,0.109823056,-0.7152348,-0.4732064,0.2819707,0.33623204,0.2735131,-0.2043135,0.43016714,-0.04537826,0.11573522,0.22186211,-0.43423754,0.033018358,0.1749983,-0.033138767,-0.06975635,0.25225827,0.08534253,0.15841013,0.065274626,1.0785538,0.4319231,0.07125658,0.48254603,-0.4180818,-0.42847466,-0.16720462,0.4973747,0.0701298,0.7534172,0.02144058,0.053679854,-0.20785819,0.5456314,-0.4396527,0.02712056,0.7310023,0.26232633,0.120912716,0.08554788,0.8488626,0.38688463,0.25082704,0.51935756,0.045874946,2.1444016,-0.22761229,-0.16448845,-0.17187752,-0.65671635,0.3651306,-0.24078698,0.25338748,-0.50365853,-0.22246681,-0.14370272,0.028496109,-0.33630085,0.008231286,0.023869343,0.20906988,-0.108241424,0.40343824,0.16943209,0.21863145,-0.30772543,-0.16575211,0.04681076,0.2540483,-0.0028506406,-0.5335276,0.15665047,0.09035588,0.23091844,0.59992886,-0.33981597,0.41141677,-0.057403624,-0.0017233789,-0.40666178,-0.40831506,0.31540602,-0.2000235,-0.16068146,-0.58070326,-0.11499135,0.13543609,1.4578103,-0.2400664,-0.045480385,-0.19760995,0.14196551,0.19022658,-0.4312376,-0.32807878,0.14776494,0.09223327,0.2989508,-0.50722796,-0.16284847,0.82516074,0.11321053,-0.3317466,0.1774759,-0.63782126,-0.8931389,-0.38565958,-0.19228394,0.24480155,-0.35665673,0.37961483,0.011390105,-0.12808476,1.7418889,0.49614772,-0.05935259,-0.35761943,0.18730521,-0.2573675,0.24906328,0.13838235,-0.3431329,0.31276563,-0.3023252,0.55262095,-0.11127491,0.043396056,-0.35879245,-0.22748598,0.05834402,-0.59215564,-0.38326138,0.28507826,-0.112550944,0.50297844,-0.13686262,-0.2369042,0.14045024,-0.20505516,0.049166143,-0.33205983,-0.026307948,-0.2671939,-0.67655456,0.052345626,0.19614953,0.4139132,-0.044992376,-0.3113381,-0.38643837,-0.009818569,-0.11224647,-1.7952405,0.08519231,0.04220042,0.7108779,1.2514176,0.35164115,0.075732395,-0.07884527,-0.09634308,-0.15010133,-0.085250124,0.009229064,0.11774565,-0.088872746,0.35849366,-0.13374361,0.18432343,-0.50793433,-0.25885433,-0.25933376,-0.08114449,-0.24638563,-0.33637697,0.11428994,-0.106918424,-0.19573708,-0.26881704,-0.16403936,-0.48907933,-0.2207382,-0.37477434,-0.5902635,0.23592216,0.07879016,0.07109097,-0.4937641,-0.031902097,0.37074518,-0.1556534,-0.09093775,-0.10559492,-0.29411775,0.20029302,-0.26515338,-0.27676046,-0.59835565,-0.6328029,0.18334498,0.09883959,0.37655514,0.36152613,-0.49856243,-0.4876842,-0.48028192,0.025969699,0.20531102,0.17721704,0.093192525,-0.34753424,-0.119046286,0.49352846,0.13836783,0.14527768,0.35065672,0.13319825,-0.28224748,0.01974862,0.23380885,0.31349644,-0.27518636,-0.016786288,-0.23762745,-0.0694188,0.09248175,-0.5740517,0.052839242,0.15022549,0.16671887,0.23732796,-0.51857305,-0.14658312,0.673298,0.15458345,0.028092232
Asia_42.png,-0.03518085,0.7568435,0.20047402,-0.26842982,-0.025056638,0.6208501,-0.31174475,-0.0602293,-0.11493793,0.07986475,0.13036335,-0.22003067,0.53544915,-0.032499723,0.43803695,-0.11395828,1.2909853,-0.14700948,0.24405493,-0.47436595,-1.7965479,0.18226004,-0.11037619,-0.23889893,-0.40671146,0.5470483,0.1806319,0.059432674,-0.4403576,-0.11493397,0.11496653,-0.30013424,-0.44572103,-0.11098051,0.15506175,-0.4905091,-0.28404045,0.06299886,-0.17724025,0.973113,0.27912962,0.071204826,0.21406697,-0.17990777,-0.18615265,-0.98134565,0.23052815,0.10396734,-0.06023325,0.22391596,-0.1508458,-0.28945976,-0.14292037,-0.26740927,-0.31134516,0.69030726,0.37380293,0.4331106,-0.17086771,0.011251941,-0.33783415,0.24716876,-0.04555905,0.48488748,-0.15719962,0.05006575,-0.18715258,1.7822393,0.041969657,-0.18334652,0.14067817,-0.68187433,-0.42705667,0.30313396,-0.3954993,-0.24066684,0.08051979,-0.3480752,-0.42019448,0.3469931,0.1281718,-0.48904538,0.35815448,0.10423778,0.46732476,0.42945188,-0.22384027,-0.4346686,1.2376227,-0.32134125,-0.13262686,-0.09246806,-5.6705627,0.2898372,0.43182713,0.39870435,-0.20922716,0.30135995,-0.58756715,0.4682436,-0.31605,0.5715957,0.06587148,-0.18355685,-0.77143365,-0.19597311,-0.3663452,-0.119959235,0.041398495,-0.3273037,-0.24163535,-0.22260833,-0.24956122,-0.1947804,-0.09899165,-0.20675385,0.38499016,0.41766086,0.4414541,-1.136218,0.13444239,0.07297124,0.20975104,-0.04711981,0.0028841011,0.5854836,0.26039064,-0.23882969,-0.41959685,0.2022695,0.012602985,-0.788945,0.14456958,0.760224,0.4281795,0.36026132,0.513429,-0.9885894,0.014881548,0.43099487,0.1124893,0.14983512,0.13414751,0.04502406,-0.40329456,0.10563782,-0.07867447,0.13103464,0.20401852,-0.047755606,-0.26088187,-0.17726032,0.3975985,0.040623404,-0.15391196,-0.26757786,0.21190284,0.106956296,0.10517799,0.12381473,-0.28262112,0.0065247156,0.027547479,0.015709266,-0.2302468,-0.28698125,0.24899083,0.27669454,-0.18888004,-0.017503284,0.3069906,0.48840505,0.111049116,-0.23609897,0.20959267,0.61403877,-0.15808547,0.07374664,0.494106,-0.34358817,0.05254856,-0.13864224,0.109677345,-0.25611922,0.046807684,-0.05847709,0.048863553,-0.08944841,-0.19392785,-0.17270562,0.4314977,0.17258324,0.097865626,0.18014823,0.018223554,0.08789088,-0.72628486,-0.27123356,-0.13942116,0.037823692,0.34094626,-0.09269638,0.4582004,0.2372762,0.058565553,-0.5181075,-0.060431033,-0.11160887,-0.28705698,0.27065235,-0.0074514076,0.95665306,0.34489417,-0.08988491,0.07747097,-0.5620125,-0.034923933,0.5918077,0.8213773,-0.18884383,0.54217184,0.94930106,-0.22193003,-0.13756566,-0.2802579,-0.5066004,0.07783756,-0.45481047,0.20066155,0.09605205,-0.38684362,0.1276148,0.2630943,-0.38111275,0.0028729327,0.40826803,-0.1433132,-0.20644617,-0.19507754,0.6044593,0.012207765,0.08983952,0.46491802,-0.29481456,-0.30561507,-0.33296826,0.17412405,0.29907942,-0.15663572,-0.70425874,-0.08377514,0.2271547,0.017748773,0.59082186,-0.13596897,-0.04588092,0.08011811,0.006855361,0.8863864,-0.06738077,0.07558538,0.25581512,0.317479,0.9478082,-0.071975,0.2844442,-0.20332403,0.24716598,0.11989778,-0.17566994,0.20486584,-0.1338594,-0.043011546,0.12301357,0.1269238,-0.3444957,-0.6115906,-0.39293048,-0.28060004,0.038475588,0.23406562,0.4560113,0.18076259,0.39560983,0.3766385,0.209737,-0.31715554,0.004800983,0.09674903,-0.18161738,-0.09163191,0.00868613,0.3571213,-0.25184876,-0.15714952,0.34622955,1.1007047,-0.20425254,0.31685716,-0.1500901,-0.1863423,-0.085948616,-0.25464702,0.87466383,0.015409894,0.6373925,-0.17461014,0.124268435,-0.13802034,-0.0012298524,-0.06853451,0.2997064,0.75832653,0.25385386,-0.0036034957,0.11846034,0.5295509,0.42025948,0.406653,0.2501956,0.27114058,2.3424354,-0.13872123,-0.13509548,-0.16895488,0.27061722,0.3611358,0.058240533,0.017064933,-0.13503616,-0.4557424,-0.2539683,0.07506576,-0.14919855,0.042061895,0.2453791,0.010712862,0.04235989,0.2995045,-0.021119013,0.091155045,-0.52272046,0.14433724,0.05154024,0.18475896,-0.3276576,-0.20136017,0.18684636,-0.029254775,0.06947753,0.7474655,-0.014605864,0.4239257,-0.0039106384,0.29909635,-0.19368458,-0.5422966,-0.18070795,-0.0052892044,-0.014804035,-0.5640548,0.021269552,0.21552902,1.290273,0.2411381,0.085561626,0.026357383,0.08481639,0.31432092,-0.51599514,-0.3507278,-0.23403238,0.13422143,0.19827974,-0.19286346,-0.23505554,0.43528312,0.075185746,-0.6450006,-0.23691916,-0.53917634,-0.6449734,-0.109393,0.15395398,0.36126631,-0.38828892,0.21019898,0.21216491,-0.44830376,1.236231,0.2874471,-0.22821501,-0.03812346,0.27544293,-0.32650918,0.38198403,0.045673266,-0.32271215,0.49925116,0.06215584,-0.047386147,0.061700657,0.3801843,-0.4493238,-0.2750073,-0.0889418,-0.22930205,-0.44746378,0.14713934,-0.48064438,0.25086966,0.27554697,0.20364667,0.3762747,-0.3216486,-0.088299766,-0.11953993,-0.14505091,-0.5781688,-0.5567007,0.14597282,-0.48015046,0.27072167,0.46940622,-0.42879015,-0.13062774,-0.26046553,-0.5277514,-1.626657,0.5030105,0.24925797,0.42055923,1.0842375,0.19561209,0.48170802,0.07773589,0.18489149,-0.06855363,-0.006748315,0.2737611,0.24186751,0.070616275,0.24163598,-0.15905093,0.49250972,-0.20991331,0.22736232,-0.18307109,0.24407002,0.28017315,-0.18602899,0.06673549,-0.10269575,-0.5023643,-0.4926475,-0.23175913,-0.6270233,-0.14011943,-0.32643744,-0.099782795,-0.08823012,0.0050840974,-0.24154343,-0.4328298,-0.4365118,0.28353566,0.27820182,-0.41110075,-0.47798115,-0.29358432,-0.18231623,-0.15873088,-0.63084084,-0.48158392,-0.2469047,-0.03493634,0.06787525,0.18156596,0.3833595,-0.34579802,-0.70116305,-0.20163226,-0.1536241,0.2464022,0.15151975,0.14288877,0.19022682,0.2839179,0.15943697,-0.09866563,0.5301213,-0.10044128,0.5661363,-0.7697737,0.10952672,0.1184955,-0.24925089,-0.26176032,-0.26262826,-0.14036001,-0.41688108,0.005717367,-0.065998666,-0.047044612,0.12527876,0.0035511553,0.09086127,-0.0010258406,-0.8661071,0.6419099,-0.16824915,0.1850923
Asia_44.png,-0.3120766,0.77147484,-0.21383047,0.064651065,0.115011945,-0.0601054,-0.08379529,0.13106012,0.20440784,-0.14181732,0.060806,-0.098387584,0.40963882,0.08675082,0.06897272,-0.3666006,0.8747333,0.22207871,0.58147013,-0.30805534,-1.6741208,0.043618433,-0.18707658,-0.5211789,0.20729393,0.54954034,0.05531414,0.004009098,-0.279774,0.37225673,-0.4861322,0.072969995,-0.29596514,0.110246934,0.15638864,0.2671082,0.04669673,0.0051098466,-0.15438217,1.0484676,-0.12511927,-0.22082889,-0.06655595,-0.50410753,0.08905651,-1.1467998,0.56569713,-0.007566154,0.17667472,0.25425097,0.30825257,0.025155865,-0.15559858,0.06231109,-0.14192231,0.42419547,0.7951844,0.45382386,0.24593593,0.13924068,-0.4663202,-0.29377016,-0.50205696,-0.074410886,-0.10855147,0.19402923,0.009112497,1.3816212,-0.15028831,-0.09925872,-0.17638958,0.018113006,-0.6505861,0.39106476,-0.01519613,-0.13573094,-0.27486318,-0.36799634,-0.24927208,-0.3835618,0.1960059,-0.18126665,0.022599518,-0.30149361,0.22691761,0.2277296,-0.13405803,-0.35961014,0.81878316,-0.5514848,0.27190977,-0.31410408,-6.0509524,0.48476952,-0.19788529,0.31267646,-0.13336013,-0.21431187,-0.3120821,0.4847457,-0.047589593,0.34551328,-0.36914766,0.24969861,-0.2794738,0.083714105,-0.51175547,-0.046989746,0.20146103,-0.6313379,0.5279744,-0.4265135,0.16882217,0.005133547,-0.13669342,-0.5160819,0.86146176,-0.33616263,0.29633856,-1.1317921,0.09662461,-0.3471601,-0.5979538,0.089594424,0.29242787,0.05248578,-0.1429273,-0.214869,0.09606181,0.01407662,0.3002121,-0.915044,-0.19701731,0.82247907,-0.014066741,0.17423244,-0.35376254,-0.0657762,-0.28108445,0.22803146,0.324404,0.14617291,0.17368051,0.20634606,-0.5246243,-0.18630743,-0.16428955,0.3716576,-0.18085042,-0.1009759,-0.5148234,-0.12948588,-0.07094259,-0.34544423,-0.1475635,-0.23257715,0.12518705,-0.27174956,0.008686855,0.07977875,-0.2802489,0.24330725,0.39820075,-0.011534315,-0.20949928,-0.17755811,0.16098198,0.5137942,0.03915512,-0.17841555,0.013135798,-0.05221279,0.12950122,-0.50330245,-0.035588473,0.7556599,-0.4816306,-0.49127477,-0.100173526,-0.15586919,0.116548784,-0.50570154,-0.1417073,0.19241348,0.21723324,-0.04014826,0.21070832,-0.17305687,-0.25777486,-0.10741375,0.17587812,0.25799558,0.1274263,-0.18362755,0.41210508,0.03080701,-0.7497292,-0.27285802,-0.5270003,0.08727993,0.45548743,0.085895285,-0.24159265,0.2182481,0.35507455,-0.14652638,-0.24644387,-0.03676193,-0.5355629,0.30082005,-0.13965003,0.9131304,0.09249906,-0.22850686,0.4374134,0.20691225,-0.016751759,0.100756764,0.3529655,-0.50848144,0.38517773,1.1853155,0.26702794,-0.19822855,0.3417646,-0.034712717,-0.08156963,-0.20271915,-0.03688649,0.5279451,-0.13084793,-0.12668945,0.44589192,-0.10296093,0.25649297,0.4179285,0.13431855,-0.01812645,0.019687872,0.24792583,0.002428636,0.30684656,0.03585907,-0.7178244,-0.6985858,-0.39486772,0.08407868,0.14152393,-0.03864147,-0.17132531,0.16477853,0.053769644,0.11696033,0.5814898,0.24229638,-0.28728628,-0.3454301,0.3174324,1.0371609,-0.036688656,-0.06264512,0.24463506,0.55700773,0.86988014,0.15120812,0.40773845,0.1695256,0.019739687,-0.007808432,-0.1977632,0.3065943,0.09771402,-0.017201886,0.03788244,-0.12481025,-0.0986902,-0.009728331,-0.4895552,-0.40023303,0.70769423,0.36406088,0.23144078,0.24801204,0.56886876,0.17064035,0.26544553,-0.0031385124,-0.68768555,0.14440794,0.013042599,0.13973215,-0.48707056,0.6372003,0.24602166,0.11955492,0.3294418,0.8354972,0.32227886,-0.34984994,0.4101509,-0.05707252,-0.30645803,-0.272704,0.20525956,0.25657254,0.7655895,-0.3844347,-0.061140776,0.31414494,-0.11148669,-0.011521887,-0.286548,0.81990695,0.19119686,-0.12476584,0.41218236,0.42800394,0.23542905,0.18712896,0.13462743,0.30973345,1.8503227,-0.06324673,-0.41037786,-0.39844626,0.032659918,0.15719052,-0.088397235,0.111217886,-0.069074824,-0.28293607,-0.30886072,0.19011238,0.034444556,-0.09416312,-0.13088825,-0.17320639,-0.26311168,0.14749011,0.0570688,-0.034627333,-0.21334969,-0.5099831,0.12404537,0.3921449,-0.2155093,-0.71599495,0.24261934,0.35552981,0.0054546595,0.30845082,0.23938008,0.39452407,-0.1640771,0.0036634356,-0.3953873,-0.10258289,0.22194305,0.005471021,0.11690442,-0.45431885,0.14842066,-0.13933857,0.8200279,0.062933,-0.12478034,-0.21493174,-0.3114342,-0.10359299,-0.50307614,-0.48288232,0.43877235,0.15298769,0.0666295,0.091156915,0.15242274,0.38339627,0.23139437,-1.1824074,0.19716439,-0.24963981,-0.82740504,-0.29570305,-0.009932347,0.25125587,-0.34623075,-0.021268263,-0.04358527,-0.5635112,1.0768884,0.63884056,-0.09388423,-0.19894573,0.29360986,0.052723125,-0.104169495,-0.117268816,-0.11201858,-0.13176218,0.14354391,0.3384838,0.13579345,0.015873477,-0.078969695,-0.31389526,-0.21046744,-0.1563592,-0.33724296,0.33097512,-0.22324565,-0.0815174,-0.24658814,-0.29927248,0.3351991,-0.4223392,0.23410319,-0.031335868,0.5736147,-0.4399504,0.13031402,-0.034682304,-0.13014406,0.3210979,-0.21078368,-0.693402,-0.12171147,0.026306704,-0.43771732,-0.6600503,0.060173646,-0.163138,0.5700982,1.1134031,-0.37197325,-0.09719999,0.45784196,-0.5325276,-0.20545162,-0.33135256,0.18401411,-0.08800365,-0.002896294,0.18552646,-0.041039377,-0.16032925,-0.16081047,-0.15223865,-0.220203,0.18997322,0.12777619,-0.18592882,-0.121027976,0.06356703,-0.43709612,0.46719384,0.017326688,-0.44726086,-0.31331685,-0.4022975,0.019214332,-0.00095418096,0.5214879,0.019843154,0.0020687357,0.14513451,0.014927253,-0.07922727,0.10919497,-0.12085684,-0.34452933,-0.29959354,0.06293347,-0.07501583,-0.18823859,-0.22081238,-0.079702556,-0.31673312,0.14753626,0.1508048,-0.31676182,-0.41354018,0.12347025,0.069073856,0.27099633,-0.26354712,-0.12472762,0.1757927,0.008188583,-0.00676775,0.20937505,0.33129585,0.65982044,0.2921862,-0.9902495,-0.24319868,-0.13958037,0.2807231,-0.34932637,-0.023051947,-0.07486194,0.19962527,0.0007331073,-0.18359837,-0.050235413,0.25087118,0.09713985,0.20306608,-0.061981782,-0.40642613,0.7597791,0.069660366,0.049593255
Asia_19.png,-0.42643294,0.73900515,0.19077109,0.14934096,0.34844467,0.33499914,-0.022098728,0.103524655,0.41572908,0.14973581,0.31596997,-0.24247347,0.7597583,0.035128832,0.25649458,-0.053796,0.66301167,-0.16005202,0.27435917,-0.5205494,-2.108092,-0.018357128,-0.17932814,-0.5211395,-0.28642923,0.015946507,-0.18604328,0.0035015717,-0.28741834,0.21706527,-0.07281033,0.26428446,-0.16364439,0.08028578,0.05621097,-0.14631851,-0.25398007,0.20891672,-0.023379967,1.4934793,-0.0040542483,-0.09941581,0.31754744,0.011165751,0.3390612,-1.5507951,0.31556773,0.24920836,0.24954164,0.16006608,-0.16211599,-0.011099707,-0.1610792,-0.18654755,-0.34257215,0.26248336,0.30378997,0.1724504,0.11674538,0.25344685,-0.53933525,0.14978147,-0.10346821,-0.08151332,-0.19997758,-0.5920492,-0.12257473,1.6645839,-0.048934467,-0.18654016,0.121322155,0.043926604,-0.7337713,0.22636312,-0.082517505,0.23849174,-0.12911822,-0.33183163,-0.48170698,0.13595307,-0.22218654,-0.28742737,0.009930424,0.24924836,0.06212856,0.25415635,0.045073062,-0.46312135,1.0831047,-0.29028764,0.5963968,-0.22198492,-5.7419205,0.07886562,0.037070476,-0.09699392,-0.60870427,0.027110413,-0.020120813,0.36469287,-0.4835059,0.40479252,-0.55732656,-0.1382536,-0.47301516,0.023558088,0.03351535,0.08473853,0.12991841,-0.5739897,0.22366583,-0.35082585,-0.28769025,-0.2823994,-0.26310483,-0.36672723,0.31456736,0.15928409,0.33311495,-0.60962194,0.12333338,0.5962688,-0.05200865,0.026423372,-0.24016479,0.4518375,-0.22641952,-0.36812732,-0.23540814,0.01379852,0.10494456,-0.5199508,0.1332193,0.79340386,-0.25890207,0.023421224,0.011624194,-0.10133432,0.09142536,0.69947743,0.017517313,0.16988473,0.17116284,-0.048897795,-0.41024488,-0.050330877,-0.01601493,0.025642462,0.019573182,0.40897036,-0.46536565,-0.34615758,0.31240052,-0.06272948,-0.307839,-0.44393885,-0.04566613,-0.44431418,0.014394172,0.12471695,-0.12910308,-0.47250396,0.115627095,-0.12939009,-0.07703764,-0.07122587,0.23233683,0.20198654,-0.26740843,-0.06684203,0.2719763,0.019100044,0.10061808,-0.027500112,0.27138475,0.57723993,-0.43180996,-0.28437924,0.19186433,-0.17853262,-0.18791524,-0.6050628,0.16091773,0.20512152,0.082754634,0.1914214,0.29889587,-0.019897465,-0.3766361,-0.46956468,0.1371645,0.35513923,-0.0170165,0.1042895,-0.08805245,0.44525662,-0.58205676,-0.13412708,-0.21416214,-0.092658654,0.39114904,-0.123054735,0.95229566,0.15221223,0.14018038,-0.46527308,-0.06597178,-0.36956692,-0.6814989,0.17357425,0.31169325,0.7870343,0.17370914,-0.21754378,0.27727783,-0.35064965,-0.029770821,0.36060432,0.7681247,-0.4587763,0.2818911,0.72926986,-0.39545655,-0.49876317,0.082740456,-0.13654709,0.2411702,-0.35152262,0.14187676,0.10211995,-0.5637375,-0.5446879,0.45674807,-0.4528253,-0.15158564,0.117843844,-0.17718387,-0.095647246,0.04562008,0.19522479,-0.024147388,0.1846086,0.17701767,-0.18819009,-0.48761487,-0.2584709,0.057870522,0.0154173225,-0.06603516,-0.72005135,-0.33408126,0.055486426,0.022301972,0.35707614,0.17719147,0.1740538,0.123949565,0.33551833,1.1541104,-0.032318942,-0.22854915,-0.05215296,-0.112274095,-0.10017487,0.007720541,0.09641025,-0.28412494,0.14310601,0.23241727,0.22635394,0.069996655,-0.06471695,0.037455633,0.0077772513,0.16811524,-0.14749357,-0.28260785,-0.6275605,-0.26933604,0.27932498,0.22230509,0.40320975,-0.13177238,0.32823014,-0.0914131,0.5481096,-0.122237146,0.10293237,0.16362691,-0.26315624,0.21931285,-0.08843146,0.36200655,-0.18908006,-0.030645771,0.11876877,0.93390393,0.1172781,-0.012089267,0.33675137,-0.0495252,-0.51548547,0.06501065,0.54190254,0.16249977,0.6569417,-0.12592375,0.27889368,0.08121088,0.31377882,-0.10260479,-0.08181741,0.7920131,0.28910586,0.42798704,0.7121575,0.83594555,0.31433702,0.038994182,0.24534868,0.30645183,2.0936968,-0.18051608,0.07865769,-0.36838165,0.3178045,0.2532571,-0.002011775,0.42356136,-0.022617102,-0.32875907,-0.33585644,0.010852054,-0.38710868,-0.051503945,0.15489882,0.3204199,-0.47997794,0.11175054,0.1242023,0.35432315,-0.35814276,-0.24915567,0.02610685,0.056530934,-0.019270971,-0.69861114,0.1723604,0.421838,0.3741051,0.5225771,-0.17548835,0.3550533,-0.18312967,0.16170704,-0.18899319,-0.22184718,-0.022263825,-0.055476435,0.50299823,-0.48449588,0.17408602,0.04112471,0.9475165,0.43047747,0.36958814,-0.25551888,-0.20762356,-0.28705603,-0.27435303,-0.44660679,-0.29958087,0.1383808,0.64810133,-0.4805044,-0.0035137758,0.25651947,0.18792287,-0.78073037,0.12906383,-0.40414676,-0.4188665,0.0102458205,0.105796225,0.2193366,-0.5580669,0.37454593,0.26182985,-0.32963514,0.41022912,0.34165847,-0.053945422,0.009112261,0.3050122,0.16215107,0.20631643,0.17910793,-0.13581806,0.087901056,0.0426448,0.020214763,0.040518515,0.38048097,-0.25436887,0.11214858,-0.29167393,-0.49474594,-0.15196839,0.6303873,-0.110210724,-0.21232733,-0.09093309,0.20409533,0.4969502,-0.4071573,-0.5133151,-0.12218593,0.36383563,-0.41958195,-0.46819597,0.19914997,-0.16085377,0.5264436,-0.12650011,-0.73331004,-0.18722537,0.017983615,-0.5422414,-1.785927,0.42156896,0.44565156,0.38028264,1.015882,0.007231883,0.5153746,-0.045886256,-0.24643308,-0.23315725,-0.34376717,-0.024868459,0.21716443,0.08242852,0.5378593,-0.16097715,0.33368358,-0.21165812,-0.17362751,-0.34107605,0.33284286,0.41510016,-0.19535296,0.019385621,-0.26803225,0.16287577,-0.24131349,0.17404339,-0.89662063,-0.08506879,-0.23871681,0.028082263,-0.058034778,-0.1108684,0.097654924,-0.5189278,-0.420529,-0.12951092,0.35851544,-0.077667624,-0.46385694,-0.46526945,-0.21793754,-0.40357214,-0.54763293,-0.11920479,-0.53716534,-0.15366007,-0.12203154,0.1651057,0.11274396,-0.31802577,-0.50765777,0.17194915,0.19459435,0.28656268,0.027186126,-0.07394549,-0.037376687,0.23476698,0.19131328,-0.02756162,0.24633346,0.07873791,0.4899722,-0.7466601,0.40874928,0.20504448,0.10137367,0.02539777,-0.07184098,0.0010784226,-0.18573943,0.19252926,-0.23533896,-0.22575822,0.2252064,-0.1653293,0.17354974,-0.030075915,-0.8875076,1.0115191,0.233361,0.15299097
Asia_25.png,0.14292106,0.6752529,0.06404236,0.04334002,0.24615675,0.1676304,-0.2558927,0.18305793,0.34215403,0.23041613,0.20316525,-0.32659814,0.42209655,0.037404396,0.37319946,-0.30753714,1.0842854,-0.002671294,0.39345706,-0.35323477,-1.7500048,0.030579567,-0.0057562143,-0.738265,-0.2154321,0.29472855,-0.030894257,-0.14273606,-0.41268432,-0.037878346,0.1080768,-0.062166736,-0.36807448,-0.098354,0.22161424,-0.4486175,-0.39880976,0.056295633,-0.65821004,0.98016495,-0.086775586,0.06857705,0.3386523,-0.5362818,-0.087150455,-1.7011901,0.08377176,0.30476,0.15884611,0.23527871,0.31607553,-0.41994426,-0.14543968,-0.18869305,-0.34161562,0.3139814,0.2791381,0.21760803,-0.08717419,0.00015769899,-1.3650601,0.40829414,-0.3216976,-0.0796756,-0.3107891,-0.1793142,-0.0839323,1.5710592,0.066970944,-0.5185395,0.11966927,-0.36738014,-0.4879866,0.31108323,-0.034123242,-0.43103898,-0.06601908,-0.24485646,-0.5069431,0.075213104,-0.022909518,-0.41209683,0.27729607,0.2903352,0.43565255,0.6067251,0.2573473,-0.28902292,0.9928265,-0.4690506,0.49228504,-0.04536298,-5.9064636,0.13443798,-0.052534282,0.3441557,-0.3943985,0.018894918,-0.8464735,0.0173021,-0.14112061,0.24484177,-0.06794508,-0.23637532,-0.7562031,0.029776864,-0.3678004,0.08902376,-0.23393133,-0.60140973,-0.089082114,-0.66075575,-0.26810986,-0.26020518,-0.21697134,-0.33258814,0.4169181,0.29721785,0.20828596,-0.6637,0.12754388,-0.008731857,0.43475547,-0.24612805,0.068044856,0.5244964,0.18069898,-0.3243575,-0.059399217,0.29018465,-0.02700293,-0.412185,0.1607174,0.7914219,-0.032199904,0.21721077,-0.010843247,-0.4918332,0.06805108,0.74313927,0.18776137,0.3220665,0.3679198,-0.44862914,-0.0963411,-0.031671777,-0.076683745,-0.026803555,-0.31300575,0.14376247,-0.08637838,-0.21625997,0.36499304,-5.7935715e-05,-0.23192623,-0.3164521,0.06239955,-0.1706364,-0.10407925,0.14864646,-0.3519467,-0.28807917,0.18532708,0.14460732,0.05082476,0.04847588,0.34766528,0.16109692,0.1947512,0.084034055,0.58606946,0.078101814,-0.031223942,-0.08202596,0.03249979,0.38083485,-0.48311827,0.10714899,0.27712283,-0.1472424,0.13305452,-0.69466656,-0.11382825,-0.0060283393,0.014313266,-0.0469533,0.015109561,-0.04003881,0.22603697,-0.15552337,-0.051376224,0.05811081,0.13192984,-0.029943809,0.037753776,0.18084922,-0.7251675,-0.37138268,-0.029021308,-0.34832406,0.12005566,-0.12635961,0.6186213,0.1453061,0.33979282,-0.501943,-0.008178964,-0.26910508,-0.18985525,0.42077494,-0.09307961,0.67619336,0.47048774,-0.1842717,0.029259898,-0.37877357,0.13608396,0.3380669,0.97066236,-0.18944201,0.4533169,0.63884985,-0.4940721,-0.036257505,0.20475033,0.087932,0.00110156,-0.28184074,0.009630486,-0.20445019,-0.32100952,-0.38535723,0.68328834,-0.55682176,0.0027198903,0.564792,-0.016822662,-0.27921566,-0.0022694543,0.08601913,-0.35324883,-0.019499334,0.5913402,0.10792312,-0.4217857,-0.2179564,0.12003289,-0.025123551,-0.024272934,-0.5284208,-0.2729889,0.006413974,0.27081582,0.36147988,-0.060377352,-0.26332003,-0.28220934,-0.015866153,0.8715843,0.25571743,0.14132369,0.08394534,0.007970776,-0.15389943,0.18978475,0.13748622,-0.19289692,0.35566866,0.39681306,0.19313124,0.3134033,-0.29686204,0.0073384494,-0.08202704,0.18154658,0.19655465,0.3346761,-0.2616784,0.08504903,0.42872304,0.22291636,0.2157745,0.35739413,0.29550552,0.25527897,0.18735252,-0.67451423,-0.03488473,0.12970239,-0.094698146,-0.16036922,0.3309427,0.27279356,0.035520412,-0.091921225,0.42199302,0.9417629,-0.0073484033,0.54518366,0.102739446,-0.3640837,0.057653833,-0.17634578,0.30913973,-0.27012253,0.7034893,0.13854817,0.42159745,0.15331516,0.28105003,0.08411801,-0.07987628,0.78984207,0.14507484,0.17814496,0.414498,0.60937303,0.13341376,0.3161495,0.33422744,0.43087143,1.4388527,-0.24580331,-0.27381572,-0.29036462,0.18836668,0.3095197,0.10174824,0.025468227,-0.094362214,-0.13150123,-0.41232336,-0.058399126,0.062486917,-0.23102474,-0.35281238,-0.058517497,-0.15837687,0.22500896,0.1583197,-0.041181203,-0.3425963,-0.20802587,-0.22531302,0.046010315,0.27521795,-0.7366299,-0.14238526,-0.020133473,-0.041433364,0.39583698,-0.09771403,0.18917891,-0.55396587,0.10331495,0.03173396,-0.43658274,-0.8087,0.06329314,0.24577886,-0.54061246,-0.0070188493,0.39521116,0.6000352,0.6235218,0.52129173,-0.24432085,0.18592243,0.31060737,-0.52963054,-0.23278493,-0.078090385,-0.19306664,0.54601264,-0.4358368,0.24143836,0.2086095,0.19854346,-0.6332221,-0.22338212,-0.34156346,-0.6233586,-0.1353128,-0.071062215,0.054780334,-0.7249214,0.28957593,0.37580127,-0.5117091,0.37449485,0.33788908,0.020406,0.38660437,-0.033379667,0.28718376,0.2749633,-0.23213741,-0.026966706,0.40909827,-0.06835637,0.23161843,0.39196947,0.20911652,-0.06734589,0.043561958,-0.32503676,-0.32947603,-0.37041822,0.5400109,-0.7605782,-0.14370246,0.115799814,-0.1316796,0.24751478,-0.3289301,0.30910245,-0.33692375,0.064490795,-0.38978952,-0.8040452,0.20898888,-0.6848764,0.27627647,-0.13104144,-0.5065882,-0.050942227,-0.11234266,-0.3249441,-1.9455378,0.36244112,0.14596526,0.34688812,1.0459793,-0.33774865,0.17423584,0.09370412,0.09952795,-0.15490964,-0.080894105,-0.22232899,0.07316516,-0.25367945,0.5783746,-0.05649729,0.20077883,-0.020197935,-0.10858692,-0.076499544,0.20406622,0.21912545,-0.30929536,-0.04470986,-0.88394153,0.10894672,-0.3970593,0.27450836,-0.5455422,-0.43013668,-0.24366614,0.379533,-0.33707172,0.050844602,0.029150926,-0.50349724,-0.30475736,0.20750934,0.41616413,0.16107273,-0.53176224,-0.12951055,0.10770176,-0.23125294,-0.29871008,-0.5012564,-0.37838846,-0.055805296,-0.0456634,0.24576434,0.37733018,-0.2188853,-0.15712468,0.1568619,-0.012823418,0.5363227,0.038512155,0.3317076,0.17003092,0.73822236,0.13912483,-0.18875244,0.47975487,0.42022544,0.26260677,-0.9077748,0.28741324,-0.16258758,-0.09603932,0.23126572,0.3370495,-0.38700473,0.036999926,-0.45059997,-0.18545948,-0.12947941,0.29578486,-0.27577174,-0.07474384,-0.13705523,-0.78849185,0.91298103,-0.24816969,0.30278337
Asia_45.png,-0.002751913,0.40483654,-0.06060063,-0.0073125213,-0.06219148,0.007927328,-0.18527439,0.27869964,0.44234142,0.39463425,-0.16754965,-0.31099477,0.49608928,-0.22777437,0.52662206,-0.093871035,1.429806,-0.28111634,0.5081939,-0.6545479,-1.572152,0.14479527,-0.25586352,-0.117082104,-0.21308234,0.30620658,-0.1956243,0.017047673,-0.20282188,0.13259391,-0.33010805,-0.19709328,-0.059134364,-0.11993001,0.103546746,-0.042391658,-0.43589061,0.002538994,0.06998516,1.8205627,-0.043979436,-0.4861555,-0.05417829,-0.46321166,-0.17578916,-1.9994977,0.7773709,-0.09403767,-0.07360731,0.19478898,0.46149898,-0.38770834,-0.41155812,-0.3633441,0.057003215,0.46782205,0.5177593,0.2452971,-0.19851634,-0.028602064,-1.2086053,-0.20384106,-0.40070504,0.2287603,-0.0816676,-0.5724448,-0.11857539,0.9249439,-0.14895724,-0.1071759,-0.11475535,-0.1503768,-0.7790812,0.21150476,-0.36001706,-0.18782197,-0.8900073,-0.4298837,-0.3195686,-0.25653797,0.36969218,0.05783148,0.23384531,0.43999627,0.5880251,0.3470766,-0.1418128,-0.2586612,0.39836353,-0.61895996,0.20329715,-0.64115155,-5.591116,0.24683243,-0.3582912,0.12697828,-0.1968566,-0.14787339,-0.10569597,0.31196192,0.14820014,0.492741,-0.1963551,0.50204104,0.1808157,0.4185509,-0.24636263,-0.18013084,0.40204942,-0.34182808,-0.01064153,0.016769797,-0.28049374,-0.19690481,-0.12664823,-0.12937574,0.50916916,0.10332028,-0.11133975,-0.96236795,0.52378476,-0.43669102,-0.012266688,0.06564054,0.00034237653,0.41944098,0.27333963,-0.13548021,-0.09747401,0.42830718,-0.117342025,-0.42326435,-0.38293153,0.7591784,-0.15985171,0.27114984,-0.41568732,-0.060317114,0.19904183,0.2903805,0.48109427,-0.20090693,0.22098017,-0.09191006,-0.5068081,-0.19780448,-0.07130957,0.16033308,-0.2356916,0.093591735,-0.116483614,0.047783688,0.53264785,-0.22655705,-0.2609291,-0.22356951,-0.20787239,0.011731811,-0.42642334,0.3110397,-0.34518555,-0.04244668,0.09273138,-0.117182665,-0.24568628,-0.0071411133,0.60605145,0.38566044,-0.26554567,0.52908856,0.314474,-0.107500166,0.15441392,-0.17138216,-0.10292214,0.79084116,-0.7485281,-0.13629638,0.31312293,-0.53668445,0.083858654,-0.5152928,-0.099675626,-0.07045482,0.08842523,-0.0011228472,0.2498926,-0.05277107,-0.30991545,-0.28804004,0.3462568,0.410747,-0.32565814,0.03001447,0.40505537,0.23277,-0.6940007,0.016333878,-0.3651091,0.0805901,6.841868e-05,-0.25751874,-0.059264064,0.4323356,-0.065631196,-0.48180676,-0.1576117,-0.22863838,-0.26289076,0.51869786,0.03613626,1.004157,-0.3275221,0.06169749,-0.054317407,-0.41807222,0.08383417,0.27218828,0.5250646,-0.34610134,0.6294543,0.9365109,-0.3616206,-0.44513148,0.32067493,0.13032088,0.0699841,-0.3388388,0.1896054,0.012651026,0.08979166,-0.5081583,-0.13717249,-0.39129043,0.6182762,0.46720466,0.2441898,-0.38595694,0.12069493,0.31000817,0.07861422,-0.23024014,-0.1354309,-0.66962457,-0.21013059,-0.032881826,-0.13627964,-0.016434062,0.020124994,-0.7145451,-0.0901938,-0.19958471,0.25216198,0.39206493,0.55663145,-0.22016269,-0.28720874,0.37830555,0.6528325,-0.32364482,-0.22384389,-0.1950595,-0.0027767196,0.26953086,-0.17804867,0.6248725,-0.32716575,0.37515628,0.012070566,0.010882705,0.50900453,0.17180441,0.24522492,0.03825462,-0.12809408,-0.122761995,0.10198047,-0.7066555,-0.27254018,0.26517612,0.14874452,0.356539,0.36785516,0.35962027,0.022890642,0.088030644,0.23317221,-0.487849,0.3557468,0.010204613,-0.070561096,0.4247229,0.7649316,0.567048,-0.22431779,0.29191718,0.80165595,-0.08632532,0.0937097,0.3024104,-0.13032022,-0.41110867,-0.07834613,0.15233798,-0.34220254,0.27949482,-0.1353539,0.3664755,0.20378381,0.06575353,-0.42625293,-0.2652381,0.7559823,0.19061463,-0.13217023,0.23090455,0.45832515,0.45871198,0.20389143,0.5947918,0.4535119,1.0310835,-0.32022846,-0.20432568,-0.031579632,-0.18346259,0.011085734,0.11055989,0.2624556,0.0813809,-0.19934991,-0.48818088,0.11355003,-0.19250359,-0.2852978,0.23674749,-0.46865058,-0.3983853,0.005554408,0.16512056,0.093990155,-0.13627341,-0.102038965,0.22970521,0.40732595,-0.091429465,-0.22371492,0.13472432,0.28307068,0.26168275,0.24634086,-0.27672485,0.15286097,-0.14862925,-0.24351561,-0.5519231,-0.20318294,-0.3256164,-0.13257213,0.14000545,-0.105928056,-0.032279626,-0.08110086,0.7082623,-0.071368456,0.095772654,-0.117928416,-0.17880179,0.29405755,-0.42359072,-0.43840292,-0.14399727,0.23138046,0.025096655,-0.24038067,0.5320707,0.33450755,0.4193854,-0.9109212,0.014568578,-0.3208564,-0.6163055,-0.49175662,0.24157542,-0.0033038259,-0.123204336,0.010495186,0.14024943,-0.18472187,1.1566104,0.7475203,0.1926388,0.24497548,0.34581238,-0.60840666,0.03768967,-0.18200794,0.057357393,-0.15143257,-0.22779784,0.37402242,0.32239318,0.16671275,-0.04535818,-0.23048526,-0.29374954,-0.37882876,-0.4236363,0.30351007,0.16417319,0.06242019,0.39762262,-0.35484844,0.26055968,-0.46562028,0.16198537,-0.22730945,0.22452284,-0.27641052,-0.30269954,0.12114838,0.29863152,0.0873397,-0.092019126,-0.4463606,-0.4842865,-0.19310036,-0.019315116,-0.98018295,0.36775255,-0.02911152,0.766,1.2766781,-0.08925251,0.14894457,0.09800691,-0.54957473,-0.020027667,-0.2108475,-0.13336238,0.25001204,-0.20230082,-0.22595814,-0.19028988,0.25250858,-0.21789321,0.07815142,-0.539649,0.07336101,-0.2746713,-0.31887007,-0.15332085,-0.23821896,0.10771936,0.0031239707,-0.06863343,-0.45296046,-0.034860194,-0.37188426,-0.5829575,-0.08630678,0.0842925,-0.040210024,-0.32022205,-0.066079944,0.30766043,0.10416365,-0.22537246,-0.120289184,-0.2486269,-0.28206125,-0.2632094,-0.33110464,0.19450176,-0.1799747,0.13265303,-0.11577852,-0.13732813,0.0035060495,-0.30226564,-0.2324834,-0.22889704,0.051065877,0.3839109,-0.17646138,-0.048398487,0.26463354,0.00043177605,0.27008986,-0.043074626,0.28797647,0.398179,0.42319825,-0.88721,-0.07927932,-0.06337332,0.08157649,-0.25470713,0.105894595,-0.038476482,0.10082428,0.34844732,-0.39165896,0.21419597,-0.31327805,0.1719613,0.3663429,-0.010185819,-0.27136925,0.7551043,-0.22481303,-0.035300314
Asia_40.png,-0.57579285,0.7497395,0.0045460314,0.39598966,0.046998255,0.037033208,-0.044621706,-0.08058229,0.21087785,0.11399568,0.4165932,0.082966655,0.27625608,-0.22778177,-0.0592225,-0.3223677,0.39468205,0.025515683,0.28194723,-0.49039635,-1.8255873,0.07606126,-0.34892648,-0.39486593,-0.23786747,0.41568103,0.13619524,-0.026498787,-0.41907322,-0.060069382,-0.5350946,-0.0074704587,-0.350934,-0.050171487,0.14893757,0.1080575,-0.36481592,0.13151813,-0.009686797,0.6923574,0.22195034,-0.13630982,-0.05054406,-0.18609177,0.08915906,-0.34841287,0.5356995,0.2645775,0.07116648,-0.15980296,-0.094368674,-0.2666387,-0.2564268,-0.38499886,-0.4578086,0.29170176,0.1819503,0.25939885,0.09146862,-0.076083556,-0.18558665,-0.31878334,-0.32440186,-0.06940293,-0.1276002,-0.4585278,0.0078342855,1.9444294,-0.18006815,0.14331564,-0.2848403,-0.10755968,-0.5882424,0.47931647,-0.27571833,-0.1522757,0.049599964,-0.24526693,-0.07280959,0.38114932,0.06600464,-0.3311792,0.087827265,0.2464602,0.43664712,0.53178847,-0.14264318,-0.43726772,1.2645916,-0.16709113,0.5216907,-0.34098262,-6.173972,-0.041315943,-0.0619705,0.22209236,-0.3004624,0.08430343,-0.5943835,0.6103279,-0.23947279,0.53759456,-0.13404047,0.048834685,-0.6842053,-0.19010021,-0.5027841,0.25763497,-0.095895186,-0.56100047,-0.09175986,-0.8423811,-0.17809558,-0.089793354,-0.40988404,-0.21910365,1.0015529,-0.11417638,0.32801443,-0.9180413,0.13767552,0.3947005,-0.008778796,-0.0029258765,0.09777041,0.21692412,0.14467023,-0.14388119,-0.08081488,0.046764016,0.019021943,-0.6707149,0.4925871,0.8190384,0.10563755,-0.18306984,-0.040546693,-0.315112,0.17578813,0.5593913,-0.11966582,0.27848884,0.20055461,-0.072823636,-0.5451185,-0.09315397,-0.3131873,0.08355759,-0.09386444,0.47000045,-0.42746502,-0.35882995,-0.2507638,-0.0414909,-0.3096688,-0.065867305,0.13372093,-0.111314245,0.12341172,0.15863226,-0.39168102,0.12958603,0.26581013,-0.30737442,0.021510046,0.08078058,0.29982546,0.1880138,-0.08368276,-0.069708794,-0.23168175,0.3007668,-0.03782267,-0.17048681,-0.043526873,0.80150425,-0.38436624,-0.14745992,0.00092390366,-0.0029148161,0.19356674,-0.25398594,0.0028560637,0.13568915,0.008574285,0.47108567,0.047257278,0.32860243,-0.06891924,0.07579207,0.323821,0.15840393,-0.045344085,0.25647783,-0.050568253,0.06615606,-0.4838378,-0.19183084,-0.055485144,0.32289985,0.1223868,0.1854504,0.18817952,0.40934834,0.08381742,-0.21790771,-0.15744123,-0.09548564,-0.85697067,0.102929056,-0.24709484,0.8172748,-0.03614657,-0.2014994,0.48460045,-0.12890503,0.0068006814,0.52446747,0.4079824,-0.26362833,0.3419743,0.7599948,-0.18228242,-0.3573162,-0.17180906,0.002984628,0.17623633,-0.017431155,0.08637001,-0.03234908,-0.47203165,-0.5220828,0.5032356,-0.2247056,0.11681138,0.68996525,-0.3141657,-0.34426153,-0.06075356,0.6279832,-0.15889955,-0.05651754,0.22044148,-0.25023365,-0.8456306,-0.238591,-0.053733684,0.3369037,0.030120127,-0.29035524,-0.055854455,-0.0008023884,-0.26226464,0.74988854,0.14767973,0.009718493,0.15168454,0.026425824,0.9996141,-0.38234833,-0.3397289,-0.32178327,0.010621609,0.9643084,0.054703254,0.09948545,-0.3602978,0.34795505,0.4000799,-0.10361777,0.285706,-0.1356438,-0.4117342,0.013132386,-0.010178454,-0.1385337,0.17128493,-0.40348914,-0.22033887,0.01205565,0.11558939,0.016151581,0.17599705,0.104586154,0.34918922,0.3136504,-0.045439392,-0.30689314,-0.120166786,0.008719899,0.10499421,-0.41346955,0.49599126,0.102310956,0.051939208,-0.12509412,1.1380143,0.066077024,-0.11426248,0.26148042,-0.23581947,-0.455269,0.08301653,0.520102,0.2079522,0.2527367,-0.0032554492,0.2638973,-0.06972481,0.18481286,-0.05007857,-0.0131263435,0.8177918,0.15048602,0.31708485,0.57807314,0.7068301,-0.09314501,0.028142005,0.57510376,-0.021077767,2.2301588,-0.44615877,0.023108914,-0.18927577,-0.012359761,0.33381355,-0.14748475,0.12003029,-0.2195442,-0.5121829,-0.56326926,0.22043614,-0.38464633,-0.036039624,0.41919488,0.3520336,-0.34972084,0.39663154,0.14217618,0.09446029,-0.24545795,-0.20978668,0.1538665,-0.10611161,-0.037784018,-0.85741436,0.3909297,0.2138777,0.5499558,0.42149696,-0.31783125,0.2920148,-0.1424841,-0.28263503,-0.072916225,-0.3683623,0.6247758,-0.13820994,0.17152555,-1.2123642,-0.010822655,0.1716392,1.6098781,0.39287648,0.26182184,-0.18153265,-0.31926915,-0.6582308,-0.562536,-0.13876997,-0.061829336,0.28350547,0.25036398,-0.49477345,-0.23648915,0.36077878,0.2835216,-0.86031497,-0.0354203,-0.4644958,-0.47004133,-0.11619547,-0.08693376,0.32825664,-0.3079104,0.10367796,-0.1452944,-0.44515625,1.2251171,0.4257353,-0.12096271,0.16488706,0.49096462,-0.11305676,0.09715792,-0.054544896,-0.07378544,0.13482429,-0.12525454,-0.01647541,0.13170022,0.5322567,-0.2870946,-0.057954207,-0.031161346,-0.49708366,-0.31471363,0.66862386,-0.22543743,-0.31304455,-0.069837704,0.13050675,0.19380537,-0.06725889,-0.26426798,-0.23446886,-0.16178606,-0.41240916,-0.25655618,0.051746283,-0.32151952,0.40892178,0.33065906,-0.674689,-0.4256897,-0.5401168,-0.63585263,-1.4104779,-0.054722387,0.36495656,0.14794895,0.7104932,0.20647232,0.3467299,0.053366795,-0.12260473,0.06844849,-0.028977327,0.27388433,0.107371286,-0.2943692,0.27866495,-0.2553501,0.14283776,-0.4057877,-0.19455579,-0.069091946,0.24736218,0.29750505,0.021168455,0.06037055,-0.541783,-0.4841627,-0.7114229,0.12677476,-0.5472757,-0.15122904,-0.2681272,-0.006112799,0.05892333,-0.30420274,-0.11317899,-0.3967884,-0.2830282,0.055869266,0.34284157,-0.08023474,-0.66485596,-0.11206148,-0.12027593,-0.30961663,-0.3947585,0.035225645,-0.5216032,-0.09130858,-0.28984225,0.3646189,0.2666495,-0.49237525,-0.5220686,-0.14589667,0.17994295,0.43827027,-0.25309786,-0.13049054,0.2314361,0.37823358,0.31757206,0.043238588,0.35583216,0.17706099,0.63330764,-0.5197869,0.15202895,0.41554764,0.058565486,-0.16424784,-0.34443414,-0.13586047,-0.2727801,-0.117356755,0.09656993,-0.19395289,0.5046037,0.10471973,0.13274589,-0.07219945,-0.6316,0.6269536,-0.050277527,-0.15421166
Asia_46.png,-0.8462289,0.7595812,-0.08531154,0.52143145,0.034787,0.6257849,-0.2548917,-0.20052715,-0.111588955,0.31401694,0.060218025,0.23764113,0.49888462,-0.14926824,0.036559604,-0.30028948,0.6947523,-0.21165042,0.26712495,-0.5443476,-2.270695,-0.17681375,0.22370815,-0.28204665,-0.14736041,0.43577597,0.10076851,0.1304957,-0.22631516,0.117039315,-0.06943591,0.02944082,-0.10740626,0.068984725,0.31018117,-0.00593856,0.32541788,0.17206511,-0.5712329,0.9461566,0.1609126,0.035127565,-0.056398243,0.048197553,0.29667085,-0.8074528,0.64397264,0.26423907,0.19088744,0.32473797,-0.31497228,-0.03144489,-0.23845778,0.15217859,-0.18437034,0.16078606,0.5066961,0.7297975,-0.029605359,0.09770241,-0.21577823,-0.013458796,-0.17380679,0.49606398,0.13936967,-0.3192842,-0.401484,1.7278829,0.08978219,-0.052556053,0.07226058,-0.3633064,-0.5805753,0.0656199,-0.24978372,-0.05745847,-0.3395097,-0.78438,-0.5542267,0.15077013,0.17546198,-0.5027468,0.19175167,-0.2686458,0.27232867,0.07977867,0.08632389,-0.084570065,0.9152386,-0.48042977,0.19084631,-0.3494543,-6.19569,0.31600344,-0.022120686,0.12699778,-0.74218816,0.21592382,-0.009270221,0.49613953,-0.10741396,0.6029891,0.1414051,0.011169773,-0.37956816,0.02944031,0.1592266,0.06372431,-0.07598597,-0.18359874,0.28003746,-0.6305496,-0.013806139,0.004908584,-0.19428329,-0.3227738,0.3494972,0.09692383,0.33067036,-0.54897654,-0.25311035,0.5997276,0.3514806,0.15078826,0.19294867,0.029371664,-0.11777531,-0.37232164,0.08758791,-0.15868816,-0.3618557,-0.09032124,0.25063333,0.8408153,0.12807965,0.25535598,-0.18953869,-0.25221044,-0.16428079,0.37780237,-0.24244729,-0.06579408,-0.24154195,-0.028680943,-0.039506003,-0.05231923,0.008337788,-0.30494693,-0.02584305,0.30932367,-0.39868277,-0.15991616,0.16238302,-0.10807271,-0.37253642,-0.17667498,0.031899057,-0.17033999,-0.41210854,-0.08566142,-0.073281944,-0.26394734,0.34016418,0.06344229,-0.09301151,-0.05484083,0.078818955,-0.117009595,0.030639969,-0.14920422,0.18054882,-0.12793346,-0.28840077,0.0328893,0.42359686,0.6697001,-0.427624,-0.24201028,0.86190194,-0.15149495,-0.39479697,-0.49249431,-0.31066045,-0.20764305,-0.004265152,0.20596051,-0.15127225,0.47186366,0.14870971,-0.3030958,0.21833697,0.09841135,-0.31298545,0.065098956,0.38136017,0.12964255,-0.44002926,-0.367037,-0.07099855,0.07840717,0.22268812,0.11041669,0.6369199,-0.028079875,-0.48658398,-0.65598696,0.07869594,-0.26568776,-0.3257844,0.23620409,0.13573027,1.1089482,0.10037787,-0.14497373,0.15361612,-0.108722135,-0.16567878,0.43344787,0.51011634,-0.19004004,0.26160496,0.50506526,-0.16150656,-0.2268143,0.2498217,0.009549022,0.006972939,-0.27462184,0.16447118,-0.010990262,-0.11367379,0.07668507,0.18953529,-0.00038067438,0.069989815,0.44806623,-0.18039215,-0.5407192,-0.03930018,0.26079804,-0.22100574,0.28245652,0.2969941,-0.46129024,-0.837082,-0.38904992,0.2693286,0.43627632,-0.38520706,-0.15510088,0.096518755,-0.10512973,-0.09001823,-0.007860944,-0.015138604,-0.047674485,-0.39058423,0.34686244,1.6683092,0.061421648,0.14363097,0.22671765,0.004286483,0.25336096,-0.008575069,0.011966534,-0.23311105,0.047514185,-0.075912006,-0.16304745,0.26659396,0.099494815,-0.3773006,0.20162338,0.5794755,-0.025037482,-0.18076578,-0.20257126,0.05236171,0.22604224,0.5060059,0.26987123,0.34777284,0.20352778,0.13069063,0.80115783,0.079778016,-0.2952838,-0.18209985,-0.12554158,0.29291078,-0.19746561,0.52041245,-0.29733184,0.12025155,0.43232182,0.21613315,-0.025538102,-0.3607591,-0.25019678,-0.35608494,-0.5711441,0.08311115,0.28483123,-0.10338777,0.56352925,-0.030300051,0.16979599,0.22215891,0.19680586,-0.21511382,0.21183993,0.8404569,0.13868602,0.39051476,0.5783328,0.23091768,-0.0025687944,0.15917857,0.52805704,-0.31876403,1.7824935,-0.5616553,-0.46038562,0.07602671,0.5634731,0.41887018,-0.17031018,-0.105460875,0.012516648,-0.3775075,-0.2585731,0.4062835,0.16575256,-0.00045114942,0.30025983,0.25283688,-0.11636014,0.09145102,0.004338287,0.08271555,-0.30580696,0.17772748,0.47403732,-0.19788784,0.2326864,-0.6024231,-0.04642974,0.67825997,0.605518,0.06027808,0.10994817,0.31330055,-0.41950038,-0.17666,0.18747017,-0.37617126,0.98172396,0.076742426,-0.20180869,-0.8643723,-0.005472351,0.12727681,1.1282905,0.2128042,-0.07025772,-0.444691,0.29794338,-0.38866836,-0.73832804,-0.39430803,0.20562214,0.08323002,0.4441302,-0.26055628,-0.11305565,-0.15632632,-0.08421724,-0.85938704,0.069298804,-0.49653625,-0.2627333,-0.23517197,-0.087454244,0.4220458,-0.30249187,0.37670135,0.33921954,-0.59364194,0.25006053,0.768497,-0.04743786,0.12465256,0.165914,0.09921415,0.17086893,0.12315068,-0.078228,0.43622616,0.07883534,0.1578759,-0.16046652,0.34795752,-0.19631979,0.147181,-0.44299027,-0.42225555,-0.08971429,0.43745947,-0.18045118,-0.055639833,-0.43394053,0.1994985,0.05800478,-0.3238936,-0.10352353,-0.28886372,-0.17501262,-0.26366612,-0.38541478,0.32703504,-0.2905879,0.5172749,0.5529567,-0.2632209,-0.052490573,-0.100899935,-0.43000126,-1.3946277,-0.08729148,-0.1895678,0.3981138,1.2822235,-0.0020911023,0.4077438,0.42625296,-0.49414086,0.2989987,-0.25060415,0.4600772,0.09615588,-0.22066966,0.34558696,0.2742036,-0.22110963,-0.24409594,0.19307055,-0.15132011,-0.15193172,-0.0030277446,-0.13526426,0.24957456,-0.39886555,-0.26382113,0.05133848,-0.21290669,-0.018662078,-0.46536124,-0.0037691072,-0.11324593,0.20167917,-0.04226388,-0.19117826,-0.24328525,-0.030166522,-0.060083345,0.12019767,-0.14054918,-0.4855034,0.009759612,-0.31711003,-0.14626803,-0.5335322,-0.13533694,-0.4992198,-0.44393268,-0.06858373,0.59256405,0.22593078,-0.15559751,-0.5232514,0.08182341,-0.13809356,-0.15949924,-0.3013276,-0.09942651,-0.0058373213,0.43969783,0.305278,0.31119382,-0.15813555,0.68752277,0.72400093,-0.6393844,-0.053306714,0.1507155,-0.055087235,-0.020544901,-0.35429716,-0.3536362,-0.434709,0.14185914,-0.23350614,0.21927327,0.48538736,-0.008491777,0.035267502,0.1611212,-0.53575283,0.9166628,0.25636497,0.034845337
Asia_09.png,-0.2082681,0.82684886,-0.013177007,0.24166778,-0.2012489,0.53685784,0.04266712,0.01194942,-0.013552308,-0.07401498,0.33523393,0.00452544,0.30983242,-0.07012634,-0.19657375,-0.17315087,0.40304917,-0.03688915,0.13981088,-0.64709556,-1.6677399,0.13279566,-0.41948697,-0.26080614,-0.308801,0.6333722,-0.21346931,-0.0730645,-0.38289225,0.23955658,-0.25803143,-0.17338893,-0.24361219,-0.057883173,0.016907848,-0.031181965,-0.3299472,0.050687313,-0.14869916,0.4022868,0.27631456,-0.15517895,0.12547527,-0.14411618,-0.06916048,0.38308746,0.36750174,0.13020086,0.47379187,-0.03267254,0.04260931,-0.044263765,-0.20672733,-0.0059943297,-0.09613696,0.39546925,0.56248,0.40492886,0.073257044,0.033336706,-0.49620825,0.012256756,-0.27086753,-0.034152135,-0.16558766,-0.31574562,-0.14785592,1.8196425,0.18876782,-0.0036248765,-0.20077647,-0.6036274,-0.52427685,0.35236064,-0.29844013,-0.16958392,0.10290315,-0.4402182,-0.2949525,0.46211103,0.23741026,-0.31166485,0.30720162,-0.054760486,0.40301752,0.08146605,-0.3388582,-0.41271865,1.0356205,-0.54484606,0.49933985,-0.32530302,-6.317443,-0.081592284,-0.033000104,0.007958859,-0.35681492,0.3788864,-0.50012124,0.33543697,-0.4205407,0.5792604,0.02753532,0.09495509,-0.593059,-0.16748694,-0.18234828,-0.16922349,0.060030125,-0.61918676,-0.27082488,-0.7618685,-0.025198147,-0.33628398,-0.2592561,-0.16753769,0.6701895,-0.07808986,0.39393455,-1.1469659,-0.17579429,0.004280448,0.37357202,-0.017126039,-0.20938483,0.25043106,-0.20469692,-0.08705874,-0.101953864,0.19323723,-0.1246649,-0.59733915,0.3711058,0.8388519,0.45183322,0.09363435,-0.015201516,-0.24456912,0.2179608,0.57224596,-0.14049208,0.08436073,-0.058386713,-0.32915688,-0.26777673,0.06315455,-0.2665053,-0.07404857,-0.10038978,0.34731424,-0.33538327,-0.081770934,-0.40730873,0.058804274,-0.48908937,0.1291267,-0.0204215,-0.122569725,-0.14209703,0.20976885,-0.29146507,-0.097395144,0.39746505,-0.23205997,0.1260269,-0.13251302,0.32127467,0.24851206,-0.16975491,-0.093920276,-0.04705154,0.43314716,0.111376256,0.12432869,-0.40083563,0.8852013,-0.44351372,-0.115385,0.41278175,-0.28013936,0.07689178,-0.22932343,-0.05531171,0.077914394,-0.24434473,0.58702135,0.040548757,0.19249436,0.36220217,-0.2681142,0.28778479,0.04098081,-0.14800355,-0.19203603,0.06426974,-0.093251295,-0.26012295,-0.1503238,-0.08747935,0.11942601,0.31455806,0.5996107,0.5275018,0.2768213,-0.17504686,-0.29161045,0.33623648,-0.1280201,-0.52651435,0.32395416,-0.19496034,0.76214904,-0.035366636,-0.14353389,0.26891258,-0.29396197,0.14298913,0.3484698,0.14379476,-0.03139103,0.41629362,1.1036329,-0.19506855,-0.55967975,0.16326179,-0.12546,0.2857334,-0.19994232,0.2508088,-0.27270654,-0.42802516,-0.013433278,0.529007,-0.2551151,0.071667805,0.53071564,-0.46362293,-0.42402002,0.058357365,0.32876408,-0.03983639,-0.13857058,0.3126859,-0.44053695,-0.89706904,-0.7266019,0.08479552,0.6359125,0.08284191,-0.027524527,-0.030067243,0.17830743,0.16792165,0.3619313,0.102724984,0.15618543,-0.07572913,-0.06643029,1.5522614,-0.24198756,-0.03899447,0.057967536,-0.07708036,1.1519194,-0.15796222,0.0923291,-0.39148012,0.26021674,0.4404198,-0.05187092,-0.046414334,-0.18001509,-0.35422647,-0.04421041,0.35832497,-0.19224063,-0.37380877,-0.33221683,-0.31523272,0.1410599,0.16981065,0.2822029,0.5029066,0.21081915,0.1213604,0.68751794,-0.110539675,-0.28932506,0.1571186,-0.03645747,-0.03884174,-0.4717575,0.18562575,-0.048094057,-0.095624946,0.15646598,0.5243899,0.5613834,0.1217936,0.2558626,-0.03251311,-0.07433942,-0.0026127547,0.63983047,0.07852083,0.33713663,0.21117893,0.29569316,0.055093348,0.47112948,-0.08681063,0.39229572,0.83677477,0.07344331,0.12512788,0.43821326,0.36661005,0.10129403,-0.04363261,0.35705414,-0.17665522,2.4646335,-0.017410878,-0.21411818,-0.04598645,-0.26878422,0.33483943,-0.22016712,0.29110122,-0.09735648,-0.5787669,-0.35948563,0.45139545,-0.04728604,0.24164349,0.23662263,0.31791103,-0.3515651,0.55197537,0.22282028,0.3197222,-0.14478402,-0.0427033,0.3275576,-0.60891515,-0.24324992,-0.68897575,0.48840454,0.24417073,0.08292645,0.23782593,-0.37419713,0.35943076,-0.307342,-0.22368188,-0.047402024,-0.5864215,0.2000144,0.00056512654,0.13906223,-1.1363407,0.06791209,0.5265267,1.6499153,-0.018145084,-0.21651027,-0.1213233,0.0011025928,-0.32528603,-0.6372752,-0.12344704,-0.052170515,0.30071267,0.3667274,-0.22084951,-0.24218076,0.64621586,0.4274978,-0.36230493,-0.109755784,-0.26776716,-0.67781013,-0.55541617,-0.12213002,0.27496514,-0.6008739,0.22166456,-0.11919154,-0.24515226,1.6513084,0.67621684,-0.49691147,0.01037745,0.15930583,0.14218163,0.41086188,0.1997453,-0.18232512,0.39627674,0.19663632,0.12832566,0.4202873,0.4412504,-0.5593241,-0.06615527,-0.046308503,-0.36310792,-0.30473006,0.15207598,-0.21389538,-0.18251736,-0.06175217,-0.17514336,0.2280522,-0.2107184,0.12060827,-0.15881,-0.28957158,-0.39713508,-0.17950326,0.17688437,-0.37779683,0.53385377,0.30989018,-0.35203642,-0.076848745,-0.1066826,-0.34184915,-1.0106174,-0.121525824,0.2470405,0.13813908,0.88370013,0.20169142,0.38859043,0.059484083,-0.5519388,-0.08333206,0.049109988,0.3826388,0.04005733,-0.24255535,0.74279386,0.05582112,0.3743567,-0.31472638,-0.2747552,0.33450827,0.16636488,-0.22815499,0.0083647445,-0.036301725,-0.5949662,-0.4701574,-0.3458918,-0.22223721,-0.1235769,-0.13687617,0.06364784,-0.25025168,-0.13505895,-0.09342806,-0.090247065,-0.45775473,-0.070018604,-0.41536626,0.21805441,-0.3290055,-0.20518817,-0.49376884,-0.23736984,-0.2078722,-0.46408257,-0.38413477,-0.5703422,-0.41084975,0.04608885,0.5635422,0.51589525,-0.12750271,-0.5379116,-0.35974437,0.0055814264,0.426739,0.0052854866,0.02171233,0.17337555,0.15421805,0.04498869,-0.023768231,0.15443768,0.25953057,0.63201946,-0.71759605,-0.029698629,0.34305647,-0.19060771,-0.11579777,-0.28078794,0.041575253,-0.034495022,-0.17165641,0.035368774,-0.12806016,0.34454924,0.27745286,-0.23512957,0.14506093,-0.34740728,0.7355448,-0.050300624,0.119305745
Asia_11.png,0.064577565,0.42462707,-0.16104779,0.06200108,0.3238995,0.19962713,0.024892375,0.25337484,0.31575832,-0.10795619,0.03424102,-0.07867935,0.3928327,-0.03996426,0.70074254,-0.29834598,0.3251019,-0.2503978,0.20213169,-0.26791754,-1.754115,0.092624545,-0.021481654,0.12124355,-0.49630016,0.32716164,-0.2389896,0.034772594,-0.22793904,0.00070752576,-0.48580158,0.4753067,-0.0049583465,0.08496087,-0.16032583,-0.3629589,-0.06705016,-0.21912539,-0.10665779,1.4574215,0.057600223,0.3239966,0.6242243,-0.45450112,0.2765335,-1.8300503,0.45454463,0.07424089,0.1790386,0.1597301,0.037958354,0.1760474,-0.0922917,-0.455678,-0.038070813,0.5959532,0.64701253,0.1495609,0.06918966,0.18736808,-1.0812037,-0.10159189,-0.39687523,-0.11396594,-0.6047697,0.01520057,-0.17371267,1.3166974,-0.44328737,0.040284485,-0.027658926,0.071246944,-0.81876963,-0.19102505,-0.15648603,-0.64067346,-0.28934968,-0.7753371,-0.12355263,0.37421867,0.027315877,0.091619015,0.044923503,-0.029857755,0.22355211,0.24601178,-0.37126464,-0.76829624,0.8886441,-0.29455286,0.2037441,-0.1857591,-5.887698,0.49634242,-0.17372276,0.14706826,-0.2944137,0.0884393,-0.4690548,0.3169198,-0.49982962,-0.0059899315,-0.2519455,-0.20789261,-0.21120171,-0.30805385,0.04142637,0.13512745,0.37608916,-0.59553516,-0.14069203,-0.26548052,-0.19585316,-0.20635022,-0.08872162,-0.5265744,0.30744082,-0.10563681,0.43262172,-0.6134628,0.021327935,-0.12405301,0.14115009,-0.080984786,0.01418516,0.68447226,0.050615862,-0.34356156,-0.2648973,-0.229806,-0.07393335,-0.09033316,0.04726547,0.8170334,0.35591555,0.18171452,0.15238303,-0.49361205,0.24304487,0.2691301,0.1298011,0.16511825,0.22402778,0.26876307,-0.635705,-0.148763,-0.2764098,0.122172266,0.60826397,0.14240395,-0.23814815,-0.28386343,0.13223118,0.11407095,-0.005472839,-0.30664834,0.34406602,-0.20126036,0.42916828,-0.12547252,0.25108746,-0.20195535,0.025632426,0.4774187,0.15223418,0.053854868,0.6723729,0.46064442,-0.21535425,-0.1494742,0.1329247,-0.036437474,0.27533853,-0.52115,0.03225775,0.48980707,-0.49245402,-0.48906696,0.6052223,0.020293064,0.044377178,-0.44638303,-0.21877454,0.2058416,-0.16846453,-0.20586842,-0.12831643,-0.042668283,-0.35021272,-0.22442102,0.1182044,0.033358112,0.1415861,0.2539853,-0.2337565,0.2641265,-0.44601822,0.21728829,0.09197903,-0.18928453,-0.001063861,0.18122697,0.6054534,0.61592376,-0.3146124,-0.4419091,0.24103966,-0.05515022,-0.7987833,0.48731628,0.07881221,0.88430285,0.5791458,-0.08859925,-0.39442852,-0.6304115,-0.011473775,0.4030224,0.33830792,-0.34640276,0.46627253,1.394275,-0.22788283,-0.037037052,-0.16281115,0.009230688,0.47551045,-0.33138523,-0.09802758,-0.04628586,-0.045481768,-0.25984597,0.52892315,-0.5448222,-0.003242978,0.35231906,-0.48717773,0.016050242,-0.17220446,0.21798821,-0.08319947,0.37317085,0.6652315,-0.306864,-0.5688883,-0.87271994,0.21513472,0.03266809,0.062203877,-0.44989902,-0.033007383,0.063373186,-0.042534545,0.06976237,0.35830763,-0.33524263,0.3091942,0.22980757,0.55074435,-0.25195217,-0.6068183,0.14150651,0.3113674,-0.062561914,0.0032666475,0.07203189,-0.6627862,0.26223308,0.3133912,0.25473878,0.4418622,0.21175238,-0.0839742,-0.052697986,0.17142299,-0.42408568,0.0056477785,-0.46097526,-0.046022885,0.2619601,0.1355527,0.046493933,0.087607116,0.6154386,0.24638648,0.23395021,-0.61527246,-0.054787546,-0.18154469,-0.17656648,-0.24876921,0.4486284,0.40148342,-0.18519382,-0.02413847,0.24577326,0.5319956,0.18348226,0.14833379,0.045338154,0.046164498,-0.3447876,0.124466494,0.7990872,-0.044070467,0.29216978,-0.39895183,0.09547778,0.20835128,0.49711534,0.273125,-0.043931678,0.81424975,0.42490596,0.048008382,0.51471055,0.3583768,0.18624976,0.1624209,0.2544412,0.666463,1.7135528,-0.6500775,0.10138161,-0.27992344,-0.08402379,0.26724792,0.14201944,0.20794782,0.02776751,-0.45276204,-0.16450411,0.07555501,-0.20293209,0.22324741,0.4591811,0.09278931,-0.37039515,0.11856278,-0.07466612,0.035352893,-0.170721,0.034098264,0.05137877,-0.027431563,-0.40194702,-0.38931453,0.22409064,0.10038553,0.3119388,0.30971515,0.20315307,0.45184833,0.29554918,0.19041252,-0.2149203,0.06973573,0.4679485,0.14164294,0.48373777,-0.6921991,-0.008314207,-0.33434975,1.4228495,0.745621,0.19495389,0.06571975,0.5097129,0.05168408,-0.072159484,0.036740996,0.0056536645,0.36556262,0.43223587,-0.5468508,-0.18752566,0.29661065,0.15299873,-0.88984835,-0.25347465,0.056031823,-0.886904,-0.19917175,-0.36737603,0.01939118,-0.3130605,0.2542734,0.10813046,-0.2649327,1.8582314,0.43928176,-0.38435388,-0.28644463,0.04226425,-0.28334564,0.11297717,-0.16170156,-0.20346546,0.2667427,-0.3592131,0.099373326,-0.016195767,0.5045389,-0.120786525,-0.0960771,-0.05413419,-0.46356076,-0.07137947,-0.083135694,-0.14557289,0.2310053,0.2546873,0.17651585,0.2976085,-0.41385317,0.13527441,-0.33005875,-0.16513261,-0.23769453,-0.7197894,-0.007246416,-0.10875961,-0.071172304,0.069036536,-0.6359885,-0.008755013,-0.001655072,-0.092400745,-1.2189149,0.08914916,0.5571763,0.65923005,0.82584226,0.043719687,0.38747635,-0.18312109,-0.12406795,-0.18811178,-0.46835592,-0.07193068,0.22106981,0.12961024,0.19446737,-0.055919945,0.11686297,-0.29309267,0.14236057,-0.33970568,-0.26252505,0.20093334,-0.16128412,0.13483524,-0.2804945,-0.094061926,-0.256767,0.21408035,-0.35869005,-0.6139995,-0.37570894,0.013982937,-0.1442044,-0.058785997,0.14328796,-0.3637475,-0.30257738,0.40838704,0.18832584,0.05950518,-0.5541183,-0.4296201,-0.2609465,-0.03772694,-0.028464887,-0.7433132,-0.17191985,0.0581707,0.08990278,0.40739912,0.0802794,-0.052722074,-0.5367303,-0.2256939,0.075082704,0.23518462,-0.25339794,0.09764213,0.17608403,0.14667861,0.101985455,-0.17103483,0.2027494,0.528761,0.38823402,-0.8378412,-0.29832968,-0.26907173,0.07027121,-0.083643615,-0.23688084,-0.052047394,0.38661745,0.021821715,-0.51886296,0.01442387,-0.03673277,0.26456684,0.23785283,-0.009630327,-0.040949482,0.78385705,0.11694911,0.20917726
Asia_48.png,-0.21733846,0.6378397,0.026339106,-0.25857583,-0.2629678,0.22861788,-0.12481947,-0.16984925,0.14561293,0.4614301,-0.1266896,0.018465813,0.1162806,-0.14688036,0.20237193,-0.10461762,1.1774294,-0.23737091,0.24334303,-0.62531716,-1.920466,-0.00082340837,-0.4035064,-0.036526714,-0.22463766,0.6271261,-0.0441069,-0.10131493,-0.21556836,-0.13381623,-0.19474511,-0.40834844,-0.016896665,-0.09786834,0.08394753,-0.28520462,-0.39438188,0.048587233,0.06707038,0.96407235,0.020381432,0.16279148,-0.34439656,-0.37717596,0.00088084117,-1.4202484,0.2868691,0.22772421,0.653425,0.061945863,0.1677166,-0.3705675,-0.38058132,-0.10705897,-0.31829992,0.07560761,0.6422885,0.65506524,0.23536712,0.01081185,-0.7826264,0.019508155,-0.59079,0.42614958,-0.42031312,0.0060212724,-0.016038917,1.3091078,0.2549241,-0.025787897,0.008988425,-0.6785089,-0.6094074,0.40842462,-0.36674625,-0.43930197,-0.104566455,-0.43495306,-0.1996091,0.30088654,0.3822025,-0.60640293,0.46515155,0.47661638,0.20441455,0.23033893,-0.22265412,-0.338588,0.83841103,-0.384306,0.5110211,-0.18415512,-5.6251597,-0.08323375,0.08826943,0.43385747,-0.28852144,0.22871658,-0.7732609,0.3605533,-0.28367725,0.4593886,-0.0014990121,0.14071673,-0.23470807,0.2137095,-0.2124081,-0.119172186,0.22004367,-0.6136473,-0.3176868,-0.49401492,-0.4261533,-0.18732797,-0.24762322,-0.11561185,0.7705006,0.06851287,0.25595278,-1.1628814,0.0745548,-0.31910455,0.19753239,-0.20677757,-0.04863637,0.32070854,0.11656338,-0.11542477,0.027491301,-0.09979758,0.0955624,-0.29696676,-0.32765532,0.7324036,-0.028706076,-0.15960917,-0.40935582,-0.47840104,-0.17913878,0.41208357,0.5199773,-0.112346485,0.16361803,-0.054636158,-0.14596665,-0.10190201,-0.16807978,0.2078815,-0.0023853718,0.11471244,-0.30629227,0.008264475,-0.116524756,-0.07635384,-0.4012584,0.30953005,0.2247087,-0.17779517,-0.033252954,0.16035914,-0.39418158,0.31191567,0.04722421,0.04763637,-0.17479119,-0.005168041,0.4098619,0.4022753,0.05088058,0.15406859,0.20152822,0.01145623,0.06362065,-0.23797788,0.035842806,0.79754686,-0.31235516,-0.47208843,0.45016232,-0.29046565,0.20589444,-0.4787282,-0.002894573,-0.12985563,-0.42070764,-0.055256955,0.030001618,0.023761943,0.20201069,-0.09493755,0.5324892,-0.14934438,-0.15241717,-0.22549479,-0.13005203,0.19079974,-0.5778952,-0.23968166,0.36674276,0.03509721,0.086958975,-0.1788102,0.5664701,0.17841527,0.10128297,-0.5496918,-0.011998728,-0.22402295,-0.5042512,0.43926007,0.21129435,1.1655228,0.2690764,-0.32604137,0.08603715,-0.43002155,-0.07534568,0.19721001,0.6971821,-0.26435366,0.5160712,0.7431109,-0.2704853,-0.55655485,-0.022790466,0.1635446,0.26097786,-0.4321049,0.15984695,-0.3366406,-0.37035632,-0.3029733,0.22403112,-0.55895483,0.5914102,0.30665118,-0.09183766,-0.5105295,-0.22350821,0.63140464,0.28628495,-0.08286744,0.4988025,-0.5280542,-0.62674415,-0.16899014,0.31286097,0.4083577,-0.19439624,-0.74055064,-0.052837938,0.03307674,0.0035944134,0.348876,0.2546808,-0.017348297,0.0022784546,0.31309178,0.5318106,-0.03331496,-0.23926114,-0.0014278591,-0.21826793,0.07026633,-0.16983163,0.49075788,-0.018389836,0.5332606,0.3671531,0.05713494,0.2548433,-0.1977229,-0.06048593,-0.01891461,-0.112843886,-0.225054,-0.0875638,-0.11283231,-0.2203678,0.29287472,0.36492252,0.19482748,0.28126535,0.2545707,0.096923225,0.3587909,-0.19982246,0.16706182,0.25823092,-0.012683712,-0.21758361,0.13410631,0.44362554,-0.078485996,0.0010117888,0.45237243,0.6409347,0.14173685,0.12316303,0.46533158,-0.103687614,0.07939088,-0.20675156,0.46414667,-0.36745346,0.288916,-0.060908623,-0.028766945,0.08163802,0.43919784,0.063374594,-0.14897254,0.7293289,0.24493226,-0.20911571,0.2846901,0.41509804,0.5865947,0.38088036,0.35238352,-0.15093228,2.1200283,-0.47098696,-0.29517707,-0.18297142,-0.044928353,0.27897143,-0.092155784,0.08294752,-0.18691179,-0.34462848,-0.45333484,0.3713135,0.044197902,-0.20953989,-0.037736416,-0.02841708,-0.07703957,-0.032586634,0.2312793,-0.047726475,-0.085280806,0.11464697,-0.045502365,0.5247685,-0.1783002,-0.63764536,0.10006282,0.032361142,0.22739592,0.64784956,-0.035339236,0.20298827,0.11550795,0.12978129,0.008688919,-0.2003429,-0.16952631,-0.51510334,-0.028270027,-0.5031802,-0.15393433,0.5408686,1.052198,0.23966229,-0.124522,0.1603261,0.28218526,0.196151,-0.707352,-0.39786124,-0.40177792,-0.18081093,0.075946786,-0.63115376,0.11236667,0.47264895,0.29702297,-1.042023,-0.14034665,-0.37651142,-0.68062747,-0.046804935,-0.017877698,0.08242248,-0.082571566,0.3467185,-0.16244102,-0.28768063,1.1114929,0.4579189,0.089772046,-0.08990249,0.33849108,-0.27738607,0.14169979,-0.09689963,-0.3256387,0.44367594,0.07805758,0.63219345,0.24366152,0.49744457,-0.61737376,0.021703202,-0.2632554,-0.41537976,-0.37166256,0.4750593,-0.26404256,0.028561004,0.4777204,-0.052408077,-0.1880896,-0.5143293,0.37893027,-0.14795348,0.14946048,-0.18478969,-0.5876443,0.19476564,-0.21399735,0.4818532,0.18479767,-0.2858919,-0.18645364,-0.086707406,-0.33731186,-1.3704596,0.30879787,0.23869182,0.65966237,1.1198689,0.2836896,0.56723624,-0.09186923,0.054398954,0.21577175,-0.20742571,0.1516444,0.044774674,-0.011336125,0.3727145,-0.010380968,0.10510059,-0.2444345,0.068840295,-0.38105372,0.15346038,-0.11625093,-0.30220023,-0.2334006,-0.71642584,-0.25718918,-0.21424283,0.10438928,-0.59280425,-0.21111286,-0.25479788,-0.47624156,-0.086507976,0.10695927,-0.17079425,-0.41298372,-0.24785842,0.6561082,0.3161819,-0.121429965,-0.1166447,-0.31609392,0.1041655,-0.4467556,-0.6175779,-0.21615261,-0.2627375,-0.32650617,0.19694053,0.600604,0.31202447,-0.21266502,-0.3147115,-0.5283925,-0.017923146,0.3610308,0.055607114,0.28437006,0.3958908,0.051657304,0.44344488,-0.28665507,0.41409916,0.31058198,0.37923574,-0.89074796,0.16861764,0.04505804,0.031179864,0.013918467,-0.14469494,-0.43404752,-0.20136204,-0.02080679,-0.07658604,0.26613212,0.18841909,-0.17208156,-0.1075668,-0.34440765,-0.434407,0.7765194,-0.14981398,0.21432585
