,0,1,2,3,4,5,6,7,8,9,10,11,12,13,14,15,16,17,18,19,20,21,22,23,24,25,26,27,28,29,30,31,32,33,34,35,36,37,38,39,40,41,42,43,44,45,46,47,48,49,50,51,52,53,54,55,56,57,58,59,60,61,62,63,64,65,66,67,68,69,70,71,72,73,74,75,76,77,78,79,80,81,82,83,84,85,86,87,88,89,90,91,92,93,94,95,96,97,98,99,100,101,102,103,104,105,106,107,108,109,110,111,112,113,114,115,116,117,118,119,120,121,122,123,124,125,126,127,128,129,130,131,132,133,134,135,136,137,138,139,140,141,142,143,144,145,146,147,148,149,150,151,152,153,154,155,156,157,158,159,160,161,162,163,164,165,166,167,168,169,170,171,172,173,174,175,176,177,178,179,180,181,182,183,184,185,186,187,188,189,190,191,192,193,194,195,196,197,198,199,200,201,202,203,204,205,206,207,208,209,210,211,212,213,214,215,216,217,218,219,220,221,222,223,224,225,226,227,228,229,230,231,232,233,234,235,236,237,238,239,240,241,242,243,244,245,246,247,248,249,250,251,252,253,254,255,256,257,258,259,260,261,262,263,264,265,266,267,268,269,270,271,272,273,274,275,276,277,278,279,280,281,282,283,284,285,286,287,288,289,290,291,292,293,294,295,296,297,298,299,300,301,302,303,304,305,306,307,308,309,310,311,312,313,314,315,316,317,318,319,320,321,322,323,324,325,326,327,328,329,330,331,332,333,334,335,336,337,338,339,340,341,342,343,344,345,346,347,348,349,350,351,352,353,354,355,356,357,358,359,360,361,362,363,364,365,366,367,368,369,370,371,372,373,374,375,376,377,378,379,380,381,382,383,384,385,386,387,388,389,390,391,392,393,394,395,396,397,398,399,400,401,402,403,404,405,406,407,408,409,410,411,412,413,414,415,416,417,418,419,420,421,422,423,424,425,426,427,428,429,430,431,432,433,434,435,436,437,438,439,440,441,442,443,444,445,446,447,448,449,450,451,452,453,454,455,456,457,458,459,460,461,462,463,464,465,466,467,468,469,470,471,472,473,474,475,476,477,478,479,480,481,482,483,484,485,486,487,488,489,490,491,492,493,494,495,496,497,498,499,500,501,502,503,504,505,506,507,508,509,510,511
Africa_43.png,0.0127309635,0.6970529,-0.025791943,0.16360949,-0.2325471,0.10063775,-0.10926193,0.26882654,0.16962577,-0.3459533,0.06414088,0.025084283,0.11462198,0.019360542,0.40913182,0.22723621,1.4823405,-0.040490225,0.5485956,-0.39004347,-1.6557428,0.15063323,0.021529175,-0.5499683,0.028199077,0.15795355,-0.023167789,0.09842961,-0.22048676,0.074186645,0.24717516,-0.048260756,-0.09762162,-0.10248113,0.4285524,0.19262266,0.13815509,-0.39419553,-0.21195069,1.0084989,0.22561754,0.22801706,0.23434179,-0.2308518,-0.25017053,-1.730293,0.3003888,-0.25772303,-0.06345741,0.3718955,-0.16852835,0.11266195,0.3319238,-0.21228887,-0.024056405,0.06897177,0.15708174,0.40172902,0.072568625,-0.08714397,-0.4077494,0.14081845,-0.14620842,0.18988948,-0.40845317,-0.07484244,0.16992827,1.2509619,-0.02636148,-0.41098505,0.1683067,-0.36229792,-0.65838695,0.24754766,-0.7678751,-0.2275793,0.019943684,-0.07888967,0.084470116,-0.037987605,0.27382094,-0.7173043,-0.40322113,0.07467823,0.24141358,0.13024998,-0.47256815,-0.07305125,0.9776672,-0.019186482,0.31828755,0.1366436,-5.630924,0.08736396,0.10749609,0.07577688,-0.2339758,-0.1409435,-0.34742126,0.43805352,0.24135765,0.5494925,-0.3990427,0.047174685,-0.87863314,0.08771522,-0.48792773,-0.6149578,0.056227155,-0.44403243,0.03708285,-0.4743337,-0.15845533,-0.037458375,-0.22564906,-0.31210524,0.5598204,0.10657567,0.02640529,-0.50519174,0.09052411,-0.24074915,0.16267172,-0.25821567,-0.043946654,-0.25570595,-0.08579706,-0.07973086,-0.101794705,-0.08271017,-0.2580736,-0.73889804,0.7333121,0.78805107,0.27237493,0.23088561,0.07185795,-0.16757816,0.03633137,0.29041037,0.21245378,0.5658533,0.017614864,0.2786762,-0.22465457,0.19277062,-0.23610379,0.20807806,-0.13512756,0.119159445,0.087393194,0.19513535,-0.20109326,-0.053786784,-0.40337574,-0.2917025,0.5220894,0.11625187,-0.15373738,-0.11475801,-0.58662146,0.03273411,0.286557,-0.33159208,0.58098114,-0.016189791,0.3342895,0.7003921,0.047417596,0.030861665,0.11218723,0.24849567,-0.24981014,-0.21611366,-0.16750878,0.6863096,0.35591277,-0.18996675,0.9461262,-0.5070511,-0.048890643,-1.2860409,0.069074996,-0.5489816,-0.17241341,-0.28874725,0.35754737,-0.13488662,-0.08581011,0.19639865,0.28317776,0.17626125,-0.34816673,0.0838036,0.10816932,0.12918787,-0.48059022,-0.40499142,-0.94105625,-0.12731715,0.24867338,0.2940331,-0.046797693,-0.032909796,-0.2144642,-0.3613665,-0.44916824,0.1396113,-0.13118282,0.107807815,-0.00086542405,0.58989686,0.18190855,0.1836051,0.10380709,-0.30701607,0.2842235,0.6725588,0.66154146,-0.3044744,-0.16446015,0.8275583,0.17011829,-0.25429684,0.20809996,-0.013648137,0.25692242,-0.0717954,0.20685089,0.10489045,0.04604056,0.3742508,0.39210948,0.25167447,0.23156066,0.5396042,0.40186298,-0.13180439,-0.19103576,-0.23089999,0.36302966,0.3253088,0.29190275,-0.39284497,-0.7775212,-0.098022476,0.21696752,0.8161275,-0.22444928,-0.36708367,0.12235166,-0.12722215,-0.20381191,0.048558548,0.086007774,-0.128077,0.1174398,0.44863853,0.5999387,-0.096996546,-0.06798142,0.33163697,0.20174834,0.89251006,-0.25059146,-0.034398768,0.11260584,0.33202702,0.17765981,0.3418827,-0.032005206,0.43671134,0.18717043,-0.31202692,-0.09671453,0.09037752,-0.58271563,0.089285314,0.16800307,0.012935221,0.287188,0.36562234,0.06560856,0.13125081,0.5012614,0.46276233,-0.49113277,0.20664638,0.4868031,-0.052246913,-0.09530174,-0.4877423,-0.12701675,0.0266383,0.15208057,0.33912423,0.5219172,0.29278055,0.20403066,-0.40936288,0.08920546,-0.055541106,-0.2614733,0.45841324,0.1852889,0.48690823,0.20463687,0.15835436,-0.29622635,0.16706683,-0.16869509,0.073901266,0.7861568,-0.3448022,0.22890341,0.119859084,-0.02754984,0.076051,0.17245454,0.117754266,0.21730937,1.2063788,-0.7531917,-0.03692983,-0.19196463,-0.13232535,0.14389487,0.034774505,0.008832266,-0.08157949,-0.08580878,0.11541259,-0.17949817,-0.2606093,0.30215305,0.32734728,0.2091199,0.06779732,-0.08906239,0.3736145,-0.14524855,-0.2440615,0.07670385,-0.061892156,0.22727112,-0.2777623,-0.33824492,0.41016728,-0.14950836,-0.15496252,-0.014645979,-0.09556873,0.1510114,0.30658326,-0.2082201,-0.043761894,-0.009186961,-0.7247763,-0.027469441,0.2818048,-0.6409617,0.16173966,0.36787134,0.73237675,-0.11545518,0.40977216,-0.24937345,0.27606976,0.08888544,-0.32580423,-0.36606678,0.58702016,-0.09554635,-0.072225414,0.3135234,0.23991588,0.80613375,0.58798873,-0.6264376,0.32536727,-0.23414344,-0.41370717,-0.5039519,-0.06367381,0.5409101,-0.3650961,0.17795467,-0.15052056,-0.6310801,0.49166554,0.25305066,0.091490805,-0.17278165,-0.028701574,-0.3333826,0.109088756,-0.11898692,-0.67818356,0.44574502,-0.14907533,0.36435863,0.1971771,-0.08566455,-0.08358419,-0.2939293,-0.21005024,-0.48494357,-0.3683223,0.31327686,-0.49023396,-0.09653393,-0.12798326,0.021238493,0.24319455,-0.23092976,0.26126128,-0.32573557,-0.38943067,-0.094082385,-0.01105427,0.27105725,0.03138192,0.2169604,0.597914,-0.035860628,-0.07612952,-0.3875623,-0.28606933,-0.74058133,0.3956005,-0.298887,0.26839775,0.54645413,0.07775378,-0.004715577,0.30976862,-0.4607541,0.13101314,0.034791723,0.2676331,0.45463058,0.12493595,0.5122771,0.002521485,-0.26921436,-0.16115174,0.021691136,0.0504834,-0.23559347,0.15150227,-0.109774746,0.10424104,-0.36066663,-1.1482437,-0.17379425,0.056028657,-0.18861216,-0.71483463,-0.44303015,-0.24330297,-0.23599868,-0.19059537,-0.017036337,-0.50012344,0.09908718,-0.052520853,0.26190642,-0.13162234,-0.30487713,0.18147868,-0.20421404,0.43136314,-0.3768447,-0.52260464,-0.28312573,-0.30129063,-0.19081959,0.15542156,0.54582983,-0.2521645,-0.087103456,0.13892575,-0.017915033,0.37638125,0.4190603,0.12143269,0.14625087,0.23940459,-0.15943483,-0.11587758,0.5504328,-0.1380015,0.32767054,-0.9595053,0.26823986,-0.29064608,0.44037536,-0.06252286,-0.07385282,-0.18751836,-0.3267177,-0.21181124,-0.26463085,0.07867576,-0.06509476,-0.065452844,0.068988666,0.28248328,-0.27097002,0.44397485,-0.4380064,0.19309117
Africa_11.png,0.22990274,0.41542453,-0.20304924,0.36223942,0.2387431,0.17579119,0.5249398,0.18700026,-0.08313905,0.14887004,-0.05510047,0.46790993,-0.7671558,-0.21949628,0.19340637,0.15637223,1.1450825,-0.031192645,0.3020384,-0.39371157,-1.5789468,-0.06613637,-0.052727826,-0.31707945,0.26530275,0.28850764,0.18749917,-0.18043387,-0.30753484,-0.26159388,-0.12785748,0.04071974,0.050647378,-0.28379503,0.2882471,0.2476559,-0.25816557,-0.37076044,-0.19240856,0.546121,0.4258287,0.04619396,0.19748405,-0.05817965,0.03688313,-1.2878636,-0.0408846,0.30333722,-0.034984455,0.118101016,-0.0763908,0.13718343,0.1195676,0.16603753,-0.2651693,0.0902919,-0.041799918,0.2227505,-0.37821096,-0.33788177,-1.0961252,0.09895866,-0.43506002,0.26490766,-0.15124266,0.26309395,0.11499137,0.8819983,0.0014835298,-0.45120084,-0.1054848,-0.63934463,-0.217945,0.22575252,0.001365222,-0.37229973,-0.22149727,-0.53974754,0.28820223,0.23032086,0.44008434,-0.34837395,0.1590033,-0.48195118,0.10715647,0.4625216,0.3723628,-0.3229912,0.57750654,0.06159208,0.34666643,-0.36669827,-7.009173,0.030437507,0.07051645,-0.2047485,-0.033651147,-0.15100709,-0.97864264,0.20028321,-0.06460985,0.8190743,0.09193658,0.0033888556,-0.42936498,-0.20515627,-0.7441336,-0.58811563,-0.081269786,-0.16286215,0.06811957,-0.51198447,0.04832574,0.3267973,-0.12556793,0.21705543,0.25219113,-0.14520103,0.059937283,-0.6886467,0.16404736,-0.28745213,0.35848352,-0.6206021,0.15283605,-0.25826186,0.27386504,0.1490961,-0.05785227,-0.03651405,-0.0898903,-0.3402977,0.46087092,0.90444285,0.113804474,0.48330793,-0.06231919,-0.2485772,0.06351818,0.380696,-0.09959353,0.30601785,0.14202094,-0.43727085,-0.3111403,-0.09910649,-0.49619249,0.035525,-0.2058985,0.5328076,-0.23625176,0.41160923,0.15702343,0.08920996,-0.37871367,-0.16978796,0.37148002,0.08315025,0.25428247,-0.22046523,-0.72446257,-0.06979816,0.047354057,-0.12828833,0.0462143,-0.364913,0.122476555,0.61802363,0.3324899,-0.10841484,-0.15291247,-0.18530434,-0.24354655,-0.06942321,0.012604574,0.02289693,-0.68026143,-0.089994565,0.3659598,-0.42115992,0.4690735,-0.80444276,-0.24592672,-0.044059828,-0.14113338,-0.020133197,0.1069398,0.41831714,-0.18637675,0.12741524,0.24478582,-0.33462134,0.7373555,0.27131423,0.05614333,-0.23259342,-0.20719138,0.05459187,-0.527017,-0.45731556,0.12629174,-0.07657033,-0.08930184,-0.32748497,0.09239578,0.025734728,-0.28784025,-0.06189663,-0.24019837,0.2671549,-0.40176868,0.40704668,0.1614655,0.25728482,0.558678,-0.14137797,0.40896016,-0.025397986,0.4575854,-0.11347089,0.5910152,0.4089958,-0.017245643,-0.88140786,0.24339004,-0.24761465,-0.30858815,-0.6327423,-0.025994357,-0.19102576,-0.79649633,-0.05207421,0.23799798,-0.052437272,0.14558963,1.2339226,0.22639565,-0.38607693,-0.02351284,-0.040654548,-0.03616101,0.118230686,0.39544836,-0.34265947,-0.43099162,-0.60228,-0.03397073,0.4856118,0.04258833,-0.56610924,-0.5533644,0.21099183,0.045725048,-0.17744471,0.21181214,-0.12215683,0.3782509,-0.11038006,-0.13240428,-0.11613712,0.09326192,0.2795147,0.0974299,-0.24059032,-0.029949896,-0.27127814,0.044431567,0.6726915,-0.38997695,-0.094925664,-0.10285975,0.5583223,-0.047598418,-0.041184418,0.23317033,0.11054602,-0.40886745,-0.47694892,-0.006240353,-0.12085005,0.029000595,0.28953093,0.28223893,0.43732327,0.27397418,0.1681626,-0.79634607,-0.19733071,0.115765244,-0.07425691,-0.3843518,0.011937894,-0.12025808,0.0891241,-0.16240945,0.64139545,0.6596198,-0.15488335,0.53884643,0.13999331,0.016168093,0.18401897,-0.15263647,0.4984626,0.2977785,0.3212752,-0.08000226,0.5976165,0.38952655,0.24225354,0.049564905,0.52372426,0.90264183,-0.2130761,0.050654277,0.27966464,-0.049187623,0.07756909,0.08324252,-0.30386943,0.12784079,2.0690656,-0.62630063,-0.32540146,0.14003447,0.2091747,-0.10409568,-0.41387114,-0.27615553,0.2075353,-0.42934936,-0.112656675,-0.058589295,-0.2298918,0.3434483,0.22305438,-0.119583905,0.039902993,-0.025329012,0.372194,-0.19485182,-0.40905723,0.49433386,0.37607765,0.11058782,-0.4772784,0.028541185,0.317959,-0.3450775,0.16155528,0.088275135,0.25155076,0.06470345,0.5024989,-0.094809085,-0.27489114,-0.13215825,-0.24114689,0.1651007,0.06743209,-0.6452043,0.19924231,0.35793796,0.1216355,0.6623163,0.04745213,0.08055577,0.07408157,-0.112707786,-0.5566645,-0.37205005,0.1121175,-0.07129732,-0.2885406,-0.038161427,0.44620004,0.77854425,0.15094082,-0.48213518,-0.06151438,-0.58054817,-0.67474836,-0.00020712614,0.2301017,0.3504776,-0.25088352,0.13213134,0.3762292,-0.49005866,-0.08272301,0.28797784,-0.43691477,0.22854358,0.13012262,-0.45137328,0.36087123,0.20426649,0.018832967,-0.38932323,0.15084758,-0.061062746,-0.113588326,0.6707995,-0.32778814,-0.3522086,-0.11650917,0.28608504,-0.22476251,0.35689723,-0.58912086,-0.29514253,-0.045687284,-0.49949542,0.26638505,-0.13317809,0.25914946,-0.38948596,-0.16383448,-0.20744601,0.2808722,0.17947431,-0.51532894,0.28956228,0.35665402,0.22821102,0.1640953,-0.14690214,-0.5430919,-1.9725747,0.08403684,-0.3821658,0.17874594,0.6867734,-0.11767198,0.26926455,0.3916992,-0.06488318,0.07891168,-0.0360063,0.23940708,0.09324026,-0.1906774,0.03329795,-0.1182892,-0.07021107,-0.27876452,-0.07065006,-0.007479757,-0.12611282,-0.09885204,-0.11123292,0.13308845,-0.18797404,-0.93884593,-0.0823805,-0.22936635,0.039860424,-0.5964066,-0.16046885,-0.19953224,-0.4432702,0.279768,-0.8476294,-0.3077053,0.38157448,0.40200222,0.09826704,-0.29101726,-0.38155967,0.04059057,-0.42913142,-0.023192093,-0.45240313,-0.2014244,-0.00587029,-0.2745652,-0.6394876,0.23640938,0.82748246,-0.13669476,-0.15641524,0.031098763,0.041071214,0.12674642,-0.19431917,-0.051757995,-0.1739336,0.29470888,0.33021912,-0.24275847,0.3024957,-0.10224479,0.43904984,-0.77841526,-0.10603039,-0.30874318,0.14488393,0.27549502,-0.542246,-0.5221784,0.3704527,0.07287506,0.15698104,0.026441902,-0.036943436,0.37833315,-0.47986174,0.11632248,-0.4040178,0.76760817,-0.27162033,0.23489603
Africa_34.png,-0.20312275,0.3343892,0.23254997,0.6652452,0.46128288,0.101159185,0.14432733,0.34222585,-0.11349645,-0.24081504,-0.26413226,-0.02257993,0.34390843,-0.34532076,0.7874154,0.058029953,0.55329055,-0.03992882,0.4450669,-0.19946176,-1.569002,-0.049505904,-0.5103067,-0.53887194,-0.19299854,0.1542905,-0.14865115,-0.3728667,-0.43419522,-0.051757805,-0.28861687,0.2811006,0.060293257,-0.22618197,0.5674254,0.09750084,-0.36745536,0.15898985,-0.6015921,1.1308253,0.08648166,0.12480277,0.08432011,-0.3515921,-0.010272704,-1.2859385,0.020507872,0.16590449,0.23610523,0.060811073,-0.1308291,0.18298386,0.4036277,0.010723473,-0.0753555,0.07213326,-0.106469624,0.112666056,0.2376641,-0.14566576,-0.88650817,-0.21924797,0.25883988,-0.13195555,-0.576651,0.21447396,0.1726953,1.5141162,-0.12722032,0.1271733,-0.16377887,-0.3179218,-0.8887899,0.15953165,-0.104307495,0.2938031,0.3001789,-0.6497302,0.007260017,0.55785644,0.19610648,-0.49974108,0.0876631,-0.5389227,0.190256,-0.036968127,-0.16034225,0.17146172,0.3101802,-0.3321131,0.2598952,-0.08440013,-6.421188,-0.16624953,0.0401337,-0.0773876,-0.30896136,0.1559715,-0.4258986,-0.3181125,0.12959312,-0.123092264,-0.53539044,0.49934864,-0.57552755,-0.52825946,-0.68787634,-0.32278007,-0.0030987263,-0.04423668,-0.0328805,-0.010246985,0.10441567,-0.41050118,0.023491465,-0.28574806,0.029631585,0.3521883,0.063923165,-0.52839845,0.089160845,0.10023531,0.11919373,-0.37632197,-0.13103646,0.22531898,-0.064837486,0.28314185,-0.01841402,0.14047563,0.20215747,-0.48511323,0.4791779,0.8429275,0.14282675,0.37734008,0.40472138,-0.4292973,-0.3807676,0.02999536,0.12910002,0.45121297,-0.20655212,0.04859312,-0.36520857,0.025285006,-0.3144159,0.24007401,-0.29840732,0.21250126,-0.15547507,0.18906553,0.43386424,-0.20562455,-0.046188325,-0.13954942,0.36446255,0.36851206,-0.46710023,-0.07676853,-0.88852835,-0.41740713,0.065978214,-0.349195,0.8387706,0.22355653,0.03465134,0.4085224,0.39153954,-0.15731153,0.32084504,0.07003403,0.120175384,-0.05066344,-0.42505503,0.71141994,-0.29989457,0.055992782,1.0056584,-0.37462822,-0.15109381,-1.2103913,-0.42771992,-0.43313769,-0.4540368,-0.030652583,0.39384538,0.39973542,0.27537248,0.21969011,0.39711645,-0.09852669,0.030760981,0.003124699,-0.15763941,-0.30805025,-0.052556995,-0.5354321,-0.19108894,-0.33730948,0.09107955,0.3705594,0.31685498,0.32066512,-0.07187063,-0.2631273,0.19325994,-0.12335077,0.049841747,-0.07188148,0.25217435,0.12164864,-0.29582393,0.26955202,-0.35393602,-0.0761164,0.16522154,-0.03557989,0.38004428,-0.065034166,-0.15021995,0.81871283,0.1791572,-0.60342693,0.46393937,0.37355918,-0.1551184,-0.20175603,0.35749352,0.39164492,-0.12604323,0.22512734,0.40488273,0.17094386,0.22224194,0.30800635,0.46043915,-0.30880955,0.1469373,-0.13817245,0.15118831,0.20884348,-0.15010749,-0.5547408,-0.6261897,-0.42845476,-0.13742396,0.62154293,-0.29163763,-0.06458997,0.510396,0.30999714,0.22400747,0.035392433,-0.10648857,0.21350072,-0.06615518,0.70911515,0.8007956,0.15701346,-0.11316574,0.2932257,-0.09636231,0.6666039,-0.12807678,0.03146784,0.09923585,0.015957631,0.5108886,0.22753131,-0.44906786,0.29129153,-0.14652646,0.15180932,0.19161223,0.23891428,-0.72706133,-0.1114392,0.21721739,0.13287303,0.124502614,0.197766,0.2258423,0.16811897,0.30810946,0.34740105,-1.0087402,0.08761388,0.41577834,0.1225209,0.20483173,-0.45050806,0.12791815,-0.4645004,0.50315076,0.4208921,0.3012641,0.70661455,-0.13991378,-0.63503534,0.07897501,-0.20460501,-0.015424799,0.08991857,0.2464968,0.15840179,-0.014743745,0.05921866,-0.15826511,0.18546514,0.4726674,0.2963623,0.841691,-0.32116336,0.044515148,-0.28198516,0.09626321,-0.07275596,0.383093,-0.40239197,0.19225131,1.5440116,-0.50032175,-0.08346107,-0.26295707,-0.05388403,0.32265645,0.21671775,-0.014622691,0.063136056,-0.30322912,0.16626792,0.16263041,-0.030871004,0.2743005,0.39833146,-0.11587751,-0.1259306,0.63268167,0.0057178587,-0.24593502,-0.28084323,0.2909047,0.20334709,-0.046600677,0.07167369,-0.108355984,0.45299196,0.19335939,0.12480377,-0.4622984,0.18295467,-0.042329833,0.2133945,0.23689061,-0.05763164,0.14620396,-1.1077788,0.050588183,-0.0070534386,-0.54315335,0.29221657,0.29352698,0.858454,0.20476514,0.116234235,0.28741592,0.1577991,-0.22395456,-0.46337724,-0.27026677,0.04914248,-0.2482091,-0.34928352,0.46087074,-0.0987815,1.3109014,-0.17465582,-0.30471247,-0.04856312,-0.3259168,-0.7240871,-0.24231407,-0.30406326,0.5572707,-0.47056794,-0.06421116,-0.06836434,-0.3760726,0.28330457,0.23783475,-0.45586032,0.26072663,-0.44610453,-0.27100176,-0.25541905,0.10432884,-0.57712406,-0.42826104,0.37863284,0.4767545,0.37694955,-0.1359452,-0.21180606,0.126872,-0.14782128,-0.60171854,-0.4824987,0.34535903,-0.34737903,0.018922597,-0.17147723,-0.32901978,0.35142496,-0.091362506,0.32883942,0.1878576,-0.12430002,-0.446324,0.123111494,0.2179561,-0.094975784,0.3237461,0.35739148,0.1461616,0.15183377,-0.21958175,-0.38902754,-1.9481096,-0.332665,-0.19292465,0.24346559,0.7998747,0.21425487,0.3068937,0.021836884,0.18583111,-0.15728547,0.008145675,0.2583054,0.07244138,0.3431138,0.45835423,-0.009028155,-0.30151254,-0.31783515,0.012732148,0.22061504,-0.071247615,0.051300652,-0.47070503,-0.010894464,-0.22855522,-1.2993652,0.08962308,0.07167457,0.016036384,-0.48753643,-0.3280112,-0.65636414,0.25084,0.113698535,-0.29974997,-0.5155606,0.14368951,-0.024170056,0.7312907,-0.03572914,-0.15988602,0.09017275,0.0004994571,0.27783018,-0.057142973,-0.16355911,-0.04399593,-0.3742261,0.022887766,0.54436237,0.101493046,-0.0553405,-0.2295351,0.21084338,-0.33050078,0.28292984,0.14550027,-0.016294844,-0.25870317,0.44399545,0.091813475,-0.035982464,0.21672916,0.35850564,0.09702133,-0.99616104,0.05826407,0.3048547,0.61346525,0.23790199,-0.40729553,-0.01956164,-0.12488398,-0.10614465,-0.19514608,0.18645243,-0.042811602,-0.11520025,-0.07360041,0.078958265,-0.35250273,0.72160506,-0.21494026,-0.13355301
Africa_35.png,0.013420207,0.2266142,0.13214028,0.2989646,0.2647797,0.13627589,0.18124208,0.13111556,0.26603478,0.043236576,0.14312899,0.21188328,0.11173632,-0.05936467,-0.22141841,-0.045870334,1.3895972,-0.07743749,0.08781967,-0.15972748,-1.4515252,0.24013203,-0.107294574,-0.25956714,0.36660302,-0.25259027,0.015836477,0.047511272,0.16275202,-0.12291446,0.13733053,-0.028358541,-0.53803706,-0.10542047,0.54308873,-0.009314805,-0.030500814,-0.2972333,-0.07707099,1.0518625,-0.6263663,0.4009296,0.3276769,0.39394873,-0.3453266,-2.323648,0.18205096,-0.06913835,0.1299822,0.022606082,0.007854551,-0.23003966,-0.020657405,0.03671867,-0.4190976,0.027934637,0.09014985,-0.23389979,-0.14697729,-0.04713586,-0.1507889,0.19973013,0.062418826,0.023352697,-0.32175225,-0.22705889,-0.05934707,1.3809319,0.07681036,-0.3560812,0.1253967,-0.53920865,-0.3126542,0.29543817,0.003076151,-0.3302942,-0.43691254,0.28692675,0.18629242,0.14879552,-0.08444263,-0.5187048,0.25009516,-0.2472757,0.43944114,0.4259464,-0.16021295,0.14904445,0.76025605,-0.088710606,0.1548435,-0.32994086,-6.002944,0.34130988,0.29842237,-0.19183218,-0.50278044,0.29385597,-0.72281396,0.58958983,0.070631325,0.57137144,-0.26128146,-0.11160224,-0.9079428,-0.057513766,-0.3555646,0.043352425,-0.09174294,-0.21567962,0.22198847,-0.33889756,0.08368115,0.42498618,-0.43383145,-0.23984236,0.23292613,0.24075894,-0.3021065,-0.48443055,0.4274537,0.10134504,0.55448294,-0.25460863,0.5295725,-0.17311925,-0.15297186,-0.011401057,-0.18275955,-0.2057924,0.122453004,-0.24313974,0.20147415,0.83259374,0.12116211,0.44488168,-0.07930775,-0.19384758,0.018609338,0.3970183,0.23194498,0.55583864,0.17628737,0.45580697,-0.42369154,0.25218767,-0.045220323,-0.06625502,-0.43204677,0.12369715,-0.31309253,-0.20484008,0.4795675,-0.14647673,-0.31622756,-0.10857135,0.6872635,0.39740163,-0.01981207,-0.051932096,-0.65937626,0.13212523,0.21673207,0.009146236,0.16863284,-0.07155553,0.31879914,0.36797127,-0.25327086,0.111881,0.031265967,0.07184059,-0.117051624,-0.3924901,0.17374043,0.29000828,-0.32834053,0.2235804,0.480078,-0.18889536,0.031931274,-1.038063,0.06587796,-0.21005496,-0.07486142,0.049561456,0.24304216,0.047805786,-0.051978923,-0.046122625,0.43845266,-0.22170028,0.17140795,0.49104708,-0.023494452,0.024218172,-0.48625347,0.1079292,-0.40410194,-0.16069749,0.54892516,-0.033428244,-0.21992241,-0.1626231,0.15203834,-0.6264744,-0.13382114,0.20918903,-0.34231263,-0.18857418,0.10178484,0.1451701,0.1530652,0.36213923,0.121750064,0.15179901,-0.13628232,0.7877914,1.0692632,0.05890059,0.20025285,-0.051662534,-0.016103677,-0.28050444,0.25986472,0.34297717,-0.35275003,-0.5795556,0.2323479,0.033499077,-0.19846834,0.09165102,0.451727,0.45755202,0.09669302,0.6423694,0.18346253,-0.16813034,0.009517053,0.0072318465,-0.16672876,0.023553275,0.77312404,-0.11978604,-0.1551519,-0.13457716,0.31110215,0.571671,-0.2576642,-0.8887323,0.2852688,-0.18654189,-0.18548667,-0.090329275,0.15688702,-0.11079265,0.30437008,0.36976388,-0.018885076,-0.05584138,-0.11291637,0.08829911,0.003521529,-0.06703352,-0.0667143,-0.25594458,-0.13682202,0.5206593,0.4411348,-0.027142897,-0.0789547,0.7838261,-0.021374363,-0.14969182,-0.018609375,0.053295508,0.026914587,0.076393254,0.41310528,-0.0942823,0.301791,-0.18206295,-0.1611503,-0.0015841634,0.3313627,0.24213,-0.83540845,0.19243796,0.19242059,-0.43363136,0.1863049,0.006782785,-0.3724323,-0.10637284,-0.2395242,-0.07835442,0.5178058,-0.11778401,0.6111779,0.2280486,0.17351682,0.49378785,-0.5037974,0.43062848,0.0011417419,-0.0031362697,0.15024151,0.80221635,0.10971901,0.4729185,0.10795501,-0.18861508,0.8309364,-0.69928074,0.16115265,0.49391136,0.13173425,0.12640344,0.084301606,-0.12070677,0.37275013,1.8416791,-0.364201,-0.27701357,-0.038452096,0.09697649,0.40595856,0.12458558,-0.29197562,0.021983981,-0.20256698,-0.071281366,-0.17723393,0.008560717,0.22832066,0.0827245,-0.089730375,-0.13479483,-0.24263167,0.40135652,-0.117377765,-0.45877528,0.34697396,0.123590365,0.3117585,-0.27769783,-0.044499192,0.2059626,-0.23435783,0.112467855,-0.21599421,0.19698587,-0.24953291,0.22928385,-0.00406248,0.53432405,-0.29509574,-0.8923091,-0.14869682,0.077917665,-0.35144863,0.300631,0.26937303,0.5918873,-0.26672325,0.28761843,-0.0061292723,0.1138458,-0.4399803,-0.3459986,-0.29491904,0.124202624,-0.16502145,0.0017432347,0.08890331,0.51579946,1.2982329,0.0360485,-0.6405889,-0.09525274,-0.8976733,-0.64055765,0.1643663,0.1771609,0.1619722,-0.23710293,-0.002594918,0.50581026,-0.51499444,-0.15600154,0.06431903,0.13992986,-0.055117518,0.03551553,-0.035559967,-0.07362525,0.2957341,-0.44884568,0.25833195,-0.11222276,0.2770011,-0.21749943,-0.066496074,-0.16014388,0.37624782,-0.43696964,-0.057261534,-0.43841094,0.9829172,-0.31924662,-0.13696405,-0.0951358,-0.5156593,0.0036560087,-0.483185,0.13760947,-0.43832502,-0.2902042,-0.49179348,0.0031783804,0.6116589,-0.3469918,0.15029266,0.33951467,0.11053957,-0.75014365,-0.31964165,-0.9619818,-2.113939,0.37190768,-0.41919369,0.34696108,1.1777811,-0.33958948,0.052716963,0.47250405,0.060044996,0.007830292,-0.013692118,-0.044784553,-0.08083893,0.15072763,0.16758558,-0.33572483,0.018704213,-0.019818917,0.08755211,0.08463731,-0.1326789,0.34132633,-0.58622104,0.09297395,-0.30408895,-0.9389458,0.3778519,-0.13863146,0.45135218,-0.82551634,-0.057122353,-0.3388816,-0.4848278,0.49844253,-0.2012133,-0.16619086,0.08904612,0.00750044,-0.037193164,0.32985467,-0.30997527,0.25447986,-0.102524,0.44016457,0.023984998,-0.37200302,-0.08337369,-0.39952847,-0.011321746,0.44233307,0.031082354,0.23016216,-0.21989469,0.12190568,-0.23740861,0.20898658,0.288065,0.09407343,-0.5466347,0.30768144,0.012061764,-0.6869004,0.24679962,-0.20192942,0.32400325,-0.9372332,0.2999755,-0.17432377,0.27456886,0.2926297,0.30252078,-0.4937996,-0.117755406,-0.21074557,-0.5384828,0.30081704,-0.10410449,-0.45123136,0.3624665,-0.8421017,-0.26308912,0.7790625,-0.019591615,-0.13122585
Africa_47.png,-0.15679592,0.7584615,-0.27285033,0.2693028,-0.2550731,0.18737301,0.42108095,0.1448529,-0.27940547,-0.10862875,-0.12064396,-0.13473003,-0.35299987,-0.20021516,-0.07748163,-0.41572142,0.8371992,0.1682219,0.38657475,-0.63606024,-1.1046981,0.2833045,0.35456616,-0.2700277,-0.17065953,0.348956,0.031014957,-0.16016132,-0.23683298,0.2764982,-0.26432616,-0.13881618,-0.12190893,-0.054869603,0.098095536,-0.018510684,-0.1741871,0.20708193,-0.08273357,0.9122667,0.21081972,0.38642776,0.296829,-0.5332369,-0.1855567,-1.8314213,0.11030878,0.13747698,0.2096436,0.16717999,0.34157288,0.13011573,0.20303816,0.06952306,-0.36064172,0.3546348,0.06797777,0.45648164,-0.23130973,-0.024365067,-0.7648279,-0.16007094,-0.2491183,0.35207194,0.042443175,0.14308213,-0.21971262,1.8764467,-0.13833664,0.16510229,0.18737589,-0.22687721,-0.60287696,0.028806046,-0.11163219,-0.31927067,0.008216113,-0.52974725,-0.16691686,-0.09404644,0.380836,-0.78030527,-0.01202818,-0.2715418,0.31934112,-0.2550059,-0.073367566,-0.10543458,0.7261227,-0.26327524,0.15320677,0.07716544,-6.37696,0.030736275,0.2674745,0.1760115,0.20093676,0.013000384,-0.6819691,0.6752848,-0.012660243,-0.17422506,-0.06580499,-0.042193312,-0.46033823,-0.05330774,-0.4005145,0.033235833,0.38289303,-0.19684972,-0.0076966584,-0.103629366,0.14904824,0.3236676,0.044155195,-0.12180991,0.5243045,0.044971157,0.33717513,-0.8641315,0.029867958,-0.4429749,-0.27522624,-0.2079661,-0.08568074,0.2044532,-0.121144995,0.14325434,-0.13078332,-0.010285705,-0.0047522485,0.034986943,0.07438954,0.8329885,0.0782232,0.66499317,0.04068449,-0.8270446,-0.22310467,0.44180793,0.21661893,0.3988171,-0.43826675,0.2964151,-0.6896719,-0.00871169,0.006587833,0.26662192,-0.37968326,0.2951331,-0.03812316,0.12459168,-0.48351893,-0.11668597,-0.4380419,-0.23744947,0.3704947,-0.09041149,0.11483925,0.4537188,-0.45089555,-0.06443698,0.16805702,0.1250281,0.7033908,-0.029807352,0.29602337,0.42241016,0.12944335,-0.29568034,-0.17429437,0.42530167,-0.27960983,-0.22487345,0.43940037,0.93482614,-0.46257043,-0.07281917,0.3423863,-0.19148128,-0.09121377,-0.6157609,-0.4716966,-0.1268651,-0.045463435,-0.25077096,0.2486371,-0.07040872,0.022597872,0.11128262,-0.008751247,0.29090765,-0.13987784,-0.044156633,0.5007705,0.23016264,-0.12833448,-0.12193696,-0.2680789,-0.06521304,0.40904,-0.09149799,0.026699126,0.7916504,0.05015395,-0.17715564,-0.0075998753,0.05566443,-0.6097128,0.21557465,-0.46219623,0.7027031,-0.11018834,0.09337182,0.56600344,-0.008237336,0.57980305,0.31072256,0.8195698,0.11136177,0.3331746,0.7392899,0.15348879,-0.24580659,-0.037051976,-0.03928519,-0.171795,-0.030125119,0.037306175,-0.20659682,-0.06358186,0.29857257,0.43728447,0.17092347,0.09682257,0.23700352,0.1660426,-0.11938476,-0.43856955,-0.07093787,0.252243,0.045420602,0.5715934,-0.43394464,-0.5384532,-0.295067,-0.08743541,0.6923992,0.073783755,-0.15700945,-0.32690537,-0.0532349,-0.22351429,0.31653616,0.15068781,-0.16168424,-0.14157046,0.03502339,0.97694165,0.08326699,-0.52411443,0.26559085,0.41634837,0.25045434,0.13345309,0.14383538,0.14686173,0.17193052,0.05224584,-0.03845506,0.35587394,0.08483324,0.053455334,0.3385836,-0.10062126,0.24056442,-0.5225748,-0.1526928,-0.23164782,-0.1992563,0.2511038,-0.05145105,0.0312289,-0.08036636,0.12113243,0.27370545,-0.4133047,-0.17009324,-0.0031465292,-0.2867255,0.17890602,-0.5666138,-0.19945307,-0.015382953,0.38557845,0.1744491,0.7474078,0.056780417,0.15777794,-0.07708369,-0.16724154,-0.2999796,-0.1497362,0.2555896,-0.064029664,0.6641125,-0.11683157,0.3482442,0.42783543,0.21048427,0.29352036,0.022939716,0.83101726,-0.31415695,-0.40799987,-0.28516436,0.2964254,0.5442959,0.22649097,-0.28393146,0.15572208,2.2072806,-0.13452923,-0.4491871,0.32241002,-0.29652306,0.11579597,0.03234079,-0.2584592,0.06941755,-0.3287552,0.23827057,0.3221257,-0.5368778,-0.28120893,-0.2420643,-0.22698236,-0.19097051,0.103605926,0.54679245,-0.17546234,-0.10095146,-0.27263325,-0.10343109,0.3692806,0.13538322,-0.21863492,-0.076620534,0.12042641,-0.41325098,0.19570345,0.051208332,0.27121362,-0.22046861,-0.15472105,-0.3147583,-0.04966283,-0.21228337,0.0421479,-0.31194794,-0.71026146,-0.207614,0.15163456,0.58797216,-0.02090466,0.3482866,0.22916335,0.32462558,0.18846518,-0.44984412,-0.16925985,0.24056962,0.32653737,0.13561083,0.40390098,0.46448293,0.77047837,0.2048311,-0.39557314,0.05881412,0.025526732,-0.8408954,-0.20107952,-0.24619567,-0.07800159,0.15642138,0.5547917,0.05725932,-0.48119628,1.1994606,0.14020362,-0.19486803,0.267802,0.12928277,-0.24888264,0.52161235,0.08152872,-0.4440291,-0.096217945,-0.058886692,0.52416915,-0.15657109,0.20755073,-0.11449985,-0.42016733,-0.32869714,-0.28174332,-0.4660053,0.3125446,-0.614073,-0.25468034,0.065135896,-0.32563013,0.28372976,-0.6929989,0.4077632,-0.5538039,-0.08789486,-0.18846813,-0.2849983,-0.11390056,-0.24000493,-0.06305179,-0.022521019,0.18025747,-0.006585449,-0.6120808,0.08082274,-1.5270637,0.012972429,0.043533817,0.2819543,1.1959001,-0.31256527,0.22340885,-0.012473613,0.48690093,-0.05574076,-0.14226106,0.06943425,-0.10941018,-0.09524964,0.12412885,-0.12620074,-0.648987,-0.18425079,0.13230506,-0.059328526,-0.24962085,0.29383123,0.071100615,-0.38814014,-0.6038172,-0.6782088,0.553023,0.08811538,-0.33784646,-0.8144167,-0.07055574,0.004664324,-0.09036057,0.37982336,-0.10043092,-0.23450461,0.32159826,0.30068624,0.21266873,-0.030540282,-0.5655193,0.040081672,-0.26043347,0.20605192,-0.58906674,-0.62085086,-0.4070687,-0.4364633,-0.32053837,0.45686755,0.41510072,-0.06630544,-0.102920264,-0.099216856,0.40198016,-0.12074818,-0.35947272,0.034081705,0.04604823,0.15516765,0.13568589,0.28841546,-0.057832047,0.3051877,0.31663573,-0.84603226,0.2385819,-0.020750195,-0.27966145,0.0100551285,-0.4334668,-0.31857046,0.4281358,-0.0017698556,0.08157668,-0.055897653,-0.15954891,-0.5296762,-0.07803935,-0.08227613,-0.3465047,0.8244596,0.20196441,0.45206803
Africa_49.png,0.115149066,0.8009495,-0.026818395,0.18564738,0.3682674,0.32466555,-0.03255845,0.29957008,-0.09895578,-0.08341935,-0.025703266,-0.44901353,0.70875704,-0.09143063,0.27576178,0.003931567,0.95125467,-0.74860275,0.58039737,0.01695965,-1.416903,0.43230563,0.026621886,-0.5638688,-0.25353009,0.42200515,-0.30264184,-0.32560298,0.09879398,0.19089359,-0.3894288,-0.409258,-0.1444512,-0.20119339,0.27133292,-0.43117255,-0.21306875,0.14309695,-0.35440215,0.50026876,-0.07232861,0.059902817,0.51383,-0.36621228,-0.0673511,-0.753697,0.10242002,0.0021912977,-0.3389679,0.346643,0.09434467,0.24001843,0.17486212,0.3235544,-0.18461421,0.38485837,0.18839224,0.31510273,0.2802075,0.19844554,-1.0399283,0.24733117,-0.27641964,0.035545565,-0.18398276,-0.38757005,0.0033894535,1.3699896,-0.13150051,-0.16060123,-0.15757425,-0.18836364,-0.24976686,0.3318101,-0.40426618,0.019390907,-0.20413941,-0.5330111,-0.2525076,0.024646081,-0.080993935,-0.058109798,-0.20946214,0.39506,0.17360032,0.22442374,-0.5650567,-0.46312577,0.5822991,-0.34734595,0.27818975,0.08446703,-6.547475,0.10713239,-0.39585096,0.5318183,-0.054250985,0.17354636,-0.1468147,-0.0920331,0.03650385,0.30729714,-0.48980367,0.19628471,-0.25723058,-0.36785233,-0.17860296,-0.49109775,0.13209644,-0.5246737,-0.10667315,-0.14476728,-0.011065498,-0.21804667,-0.027229005,0.04131253,0.6044775,-0.09899473,0.41234088,-0.696389,0.55987346,0.03294328,0.41513252,-0.2070788,0.26085663,0.40626904,-0.085730314,-0.03351108,-0.011833429,0.40116346,-0.124459416,-0.39549437,0.103059374,0.8436498,0.1485742,0.42954487,-0.04068534,-0.1379954,0.18335247,0.37929472,-0.23683865,0.56930614,0.26077867,-0.15587625,-0.50139797,-0.19378318,0.012110442,-0.16062072,-0.3794564,0.14019305,0.08308551,0.12633602,0.28725287,0.017459529,-0.1817347,-0.28601608,0.23995739,-0.01631879,-0.10195594,0.1492239,-0.26118225,-0.13189287,-0.006268412,-0.0955843,0.5159292,0.06975087,0.34872454,0.50142825,0.17412207,0.054586038,-0.01879948,0.30052835,-0.08018973,-0.27232367,0.1862636,0.16123375,-0.5946641,-0.30600816,0.42398584,-0.24948151,0.2325032,-1.0161918,0.17271331,-0.2507594,-0.057751793,-0.17944045,0.14831124,-0.13909186,0.21809484,-0.1615183,0.3669773,0.3601116,-0.0300259,-0.044630323,0.14377776,-0.02597493,-0.3723881,-0.25492188,-1.2063217,-0.08144499,0.029074952,0.11767922,0.18304583,0.18987373,0.13230312,-0.14792664,-0.24875507,-0.0065703467,-0.3793031,-0.034791827,0.20312275,0.48659566,0.22798692,0.41137695,0.16415355,-0.32950008,0.2616216,0.64720315,0.68933964,-0.34729648,0.11493631,0.8269322,0.16061668,-0.07436274,0.35343164,-0.09409229,-0.19267602,-0.23632279,-0.10916182,-0.044638872,-0.11950202,0.5815389,0.46400464,-0.03867215,0.42289335,0.72091407,0.35663557,-0.2884164,0.12698412,0.13678169,0.06897671,0.35165647,0.52161914,-0.55423,-0.6202934,-0.35966915,-0.0011303923,0.17158797,-0.23586217,-0.28239787,0.1362654,0.03066697,0.049447685,-0.4106775,-0.0985772,-0.51829815,-0.058236793,0.21092057,2.1741018,-0.12566182,-0.32487094,0.4256398,-0.24784932,1.078363,0.28343484,-0.14845161,-0.11528097,0.3166141,0.18267249,0.21656619,0.3941354,0.46766806,0.067380205,0.18402943,0.3995037,-0.26831248,-0.25813556,-0.2584976,-0.28128627,0.2590025,0.44202754,0.3948206,0.5199569,-0.0682091,0.3932121,0.33207035,-0.841454,0.044369973,0.16901593,0.007361859,0.02777389,0.14621456,0.40006408,-0.2321319,0.16974832,0.5525458,0.7366573,-0.044033475,0.3472523,0.01576633,-0.02422905,-0.030253556,0.007857427,0.25397772,0.4239694,0.66691244,0.06490737,0.36355627,-0.33120975,0.47176874,-0.05009851,-0.22878474,0.8424442,-0.19633973,-0.01115036,0.32140672,0.24181473,0.122631624,0.076655865,0.19629721,0.34811544,0.83761936,-0.32762283,-0.18216485,-0.28873166,-0.1567194,0.3555069,-0.2894059,-0.25608295,0.0801163,-0.08368914,0.3299967,0.03247045,-0.38786256,-0.06614852,0.10330898,0.21880126,0.076638654,0.22128887,0.10087177,0.037189357,0.15827787,-0.008818284,-0.108612165,-0.13646501,0.029119544,-0.45879063,0.048639007,-0.035662618,0.21730456,0.19317035,-0.12582877,0.42194146,0.20749898,-0.20357949,-0.30231076,-0.3530772,-0.41406304,-0.0409462,-0.051424928,-0.91175103,0.04773885,-0.027483411,1.3260577,-0.18739027,0.3336094,-0.011906475,0.3328568,0.28770694,-0.3993773,-0.43272775,0.27374032,-0.13305408,0.1529865,-0.06565851,-0.11218228,0.9118899,0.43211222,0.0005685389,-0.014250502,0.01449243,-0.67382234,-0.01351282,-0.11642453,0.6654675,-0.056467384,0.24705686,0.288868,-0.6675805,1.4883196,0.7031559,0.11366978,0.4310146,-0.2789636,-0.16243714,0.19513847,-0.29020894,-0.08292338,-0.24012893,-0.20096768,0.34806812,0.09648444,0.17911413,-0.370064,-0.34797966,-0.087987,-0.013390556,-0.5473684,0.35928273,-0.35507417,0.07408041,0.13189119,-0.28017873,0.2228092,-0.04407742,0.4382485,-0.4425702,-0.58692473,-0.055887662,-0.240932,-0.2128042,-0.40682375,0.6270751,0.39136887,0.02822695,0.25318512,-0.66359407,-0.6436996,-2.134026,0.2769236,-0.09658769,0.23367375,0.710673,-0.059103787,0.16012056,0.14347002,0.19636568,-0.27310377,-0.14315331,-0.18326652,0.020627491,0.08802977,0.68587947,-0.14911738,0.028232142,0.07008901,-0.37237567,0.11603199,0.013434429,-0.21801405,-0.25976136,0.085038275,-0.21391638,-0.46414956,-0.15678808,0.11434556,0.07923096,-0.5680816,-0.5323413,-0.15245585,-0.08444415,0.01200141,0.13629535,-0.49234736,-0.030496962,-0.2731237,0.38706726,-0.11446038,-0.016964287,-0.054632664,0.42900765,0.37538737,-0.2231378,-0.43900847,0.25124198,-0.21348271,-0.2610081,0.066645496,0.6241435,-0.5190458,0.34176016,-0.00838921,-0.12143456,0.7595051,0.08835112,-0.035310425,-0.28773898,0.53200257,-0.18787718,-0.28106228,0.18295336,0.14118761,0.13600232,-0.543979,-0.23013519,0.0038614795,0.014867507,0.07653356,-0.414622,-0.24074635,0.070519134,-0.2626593,-0.2397601,-0.110121824,0.37360626,0.33376884,-0.10983455,0.1614346,-0.53910875,0.74337685,-0.100030415,0.11820279
Africa_42.png,0.060651455,0.44996083,0.102637395,0.5162424,0.04961092,0.3349557,0.5135028,0.1321705,0.24789841,-0.43802333,0.047670394,0.18712883,0.06530754,-0.44093743,0.22470804,-0.23063952,0.5666992,-0.32703143,0.24192059,-0.30241793,-1.1858056,0.41870046,-0.10251637,-0.7772895,-0.32281777,0.5611957,-0.07999424,-0.2986582,-0.24032009,0.15874207,-0.07822953,-0.001756221,-0.09365481,-0.13660267,0.42781994,-0.338522,-0.4236735,-0.24138176,-0.19559106,-0.03683977,0.35354006,0.09909994,0.43092704,-0.6757604,-0.20897673,-0.22344896,0.47603363,-0.28925395,-0.41930905,-0.007988051,-0.020163909,-0.0009966046,0.2821718,-0.08399642,-0.17168407,0.011910036,0.010149226,0.7297231,0.13779728,-0.104325026,-0.59569395,-0.04032713,-0.15997203,-0.02631826,0.072451405,-0.1848146,0.0088439435,1.9092925,-0.1286923,-0.18830302,0.069920436,-0.43427008,-0.5126208,0.04117687,-0.27199358,0.14234209,0.54055405,-0.47901687,0.08061056,-0.025733463,0.19209875,-0.50557625,-0.25752285,-0.4037704,0.5282326,-0.21511365,-0.72782016,-0.47823924,0.34276497,-0.3723061,0.3321213,-0.35369864,-5.52267,-0.15026149,0.056246076,0.37017295,-0.3139376,0.2409723,-0.65568614,0.4607362,0.40682226,0.232753,-0.040085718,0.13099195,-1.241171,-0.3741536,-0.8911636,-0.7218457,0.5118302,-0.38330996,-0.18192464,-0.20702273,0.0740273,-0.26548952,-0.26452506,0.0076576024,0.2182669,0.3512163,0.17563951,-0.72187257,0.16824998,-0.32831088,0.040081814,-0.18981078,0.08186444,0.19750518,0.24519888,0.068699956,-0.26418406,0.3948629,-0.3186706,-0.29700196,0.42736965,0.7924449,0.25574726,0.27618173,0.17035222,-0.38906622,0.17869784,0.47988576,-0.22071472,0.6255948,-0.5295557,-0.13005313,-0.5257278,-0.023939595,0.13697512,0.11270184,-0.3074305,0.13701393,0.6254419,0.25369966,-0.42290872,0.015753191,-0.3029582,-0.07774539,0.5078124,0.18152715,-0.276641,0.05499843,-0.7725563,0.20835224,0.2131687,-0.119198196,0.040943958,0.22440878,0.51519006,0.44809633,0.22974375,0.07325325,0.56520456,-0.05807437,-0.4298811,-0.31811112,0.22772972,0.24029264,-0.38533098,-0.3655177,0.02972586,-0.34363818,0.16827253,-0.76057094,0.03107698,-0.31808412,-0.41941094,-0.001922667,0.1552899,-0.29929316,0.18243253,0.09380467,0.30362183,-0.14896199,0.09427459,0.12763785,-0.48995435,0.13914573,-0.00868313,-0.4806755,-0.95310426,-0.20145571,0.36602807,0.16127679,0.7518509,0.35560906,-0.0035585035,-0.3450058,-0.14072604,-0.020749167,-0.16001308,0.3043097,-0.36650747,0.2966518,0.535342,-0.0041769035,0.22722235,-0.2955165,0.29261944,0.3166669,-0.31283912,-0.06215491,0.16028452,0.956656,0.30932647,-0.1501555,0.19323212,-0.21790227,0.095479116,-0.28405368,0.30776727,-0.05094552,-0.43114072,0.25296304,0.19498084,0.11480577,0.32120255,0.64213544,0.48458183,-0.7277506,-0.4472248,-0.22272718,0.122471526,-0.036871206,0.07270449,-0.3672829,-0.38542873,-0.55019593,0.16806006,0.43187872,-0.21151754,-0.194857,-0.23886925,-0.11121577,0.02341944,-0.21802111,0.13343471,-0.36623022,-0.028786868,0.037130482,2.4511847,-0.19930926,-0.22908999,0.2926884,-0.30820006,1.3411953,-0.20556465,-0.35759333,-0.07339215,0.518889,0.13050003,0.19879326,0.11049324,0.26731473,0.050195366,0.19625698,0.29660472,0.23459856,-0.40868616,-0.23854731,-0.09718705,-0.11900158,0.2647831,0.2582559,0.4517493,-0.19544664,-0.088182315,0.294422,-1.7726493,0.12886737,0.31558007,-0.31168193,-0.036010936,0.105266735,-0.07340016,-0.3188758,0.37427813,-0.014749855,1.2606697,0.14002265,0.009854764,-0.15836465,-0.090683825,0.22634427,-0.6161225,0.12640902,0.03167315,0.3814644,0.36156175,0.62537324,-0.06790536,0.3407331,0.13718969,0.12483743,0.79173005,-0.28490686,0.13110013,0.07896483,-0.050379165,-0.44598952,0.53148234,-0.26261544,-0.12188519,1.0978763,-0.23907377,-0.1145925,0.036845356,0.107607126,0.42618078,0.010091186,-0.2916392,-0.35930783,0.32539397,0.37489182,0.13200234,-0.14310989,0.1838696,0.23922527,-0.22140354,0.34402457,0.13102704,-0.03323081,-0.24998838,-0.2584142,-0.073533654,0.40347433,0.38978577,-0.16860536,-0.3774501,-0.10205688,0.3263345,-0.05379971,0.03318604,0.08857591,0.094014704,-0.0045111254,-0.15539911,-0.5365012,-0.8441844,-0.40721455,0.092081144,-0.22720486,-0.30061412,0.20285079,0.052977417,0.75889933,0.27271694,0.3011426,0.05923815,0.31822807,0.1814093,-0.027673692,-0.60221905,-0.051227465,0.008668944,-0.42430803,0.12038553,0.007407099,1.4257021,-0.07500197,-0.31873697,-0.02217326,-0.22066376,-0.23539712,-0.29493606,-0.4317497,0.7047094,0.3192995,0.14096016,0.24859524,-0.4806152,1.369147,0.18945071,-0.003760606,0.58985764,-0.12992468,-0.3802197,0.072392635,-0.25075692,-0.52510047,0.0030027665,0.046245962,0.2468652,0.027530178,-0.09176397,-0.098395094,-0.49227735,-0.073376656,-0.044602454,-0.17617637,0.431812,-0.20194514,0.13293767,0.022441,-0.21054211,0.32311532,0.02356724,0.5598365,-0.17397785,-0.5465695,0.02372761,-0.29066697,0.18439502,-0.09508863,0.41902,0.86409044,0.19605434,0.122264385,-0.40029716,-0.32658532,-1.7801418,0.17096837,0.18399647,0.6257624,1.4264834,0.020836502,-0.016148515,0.3673972,-0.03720793,-0.1939538,-0.1622473,-0.2080822,0.17255345,0.10366762,0.58051056,-0.48207045,-0.27687627,-0.1829299,-0.08303108,-0.03430797,-0.13692857,-0.2949084,-0.41002488,-0.04880941,-0.50675565,-1.1215959,-0.1481979,0.1407128,0.26969844,-0.54757637,-0.28367475,-0.42626563,-0.1384054,-0.18166932,-0.027113842,-0.38230595,-0.21473303,0.21831326,0.35001382,-0.04001034,-0.19166845,0.06733854,-0.049248755,0.091909766,-0.61320144,-0.15785524,0.10731177,-0.43576974,-0.35775506,0.30383462,0.31845513,0.26606783,0.0660595,-0.15570164,-0.39479068,0.1293872,0.0875479,0.23593894,-0.13668701,0.16466463,0.34125066,0.018793434,0.25069568,0.2834884,0.25086695,-0.40490922,-0.21478537,-0.15119168,0.47471768,0.10667525,-0.49905902,0.09738961,-0.2669238,0.15787563,-0.1849373,0.43419752,-0.35975766,0.0634709,-0.5058973,0.46192497,-0.10210423,0.33751166,-0.1828226,0.40033507
Africa_12.png,0.22726381,0.7515279,-0.010652825,-0.007476533,-0.06780735,0.2786422,-0.040133417,-0.15361613,-0.10917024,-0.1312334,-0.026811853,-0.14712389,0.35246688,-0.0047362,-0.22692278,0.03333933,1.4342974,-0.5048135,0.010518841,-0.44975933,-1.5160215,0.05846169,0.02622707,-0.8473354,0.06638985,0.5923783,-0.08657764,-0.119071536,-0.048560627,0.15228388,-0.42176318,-0.24475873,-0.03583467,-0.24109665,0.4733889,-0.14919223,-0.42542797,-0.06519679,-0.11511835,0.92492855,0.36367217,0.16755763,0.2608293,-0.13734902,-0.03258673,0.2701401,0.23462796,-0.3318981,-0.48142165,0.23354414,-0.07358661,-0.043283455,-0.041400388,-0.019947,-0.13562423,0.43545133,0.35546088,0.36853698,0.38711202,-0.19138479,-0.42795268,0.041468333,-0.28781766,0.47696924,-0.09803481,-0.1459037,0.14830494,1.5329974,-0.029080868,-0.008014318,-0.10295334,-0.49217734,-0.4056366,0.25473443,-0.33732533,-0.027744785,0.14345187,-0.20087332,-0.348076,-0.02633489,0.30891514,-0.32294458,0.095598355,-0.3926342,0.45074922,0.37399173,-0.92747915,-0.4359504,0.58800226,-0.19655457,0.50908715,-0.17666703,-5.218437,-0.1841964,0.08293517,0.51763797,-0.1192202,0.03217749,-0.2554987,0.49368832,-0.071739525,0.88182867,-0.15815856,-0.050154395,-0.9816915,-0.25382262,-0.44260454,-0.22144185,0.14883465,-0.43249032,-0.007988095,-0.22941193,0.17013574,-0.13095866,-0.100563236,-0.38527203,0.68662727,0.23128805,0.26299584,-0.7270087,0.40090668,-0.016219288,0.10114839,-0.1751216,0.39758185,0.1263213,0.34104633,-0.12532271,-0.37459964,-0.021867722,-0.069037214,-0.095215,0.19318393,0.7637033,-0.18583235,0.08582777,0.2644143,-0.13812885,0.37983528,0.32337865,-0.2790562,0.5980255,0.26061434,0.0017485172,-0.32909653,-0.25929645,0.17553824,-0.17892268,-0.07184156,-0.020961098,0.07646631,0.26441112,-0.14486152,0.052008137,-0.31922245,-0.003591448,0.533514,0.057724252,-0.411075,0.03225062,-0.72305816,0.100429334,0.5288201,0.0383857,0.2837694,-0.14495975,0.19955015,0.70312923,-0.24817958,0.22762877,0.10799453,0.18483938,-0.27986166,-0.42272505,0.15180019,0.2971885,-0.45771694,0.18969265,0.3682856,-0.36139217,0.31646007,-0.53499347,-0.029361645,-0.549882,-0.06296979,-0.34051698,0.055703685,0.3949195,0.31980297,0.23469388,0.3794418,0.06281157,0.135354,-0.10128157,0.13686366,0.036113948,-0.5243494,-0.6349759,-0.69272715,-0.19532524,0.11196689,0.0037776455,0.26098526,0.20447132,-0.10629025,-0.44496447,-0.5741409,0.07184696,-0.44206285,0.16469634,-0.33645824,0.8560654,0.34003207,0.30095106,0.4853847,-0.08461476,-0.14559203,0.45350915,0.53644955,-0.29832503,0.12000476,0.95372254,-0.09611732,-0.24695478,0.13384332,-0.20346457,-0.20165002,-0.32846504,0.37104258,-0.068790376,-0.40342015,0.22044884,0.39325634,0.23950891,0.41424555,0.2406225,0.32530522,-0.4620132,-0.38536352,0.025391355,-0.28475726,-0.024408989,0.44466633,-0.5090219,-0.45653993,-0.35247472,0.29671723,0.252076,-0.4491826,-0.43034455,0.24256936,-0.39206326,-0.04832399,0.0453479,-0.017487109,-0.23464909,0.039319813,0.10933083,2.474643,-0.20829669,0.01796025,0.08232556,-0.096090175,1.0148394,-0.19301155,-0.41265333,-0.07309015,0.5898876,0.18424094,-0.19814311,0.2792653,0.49371365,0.1159898,0.1671254,0.17087772,0.10376576,-0.18291995,-0.33925375,-0.13705961,0.01656223,0.25333607,0.38685638,0.25302526,-0.00044491887,0.01564648,0.06674282,-0.067566484,0.11331971,0.10469377,-0.25715968,-0.51749974,0.37028754,0.23908493,0.019748673,0.0308806,0.5984645,1.308424,-0.02024424,0.6245886,0.06664868,0.048413545,-0.0518603,-0.14858462,0.29519626,0.5562463,0.381571,0.10365419,0.33001655,-0.12229659,0.20165184,0.16314915,-0.2606901,0.762478,-0.10810758,0.13379768,0.5502564,0.03378202,0.10545903,0.097399615,-0.24942419,-0.018582724,1.7578976,-0.7012872,-0.371863,0.15007693,0.8901919,0.21822724,0.24540451,-0.11592329,-0.24061696,-0.06758024,-0.050474703,-0.07974827,-0.2724693,-0.016195074,0.22349559,-0.20595044,0.047000043,-0.0003928542,0.3210641,0.20895618,-0.3005543,0.35206252,0.42508146,0.5333582,-0.16135487,-0.26886478,0.02878092,-0.078916386,0.43115616,0.0047039464,0.06934199,0.30725563,0.123441964,-0.31371924,-0.27102268,-0.4483594,-0.33629626,0.11326231,-0.3100111,-0.71132344,-0.0022386685,-0.26820955,0.84940296,-0.3425127,0.06726448,0.096321285,0.524743,0.12388146,-0.47391254,-0.6653562,0.24947509,-0.06722922,-0.35142252,-0.62702715,-0.16851851,0.9314006,-0.021337546,0.04415174,-0.26263356,-0.20805068,-0.5285568,-0.01107271,-0.2721696,0.2727648,0.079508945,-0.04112065,0.12392495,-0.44446504,1.8859457,0.63805974,0.09883556,0.24306923,0.08716835,-0.29578394,0.036352154,-0.060498208,-0.23636454,0.063164756,-0.33732727,0.28134596,-0.18034546,-0.057225034,-0.37367365,-0.41802526,0.12097954,-0.32313588,-0.3885311,0.4848046,-0.19275378,0.30318987,-0.074795485,-0.09694803,0.18016906,-0.12733316,0.20980187,-0.28059697,-0.42912242,-0.199064,0.13028741,0.053507715,-0.25302055,0.6160709,0.7149531,-0.30312103,-0.26966834,-0.22027339,-0.86469054,-1.966208,0.49479538,0.15059173,0.37604848,1.2539954,-0.10070033,0.070895135,0.26609612,0.053018227,0.100808874,0.32513753,0.046548247,0.20083556,-0.09191083,0.10851874,-0.34244165,-0.015563004,-0.3154851,-0.036872778,-0.15177318,-0.23707408,-0.035990506,-0.32938823,0.29399884,-0.26737824,-1.2049195,-0.08671953,-0.049072295,-0.075770944,-0.6955827,-0.13699652,-0.31837526,-0.12570712,0.13837019,-0.090807274,-0.38382974,-0.64642256,0.09924819,0.36018652,-0.22993484,-0.20781909,-0.31485844,0.058125585,0.36603495,-0.37893754,-0.2726712,-0.13499025,-0.121819116,-0.5061952,0.2374815,0.5234841,-0.18082531,-0.09370878,-0.38607156,-0.24229391,0.3560796,0.3308665,0.10367126,-0.09128279,0.20437977,0.18652791,-0.11041521,0.35282594,0.02359739,0.01046586,-0.5999328,-0.19108167,-0.066023916,0.27734745,0.057121165,-0.5189145,-0.27997088,-0.4992956,-0.14587016,-0.47545788,0.35926327,-0.096624054,0.26423657,-0.044484556,0.2983238,-0.56832045,0.5616243,-0.43775666,0.01569704
Africa_18.png,0.12725526,0.7262423,0.07153509,0.46254444,0.31202817,0.35236654,0.4242727,0.08154458,0.08293711,-0.50549173,0.41183758,-0.31189558,0.46186963,-0.020484976,-0.15520424,-0.301849,1.0749861,-0.4936824,0.45378584,-0.6151297,-1.7275897,0.3033619,-0.06978583,-0.41429403,-0.83501714,0.33812976,-0.023835242,-0.22919527,-0.017457187,0.058634527,-0.30169043,-0.1987521,0.013847858,-0.32296175,0.58341575,-0.24967128,-0.2434385,0.24428199,-0.29949826,0.7287267,0.39365214,-0.103779234,0.6460446,-0.21230038,0.026227444,-1.0740837,0.02491276,0.02504149,0.0064392015,-0.13385141,0.04861018,-0.12502459,-0.052462704,-0.32735473,-0.27913988,0.14477436,0.518282,0.10461054,0.33483428,-0.1234058,-0.9843451,0.19763944,-0.12542313,-0.20549335,-0.278629,-0.41347182,0.16157259,1.8781857,-0.33336586,0.15109137,0.11336985,-0.16086468,-0.3562525,0.29092294,-0.45786643,-0.09677591,0.545205,-0.40943867,-0.21161658,0.38890556,-0.16051969,-0.27741063,-0.33998787,-0.25043994,0.016520936,-0.024080716,-0.88275516,0.008713067,0.8121009,-0.13430052,0.31226742,0.10300151,-5.1380644,-0.024927214,0.07550955,0.431506,0.05003854,0.4279486,-0.5913598,0.6321317,-0.0486407,0.34830055,-0.34547824,-0.09500523,-0.62382215,-0.3302091,-0.24059135,-0.19196886,0.24133663,-0.41224757,-0.32411858,-0.27693743,-0.30393964,-0.095907174,-0.4255287,-0.053795405,0.5039897,0.48410562,0.4103629,-0.9907854,0.553739,-0.04648836,0.019574262,-0.24706703,0.22039358,-0.09019065,-0.07812561,-0.20816886,-0.21196759,0.3933989,-0.29551113,-0.1653724,0.12791343,0.76639736,0.42179373,0.22461873,0.14120585,-0.5404722,0.07336712,0.57096744,-0.1620856,0.95750856,-0.40486178,0.14333111,-0.56158924,-0.054998428,-0.11146778,-0.13629591,-0.39605832,0.28514233,0.26947498,0.17559505,0.09194788,-0.054005142,-0.12069655,-0.22638325,0.3137419,0.31052917,0.18342505,0.19372594,-0.33720177,0.15785864,0.017282635,-0.010188956,0.5633762,0.1741266,0.4665207,0.39747164,0.0015681162,-0.083687425,-0.010009594,0.17210445,-0.029525176,0.079830945,0.35346818,0.28109998,-0.2609159,-0.123680055,0.34685832,0.0075303093,0.5883383,-0.6058474,-0.17277975,-0.42785835,-0.2500412,0.03436136,0.077156216,0.07266165,-0.30049652,-0.11107473,0.2977292,0.19762915,-0.015186638,-0.14665858,-0.21880135,0.18474744,-0.27090093,-0.35123986,-0.5388635,-0.25076357,0.10894499,0.0064805187,0.004534453,0.52812904,-0.39155734,-0.17445567,-0.5633539,0.1823859,-0.31571364,0.14757067,-0.25971514,0.61724454,0.5237831,0.15413158,0.03728611,-0.27766678,0.20967205,0.61409056,0.389397,-0.2396707,0.039834633,1.1748976,-0.11671606,0.07026902,0.15091503,0.2665776,-0.15036057,0.03367629,0.18669859,0.056302533,-0.7723675,0.2112508,0.1925244,-0.020701826,0.36557162,0.6557301,0.23582008,-0.57084614,-0.27813023,0.108376876,-0.19125062,0.25852078,0.53726315,-0.27257225,-0.34664392,-0.39100125,0.50566363,0.111191794,-0.08974552,-0.86086124,-0.28749073,0.080421135,-0.57306755,0.08257714,-0.15113321,-0.052577525,-0.12938608,0.07297425,1.8523114,-0.35977829,-0.17221408,0.30347136,-0.12870486,0.96710104,0.32830763,-0.63352585,-0.19280969,0.28429437,0.0898754,0.15317684,-0.032693647,0.5179397,0.04789474,-0.42650068,0.10547805,0.038074106,0.18504222,-0.18300454,-0.25980714,0.12271123,0.1441513,0.04509842,-0.042343825,-0.014243901,0.18145187,0.05604638,-1.1682612,0.27672762,0.32027695,0.17242506,-0.054859128,-0.07186787,0.02456002,-0.16185299,0.3384444,0.24752767,1.38762,0.15225726,0.2820386,0.14735809,-0.030462485,0.008358179,-0.46733505,0.119039744,0.31418976,0.71427006,0.08414327,0.26862684,-0.6195901,0.4296683,-0.27548528,-0.11561884,0.7648013,-0.24017566,0.04660292,0.17106853,0.5686387,-0.20718013,0.29061684,0.029182151,0.25795802,1.5473871,-0.09579105,0.00895635,-0.24299103,0.32745117,0.16211118,-0.06602885,0.22658984,-0.32925114,0.23778681,0.20213905,0.06226648,-0.35336512,0.11411084,0.012060713,0.30995196,-0.21324603,0.5386871,0.21702443,-0.19386813,0.07425305,-0.14479557,-0.15225421,0.33991724,-0.029106509,-0.22230974,0.14426595,-0.017723128,0.14830863,0.49337527,-0.52195835,0.2339825,0.31225342,-0.4359942,-0.2774483,-0.03955828,-0.94713163,0.018274657,0.01943141,-0.21427041,0.1511908,0.21795851,0.8163692,0.08992344,0.4904305,-0.15859203,-0.23281088,0.26416558,-0.07388324,-0.36460984,0.32576975,0.33145452,0.03424357,-0.093958825,0.27697515,0.8413038,0.10729605,-0.23633775,0.005300184,-0.14231041,-0.29950547,0.012125783,-0.42442396,0.72905236,0.09153076,0.26703933,0.06719196,-0.4799864,1.7528229,0.40318418,-0.20005167,0.5217673,-0.006550476,0.14836794,0.24907029,-0.18757989,-0.2760398,0.016072623,-0.1347999,-0.0065396726,-0.016410604,0.18078145,-0.42256993,0.033808254,0.048024956,0.023192793,-0.27453518,0.55306554,-0.2629192,0.121451914,-0.17397526,0.09038249,0.124709554,-0.075989544,0.12145804,-0.1810511,-0.6493097,0.21999021,-0.3267455,-0.13313094,0.12907645,0.475269,0.5503491,-0.40309477,-0.0029112096,-0.34262276,-0.7849244,-1.5415456,0.15461133,0.39097357,0.32239437,1.3035474,-0.01720789,0.121710226,0.13802224,0.026352003,-0.43417352,-0.3232841,-0.28448147,0.041097768,0.22456509,0.55836433,-0.22762518,-0.23620796,-0.28864792,-0.26479876,0.071407154,-0.016300913,0.044283465,-0.4877259,0.3830456,-0.39551282,-0.6483686,-0.57236725,-0.10228492,-0.2899673,-0.51541746,-0.23326892,0.044527855,-0.1733153,-0.35428965,0.029692072,-0.18123636,-0.33551055,0.2529055,0.60370505,-0.060968436,-0.031190626,0.12897655,0.28839344,0.16469301,-0.6373228,-0.44790092,0.133401,-0.33126983,-0.33907682,0.4356103,0.46587354,-0.069788046,0.1909416,-0.11983696,0.07533479,0.35909012,0.41816992,0.15227148,0.043228496,0.5034551,0.10180115,-0.0014990196,0.50928324,0.32290715,0.25997472,-0.5469973,0.062360115,0.049246788,0.19617952,0.03554952,-0.20374176,-0.32533783,0.1414482,-0.23886989,-0.019037798,-0.1652174,0.21171159,-0.07656772,0.15783998,0.14784291,-0.444877,0.6264563,-0.031561315,0.47291934
Africa_19.png,0.1190338,0.81491274,-0.048197463,0.06488629,-0.33188826,0.33932367,-0.088519484,0.069006264,0.16951409,0.015941665,-0.31553876,-0.23350841,0.2243,-0.16430071,0.25360614,0.025868922,1.4008187,-0.109384686,0.59107155,-0.41966182,-1.6033839,0.33720386,-0.20622823,-0.21933638,-0.084878765,0.51630217,-0.04036496,-0.13431168,-0.10545454,0.11441212,-0.09253515,-0.054171175,0.111450404,-0.17364657,0.3711973,-0.057419877,0.05784481,-0.27306533,-0.5401672,1.0270115,0.3675273,0.083186895,-0.053458154,-0.45675248,-0.36169606,-1.1946666,0.53723097,-0.02664055,-0.23713998,0.40264913,-0.3237738,-0.07460764,-0.029577449,-0.0406534,-0.004839897,0.3652711,0.4137462,0.5573345,0.15648897,-0.07898087,-0.51706415,-0.066899866,-0.508065,0.20421103,-0.4010023,0.32438594,-0.26885116,1.1528522,-0.07700771,-0.5663124,0.19751827,-0.0031536408,-0.46207803,0.13550581,-0.34257567,-0.1975851,-0.2217592,-0.49326319,-0.35268825,0.22630185,0.4781568,-0.80872,0.13496119,0.10855901,0.41688076,0.07892097,-0.77432173,0.3283166,0.67793524,-0.74442595,0.38222188,-0.06965046,-5.5879803,0.44125897,0.112266324,0.4115442,0.18543935,0.2837525,-0.6673598,0.31610408,-0.16051355,0.42743316,-0.31559885,0.15274188,-0.65423614,0.28697643,-0.7170531,-0.3629738,0.4417222,-0.05849388,-0.0842011,-0.36128306,-0.087878644,-0.19706413,-0.0366142,-0.45199698,0.75439477,0.38002092,0.31440094,-1.1333027,0.06624631,-0.1971782,0.44508994,0.0689605,-0.18430252,0.41183662,-0.098294556,-0.13685706,-0.091196135,0.62730587,-0.09921035,-0.0055775344,-0.34757563,0.7898728,0.10857883,0.121198826,-0.42045754,-0.336978,0.10808386,0.20528136,0.4156449,-0.12566228,0.4070226,-0.08940281,-0.2030354,-0.076204464,0.28874272,0.07185571,-0.35466936,0.09931682,-0.13918078,-0.0433589,0.09458074,0.11127429,-0.17652524,-0.09068787,0.39734042,0.049682543,-0.3531208,0.0916427,-0.19367358,0.23357639,0.14542319,-0.3159548,-0.06569847,-0.0946633,0.7841134,0.26071966,-0.111696064,-0.21844761,0.3991767,0.13684897,-0.018519431,0.13513269,-0.1511153,0.4210227,-0.009020597,-0.36713797,0.8246417,0.07007221,0.46034187,-0.6094032,0.29110345,0.014428094,-0.026945807,-0.04447435,0.16252466,-0.2005926,0.38006747,-0.08981301,0.54263747,0.079464406,-0.34782133,-0.29207236,0.37309343,0.11532025,-0.7281708,-0.07252176,-0.3938287,-0.056602538,0.2095831,-0.071219906,0.38823515,-0.098735966,0.14173275,-0.59681284,-0.09260706,-0.07146256,-0.19936173,0.17528397,0.09976422,0.9998299,-0.11003861,0.23485556,0.12296592,-0.31293327,0.36162943,0.258459,0.6621595,0.03399059,-0.07370224,0.58250743,-0.31064746,-0.23994477,-0.09074992,0.21689454,0.24603374,-0.5476184,0.07742878,0.1273284,0.03596273,-0.04988753,-0.081190474,-0.24876148,0.52286637,0.43396452,0.15372625,-0.11115013,0.23531239,0.50114,0.05766131,-0.028193891,0.5110298,-0.48022163,-0.36488724,-0.61183596,0.05148272,0.46277463,0.15021653,-0.62885666,0.23665172,-0.6819485,0.25705573,0.027129129,0.24119128,-0.04473839,-0.24318527,0.060412884,0.46319175,-0.043036148,-0.25863948,0.13150284,0.20531808,1.3894955,-0.22860065,0.24187835,0.34449553,0.51887596,-0.0037149042,-0.11163566,0.3171931,0.04897259,-0.048550017,0.13914526,-0.19575776,-0.36349624,-0.26562342,0.19416031,-0.15309423,0.28727335,0.1661413,0.52123785,0.5128889,0.36818448,0.12865508,-0.013076685,-0.86567855,-0.07388256,0.29147875,-0.38699472,-0.22244969,-0.15269591,0.38700515,-0.27235985,-0.18786547,0.5634164,0.7488098,-0.23103419,0.27751404,0.21359645,-0.32822362,-0.060175035,-0.15806954,0.5574781,0.06306947,0.34538627,0.13264018,0.1058715,0.043291222,0.39582762,0.15384777,-0.3216644,0.7884898,0.0046446286,0.04022827,0.17405815,-0.047161654,0.5581615,0.34337172,-0.017388657,0.26689887,1.4189807,-0.46350747,-0.56271076,-0.5500411,-0.44083557,0.2526705,0.17324622,-0.26308528,-0.055046886,-0.26855943,0.15089214,0.20033675,0.18129379,0.14067847,-0.068447664,0.23139922,0.40221038,0.07035793,0.27098867,-0.45911554,-0.5464194,0.08109951,0.16451615,-0.21476535,-0.14343932,-0.34367946,0.0067716017,-0.18327218,-0.0059220195,0.5652516,-0.1709809,0.49169257,-0.068852544,0.03482528,-0.065691896,-0.39283243,-0.67457634,-0.37586164,0.15183604,-0.93353033,-0.08875979,0.14695755,0.9485747,0.08506361,0.26015115,0.1560601,-0.0666252,0.048252195,-0.5279988,-0.3756675,0.3173622,-0.38471988,0.008749712,0.02498725,-0.07685055,0.7609102,-0.18121698,-0.9986311,0.24837534,-0.092349306,-0.5343813,-0.031504944,-0.063672505,0.48553112,-0.45793712,0.21485572,0.07712576,-0.597772,1.2457718,0.22088823,0.038881764,0.08179581,0.23647594,-0.35978225,0.13082416,0.20000997,-0.6146245,0.26811627,0.1431196,0.2201562,0.04548067,0.03363864,0.014815755,-0.050333552,0.17475753,-0.20437977,0.022381444,0.47006685,-0.41084507,0.15829858,-0.19964784,-0.19552633,0.1746898,-0.23714891,0.14359725,-0.5133841,-0.4320184,-0.18647304,-0.6566576,0.15046564,-0.09325611,0.35281113,0.42286384,-0.08848544,-0.28168827,-0.21452607,-0.40921718,-1.0744712,0.5356266,-0.23056087,0.25042024,1.2051653,-0.06926578,0.18637133,0.34514946,0.21899831,0.17359984,0.18745849,0.06686622,0.17515485,0.08836747,0.43322256,-0.0002424866,-0.10782132,-0.6333194,-0.012937844,0.005739741,-0.074871644,-0.16894047,-0.19800527,-0.11496726,-0.32698792,-0.50852764,0.09915057,0.04477077,-0.4953696,-0.48033458,-0.37523955,-0.41147214,-0.051018216,-0.058006212,-0.23825079,-0.2998455,0.33128554,0.44447547,0.3465198,-0.013122678,-0.32862362,0.10194546,0.20030285,-0.11345893,-0.122431606,-0.72826886,-0.32314014,-0.10421483,-0.0931779,0.15778531,0.40682653,-0.37364078,-0.31884822,-0.0039453134,-0.28599826,0.3767006,-0.15826383,0.42205012,-0.1645637,0.35855347,-0.2523048,-0.13388227,0.49825418,0.80802643,0.48462906,-0.8898529,0.21213974,-0.08118102,0.15335546,0.0435078,-0.2841689,0.13639417,-0.020828247,-0.4110664,-0.4440279,0.2937282,-0.30732962,-0.1079069,0.21001783,0.14402223,-0.12304519,0.6193615,-0.16762795,0.16884476
Africa_01.png,0.19107935,0.6353121,0.10711422,-0.01904963,-0.0017716661,0.27614293,0.122207224,0.2687942,0.28207847,-0.12729675,-0.21055499,-0.43395627,0.3803712,-0.03154953,0.06706241,-0.3937127,0.82014656,0.11077041,0.43070444,-0.46854562,-1.6453056,0.2931275,-0.21343786,0.05755204,-0.23353755,0.30687648,0.071812965,-0.17138356,-0.0957147,-0.02336853,-0.30614814,-0.23832637,-0.34228772,-0.13603282,0.365007,0.17752439,-0.24899313,-0.006258264,0.06594437,1.5260916,0.18720147,0.13714997,0.4172254,-0.500735,0.052679244,-2.549492,0.6257259,-0.081676394,0.062992424,0.12877052,0.13928993,-0.39820564,-0.041571125,-0.047140747,-0.12027778,0.28133863,0.49167252,0.32283914,-0.29158413,-0.023430482,-1.0447756,0.34915185,-0.37725097,0.13574284,-0.21947949,-0.07084854,0.30432296,1.4212013,0.09541345,0.4233892,-0.055955477,-0.31628287,-0.43255982,0.3843006,-0.0019739494,-0.45551664,-0.42869908,-0.17830987,-0.06363643,0.100781426,0.2799999,-0.87662476,0.13155948,0.5168173,0.057367213,-0.19098026,-0.21959704,-0.08294491,0.6505922,-0.35559195,0.13551262,-0.04901506,-6.4085755,0.66197085,0.26868433,0.4519123,-0.5779025,-0.094238594,-0.5954238,0.29446113,0.024460485,0.18492228,-0.48776323,-0.27616447,-0.5670576,0.2948625,0.061134256,0.013554867,0.08505386,-0.46720937,-0.42394173,-0.5165998,-0.003989622,-0.4124746,0.22682978,-0.06576581,0.44752827,0.21832912,0.172425,-0.76106066,0.22468865,-0.31319323,0.23852427,-0.09115574,0.24897705,0.1652923,-0.07310572,0.024454966,-0.16785112,0.046694845,-0.17159119,-0.13082454,-0.3280963,0.79937434,-0.3199765,0.26888466,-0.05456303,-0.47370678,0.27659607,-0.052944228,0.57995665,0.09949872,0.060990382,0.36331785,-0.1531722,-0.067883134,0.24480703,0.26797667,-0.032470487,0.03996719,-0.12452564,-0.19116291,0.54419255,0.09613014,-0.550006,-0.29745048,0.1528686,-0.00050426275,-0.24428406,0.20478791,-0.2704938,-0.03196563,0.4617486,0.46348453,0.22982123,-0.3810708,0.48367321,0.63734657,0.10516831,-0.0073827393,0.40570134,0.19616137,0.27675045,-0.3325145,-0.052147686,0.5533016,0.22181436,-0.018961526,1.0299597,-0.09595567,-0.049573023,-0.8728376,-0.092117906,-0.20052813,-0.002868183,-0.13005248,-0.058942273,-0.041210353,0.15475084,-0.1580985,0.5746283,0.06249149,0.040057033,0.24292526,0.33979475,0.2961048,-0.58744043,-0.046849474,-0.58226925,-0.29844972,0.33772504,-0.20443399,0.059518218,0.043849833,0.020780608,-0.48912206,0.13260596,-0.073182195,-0.21135305,0.4805932,-0.27904326,0.98001194,-0.009819271,0.22531873,-0.0886253,0.018846363,0.12327655,0.27738976,0.68070245,-0.08410093,0.5685146,0.85248584,-0.18664238,-0.27860597,0.1371715,-0.21346214,0.0118082315,-0.28238386,0.3713867,-0.024294883,-0.017867774,0.0720679,0.46329737,-0.036951162,0.014289858,0.53907526,0.039878115,-0.035698988,0.24045718,0.24836808,0.16477562,0.32323772,0.6431198,-0.4606498,-0.45913944,-0.6160047,-0.10128003,0.46499318,0.07702316,-0.4412301,0.2880103,-0.005817741,-0.1474788,0.15783638,0.11390802,-0.45561835,-0.3236347,0.27836934,-0.4013722,-0.6000986,-0.1947066,0.21974908,0.24132995,-0.1743046,-0.22815987,-0.15218703,0.03751185,0.4161936,0.37615365,-0.28717166,0.24686874,0.54847413,-0.00623399,0.34041014,-0.23417777,-0.05429305,-0.019395329,0.005849421,-0.15201136,0.13708524,0.52656347,-0.04351688,0.16704363,0.41371673,0.2754439,-0.07865089,-0.1756089,-0.23761389,0.122191,-0.35266167,-0.15041892,0.25628906,0.1988664,-0.02728413,-0.31325948,0.33611086,0.79607004,-0.10273965,0.058661483,-0.028529532,-0.13245603,-0.13473362,-0.286185,0.3020174,0.38138556,0.44673464,0.25686055,0.13601531,-0.12296771,0.1749267,-0.21609521,-0.34634507,0.79618645,-0.16921027,-0.19506699,0.23501402,0.29529336,0.038224958,0.32380044,0.076656215,0.6253765,0.99428964,-0.49059877,-0.46175048,-0.040099382,-0.0396877,0.36924642,0.07583232,-0.16408135,-0.040515132,-0.33022875,-0.07818824,0.23384036,0.031356126,0.08835111,-0.13157251,-0.21465726,-0.104359984,0.090857826,0.12312122,-0.08614857,-0.28626657,-0.12878087,0.014806293,0.099909015,-0.3221514,-0.19941643,0.018870562,-0.13677725,0.18195686,-0.041217856,0.08840412,0.6414053,0.32555065,0.12428966,-0.3125738,-0.4043617,-0.17762676,0.009112395,0.33663777,-1.0841166,-0.36705154,0.14430477,1.4101595,0.79757833,0.27202,0.1092988,0.68041736,0.2723264,-0.9151168,-0.21789664,0.39826447,-0.20940924,0.16677752,-0.2709122,0.11254476,0.7125707,0.3707686,-0.8369529,-0.14307788,-0.6060085,-1.197804,0.15837897,0.01490134,-0.061330944,-0.09929925,0.21923646,0.14941286,-0.4533699,0.72910565,0.6912684,0.2892938,-0.2550503,-0.015913859,-0.6690765,0.013114303,-0.20994924,-0.42691457,0.462301,-0.25034955,0.34355465,-0.15466125,0.25610924,-0.26623943,0.19750738,-0.15094423,-0.4440609,-0.06387062,0.569049,-0.6478257,0.16131806,0.19094388,-0.058191366,0.06823331,-0.5711529,0.44274825,-0.44062644,-0.11698635,-0.15295434,-0.6855045,0.29147878,-0.34106708,0.1190495,0.072440885,-0.43997413,-0.15088621,-0.17187677,-0.28231484,-1.5235115,0.5543301,-0.30764648,0.44636193,1.2011967,-0.18887809,-0.24752928,0.2779107,0.13468857,-0.03789381,-0.067987084,0.008378677,0.32629877,0.12894794,0.37288275,0.048886865,0.016212776,-0.020423386,0.3639354,0.006329432,0.1427612,0.09481327,-0.18825915,-0.31162468,-0.42217946,-0.59304714,0.19290751,0.22271445,-0.77354705,-0.5739386,-0.23072582,-0.07989941,-0.22531112,-0.07454796,-0.21467327,-0.35619906,-0.078874096,0.18319088,0.40931493,-0.12328906,-0.5214547,0.13367607,-0.04032339,0.6176288,-0.33936194,-0.5479236,-0.020348698,-0.14980501,-0.04614824,0.38546354,0.6049578,-0.3270634,-0.2301068,0.100142024,0.00069229305,0.15703872,-0.20983484,0.18808778,0.20527995,0.0745088,0.047730163,-0.41099906,0.42820185,0.019818522,0.5793768,-0.7585608,-0.06211053,0.06468458,0.09643599,-0.12395398,-0.07780963,0.18257314,0.051192403,-0.28645772,-0.8236579,0.28108117,-0.2406401,-0.15491039,0.21756655,-0.47781616,-0.20869385,0.8059528,-0.079406135,0.105731234
Africa_45.png,-0.14372414,0.7224207,0.16229299,-0.06840997,0.053809106,0.09207316,-0.019016666,0.23824844,0.4819049,-0.03876265,0.35028374,0.054304495,0.48859712,-0.41205782,0.39861852,0.022168517,0.5584242,0.21094507,0.36275405,-0.23589826,-1.1565425,-0.0050733546,-0.30936766,-0.22109564,-0.06299092,0.22469625,-0.3045006,0.42596802,-0.4161462,0.3300799,0.0062923515,-0.08885307,0.012470961,0.010549441,0.3526098,-0.3745765,-0.03064292,-0.49174628,-0.18302953,1.162716,-0.087773755,0.028569147,0.18426368,0.06780183,-0.10180772,-1.6247199,0.7491667,0.27468064,0.11767305,0.14427102,-0.10662481,0.37829715,-0.08495816,-0.15397872,-0.10174556,0.36460736,0.3366236,0.3497911,-0.11671789,-0.27087533,-1.3770075,0.25892442,-0.19533366,-0.10749175,-0.16487029,0.30659753,-0.25140566,2.1029592,0.21247156,0.3323097,-0.25587577,-0.22479141,-0.5924514,0.13126746,-0.33026874,-0.20624843,-0.47834828,-0.30112427,-0.15627904,0.5268056,-0.3048846,-0.22369799,-0.16027075,-0.16587842,0.14063531,-0.041944608,-0.027253576,-0.2682195,0.97639155,-0.27815798,0.38135618,-0.38731542,-6.0488806,0.18055227,-0.085974954,-0.41152337,-0.062059738,-0.0818951,-0.714938,-0.053015828,0.10751559,0.27249682,0.090955734,0.02311774,-0.7235662,-0.14085263,-0.0688513,-0.22657096,0.21653998,-0.47143707,0.19582337,-0.14060529,-0.14359525,-0.026174799,0.22066976,-0.51849467,0.5401786,0.08374123,0.12037945,-0.6366504,0.1365798,-0.12300067,0.116007075,-0.047330186,-0.40333426,0.14265886,0.3726012,-0.07264173,-0.2371864,-0.16866933,-0.26613963,-0.49154365,0.32642838,0.81847596,0.39627078,0.03158362,0.39385593,-0.45001104,0.07145032,0.24347652,-0.22569515,0.06861007,0.32783717,0.20452413,-0.37059182,-0.3390642,-0.14302452,-0.31097177,-0.11119796,-0.024261972,-0.34052324,-0.026129346,0.007138828,0.10103509,0.0033495948,-0.63639915,0.40790784,0.24257225,-0.024599738,0.21002841,-0.22299978,-0.12392448,0.4990398,-0.10518435,0.31138057,-0.13930872,0.55887324,0.090160236,-0.53839076,-0.38834476,0.051917884,0.17344229,0.013387449,-0.51062554,-0.4495213,0.35442156,-0.8156176,0.3589277,0.8760145,-0.32764,0.20890254,-0.7347688,-0.16121572,-0.20092334,-0.714284,-0.14855853,0.2572627,-0.23304664,0.019672781,-0.07147911,0.20461221,0.29652616,0.09526288,0.30996686,-0.24896792,0.15080222,-0.17688188,-0.41409183,-0.39477286,-0.28679478,0.21611199,0.066852614,0.5363585,0.444469,-0.2264435,-0.69306564,-0.003637284,-0.009773288,-0.02725608,0.51742524,-0.49676841,0.61760664,0.115447946,0.19018349,-0.0028278776,-0.7912615,0.16352427,0.41450435,0.66979134,0.02022244,0.07849169,1.1468023,0.46336907,-0.34349567,-0.3377178,0.23618655,0.28194213,0.08060503,0.3720356,-0.10446993,-0.11341943,0.29171294,0.84653616,-0.09693982,-0.3534763,-0.46025372,-0.22794384,-0.055157557,-0.34588596,-0.0656008,0.10833874,0.2850174,0.45485458,-0.1212318,-0.7424017,-0.6493287,0.58843476,0.58745843,0.0703758,-0.06223375,-0.08335474,0.22366135,0.17438681,0.32575607,0.13709192,-0.35916498,0.3082004,0.25301594,1.151236,-0.3512923,-0.13196544,0.3438956,0.0575764,-1.0156541,-0.2906795,-0.10523944,-0.29041117,0.32872805,0.18291527,0.21777605,-0.2160372,0.27786136,-0.062313005,-0.018418431,-0.1188519,-0.09037027,-0.3293958,-0.4302578,-0.10655881,-0.119721025,0.31525248,0.40327245,0.21130638,0.1987758,0.0206157,0.20897752,-0.6460613,0.117165565,0.13116434,-0.23432261,-0.11118578,-0.24492088,0.0697938,-0.6097471,-0.31592235,0.08306037,0.60387826,0.104395986,-0.1675663,-0.45552206,0.29683548,-0.42963085,0.15779848,0.42460603,-0.17037827,0.39705727,-0.29566562,0.18071543,-0.33974925,0.13822815,-0.46341598,0.4410229,0.81591636,-0.028247625,0.15775833,0.2945028,-0.0539295,0.19712138,0.16864401,-0.09767521,0.31590968,1.5176283,-0.3560375,0.27283973,-0.12540132,-0.15255648,0.52566403,0.17576912,0.32769305,0.059619844,-0.17754444,0.08869744,0.13926588,-0.36058682,0.45257774,0.44417924,0.2513197,-0.050052565,0.3152051,0.19094023,0.1421492,-0.27732158,-0.17895433,0.12242519,-0.10714951,-0.3923269,-0.058648825,-0.005342696,0.08141866,-0.040855974,0.042502403,-0.23326789,0.35866824,0.018500645,-0.13611764,0.07359007,0.6461683,0.25978237,0.07492759,0.26353967,-0.5709083,0.31282783,0.3461443,0.67834246,0.47525725,0.5198506,0.03729961,0.2362639,-0.19696459,-0.16019717,-0.14902127,0.17929244,0.3870604,-0.13200544,-0.22283083,-0.27340028,0.18832333,0.47024143,-1.0288702,0.39974695,-0.3278179,-0.54451936,-0.4121396,-0.3273604,0.41677397,-0.3242495,0.20415896,-0.42148367,-0.5837216,0.7636484,0.14158471,-0.29303122,0.015415959,0.019857626,0.03554187,-0.08340946,-0.07106188,-0.86791325,0.33314848,-0.36514407,0.12044354,0.35633442,0.01716195,-0.206108,-0.38462,-0.46784523,-0.22907196,-0.18680733,0.6074294,-0.3342952,0.13181038,-0.2824389,0.41973042,0.18523014,-0.04965985,0.5827724,-0.09897007,-0.38623327,-0.26144955,-0.10655461,0.43384644,0.21511975,0.24324712,0.00081788003,-0.36261272,0.026334137,-0.22360069,-0.015772827,-1.4454628,-0.008765034,0.1797853,0.46617267,1.228165,0.37568453,0.011698294,0.08330791,0.101104274,-0.011951074,-0.47390944,0.6158786,0.26526162,0.33327058,0.23515527,-0.1735295,0.37465352,-0.11494803,0.30949178,0.024876654,-0.15409487,-0.20726302,-0.41663024,0.26819158,-0.34379488,-0.55798715,-0.36586797,0.20887145,-0.041770197,-0.3801486,-0.38694012,0.018037137,-0.44902587,0.03194037,0.0038272226,-0.4068406,-0.10371871,0.1493377,0.56433,-0.26160738,-0.28381178,-0.0036914311,-0.31288397,-0.013177067,-0.50074565,-0.89808065,-0.28054595,-0.06255987,0.13060936,0.274252,0.6487917,-0.25306356,-0.43117937,-0.41674286,-0.056361802,0.3307343,0.037103593,0.060166076,-0.03657791,0.3619712,-0.34129423,-0.34807026,0.54104453,-0.34080923,0.29626325,-0.77846295,0.06246929,0.04705815,0.31897676,0.057532337,0.039495733,0.10509007,0.12363477,-0.0055362713,-0.27611852,-0.16152097,-0.47056872,0.43614668,0.27759174,0.10650235,0.02657139,0.7158747,-0.2087731,-0.0053652674
Africa_37.png,-0.15206015,0.98971796,0.013085611,0.072605476,-0.107262775,0.07047726,-0.034677215,0.35380995,-0.07675357,0.06412256,0.19387367,-0.12193105,-0.10509933,-0.03371422,0.01307673,-0.17603554,0.8768286,0.01353731,0.44885242,-0.19968663,-1.5215752,0.20902412,-0.10017938,-0.2135866,-0.01834669,0.4190494,0.09075247,-0.05526541,-0.25713077,-0.11996153,-0.04963407,-0.21197447,0.08743504,-0.38721192,-0.0006752424,-0.036498047,-0.2412405,-0.3688265,-0.5127333,0.89253926,0.121114865,-0.12612647,0.33372048,-0.1332097,-0.044042066,-1.2356801,0.74047637,-0.047095045,-0.13070872,0.09927649,0.006133586,0.231324,-0.13842109,0.15517972,-0.23274508,0.35708302,0.090610094,0.14052887,0.12829101,-0.26417586,-1.1478206,0.21912314,-0.31302443,0.33708566,-0.29987878,0.11125909,0.3049536,1.5713054,0.27072233,-0.25278208,-0.26458722,-0.26985988,-0.3615608,0.2531346,-0.12759382,-0.25823137,-0.1944733,-0.5231945,0.15413576,0.21971318,0.26500738,-0.3793229,-0.0891107,-0.1239855,0.38881892,0.047245845,-0.4899264,-0.16978279,0.6393854,-0.7406691,0.31084764,0.0753279,-5.6922765,-0.10763876,0.046481267,0.36007094,-0.052715495,-0.08161029,-0.4351763,0.046230208,-0.032080956,0.5333524,-0.18875343,-0.15148038,-0.8883802,0.0519497,-0.2766617,-0.36932573,0.36197144,-0.46302292,-0.047071822,-0.19388485,-0.33968234,-0.2852087,0.07267279,-0.43496066,0.6837101,0.49793327,0.16559835,-0.8463862,0.27993876,-0.06320281,0.25194344,-0.018331349,0.11694668,0.1277689,0.08136207,-0.077413455,-0.2730916,0.21161793,0.020475924,-0.11280009,-0.04476978,0.7905587,-0.5015803,0.10301717,-0.056236684,-0.52051276,0.48829237,0.4052515,0.30271712,0.23743975,0.71927816,-0.40899515,-0.06069851,-0.030111138,-0.11541626,0.22441044,-0.0024742754,0.22577545,-0.22076812,0.5311035,0.045449577,-0.13373965,-0.35719585,-0.40295708,0.47785264,-0.1616978,-0.68171185,-0.058854558,-0.5752495,-0.2567128,0.09853807,0.114055574,0.3061978,0.18687338,0.6468343,0.59790725,-0.0069704503,0.15016687,0.33934164,-0.011195816,-0.18703872,-0.50286204,0.06446943,0.39266068,-0.7417511,0.15687557,0.81870043,-0.29462075,-0.107553825,-1.0305833,-0.14365253,-0.40214145,-0.305198,-0.1018669,-0.104227066,0.27403057,0.050656848,-0.21066122,0.6527938,0.17935705,-0.14495671,-0.280437,-0.43381968,0.34368527,-0.18099168,-0.3372521,-0.65718836,-0.15806688,-0.019798994,-0.15169235,0.48407423,0.079401106,0.30456948,-0.4424807,0.13561426,-0.34946907,-0.19100934,0.055709824,-0.074003965,0.7743099,0.10868861,-0.14401647,-0.20125684,-0.7052595,0.16290945,0.37532943,0.63554204,0.050094172,0.06755634,0.6476494,-0.1632357,0.02246508,-0.36483434,-0.11986304,-0.05332485,-0.5846156,0.4116096,-0.056636408,-0.42785496,-0.25158846,0.22877839,-0.035517104,0.3863263,-0.026509177,0.25978756,-0.5906266,-0.5111414,0.16773659,0.072246104,-0.09169787,0.2919873,-0.47301388,-0.80535805,-0.57314634,0.15385112,0.32696098,-0.21475227,-0.5069519,0.089571014,-0.078010425,0.36051118,0.15638892,-0.04538436,-0.36022717,-0.07609498,0.28729033,0.92506945,0.025587045,0.14309156,0.2749138,-0.10355384,0.13880381,-0.0526599,-0.20988956,-0.25291798,0.38011026,0.1749293,0.07732259,0.110897884,0.0813174,0.15766925,0.08577593,0.10908224,-0.22912711,-0.41766,-0.5410118,-0.48839557,0.028214276,0.49546048,0.34156102,0.4673945,0.4285942,-0.008717418,-0.09320162,-0.35111776,-0.115494564,0.7685972,0.020504296,-0.3341636,0.39130604,0.102096766,-0.33991247,0.34884652,0.58647954,0.35546577,-0.13048217,0.22481166,-0.24800462,0.25777692,-0.13064042,-0.033111893,0.53285795,0.20103389,0.22795981,-0.07806584,0.31449318,-0.059632987,0.3711211,-0.16145228,0.14368373,0.7892253,-0.08551971,0.24715823,0.41872555,0.038368613,0.14637518,0.2544496,-0.05947736,-0.1719615,1.1906594,-0.67086077,-0.42835978,-0.30175295,-0.12269443,0.46534142,0.30087763,0.15255935,-0.038802877,-0.29919216,0.27879927,0.35535693,-0.058138072,-0.13869485,0.120928645,-0.028387666,0.17115764,0.4286691,0.3692444,0.10233928,-0.30692518,0.13344969,0.043471206,0.050490662,-0.039517432,-0.19891751,0.17526375,-0.18438026,0.117662996,0.27622622,0.04029219,0.111375034,0.24664395,-0.1472895,0.030087829,-0.43154877,-0.41901514,0.18743767,-0.27708697,-1.0131352,-0.13071401,0.31988952,0.35557038,0.19180274,0.087385826,0.14461145,0.63915384,0.08512454,-0.43766183,-0.2627061,0.3142666,-0.2870303,-0.19585776,-0.25345597,-0.10054306,0.75079215,0.18560614,-0.3363548,-0.11061168,-0.48129442,-0.7315595,0.040902667,0.022609256,0.24393567,0.025501385,0.005455792,-0.12667307,-0.3840171,0.5460271,0.3724957,-0.03572309,0.13994214,0.08562182,-0.21430153,0.023954969,0.05082132,-0.63586116,0.5496112,-0.100836486,0.21538502,-0.14688675,-0.13096975,0.059385404,-0.46756437,0.27824852,-0.2596154,-0.16229272,0.4558599,-0.55290085,0.009945035,-0.21760592,-0.29070413,0.1901554,-0.10133613,0.1835514,-0.28374887,-0.17656353,-0.0033530854,0.009113699,0.00055222213,-0.7227822,0.5278971,0.18952562,-0.039120287,-0.14601356,-0.17407191,-0.5789815,-1.362357,0.43013254,-0.06126815,0.45216128,1.1050384,0.12215313,0.08992627,0.4272712,0.25798744,0.15562497,0.12387815,0.015731834,0.3427927,-0.10554196,0.17000148,-0.032358497,0.33750838,-0.60396796,-0.10813083,-0.034688644,-0.12301571,-0.41457963,-0.44722664,0.24398354,-0.40989557,-0.89952314,-0.3702857,0.30095512,-0.30587643,-0.43956703,-0.12007108,-0.3167854,-0.0012466162,-0.28588933,-0.27213988,-0.26060656,-0.037784535,0.59571093,0.61425054,-0.11679691,-0.26217407,0.06766744,-0.059054382,0.15073693,-0.25068736,-0.60094464,-0.35835043,-0.040529504,-0.09003499,0.43099925,0.45317867,-0.031851664,0.14135793,-0.08032935,-0.12775923,0.063958056,0.20982194,0.14632156,-0.0060822293,0.13616207,0.083925754,-0.14861344,0.41594136,0.010234609,0.027462468,-0.8762773,0.0114892125,0.019367296,0.38310972,0.52944994,-0.14859062,-0.1097487,-0.50498784,-0.25297427,-0.26012585,0.17640641,-0.22574022,0.09417909,-0.2422629,0.3130387,-0.62376046,0.7257316,-0.3416153,-0.15221998
Africa_16.png,0.032673545,0.8385807,0.10086822,0.067166366,-0.024264254,0.5782418,0.12719384,0.1677965,0.32457972,-0.1649706,0.15137228,0.19633791,0.074622646,-0.4841961,0.4523291,0.24563637,0.5700813,-0.17739542,0.5801596,-0.10550922,-1.621363,0.070516706,-0.21579818,-0.09500251,-0.05370845,0.64320016,-0.14079754,0.14416134,-0.5579288,0.032357544,-0.22985259,-0.33914423,-0.067049265,-0.27144945,0.28802973,-0.10594987,0.05258611,-0.4240186,-0.1327206,1.1062584,0.51463413,0.08819611,0.17339748,-0.12554525,-0.19773188,-0.85900646,0.041980162,-0.72726357,-0.37997088,0.31152672,0.04742661,0.07689436,-0.03641817,-0.25042307,0.07236309,0.30132562,0.26816362,0.38349274,0.5136199,0.15789154,-0.6789229,0.1910154,-0.3188189,-0.048262462,-0.41566002,-0.08238765,-0.09735331,1.8582183,-0.30093014,0.045425843,0.04175158,-0.45913726,-0.58127654,-0.21469139,-0.3671298,-0.07371488,0.13387606,-0.41970536,-0.12165462,0.045808904,0.04667844,-0.40960205,-0.41568303,-0.71209323,0.36118644,-0.15444656,-0.3647949,-0.0053245807,0.32061142,-0.4944784,0.16716075,-0.026243223,-5.7879257,0.22792292,0.33327058,0.19203134,-0.07074492,0.31716654,-0.8644723,0.15063612,0.29235956,0.12152492,-0.26739314,-0.08339594,-0.95970273,-0.07935386,-0.6152024,-0.43843445,0.37502772,-0.40624392,-0.21133825,-0.22202516,-0.11053502,-0.3828357,0.09205874,-0.2565822,0.7652782,0.115214534,0.22795977,-0.9338501,-0.024018541,-0.11953553,0.17401946,-0.25707614,-0.04474876,0.10842757,0.1464104,-0.11943126,-0.27254534,-0.23556551,-0.47468066,-0.07172352,0.54171103,0.8241955,0.3889933,0.40198222,0.2529328,-0.57280284,0.16089298,0.5124069,-0.18742956,0.19953375,-0.16844106,-0.1438537,-0.26419142,-0.10752976,-0.06599113,0.10087831,-0.22492108,-0.1282599,0.12438679,0.059008963,0.02071751,-0.011450291,-0.19473642,-0.028133348,0.6008872,0.06347418,-0.17348328,-0.24931163,-0.50385296,0.032571368,0.2405602,-0.008581061,0.065775685,0.11516838,0.39266533,0.40802434,0.2524288,-0.09596577,0.12623289,-0.120024726,0.25424615,-0.028610364,0.114766866,0.6937322,-0.45508924,-0.06717349,0.8409307,-0.3928329,0.14311302,-0.8710926,-0.16491619,-0.2813508,-0.39980417,-0.26636294,0.06259281,-0.42578286,-0.09989402,0.15622404,0.55939186,0.055519037,-0.49053586,0.2088547,-0.08278537,0.23728141,-0.3375682,-0.6542327,-0.79620445,0.08674515,-0.08807193,0.3125728,0.1891787,0.33275005,0.16463159,-0.5393789,-0.582818,-0.039076775,-0.17890048,0.6338185,-0.2231962,0.42693537,0.21922204,0.22375101,-0.0067074075,-0.49325228,0.01869078,0.01361805,0.087063245,-0.024438713,0.11419903,1.0485797,0.32630727,-0.4693033,0.07262147,-0.010088071,0.1994068,0.16474797,0.19947657,-0.0089839995,-0.120118305,0.19491325,0.12487333,-0.28243977,-0.03548903,0.4071255,0.14487377,-0.28631178,-0.31405666,-0.07713321,0.18180838,0.20038001,0.3493361,-0.3042945,-0.9155149,-0.82026815,0.38181075,0.42820817,-0.21922335,-0.32333168,0.25130373,-0.22385354,0.48380882,0.2944065,0.1784415,-0.14921564,-0.046813883,0.23266885,1.125791,-0.3301769,0.0033137277,0.36611736,0.13107885,0.3543675,-0.1444456,-0.15831536,-0.0640299,0.3208786,0.47173023,0.032917134,0.61823785,0.22766015,0.14128223,0.14003572,0.07859658,0.027475465,-0.8611349,-0.46804366,-0.23256212,0.04512924,0.23639734,0.16631633,0.35529265,0.22775453,0.122652315,0.30901757,-1.0944514,0.21806619,-0.06279332,-0.22607607,0.026535055,0.14334895,-0.13128416,-0.15829042,-0.14573878,-0.09328705,0.7515029,0.0029152036,0.16125965,-0.19119419,-0.2516299,-0.15987211,-0.2799918,0.35627013,0.41573197,0.40557897,-0.067574844,0.40697792,-0.19479918,0.31013614,-0.38752633,0.37501782,0.82359535,0.20167398,0.0479016,0.37651345,0.12972352,0.015138492,0.64745444,-0.24119571,0.002912879,1.316083,-0.3814864,0.024476744,-0.62707007,0.0010665655,0.40462324,-0.08338942,-0.3591676,-0.09120622,-0.17011815,0.34444582,0.34445354,-0.49076155,0.6338395,0.34627673,-0.12785289,0.15209055,0.2924152,0.4330562,-0.04005543,-0.4565215,0.27743056,0.39981866,0.13009425,-0.14405695,-0.04911294,0.24565387,0.29417536,0.19698109,-0.08674375,-0.18722574,0.5742972,0.04425405,0.42930445,-0.18850711,-0.33993095,-0.3956662,0.26777673,-0.28267097,-0.6853241,0.15046695,0.13383795,0.96300864,0.27957493,0.32755277,0.13458051,0.550196,-0.19834734,-0.26160067,-0.18330738,0.60451543,0.040028423,-0.36116034,0.018069714,-0.23007157,0.8665899,-0.011105329,-0.26396137,-0.07254604,-0.37464684,-0.4596495,-0.45840383,-0.32509118,0.16461657,0.098980695,0.06189163,-0.14544734,-0.66626036,0.76064414,0.36810467,0.0003402233,-0.04930328,0.16966203,-0.2313997,0.13441569,-0.12557396,-0.6963291,0.5445232,-0.05280243,0.20423381,0.04592362,-0.17264277,-0.09159477,-0.25441012,-0.19458823,-0.5109788,0.06298292,0.43207502,-0.4757226,0.100314945,-0.14515004,-0.07988563,0.048311055,-0.21708786,0.0032093227,0.038625896,-0.4599728,-0.31680846,-0.30304587,0.06402397,-0.06175276,0.6785396,0.66031665,-0.34480548,0.102826044,0.027389586,-0.33644852,-1.7841986,0.44679505,-0.2169796,0.52472156,1.4550893,0.014586976,-0.10857029,0.14243597,-0.03789208,0.06754357,-0.19075024,0.23494919,0.41555172,0.13596296,0.29941678,0.2710175,-0.12681976,-0.089400575,0.37796736,0.1592564,0.090323135,-0.29154533,-0.30052623,-0.09328798,-0.06580805,-1.1933861,-0.23373124,0.18305346,0.0062998906,-0.72125924,-0.28414452,-0.5027094,-0.16668504,-0.18778269,0.027812243,-0.29511473,0.039955497,0.20163526,0.030860722,-0.19146788,-0.2803422,0.20805737,-0.01756426,0.08071799,-0.21999887,-0.6470622,-0.050647087,-0.265954,0.14570065,0.20658265,0.6580827,0.042212605,-0.043095,-0.04775624,0.19884156,0.18174767,0.4290924,0.33114925,0.26597643,0.29091033,0.010749437,-0.3608682,0.5865376,-0.031618685,0.038421083,-0.9825375,0.0039528757,0.21663114,0.11407732,-0.24237108,-0.1708376,0.13563102,-0.17509745,-0.23344198,0.015231773,0.35913822,-0.121238776,0.20523095,-0.17485794,0.23605637,-0.25508347,0.696921,-0.04491459,0.10274157
Africa_13.png,0.5073159,0.96332717,0.14082117,-0.037607476,0.08722331,-0.009498553,-0.21195924,0.0986976,0.42857322,-0.01001668,-0.07409307,-0.089802936,0.12168744,-0.038424358,0.43871638,-0.28918305,1.5509276,-0.32560384,0.30501625,-0.34046364,-1.4779254,0.30216816,-0.08421762,-0.38814825,-0.50181645,0.26334277,-0.20823075,0.09430836,-0.019456416,0.24991111,-0.048205793,-0.36197466,0.13605145,-0.016317353,0.64179665,-0.50072306,-0.34752232,-0.4538375,-0.474625,0.7284824,0.16418946,0.13052395,0.7693731,-0.591788,-0.45216477,-1.1427504,0.18886328,-0.15729947,-0.16098686,0.37835366,-0.091548584,-0.04704149,-0.09362038,-0.015904978,-0.5298219,0.11527416,0.2569157,0.6420163,0.27555197,-0.23865248,-0.45531815,0.093127504,-0.36953944,0.14803699,-0.036343977,-0.3140503,0.03918074,1.6852261,-0.08309202,0.073163226,-0.012657832,-0.38734227,-0.44179338,0.050942324,-0.26436228,-0.13916403,0.024408154,-0.5794146,-0.07430339,-0.039579898,0.09546508,-0.68108517,-0.08078485,0.17429368,0.2302695,-0.03691197,-0.8557454,0.052890226,0.77627796,-0.5877077,0.29321045,0.028732076,-5.2731123,0.4155499,-0.1900068,0.20723882,0.12225525,0.3328355,-0.6527399,0.36429772,-0.0777036,0.062151834,-0.14190248,0.039283097,-1.0164372,-0.081505895,-0.2690605,-0.58428353,0.28586277,-0.6629292,-0.53597856,-0.22577399,-0.124708414,0.04096605,0.15002427,-0.38455987,0.8190378,0.17235579,0.22968863,-1.1103948,0.33246437,-0.066432305,0.13015324,-0.28716198,-0.02323588,0.59104466,0.27378005,0.00313019,-0.11343759,0.33550212,-0.51708376,-0.3183282,0.08488115,0.73345953,0.16454846,0.5645278,0.15545107,-0.38772753,0.24843928,0.57850873,-0.0007715151,0.36100268,-0.1730853,0.0716015,-0.25985917,-0.3513382,0.003385514,-0.12685882,-0.47725716,0.10455727,0.134197,0.095486276,0.00020681322,-0.22167426,-0.3047731,-0.11428955,0.36872894,0.2891345,-0.24790357,-0.017404567,-0.21246241,0.2499494,-0.27618083,-0.25318378,0.033179156,0.06734024,0.3513504,0.21685018,0.1692876,-0.018663406,0.2237558,0.34969229,-0.25244263,-0.28757083,-0.03876257,0.66403127,-0.08367042,-0.4052608,0.40919632,-0.08710911,0.38737845,-0.7860115,-0.130433,-0.19005112,-0.0476157,-0.28607392,-0.15924425,-0.26389432,-0.1794777,-0.13305543,0.32219654,0.23708728,-0.4789185,-0.14377224,0.18522327,0.22808212,-0.5132785,-0.22604789,-0.77857214,-0.11538329,0.24504465,0.021264404,0.25965753,0.19164559,0.004214857,-0.23317418,-0.3010692,-0.12249944,-0.46010402,0.3161527,0.005497383,0.5317573,0.60827476,0.40053147,-0.026616663,-0.32555354,0.48776317,0.56476545,0.55165976,-0.0238735,0.15447864,1.0016774,0.11119444,-0.32627094,0.11162232,0.099733986,0.261622,-0.038931206,-0.021106906,-0.17425811,-0.10435808,0.40295094,0.10130892,0.038884595,0.52741516,0.76023054,0.3339411,-0.2763914,-0.0830559,-0.05035386,0.2948073,0.30299863,0.2506826,-0.2848007,-0.5857378,-0.3990714,0.038779497,0.48644283,0.21601537,-0.23363745,0.25342754,-0.083599016,0.0015086234,-0.034689337,0.112533785,-0.20974386,0.2135951,0.0133618,1.3937488,-0.20941348,-0.35369053,0.19334999,-0.1110674,1.0033259,-0.0023276433,0.20145832,0.21966104,0.67175114,0.09003274,0.2617515,0.08697891,0.1698409,0.16466106,-0.007886961,0.11343379,-0.21524647,-0.05657791,-0.31124908,-0.37096938,0.13292065,0.32784227,0.6941311,0.41523448,0.06975914,0.25154197,0.42635387,-0.3540592,0.18987219,0.32456994,-0.06029375,-0.15376629,0.081541896,0.2150438,-0.4155394,-0.018309854,0.54793847,1.0292484,-0.008427307,0.4337574,0.053555466,-0.02387499,-0.037412252,-0.015220031,0.55217284,-0.19027838,0.8161059,0.22515804,0.3488906,-0.29481024,0.3540695,-0.07512455,-0.14480495,0.7319785,-0.071370676,-0.26103485,-0.06291479,-0.25394195,0.25902435,0.18731433,0.0696879,0.3404261,1.6559803,-0.31009126,-0.16178113,-0.37867445,-0.36546785,0.17028362,-0.39773518,-0.044317976,-0.28973016,0.22113511,0.5185205,0.1560326,-0.4142563,0.19576703,0.20910501,0.19845629,0.36477366,0.2754309,0.05994436,0.08026953,-0.3802153,0.10605397,0.19183707,-0.056652978,0.16434841,-0.632326,-0.05796259,0.050394975,-0.4508134,0.43836814,-0.19489512,0.21677977,-0.09375058,-0.037938014,-0.19895558,-0.124788836,-0.49291283,-0.18295942,-0.095624864,-0.19712934,-0.23760474,0.22260448,1.3126087,-0.13637778,0.3908139,0.10691872,-0.07209148,0.33862066,-0.5086926,-0.3848076,0.2802072,-0.009191334,-0.09834571,0.117439605,-0.31600678,0.71303606,0.10459014,-0.35930046,0.057104945,0.014591269,-0.22539103,-0.2561784,-0.35321856,0.43447262,-0.13724005,0.38185173,0.39465535,-0.47440153,1.2136611,0.66408247,0.20053804,0.28045416,0.044458143,-0.1285609,0.4618084,-0.19347051,-0.6099193,0.25996405,-0.2762224,0.02884604,0.21983126,-0.008436717,0.00082630664,-0.33990824,-0.1252069,-0.20758784,-0.39043006,0.33060098,-0.22490957,0.5669127,0.21849948,-0.24883887,0.08021747,-0.3069405,0.41001505,-0.8217031,-0.6227248,-0.15183692,-0.59442544,0.2777512,-0.18528739,0.39465982,0.33580142,-0.07506896,0.17212442,-0.49140367,-0.27201766,-1.4781835,0.41729534,0.0578778,0.4527629,1.4051758,0.39987066,0.20162304,0.15167758,0.17605214,-0.07209843,0.10851666,0.07441121,0.19413465,0.3571514,0.33870578,-0.15707597,-0.054702237,0.0014623106,-0.31206256,-0.29982066,-0.043722466,-0.06660293,-0.053334877,0.042265564,-0.48845845,-0.6442952,-0.24175589,-0.26201135,-0.093716346,-0.38007855,-0.3959248,-0.111697614,-0.1430349,-0.07772751,0.077385984,-0.30243197,0.10892972,-0.025311887,0.2058753,0.09578079,-0.3872503,0.065056406,0.10992104,-0.13158238,-0.32475263,-0.8393631,-0.39083847,-0.20237204,0.14073142,0.2785275,0.68222976,-0.35094512,-0.28423706,-0.511258,0.06972174,0.33588016,0.12207067,0.35448858,-0.37657148,0.32637757,0.040397488,-0.09606737,0.3865798,0.26410297,0.39781275,-0.51788956,-0.13395646,0.3214653,0.46174303,-0.023101192,-0.21278517,-0.031223932,0.11434284,-0.0660624,-0.36031988,0.013626687,0.007374136,0.41470903,-0.15404639,0.008066528,-0.10385983,0.45045274,-0.3709209,0.10222539
Africa_31.png,0.25601107,0.45859814,-0.096105866,0.34220767,-0.16474813,0.13195784,0.33555216,-0.043160975,-0.017524183,-0.27187765,0.33203232,0.01599665,-0.20755106,-0.20945798,-0.16476026,0.018413708,1.839642,-0.2540831,0.14216411,-0.45071897,-1.6012892,0.14589086,-0.2233877,-0.27943224,-0.459921,0.8006244,0.122783855,-0.111825846,-0.09152777,-0.58142394,-0.53812057,-0.1905418,-0.41203743,-0.10765956,0.2715825,-0.2079832,-0.23915756,-0.08210352,-0.2145783,0.7465871,0.19503479,0.060828894,0.13129236,-0.49279702,0.04501546,-0.8558996,0.046456188,0.046418667,-0.19661312,-0.15820684,-0.19359088,-0.16667227,-0.10581651,-0.10850467,-0.6028823,0.4963745,-0.08996423,0.32794207,-0.15570214,0.07944907,-0.46595022,-0.2407021,-0.34068018,0.26831403,0.036397777,0.05326635,0.06929241,1.6161709,-0.3156736,-0.3084986,0.07973787,-0.3172294,-0.42433196,0.37818182,-0.4383582,-0.46058685,0.2497178,-0.611823,-0.2912201,0.5173447,0.2539218,-0.47162825,0.20045364,-0.3981375,0.27116328,0.46870378,-0.8225857,-0.20121536,0.8831827,-0.39508975,0.29821718,-0.08875324,-5.6792936,-0.15595895,0.47666872,0.21185035,0.10984192,0.16305801,-0.58760583,0.91500854,0.0085657835,0.4219334,-0.10008618,-0.039317086,-0.9785055,0.007796541,-0.3414359,0.07972489,0.21139102,-0.11040798,-0.30622038,0.016395167,-0.030927591,-0.08945901,-0.35699266,-0.2934823,0.6040397,0.5877628,0.41472614,-1.441781,0.5715132,-0.28690785,0.007569343,-0.3962646,-0.021350943,0.16751936,-0.016363166,-0.21634346,-0.2357845,0.25571632,-0.07229039,0.00880985,-0.18536627,0.76785886,0.09270388,0.4614817,0.048200354,-0.8354595,0.118921995,0.37041965,0.1998266,0.55564046,-0.06920408,-0.0029238304,-0.74306816,0.11629049,0.023433302,0.26524872,-0.29010153,-0.10050961,0.16480638,0.043412853,-0.090796724,0.1414539,-0.18084876,-0.13050354,0.7738202,0.39424407,-0.16260515,0.3572239,-0.4190789,0.12001386,-0.2806778,0.13741687,0.4160112,0.12692222,0.20759863,0.57110107,0.11938626,-0.11741059,-0.17951705,0.21321213,-0.31445986,-0.039002694,0.14541465,0.45670807,-0.5211688,0.13316713,0.6341363,-0.25694436,0.25781238,-0.6090219,-0.6015814,-0.51490045,0.06212775,-0.34435833,0.246799,-0.099041894,-0.009870142,0.13333338,0.4827481,-0.05500272,-0.204194,-0.20533137,0.121113725,0.367088,-0.64161897,-0.1451832,-0.26972717,-0.23803973,0.1404714,-0.06819033,-0.082573,0.29168564,-0.06725695,-0.47553852,-0.3226066,-0.12119807,-0.57357943,0.35833597,-0.24973892,0.869218,0.1884909,0.069812804,0.20960838,-0.25675666,0.043750808,0.2697321,0.61609256,0.15911561,0.3926988,0.93781984,-0.28729412,-0.15801406,-0.1578973,0.04343792,-0.2642346,-0.43509433,0.087554805,-0.38180152,-0.620337,0.27666712,-0.06895624,0.17404236,0.24252641,0.64253044,-0.075043365,-0.47450295,-0.06494297,0.13081531,-0.0012312233,-0.22897704,0.4198243,-0.2451415,-0.22189367,-0.30890128,0.029756311,0.38594392,-0.13448714,-0.8315591,-0.114431396,-0.061820857,0.09533961,0.42864498,0.3051631,-0.17104805,0.15430903,0.21518892,1.8267505,-0.23610574,0.13617328,0.11863281,0.0803844,0.84960425,0.09732326,-0.34505692,-0.03655319,0.4667861,0.051878914,-0.07628465,0.3382441,0.14982924,0.022476152,0.17741777,0.038620494,-0.12460097,-0.27050012,0.103712685,-0.06866373,-0.011242345,0.091144286,0.30641878,0.6470779,0.28019586,0.35105076,0.17800304,-0.030834595,-0.089277126,-0.06081655,-0.045896947,-0.3084765,0.26028928,-0.022113156,-0.035871997,0.20898032,0.49465203,0.8575891,-0.2782519,0.66104597,-0.17881536,0.011534374,0.31862122,-0.2529065,0.5782893,-0.061672367,0.22286008,0.0035755932,0.33890525,-0.017790861,0.25362134,0.2532834,0.07233555,0.7661097,0.09581719,-0.30032194,-0.10152022,0.08799044,-0.006964594,0.6204015,-0.15824789,0.456309,2.29252,-0.28591126,-0.17315687,0.073658116,0.06120734,0.087814786,0.13158335,-0.04684908,-0.15442234,-0.16949779,0.33907038,-0.011666313,-0.07971935,0.016730279,-0.061107203,-0.18123727,0.036385775,0.36692023,0.48161572,-0.3531549,-0.5600868,0.12746957,0.0015327334,0.6698507,0.24207368,0.047584474,0.13045308,0.061564706,0.05120559,0.86041784,0.08163436,0.4229369,0.22667614,-0.012465447,-0.55374265,-0.12584928,-1.1068106,0.07450302,-0.47158098,-0.3785134,0.08684536,0.14511296,0.77615136,-0.48188728,0.00043544173,0.053127468,0.19611475,0.2611416,-0.18333127,-0.3034464,-0.0007992089,0.004483789,0.0902682,-0.14830987,0.35496524,0.8182529,-0.05960861,-0.40633482,-0.05721895,-0.1974344,-0.53912336,0.3125827,0.059301786,0.0882471,0.10006703,-0.03811696,0.14523762,-0.29678926,1.4087456,-0.039044157,-0.10079315,0.1822069,0.08924444,-0.5131158,0.29698506,0.14681846,-0.44502077,0.28841066,-0.098751165,0.13244306,-0.011097427,0.2696341,-0.19396944,-0.122751534,0.035473928,-0.47240514,-0.33132416,0.41861707,-0.74077165,0.37850282,-0.09574925,0.041287813,0.35455927,-0.24279667,0.12511921,-0.41176802,-0.42871022,0.08338967,-0.46770668,-0.13929233,-0.09682556,0.20344989,0.8529259,-0.4245384,-0.17323506,-0.18874562,-0.6135327,-1.4554249,0.37899154,0.18980561,0.24501486,1.6628445,0.12535927,0.41556212,0.1299202,0.013750806,-0.031929683,0.19082737,0.10690832,0.058477655,0.12682508,0.32218072,-0.14989516,-0.7751238,-0.46481174,0.314159,-0.21768428,0.32887143,-0.02773536,-0.09105724,-0.06671281,-0.30722517,-0.9032653,-0.22629489,0.14025974,-0.4659049,-0.094690874,-0.2944517,0.11061502,-0.19091557,-0.068449214,-0.35480568,-0.3587905,-0.07091456,0.49030358,0.57834125,-0.2269612,-0.4599101,0.027096564,-0.029151425,-0.0727396,-0.49804884,-0.2026678,0.14449005,-0.18128939,-0.17338513,0.17455938,0.33091015,-0.18877088,0.20948909,-0.32173267,0.09673453,-0.17213872,0.21194059,0.35603422,0.18253492,0.54310393,0.18315256,-0.12880167,0.5447308,0.41465014,0.5630005,-0.57825774,0.1489552,0.05899073,-0.0292853,0.2903958,-0.5203274,-0.26126236,0.11690507,-0.09964769,0.030861266,0.2892787,-0.031854212,-0.054989114,0.031363495,0.034169957,-0.57475716,0.6585026,-0.1702433,0.47015232
