,0,1,2,3,4,5,6,7,8,9,10,11,12,13,14,15,16,17,18,19,20,21,22,23,24,25,26,27,28,29,30,31,32,33,34,35,36,37,38,39,40,41,42,43,44,45,46,47,48,49,50,51,52,53,54,55,56,57,58,59,60,61,62,63,64,65,66,67,68,69,70,71,72,73,74,75,76,77,78,79,80,81,82,83,84,85,86,87,88,89,90,91,92,93,94,95,96,97,98,99,100,101,102,103,104,105,106,107,108,109,110,111,112,113,114,115,116,117,118,119,120,121,122,123,124,125,126,127,128,129,130,131,132,133,134,135,136,137,138,139,140,141,142,143,144,145,146,147,148,149,150,151,152,153,154,155,156,157,158,159,160,161,162,163,164,165,166,167,168,169,170,171,172,173,174,175,176,177,178,179,180,181,182,183,184,185,186,187,188,189,190,191,192,193,194,195,196,197,198,199,200,201,202,203,204,205,206,207,208,209,210,211,212,213,214,215,216,217,218,219,220,221,222,223,224,225,226,227,228,229,230,231,232,233,234,235,236,237,238,239,240,241,242,243,244,245,246,247,248,249,250,251,252,253,254,255,256,257,258,259,260,261,262,263,264,265,266,267,268,269,270,271,272,273,274,275,276,277,278,279,280,281,282,283,284,285,286,287,288,289,290,291,292,293,294,295,296,297,298,299,300,301,302,303,304,305,306,307,308,309,310,311,312,313,314,315,316,317,318,319,320,321,322,323,324,325,326,327,328,329,330,331,332,333,334,335,336,337,338,339,340,341,342,343,344,345,346,347,348,349,350,351,352,353,354,355,356,357,358,359,360,361,362,363,364,365,366,367,368,369,370,371,372,373,374,375,376,377,378,379,380,381,382,383,384,385,386,387,388,389,390,391,392,393,394,395,396,397,398,399,400,401,402,403,404,405,406,407,408,409,410,411,412,413,414,415,416,417,418,419,420,421,422,423,424,425,426,427,428,429,430,431,432,433,434,435,436,437,438,439,440,441,442,443,444,445,446,447,448,449,450,451,452,453,454,455,456,457,458,459,460,461,462,463,464,465,466,467,468,469,470,471,472,473,474,475,476,477,478,479,480,481,482,483,484,485,486,487,488,489,490,491,492,493,494,495,496,497,498,499,500,501,502,503,504,505,506,507,508,509,510,511
Europe_20.png,0.030724663,0.41771707,-0.080000274,0.04321228,-0.16242456,0.09699546,-0.090443894,0.43217227,0.3531106,0.4279527,0.25368887,-0.21937251,0.7049153,-0.5526746,0.30601245,0.26479667,0.39151314,-0.011377856,-0.04619726,-0.06535715,-1.3860718,0.22815964,-0.2710542,0.25191534,-0.029609423,-0.13790774,0.14863732,-0.433332,-0.06872444,0.07324638,-0.34262753,-0.18979293,-0.11523515,-0.37333143,-0.45992252,-0.09825137,-0.4825047,0.12922263,0.16922045,-0.07329176,-0.6785039,0.23860195,-0.001734972,-0.31756726,0.103916906,-1.0384815,0.103275046,0.516552,0.024768315,0.0028882772,-0.2365724,0.19699354,-0.2054631,0.009140849,0.268013,-0.23133054,0.21033767,-0.139887,-0.29243845,0.29688665,-0.90518004,0.21292529,0.11572094,-0.056441106,-0.1328567,-0.48020506,-0.3695272,0.2997287,-0.39153317,-0.38752565,-0.7126172,-0.34914052,-0.47610784,0.07676181,-0.27746785,0.028219953,-0.5897127,-0.5259227,-0.47569156,0.18165632,-0.05904994,-0.20770395,0.025619581,0.14801459,0.35075805,0.10335469,-0.1006953,-0.2710448,0.46122694,-0.03496404,0.28193402,-0.17919019,-6.5998106,0.32346922,-0.16653128,-0.12583932,-0.050133787,0.1909968,0.31892574,-0.32354596,0.44976187,-0.2815289,-0.28525874,0.38476893,-0.04365576,0.06667149,0.23049843,0.19316077,0.57599896,-0.13856018,0.0019118488,-0.012949884,-0.38157964,-0.14356373,0.04626967,-0.36935514,0.47647792,0.26141757,0.26813295,-0.4448793,-0.102741756,0.15373725,0.3691206,0.1102114,0.20783484,0.5734697,-0.1834507,0.7820724,0.02503708,0.7378979,0.262222,-0.21958071,0.09573096,0.88992476,-0.22150537,-0.34634745,-0.3198862,-0.3747876,0.74730027,0.35369092,-0.32792878,-0.07431686,0.37680125,-0.1737957,-0.21308568,0.37894428,-0.15699089,0.12279967,0.14283396,-0.38944918,0.22659102,0.07131125,0.68562317,-0.15236382,-0.2113497,0.11039592,0.23244993,0.1611866,-0.76142323,0.2655286,0.1889293,-0.17642057,-0.28275567,0.33234414,0.10037829,0.82797015,0.13899536,-0.15792494,-0.12756494,-0.22782856,0.1867998,-0.009968281,0.02285306,-0.6574764,0.044950843,-0.32258898,-0.7468942,-0.51393175,0.32537565,-0.0706462,-0.039537575,-0.9131417,0.35942206,0.19989829,0.10022423,0.032538295,-0.038759932,-0.12507132,-0.12043986,-0.30054224,0.43722957,0.32615268,0.11922106,0.35917988,-0.04370427,0.13966107,-0.47161674,-0.47319087,-0.05896589,0.3224772,0.023807451,-0.2648615,0.4333916,-0.1882254,0.6054549,-0.10359943,-0.33737248,-0.405116,-0.04996688,0.30734205,0.22129856,1.1188233,-0.5215626,-0.07074147,0.42081046,-0.29305226,-0.21145508,0.22887538,0.4970894,0.23463029,0.37629783,0.5420394,-0.20301348,-0.6720845,0.21924154,0.19875628,0.35992092,0.0760095,-0.06611025,-0.5013074,0.367201,-0.053943425,-0.07874949,-0.87088406,-0.14024432,0.70992434,0.47937632,-0.199046,0.111084774,-0.11193841,-0.32544684,-0.06467316,0.62234354,-0.21923926,-0.12483776,-0.5365262,-0.03843569,-0.00974621,-0.018879201,-0.3429683,-0.38967073,-0.17525539,0.017945895,-0.2704582,-0.04323574,0.11355615,0.26479003,0.1321273,-0.17799148,0.12451381,-0.37032542,-0.26556194,-0.59597707,-0.38755012,0.4948734,0.23664796,-0.1899595,0.19134071,0.24937108,0.23405044,0.7413391,-0.045755506,-0.24704713,0.13426298,-0.019885391,0.13499337,-0.44968885,0.17934749,-0.15512815,-0.28783894,0.5925435,0.42241943,0.50350386,0.30282992,0.024251863,-0.061297305,-1.2320353,-0.17389753,0.17819032,-0.02501361,0.33280712,0.23164257,0.5418742,0.1847219,-0.07798122,0.42520866,-0.40286672,0.037182517,0.05658319,-0.03462734,-0.11649601,-0.42560613,-0.45466995,0.15063143,-0.1296198,0.107138306,-0.04553947,0.30401775,0.27740124,0.384481,-0.16262323,0.41197565,0.8883376,-0.30984968,-0.26411438,0.51428217,0.36792904,0.6103245,0.45626378,0.10774276,0.52443254,0.92935586,-0.12614292,-0.019243792,0.13031599,0.0028076004,0.17656672,-0.3388757,0.1339822,0.17627272,0.06394776,-0.12838893,-0.124523275,-0.19943607,0.25954896,0.10427429,0.39610144,-0.17353047,0.06669148,0.10371188,0.26039368,0.2315766,-0.056641392,0.21263759,0.27284473,0.2619981,-0.062311634,0.3906269,0.17850716,0.53746814,0.08972512,-0.04710373,0.27218592,-0.1764618,-0.047298655,0.13905114,-0.44882396,-0.34824026,0.07509895,0.3528768,-1.041035,-0.03520763,0.14707586,0.40186238,-0.80230355,-0.08578259,-0.5255673,1.0890191,0.78703564,-0.45508236,0.04041313,0.41886476,-0.38097948,-0.05373943,-0.15138692,0.14391173,0.78799134,0.121696815,-0.010261655,-0.08508786,0.043382324,-0.9867386,0.053936332,-0.81202936,0.36559486,0.031508952,0.38395038,-0.26320416,-0.30769712,0.4562016,0.4101522,-0.31589988,-0.028840695,-0.020692773,-0.43136466,0.28261143,-0.21228203,-0.13319054,0.5083924,-0.2678566,0.40236092,0.321096,0.1940169,-0.6507212,0.28856423,-0.46847016,-0.32737708,0.15473504,0.32608947,-0.43400478,-0.6065196,0.4041587,-0.4762975,-0.43217763,-0.26239946,0.24996889,-0.27427086,-0.5321572,-0.2398341,-0.38328552,-0.26508832,-0.59229356,0.26977727,-0.10203606,-0.11979665,0.13989604,0.63792354,-0.032113075,-1.8584855,-0.055944204,-0.10101294,0.13040626,0.50915694,-0.36345947,-0.081565075,-0.082863934,-0.09171112,-0.27917105,-0.01922381,-0.06682098,0.00479386,0.1195761,-0.19626084,0.13735208,-0.0022074431,-0.35788018,0.034135,-0.81525636,0.49553102,0.13423595,-0.28846857,0.12846652,-0.21482208,0.03823877,0.27376643,0.30946147,0.040451027,-0.110341735,-0.62227607,-0.6364085,-0.43298736,-0.32061297,0.022452623,-0.114334926,0.267302,-0.0070392843,0.47189134,0.002745904,-0.11658306,0.5130911,0.75453603,0.1355063,-0.14599651,-0.5222975,0.7155216,-0.42740995,-0.17911838,0.24122573,0.85381067,-0.018138662,0.1562262,-0.3091452,-0.09610835,0.19124097,0.0094192885,-0.12754442,-0.23402047,0.46938542,0.03126224,-0.35561505,0.35609108,-0.22862823,0.14237832,-0.53088915,0.2046562,-0.31223083,0.05800523,0.32516295,-0.18139033,-0.18109512,0.11170421,-0.23673445,0.32672256,-0.45995483,0.4462161,0.27289116,0.24289787,-0.10047643,-0.39402193,0.38859892,-0.23571223,-0.26131654
Europe_26.png,-0.22670849,0.6644971,-0.10630177,0.086628675,-0.014319241,-0.15242743,-0.35249665,0.26716596,-0.14648485,0.33249077,-0.060633313,-0.3030838,0.81094587,-0.6139667,0.6141982,0.42330873,0.7867373,0.2099538,0.22698662,-0.33146888,-1.1382607,-0.12527025,0.06261392,-0.2259705,-0.051109977,0.038953155,-0.19279307,-0.18180393,-0.4199498,0.29106283,-0.45538807,-0.21637002,0.0046246615,-0.23947522,-0.12256025,-0.059612617,-0.437918,-0.24780531,0.1527677,1.2887933,-0.23133141,0.44520026,0.3674311,-0.31073186,-0.40519938,-1.93129,0.115630254,-0.21842664,0.009614527,0.3640683,0.096788675,-0.060005695,-0.17689891,0.2617637,0.077496424,-0.13061066,-0.028648645,0.12662819,-0.015609279,-0.004432328,-1.1050205,-0.006277738,-0.2280255,0.17261536,-0.3556126,-0.30486715,-0.33032873,0.51142097,0.01860737,0.14006627,-0.64124346,-0.090460524,-0.7742169,0.1479338,-0.38712484,-0.3526365,-0.2839075,-0.90636563,-0.23187509,-0.30666712,0.023465423,-0.37840906,0.1627295,0.28629026,0.25407568,-0.002389893,-0.17941308,-0.39998406,0.30220157,-0.43445116,0.06337061,-0.2516336,-5.5912676,0.35221893,0.098006964,0.25424156,-0.44639933,-0.31745332,-0.21199685,-0.18989721,0.1670749,-0.15621577,-0.37201923,0.3870738,0.13313383,0.44158012,-0.19398692,-0.14344387,0.34278083,-0.3364985,0.02000111,0.2242445,-0.49082667,-0.374573,0.15877,-0.28813675,0.32470906,0.37274754,0.2019749,-1.010451,-0.11476281,-0.021391049,-0.05042949,-0.28624937,-0.1385533,0.54240423,0.019210361,0.32042632,-0.15348089,0.26861542,-0.10695791,-0.26880044,-0.13061035,0.7635871,-0.014373254,0.20550758,-0.14410341,-0.2718902,0.22696275,0.25237733,-0.0061003193,-0.23476997,0.39444283,-0.28485343,-0.40824026,-0.009270169,0.0042696446,0.12055677,-0.7841656,-0.21616265,-0.060830712,0.3571901,0.49530432,-0.07894099,-0.2366892,-0.4291194,0.0695373,-0.13425137,-0.4693539,0.14159673,0.063657224,-0.116249844,0.016915537,-0.09869832,-0.08101688,0.04626922,0.3856237,0.75811017,0.18078396,-0.042922005,0.14324714,0.15838762,0.11873319,-0.035807956,0.041624963,0.2700343,-0.6840263,-0.5415532,0.76880395,-0.28716457,-0.1330107,-0.70567423,0.18821405,-0.019364417,-0.054020386,-0.3112831,-0.17153303,0.105777234,-0.1384195,-0.30994108,0.33379596,0.33583146,-0.25731027,0.22899476,0.16741472,0.12117053,-0.377001,-0.26887587,-0.58299214,0.011737078,0.34160003,-0.33819717,0.15958726,0.090139,0.42272937,-0.748775,-0.15502974,-0.122509375,-0.33723205,0.41121566,0.32351065,0.7233554,-0.41770434,-0.045200877,0.10100636,-0.5243307,0.1689124,0.43407518,0.7390563,0.065181814,0.24257132,1.0088885,-0.07680331,-0.3742332,0.012846157,0.53875744,0.36618292,-0.19534752,0.25698262,-0.0012410283,0.0253128,0.057624936,0.16320813,-0.2410847,0.11575783,0.34621274,0.34178072,0.10307927,0.28988045,-0.3278631,0.20190033,-0.12864111,0.6775719,-0.35934323,-0.5455169,-0.61963004,-0.07398301,-0.118627734,-0.15025358,-0.6501821,0.20660926,-0.27996457,-0.056609914,0.5475803,0.063447334,0.038088597,-0.08179347,0.39229494,-0.08543483,-0.03025445,-0.05965787,0.0807889,0.056236148,0.99095935,0.019969374,0.23328727,-0.05289196,0.041605175,0.28754193,0.12376508,0.75616837,0.52150893,-0.1391574,0.3341377,0.094404906,-0.11186621,-0.40861756,-0.4108997,-0.08915666,0.1273736,0.26788703,0.2767407,0.44082084,0.3205148,0.26721108,-0.0737594,-0.8504889,-0.36674467,0.119084165,-0.03516014,0.28197807,0.0504912,0.2865166,0.093546845,0.07470685,0.24076438,0.2080028,0.3700106,0.33234107,-0.037493907,-0.03583428,-0.65899754,0.1355848,0.14569193,0.19505617,0.2205714,-0.46069518,0.2994764,0.11591266,0.034241162,-0.17796692,0.21080087,0.7606987,-0.49939558,-0.06677124,0.16320065,0.81716955,0.61415243,0.40899593,0.088608935,0.618696,0.9977436,-0.141066,-0.37920135,-0.036351908,-0.21745937,0.31423205,0.024957575,0.067234784,-0.11640422,-0.36667624,-0.2976805,-0.051796585,-0.3075629,-0.13379326,0.3078274,0.2567779,0.0032310784,0.14917298,0.008432859,0.254221,-0.18159075,0.1649497,-0.088462085,0.44160974,0.2966951,-0.61984795,0.51033664,0.07888309,0.32483795,-0.3502312,0.02032733,0.2823737,-0.0500491,0.03694117,-0.5630524,-0.020292237,-0.319603,0.072291136,-0.32775986,-0.43806216,-0.051073253,0.24569242,0.83714855,0.22770366,0.05098591,-0.2831627,0.6020375,-0.017141,-0.44060192,-0.26453945,0.23636654,-0.27152154,0.24189325,-0.06774134,-0.15329152,1.4411966,0.16619171,-0.0068251193,0.0773774,0.06310516,-1.3963473,-0.12614703,-0.40800375,0.24677464,-0.37966114,0.20204493,0.17363174,-0.22609551,1.3541926,0.5001842,0.16168186,-0.080485776,0.008240219,-0.56620586,0.2524181,-0.22385414,-0.4153638,0.21981171,-0.06820301,0.77242905,0.30150098,0.29947376,-0.45631436,-0.23818368,-0.21984695,-0.51480913,-0.42286432,0.11346474,-0.48832867,-0.32432902,-0.10101343,-0.58244896,-0.24521613,-0.43822497,0.15106377,0.42961293,0.05047993,-0.41622797,-0.48733166,0.20420879,0.014147386,0.43937558,-0.19772916,-0.16166309,0.06168118,-0.17686301,-0.2319568,-2.3525074,-0.04003329,0.15192035,0.16704136,0.63461673,-0.43368936,-0.03521832,-0.0688822,-0.30198377,0.025949478,-0.47896934,0.35920727,0.20308344,-0.15088487,0.035796605,0.08075261,0.25772357,-0.5567949,0.086687066,-0.32301635,-0.079089835,0.21161607,-0.19377038,0.34265292,0.16637291,-0.342111,-0.0012577027,0.27094033,0.042664833,-0.506994,-0.4883462,-0.6963722,-0.20501445,-0.12447219,0.17993417,-0.57077897,0.11888365,-0.1504599,0.43454677,-0.33743465,-0.21603583,-0.22492316,-0.054099467,0.42994213,0.08352746,-0.81293994,-0.019075632,-0.030136123,-0.08235988,0.03883362,0.89965856,0.21624272,-0.23675583,-0.3932044,-0.16083172,-0.05660083,-0.14178792,-0.17783855,-0.29037696,0.019245833,-0.09343046,0.102119,0.10288381,0.4070167,-0.2526733,-0.7901739,0.098283336,-0.098950416,-0.2460298,-0.15979782,-0.12748107,-0.37816763,0.11647709,0.2767322,-0.22660878,-0.06570237,-0.32587376,0.122251086,0.15282823,0.24602576,-0.20298162,0.50819147,0.05710504,-0.49616158
Europe_43.png,-0.057486825,0.5370846,-0.3396217,0.4249794,-0.0803702,0.001386553,0.086879015,0.5370652,0.28939688,0.18586157,0.17261454,-0.44600666,0.6695658,-0.4625879,0.28931326,0.005952485,0.2757244,0.09418909,-0.05185187,0.19576162,-1.0997213,0.12149195,-0.08426498,0.030228972,0.012483582,0.17321347,-0.24983087,-0.2689203,-0.26168472,0.321253,-0.64551777,-0.18711248,0.01186043,-0.413732,-0.27884346,-0.14806953,-0.32126063,-0.23374975,0.101387,0.2568811,-0.34694508,0.36134806,0.22940817,-0.15356284,0.021078112,-0.5110525,-0.07662013,0.02376616,0.12598708,0.11418689,0.3532667,0.039863117,-0.12652825,-0.1403563,0.045153037,0.13098697,0.079795085,-0.046151273,0.12000463,-0.1476112,-1.1942021,0.29561174,0.19149557,-0.012421307,-0.49622148,-0.32786176,-0.47915393,0.69956446,0.042586863,0.2613892,-0.7443552,-0.40331042,-0.45202404,-0.028949589,-0.4452546,-0.26157352,-0.2661385,-0.32259607,0.19691217,-0.42315868,-0.009897459,-0.2882284,0.3599263,0.20560497,0.39134443,0.015070226,-0.17713544,-0.23865934,0.5338358,-0.30678445,0.2400338,-0.022403378,-6.517343,0.5221108,-0.19359885,0.02412981,-0.18542895,0.09423478,0.07538548,-0.7739716,0.12685905,0.04218994,-0.7167901,0.06141167,-0.4732395,0.19788033,0.13984486,-0.062406436,-0.028582975,-0.49219298,0.10661769,0.07655946,-0.055869017,-0.23876394,0.404864,-0.5465023,0.35009634,0.050975773,0.118784934,-0.7555402,0.2422539,0.037342414,0.36958313,0.115140274,-0.08344287,0.632049,-0.12460044,0.11365953,-0.062166154,0.8172835,0.18990265,-0.5886589,0.5175718,0.8767134,0.0439089,-0.06986986,-0.22779953,-0.20486884,0.4849913,0.1017388,0.08222553,-0.019003108,0.44791034,-0.38456035,-0.277172,-0.08385232,0.26297376,-0.08349622,-0.085734874,-0.06007512,-0.058431827,0.04354897,0.18834266,-0.0046112314,-0.19493315,-0.51432115,0.39179748,-0.19021925,-0.701012,0.10913977,0.11354654,-0.07813123,0.3384506,-0.039143264,0.31695342,0.09947229,0.42901593,0.3526916,-0.13721716,-0.42045173,0.3761917,0.02273959,-0.26519984,0.047865193,-0.16108724,0.32350737,-0.95915586,-0.1117471,0.5355082,-0.029571407,-0.37306648,-0.75290173,0.38821533,-0.030639958,-0.07389668,-0.15306015,-0.08342278,0.2856829,0.34995806,0.12287706,0.10714087,0.6278175,0.15993121,0.1223515,-0.30219668,0.018799119,-0.18716261,-0.45413315,-0.16595027,-0.003813237,0.053910464,-0.25880677,0.44983798,-0.13133189,0.47896996,-0.42401427,0.11792645,-0.18269521,-0.078047596,0.47596383,-0.08991292,0.44698685,-0.36844093,-0.15610299,0.3049128,-0.4075465,-0.24157274,0.64836586,0.415672,-0.27312458,0.112720266,0.5779392,-0.08272241,-0.59183836,0.28064415,0.24204065,0.3751634,-0.105077915,-0.0024072528,-0.60099816,-0.008641779,-0.050536275,0.4881311,-0.1175203,-0.046902984,0.19212228,0.41050416,0.082836136,-0.16300303,-0.17244172,-0.14600408,0.051692277,0.50710285,-0.34722394,-0.5148977,-0.38697648,-0.058738798,-0.3106109,0.18948281,-0.10680875,0.0669553,-0.14004746,-0.33320558,0.028571315,-0.27935904,-0.17154737,-0.3131442,0.13747351,0.4935547,0.0005592555,-0.1480155,0.123644024,-0.3033876,0.48836285,0.059965823,0.020204648,-0.14426151,0.35085392,0.15829563,0.51920336,0.5428171,0.0010343194,-0.33533654,0.25904486,-0.16180165,0.20852758,-0.059201866,-0.3744016,-0.06426572,-0.14260057,0.7130064,0.4736025,0.48745254,0.028113604,0.14340515,0.14469829,-1.0975106,-0.030121274,0.2921017,-0.09663212,0.19876549,0.17991689,0.48014033,0.011815883,-0.298926,0.28709364,0.098787874,0.108074844,0.29155946,-0.12233402,-0.096433096,-0.16948937,-0.3749756,0.25532103,-0.11591662,0.37063533,0.11760683,0.5239133,0.00043588132,0.022114098,0.06238737,0.034661107,0.8755537,-0.64890254,0.027369842,0.56912106,0.25944224,0.53621006,0.21481098,-0.0079571605,0.4669572,1.106039,-0.510423,0.09482259,0.14533873,-0.33729887,0.3065682,0.024480196,0.32096082,0.100198545,-0.37841678,-0.5213522,-0.013646763,-0.17993769,-0.07212792,0.30930653,0.5910446,0.06599722,0.11234752,0.017436132,0.31105238,0.024268419,0.12734336,0.07808828,-0.20860784,0.012169503,-0.4864195,0.318468,-0.063855685,0.58277524,-0.35425398,-0.10210107,0.40021473,-0.04982248,-0.1234492,-0.04242617,-0.3881771,-0.4180984,-0.019592777,0.07071962,-1.3521116,-0.16765632,0.20960876,0.82169455,0.04793346,0.16670707,-0.2700806,0.7786012,0.19341964,-0.40788028,0.18372257,0.28095478,-0.57177067,0.13066675,-0.42582756,-0.08136707,1.0948881,0.3541103,0.12518287,-0.14012526,-0.14293657,-1.0813813,0.045161396,-0.5783687,0.23535159,-0.33899865,0.046418235,-0.11766179,-0.10023761,0.9666081,0.49405712,0.19051442,0.01739481,0.24539945,-0.6287111,0.17768869,-0.46222496,-0.25018537,0.36431715,-0.3093022,0.5076173,0.4528168,0.4097508,-0.67966044,0.43488115,-0.44650757,-0.07116681,-0.01314123,-0.14115413,-0.30478358,-0.3415537,0.32485074,-0.09464872,-0.12041732,-0.04033476,0.069727875,0.31135035,-0.5003895,-0.081746615,-0.09860083,-0.05755368,-0.37987298,0.26705614,-0.015612923,0.03309211,-0.13039988,-0.29054588,-0.31920183,-2.0717175,-0.07275886,-0.21621111,0.037912473,0.502041,-0.30663753,-0.05848863,-0.3042029,-0.30122378,0.12214703,0.14517306,0.19561924,0.21424317,-0.03714522,0.20727143,0.18766758,0.37523597,-0.17055929,-0.055187523,0.14239056,0.1212084,0.13323557,-0.3721934,0.07806811,0.114102356,-0.18013082,-0.09607349,0.35266963,0.14574996,-0.36538026,-0.54798186,-0.30201972,-0.13304989,-0.5058309,0.098050535,-0.47623104,-0.1316547,-0.23563895,0.30480987,-0.2582328,-0.38292593,-0.018818669,0.20005232,0.14311174,-0.2586446,-0.41082287,0.60604775,0.16292053,-0.104133084,0.33441716,0.6033754,-0.06460518,-0.03677545,-0.253145,-0.1720227,0.32266793,0.26505077,-0.14486822,0.15932453,0.36931401,-0.06722759,-0.1113559,0.7547875,0.22214425,0.42318824,-0.7449825,-0.16905369,-0.06633064,0.194643,0.42803302,-0.022418901,-0.045865983,0.17893699,-0.18286967,0.030148605,-0.30946773,0.27479565,0.12603219,0.34974182,0.17813566,0.0056398567,0.24812627,-0.42689747,-0.61960644
Europe_06.png,-0.121258914,0.82237524,-0.27802774,0.34055275,-0.02821815,0.30274853,-0.38887936,0.14112481,0.0902437,0.42778566,0.34775853,-0.33139256,0.4815266,-0.48541325,0.16859405,-0.30895537,0.09431127,0.078124695,0.19749042,-0.09154779,-1.0718899,0.011733666,-0.13038091,-0.032078996,0.2545831,0.2746816,0.083188556,-0.25483027,-0.14986253,0.23008677,-0.5962693,-0.17877714,0.022295617,-0.1305066,-0.2997254,-0.09262116,-0.2427885,-0.15496838,0.3417905,0.20143685,-0.29335114,0.48272422,0.23613778,-0.26392278,0.0061740503,-0.36101437,-0.15067281,0.30881226,-0.1819995,0.12424974,-0.057340115,-0.24219379,-0.185741,-0.22131777,0.16769543,0.17765112,0.14435413,0.017936282,0.039423436,-0.020250618,-1.3736364,0.052551303,-0.06046589,-0.030422553,-0.46777928,-0.43842068,-0.34456113,0.39794254,-0.087187156,-0.05408877,-0.6128115,-0.0452729,-0.5079284,0.123493396,-0.3424235,-0.099047974,-0.42850184,-0.47478494,-0.20358035,-0.11195372,0.34224662,-0.13545905,0.10829386,0.2522217,0.19991049,0.3125069,0.13269952,-0.4678138,0.40745965,0.23373336,0.0767152,-0.24853873,-6.8482804,0.36989546,-0.060680687,0.21383892,-0.2627843,0.33535326,0.0883327,-0.46473277,0.12695831,0.3165198,-0.3865267,0.24828422,-0.09193291,0.03259871,-0.081888616,0.16010927,0.055903967,-0.34774196,0.06989531,-0.10589257,-0.2333017,0.040206432,0.10262113,-0.44005448,0.8728031,0.13693616,0.18661363,-0.6505754,-0.0154330805,-0.3005776,0.046759333,-0.11654934,-0.060693964,0.48664963,-0.27848387,0.2630065,-0.036932483,0.63540554,-0.100867204,-0.4555176,0.28522137,0.8984148,0.27450967,-0.23544815,-0.31586987,-0.32284138,0.77042216,0.2114883,-0.025748283,-0.21478751,0.2474885,-0.1088199,-0.15270944,-0.10599128,-0.14950685,0.028044194,-0.10320085,-0.30063453,-0.1471544,0.03549635,0.18286312,0.0022618324,-0.054465942,-0.13962598,0.35736865,-0.15530008,-0.48780996,0.37353623,0.011405632,-0.3370852,0.21860135,0.074526295,-0.2580992,0.046101138,0.5049881,0.1988205,-0.14716518,-0.58527297,0.23861471,0.20711222,-0.40486178,-0.30752572,-0.053824507,0.03970638,-0.9157709,-0.5591245,0.43104535,-0.112593606,-0.37183404,-0.31889516,0.37324914,-0.0042331517,-0.16780752,-0.021652125,-0.1013798,0.21744168,0.12255427,-0.2582143,0.021731246,0.6633097,0.18263659,0.25296184,-0.1219209,0.009366162,-0.28151593,-0.5278127,0.061795957,0.260967,-0.066578686,0.010529076,0.40278637,0.021329055,0.48569426,-0.027194098,-0.053349227,-0.04623723,-0.035036214,0.2913261,-0.23469019,1.0391662,-0.46804848,-0.0831397,0.5246544,-0.3064254,-0.48838723,0.40721548,0.2668262,-0.016920734,0.29989654,0.9364196,-0.3220381,-0.46533227,0.18095616,0.084329724,0.17413618,0.008237869,-0.31138852,-0.46670905,0.19866797,0.3040681,0.10790889,-0.37695694,-0.087344944,0.38770905,0.26467282,0.0511244,0.19609547,-0.114001065,-0.4131686,0.13524602,0.5656954,-0.23752165,-0.48781225,-0.35044053,-0.013110153,-0.16643304,-0.36549205,0.0241222,-0.3007537,-0.25498718,0.20115155,0.027232565,-0.10492968,-0.0940346,-0.12078357,0.07468555,0.4124426,0.27989778,-0.017848,0.09502166,-0.6040001,-0.6534004,0.24501313,0.36317188,-0.34444207,0.01560393,0.22382593,0.2106078,0.5833176,-0.17944399,-0.4464717,0.40340814,-0.0060017854,0.27767032,-0.3736077,-0.10198733,-0.13193017,-0.34669363,0.64291584,0.48979038,0.30615288,0.2237614,-0.061442103,0.079297945,-1.4954593,-0.68232274,-0.06582256,-0.44652194,0.59926975,0.23242094,0.58411777,-0.031362098,-0.28656536,0.28822002,0.0979893,0.12474342,0.20812207,0.24710923,-0.006579141,-0.28747782,-0.4093663,0.38369024,-0.019259676,0.100109145,-0.18782432,0.39540738,0.12041759,0.040767938,-0.110323116,0.044869244,0.8967918,-0.4214825,-0.24627091,0.6693294,0.1545378,0.73725253,0.16365954,-0.51741564,0.45942295,1.3058922,-0.32681417,-0.27587873,0.052342206,-0.157376,0.18057859,-0.51102865,-0.017433964,0.22723532,-0.13058402,-0.080330595,0.16713963,0.10499705,0.06930666,0.25224674,0.53360903,-0.10754396,0.1924548,-0.062352106,0.5290989,0.0029795617,0.017792583,0.2065187,0.03130681,-0.04727817,-0.5788074,0.38667637,0.13968728,0.3436196,-0.14504439,-0.17160377,0.5683617,-0.18282543,-0.196938,-0.1980857,-0.2607076,-0.77838516,0.1370491,0.37700665,-1.0964193,0.36144158,0.33471882,1.0095394,-0.65268016,0.15341765,-0.52781844,0.93867356,0.61461854,-0.3887581,-0.042540938,0.37925196,-0.46414995,-0.20612244,-0.18958852,-0.12470141,0.791678,0.3049175,-0.16700691,-0.33004326,0.10310587,-1.3839226,-0.07572037,-0.5151433,0.35253325,-0.4242652,0.38231742,-0.3907467,-0.3134799,1.0574512,0.6872015,-0.05634074,0.061222274,0.063271865,-0.39377883,0.11731785,-0.46733087,0.033041276,0.6362473,-0.3046216,0.27600205,0.34409755,0.58530194,-0.5011629,0.092084415,-0.58817476,-0.048393987,0.07964772,0.06569542,-0.27220556,-0.47064963,0.030092485,-0.22265296,-0.35631156,0.023678407,-0.01707109,0.31262064,-0.5997585,-0.40141445,-0.115449145,-0.12150249,-0.49950412,0.22292942,0.37477544,-0.3708111,0.09771056,0.117848404,-0.57744396,-0.620164,0.36772585,-0.15381055,0.54369867,0.75784516,-0.5030844,0.008560091,-0.055181384,-0.26273477,0.022498347,-0.09330262,0.27364805,-0.23129281,-0.058187604,0.19570225,0.24499947,0.123297125,-0.029792856,0.19310798,-0.06793034,0.122206256,0.34469962,-0.51299745,0.074613035,-0.07110128,-0.24761966,0.12160957,0.2661792,0.31383008,-0.37261277,-0.11256926,-0.43510354,-0.188237,-0.48831517,0.014775813,-0.29063943,-0.14398168,-0.2962109,0.28787005,0.1369589,-0.3298409,0.034254614,0.24439679,0.19982764,-0.2806478,-0.65614545,0.48661113,-0.09273588,0.03789091,0.05636783,0.75064963,0.05453892,0.19971675,-0.28721145,-0.12624386,0.45556954,0.04688076,-0.3112818,-0.15989193,0.3250097,-0.014294319,-0.37501985,0.5172218,-0.046761334,0.2718691,-0.73671436,0.13942394,-0.13029197,-0.40450725,0.61955047,-0.09466953,-0.08667755,-0.025715351,0.07608553,0.33088744,-0.22421116,0.49292663,0.21593362,0.2518862,-0.1818736,-0.05247858,0.6168803,-0.28329533,-0.4942792
Europe_30.png,0.58951443,0.6683255,-0.21655759,0.082227334,-0.06679851,0.20963797,-0.086650565,0.36632118,0.32690912,0.69218636,-0.19351712,-0.49464044,0.21037085,-0.17445192,0.31606,-0.21074593,0.18757907,-0.4766125,-0.25741017,-0.19187547,-1.0699285,-0.0871792,-0.52473724,0.6149821,-0.1492237,0.31088156,0.40027496,-0.34187144,0.022532385,-0.014883041,-0.057397977,0.057762623,-0.16485669,-0.5321145,-0.24355231,0.0679896,-0.33367112,0.17194486,0.4994989,0.22661203,-0.42979798,0.47200516,0.23942949,-0.4055841,0.56737673,-1.1910535,0.04950963,0.27425426,-0.20784143,-0.039890606,-0.04621458,-0.13012306,0.25621706,-0.22995023,0.20786949,0.043618,-0.15363869,-0.35880384,0.008689955,0.17483455,-1.3207643,0.317556,0.26396644,-0.1625506,-0.058386073,-0.36817634,-0.4404989,0.21638556,-0.089197114,-0.36894566,-0.6067368,-0.06749237,-0.67989147,-0.16720028,-0.12477516,-0.15450546,-0.3346784,-0.1367566,0.07592678,-0.031674705,-0.085091814,-0.43847597,-0.20012772,0.37149006,0.13303909,-0.20182478,0.13568667,-0.071022205,0.55125684,-0.25451058,0.21601698,-0.062713146,-6.3055935,0.089456365,0.15278625,-0.5339943,-0.45883715,0.29463905,0.48055825,-0.5331489,0.5308902,-0.45986968,0.03941162,0.13003841,-0.11040433,0.12907937,0.24217105,0.1944708,0.33853716,-0.42627293,0.06775947,0.019042239,-0.41870856,-0.15951952,0.36734053,-0.47253376,0.47224212,-0.08256756,0.20053898,-0.118377425,-0.27398205,0.16312444,0.40269223,0.10460758,0.177367,0.347779,-0.58680737,0.6647376,0.038912058,0.53917813,0.48338175,-0.24999633,0.28684384,0.8839447,-0.121873304,-0.013965737,0.008079097,-0.22547205,0.60830235,0.18626915,-0.26630458,-0.2450977,0.2423203,-0.46590745,-0.3434523,0.22420256,-0.19087741,0.09360638,-0.1708228,-0.3796603,0.15939265,0.21122152,0.6322914,-0.1506898,-0.23147441,-0.07171722,0.30749795,-0.14856927,-0.7831012,0.43045276,-0.21967223,-0.2858257,-0.08648447,-0.04360895,-0.122377984,0.52018195,0.6583834,0.10569093,-0.04812396,-0.63256884,0.4220279,-0.2574484,-0.19761972,-0.29072875,-0.22341646,-0.52365005,-0.9952216,-0.3078262,0.51343125,-0.2858,-0.42800993,-0.83748865,0.22679928,0.30104053,-0.14242978,-0.24908686,-0.24613261,-0.14411055,0.13304776,0.26169625,0.035293013,0.61914057,0.24563135,0.3055866,-0.06769424,0.41319764,-0.29761556,-0.38080016,-0.20359848,0.45034406,-0.14923736,0.12377609,0.7272905,-0.21942984,0.7759856,0.09597871,-0.22825801,-0.26844874,-0.17613184,0.2094967,0.062645905,1.2495366,-0.5996329,0.20344518,0.38868344,-0.49513292,0.1042096,0.16499177,0.24030304,0.14461601,0.22369267,0.7266884,-0.054288182,-0.6074343,0.16551349,0.15499872,0.10804817,-0.049306065,0.056806356,-0.3863948,0.3956395,-0.058483437,0.022252522,-0.4642452,0.15628171,-0.04820232,0.32039666,-0.08754365,0.12653564,-0.17161573,-0.7029573,-0.18690991,0.5916664,-0.23495659,0.07322892,-0.2958106,-0.8062115,-0.7549364,-0.29579496,-0.049583286,-0.2543384,0.2739744,0.15399346,-0.5056907,-0.024858266,0.026656684,0.21952437,0.28981712,-0.74217683,-0.16420573,-0.19879347,-0.23561478,-0.5124286,-0.53541374,0.339922,-0.01762341,-0.0073032826,-0.18543561,0.3057059,0.3636695,0.122884855,-0.35850245,0.040711775,0.5335449,0.17160292,-0.07077108,-0.19969198,0.026881471,-0.6157881,-0.12456992,0.44391775,0.35814095,0.71560794,0.13406628,0.0037020594,0.24315718,-1.8674077,-0.09362599,-0.0032901615,-0.39166456,0.53519905,0.47266293,0.35004216,0.08996186,0.23314962,0.56860554,-0.1319032,0.06696288,0.139961,-0.26579309,-0.26352572,-0.54870236,-0.4125261,0.516324,0.13878654,-0.19946857,0.0048875436,0.65582854,0.28698355,0.2311666,-0.48621112,0.2730849,0.88269204,-0.52481264,-0.28944328,0.62699974,0.1567306,0.60451806,0.23304598,-0.04605335,0.048187543,0.59257185,-0.15231812,0.010171741,-0.10703997,-0.25839,0.05670368,-0.6568455,0.19778419,0.030264422,0.1005649,0.18850854,0.2222623,-0.14722529,0.04060833,-0.0246468,0.30898795,-0.011378169,-0.0841357,-0.15812221,0.42694038,0.31471175,0.39088193,0.024280645,0.045507953,0.5188804,0.2566574,0.20644718,0.2307571,0.48572364,-0.062278334,-0.08134607,0.34377763,-0.52005047,-0.08647624,0.22012301,-0.23710845,-0.6998174,0.040789247,0.2800442,-0.6936924,-0.16249111,-0.3235855,0.692438,-0.27141112,-0.15561514,-0.5845196,1.0963454,0.5155944,-0.18722196,0.0017343722,0.109540455,-0.631805,-0.1452664,0.042343453,-0.018670063,0.7380267,0.35782495,-0.18084823,-0.06368141,0.31906652,-0.57076216,-0.075252354,-0.60561156,-0.22132407,0.02719915,0.011809789,-0.032511517,-0.08158377,0.19019261,0.5713012,0.07642151,-0.10484226,-0.16107109,-0.66098154,0.09533867,-0.23669125,-0.3770805,0.36634058,-0.5961355,0.14783776,0.59277934,0.49357253,-0.74082625,0.25778255,-0.3799737,0.0058659874,0.27192038,-0.18932578,-0.22571737,-0.26460326,0.40317827,-0.2868743,-0.39853212,-0.33652252,-0.14208835,0.3716172,-0.5247135,-0.18624176,-0.40948611,-0.07381329,-0.70974445,0.09236348,0.3500165,-0.39721304,0.0811009,0.5637591,0.048723087,-0.7101377,-0.34188497,-0.2468435,0.07619638,0.48281237,-0.5448425,-0.3248198,-0.019784689,-0.13333733,-0.14267476,0.086148724,-0.06998843,-0.009755179,0.05793169,-0.23397988,0.08802545,0.1560714,-0.4843406,-0.49425107,-0.66545475,0.44270286,0.32239586,-0.32322824,0.14617725,0.0066266246,-0.1253973,-0.018981785,0.5495298,0.29157275,-0.15451826,-0.56486946,-0.8344534,-0.2923957,-0.24902414,0.0030697659,0.06421974,-0.36086515,-0.29201397,0.239718,0.09934682,-0.3915878,0.20619473,0.59808874,0.18849444,-0.4811126,-0.5985578,0.55381083,0.18475135,0.1732133,0.029877156,0.32346177,0.13925979,0.20425193,-0.4009062,0.1790559,0.14241892,0.017026938,-0.34432846,-0.45817584,0.23110142,0.19561797,-0.03763461,0.92031753,-0.114800766,0.22306192,-0.4721173,0.16321398,-0.49540633,-0.042837195,0.35060233,-0.124120995,0.35281238,-0.04181902,-0.36042702,-0.11171944,-0.35655445,0.22262749,0.4302894,0.015836475,0.015752876,-0.19836588,0.026971566,-0.25289482,-0.28162414
Europe_08.png,0.04325147,0.5764706,-0.16520266,0.35077453,-0.072639525,-0.028093271,-0.5477296,0.14580357,0.17643185,-0.102278896,0.19557141,-0.12932862,0.46150815,-0.47768235,0.4064714,0.07105474,0.39888507,0.017590098,0.079201005,0.03848283,-0.9383661,0.098014936,-0.005463466,0.15085019,0.20214744,0.041552946,0.2541871,-0.45881364,0.0668133,-0.00463365,-0.35523003,-0.058763076,-0.35864788,-0.19026397,-0.21941921,-0.078757346,-0.25603515,-0.087801665,0.14544304,0.13039446,-0.11141661,0.24321857,-0.015609384,-0.36382106,0.11770287,-0.8816701,0.11148071,0.42298442,-0.2606698,0.24509533,-0.135736,0.034327626,-0.18925512,-0.37826788,0.35931882,-0.0024486296,0.15508375,-0.15325952,0.012831043,0.1842776,-0.94767725,-0.15201959,-0.10125368,0.08406079,-0.4674592,-0.26718912,-0.14535326,0.6126723,-0.6005851,-0.21480358,-0.45708087,-0.23984721,-0.4747769,-0.15379801,-0.13376734,0.21360202,-0.47871643,-0.311029,-0.2265071,0.04910284,0.23398192,-0.1850597,-0.116478205,0.04843074,0.20172188,0.16395266,-0.22982627,-0.22294173,0.46166393,0.11801731,0.13431765,0.20170473,-7.114707,0.069381475,-0.09996989,-0.047652595,0.052742764,0.089101255,0.1399442,-0.12418613,0.16385278,0.2727098,-0.26078197,0.044970877,-0.31386968,0.16259941,-0.33750707,0.18559615,0.1823295,-0.26495713,0.5896497,-0.22270511,-0.19386289,-0.05316548,0.08072786,-0.38163403,0.7860428,0.220838,-0.13965735,-0.31398386,-0.14022014,-0.10244107,0.08876185,0.05707685,-0.09129521,0.52884305,-0.083073676,0.5712892,0.38596544,0.5911422,0.19592066,-0.1973294,0.2423551,0.9082488,0.05571081,-0.28436202,-0.1197176,-0.12935694,0.95390964,0.27517155,-0.38863975,-0.1104925,0.35774803,0.13279548,-0.14443491,0.011732928,-0.14743963,-0.13875844,0.12175605,-0.5957442,0.25300145,-0.04745762,0.8431287,-0.24441211,-0.122871354,0.30784994,0.32136118,0.19691399,-0.39248455,0.19241866,0.34447947,-0.1646583,0.027291812,0.07134134,0.074907094,0.5934822,-0.056074094,-0.09353535,-0.17257062,-0.3536216,0.5329117,0.2232903,-0.27690023,-0.34354866,-0.055344384,-0.4018555,-1.114846,-0.32026443,0.28708518,-0.02754584,-0.28479427,-0.55515325,0.7915845,-0.014355667,0.24058932,-0.06369641,-0.054236583,0.19481367,-0.16090912,-0.27612367,0.13258184,0.6599395,0.4618714,0.47282344,-0.4143862,0.39435372,-0.5581715,-0.5826601,-0.18318371,0.50407237,-0.041224808,-0.0874148,0.5553556,-0.05598344,0.698058,-0.21108346,-0.2660694,-0.2223921,-0.29070175,0.3378709,-0.3656226,0.82911134,-0.2821596,0.13603194,0.402044,-0.58569694,-0.4947362,0.06469417,0.19593897,0.24355549,0.3674941,0.48236555,-0.21400405,-0.6192416,0.35309088,-0.061885465,0.45853996,0.091422096,-0.17800297,-0.3159263,0.15619947,0.20105347,0.22100513,-0.69335353,-0.4444089,0.4304607,0.51019156,-0.05949594,-0.24418311,-0.078131214,-0.25121546,0.15154488,0.45846295,-0.30380806,-0.20724203,-0.20459157,0.087101966,0.18805966,-0.27373248,0.064662375,-0.45595676,-0.35930574,0.069993,-0.2293837,-0.39933854,-0.33632243,-0.033658683,0.2119657,-0.13604635,0.3018984,-0.22967212,-0.02507256,-0.52677107,-0.39659116,0.49550307,0.36053234,-0.3114881,-0.057608902,0.38180393,0.3260312,0.60644096,-0.062290974,-0.53872263,0.13659784,-0.03310269,-0.03722629,-0.293735,0.061413616,0.06952044,-0.28629345,0.68672717,0.43568724,0.55772746,0.28656846,-0.15056783,-0.35455638,-1.4478488,-0.3917519,0.23585083,-0.33053625,0.50785303,0.47100922,0.6450604,0.07785085,-0.230425,0.5357255,0.17904222,0.33962584,0.22992016,0.15833822,0.050062925,-0.3255226,-0.2789263,0.23663121,0.060895115,0.19018346,-0.1183992,0.51062936,0.25768158,0.04575157,0.08696378,0.29338837,0.9078983,-0.1815007,-0.18734528,0.68320227,0.41198948,0.648584,0.1973331,-0.35749653,0.2572857,1.3323419,-0.53143346,0.1548615,0.30825973,-0.103717975,0.18739417,-0.653626,0.04904078,0.110786244,0.06521489,-0.15395445,-0.2145425,0.09513144,0.09014851,0.40626982,0.71224266,-0.040603526,-0.12613317,-0.015533045,0.07326068,-0.2642418,-0.2742438,0.09383379,0.22388381,0.052217588,-0.31839204,0.21578377,0.17896122,0.21169166,0.119842336,0.096089035,0.21281451,-0.2541036,-0.21086055,-0.013357818,-0.38259268,-0.36650026,-0.0020978898,0.08511403,-1.1652347,0.32139805,-0.14322582,0.27159137,-1.239692,0.20815381,-0.45641595,1.2671292,0.64610744,-0.1199894,0.060528472,0.59802306,-0.5207157,0.0814753,-0.074520886,0.02149047,0.5668215,0.20508096,-0.036260784,0.07060018,0.16617973,-1.2024508,-0.12385616,-0.59846514,0.5260734,0.030298542,0.3174756,-0.37851876,-0.13607275,0.68453735,0.13862306,0.120632455,0.18661632,-0.050777648,-0.23616178,0.36502212,-0.2500448,0.12548801,0.6327912,-0.29822224,0.008728132,0.5195626,0.5942991,-0.46657008,-0.062251665,-0.5149546,0.012818217,0.23869145,0.3227588,-0.2794165,-0.5656871,0.4121302,-0.27553353,-0.17706147,0.003414005,0.021753184,-0.08590689,-0.4638769,0.15210524,-0.2440707,-0.5101324,-0.46354422,0.34120488,0.19759245,-0.23072433,-0.11373107,0.08779802,0.07382478,-1.1211444,0.22239953,-0.3069838,0.7362275,0.87009215,-0.55507874,0.20066366,-0.06285091,-0.31962106,-0.1740756,0.091901354,-0.18905623,-0.3642535,0.01251322,-0.2883862,0.20299715,0.07494586,-0.38656986,0.07956742,-0.38878715,0.259141,0.06455847,-0.15632023,0.24438259,-0.33368993,-0.15269347,0.14782178,0.1685578,0.23491251,-0.27728865,-0.45767236,-0.287869,-0.117221415,-0.497654,-0.09951311,0.118473515,0.010026813,0.17369184,0.162224,0.123794004,-0.1507258,0.21093756,0.38072157,0.20484376,0.121578306,-0.2302681,0.89943814,0.08712809,-0.27750403,-0.20419592,0.4731499,-0.13353744,0.30222812,-0.12497746,0.01682014,0.37450585,-0.03600297,0.1838308,-0.1983485,0.12144781,0.119186744,-0.20268503,0.08539995,-0.014457248,0.33800587,-0.7519349,0.07533729,-0.36273897,0.23595946,0.4841068,-0.2007322,-0.22291961,0.107556865,0.012890708,0.18408732,-0.43519816,0.40023705,0.17441884,0.4178236,-0.04799962,-0.21473315,0.5716926,-0.24316846,-0.2906266
Europe_48.png,0.41276115,0.5027024,-0.371809,0.11247562,-0.32300192,0.12238924,0.11793555,0.39857686,-0.3851928,0.39000738,-0.27437487,0.106365025,-0.28612298,-0.27802154,0.23538956,0.02854681,0.40234536,0.09838733,-9.252131e-05,0.11003294,-1.2560091,-0.3100822,-0.47976774,0.45200646,-0.09650321,0.17064139,0.28579164,0.13092321,-0.2785684,0.16057248,-0.5468768,-0.3573448,-0.090394355,0.07555843,-0.3474145,0.23943084,-0.32840815,0.042313717,0.51578397,-0.61778325,0.24770577,0.43797767,0.00695657,-0.33298838,0.05172381,-0.28665972,-0.054668292,-0.009225696,-0.07187882,0.24055113,-0.21347773,-0.24912451,-0.47048306,-0.5799016,-0.06487723,-0.20029941,-0.45395297,-0.15267962,0.0005489141,-0.13386919,-0.69632745,-0.18863301,0.11202759,-0.3197894,0.048822664,-0.20327432,-0.35347164,0.3598921,-0.2040557,-0.13138151,-0.59715533,-0.17575063,-0.10165219,-0.28947052,-0.9235795,-0.012628268,-0.3564561,-0.58497924,0.095648125,-0.3121189,0.015819006,-0.19266146,0.16094296,-0.30052677,0.43550956,-0.12166562,-0.79188895,-0.029874235,0.23332807,0.061102763,0.110350735,-0.056107834,-6.3537555,-0.39620197,-0.15165266,-0.0551802,0.23032898,0.3809245,0.16424459,-0.39216274,0.4778011,-0.2620731,-0.3130578,0.12790513,0.10558196,-0.33085325,1.4269516,0.42164278,0.11621773,-0.3447492,0.4654957,0.67431766,0.017379485,0.28201923,-0.099209204,-0.30888712,0.13506135,-0.025177397,0.14636266,-0.30087268,-0.050789684,-0.12960485,0.5025165,0.20818162,0.12818533,0.59912485,-0.033270054,0.3676697,0.22626296,0.313724,-0.056491893,-0.20621355,0.13903065,0.8790091,-0.2773951,0.06028232,-0.44730312,0.25919113,0.2949736,0.273018,-0.1865415,-0.18247607,-0.2300466,-0.022432871,0.028488845,-0.047233205,-0.03952899,-0.39851618,-0.09662568,-0.28454182,0.3187863,0.4794232,0.36666423,-0.20299378,-0.15561223,0.07690634,-0.1766775,0.039524335,-0.4456153,0.18411423,0.08374728,-0.6151234,0.0412163,0.15417424,0.110255025,0.5185967,-0.10344496,0.057298254,-0.37032554,-0.54547757,0.02202785,-0.13107382,-0.09002553,0.31615016,0.28641295,0.5539983,-0.7138528,0.09250428,0.7804784,-0.16834244,-0.3148197,-0.71470964,-0.4173545,-0.12903036,-0.14677326,0.23765945,-0.1003006,0.6487432,0.34823942,-0.2633747,0.08099945,0.5810626,0.6154688,-0.024378851,0.34801948,0.27080312,-0.16899107,-0.039361477,-0.21114264,0.51107013,-0.5487007,0.21097669,0.61884415,0.26555946,-0.097118184,-0.13964167,-0.27848065,-0.2014575,-0.19514963,0.053029187,0.071131445,0.92376316,-0.47296718,-0.3689922,0.43020898,-0.2813717,-0.025447443,-0.355838,0.4886964,0.14435872,0.43360198,0.35141182,0.093817435,-0.7539989,0.56103104,-0.08102446,0.13463765,-0.020662561,0.22655955,-0.45636016,0.15469004,-0.016318575,-0.2831313,-0.5885549,0.25230017,0.0059465766,0.14469624,0.28310242,0.09802239,-0.18981919,-0.11703629,-0.42675534,0.45441133,0.04993819,-0.4558587,0.29332826,-0.060237274,-0.0036408603,-0.03374549,-0.15729415,-0.19774888,-0.18570572,-0.08461289,-0.28447357,0.19006471,0.16449624,-0.041386172,0.34037688,0.75914043,0.22164811,-0.24139875,-0.045281604,-0.39873874,-0.33346066,0.038693935,-0.034572884,-0.4119901,0.27589238,0.049443483,0.13346973,0.13873234,0.13062266,-0.13216045,0.122383766,-0.24809907,0.2975277,-0.36890098,-0.021187983,-0.25102878,-0.42362833,0.43645024,-0.14689857,0.87948555,-0.018521313,-0.16644756,0.4251747,-1.9807389,-0.31488115,0.10105659,-0.17040458,0.27194688,0.10474199,0.42971647,0.28144604,-0.36253545,0.4199505,-0.93585765,-0.045620188,0.46835667,-0.22948849,-0.26967224,-0.31577823,-0.27747738,0.1600452,0.28144366,0.054596014,0.34949425,0.74155146,0.2139355,0.1168654,-0.47811973,-0.057412207,0.87740064,-0.41191125,0.12888403,0.3957652,0.13559696,0.7891294,0.32243577,-0.6749006,0.22349095,1.9653366,0.07249621,-0.18259698,0.14837319,-0.19981138,0.026917264,-0.38098806,0.00018393248,-0.038905647,0.1507058,-0.03810873,0.020543844,-0.029031128,0.2309696,-0.056944877,0.28960413,0.059613198,-0.2518575,-0.40796655,0.17094518,0.41126582,-0.09068577,-0.29872322,0.16623685,-0.090605944,0.00041862577,0.15462425,0.18431705,0.029652461,-0.17408235,0.37667918,0.316842,-0.22261913,0.25403965,0.15461904,-0.31763428,-1.083593,0.2676799,0.20747176,-1.185704,0.052750446,-0.14908025,0.36641726,-1.6013627,-0.07314301,-0.6151321,1.4019144,1.0788355,-0.060621046,-0.27055216,-0.12199958,-0.46592999,-0.2152615,0.03206709,0.10581407,0.52328837,0.30603278,0.6449546,-0.036231115,0.18402056,-0.5355769,0.24283537,-0.47949398,0.36370936,-0.17038082,0.37437034,-0.54250914,-0.45930353,1.5845225,-0.03939508,-0.49546736,-0.15930949,0.08984609,-0.53447187,0.2483908,-0.17453733,-0.26509035,0.04946316,-0.73682576,0.3069943,0.05337827,0.76045275,-0.38902456,0.36540273,-0.4750395,-0.34590787,0.57965314,-0.14705953,-0.28792518,-0.29747915,0.17124146,-0.20061088,-0.46197498,-0.27046317,0.05419501,0.20564516,-0.13605976,-0.09613931,0.24550524,-0.3151683,-0.09852873,0.03230622,0.1913325,-0.10172647,-0.021557877,0.25398302,0.009093018,0.5116335,-0.31602257,0.12521997,0.2980557,0.6996491,-0.7941528,0.16631335,-0.23252809,-0.38604164,0.2034879,-0.38009003,0.23726648,-0.37015542,-0.113625646,-0.15996322,-0.00989151,-0.12072884,-0.24490653,-0.24384001,-0.14555238,-0.091581,-0.15959288,-0.27145678,-0.2133915,-0.112320885,0.16645262,-0.15941486,0.28900114,0.54387474,-0.186634,-0.4018497,-0.52663714,-0.19447185,-0.36825725,-0.056256823,0.28679746,0.1881864,-0.108426884,0.4755607,0.098991856,-0.35728633,-0.07296166,0.3507668,-0.08109206,0.071210556,-0.3222811,0.3292341,-0.18739086,-0.031693056,-0.1332074,0.5802094,-0.0094798505,0.42878702,-0.6545112,-0.16106519,0.5554762,0.45848143,0.09114827,-0.060552508,0.4683032,0.18736498,0.13244393,0.4003928,0.030845754,-0.25786042,-0.30317408,0.07686928,0.34406304,-0.15911758,0.108422674,-0.28477293,-0.24904555,0.7849095,-0.29940408,0.3015948,-0.16386007,0.057465993,0.02542165,0.017050527,0.10631153,0.37682658,-0.09700025,-0.32420674,-0.044114538
Europe_28.png,-0.2625386,0.55940616,-0.22462074,0.1239414,5.6266785e-05,0.059535936,-0.24774049,0.4580527,0.3548162,0.35163695,0.30945766,-0.25531146,1.0675607,-0.3554313,0.56751513,0.4825017,0.3600341,-0.20766044,0.23157549,-0.23201936,-1.5135173,0.060303718,-0.009789437,-0.09396124,-0.12433745,-0.021037057,-0.13479215,-0.33833054,-0.31808615,0.2580341,-0.35259664,0.34692934,-0.21756944,-0.4202077,-0.10695742,0.074097425,-0.10567352,0.062729344,0.46024096,0.70039237,-0.40874097,0.5471547,0.45456585,-0.24128841,-0.11578856,-1.7301718,-0.070211284,0.16057596,-0.049286634,0.041972756,0.19762132,0.12374631,0.034235507,0.05272808,0.46931964,0.013541646,0.1435601,-0.18560858,0.18756977,0.06663188,-0.6029301,0.21556222,0.058335952,0.0683267,-0.19170272,-0.5000874,-0.41705137,0.2532983,-0.18103303,-0.22203454,-0.5536167,-0.27884698,-0.48474124,0.19777763,-0.18558334,-0.06735268,-0.6990443,-0.5273745,-0.23168536,-0.3507189,-0.27414852,-0.2118235,0.12631023,0.34990948,0.2715505,-0.07472267,-0.34039062,-0.26783034,0.5165641,0.13024509,0.15905567,-0.37038362,-6.005518,0.23599291,-0.021648534,-0.11241298,-0.063753605,0.29378977,0.27262175,-0.78104407,0.32111526,0.3144254,-0.9423094,0.07411134,-0.14979368,0.05879973,0.3071864,-0.1107356,0.08434078,-0.30336183,0.2914453,0.13710774,-0.16230644,-0.17099325,0.27011672,-0.46531525,0.39981598,-0.2045413,0.14744692,-0.20003062,-0.040640555,0.3414724,0.019173574,0.06139308,0.23517406,0.34727055,-0.3084405,0.38015842,-0.042220026,0.60438615,0.09640554,-0.5192649,0.33680373,0.8500067,0.14330639,-0.1815548,-0.3620431,-0.09697054,0.49180782,-0.05291135,-0.34536856,-0.05326383,0.27006218,-0.27823913,-0.35524547,0.13065462,-0.23120853,0.008052334,-0.11424966,-0.11996872,-0.14336464,0.25493115,0.47295663,-0.1666488,-0.37982798,-0.2431069,0.37106317,-0.1929608,-0.28889182,0.13113448,0.05730802,-0.07278703,-0.08423805,-0.00077058375,-0.25998986,-0.030342467,0.347338,0.43912697,-0.12890846,-0.16451347,0.21206325,0.16228402,-0.079428166,-0.5041748,-0.040337745,0.036306083,-0.6354985,-0.23157209,0.24047688,-0.13962886,-0.39065138,-0.7521744,0.45711252,0.08883393,-0.24068835,-0.2377236,0.26262948,0.14956161,-0.12834123,-0.09111445,0.11231387,0.4638471,-0.073635146,0.40058225,0.14901006,0.76104796,-0.4677443,-0.17998229,-0.46146178,0.093205266,0.19023743,-0.12383009,0.22590925,-0.24360456,0.78333926,-0.30226454,-0.06344406,-0.5409513,-0.041944817,0.65454996,0.09620331,0.510401,-0.38891333,-0.12339138,0.6080439,-0.4083339,-0.14646581,0.5894449,0.41950935,-0.13845533,0.17219195,1.0206478,0.069232866,-0.69064623,0.48903677,0.19989413,0.23389387,-0.17553361,-0.17429113,-0.4844431,0.18341556,0.13996804,0.20485753,-0.35364097,-0.22005852,0.83593637,0.34720492,0.26704615,0.2723354,-0.40901405,0.08579703,-0.0025455356,0.6851639,-0.41968906,-0.3040499,-0.5035554,-0.028379515,-0.25407198,-0.22351314,-0.48876357,-0.42629308,-0.30397168,0.07272492,0.096423045,-0.08069299,-0.39879498,0.085025586,0.57234055,-0.54976034,0.15053976,-0.34549594,0.2088648,-0.5111947,0.58285654,0.02439621,0.34359378,-0.3070209,-0.23623963,0.0994034,0.07830605,0.47496384,-0.013056248,-0.40248877,0.52934533,-0.18855491,0.04531508,-0.34968653,-0.37663,-0.12802401,-0.23187639,0.7037724,0.5118191,0.38922867,0.21968985,0.13018404,0.40012914,-1.1918347,-0.08052003,0.072031885,-0.38116953,0.52042127,0.069106445,0.38480031,0.12475456,-0.06577425,0.37206948,-0.00643453,0.18832026,0.15044333,-0.28090703,-0.13830763,-0.4394765,-0.41187775,0.4763464,0.03761898,0.22459196,-0.20072329,0.55805033,0.15422727,0.21174113,-0.1701868,0.38020504,0.8474894,-0.28528172,-0.24243481,0.39689648,0.16631538,0.6155008,0.5633137,0.12790613,0.36169994,0.19911104,-0.27906778,0.2090753,-0.13330069,-0.102301374,0.15182638,0.02347121,-0.08306365,0.013408557,-0.09923059,-0.3260842,0.054798458,-0.11232442,0.12187316,0.10737282,0.49321258,0.19423285,0.18678522,0.062656686,0.40607047,0.09986588,-0.1504147,0.011907753,0.05499704,0.38568026,-0.15137929,0.29741853,-0.20086321,0.63933074,-0.39943594,0.0551871,0.39985192,-0.043353833,0.39555153,-0.42964932,0.022207312,-0.3996743,-0.013022423,0.02473248,-1.0300751,0.14819795,0.046517383,1.0190063,-0.39636782,-0.039718635,-0.31729013,0.70759803,0.35661632,-0.46460637,-0.23144251,0.37813595,-0.26184732,-0.1392248,-0.47237235,-0.072033435,1.2868246,0.30840218,-0.0041723847,-0.0469459,-0.018674463,-1.302502,-0.20312473,-0.5849344,0.13729239,-0.32666498,0.33503968,-0.32967293,-0.26022455,0.73934126,0.51580787,0.14995249,0.1602541,-0.048621595,-0.42019534,-0.03560199,-0.42312407,-0.18744105,0.33598483,-0.39566916,0.6963316,0.5257934,0.06243641,-0.5988879,0.39940414,-0.39501363,-0.24271962,0.15773755,0.05433689,-0.04254928,-0.3979548,0.076271534,-0.28528395,-0.19129291,-0.5141301,-0.063056424,0.32545125,-0.26250875,-0.24468714,-0.20065384,0.07269833,-0.2843956,0.35278788,0.16698077,-0.13296583,-0.33417207,0.228778,-0.07533949,-1.3494235,0.117137924,-0.1758485,-0.11981029,0.083973505,-0.30479965,0.0756181,-0.23910953,-0.289351,0.046487212,-0.1395663,0.22348833,0.31892556,0.10514184,0.020725355,-0.2788744,0.38150457,-0.2265309,-0.0067819767,-0.46059963,-0.19316816,0.18457589,-0.017319173,0.31839287,-0.013808139,-0.61629975,0.16742304,0.60229826,0.060162216,-0.45357022,-0.64858234,-0.8069705,-0.36940858,-0.3804437,0.42799038,-0.44499892,-0.1339438,-0.4244378,0.015915066,-0.02568359,-0.28270352,-0.04161434,0.013147209,0.106551096,-0.23137867,-0.6572966,0.38143468,0.18344297,-0.07406854,0.12081646,0.6100319,0.014975399,0.31842232,-0.29238528,-0.23612818,0.30155453,0.27169645,-0.25037345,-0.08835362,0.5486754,-0.23418196,-0.3729212,0.6859098,-0.168549,0.086750425,-0.6773718,-0.3383779,-0.3627879,0.021530267,0.29375955,-0.111460194,-0.059471846,0.022214973,-0.036058955,-0.15220048,-0.047154516,0.24440035,0.4008036,0.30980214,0.34677392,-0.18136847,0.30841973,-0.09007457,-0.5633974
Europe_21.png,0.046800494,0.29438847,-0.2556158,0.28317472,-0.19666658,-0.33788365,-0.35655457,0.32086062,0.0034775883,0.30460495,0.054304402,-0.07206954,0.5979507,-0.81872714,0.31862205,0.15314335,0.7454655,0.30294955,-0.03248839,0.21253625,-1.2649367,-0.001124844,-0.0055926293,-0.09521655,0.12166699,-0.0890412,0.107103735,-0.22433637,-0.061097547,-0.18071665,-0.5832743,-0.3159114,0.021437943,-0.17874828,-0.17138393,-0.39220315,-0.3372444,-0.23337933,0.26625037,0.17994113,-0.07218237,-0.03707874,-0.08967504,-0.26176283,0.14134446,-0.74442524,0.14139676,0.08653036,-0.15468884,-0.09413514,-0.2738913,-0.26165885,-0.46169415,-0.4802238,0.043937847,-0.3716774,-0.020698376,-0.084916726,-0.064736985,-0.19925338,-0.84521174,-0.15970984,-0.12506893,0.09004144,-0.48813748,-0.25060952,-0.28849414,0.71116644,-0.24089241,-0.32858402,-0.71984065,-0.48712426,-0.41710377,-0.019840956,-0.21250781,0.25786704,-0.36913556,-0.19336233,-0.099544086,0.30356902,0.34478563,-0.30835602,0.04553184,-0.046982557,0.3859572,0.36657402,-0.5659873,-0.3291381,0.67095256,0.4279698,0.1355457,0.018831909,-6.4766207,0.4021337,-0.1747191,0.08521517,-0.19980529,0.28812352,-0.18760586,-0.013188243,0.24717891,0.23498233,-0.2399867,0.071315505,-0.3145621,0.2170041,-0.41715977,0.39990726,0.29344422,-0.39856675,0.30678686,-0.036348555,-0.27685827,-0.1633146,0.42979005,-0.46080628,0.72772,0.35661912,0.18804647,-0.34917206,-0.13875458,-0.15494075,0.28069636,-0.042111337,-0.18016638,0.69397175,-0.014306068,0.39050812,0.3528313,0.582814,0.22337028,-0.121240124,-0.20305157,0.901774,-0.1121186,-0.5351795,-0.33443156,-0.17039348,0.5460299,0.3673448,-0.06624659,-0.1754097,0.5904361,-0.29114446,-0.2299884,-0.22250068,0.33522546,0.066876784,0.02533947,-0.7223222,-0.19767739,-0.11757274,0.438568,0.11223273,-0.13903372,-0.13225463,0.106492326,0.16746394,-0.2792247,0.12752795,0.0730016,-0.3221093,-0.09282252,0.029265068,0.0632903,0.8080317,0.22895995,-0.2909081,-0.08742659,-0.4410575,-0.047154948,0.029631428,0.06322508,-0.37982675,0.12615414,-0.4311726,-0.5754151,-0.4907233,0.86103886,0.16554894,-0.324441,-0.22988379,0.2865965,0.046963643,0.29323432,0.26844585,0.030199125,0.3655345,-0.0862506,-0.049008943,0.5708499,0.5783076,0.29156074,0.32669252,-0.26055473,0.09214935,-0.63112783,-0.6538825,-0.33582655,0.63321763,-0.089855924,-0.20102954,0.7202561,-0.042528108,0.040588737,-0.30142307,-0.22839028,-0.22142872,-0.21431302,0.2976509,-0.27723828,1.0425718,-0.30253822,0.022921264,0.5416291,-0.46265942,-0.67886007,0.026900057,0.3867563,0.44487417,0.35241997,0.46317106,-0.4009264,-0.6906698,0.26206332,0.25217557,0.46577173,-0.026894838,0.11561203,-0.4963215,0.030630317,-0.1672655,0.3906281,-1.0161934,-0.43005404,0.32132536,0.4478405,-0.07449565,0.018327251,-0.15084267,-0.19211593,-0.108518444,0.38863254,-0.1282936,-0.26074892,-0.5105097,0.16108885,0.4215542,0.015940085,-0.21575814,-0.034688406,-0.39222988,-0.22922106,0.01424965,-0.12281774,-0.42223072,-0.21993086,0.05456731,-0.029832631,0.21861008,0.06481311,-0.20023064,-0.59534323,-0.45469096,0.377502,0.38524854,-0.41346323,0.18682909,0.18768829,0.61133796,0.6981201,0.056077167,-0.5976936,-0.07868097,-0.036889642,0.14771834,-0.048937436,0.29957995,-0.0033081062,-0.4574794,0.45887098,0.38567626,0.5467346,0.22271103,-0.03206332,0.082819104,-1.035421,-0.31944525,0.16968606,-0.118354484,0.14529574,0.20556934,0.685864,0.12333989,-0.05675282,0.61335397,0.25204694,0.08484641,0.3271529,0.14427876,-0.03493277,-0.49371216,-0.1339522,0.54408187,0.03861825,0.14024572,-0.08296141,0.21797194,0.33061033,0.26906404,-0.1980549,0.11298137,0.90039814,-0.054404326,-0.21469851,0.9580751,0.2986074,0.73464715,0.23483436,-0.37288144,0.3427738,1.5001508,-0.56193876,0.15757877,0.28247398,-0.12505677,0.00036665797,-0.31789854,0.2727564,0.19810736,-0.14665225,-0.21086769,-0.122195326,-0.16902936,0.092064425,0.26774335,0.49274662,0.047861926,-0.10877396,-0.092971206,0.009873975,-0.17519318,-0.018768854,0.14553118,0.1751724,0.048499823,-0.078642935,0.38931456,0.07193719,0.33536464,0.1614485,0.2554927,0.088389814,-0.22527464,-0.1336959,0.58684903,-0.39674047,-0.3606798,-0.058400974,0.27796212,-1.2666618,-0.030613258,-0.0910171,0.41586757,-0.8746675,0.30116707,-0.6131943,1.133071,0.3868366,-0.31303716,0.004671037,-0.016072124,-0.5988371,0.1330854,-0.24768212,0.12333747,0.22399057,0.077506855,-0.27751732,0.04125666,-0.03339289,-0.79961747,0.12121764,-0.5842357,0.5774362,0.10622586,0.5013963,-0.32624984,-0.51185673,1.0503722,-0.26751137,-0.40935624,0.26631972,-0.11755091,0.024126053,0.19425574,-0.27375966,0.2852912,0.440246,-0.430537,-0.24195734,0.3676767,0.8169495,-0.26035967,0.037274532,-0.3680882,-0.056239672,0.3393057,0.108671874,-0.28628528,-0.5753096,0.13257647,-0.035703346,0.00047644973,0.30844373,0.10173549,-0.210265,-0.502959,-0.015926896,-0.5474897,-0.11340866,-0.47445494,-0.058619455,-0.041001767,-0.077240966,-0.17526013,0.42775485,-0.013801262,-0.91197836,0.15890014,-0.28531423,0.5877803,0.75042397,-0.2641508,0.30059853,-0.053177133,-0.1557214,-0.23346995,-0.04285547,0.036743965,-0.23022175,-0.15188952,0.07436528,0.063441664,0.17856658,-0.2784584,0.055210613,-0.07986741,0.16743653,0.10528444,-0.42531538,0.117390245,-0.5692046,0.17037658,-0.18406858,-0.0137626305,-0.21048263,-0.08118793,-0.40064585,0.03987175,-0.21065246,-0.47627717,0.047974437,-0.113166116,-0.019212455,0.1474714,0.53976905,-0.0016353708,0.023743618,0.2604938,0.20086282,0.15235314,0.244576,-0.21177164,0.4996815,-0.09946121,-0.1295831,-0.13835637,0.54740715,0.21044603,0.07197288,-0.33761585,-0.22823608,0.541233,0.17070346,-0.0006716326,0.048887752,0.62104976,0.24742123,-0.13280585,0.047544904,0.12547162,0.39664295,-0.5699679,0.17007796,-0.06847951,0.16591933,0.49124974,-0.13580881,-0.4544709,0.20007011,-0.12798853,0.2715056,-0.124338605,0.12525019,0.18532676,0.41379884,-0.13782352,-0.348693,0.36761388,-0.2583726,-0.52116525
Europe_16.png,-0.06410073,0.3161612,-0.2700901,0.03245394,0.042550415,-0.19038153,0.15105487,0.28750917,0.01744558,0.5773314,-0.069230996,-0.37760687,1.0908352,-0.22789119,0.6687818,0.22832152,0.77786285,0.13982701,-0.114184044,-0.078271754,-1.2805408,-0.072019696,-0.22750406,-0.18666469,-0.38666028,0.21799421,-0.103878245,0.17744213,-0.27454355,0.0033210814,-0.17894155,0.1299032,0.42809355,-0.31762117,-0.19896862,-0.13361186,-0.089937076,-0.049661573,-0.020473026,0.77396613,-0.17277037,0.5797642,0.35134104,-0.18338028,-0.19826283,-1.5577854,0.238093,0.011098906,0.2575299,-0.030106492,0.60659075,-0.045076475,0.11777118,-0.03708433,0.17334923,-0.0332916,-0.17213145,-0.036062285,-0.11353159,0.024326354,-1.6699398,0.087049864,0.18791555,0.35005525,-0.26596093,-0.30575442,-0.26515326,0.13740419,-0.073886484,-0.14220527,-0.45266503,-0.21672648,-0.33986145,0.2305137,0.07309436,-0.35940203,-0.286525,-0.48369992,-0.21050972,-0.5590715,-0.01450862,-0.19929525,0.17484528,0.16501097,0.17285599,-0.19178009,-0.40235838,-0.1585156,0.7158969,-0.061076336,0.28732944,-0.084088616,-6.188036,-0.03998798,0.2662913,-0.14985512,-0.07756877,0.26233876,0.32919776,-0.27899608,0.08727903,-0.2529842,-0.23640198,0.03929756,0.22762638,0.54907227,0.19257553,0.28698242,0.026265485,-0.47391456,0.125878,0.1788994,-0.3912846,-0.3717512,0.31895363,-0.49472612,-0.0018976703,0.41214696,0.35056233,-0.64567864,-0.19722517,0.2835121,0.28059027,-0.2745151,0.1643323,0.0784884,-0.22804114,0.36953261,0.17380674,0.07775601,-0.06426574,-0.6735087,0.18437141,0.844765,-0.29375318,0.20185862,-0.39867294,-0.15684013,0.12667105,0.2721725,0.0452222,-0.31123418,0.50574946,-0.20505784,-0.17870924,0.092301786,0.19162133,-0.2759706,-0.4495917,-0.22388467,-0.44328156,0.5606737,0.9309714,-0.12009418,-0.16432993,-0.3364814,0.16859874,-0.11739829,-0.81462306,0.26787308,0.23679097,-0.5824029,-0.02048739,0.086471334,0.046564303,0.08186808,0.61619663,0.65001374,0.28812295,-0.28274053,0.18712799,-0.043563165,0.12861104,-0.22390804,-0.051920354,-0.50143254,-0.80358446,0.07813226,1.068746,-0.3076582,-0.60030794,-0.89741886,0.024568856,0.15937369,-0.13526337,-0.2655686,0.038840666,-0.08858964,0.043869346,-0.14538187,0.52173865,0.3059554,-0.05058115,-0.015169151,-0.2027621,-0.043666355,-0.4044467,-0.1372591,-0.097351536,-0.12754044,-0.07525769,-0.0027257744,0.15629154,0.10470933,0.42654774,-0.573062,-0.17038944,-0.31234604,-0.0868725,0.037683964,0.25377628,0.5233784,-0.24649045,0.38685358,0.0027481094,-0.31440866,-0.14293447,0.4085356,0.87259954,-0.0006466992,-0.047068402,1.4178833,0.1088207,-0.30328187,0.1980564,0.5043886,0.15875484,-0.0339955,0.11063248,-0.30778524,0.2327903,0.11866167,-0.07646353,-0.49726528,-0.05444873,-0.009385169,0.49437636,0.48815584,0.36998737,-0.17092472,-0.13524106,-0.020566955,0.5205647,-0.4509431,-0.4259128,-0.259455,-0.1454148,-0.21843447,0.04568629,-0.25718346,-0.19071144,-0.07429589,-0.075371355,-0.21634144,0.11336847,0.29845634,-0.013912655,0.35043293,0.32525012,0.13702093,0.086728044,0.26987574,-0.020610545,1.3382283,-0.2703729,-0.28031924,0.097811885,-0.11837007,0.20660008,0.27409917,0.3400187,0.09057114,-0.11635049,0.31348968,0.2331388,-0.11391959,-0.32348958,-0.29816577,-0.013059698,-0.10012309,0.81720644,0.11784962,0.29725993,0.2083579,0.112309426,0.38758755,-1.0797379,0.16818444,0.07724854,0.005558029,0.23605058,0.13566205,0.30527925,-0.052426085,-0.08809885,0.61772764,0.089139044,0.11792317,0.41102868,-0.344894,-0.23561184,-0.46957707,-0.41495287,0.26897475,-0.04902972,0.15441462,-0.09869056,0.66652507,0.10670268,-0.20763302,-0.10497853,0.18056165,0.842707,-0.643455,0.07108161,0.06506541,0.5582087,0.7342861,0.4367974,-0.073243715,0.5871822,0.6636036,-0.040272206,-0.15895034,0.1698078,0.031362064,0.041014254,0.17934385,-0.04348336,0.0211588,0.0060228407,-0.25421482,0.23760334,-0.5566773,-0.15336493,0.0024635345,0.15505102,0.19126922,0.2618409,-0.14998776,0.47591,-0.4391963,-0.0074735135,-0.37580368,-0.21267954,0.30574548,-0.33647227,0.5299985,0.2720812,0.5641178,-0.23369087,-0.5158119,0.4741308,-0.29363984,0.12284175,-0.41308415,-0.08744781,-0.50036156,-0.05553685,-0.10366647,-0.7778004,-0.12315884,0.1272381,0.615756,-0.10740937,0.14081293,-0.09451109,0.7739673,0.44174832,-0.22198685,-0.25652742,0.19680698,-0.9832208,-0.05706474,-0.16011731,-0.18086453,1.3297284,0.1559604,-0.19415519,0.009315483,-0.009164661,-1.467448,-0.096068956,-1.0073596,0.18064229,-0.03321752,0.042850345,-0.12224748,-0.18973829,1.6965919,0.53937364,-0.062240064,-0.13204947,-0.08595223,-0.8397156,0.069803566,0.09085284,-0.2365973,0.25109416,-0.22834669,0.8718511,0.41043836,0.23635831,-0.20391588,0.017976664,-0.080716394,-0.4187036,-0.29166675,0.30051517,-0.3606543,-0.77079093,0.098720126,-0.103950925,-0.2464993,-0.31833738,0.103065,0.029370807,-0.1883145,-0.37119022,-0.48111224,0.12719473,-0.028476924,0.15761897,-0.021344349,-0.0688438,0.34576648,0.29647827,-0.06775369,-1.6470779,-0.2864929,-0.069863364,0.009474937,0.61275727,-0.1347881,0.060917884,-0.2511451,-0.19646701,-0.24337754,-0.17763011,0.45204297,0.2195282,0.35977766,-0.0035575554,0.33010003,0.4714767,-0.28853065,0.013189636,0.081303045,-0.04973884,0.52633727,-0.7133979,0.06637506,0.041452363,-0.22709875,-0.024036266,0.5105288,0.14187881,-0.37780383,-0.2939679,-0.4231276,-0.2880705,-0.33580792,0.06456117,-0.34328127,-0.40703782,-0.20887044,0.28031647,-0.1634278,-0.19103405,-0.27466202,0.117096916,0.16794905,0.007066682,-0.7912309,0.25627825,-0.024009392,0.16707163,-0.1751801,0.6961123,0.3233369,-0.12517035,-0.34537387,-0.2340572,-0.098800026,0.049023412,-0.22200039,-0.40036,0.28387225,0.2052209,-0.049407884,0.68710953,0.1535573,0.06541997,-0.7233279,0.22885504,-0.14921501,-0.17459121,0.12819605,-0.10715218,-0.28452417,0.04111918,-0.014356403,-0.0071016774,0.11446887,-0.24935964,0.119351715,0.13555375,0.18335646,-0.3082006,0.54401064,0.044631332,-0.51827663
Europe_36.png,0.03954107,0.31383473,-0.1312122,0.21766254,0.004962921,0.05911257,0.029853664,0.5021159,0.009332493,0.14804205,0.14590572,-0.2940817,0.5854486,-0.37888202,0.2882546,-0.15124285,0.030365571,-0.11033421,0.076481126,-0.0712364,-0.76900756,0.17807105,0.19108102,-0.18532762,-0.19625087,0.21376035,-0.32703602,0.13136093,-0.28108913,0.25334096,-0.76428425,-0.3308614,0.087356634,-0.09780368,-0.33881134,-0.16533136,-0.24650988,-0.42788896,0.18917191,0.5263895,-0.01487707,0.5860231,0.22240306,0.038436152,-0.038220264,-0.932603,-0.082756594,0.36528262,0.17290825,0.0018687788,0.17134425,-0.11059088,0.14562856,0.10206157,0.12824206,0.18724671,0.01958052,0.15106791,0.079454154,0.053260393,-1.6761179,0.2248891,-0.21560718,0.03830557,-0.517414,-0.10561368,-0.25822073,1.0618621,-0.07488616,0.24373142,-0.636054,-0.4257353,-0.48910403,0.121265054,-0.3692661,-0.31268612,-0.3604599,-0.613032,-0.09418698,-0.09572956,-0.07968585,-0.34384206,0.32442716,0.2509261,0.33541155,0.01871112,0.23854667,-0.33494234,0.47955042,-0.23414235,0.34925207,0.082641974,-6.7048583,0.60486555,-0.030770821,-0.067953244,-0.12676576,-0.005544819,-0.3073381,-0.8443955,-0.042942975,0.114058666,-0.62014997,0.17105605,-0.31874534,0.3186711,-0.16205394,-0.16959895,0.31581494,-0.34834686,0.2513518,0.102346934,-0.077141695,-0.09963537,0.27906978,-0.13844897,0.42758116,0.189823,0.28870898,-1.0624872,-0.089775935,-0.122980654,0.120524846,-0.369326,-0.14099103,0.29720598,-0.1404643,0.31561902,-0.110289544,0.50027204,-0.09504812,-0.38308337,0.14177465,0.8612174,0.12376574,-0.08211547,-0.19903404,-0.41086498,0.3357725,0.46515155,-0.11731179,-0.06502725,0.36375678,-0.20916514,-0.16003793,-0.15480441,0.19627172,-0.023911268,-0.055660702,-0.044875413,-0.18856198,0.25267243,0.32698643,0.13365775,-0.098839805,-0.30940908,0.3726997,-0.15689613,-0.53615344,0.5003999,0.24762347,-0.3236495,-0.029202193,-0.1676755,0.32870874,-0.14775142,0.73893464,0.35961634,0.10729566,-0.3422554,0.25630718,0.14639084,-0.28315014,-0.23470604,-0.11231561,0.11709991,-1.2939546,-0.13514116,0.6610424,0.07051006,-0.26697505,-0.85032713,0.27240637,0.06839205,-0.31681842,-0.41257125,-0.024567924,0.028974213,0.12698762,-0.0077998787,0.152093,0.48382223,-0.0024452657,0.08979076,-0.30933917,-0.0010802671,-0.44860283,-0.38369206,-0.22740597,-0.22934979,0.14316213,-0.16663752,0.3675107,0.16547756,0.62306076,-0.4188767,-0.290939,-0.09072866,0.060642067,0.3727471,-0.08601756,0.13822803,-0.18289492,0.2970034,0.32408482,-0.33044732,-0.37453985,0.37601778,0.43629104,-0.09903714,0.1791763,1.0235498,-0.10832901,-0.4827267,0.21647826,0.35673398,0.3957224,0.032898918,-0.4015481,-0.23408571,-0.14441027,0.46934968,0.45076883,-0.5075761,0.12059933,0.043628816,0.29382277,-0.07735886,0.08964535,-0.24970628,0.045854926,0.1820148,0.6550726,-0.2718442,-0.4917616,-0.5311957,-0.029681914,-0.29586142,-0.119613715,-0.17180948,-0.025519043,-0.1420514,0.06449476,-0.112827815,0.032626346,0.093889356,0.026123911,0.3471206,0.5283932,-0.15111095,0.08958394,0.30821306,-0.21794467,0.32865494,0.20082816,-0.1648965,-0.17449053,0.04323286,0.18789408,0.34946534,0.47668624,0.12520438,-0.12824619,0.29635885,-0.053477526,0.13387999,-0.2621221,-0.56884056,0.019081771,0.09195632,0.54111564,0.20168462,0.4048085,0.26699662,0.15992247,0.050447945,-1.2913904,0.16263509,0.112020604,-0.22308761,0.10552589,-0.14435248,0.4545145,-0.038658656,-0.06743161,0.37469864,0.3956828,0.19832245,0.103381075,0.096811436,-0.09613405,-0.21670878,-0.23735589,0.2865523,0.22598478,0.39053655,-0.01897832,0.43091178,0.24610193,-0.08708954,-0.16132776,0.45814556,0.85945404,-0.5474421,-0.032423563,0.6219091,0.4843922,0.47153234,0.2948345,-0.054129124,0.52619827,0.96716076,-0.23785321,-0.0647191,0.07760826,-0.23309796,0.31096402,0.13372406,0.12536073,0.08100973,-0.30315462,-0.36230594,-0.15035823,-0.03948465,-0.037796456,0.06266492,0.42144156,-0.17973913,0.24375173,-0.1701717,0.3704461,-0.28945023,0.111293636,-0.06138876,-0.17232311,0.17165107,-0.56303555,0.30356333,0.16839913,0.33673188,-0.08406575,-0.31923097,0.6374842,-0.10619587,-0.11412921,-0.51067024,0.1485639,-0.3133863,0.2095977,-0.013103195,-1.0618061,0.04937032,0.4086029,0.97057295,0.501612,0.24447194,-0.23219346,0.77513695,-0.0024056714,-0.27232528,0.04271769,0.39591816,-0.30502754,0.24319354,-0.25456268,-0.15892884,1.2901214,0.38676465,0.08457303,-0.16314772,0.14332847,-1.2270664,-0.08293389,-0.7826491,0.16639878,-0.13473284,-0.0014577359,-0.13219745,-0.38328108,1.1783639,0.7345791,0.24921733,-0.15675697,0.25297534,-0.551443,0.34680647,-0.09994686,-0.38959253,0.23608583,-0.095390804,0.7860062,0.43282536,0.099618025,-0.45545387,0.19926372,-0.5379284,-0.26462755,-0.32777888,-0.061559066,-0.7592504,-0.13274364,0.2766255,-0.108823,-0.3334177,-0.24547869,0.18762104,0.10489154,-0.4528227,-0.13995008,-0.33555245,0.0058262944,-0.2457194,0.37490985,-0.02256471,-0.25048974,0.28616923,0.02306988,-0.016975425,-2.0775661,-0.0009981096,0.017996833,-0.049164988,0.664096,-0.12533775,-0.1573067,-0.37392497,-0.11862076,0.14549091,-0.16875623,0.15705411,0.036927342,0.12984812,0.2841655,0.22153333,0.39874458,-0.20118439,0.06475839,-0.01414546,0.17738739,0.08696004,-0.3194127,0.035283267,0.08439085,-0.27274233,-0.30228454,0.47536057,0.07569295,-0.8025955,-0.15482832,-0.47695464,-0.12169794,-0.10020836,0.06190036,-0.51603556,0.06584858,-0.19652814,0.45573735,-0.20598522,-0.37063736,-0.1669413,0.31930584,0.2215187,-0.22015011,-0.737654,0.34264672,0.2000184,-0.050393343,0.019287527,0.7391753,0.04120466,0.050935984,-0.37970114,-0.09360249,0.27231717,0.22548734,-0.008755043,-0.17720339,0.1267364,-0.07677851,-0.22889072,0.7921717,0.086261675,-0.05139961,-0.73193747,-0.009863526,0.0102201495,0.020678759,0.24319005,-0.10947539,-0.06919631,0.32958132,0.0759671,0.045590438,0.083625704,0.03681992,0.5275188,0.1583342,0.07738343,0.0030736066,0.48626202,-0.03893636,-0.48309717
Europe_01.png,-0.318466,0.5404564,-0.16483012,0.30367476,-0.16098352,-0.22227436,-0.14152066,0.26790673,0.1791647,0.4522337,0.08564605,-0.22100016,0.6012936,-0.40470797,0.2447918,0.029571656,0.60644877,0.22689712,-0.09350846,-0.16083157,-1.0816592,0.26496264,0.15056464,-0.09144479,-0.06536315,0.07828568,0.110720344,-0.67069787,-0.2887438,0.2264176,-0.40921322,-0.17850138,0.36160097,-0.34560913,-0.4084461,0.1230987,-0.8292768,-0.034485415,-0.067069605,-0.04078582,-0.2152224,0.068944156,-0.2274152,-0.30095086,-0.042470176,-0.2566302,0.24014187,0.050453335,-0.14557953,-0.041828014,0.05159387,0.09711978,-0.11830294,-0.40017152,-0.1769375,-0.056256354,0.23756845,0.05416072,-0.0013662614,0.07798298,-0.24214879,0.0769608,-0.100007005,0.007688094,-0.5776597,-0.3503538,-0.22548571,0.70300764,-0.2748819,-0.2480687,-0.9602448,-0.32341927,-0.6344001,-0.2569002,-0.1598221,0.13198507,-0.6162512,-0.34835115,-0.1108585,0.09495644,0.07331254,-0.14562494,0.12437907,0.14372063,0.71006936,-0.038033,-0.17777875,-0.09743632,0.22548996,0.10520634,0.4023223,-0.07152885,-6.0331335,0.2628264,0.21149002,0.17847118,-0.1595277,0.26479647,0.24575016,-0.5117585,0.41770366,0.097975336,-0.11897753,0.2542486,-0.32268867,0.2728807,-0.7006619,0.37027317,0.39781132,-0.35541612,0.29778242,-0.13979,-0.2991727,-0.1989499,0.52217686,-0.28303576,0.50648254,0.25671744,0.07056263,-0.30494046,-0.023278061,-0.12091553,0.25238156,0.32627472,0.05778165,0.816113,0.10482843,0.37571198,0.18521847,0.8820669,0.15881078,-0.38120848,0.20332351,0.88107806,0.09483812,-0.2610622,-0.21243484,-0.24837944,0.5856603,0.0731821,0.00849013,0.103211895,0.5181319,-0.2742395,-0.44765237,-0.0020903833,0.15280858,0.23023155,0.013526831,-0.24956508,0.3154524,0.19643475,0.25220686,-0.37269756,-0.4154352,0.05314941,0.28441486,0.25747564,-0.40030363,0.35125303,-0.0023288205,-0.19852786,-0.08645943,0.059684575,-0.24709576,0.66219884,0.15715131,-0.04114747,-0.21302998,-0.19924743,0.3010102,0.057513148,-0.41783467,-0.32650292,0.24623206,0.12480989,-0.3710066,-0.2362395,0.25429812,-0.09997903,-0.270623,-0.521608,0.65324855,0.026393969,0.18676576,0.050732665,0.08409304,0.30361313,0.25651738,-0.08727585,0.1490001,0.35397583,0.6118142,0.34010547,-0.16241068,0.2754337,-0.6411102,-0.92215896,-0.18989012,0.6650152,0.14364985,-0.1572607,0.5413768,-0.016451545,0.4311748,-0.13024373,-0.17932992,-0.3506447,0.13893548,0.45730388,-0.17292261,0.96914715,-0.41432822,-0.15494657,0.25261307,-0.30332905,-0.33896577,0.2052739,0.1364993,0.03882336,0.37588602,0.31597868,0.025180563,-0.5814211,0.500785,0.18647079,0.4214587,-0.27071208,0.20116442,-0.36099127,0.5743791,0.05139844,0.5851391,-0.5599141,0.021257252,0.54398566,0.47736895,-0.15231982,0.16583708,0.17573231,-0.07104162,-0.19002697,0.32188937,-0.43974924,-0.32269782,0.06858306,-0.09133156,-0.08095059,-0.33091477,-0.10459493,-0.21321847,-0.49155855,-0.09761247,0.018975765,-0.1813808,-0.15889564,-0.5664618,-0.11140035,-0.99375606,0.06707964,-0.13234591,-0.023470338,-0.6468607,0.28327155,0.46547008,0.5331775,-0.26604697,0.040317297,0.17483123,0.43481272,0.9171921,-0.14990662,-0.20436564,0.09358918,-0.26465142,0.18751866,0.04379896,0.2782984,-0.014975987,0.031286694,0.54252803,0.471358,0.51359886,0.25017065,-0.24944949,-0.025706448,-0.22238725,-0.45519674,0.42735645,-0.1871995,0.25901973,0.04503928,0.66102123,0.21654658,0.026738312,0.45747215,0.14487883,0.0782735,0.34918946,0.017215624,-0.28765786,-0.5087474,-0.22521949,0.35440087,0.22066884,-0.17848982,0.13336201,0.54931104,0.23342085,0.07531041,-0.25254616,0.09800641,0.8799559,-0.2188155,0.00725396,0.793304,0.23279658,0.39079863,0.31397235,-0.07699233,0.17971925,1.4742777,-0.23597416,-0.15303287,0.3027475,-0.09757162,0.077432215,-0.23193514,0.026332311,0.06657502,-0.074645475,-0.34974042,0.1007976,-0.0357975,0.14059734,0.4177106,0.44396952,0.36561865,0.010948427,-0.010678284,0.25996318,0.04948692,-0.094595835,0.37088627,0.17164199,0.23487177,-0.34655362,0.17476986,-0.009062214,0.50355756,-0.35572764,0.006130226,0.2027898,-0.57881457,-0.047727548,0.37715656,-0.27950683,0.31204987,0.20660065,0.07953315,-1.274678,-0.06434761,-0.08236583,0.37850726,-1.0754478,-0.018501535,-0.14248177,0.89655316,0.4187647,-0.31957105,0.07861222,0.41458678,-0.42889982,0.1416809,-0.33968574,0.16577879,0.76101756,0.04721172,0.09240657,-0.21258785,0.28932965,-0.91566235,-0.20696679,-0.5174182,0.43477076,-0.03991139,-0.002942577,-0.14546783,-0.3467187,1.494948,-0.25542703,-0.3177688,0.47533992,0.32577452,-0.38434756,0.19012009,-0.43671185,0.0060549453,0.66150004,-0.6610035,0.018308625,0.19588315,0.17956017,-0.6944629,0.4045518,-0.40386873,-0.11346905,0.1491032,0.30622566,-0.14546306,-0.48384157,0.17240866,-0.30273494,-0.122467756,-0.07716202,0.14995599,-0.20268433,-0.5511708,-0.059520997,-0.28909868,0.12846455,-0.39224464,0.27602342,0.25796974,0.21415663,-0.24226096,0.40571353,0.045505986,-1.1049134,0.05473721,-0.11736266,0.03383725,0.32860273,-0.5228634,-0.06889063,-0.022184908,-0.17526057,-0.15182438,0.29056194,0.13273644,-0.21633388,-0.111641556,0.063558914,0.2526467,0.39798486,-0.5580189,-0.12088855,-0.35787275,0.31831694,-0.08295939,-0.26712108,0.39777625,-0.06225601,-0.25657126,-0.35485864,0.16302809,0.08649329,-0.09563583,-0.55341834,-0.7965819,-0.115941785,-0.5517837,0.22822928,-0.19414753,0.16067332,0.2944341,0.3210922,-0.0071548074,0.035467442,-0.0821252,0.5257369,-0.086985655,-0.05772981,-0.29175156,0.7216744,0.11681799,-0.24491191,0.016500175,0.2134561,0.091728605,0.06242609,-0.400068,-0.29934287,0.5773732,0.39723593,0.13374197,-0.18450972,0.44772026,-0.25585347,-0.12538563,0.5283965,-0.34685975,0.32396865,-0.70681167,0.055387452,-0.29174453,0.2103163,0.3941388,-0.10988097,-0.3833183,0.1622169,-0.055491276,0.013876218,-0.0879843,-0.012292493,0.048359394,0.45442474,-0.1142554,-0.06254189,0.23923391,-0.6376839,-0.4064151
Europe_33.png,-0.08150419,0.4682873,-0.50856763,0.36988917,0.019118547,-0.14920758,0.2883883,0.31985462,-0.07204047,0.29137543,0.12247538,-0.338108,0.6609354,-0.14218615,0.63696694,0.11289178,0.7371756,-0.16341244,-0.07092053,0.017827384,-1.5055727,-0.17133728,0.032064863,0.089816645,-0.08341832,0.26555923,0.1267224,0.02722837,-0.24717864,0.12930618,-0.5526935,-0.17888138,-0.18016627,-0.48141113,-0.16064437,-0.00020892918,-0.09788206,0.00856969,0.30077654,0.20474496,-0.3689527,0.54638016,0.27600104,-0.2286649,0.11915201,-1.0411518,-0.24227113,0.03489402,0.24967822,0.2093322,0.24859536,-0.0005527884,0.11268993,-0.10088836,0.24318075,0.05059916,0.052364826,0.007622473,-0.0133369565,0.26475275,-1.1155071,-0.016738378,0.13826914,0.32979238,-0.47209287,-0.245637,-0.44487432,0.29452485,-0.4072262,-0.2479924,-0.39506355,-0.0046080016,-0.2605515,-0.073158346,-0.38347954,-0.26301068,-0.47792715,-0.399689,-0.20984125,-0.3857856,-0.053639434,-0.03901568,0.13520356,0.17290734,0.40675628,0.012888119,-1.0872033,-0.20819566,0.4523246,-0.13051945,0.45188755,-0.1285655,-5.947692,0.4240828,0.0352194,-0.36316517,0.11366197,0.20857078,0.5210018,-0.35580614,0.26873487,0.008749485,-0.2804785,-0.24844582,-0.15634167,0.3357916,-0.32591346,0.20156859,0.19677714,-0.29105017,0.2634273,0.12595117,-0.26850918,-0.20991147,0.6253507,-0.44836605,0.08801697,-0.009282239,0.12446954,-0.5861363,-0.33882773,0.3955699,0.19185954,0.015561089,0.025071308,0.5608449,-0.25057328,0.2861307,0.10084611,0.6754582,0.10071018,-0.4669912,0.42898163,0.87406576,-0.19949797,0.038124084,-0.42661887,0.023702804,0.5624689,0.00987801,-0.087804675,-0.17764978,0.30137265,-0.24560553,-0.19268726,0.09151037,0.114200905,0.11212319,-0.13450204,-0.32413194,0.12641212,0.23937872,0.6602286,-0.28951213,-0.38891608,-0.16351669,0.20818779,-0.053032868,-0.55747783,0.45704448,0.3305023,-0.2778931,0.23322336,0.14952192,0.09763205,0.31238204,0.6971724,0.30461037,-0.29378343,-0.452797,0.21618831,-0.11412581,0.0692976,-0.19395643,-0.20879242,-0.059699267,-1.0305854,0.15670969,0.6246924,-0.3047034,-0.59593874,-1.0331221,0.21591374,0.0023271888,0.102116615,-0.1932927,-0.16826865,0.195532,0.09849882,0.12367937,0.19827875,0.40148643,0.10570653,-0.024045765,-0.12207259,0.21961525,-0.38855764,-0.40104446,-0.18620595,0.19559067,-0.13363929,0.032981835,0.13859743,0.19413519,0.58699036,-0.40481922,-0.26359987,-0.50534534,-0.20286545,0.11643472,0.41024318,0.502318,-0.4399473,-0.013782822,0.28582525,-0.48754823,-0.47937047,0.21841568,0.95120263,0.064149454,-0.052972287,1.5504234,0.07231256,-0.79703283,0.46286896,0.26050752,0.26536733,0.21061786,-0.056866497,-0.234152,0.07956146,0.14271915,0.010657076,-0.6655653,-0.16494577,0.22404319,0.18165344,0.2923518,0.028882913,-0.12436316,-0.16403124,-0.022186402,0.5597553,-0.22718054,-0.3615514,-0.190997,-0.16274306,0.086914524,-0.14911088,-0.042032838,-0.22759533,-0.40207887,0.13607197,-0.16563621,-0.2694314,-0.048277102,-0.07679562,0.6355152,-0.35612762,0.002311863,0.081109755,0.15069264,-0.65938914,0.25660294,0.029858135,0.23530695,-0.19460274,0.06766796,0.33644974,0.55744433,0.21907102,-0.006334817,-0.23995969,0.18549281,0.057471946,-0.014746189,-0.39164317,-0.41847426,-0.023584887,-0.33730948,0.6212491,0.4082172,0.38193926,0.15595037,-0.04416199,0.21560265,-0.74632573,-0.057216406,0.062681556,-0.18766062,0.43360558,-0.036307216,0.39373535,0.15802214,-0.03013485,0.6367583,-0.09728141,0.30139694,0.05578509,-0.1643852,-0.028996632,-0.2850003,-0.49059537,0.19297858,-0.12756884,0.09506258,0.16102594,0.67397493,-0.034164473,0.36272198,-0.11793703,0.16297993,0.8716011,-0.58573115,0.14337629,0.23280115,0.21179146,0.9192451,0.41194084,-0.08539468,0.39666528,0.57948387,-0.22581765,-0.036078252,0.25185022,0.040874474,0.03759478,0.13136962,0.16211638,-0.047547877,0.036448196,0.03229642,-0.018819068,-0.23475234,0.1006144,0.03206881,0.6036379,0.105886176,0.051757388,0.018166363,0.19598189,0.2928469,-0.19311032,-0.2155906,-0.11467481,0.18913563,-0.2588883,0.36736113,0.022909002,0.6930771,-0.4842876,-0.19660407,0.41849506,-0.26471946,0.1984844,-0.21793674,-0.04185226,-0.30556977,-0.044031233,-0.1294041,-1.1619502,0.13218608,-0.04290532,0.5806652,-0.5618451,-0.018513534,-0.39739344,1.1282512,0.5758396,-0.34820625,-0.076776765,0.3880394,-0.81012666,0.06920662,-0.37153712,-0.04080113,1.1378355,0.1776716,0.04858701,-0.09627389,-0.007871825,-1.6237316,-0.41208386,-0.7887714,0.27278706,-0.21059121,-0.1493595,-0.30698186,-0.20043407,0.6472746,0.4311092,0.12573914,-0.001580745,0.008086339,-0.40004182,0.2640173,-0.45439708,-0.15048403,0.31176138,-0.3001804,0.43745187,0.44787878,0.34759763,-0.64824694,0.39254206,-0.5318337,-0.54257596,0.07169055,-0.1389266,-0.09367634,-0.42815962,0.24915907,-0.50735205,-0.21009246,-0.013943389,-0.36745614,0.2397325,-0.32618415,-0.31721038,-0.12426174,-0.45747447,0.120707765,0.4002612,0.10534911,-0.2588194,-0.3280779,0.5458085,-0.31354603,-0.8709091,-0.076762766,0.085063234,0.14937267,0.46861577,-0.53737843,-0.42770642,-0.044115543,-0.34477365,-0.28527358,-0.01881136,0.27994636,-0.02815595,0.15502013,-0.024656907,0.4101776,0.13569242,-0.43281043,0.1819519,-0.11219415,0.104141414,0.34395885,-0.2957265,0.09297572,0.05538383,-0.4031918,-0.30142167,0.40768355,0.2510594,-0.5212865,-0.5955315,-0.3574906,-0.13978177,-0.42717513,-0.006699972,-0.2808624,-0.04643274,-0.07396372,0.31731576,-0.020088658,-0.4523297,-0.13484803,0.3575762,0.19231914,0.034531444,-0.7239319,0.22677186,0.0012672432,-0.20837115,-0.10377346,0.4227262,0.0586432,0.21169843,-0.48432493,-0.15991597,0.14703797,0.3948831,-0.3033281,-0.49288395,0.52619076,0.07578554,0.041941665,0.5085713,-0.12053885,0.06222727,-0.81672454,0.15113714,-0.20073497,0.05544755,0.3171059,-0.28743532,-0.092234164,0.20814249,-0.11725163,0.05122889,-0.068347216,-0.19426437,0.4590029,0.0694112,0.048889212,-0.17156515,0.37601623,-0.1736811,-0.5439286
Europe_34.png,-0.25453007,0.6840578,0.18045746,-0.11842556,0.028997302,-0.013313778,-0.32807404,0.2302262,0.19996485,0.24290131,0.4562622,0.01995276,0.6985514,-0.6681966,0.09837192,0.040949065,-0.05868319,0.40604162,0.31495968,-0.19439358,-0.8753888,0.15209581,0.17433399,0.2893845,0.36454087,0.2853079,0.21063635,-0.6156357,0.09470993,0.00061652437,-0.3262416,-0.31816626,-0.49342093,-0.09079149,-0.34291607,-0.03757397,-0.39158338,-0.30079472,-0.052345797,0.79765594,-0.014459161,0.2692178,0.28885126,-0.08735098,-0.4500272,-1.1482055,-0.0139686465,-0.03171213,-0.12399822,0.28755537,-0.0701289,0.5565667,-0.15378554,-0.46675795,0.06870727,0.1567068,-0.28300166,-0.31397468,-0.34505635,-0.1205681,-0.89358103,-0.09820793,-0.049786896,0.21763532,-0.21941471,0.0149513,-0.15056577,0.07693371,-0.008042142,-0.21002504,-0.51469934,0.040981386,-0.5165745,-0.18896547,0.00052199495,-0.21864824,-0.45932114,-0.625373,-0.44355533,0.48027968,0.3138687,-0.2746508,-0.104637474,-0.09515926,0.21465427,0.1542601,-0.14134577,-0.19505061,0.097866386,0.058298886,0.11026454,-0.10485406,-6.3088284,0.3092529,0.22825946,-0.24235258,-0.42710513,0.23565416,0.19077788,0.08514328,0.027214587,-0.0949842,-0.29667252,0.33861887,-0.23426291,0.42277777,-0.469585,-0.19664681,0.4186245,-0.12116429,0.41506267,-0.26594228,-0.4015278,-0.23381907,0.19775625,-0.70655984,0.20574602,0.30864206,0.066773444,-0.493097,0.12767875,-0.26435223,0.045332473,-0.314116,-0.25292554,0.41330034,-0.114940636,0.3029831,-0.049864188,0.34170988,0.10102565,-0.44414696,0.06717304,0.89692223,0.12615533,-0.22016409,-0.43370503,-0.13462947,0.5753401,0.19855188,0.08806539,0.0103927255,0.4326824,-0.0792502,-0.28497237,0.16493279,-0.11327627,0.4244474,-0.024695225,-0.21550009,-0.32191804,0.13845068,-0.049839757,-0.39964437,0.1068427,-0.02217938,0.12512393,0.20482504,-0.28517398,0.43967378,0.12446411,-0.38994008,-0.3038249,0.23515224,-0.19783404,0.3715928,0.085531786,0.1273382,0.071684785,-0.54505605,0.53690964,0.30477872,-0.016083691,-0.3273105,-0.13997953,-0.52367866,-1.0041035,-0.22315155,-0.40699202,0.04036963,-0.02922669,-0.17060766,0.6408606,0.42710787,0.1023338,-0.0028794482,0.10883364,-0.10321911,-0.12539244,-0.14252166,-0.08111173,0.48560032,0.3176414,0.26768836,-0.11341694,0.30812228,-0.32433122,-0.07336229,-0.31194127,0.5302451,0.44241485,-0.11433091,0.60066473,0.28939888,0.7630516,-0.17029949,0.05504468,0.04648573,-0.2992623,0.5048373,-0.00080477446,1.0576584,-0.50103664,-0.14074762,0.2762073,-0.4386668,-0.37921774,0.14357239,0.09940408,0.32295513,0.21020848,0.36420032,-0.34908897,-0.55570346,0.27191582,0.26017004,0.11058954,-0.43855983,-0.3128778,-0.2488901,0.20239286,0.19698739,-0.06187278,-0.13300286,-0.20808747,0.5328646,0.40946728,-0.02045349,-0.23099911,-0.18575913,0.18409958,0.15743944,0.362148,-0.22460222,-0.28797308,-0.87717843,0.104563385,0.11259139,-0.16697954,-0.0500992,-0.30150166,-0.006075233,-0.0046078786,0.21075551,-0.24477668,-0.11563154,-0.18174979,-0.28120992,-0.16825607,0.62006927,0.3815112,0.031212188,-0.54020244,-0.021390734,0.7463443,-0.25184876,-0.11420791,-0.049754858,0.16889551,0.2509589,0.5298177,-0.1295852,-0.0365002,-0.12991694,0.36479217,0.024117678,-0.4415027,0.23136202,-0.14082408,-0.110295966,0.27576745,0.7422744,0.3378031,0.23657975,0.1815963,-0.35915685,-0.1931201,-0.64334685,0.016090944,-0.33168602,0.2847361,0.1306176,0.6517587,0.09241761,-0.16051507,0.38210702,0.13086501,0.028162535,0.122758344,0.1732353,-0.23208155,-0.37897205,-0.20241952,0.4077263,-0.053978063,-0.052810825,-0.34281403,0.38022736,0.39834633,-0.28130037,0.30728242,0.31250113,0.8952726,0.18355943,-0.10976285,0.1576617,0.7935897,0.65681875,-0.20369636,-0.309202,0.6231278,1.4717994,-0.25018933,0.020427704,0.4268373,0.058282062,0.11024149,-0.20999578,0.032177925,0.23712455,-0.24524267,0.016054261,-0.023975052,-0.16424012,-0.13223404,0.09792685,0.38240713,-0.013398074,0.55437785,0.13847974,0.07037253,-0.4026151,-0.43431485,0.4144925,0.22846669,0.41671965,-0.17403716,0.34691256,0.25953963,0.15959541,0.06723402,-0.13572772,-0.11227484,0.05727635,-0.38724163,-0.6420846,-0.15480095,-0.045244187,0.33772743,0.1809213,-0.42128652,0.0001269728,0.13112703,0.48269564,-0.8278557,0.13802302,-0.25622752,0.7945014,0.43892857,0.12849191,0.01363793,0.23746951,0.01726769,-0.08401011,0.1791534,-0.37651148,0.6293618,-0.02198191,-0.15985487,-0.15075362,-0.025851443,-1.0814075,-0.19136274,-0.59862715,0.59467715,0.26850736,0.2722501,0.19122711,-0.42232946,1.3496752,0.36973324,-0.14946869,0.041867796,-0.46269464,-0.4703378,-0.02161102,-0.3932329,0.33115518,0.6672051,0.036910847,0.13700706,0.05770433,0.86818963,-0.275444,-0.13964605,-0.5291663,-0.14526805,0.1552363,0.3840981,-0.38297147,-0.47736913,0.18258852,-0.34145343,-0.014750987,-0.05430539,0.0960363,0.11187139,-0.3445692,-0.47950178,-0.4649491,-0.35546362,-0.456504,0.35793924,0.057544738,-0.028533943,0.23698734,0.18087035,-0.3319631,-1.1052713,0.050066695,0.0063349977,0.43477982,0.8286029,-0.15070364,-0.019900776,0.31929952,-0.06509203,-0.0022273464,0.023748556,-0.22607772,-0.34851912,0.102422535,0.2223382,0.08864178,0.13317716,-0.1916704,0.080616385,-0.5590172,0.20562547,0.14936915,-0.51291037,0.3389414,-0.31517252,-0.5781919,0.16439843,-0.043069303,0.25940546,-0.1407954,-0.4218467,-0.4125935,-0.3088705,-0.38734257,-0.08600026,-0.16826135,0.14752607,-0.11665047,0.6550858,-0.07487829,-0.043982394,0.51349366,0.09588056,0.40780908,0.007924251,-0.33574045,0.14932495,-0.1712535,-0.4812425,0.33300817,0.5639448,0.2689075,0.075727716,-0.06937641,0.01092612,0.008047119,0.24156034,-0.10061416,-0.42458606,-0.06635091,-0.04770658,-0.4252546,-0.14546666,-0.16002753,0.26584554,-0.71112853,-0.0029652491,-0.38949475,0.033630293,0.45998108,-0.002759762,-0.3488805,0.19112058,-0.057204586,0.30045858,-0.19396836,0.69366074,-0.22744107,0.43254596,-0.18666863,-0.14319767,0.5373231,0.07270544,-0.20940417
Europe_27.png,0.13620777,0.45909697,-0.49934012,0.16922507,-0.011243254,-0.35575804,0.018536022,0.5400868,0.0802878,0.29218483,0.067619346,-0.35463256,0.6948922,-0.38141882,0.37236458,-0.018313318,0.33818185,0.28597596,-0.13683951,-0.10425854,-1.0697228,0.072960295,-0.08180843,-0.122792006,-0.20947206,-0.008956015,0.1392895,-0.021669552,0.0057119653,0.015112013,-0.4608471,0.016090997,-0.17717126,-0.6410787,-0.44785392,0.030586973,-0.3048421,-0.1317339,0.1422199,0.67067564,-0.27505922,0.58455193,0.63538426,0.010763913,-0.025374398,-1.4640892,0.16160232,-0.012091398,-0.24601528,-0.05488059,0.27954897,-0.17540029,0.2237299,-0.07588387,0.3550228,0.17495345,0.008098185,-0.35203403,0.111652374,-0.120324016,-1.4283627,0.24378881,0.07965035,0.01035071,-0.27370173,-0.48150325,0.019882374,0.008660793,0.03292379,-0.16666341,-0.46568355,-0.18488434,-0.35811973,0.2402884,-0.0992199,-0.24907401,-0.53766006,-0.62161535,-0.2721507,-0.36494327,-0.03166818,-0.06758208,0.20914786,-0.041709468,0.3232299,0.027165733,-0.16980885,-0.3217677,0.74786305,0.076374546,0.30478936,0.16608866,-6.209185,0.24256356,-0.037711438,-0.28399384,-0.21008633,0.025340252,0.6098494,-0.18424824,0.03560018,-0.36595502,-0.62305146,0.06589119,-0.25862396,0.20613995,-0.05456531,0.2716987,-0.020685399,-0.2999087,0.1347169,0.21788633,-0.30746385,-0.15485974,0.30818766,-0.5568882,0.29429436,0.30302805,-0.029654346,-0.7004518,-0.0044970773,0.34738383,0.3757835,-0.16422804,0.2683159,0.31531826,-0.25069803,0.4426024,-0.18591787,0.41972828,-0.032205343,-0.6211156,0.19343607,0.83095944,-0.3322535,-0.043828413,-0.32054892,-0.09032207,0.6569383,0.4127713,0.081382796,0.13623197,0.5828371,-0.07855299,-0.07855745,0.30454123,0.05677341,-0.17846224,-0.16155769,-0.22498491,-0.35384902,0.18628752,0.6548981,-0.017338514,-0.08071783,-0.30065012,0.21455492,0.057073966,-0.7043605,0.39049694,0.1781093,-0.28458765,0.072262794,0.34272307,0.23471725,0.31481415,0.70835626,0.37836942,-0.21003886,-0.57525575,0.30971202,-0.032557175,0.27472687,-0.4006793,-0.31243116,-0.3139606,-1.1461219,0.13527983,0.6829077,-0.047028773,-0.33913437,-0.607588,0.28475744,0.06592263,-0.07072268,-0.20045935,-0.050882548,0.11223863,-0.2055347,-0.21538419,0.57177186,0.41286474,-0.11618362,0.057279274,-0.30406082,0.34621298,-0.4402698,-0.10123211,-0.39275646,-0.18024403,-0.1987476,-0.0731839,0.38157701,-0.25635645,0.3713355,-0.2607165,-0.004553914,-0.049814194,-0.082394294,0.37371123,-0.056210566,0.48149115,-0.17141043,0.045268226,-0.00090028066,-0.33687115,-0.40867227,0.40646887,0.8447429,0.07809334,-0.020180777,1.123957,-0.1566372,-0.42193803,0.3154909,0.30231225,0.26483268,-0.1354064,0.06436738,-0.19814216,-0.048857793,-0.0034081638,0.05359725,-0.33069748,-0.53237855,0.044011503,0.47964224,0.36730784,0.19550608,-0.029084325,-0.041807503,0.017709315,0.8282603,-0.25704,-0.30687875,-0.6493548,-0.123051204,-0.26439664,-0.24804384,-0.28533304,-0.24690804,-0.17166705,-0.054006353,-0.16265243,-0.14503221,-0.08153593,0.13291961,0.35044444,0.06514168,0.20616183,-0.13449177,-0.012002863,-0.4661963,0.4993036,0.11537424,0.05342725,-0.056335807,-0.29160336,0.35008848,0.37503296,0.46980837,-0.0017818063,0.058303595,0.3860458,0.27240586,0.11498624,-0.18821444,-0.23111098,0.06544446,-0.33668303,0.58033496,0.0049796402,0.3822832,0.24144934,0.22221765,-0.05053432,-1.1980655,0.032555304,0.10035959,-0.14410318,0.4312326,0.119229436,0.3431773,0.14148924,-0.3336932,0.634531,-0.27125737,0.21823184,0.3113696,-0.03254773,-0.07284486,-0.4951235,-0.41961575,0.12425144,0.1988073,-0.027157523,-0.15277027,0.60027564,0.14150766,0.13885857,-0.17263398,0.1748569,0.8292747,-0.48396897,-0.19639449,0.111852214,0.3926158,0.5500879,0.4736912,-0.16695216,0.58844423,0.7524495,-0.23452678,0.0120956,0.050154485,0.15359437,0.425677,0.08607355,0.13836159,-0.029377878,0.07240449,-0.38589078,-0.15323406,-0.14548764,0.023679424,-0.06415242,0.6139889,-0.12127252,0.21122724,-0.02002433,0.4526291,-0.14731203,0.22787905,0.055214066,0.07901667,0.3579619,-0.087591365,0.36784118,-0.022684079,0.4042033,-0.25770605,0.13570264,0.1552126,-0.23010425,0.053382374,-0.24376601,0.15400344,-0.70852685,0.15656048,0.00083883107,-0.9656697,0.081908315,-0.19663703,0.66906744,-0.07910964,-0.033856705,-0.3139411,0.93664986,0.4004004,-0.40885487,0.1766554,0.17998543,-0.3400524,-0.17492326,-0.23830576,0.05586718,1.2584034,0.2859987,0.23026052,-0.049643416,-0.027751341,-1.3873165,0.12420719,-0.82703924,-0.030148253,-0.2015266,0.01720053,-0.14875999,-0.20420337,1.4256302,0.6382495,0.056169584,0.014052704,0.1336788,-0.76488775,0.030099683,-0.047470137,-0.18593904,0.407934,-0.18158999,0.58651423,0.35889214,0.51933193,-0.36837184,0.11998093,-0.3225257,-0.35348058,-0.12663323,0.025805898,-0.536634,-0.56323826,-0.015304599,-0.4738016,-0.3595314,-0.2019989,0.041260466,0.40229362,-0.1626592,-0.24482429,-0.3535663,-0.03811367,-0.4528859,0.33054996,-0.11762454,-0.16853055,0.14496219,0.16905132,-0.23856758,-1.5430975,-0.11282707,0.013544276,0.07666378,0.6364492,-0.5172323,-0.3607016,-0.05220507,-0.36755997,-0.18145546,-0.11986527,0.28190023,0.2296477,0.2810772,-0.05409342,0.08703247,0.4269366,-0.2927186,0.1231822,-0.24417096,0.109438755,0.5135577,-0.34761256,0.3091252,0.29055735,-0.14486936,0.13275298,0.5278038,0.26600227,-0.6397717,-0.50253,-0.2362937,-0.20577455,-0.29662454,0.12224379,-0.4057638,-0.051686555,-0.6381008,0.5002189,-0.0026525408,-0.45598263,0.07856694,0.11414082,0.14253433,-0.1744886,-0.7808604,0.6461302,-0.13383378,-0.004251927,-0.2384642,0.6560714,0.2676738,0.23125923,-0.25317657,-0.042293742,0.18546174,-0.006447819,-0.38578996,-0.21786974,0.12869264,0.12525849,-0.31396922,0.7009687,-0.11147934,0.1637075,-0.80510646,-0.12004647,-0.2727469,0.11212815,0.3544545,-0.020228386,0.031592637,-0.0791768,-0.074106485,-0.037724674,-0.2975677,0.15230116,-0.04315771,0.2954469,0.1379827,-0.054595698,0.4068549,-0.048402295,-0.48676682
Europe_17.png,0.08978266,0.5523221,-0.11829213,0.032396063,-0.09213632,-0.15702096,-0.17347163,0.20657769,0.5273774,0.5676242,0.2729099,-0.30123922,0.5857831,-0.31254297,0.39419708,0.12482062,0.94304407,-0.021538734,-0.042776514,-0.13096529,-1.4666575,0.26608044,-0.13471678,-0.03306976,0.04671683,-0.00061538815,0.18122436,-0.1437215,0.16305006,-0.07384384,-0.27811107,-0.16868313,-0.08045095,-0.33846915,-0.42403406,0.06649503,-0.5501536,0.11023816,-0.019456882,0.31019935,-0.2735447,0.39955404,0.22806875,0.103567004,0.06844297,-1.2986797,0.53764015,0.39368597,-0.057448566,0.14470369,0.12840927,-0.24038106,0.027414175,-0.29867238,0.020523757,-0.19984312,0.08424987,-0.17815867,-0.13895717,0.07883279,-0.53733516,0.33579016,0.10392451,0.18827233,-0.30077583,-0.33599368,-0.35006857,0.7599138,-0.29880306,-0.57559645,-0.3607074,-0.3708548,-0.4573837,0.25254726,-0.03847219,-0.23147973,-0.49124682,-0.3666457,-0.12370443,0.21037696,-0.040975228,-0.29436505,-0.109052956,0.09465662,0.18453477,-0.08430371,0.02578184,-0.26134694,0.53175527,0.2571345,0.2018916,-0.0069003534,-6.2938523,0.25596744,-0.075076975,-0.15190929,-0.31241173,0.22398931,0.07759318,-0.1468046,0.28614175,0.02710323,-0.2330843,0.01760003,-0.46531367,0.19976781,0.090178356,0.37310776,0.1333826,0.09412645,0.08272888,0.0048639923,-0.70152473,-0.17184433,0.33597326,-0.36599082,0.7040293,0.43717545,0.1567573,-0.62232625,-0.17563087,0.019015491,0.054481953,0.0040297806,0.19051741,0.23884502,-0.39455378,0.4975471,-0.19110797,0.7138282,0.35581377,-0.34154245,0.15503484,0.8538767,-0.17485023,-0.3437096,-0.24968594,-0.30220503,0.77259755,0.3184805,-0.050320297,0.07721825,0.11430099,-0.07455205,-0.030914888,0.19752772,-0.4231818,0.085259125,0.248783,-0.3754054,-0.07175304,0.028813574,0.9838033,-0.32766166,-0.33396208,-0.059154134,0.7205779,0.21756992,-0.35645857,0.31036338,0.23511207,-0.4226969,-0.18393604,0.18740231,-0.021911642,0.5915508,-0.5097359,0.37115416,-0.39862832,-0.14913201,0.393574,0.26331598,-0.06640148,-0.59098786,0.14337257,-0.1900885,-0.77850175,-0.009611413,0.32705554,0.0696182,-0.032294862,-0.708538,0.32833955,0.05316767,0.10042873,0.14242601,0.26065385,0.09214606,-0.19614697,-0.22233367,0.19771783,0.36378288,0.2329714,0.15697648,-0.544218,0.56284493,-0.44498983,-0.49612984,0.28805715,0.014448166,0.14447515,-0.38387954,0.63786674,0.06916392,0.7273336,-0.20508243,-0.2802669,0.071798,-0.060590684,0.21756782,0.17731449,0.9447548,-0.14206083,-0.021740258,0.473606,-0.29594517,-0.2099606,0.44443232,0.842165,-0.046125654,0.27173105,0.39971328,-0.3618649,-0.6770414,0.24215044,0.40437526,0.37319702,-0.25241485,-0.14337945,-0.4280062,0.061445564,-0.1736632,0.12601396,-0.7112924,-0.2684388,0.20903729,0.30203545,0.116955385,0.11241004,-0.0006152466,-0.179578,-0.29247093,1.0150461,-0.1584517,-0.046388023,-0.49507,-0.021573912,-0.12709251,-0.164783,0.04296231,-0.3723907,-0.34276098,-0.22110435,-0.12308136,-0.27685654,0.049619727,0.1736478,0.36597863,-0.27247426,0.23891234,-0.35630202,-0.2551909,-0.83480275,-0.17286886,0.1022297,0.36262977,-0.06455906,0.22767161,0.24033618,0.23048347,0.16622454,-0.10241021,-0.21435806,0.024367958,-0.086083844,0.078337364,-0.4188626,-0.14870709,0.0077754855,-0.21285143,0.62769604,0.33367723,0.4595426,0.37807095,0.19475347,-0.044473734,-1.3464937,-0.018274337,0.14352223,-0.28387007,0.43983763,0.117641166,0.69591004,-0.068921685,-0.32476613,0.48472217,0.056346014,0.054191742,0.24176322,-0.06534397,-0.16649576,-0.6961728,-0.2665329,0.63233066,0.12508085,0.034162328,-0.07637735,0.6656051,0.3942061,0.09546994,-0.74917996,0.015667558,0.85249895,-0.08280372,-0.27284777,0.48752403,0.3138601,0.5944576,0.2847631,-0.10671385,0.5554639,1.5610842,0.053111695,0.020992015,-0.20226488,-0.118158214,-0.0046748966,-0.14782344,0.11432786,0.02879271,0.118929505,-0.1849905,-0.29189312,-0.417053,0.15971717,0.17045231,0.58489776,-0.08341846,0.09464175,-0.11457684,0.12392627,0.07265268,-0.19624373,0.34070677,0.6024917,0.29856113,-0.23001929,0.29105136,0.13166805,0.57457733,0.013456471,0.25190714,0.27780485,-0.33475575,0.027019918,-0.015810817,-0.23984508,-0.48410234,0.10371569,0.16451493,-0.8799891,0.16496068,0.036538407,0.3876074,-0.5978446,0.10647716,-0.50305426,0.57428527,0.5585059,-0.20914006,0.103262186,0.10695626,-0.2374438,0.20574874,-0.31804323,0.35222322,0.526144,-0.013998091,-0.16713265,-0.10614471,-0.07062197,-0.8250308,0.123922825,-0.30550057,0.2845226,0.030567065,0.3301223,-0.13535714,-0.73515034,0.7395816,0.32247066,-0.045379505,0.047739834,0.2051379,-0.40636697,-0.03702722,-0.06762989,0.043851107,0.44672048,-0.5259929,0.39213926,0.47261763,0.8294945,-0.48131967,0.32075998,-0.35341868,-0.2745365,0.09191193,0.08314813,-0.43275926,-0.57529104,0.16704808,-0.34225953,-0.27379978,-0.18124795,-0.20015293,-0.05320418,-0.20694774,-0.20031182,-0.61839193,-0.118863836,-0.33176443,0.31671906,-0.0015670657,-0.11565738,0.18970309,0.4019816,0.107675314,-1.3263346,0.17695221,-0.3342776,0.31796002,0.8899231,-0.39480102,0.016337618,-0.006271735,-0.27497104,-0.3893557,-0.077632435,0.051259656,0.115998656,0.2577784,-0.24042949,-0.23687994,0.18332547,-0.38989812,0.28777304,-0.5879312,0.2654629,0.43583333,-0.280707,0.23233882,-0.21784595,-0.19643764,0.08478542,0.24594642,0.29872894,-0.27195132,-0.540519,-0.31536385,-0.27722698,-0.3215316,-0.003815543,0.014886647,-0.073712364,0.035235353,0.61380863,0.33277106,-0.2137694,0.20970151,0.45825997,-0.11787477,-0.14178237,-0.6020747,0.7145341,0.08340517,-0.16568926,-0.09844373,0.63716364,-0.048759684,0.1663048,-0.20984904,0.15804185,0.27078357,0.4396879,-0.017242923,-0.28014225,0.30869746,0.107094035,-0.29638845,0.5206341,-0.50403094,0.3915333,-0.7981301,0.2333979,-0.39897057,0.17526174,0.46279532,-0.13406408,-0.035116404,0.24295029,-0.12365204,0.19010362,-0.4448534,0.54087454,0.07021597,0.44521588,-0.019089088,-0.46935424,0.3793816,-0.22949712,-0.49436715
