,0,1,2,3,4,5,6,7,8,9,10,11,12,13,14,15,16,17,18,19,20,21,22,23,24,25,26,27,28,29,30,31,32,33,34,35,36,37,38,39,40,41,42,43,44,45,46,47,48,49,50,51,52,53,54,55,56,57,58,59,60,61,62,63,64,65,66,67,68,69,70,71,72,73,74,75,76,77,78,79,80,81,82,83,84,85,86,87,88,89,90,91,92,93,94,95,96,97,98,99,100,101,102,103,104,105,106,107,108,109,110,111,112,113,114,115,116,117,118,119,120,121,122,123,124,125,126,127,128,129,130,131,132,133,134,135,136,137,138,139,140,141,142,143,144,145,146,147,148,149,150,151,152,153,154,155,156,157,158,159,160,161,162,163,164,165,166,167,168,169,170,171,172,173,174,175,176,177,178,179,180,181,182,183,184,185,186,187,188,189,190,191,192,193,194,195,196,197,198,199,200,201,202,203,204,205,206,207,208,209,210,211,212,213,214,215,216,217,218,219,220,221,222,223,224,225,226,227,228,229,230,231,232,233,234,235,236,237,238,239,240,241,242,243,244,245,246,247,248,249,250,251,252,253,254,255,256,257,258,259,260,261,262,263,264,265,266,267,268,269,270,271,272,273,274,275,276,277,278,279,280,281,282,283,284,285,286,287,288,289,290,291,292,293,294,295,296,297,298,299,300,301,302,303,304,305,306,307,308,309,310,311,312,313,314,315,316,317,318,319,320,321,322,323,324,325,326,327,328,329,330,331,332,333,334,335,336,337,338,339,340,341,342,343,344,345,346,347,348,349,350,351,352,353,354,355,356,357,358,359,360,361,362,363,364,365,366,367,368,369,370,371,372,373,374,375,376,377,378,379,380,381,382,383,384,385,386,387,388,389,390,391,392,393,394,395,396,397,398,399,400,401,402,403,404,405,406,407,408,409,410,411,412,413,414,415,416,417,418,419,420,421,422,423,424,425,426,427,428,429,430,431,432,433,434,435,436,437,438,439,440,441,442,443,444,445,446,447,448,449,450,451,452,453,454,455,456,457,458,459,460,461,462,463,464,465,466,467,468,469,470,471,472,473,474,475,476,477,478,479,480,481,482,483,484,485,486,487,488,489,490,491,492,493,494,495,496,497,498,499,500,501,502,503,504,505,506,507,508,509,510,511
Oceania_11.png,-0.6697832,0.16677955,0.11014635,-0.010291092,0.095566496,-0.25149792,0.21006516,0.3475025,0.53368723,-0.052100547,-0.011250321,-0.15308322,1.0623786,0.17677484,0.26787156,-0.23576923,0.66539943,0.36447015,-0.13338698,-0.6049521,-1.8775885,0.108733,-0.07436242,-0.15736637,-0.061856523,-0.15329751,0.09960066,-0.14213532,-0.4341402,0.33782828,0.00082000345,-0.23881231,-0.10180187,-0.14982235,-0.2529538,-0.33001047,0.078848146,-0.0008294359,0.117171146,-0.23512739,-0.380992,-0.11848402,0.30303958,0.1352261,-0.18397206,-0.32419765,0.7476715,0.3587047,0.21046434,0.3027041,0.12279599,0.24546874,-0.09869113,-0.20776585,0.5116364,0.22179116,0.50834405,0.027195811,-0.04477206,0.26832736,-0.6460125,0.20107281,-0.1329495,-0.030803412,-0.5573157,0.3251118,-0.11679484,1.1287982,0.047734197,-0.19277868,0.23408127,-0.461399,-0.38833427,0.45973158,-0.17677692,0.572096,-0.73473424,-0.5361301,0.25184453,0.22861484,0.050164044,-0.22924244,0.25435084,0.06488848,-0.016616382,0.09602194,-0.9374411,-0.029587429,0.6510896,0.05399055,-0.25635225,-0.19713712,-6.2708497,0.7601311,0.2911956,0.0883676,0.42913234,0.21920645,0.5655891,0.8882973,-0.26578075,-0.021328732,-0.34229004,-0.21844605,-0.20313811,-0.1629037,-0.76211935,0.078743055,0.32962814,-0.22620289,0.50528234,-0.17701295,0.16678146,-0.52188253,0.1083355,-0.12776265,-0.13354021,0.3332383,0.06757539,-0.545062,-0.029770857,0.2992772,0.29921275,0.3234614,-0.2831268,0.5268167,-0.33814752,0.28684658,-0.18345952,0.124627784,-0.037767977,0.08724059,0.10174305,0.8740102,-0.2484433,-0.17974612,-0.49309313,-0.21350273,-0.19004163,0.21059015,0.14809729,-0.086397514,-0.21716677,-0.09471565,-0.38257512,0.23419079,-0.12682411,0.19352326,0.19389473,0.009167928,-0.30532864,0.21838035,0.43947092,-0.20309225,-0.56879646,-0.056374192,-0.2397925,-0.12896156,0.28436747,0.29741406,-0.051605046,-0.6175503,0.1873337,0.0920703,0.04054609,0.71066666,0.48065382,-0.27958968,-0.3140847,-0.2617588,-0.19669577,-0.11145157,-0.44648498,-0.7995435,0.07449785,0.0941264,-0.28753048,-0.15077847,0.44190258,0.2663254,-0.3149657,-0.418894,0.36810094,-0.833381,-0.17212026,0.0241177,0.21525948,0.43397272,0.16126089,-0.13188,0.26191336,0.13208188,0.37153023,0.43459627,0.39893043,-0.17996591,-0.3735469,0.31000817,-0.92548275,0.11924517,0.08684953,-0.4178747,-0.012881085,0.35465276,0.14931971,-0.055847447,-0.22646698,-0.027549773,0.26785982,-0.013955936,0.30599475,0.18486518,-0.1554034,0.2431447,0.0036058426,-0.5446044,-0.24683623,-0.018305048,0.16575769,-0.19169953,0.40867177,0.44607455,-0.015292253,-0.2810514,0.449103,0.49316484,0.053225674,-0.293901,-0.07332994,-0.04827781,0.031202253,-0.2886367,0.27109128,-0.47667065,-0.06631239,0.24420154,0.111332305,-0.07768946,0.17294058,-0.056863174,0.15426002,0.23823129,0.36311904,-0.19551565,-0.17441854,-0.047091417,-0.13780083,0.53699815,0.007135609,0.018881626,0.12567827,-0.20445704,-0.22439806,0.22987546,0.1175625,-0.33235222,-0.42966703,0.37505397,-0.07091071,0.05137483,0.19142146,-0.057614423,-0.030464869,0.37160578,0.009788074,0.17421472,0.012236744,0.03713122,0.4814446,0.40256155,0.19914103,0.13518102,-0.36844045,-0.2502528,-0.07845012,0.32788688,0.2858547,0.06316804,-0.15154356,-0.14107208,0.4222619,0.16061535,0.24108207,0.2489664,-0.41659755,0.5393545,0.9262026,-0.20085809,0.24658084,0.18504909,0.19310689,-0.28657547,0.3162555,0.099336855,-0.30418572,0.3930493,0.19921067,0.0011704415,0.20999259,-0.01433444,-0.24900629,0.1911126,-0.5570976,0.53400064,0.28758633,0.3663612,0.062358677,0.13323404,0.35320133,-0.0032146312,-0.062201075,0.14376944,0.87220657,0.051451676,0.077569515,0.817773,0.20506316,0.88325745,-0.14085208,0.35824347,0.83131653,1.5627675,0.008926608,-0.35810968,-0.20024692,-0.20169231,-0.23889665,-0.6262937,-0.29851636,0.040786326,0.07218018,0.29879308,-0.4879527,-0.39007035,-0.075206794,-0.2276963,0.07231861,-0.13061775,0.24644025,0.15862486,0.32186687,-0.13625091,0.05517543,-0.017376006,0.30397034,-0.3571715,-0.06398931,-0.3157042,-0.18487674,0.11960646,0.32693803,0.09626272,0.28241,0.25993454,0.03411557,-0.14039032,-0.051327422,0.84247124,-0.17103349,0.23036292,-1.1366618,-0.01744748,-0.23895112,0.6145108,-1.3071796,-0.33519867,-0.13012281,0.55657285,0.19897693,-0.19827488,-0.053621903,0.29351732,0.23874868,-0.3191326,-0.62517387,0.29183757,-0.14308591,0.38345304,-0.5300132,0.13501161,0.083016805,-0.8300159,0.21950626,-0.2504684,-0.19734724,0.096052825,0.27286437,-0.5832658,-0.51611,0.86319745,0.4688978,-0.00664033,-0.12680116,-0.09937739,0.42605177,0.2472363,-0.13784572,0.120246485,0.20165142,-0.526453,0.58857185,-0.2329232,0.06988772,-0.70289445,-0.2987968,-0.18000226,-0.17633614,0.39345324,0.092190415,-0.39049768,0.13444129,0.21778189,-0.013363317,0.37750527,0.1409146,0.04989536,0.10360004,0.42490235,-0.17580569,-0.028423686,-0.20136556,0.63796246,0.3373788,-0.06884741,0.1359989,-0.17411259,0.16976957,-0.28975412,-0.9798492,-0.33754957,-0.121425554,0.30482858,0.7822673,-0.07450339,-0.085423596,-0.2497896,-0.41275823,-0.13452621,-0.11877249,0.064040236,0.2589814,-0.18127128,-0.19819061,-0.21301277,0.4877468,0.18564302,-0.07703267,-0.27164537,-0.23278466,0.07668939,-0.4010505,-0.26143628,-0.1889707,-0.35712504,0.114314035,-0.050636455,-0.4156897,-0.18701416,-0.08470764,-0.39257163,0.01998673,0.34914428,-0.2602743,-0.2749573,0.0149253495,-0.4259405,-0.07950272,0.22739896,-0.36723533,-0.15723482,0.35860494,0.5476165,0.18025723,-0.3620332,-0.45085967,0.22438651,0.18256168,0.21406043,0.290158,-0.60577965,-0.10735698,-0.68235743,-0.17078103,-0.32608655,-0.18844487,-0.07205504,-0.43713725,0.03598207,0.2927892,-0.021867752,-0.48703888,-0.23532264,0.07311021,-0.3958526,-0.26661277,0.24526909,-0.039026514,-0.16913138,-0.029406596,-0.2555612,-0.019970037,-0.07625984,-0.44395143,0.37262446,0.3197157,0.15071446,0.9042219,-0.50039977,-0.1370663,0.74624646,0.33298624,-0.29560578
Oceania_14.png,-0.30732784,0.19283754,0.024524506,0.13667753,-0.21897475,-0.19509284,0.031266566,0.24592665,0.061443962,-0.101478934,0.15333422,-0.2700507,0.022442743,-0.18345723,0.1878824,-0.059037194,0.19177033,0.3873144,-0.15777686,-0.36901262,-2.277096,0.2824533,0.20664889,-0.13646369,-0.17438638,0.019803286,0.008566968,0.08093985,-0.048735797,0.30345982,-0.41450956,-0.27280238,-0.025635675,-0.123712465,-0.23331802,-0.23265532,-0.25628513,-0.07301616,-0.048389785,1.1665804,-0.37700817,-0.54135513,0.5484392,0.025739145,0.12258231,-1.0658265,0.7837333,0.36195987,0.13288839,-0.009984046,0.4219836,0.09217635,-0.2429831,-0.7602483,0.34183356,0.1577026,0.5099145,-0.31195712,-0.3733956,-0.47043315,-0.5988425,-0.023949333,0.014675736,-0.0883518,-0.10657631,0.31220815,0.08305411,1.1252785,0.040340535,0.027139124,-0.21531461,-0.42398724,-0.6484937,0.48515415,-0.30964118,-0.02457726,-0.6925067,-0.7926887,0.16931067,0.24753025,0.15525886,-0.22606389,-0.403878,0.22957894,0.08892266,0.017492205,0.21274525,-0.22461504,-0.14039397,0.1353974,0.2884103,-0.21887182,-5.626289,0.08076173,-0.6770519,0.08738686,0.1598525,0.124969006,0.8728922,0.27206957,0.10913535,0.24730542,-0.35706893,-0.050521784,-0.27329874,0.31180233,0.3557541,0.10953004,0.43053126,-0.15501973,0.42663783,0.10457373,-0.13259687,-0.37039796,0.14379394,-0.20299545,0.3438744,-0.008599092,-0.36234576,-0.6673984,-0.033111006,0.33812836,0.19780779,0.34576285,0.18174955,-0.1381139,0.11029793,-0.3114513,-0.62594247,0.7283894,0.04169681,-0.55452406,0.011040285,0.7938428,-0.3491118,-0.30211315,-0.76922005,-0.02477412,-0.015727937,0.17039685,-0.0031086933,0.15664017,0.51752806,0.25967628,-0.30469245,0.15301868,-0.19873853,-0.12884688,0.25771186,0.04193633,-0.42739475,0.40616727,0.27190357,-0.39876992,-0.3674353,-0.49535322,-0.045786276,0.1903245,-0.012966737,0.16420752,0.19194268,-0.5219541,-0.020228628,0.18686599,-0.020529281,0.08677934,0.7822259,-0.04323758,-0.040901966,-0.1449073,0.15900773,-0.024126079,-0.052658923,-0.25638846,-0.36392492,0.047831833,-0.9822283,-0.0048735365,0.39435267,0.30676994,-0.08269921,-0.5269473,0.09988883,-0.32788384,-0.241092,-0.05542112,0.203105,-0.15228097,0.17594914,-0.09122809,0.15396976,0.72374153,0.73946875,0.111909054,0.10078479,0.2310994,-0.2957254,0.23881756,-0.6120022,-0.31579632,0.083749086,-0.27642316,0.110968046,0.28901193,0.39585298,-0.34171653,-0.07091087,0.4144815,0.06003207,0.4018622,-0.024013579,0.25002265,0.085039705,0.1160139,0.23518312,-0.6656134,0.08395675,0.4489135,-0.26111448,-0.72800756,0.66116863,0.44507232,-0.072478436,-0.5348816,0.18512475,0.0827087,-0.01855576,-0.16361918,-0.22144796,-0.13066347,0.042484492,-0.075624146,-0.026417477,0.19395481,-0.36313546,0.36966679,0.52220947,-0.34282923,-0.34031248,0.23434475,0.040907443,0.49268526,0.48927742,-0.62935895,-0.41281927,0.057988122,0.28322312,0.08145058,-0.5105477,0.086109094,-0.013347335,0.19233789,0.059391946,0.18762891,-0.36161047,-0.026383221,-0.16829693,-0.034308374,0.5854117,-0.15889978,-0.23137608,0.6150022,0.21682571,1.2519569,0.16738066,0.23854972,-0.11713274,-0.0030735284,0.10839313,0.47758198,0.51172656,0.11403299,0.09002577,0.120976076,-0.14095241,0.20621601,0.26590163,-0.19107585,-0.09160581,-0.072480366,0.6087595,-0.12173472,0.24336019,0.47757068,-0.12682508,0.03302872,-0.36360592,-0.2507321,0.3672545,0.0855861,-0.23701066,-0.15102209,0.77499056,-0.004937321,-0.3346627,0.3126534,0.20742406,0.3299585,0.39048886,-0.005520195,-0.37544462,0.05681959,-0.18218897,0.054443993,-0.10872024,0.06361744,0.032605454,-0.055216994,0.37904966,-0.2629098,-0.13788177,-0.101668105,0.79193795,-0.45541546,0.20293197,0.3551076,0.45897433,0.5184226,0.102214225,0.432333,0.5753295,1.1113375,-0.17146473,-0.10914914,0.16917662,-0.2524674,0.32228336,-0.31014878,-0.10276337,-0.029641792,0.23564309,-0.33699122,-0.008975372,-0.31535977,-0.31290287,-0.045205202,0.31478798,-0.39481142,0.40207976,-0.036883928,0.26418233,-0.2908824,-0.31869087,-0.019033886,0.12156305,-0.36735395,-0.19125667,-0.34488434,0.457523,0.2723093,0.14447476,-0.135022,0.32560295,0.11554621,-0.3815413,-0.29252934,-0.2426468,0.79136354,-0.17700034,0.47148168,-1.1280528,-0.07419337,0.16013438,0.4653208,-1.01316,0.27315134,-0.22832803,0.0548985,0.42086583,0.080021575,-0.22878478,0.15388891,0.2942069,-0.062187348,-0.69818497,0.37129408,0.818139,0.40585458,-0.67212987,-0.08629614,-0.3649393,-0.7280466,-0.17930222,0.042784717,-0.046129197,0.035433754,0.3013438,-0.1436762,-0.6619412,1.3418101,0.4765417,0.5061544,-0.02264665,0.23387153,-0.5145913,0.1420421,-0.26479644,-0.030061819,0.14790174,0.15652123,0.25626093,-0.07656816,0.26269048,-0.114739954,-0.20299472,0.41969323,-0.13682997,0.36706975,0.13451622,-0.12860307,-0.036994204,-0.052669182,-0.23118675,0.17832097,-0.11590603,0.008999392,-0.15168744,-0.4143771,-0.123335004,0.06012772,-0.09105413,0.17892775,0.06280185,-0.13161735,-0.04219555,0.25371414,-0.46991682,-0.21739858,-1.177168,0.16665727,-0.47552237,0.6266096,1.3982708,-0.3763223,0.39793706,0.119636305,-0.28653553,-0.46888342,-0.28518233,0.11859225,0.21388108,0.07904227,0.25119862,0.028347552,0.3558027,0.034949005,-0.00431031,0.11172905,-0.23831336,0.15007809,-0.53623873,-0.07398758,-0.19790399,-0.07396165,-0.023572922,0.14175706,0.03804324,-0.2755817,-0.08597994,-0.10513473,-0.08628398,0.086813524,0.21891144,-0.3233824,0.098618716,-0.5374764,0.1318961,-0.23503904,0.10871336,-0.1309059,0.18488717,0.83204836,0.040649578,-0.76712745,0.11821573,0.027487464,-0.06667815,0.18029442,0.4849015,-0.252483,0.10273695,-0.14818728,-0.14729618,0.13889489,0.19597991,-0.15880811,-0.041908957,0.2390259,-0.024672363,-0.351439,0.24660286,-0.275028,0.2746302,-0.6977173,-0.06647925,-0.2437106,0.4362617,-0.024206966,0.14257133,0.008676276,0.28947935,-0.16410126,-0.051540725,0.3392345,0.5236656,-0.03186533,0.71950376,0.09906782,-0.038157076,0.6981524,-0.26884297,-0.17386326
Oceania_26.png,-0.1378081,0.50555426,0.08712652,0.3496421,-0.19991371,-0.1019249,0.21011147,-0.026906013,0.25425142,-0.24085438,0.6116786,-0.01812967,-0.043685168,0.16269322,0.09987065,0.014435023,0.968781,-0.013614766,0.08775991,-0.11933413,-1.8696746,0.15380542,-0.3376583,-0.3590357,0.5414426,0.012254164,-0.16326433,0.12380248,-0.08827769,0.4393167,-0.31559363,0.07945867,-0.31276175,0.073795415,-0.17351803,0.18410903,0.3088513,-0.21851027,0.053696737,0.25480655,-0.5331779,-0.26294544,0.22017847,0.28843534,-0.24410313,-0.82977176,0.17808236,0.62381464,0.22026783,0.032634094,-0.31413868,0.20426582,-0.4328122,-0.35118344,-0.25254935,0.14808296,0.6807754,-0.16925704,-0.05878424,0.024712,-0.37391457,0.56188834,-0.34505996,-0.19855401,-0.34125412,0.20373198,0.060080685,1.3155887,-0.117359705,-0.11206493,-0.26038063,-0.59780866,-0.41822892,0.4055295,-0.28561914,0.07151892,-0.54901695,-0.6714966,-0.10361028,0.4641282,-0.14158896,-0.6057992,-0.45473433,0.0039429218,0.19223566,0.28248924,-0.11509417,-0.21984446,0.27275926,0.29942816,0.044754103,-0.34738183,-6.0043254,0.4774783,-0.050732404,-0.2390491,0.1991929,-0.13897082,-0.046559528,0.59164137,0.24355285,-0.20295364,0.028088633,-0.056477442,-0.45274234,-0.11224255,0.37879658,0.103531845,0.14177416,-0.4020921,0.2910602,-0.17497602,-0.06720991,0.20011944,0.13829237,-0.38233456,0.46321914,0.06315909,0.13651246,-0.79030013,0.008923985,0.28772932,0.30208975,-0.19892356,-0.013282614,-0.023268597,0.14708838,-0.36020428,-0.27165025,-0.28002965,-0.23964721,0.2065226,0.2875176,0.83912504,0.09100374,-0.12019126,0.18570268,-1.092365,0.41004962,0.4151977,0.2600702,-0.14117779,0.13692063,-0.21588457,-0.25435263,-0.121155396,-0.20295064,0.31902775,-0.070699915,0.2762331,-0.3479502,-0.14213614,0.212944,-0.16530895,-0.0034685582,-0.20617612,0.41184425,0.23606557,-0.036655195,-0.30483297,-0.20469998,-0.398724,0.025733799,0.057185493,0.31912816,-0.03490272,-0.20550564,-0.20148423,-0.028123818,-0.04965456,-0.56767875,0.3793707,-0.12326696,-0.5368843,-0.57082224,0.60255414,-0.9030571,-0.21252584,0.8903995,0.08898853,-0.43136287,-0.93719685,-0.1942826,-0.38941526,-0.0027848333,0.105397284,0.58946157,-0.13615869,0.062772036,-0.4279379,-0.011153847,0.20407617,0.45529145,-0.09610029,0.19461012,0.15820393,-0.79616773,-0.0040201247,-0.09527645,-0.09430443,-0.15199155,-0.050349444,0.48988378,0.2881168,0.14290845,-0.15862267,-0.066746294,0.11244598,0.009288192,0.513976,-0.40836817,0.60131323,-0.15285161,0.2758469,0.20874228,-0.19394001,-0.0612908,0.47979733,0.2530368,-0.11774441,0.52427655,0.092026114,0.053233385,-0.26182252,-0.25790706,0.1817593,-0.12081463,-0.0921425,-0.08853039,-0.36669713,-0.14176461,0.13309951,-0.13470256,-0.46299922,0.18123122,0.45332703,0.10287201,0.013906322,-0.16342133,-0.42623925,-0.15428074,0.46830043,0.023097686,0.031042188,-0.16353095,-0.43109143,0.015596865,0.49081278,-0.064181276,-0.27323642,0.28878427,0.03856311,-0.15230416,-0.15599589,0.115035355,-0.43760014,0.3471874,0.21590191,-0.126568,-0.025082737,-0.37064147,0.107360855,0.009949654,0.82819253,-0.46906754,-0.043982364,-0.26859185,0.34816444,0.4634086,0.05543856,0.54773194,0.04043752,-0.2849839,0.22074446,-0.0649281,-0.009883031,-0.3247896,-0.005523786,-0.19300362,-0.046819627,0.062209472,-0.12930539,0.5340954,0.22294155,-0.15707886,0.08808331,-0.6037234,0.32796603,0.54215455,0.108336225,-0.0071076006,-0.2909343,-0.12889577,-0.23986901,-0.11361537,0.04622242,-0.06159062,-0.06617243,0.29930884,0.15554085,0.13946845,0.027934238,-0.70605683,0.28409258,0.024919234,0.36321843,-0.11757715,0.10766226,-0.09888744,0.4092299,-0.33704397,-0.17087421,0.836697,-0.389256,-0.35091764,0.25425035,0.44697902,0.9059357,0.1646165,0.27436075,-0.08355274,2.9663012,-0.04763475,-0.10114703,-0.20247227,-0.38080198,0.06692511,-0.27309835,0.32551283,-0.047565617,0.19657853,-0.31977114,0.19469911,-0.38102606,0.3642425,-0.097657844,0.3282251,-0.3032648,0.14685285,0.39807355,0.31557488,0.1380486,0.045451455,-0.07504843,0.5161159,0.117210925,0.018083453,-0.00989835,0.26369214,0.75524193,0.5033418,0.08203967,0.53553134,-0.03829622,0.03807973,0.14165112,-0.06607227,0.35161856,-0.16884537,0.7011157,-0.6820276,0.53796154,0.36834532,0.5768128,-0.928235,0.27460963,-0.057643265,0.8699584,0.23515154,0.44655704,0.096119076,0.56547105,0.07563257,-0.30200398,-0.4937343,0.34794143,0.7602578,0.44170105,-0.42588702,0.17312151,-0.5147347,-1.1243469,0.21130313,-0.030894205,-0.08033825,-0.33025646,0.416975,-0.18029127,-0.21669523,1.2945129,0.017461956,-0.037901834,-0.26816446,0.0111787915,0.036601394,-0.074389644,0.12186003,-0.37576488,0.5196521,-0.36009243,0.21731564,0.12672284,-0.08511712,-0.09118632,-0.06567353,0.06575045,0.38552573,0.10021633,0.31199726,-0.5080024,0.18343914,-0.4367777,-0.25882268,0.20412731,-0.19321798,0.20649633,0.29274538,-0.20936772,-0.48207134,-0.29895216,0.26456082,-0.14625189,0.21749294,0.47897908,0.004588032,0.21384296,-0.44285733,-0.3990212,-1.299764,0.28119236,-0.10906473,0.4852963,0.85314816,-0.13833892,0.07246287,-0.35089087,-0.35090998,-0.23149899,0.08423391,0.5891386,0.08388769,0.44016537,0.39930648,0.4086594,0.3207191,0.5725147,0.06697878,0.034120142,-0.31808883,0.027197145,-0.16845585,-0.32414135,-0.3740983,-0.366561,0.094919,0.101574495,-0.29736626,-0.32970625,-0.39253333,-0.3436875,-0.14605534,0.035445742,-0.14166515,-0.3912245,0.16930896,-0.36845705,-0.07858758,0.36562258,-0.08770838,0.39283454,0.7899243,-0.0278299,0.18014036,-0.6426674,-0.11497697,-0.18517235,0.03286597,0.52672744,0.6740855,-0.020758798,-0.09133706,-0.46302235,0.09985673,0.26595637,-0.05711691,-0.0853897,0.1517209,0.4789009,0.1778711,-0.6645958,0.25915653,-0.64141196,0.14419645,-0.7069568,0.046940565,-0.33064967,0.3880822,0.15592462,0.27838045,-0.13810053,0.71389616,-0.09898359,0.026920708,0.39260566,0.3558643,-0.2747059,0.37741262,-0.26519662,0.42415112,0.5089253,-0.04776878,-0.13440292
Oceania_39.png,-0.3497892,0.23912609,0.14816597,-0.1470104,0.19701901,0.063087896,-0.1155662,0.008727908,0.6146235,-0.25915936,0.13579413,-0.24844572,0.36375868,-0.0032099858,0.13485423,-0.3647805,0.058837727,0.30826426,0.21946111,-0.6081184,-1.5235034,0.16653,-0.21258666,-0.2857258,-0.072371766,0.124765225,0.19671282,-0.3655215,-0.42397064,0.25094882,-0.20470427,-0.1034506,-0.043371066,-0.09524141,-0.17746654,-0.017091632,-0.07766163,0.20573568,-0.057562992,-0.05800891,-0.38402712,-0.36786073,0.23100077,0.011802357,-0.06314101,-0.16293848,0.262062,0.53555995,0.2616302,0.07459947,0.55863065,0.23146649,-0.3018387,-0.35965142,0.16192073,0.08221666,0.7245276,0.45588148,-0.501118,-0.30007666,-0.9427791,0.49959397,0.124278724,0.1831619,-0.5508392,0.1010234,0.0033281222,1.1118274,-0.014636613,-0.14864507,0.07988823,-0.39942798,-0.5874727,0.22947556,-0.12391267,0.5748323,-0.807724,-0.72088194,0.3761463,0.10857003,0.31606182,-0.14689335,-0.14133185,-0.003826038,0.10739839,-0.3265463,-0.804038,-0.18929467,0.61967194,0.014785966,-0.279044,-0.04983923,-6.3480806,0.47635627,-0.060776968,0.13595888,0.17401752,-0.09601024,0.5657863,1.1027328,-0.021497745,0.13735333,-0.40787992,0.077080816,-0.21552756,-0.028109854,-0.9645661,0.2954454,0.59413224,-0.38025025,0.47167894,-0.3352483,-0.10955903,-0.43580717,0.078297384,0.10952674,0.09374463,0.5105521,0.035373658,-0.8957555,-0.05027485,0.17802559,0.443268,0.045473352,-0.34119776,0.072268814,0.24568374,0.24572049,-0.4278674,0.30109924,-0.2501321,-0.35552996,0.10229365,0.8612766,-0.20391262,-0.22314791,-0.3852559,-0.40476194,0.13468555,0.28883538,0.023553409,-0.27084547,-0.138632,-0.02614063,-0.2568571,0.23676725,-0.47662872,0.13498403,-0.015549421,-0.14358908,-0.61650723,0.64511836,-0.13543797,0.16197506,-0.17395434,0.123805925,-0.30376387,-0.17958614,0.008381538,0.4384887,0.06011615,-0.519205,0.04504907,0.06646303,-0.03610145,0.6640711,0.22575456,0.12559132,-0.1409994,-0.27127632,-0.17031108,-0.0575533,-0.673664,-0.8166275,-0.0033776015,0.40079233,-0.3481303,-0.22532785,0.52026427,0.2625714,0.07315189,-0.49701753,0.22634226,-0.4031366,-0.50805265,0.28102577,0.17608723,0.17081213,0.0003529191,-0.1026772,0.28925723,0.17533925,0.4479844,0.37302554,-0.40065992,0.145176,-0.5733564,0.39223814,-0.5344534,-0.036866173,0.0827125,-0.38256085,0.2025101,0.6292009,0.37586257,-0.4340198,-0.13778621,0.1570698,0.07774057,0.46213388,-0.15799561,0.37367254,-0.20265877,0.06425412,0.11406451,-0.31380212,-0.07363949,0.02382332,0.67474234,-0.23689348,0.23866698,0.6566297,-0.06784143,-0.15354481,0.025157958,-0.21998253,-0.0032396093,-0.17965545,-0.17527016,-0.18051992,-0.047674492,-0.2876498,0.6127621,-0.85603505,0.34823054,0.4587022,0.034387905,-0.154322,-0.17617205,-0.043960303,0.063379005,0.28163615,0.23886263,-0.42262957,-0.53104824,-0.014227226,-0.3089632,0.7625288,-0.13985339,-0.11355479,-0.011917319,0.055720523,-0.052069277,0.26895183,0.1701463,-0.4286373,-0.2430844,0.045214787,-0.031050086,-0.16492355,0.095273964,0.18458372,-0.09687135,1.0238575,0.44408447,-0.07014907,-0.024132416,0.2143305,0.008942906,0.42749655,0.3602213,-0.21337928,-0.36395702,-0.46476346,-0.14871317,0.13339709,-0.10964631,0.035316613,-0.41140252,-0.21583016,0.23550037,0.24172685,0.4805357,0.16833834,-0.43946925,0.08389756,0.9862924,-0.493659,0.28105128,0.15754503,-0.028003596,-0.20309588,0.6912462,-0.18933558,-0.23065749,0.20064378,0.24947582,0.23763396,0.17407486,0.3393001,0.30754513,0.112178326,-0.758545,0.2715396,0.26482633,0.34115398,0.03789963,-0.056991912,0.42960054,0.1445168,-0.3812151,-0.077627085,0.85849476,-0.31471956,0.03587748,0.3559674,0.30465305,0.850126,-0.094801776,0.8758964,0.6264335,1.5652783,-0.12221509,-0.12341605,-0.28713042,-0.16839181,-0.25131777,-0.65391016,-0.293382,-0.05290754,0.12806255,0.061861683,-0.11308252,-0.40942305,-0.12190154,0.0410323,0.37330517,-0.24273853,0.3063357,0.31988624,0.5590935,-0.016102962,-0.145665,-0.027801357,0.22091271,-0.582624,-0.49570101,-0.23392679,-0.19873196,0.2962845,0.17812677,-0.041750826,0.5560653,0.07167117,-0.079829045,-0.42157692,-0.4330767,1.0065861,-0.17787282,0.30372936,-1.2764956,-0.014977254,0.21132246,0.91823256,-0.6217363,-0.2504967,-0.01892218,-0.17769842,0.11246684,-0.2904828,-0.20112734,0.36252588,0.27559483,-0.20032544,-0.42264932,0.2953924,-0.11239575,0.27517426,-1.0465908,-0.09386014,-0.055161178,-0.67819494,-0.024969608,0.19894648,-0.05034566,-0.30808473,0.24558656,-0.50019586,-0.52819383,1.4826474,0.2922384,-0.3368495,-0.27560872,0.025365235,0.092442565,0.2917784,-0.051373452,-0.11178397,-0.010265961,-0.33530834,0.08371499,-0.17558947,0.40968567,-0.15067714,-0.44906077,-0.002101764,0.025031943,0.018985242,0.45859802,-0.32713845,-0.064881004,-0.065567695,-0.37598738,0.2306506,-0.25222623,-0.26589543,-0.01999934,-0.043276086,-0.2923389,-0.47493452,0.16890123,0.23839097,0.46879745,-0.15128249,-0.17002234,-0.016658768,0.2873082,-0.34783792,-1.1954126,-0.26210916,-0.10564875,0.34401953,0.61416066,-0.3312306,0.025180712,-0.047805466,-0.4562964,-0.14412504,-0.32034147,-0.099057876,-0.15727645,-0.377231,0.19148941,-0.13284498,0.36962122,0.028064504,-0.3579207,0.31027028,-0.18407717,0.06979073,-0.23447071,-0.100146785,-0.44116965,-0.2490007,-0.27608144,-0.28145432,-0.28898564,-0.3894857,-0.3333226,-0.34339845,-0.028719187,0.46204835,-0.34812373,-0.46218255,0.051017337,-0.09349442,-0.23197408,0.107737325,0.09094877,-0.1397793,0.1635457,0.45405936,0.27671045,-0.30165684,-0.4846959,0.072757795,0.23093072,0.4276321,0.3789973,-0.3454165,0.11114822,-0.49746713,0.19491939,-0.061161682,-0.15384354,0.13637362,-0.45330358,-0.021325245,-0.024150014,-0.10246144,-0.09433817,-0.2830308,0.416045,-0.3286276,-0.2743034,0.031752802,-0.034288496,0.0053701326,0.055779956,-0.54501724,0.2540314,-0.15702492,-0.1724257,0.3299681,0.58659816,0.10239378,0.41795683,-0.36748528,-0.113981605,0.93766826,-0.2666287,0.25186437
Oceania_10.png,-0.5019655,0.4891257,0.0014456287,-0.0337029,0.41296145,-0.08905954,-0.018070009,0.114335,0.2368291,0.05231726,0.13166097,-0.003470718,0.69009423,-0.28850433,0.3372584,0.02238752,0.9941797,0.36124358,0.37477863,-0.34415972,-1.6913407,0.1751374,0.2752608,-0.22229856,-0.17112896,0.0339183,0.0119383745,-0.35127366,-0.17527835,0.43135267,-0.42374825,-0.22685288,-0.13651514,-0.3079429,-0.28761747,0.20476303,-0.2846472,-0.08035727,0.14043143,-0.08215399,-0.25957182,0.2046307,0.3858237,-0.093891084,0.35905135,-1.5845559,0.3197022,0.19203979,0.32286838,0.04102561,0.26554903,-0.17487726,-0.041348293,-0.0075082704,0.17421278,0.16970545,0.3969467,0.3502859,0.12740587,0.2915321,-1.1269072,0.24888198,-0.48595858,-0.047069326,-0.40787905,-0.05065553,0.26423734,1.2428582,0.0049816445,0.010992736,-0.28157148,-0.3159135,-0.58224523,0.27375484,0.010660626,-0.0015748509,-0.9003636,-0.5807645,0.04964879,-0.13084826,0.15522547,-0.3816604,0.23811209,0.029985502,0.22214548,-0.04238504,-0.41861975,-0.30216613,0.5870044,-0.34574246,0.3261197,-0.17939103,-5.499816,0.47098428,-0.44937944,0.119789824,0.02073674,-0.32291973,0.107408665,0.5046314,-0.15668052,0.17277484,-0.50031835,0.170721,-0.12729079,0.29185852,-0.27478826,-0.22114506,0.53422916,-0.28602076,0.35283607,-0.1342003,0.13353111,-0.25709432,0.19791245,-0.35187685,0.43405998,-0.26765463,0.06808041,-1.0700699,0.029279284,0.19588062,0.20136364,-0.08105916,-0.22309159,0.3077085,-0.08908491,-0.054238334,-0.0988777,0.12650211,0.11391799,-0.068996705,-0.00080889463,0.7398485,-0.35653925,-0.20073107,-0.4466437,0.4994231,-0.04595387,0.62083733,0.042892694,0.21235543,0.39216024,-0.09469911,-0.41760796,-0.11864847,-0.28481507,0.16963881,-0.15312892,0.17045236,-0.39441082,0.20096496,0.32076588,-0.0035394698,0.035381466,-0.038945764,0.15499316,-0.115584955,-0.017969608,-0.07972321,-0.16498984,0.015581191,0.24502039,0.036931008,0.30119926,0.48472893,0.29279053,0.5137105,-0.20873472,0.074441,-0.3844543,-0.065249965,-0.32222724,-0.5578048,0.20449243,0.38868523,-0.6869259,-0.009054683,0.41566676,0.050514966,-0.4583915,-0.6958059,0.21392411,0.08810667,-0.26677716,-0.23581398,0.00084242225,0.2985261,0.19521491,-0.23023948,0.3376486,0.49589875,-0.1561217,0.1326429,-0.5858985,0.34273082,-0.5049875,0.031709477,-0.7770764,0.072221875,0.19187053,-0.38899797,0.3375263,0.24952577,0.46130928,-0.41350028,0.32730815,-0.0923165,-0.30146965,0.014909059,-0.05312231,0.7151457,0.048827477,0.021509878,0.073979266,-0.45771676,-0.019353092,0.2493012,0.85816205,-0.48174846,0.36546266,0.7101086,0.042216785,-0.34773353,0.47742957,0.10476046,0.25212964,-0.22989127,-0.10420176,-0.20741206,0.14809372,-0.022083223,0.14182661,-0.17410511,0.08131982,0.00788464,0.11401578,0.15227884,-0.27281305,0.4207808,0.0507759,0.26349837,0.47510636,-0.70000607,-0.55415833,-0.47368798,0.3969264,0.68216115,-0.07941069,-0.34468845,-0.32678837,-0.07843416,-0.28732347,-0.02132526,0.08047687,-0.18431473,0.242322,0.22025798,1.1304052,0.03430043,0.07884072,0.30330622,-0.3735255,0.72169566,0.36603925,0.2531101,0.12330775,0.4010877,0.18856049,0.89190686,0.24244387,0.32550916,-0.067344666,-0.041942164,-0.2597224,0.10171531,-0.07254067,-0.62302417,-0.049678206,0.08470869,0.87173605,0.22110884,-0.009133197,0.35762316,-0.35802317,0.08583074,-0.70345294,-0.34978822,0.21228728,0.014899924,-0.15888861,0.25229725,0.23133051,-0.173572,-0.055079438,0.5195827,0.2673637,-0.09503084,0.21371147,0.32998562,-0.109542415,-0.027045712,-0.26460546,0.14186981,0.10199939,0.63092697,-0.25951973,0.06816523,0.22973382,0.46918672,-0.054013945,-0.45268548,0.7375025,-0.3796019,-0.5837559,0.31932476,0.3625074,0.7328245,0.14212275,-0.20448576,0.33234042,1.5769238,-0.10538063,-0.10874961,-0.10479331,-0.23177078,0.32239553,-0.28369674,-0.043146163,-0.23826692,0.1473911,-0.028101694,-0.1570333,-0.22475111,0.032308865,0.044046458,0.30536216,-0.038609847,0.20744376,0.29851484,0.11846817,-0.2632343,0.07144037,-0.6304375,0.4163167,-0.13495451,-0.4220897,0.046204697,0.13470021,0.14544992,0.2069232,-0.16934088,0.4164452,0.2497434,-0.24179474,-0.21442601,0.01830034,0.20484602,-0.2357485,0.16080478,-0.34302977,-0.06771651,0.10141139,0.6536766,-0.2577142,0.20377666,-0.030758888,0.4316671,0.040033802,-0.65544283,-0.18158929,0.22860062,0.0560288,-0.3047078,-0.5361104,0.12373,0.964844,0.11621304,-0.44895768,-0.041916184,-0.27482074,-0.861532,0.17270744,-0.41932535,-0.04318919,-0.11459538,0.12043438,-0.35369664,-0.39664987,1.4521601,0.4938693,0.040954813,0.06988464,0.09996931,0.21118565,-0.1696377,0.035463557,-0.24700345,0.07077178,-0.276007,0.33142197,0.12650405,0.31890967,-0.3786831,-0.29316968,-0.097930044,-0.3694372,-0.19893771,0.5671916,-0.13630067,-0.12927057,-0.050908275,-0.47931397,0.006207859,-0.2911935,0.08773145,-0.22607097,0.20686275,-0.09894449,-0.50430197,0.1586742,0.04866478,0.39454246,-0.41200143,-0.15809849,0.033609092,-0.32030642,-0.20749617,-2.5453348,0.13002115,-0.0042435303,0.3100571,1.2329836,-0.24849397,0.3500962,-0.4658157,-0.24729401,-0.27866343,-0.22327292,0.25124484,0.052586883,0.17070407,-0.16970193,-0.17712061,0.31544673,0.13447356,0.30342644,0.3439793,-0.2020261,-0.08187279,-0.010468572,0.22543967,-0.23327,-0.46345302,0.18675295,-0.068206415,-0.31788135,-0.8438084,-0.31036443,-0.3828202,0.09129173,0.13510358,0.043209575,-0.31847,-0.14047481,-0.05482064,0.09051487,-0.030612208,-0.020996775,-0.05709019,0.19779111,0.10227385,0.11640264,-0.5693022,-0.19954668,-0.018319026,0.06638794,0.072200775,0.62630105,-0.3746442,0.1834656,-0.45588297,0.11482916,0.00020679832,0.04317334,-0.34662598,-0.35870698,0.28415987,0.48676646,0.0010916628,0.2126761,0.018323567,0.3968295,-1.1612502,-0.16706292,-0.037181254,0.045289256,0.14996722,0.20068555,-0.43477678,0.49018252,-0.3963467,-0.41808736,0.02292107,0.38574925,0.12886299,0.3279984,-0.09106605,-0.246804,0.78799,-0.10768894,-0.26559684
Oceania_31.png,-0.43134996,0.4013665,0.1476117,0.440554,0.08711523,0.054703876,0.07532588,0.18152276,0.54641575,0.20880413,0.21344864,-0.17253137,0.17845374,-0.20709103,0.16482581,-0.3908661,0.1026517,0.5438596,-0.038363747,-0.43221933,-2.4001117,-0.030458137,0.16507603,-0.58550334,0.35032785,0.38112158,0.23036069,-0.14331555,-0.18150547,0.3437405,-0.3454361,-0.23956248,-0.05201964,-0.22046904,-0.24318701,-0.2776959,-0.0927737,-0.074377656,-0.16559273,-0.21131562,0.027820172,-0.17107578,0.21374597,0.088541895,-0.24796271,-0.58139706,0.13067818,0.4110874,-0.019102804,0.05202557,0.33089462,-0.14741026,-0.06677421,-0.395507,0.0003162548,0.2685818,0.40542376,-0.09102719,-0.18430659,-0.02318433,-0.35657534,0.22576518,-0.26848823,0.02885715,-0.518951,0.15658507,0.27640936,1.7207551,-0.11689561,-0.2366931,-0.40032557,-0.69844484,-0.353164,0.016222,0.10067807,-0.055847645,-0.41819978,-0.39810556,0.04757597,0.41320622,-0.01725652,-0.096675955,0.06507041,0.049805064,0.14148606,0.2776084,0.4783791,-0.08674403,0.1578284,-0.06402914,0.579562,0.112909555,-6.734146,0.45266908,-0.043677747,-0.17947173,0.031069491,0.15819143,0.46161044,0.21211235,-0.07128042,0.17704731,-0.29573715,-0.17814481,-0.48105028,0.15932433,-0.72887737,0.097205564,0.2178516,-0.21806523,0.26657227,-0.46693504,-0.18426132,-0.43673015,0.25297484,-0.26387176,0.45784128,0.44024545,-0.2847358,-0.8400528,-0.33415496,0.61960363,0.3973087,-0.2300373,0.0025521591,0.49383235,-0.15578821,-0.04420249,-0.15603508,0.5197059,-0.007928006,-0.027325533,0.23241436,0.8599229,-0.2876005,-0.3024014,-0.20942801,-0.4492107,-0.024313197,0.21064526,-0.29108286,-0.0063869506,0.38542348,-0.071975425,-0.2445226,0.095019326,-0.06775239,0.1796305,-0.0784348,-0.05423695,-0.39124113,0.0051289555,0.46111077,0.028661797,-0.65293723,-0.33681774,0.24353059,0.10464638,0.033768997,0.07014048,0.33536556,-0.046487585,0.043291092,-0.026047893,-0.18988983,0.55901015,0.16926187,0.10268882,-0.056184217,-0.0036177784,-0.07384751,-0.19098152,-0.32984632,-0.32277972,-0.061980337,-0.019963592,-0.9516674,-0.15291646,0.58021677,0.37568912,-0.3442157,-0.37923235,0.32775277,-0.05950112,-0.020640938,0.06542595,-0.10681122,-0.069641635,0.23325878,-0.28559086,0.2741992,0.524442,0.5412035,0.21972016,-0.04193437,0.12773114,-0.5781566,0.10636632,-0.5686556,0.010233834,0.12627813,-0.26519457,0.4918226,0.3687053,0.16368312,-0.5883267,-0.092690006,0.14824685,-0.07610974,0.20124903,-0.037988115,0.4218297,0.055801585,0.21392381,0.283148,-0.24419942,-0.44653696,0.12168487,0.34208328,-0.014318418,0.44402257,0.16699567,0.11575081,-0.40008736,0.496675,0.439056,0.048020057,-0.3867141,-0.38149363,-0.11254603,-0.10650726,-0.3561753,0.41376823,-0.41737622,-0.29176605,0.34629568,0.25100428,-0.18471049,-0.29100236,0.10671501,-0.16041623,0.30808923,0.566971,-0.5429156,-0.66783726,-0.29508775,0.22129397,0.44486064,-0.03044971,0.11116932,-0.11809019,-0.09661563,-0.14263779,0.12673253,-0.41481778,0.030034654,-0.08833291,0.28557676,0.6604651,0.28217542,0.21795562,0.12320788,-0.4435197,1.3803643,0.57092804,0.261676,0.108321,-0.015096039,0.29460743,0.66552263,0.26247853,-0.25476927,-0.26560527,-0.02497971,0.21424688,0.52564657,0.25785375,0.022697616,-0.23657131,-0.065649,0.6556524,0.17118025,0.2713145,0.1390375,-0.25075758,0.37110257,-1.4165608,-0.32033283,0.4297708,0.09832065,0.13424233,0.22967184,0.5889501,-0.15756007,0.14424017,0.524596,0.31849965,0.17007071,0.36387408,0.14422399,-0.48578653,-0.14931144,-0.48805487,0.35335174,-0.17471729,0.5129705,0.01890783,0.077372245,0.24987452,0.12271553,-0.19100098,0.24595149,0.86013794,-0.31035995,0.05898734,0.66215014,0.6127317,0.65466434,-0.012530193,0.1400233,0.28163671,1.338924,-0.107166976,-0.16116455,-0.21571755,0.21630429,0.15041707,-0.35814106,-0.19247618,-0.031363517,0.17220187,-0.13355383,-0.060865015,-0.29746097,-0.2469059,0.019062787,0.7973425,-0.16485417,0.13772257,-0.11917893,0.22552435,-0.49823707,-0.1834652,0.26716766,0.17081311,-0.17716402,-0.531527,-0.10691326,0.120749354,0.4985341,0.45972782,-0.6184352,0.59439254,0.301579,-0.12531833,0.1037582,-0.37933132,1.1633314,0.04103472,0.109805316,-1.3159999,0.007786885,0.15593335,0.6236082,-0.70807844,0.017471135,-0.17774805,0.26679987,0.33892938,-0.11900798,-0.08102816,0.22738653,-0.048802495,0.2735271,-0.6329808,0.22247326,0.8794855,0.22692984,-0.47018218,-0.054948825,-0.25826585,-0.23003536,0.14563355,-0.49118155,-0.032568872,-0.10134273,0.110512555,-0.13787982,-0.7005214,0.66667914,0.18023148,0.10752437,0.16609393,0.062545024,-0.061429847,0.23590624,0.099886775,-0.163003,0.45242363,-0.16659659,0.5214345,-0.13470086,0.0032961518,-0.36681283,-0.40569508,-0.12824455,-0.4507751,-0.06399149,0.54378724,-0.25530684,0.03281501,-0.26965815,4.5001507e-05,0.2227723,0.17274451,-0.36628452,0.2502066,-0.1291888,-0.104696795,-0.38562217,-0.13400635,0.026790746,0.6698457,-0.21656832,-0.12522168,0.3598101,-0.06849092,-0.10982385,-2.7825406,0.12366506,-0.24932408,0.15151012,1.0958441,-0.051495194,-0.037795354,0.016988419,-0.19892561,-0.25210673,-0.26072538,0.2810083,0.15718779,-0.0059169615,0.15617076,-0.09140721,0.3147208,-0.032963663,-0.088689856,-0.078303345,0.23906061,0.19644871,-0.19786488,0.24066979,-0.1155099,-0.015286807,-0.26445302,0.025105465,-0.34644264,-0.57946545,-0.15186098,0.0697982,-0.036622323,0.056430202,-0.08957842,-0.081223354,0.3634929,-0.21947181,0.094685234,-0.22776482,-0.096347205,-0.0685538,0.61425847,0.44963017,-0.118068635,-0.5602856,-0.022059388,0.16712993,-0.2661916,-0.08430728,0.6655984,-0.20994788,0.07313031,-0.24962372,-0.19152749,0.17583884,0.17559612,0.029977456,-0.3047902,0.5142645,0.11183027,-0.21608007,0.14828447,-0.36341783,0.17801903,-0.86449844,0.06742718,0.08816765,0.1785813,0.115508564,0.058925647,-0.12699649,0.33015007,0.12795798,0.13817193,-0.0005972255,0.19961153,0.066568986,0.73501366,-0.14798221,-0.20165369,0.519873,-0.14844757,-0.26581603
Oceania_38.png,-0.27366802,0.19575602,-0.05813559,0.31115976,-0.021836735,0.022386327,0.35851598,-0.25542396,0.5176467,-0.19036573,-0.09160916,0.04296623,-0.349754,0.035631318,0.09236092,0.011498272,0.100472495,0.19831757,-0.48149297,-0.17855558,-1.317908,0.18735531,-0.34217396,0.12517187,0.027928725,0.506835,0.32415125,-0.13050684,-0.530131,0.36735192,-0.11731469,0.012146071,-0.06692489,-0.24064502,0.5015591,0.5776277,-0.08960441,0.07080007,-0.094797954,0.13675359,-0.49994302,-0.18397388,0.34391743,0.07258622,-0.13480707,-1.1212518,0.17419907,0.5648048,0.20187351,0.06421689,0.35599822,0.34534073,0.11788114,-0.091609284,-0.0047622025,0.3748152,0.7258797,-0.65984154,-0.94174373,-0.15257527,-1.1926086,0.35066998,-0.4059049,-0.1866001,-0.29544002,0.2776764,-0.028527865,0.89773995,-0.05365202,0.04614258,0.2569401,-0.42344537,-0.26185167,0.24431993,-0.26933315,0.3712733,-0.84649897,-0.07024119,0.4162184,0.07865067,-0.108710796,-0.5545712,0.07076225,0.1328011,0.42486143,0.004422471,0.23790693,-0.17929432,0.36489818,0.10364853,0.23585719,-0.27190804,-5.1913977,0.48003644,-0.25177872,-0.15024349,0.2985304,-0.12961851,0.33636153,0.34302795,0.16896053,-0.17962405,0.21074763,-0.04500384,-0.41454217,0.1594985,-0.07231696,0.1273798,0.10354887,-0.4703078,0.5413383,-0.255443,-0.04857239,-0.5017173,-0.27878475,-0.10684332,0.34730208,-0.015176415,0.27028552,-0.8094256,-0.17507753,0.5178582,0.4413213,-0.05076745,0.30969152,0.0942777,0.12981744,-0.1884147,-0.031118497,0.048709903,0.00697306,-0.13075764,0.2580294,0.7474871,-0.17064536,-0.689035,-0.4506494,-0.40122882,0.013472006,0.18799584,-0.0013197735,0.31389314,0.1390698,0.09003718,-0.4986704,-0.15850091,-0.02113273,0.2814448,-0.13308346,-0.043567378,-0.44645652,0.023416743,0.80950814,-0.43387845,-0.35839483,-0.21893772,0.09615777,0.25676686,-0.35911545,0.12660159,0.30782893,-0.4761653,-0.0066322386,0.20659073,-0.019621432,-0.024975732,0.841294,0.19772866,-0.037118703,0.04840436,-0.3818891,0.05057028,-0.33589268,-0.60095125,-0.5484144,0.5261142,-0.48139137,0.025409622,0.8030442,0.18118642,-0.57514524,-0.35535625,-0.2130771,-0.020371675,-0.3113464,0.06566408,-0.17156753,0.27535895,0.07577631,-0.09876859,-0.06586738,0.010818366,-0.017593935,0.02200586,-0.33703703,0.244278,-0.23609334,0.32861647,-0.577202,-0.08151568,0.33332482,-0.3556087,-0.16830344,0.007156719,-0.042659856,-0.33972684,0.12220427,0.17894134,-0.40105042,-0.1492343,-0.33663392,0.24337703,-0.26440078,0.18666834,0.087179326,0.08797629,-0.57012796,0.068091504,0.33314928,-0.27001292,0.7188409,0.2981284,0.4115336,0.116426155,0.19589306,0.3271186,-0.21078795,-0.27649584,-0.0775713,-0.41723853,-0.3456806,-0.17307043,-0.09847704,-0.44348428,-0.035351086,-0.20009892,-0.026883166,-0.10136169,0.3360138,-0.03767474,-0.133142,0.15954727,0.47482628,-0.13045348,-0.19918133,0.009166725,0.12681065,0.8288531,0.06251022,0.090590864,0.34047472,0.3308768,-0.21845773,0.1354655,0.08991789,-0.31987906,0.03990923,0.21255715,-1.2780892,-0.12579381,-0.15871668,0.071600854,0.3155253,0.95099163,0.32802707,-0.42475742,-0.07299743,0.43002215,0.15376462,-0.036399852,0.24940301,0.047064632,-0.06958625,0.0015941858,0.12085067,0.07457619,-0.31244853,-0.120366946,0.047639634,-0.16211209,0.5417967,0.03756024,0.43211114,0.112717316,-0.14457673,-0.11073089,-0.6285789,0.13079906,0.45673576,0.19286773,0.08638715,-0.21842515,0.120915726,-0.05229061,-0.19267654,0.19606143,-0.16041629,0.2600821,0.357908,-0.5212278,-0.4592734,0.0061997,-0.5266184,-0.014073194,0.37672678,0.36294025,0.028284423,-0.122534804,0.30816522,-0.4935407,0.0051643103,0.07060094,0.7449862,-0.44795558,-0.20747823,0.13649368,0.30960998,0.8664508,-0.11328474,0.40357566,0.74099934,1.5964968,-0.24821004,-0.44807807,-0.0033727586,0.05184663,0.57632554,-0.35905832,-0.29475117,-0.3890153,0.01619339,-0.3620397,-0.15703382,0.12995802,-0.14437973,0.004475858,0.2799672,-0.39009607,0.28779775,-0.11699613,0.10546827,-0.102194816,-0.02891983,0.16714191,0.62647295,-0.1488871,0.010832116,0.20459472,0.25917944,0.723323,-0.21245874,-0.22637928,0.19451372,-0.021303974,-0.18267694,0.07094817,-0.40008795,1.2750102,0.16800712,0.6896557,-0.32739437,-0.22749689,0.27955663,0.5487003,-0.47156388,-0.06270158,-0.18200274,0.6775651,0.079028785,0.15762499,0.15062997,0.22642621,0.41385013,-0.28180218,-0.27942127,-0.06804995,0.7950388,0.17769478,-0.48532605,0.1489048,-0.316916,-1.2769297,-0.081133105,-0.07370189,-0.3603347,0.048015,-0.15434745,0.1861892,-0.57971644,1.5668184,0.5807666,0.32215872,-0.017381065,0.2692228,-0.474299,-0.018732607,-0.06890598,-0.6327744,0.26287794,-0.1652683,0.55950266,-0.07356544,0.069178656,-0.29597878,-0.387011,0.093060516,-0.22303812,-0.02622892,0.8095219,-0.14054625,0.42913812,-0.09962011,-0.31234634,0.16637081,-0.13972388,0.30410716,0.13746582,0.033200562,-0.44084603,-0.40112796,-0.03170202,0.07949611,0.40280834,-0.5600414,0.015479309,0.6891479,-0.30901682,-0.0839359,-1.716764,-0.28553152,-0.27156645,0.25296068,0.94599164,-0.018378487,0.18111026,-0.5299503,0.050856017,-0.046818584,0.40507066,0.37262625,0.16531554,-0.18386236,0.23450477,0.223079,0.67698646,0.29703987,-0.1912361,0.16227545,0.11775351,0.054902807,-0.101688,-0.28161106,-0.14135966,-0.44598472,-0.049526457,-0.25873166,-0.23075402,-0.7763344,-0.21096167,-0.610247,-0.29209742,0.13965689,0.0137683,0.06620905,-0.13772741,-0.54683816,-0.0073969867,0.27294043,-0.102605805,0.50672334,0.4705454,0.2606882,0.14063305,-0.553264,-0.018735915,0.07662076,-0.11049259,0.33922887,0.46845442,-0.18321383,-0.2875055,-0.17661934,-0.32902592,0.05624961,0.09914358,-0.037110694,-0.16650519,0.31379554,0.45417166,-0.43015647,0.18994345,-0.4427418,0.061434053,-0.96107537,-0.32032022,0.18334886,0.023369297,0.14954643,0.028020546,-0.24709985,0.54433244,-0.43501875,0.037682347,0.40933818,0.25795805,-0.13243383,0.0042713378,-0.005264258,0.02456756,0.81547105,-0.364693,-0.049096465
Oceania_47.png,-0.23510501,0.4891742,0.21233076,0.40508503,0.28247747,0.1844193,-0.13927928,-0.36824483,0.74000573,-0.10588049,0.07808009,0.060536444,-0.12026585,-0.055496078,0.5544008,0.023997694,0.055796772,0.041905552,-0.08097385,-0.48712084,-0.9985291,0.23536989,-0.3900732,-0.3340321,-0.09509286,0.4442457,0.029203553,-0.06941878,-0.6444037,0.4670338,0.046830676,-0.24043556,-0.27873608,-0.119456455,0.16158696,0.14335087,-0.061139733,-0.021040365,0.21374443,0.02164492,-0.41138107,-0.23405446,0.33434132,0.13545945,0.044831492,-1.1241097,0.1298526,0.6727807,0.09672589,0.39131597,0.07065061,0.1762119,0.015270274,-0.27869144,0.37537295,0.45050895,0.5175854,-0.35211504,-0.6515633,0.28126395,-1.2047895,-0.010216594,-0.42161635,-0.25797236,-0.54807127,0.18886092,-0.15066496,0.89471775,-0.27055094,-0.3445041,-0.018224083,-0.58251905,-0.13449307,0.001582779,-0.2309129,0.3604187,-0.8927796,-0.339188,-0.051657256,-0.07335227,-0.022327766,-0.14577648,0.2063112,0.2567469,0.5211801,0.21885769,0.2484256,-0.2300815,0.021779079,0.27123755,0.1677474,-0.20334458,-5.589582,0.3299016,-0.1464609,-0.17329153,0.33213472,-0.3548354,0.5003496,0.38337386,-0.17261422,0.016822575,0.0051095225,-0.2577447,-0.41496456,0.14338905,-0.46746808,-0.122848354,-0.048282415,-0.24816656,0.69742125,-0.36353976,0.09729898,-0.26146954,-0.19979745,-0.3640536,0.75140613,0.27219248,-0.02039468,-0.5046377,-0.2905633,0.5271279,0.29125288,-0.3979532,0.084198646,0.31737748,0.21580766,0.15031983,-0.081002474,-0.14339918,-0.13140705,-0.6813758,0.35612342,0.76775837,-0.079333894,-0.54188526,-0.26270747,-0.40934783,0.32685152,0.19103785,0.0477162,-0.0679182,-5.6251884e-05,-0.10573323,-0.082760066,0.19407722,-0.30089802,0.10465819,0.4175875,-0.112097725,-0.43374157,0.09379731,0.7358223,-0.24909319,-0.49027258,-0.111798376,-0.014353685,0.41521192,-0.08058029,0.17900997,0.10650225,-0.41686386,0.07984173,0.36526325,0.20848212,0.4991421,0.69112635,-0.08995809,-0.3104732,-0.33060378,-0.024380617,0.31134838,-0.5613115,-0.5425801,-0.5400512,0.48526132,-0.6045514,-0.18320352,0.30060473,0.077932894,-0.7005771,-0.5494112,0.2608487,-0.18798508,-0.07741839,-0.10492172,-0.07776733,0.19626333,-0.056379974,-0.118535705,0.009261116,-0.26327103,0.18659863,0.018321615,-0.6683906,0.011430193,-0.77363,0.35047948,-0.63123,-0.23565973,0.013108239,-0.3769081,-0.1195101,0.2015915,0.39746517,-0.5139568,0.088980556,0.2653715,-0.37933138,0.12388682,-0.21858189,0.3553626,-0.10109466,0.14590357,0.2029883,0.07146715,-0.31139505,-0.114557736,0.080599144,-0.11892174,0.9287922,-0.045615166,0.0050253496,-0.055285428,0.43831483,0.38569695,0.062641606,-0.44471747,-0.17959051,-0.2401811,-0.12047993,-0.14702682,0.006186761,-0.81306994,-0.29199582,-0.581244,0.07813023,-0.09040049,0.03231409,-0.14695065,-0.109467,0.5676038,0.57432264,-0.015360072,-0.21147946,0.08487193,0.2677865,0.6827553,0.2929177,-0.013204411,0.018672429,0.16993496,0.009032786,0.05384708,-0.12702157,-0.25941348,-0.14659722,0.4441705,-1.0434412,0.12423893,0.057975866,0.24819677,0.049650244,1.2349404,0.17340755,0.0030289292,0.10148671,0.33346313,-0.06098306,0.23074901,0.22527745,0.08739793,-0.34496903,-0.057967015,0.17516099,0.4875437,0.0055019855,-0.16377248,-0.08925747,-0.22426026,0.6438031,-0.11328377,0.4473021,0.32487372,0.26099408,0.22902659,-0.36827517,-0.010659918,0.11875011,0.12155902,0.014992356,-0.038772423,0.104591705,0.13219783,-0.17197381,0.09156752,0.26361942,0.21856081,0.44630468,-0.22373927,-0.36309186,-0.08187164,-0.6975001,-0.0825408,0.27216628,0.21982424,-0.0042984337,0.05765836,0.0635961,0.023428353,0.1511021,-0.06939663,0.76591766,-0.42064226,-0.07161041,0.36011368,0.4418002,1.268058,-0.069912754,0.3878972,0.6187287,1.2619008,-0.071244285,-0.3784985,-0.2516361,-0.050578214,0.047623724,-0.35003224,-0.13850822,-0.36074162,0.26455224,-0.2902116,-0.17711496,0.11775583,0.016188495,0.25547045,0.28652474,-0.32533407,0.3483987,-0.33747506,0.21675004,-0.11741622,0.06036049,0.10191059,0.49209487,-0.17137074,-0.018371508,0.08314096,-0.017180428,0.55084777,0.13084325,0.108247235,0.14100398,-0.10564985,-0.050457306,-0.39924914,-0.14307857,1.2383049,0.023858607,0.47299403,-0.4425302,-0.022366703,0.16447604,0.5261362,-0.3933403,0.2679706,-0.046268344,0.4536414,0.09565153,-0.04091327,0.011551727,0.42556712,0.55159116,0.004691921,-0.23796496,0.021633506,0.69361585,0.43113685,-1.0239565,0.09702747,-0.2811426,-1.0772374,-0.14342669,-0.24232532,-0.42757857,0.038234726,0.09677037,-0.204602,-0.42579806,1.8628109,0.65795445,0.1383535,0.014288202,-0.030145347,-0.13010588,0.11744815,-0.12733094,-0.21292222,-0.11046699,-0.2535283,0.4282401,-0.2787145,-0.032580473,-0.45067853,-0.35834414,-0.19312648,-0.4958948,0.06811749,0.5468709,-0.19952011,0.38665795,-0.0601542,-0.27553204,-0.029041115,0.087047964,0.12024616,0.05767329,0.022872575,-0.4131512,-0.43994814,-0.41927925,-0.036491737,0.396927,-0.58508945,-0.22202991,0.29301068,0.14685304,-0.23548129,-2.1000469,-0.32254505,-0.15811472,0.291745,0.65746075,-0.04973656,-0.054580934,-0.40259385,-0.40091288,-0.08384849,-0.0016097724,0.32386005,0.29874226,-0.012222696,0.273863,0.21884684,0.526747,0.20815803,-0.29365796,-0.031090274,0.016597629,0.04792382,-0.21708283,-0.33176956,-0.14767303,-0.22763178,-0.08938175,-0.27479684,-0.19089402,-0.9379662,0.13203318,-0.61944175,-0.24503326,-0.08604538,0.14965925,-0.29258,-0.12673634,-0.42264408,-0.0046491176,0.50885224,-0.113733046,0.09857246,0.5014941,0.3515569,-0.24306767,-0.74563247,-0.23744313,0.3462316,0.27314937,0.074236505,0.47258952,-0.4686675,0.08264442,-0.3058539,-0.15752307,0.14316656,0.0452587,-0.27395648,-0.2628725,0.13919562,0.37793207,-0.24661008,-0.105292186,-0.30927798,-0.050013095,-0.7738974,-0.29170427,0.119943105,-0.04484488,-0.12974125,-0.38925332,-0.36367628,0.6361714,-0.2943259,-0.32600468,0.24536955,0.6059865,0.013261139,0.48990297,0.11796796,-0.4193412,0.6631254,-0.14739177,-0.2294203
Oceania_22.png,-0.2979788,0.26421306,-0.010489479,0.32510328,-0.00042401254,0.16995767,0.12714112,0.112353325,0.97217333,0.38892505,0.31983346,-0.23145778,0.60099804,-0.14041735,0.31151283,-0.07462153,0.55732805,0.18941277,-0.12903787,0.020868972,-1.7924066,0.007590279,-0.17629108,-0.35988617,0.4242096,0.21176437,0.16521882,-0.21925718,-0.18565738,0.14417881,-0.2246504,0.039622582,-0.15238768,-0.38315028,-0.31950054,0.010184854,-0.026376843,0.13665092,-0.27611026,-0.09695426,-0.36199492,0.4018205,0.621232,0.20779626,-0.13068134,-0.8533512,0.2736899,-0.047448635,0.30556446,-0.15550132,-0.0072532743,0.34082377,0.34358346,-0.20758808,-0.049759142,0.26891494,0.49256945,-0.19032344,-0.17202635,0.38224235,-0.70343196,0.20283774,-0.35099396,-0.009598792,-0.40838212,-0.108942114,-0.17539722,1.2762063,-0.066014916,-0.13869016,-0.34342727,-0.4263133,-0.3919918,0.23856771,0.2018047,0.10252207,-0.74846584,-0.623821,0.13901265,-0.027184097,-0.08538515,-0.23637684,0.2216509,-0.12017968,0.011685692,0.19822699,-0.08963856,-0.20652062,0.7801808,0.19554126,0.079351656,-0.23348564,-6.2524853,0.4070014,-0.103496276,-0.16052586,0.18336198,0.056528695,0.4442612,0.43937346,0.10026489,0.20988417,-0.17004962,0.06553414,-0.17482477,-0.11770782,0.26161623,0.028488949,0.08980866,-0.34690702,0.46143797,0.073054686,-0.15659751,-0.3136943,0.23956993,-0.6668756,-0.033314146,-0.073382705,0.27068493,-0.63474554,0.05078812,0.7449578,0.35935223,-0.002800569,0.024326071,0.39087054,-0.21918826,0.15868215,0.056776524,0.14333655,-0.030301377,-0.16487916,0.27227575,0.83244413,-0.19804908,0.016604707,-0.20600592,-0.63978755,0.5039822,0.22663552,0.03168261,0.13760829,0.22686471,-0.40995896,-0.3271312,-0.013745688,-0.1818203,0.09594937,0.22778389,-0.040433493,-0.71493804,-0.09914002,0.78206456,-0.03793101,-0.22744647,-0.3048586,0.20794588,0.24681796,-0.11396775,0.14257927,0.35455272,-0.3322558,0.13818686,0.3069382,-0.20950371,0.32982183,-0.053242937,0.011392564,-0.063512325,-0.077836365,-0.31138608,-0.014744408,-0.19191223,-0.7479269,-0.10039976,0.3526711,-0.8433596,0.13109915,0.7823001,0.16718619,-0.7310273,-0.8505939,0.21288916,-0.17329493,0.07868808,0.24217123,-0.0046655834,-0.030639717,0.2155312,-0.48485658,0.43897027,0.29258025,0.06067473,0.031057993,-0.15992044,0.3010102,-0.37276644,0.102147266,-0.16378605,-0.336299,0.1694225,-0.27859557,0.019408774,-0.12059544,0.21724647,-0.26354498,0.058856495,-0.07678287,-0.31431726,0.20865005,-0.021517366,0.5498013,0.07227677,0.1657125,-0.019146122,-0.032199766,-0.60442966,0.45936063,0.89674175,-0.2273292,0.18488207,0.45056415,-0.048638903,-0.32117116,0.29608613,0.29217875,-0.3633728,-0.2464261,-0.21897744,-0.28639525,-0.39904958,-0.4876133,-0.080292724,-0.5870887,-0.29642022,0.40221846,-0.08027012,0.20698807,0.12178143,-0.11524062,-0.18351436,0.2049512,0.45293635,0.105001524,-0.2845786,-0.32031086,0.059584193,0.523246,0.15164243,0.11158716,-0.014120251,0.28239924,-0.21482551,-0.11312453,0.040467054,-0.39295846,0.011962272,0.33693194,0.6855469,-0.03725902,0.18280253,0.32508093,-0.42853838,1.0430983,0.3334281,0.22863004,-0.121802226,0.5998148,0.15887393,0.24626008,0.37954107,0.05401719,-0.27047533,-0.08013335,0.29053497,0.11209822,-0.14803523,-0.37917513,-0.12839782,0.002210136,0.7088373,0.16946188,0.41863656,0.14641993,0.1980342,0.14007771,-1.1247854,0.27546912,0.20635357,0.06357474,0.3013698,0.087982655,0.48959348,0.005409453,-0.16028869,0.5137553,-0.18640873,0.042624056,0.6106434,-0.06256771,-0.08133717,-0.34303176,-0.5699725,0.3766594,0.20879081,0.58651745,-0.26916313,0.524814,0.15596765,0.1854947,-0.2102555,-0.019407518,0.8319562,-0.15665948,-0.0345404,0.3891465,0.59042746,0.864144,0.3346699,0.0494536,0.44874984,1.6239352,-0.13046,0.10336375,-0.0234375,0.059742555,0.031657264,-0.13082325,-0.082772166,0.006872967,0.23922001,-0.27186584,-0.3680992,-0.45930713,-0.00810191,-0.045255467,-0.025323905,0.03295213,-0.0056856126,0.32131517,0.36606038,-0.39386803,0.00069663674,0.20408605,0.42216837,-0.06928107,-0.030741096,0.04274615,0.26219714,0.56628203,0.16853522,-0.07439159,0.42304355,-0.25545245,0.10248522,-0.05957999,-0.5314153,0.85975546,0.029665224,0.4042964,-0.5786264,0.009559855,-0.449528,0.6373459,-0.5347787,0.26140895,-0.2331942,0.4091642,0.40464008,-0.115178876,0.15728629,-0.16874501,0.056236744,-0.0010656714,-0.58548164,-0.06507684,1.1241059,-0.052644596,-0.29441884,0.08026723,-0.3749735,-0.95008177,0.27337366,-0.47601828,-0.11037954,0.0918824,0.09744629,0.16178232,-0.5906305,1.1613427,0.5381406,-0.00894618,-0.05031114,-0.2567943,-0.19294319,0.25060874,0.09090647,-0.14888243,0.15954332,-0.43543452,0.48603404,0.1040522,0.17749369,-0.2957624,0.07149181,-0.28502625,-0.20508024,0.13071145,0.40068883,-0.43534547,-0.21460378,-0.09401716,-0.15593976,0.06471964,-0.31815058,0.2902047,-0.22346075,-0.005699899,-0.17028803,-0.37589508,0.054331083,0.103039145,0.0012849271,-0.037673175,0.010706972,0.19577667,-0.21995038,-0.34032765,-3.3103836,0.17303836,-0.060110923,0.09477362,0.74351764,-0.231928,0.120347336,-0.31749386,-0.08807236,-0.3782984,-0.12260448,0.19442098,0.2918071,0.30538088,0.059702285,-0.010540217,0.43833834,0.34869584,0.020764738,0.0094576925,-0.15667267,-0.06843233,-0.28580248,-0.012820393,-0.19568518,-0.30071384,0.026293304,-0.10689457,-0.24976921,-0.65891176,-0.43829685,-0.38458818,-0.29056486,-0.16951376,-0.029755116,-0.47815755,0.31371617,-0.41565073,-0.38998914,0.3208691,0.017853178,-0.047040544,0.36536154,0.49506682,0.3552527,-0.5233709,0.20552239,0.40444747,0.117962584,-0.091603756,0.4909575,-0.08827929,-0.27552706,-0.24507949,-0.061020818,0.1154241,-0.005676098,-0.25810453,-0.081211485,0.3502557,-0.008391038,-0.3971548,0.07361518,-0.6275227,0.14072503,-0.8806821,0.046672776,-0.31536713,0.40719894,0.2317608,0.039567165,-0.39368442,0.49189082,-0.400607,-0.11314508,0.32046545,-0.06285692,-0.043800905,0.32593063,-0.26120433,-0.40134615,0.73422134,0.15871452,-0.5157132
Oceania_19.png,-0.09156072,0.44615802,-0.20739079,0.29312754,-0.15922895,-0.06782517,0.19463511,0.18393877,0.5427631,0.15950507,0.40535638,-0.08613019,0.6632319,-0.3025882,0.13512677,-0.2731722,0.36202943,0.36718512,-0.07375375,-0.4449789,-1.8899281,-0.14333059,-0.036747325,-0.2443862,0.32258976,-0.032762706,0.13524494,-0.40320998,-0.33723712,0.38623315,-0.46702552,-0.23016089,-0.041755065,-0.20477802,-0.34594348,-0.19129461,-0.20437995,0.13809408,0.059568904,-0.37823558,-0.56677514,-0.08835679,0.35516676,0.20356491,-0.013409955,-0.9270336,0.1072378,0.20318413,0.08573144,-0.29231542,0.2435037,0.26042786,-0.10878106,-0.27032396,0.20056409,0.04958065,0.63345945,-0.06638956,-0.18173648,0.2313686,-0.6443006,0.40262717,-0.2389416,0.018467128,-0.42352456,-0.27196378,0.00658112,1.6432848,0.090812884,-0.21302533,-0.43891093,-0.37940022,-0.06286534,0.40821582,-0.08457917,0.2138648,-0.5409042,-0.63553745,0.16894716,0.07661888,0.04613674,-0.17773159,0.039217398,0.23723906,0.18813646,0.22000659,-0.03679648,-0.024065867,0.44581288,0.05548176,0.40933707,-0.013487719,-6.355922,0.77638435,-0.04320876,-0.011707104,0.25719774,0.1641111,0.6730254,0.04245012,-0.058336798,0.33193505,0.026341489,-0.039947886,-0.5884073,-0.025696978,-0.65736544,0.21692243,0.42153305,-0.2802873,0.2739488,-0.5119405,-0.17676309,-0.4298643,0.08945024,-0.3422807,0.40416667,0.106065236,0.08211882,-0.73203075,-0.20520988,0.50754744,0.29672542,-0.042981826,0.16092332,0.4417917,-0.41356575,0.21879208,-0.28992242,0.30686426,-0.16747387,-0.25954625,0.42156494,0.8758283,-0.3709346,-0.14608502,-0.46355325,-0.36396575,0.06243684,0.34896654,0.1791926,-0.066806406,0.46821883,0.007616887,-0.28696817,0.021922432,0.15484601,0.34091103,0.5117686,-0.25095898,-0.6152611,0.13539116,0.20024344,0.098334685,-0.48817325,-0.03176692,0.2873742,0.48482183,-0.15347455,0.12729004,0.31271115,-0.2915926,0.14152616,0.26397622,-0.22269338,0.7779906,0.28848803,-0.07193629,-0.16975501,-0.22890173,-0.29215646,-0.19442824,-0.257022,-0.88323784,-0.027334308,-0.11714705,-0.6599107,0.24610783,0.6685678,0.3699089,0.108190306,-0.40988332,0.22771043,-0.5765242,-0.099628866,0.18859535,0.16008474,0.019807115,0.01101315,-0.0585068,0.6118249,0.2711138,0.44301915,0.29252946,0.15781854,0.46347865,-0.608526,-0.17374964,-0.7871777,-0.074039176,-0.022404775,-0.08870273,0.376331,0.2441421,0.36473894,-0.24807636,-0.011509523,0.31701443,0.016520947,0.23137137,0.14006023,0.54799163,-0.25018552,-0.29452348,0.18210766,-0.26472032,-0.5335988,0.41248035,0.80711514,0.21583146,0.45649236,0.3899305,-0.055723034,-0.2796924,0.3882108,0.0920683,0.025865804,-0.034102682,-0.11491358,-0.04341376,-0.11100926,-0.032459497,0.548483,-0.2900751,-0.12290007,0.10814305,-0.11758897,0.08631718,-0.31815347,0.14130563,-0.107441366,0.061722472,0.38185126,-0.30542254,-0.32782838,-0.42640817,0.09280361,0.568832,-0.22145982,0.24300635,-0.16385558,-0.0442808,-0.18969399,0.110279195,-0.12682272,-0.14492333,0.028703233,-0.00273858,-0.29276398,0.12749791,-0.08937102,0.39556062,-0.20297259,-0.06214206,0.21306086,0.30347598,-0.105780646,0.30044192,0.40997988,0.3197502,0.7056606,-0.15216658,-0.2937871,-0.10759775,0.13909213,0.23815823,-0.099159,0.38210493,-0.13205323,-0.211465,0.81678796,0.1857472,0.17977402,0.10552977,-0.25946292,0.34544328,-0.14264178,-0.007851839,0.2279113,0.24155779,0.52265805,0.090596884,0.2783842,0.11654192,-0.014317792,0.72456247,0.07598458,0.0564339,-0.15593493,-0.056960374,-0.19995408,-0.25069124,-0.7252672,0.30381712,0.21124722,0.24502349,0.2925594,0.16826618,0.18382236,0.32281077,-0.36741295,0.18561639,0.87510717,-0.43997777,-0.18468061,0.44331032,0.21282704,0.49032184,0.049759746,0.05638729,0.21230577,1.4978139,-0.11918939,-0.074319415,0.30616745,0.40077916,-0.1185912,-0.34371513,0.20235008,0.016444102,0.15505394,0.19167385,-0.30836692,-0.17415574,0.08055916,0.039378658,0.55136627,-0.024468943,0.27635017,0.088528186,0.405199,-0.48881787,-0.012453996,0.45385444,0.05496032,-0.2736982,-0.21854123,0.362045,0.09988065,0.42493513,-0.08889181,0.031018294,0.38495404,0.14127105,-0.06386034,0.5189822,-0.20237896,1.1271541,0.04808677,0.27881247,-1.5168139,0.029735863,0.027442917,0.7350893,-0.91947144,0.11188295,-0.06670766,0.81209874,0.12574185,-0.37147385,-0.09775281,0.52225715,-0.105850324,0.021954656,-0.4730112,0.16544655,0.49267045,0.14053631,-0.35163584,0.030918196,0.017350787,-0.49168044,-0.08371626,-0.22784236,0.18823563,-0.21334213,-0.033514284,-0.46320418,-0.6347712,0.5735016,0.30645457,-0.20368217,-0.12896791,-0.062362477,0.042006347,-0.035275407,-0.002060771,-0.034576595,0.28992668,-0.69346374,0.3378745,0.05433905,-0.13425753,-0.41284394,-0.19774118,-0.42435506,-0.2547244,-0.28190663,0.24147904,-0.2071128,0.27952984,-0.029626086,-0.14473127,-0.015520573,-0.08120705,-0.16693872,0.2740243,-0.3236697,-0.14447245,-0.20954126,-0.06206263,-0.039123535,0.20052007,-0.23499456,-0.06348719,-0.032934338,0.124536544,-0.42301935,-1.2525858,0.16500658,-0.15543395,0.33549544,0.7331245,-0.081050634,-0.12502867,-0.07102089,-0.49671465,-0.26793662,0.18198986,0.31080014,-0.017568994,-0.1626127,0.10438803,0.071644455,0.16845667,0.09721741,0.1272116,-0.14609116,-0.040608227,0.27379236,-0.02950035,0.44847193,0.21071765,-0.15203609,-0.026033238,0.48566177,-0.13888215,-0.684259,-0.42018622,-0.3685366,-0.22257131,0.23236156,-0.015498163,0.03842154,0.24087898,-0.56138587,0.011749372,-0.12665442,-0.34384847,0.050206155,0.5750304,0.80785036,-0.0022174641,-0.7776669,0.052638218,-0.20606755,-0.060711697,0.17171395,0.5822442,0.011748463,0.15515062,-0.11889121,-0.1265013,-0.020622408,0.06452065,-0.33476698,-0.18480901,0.23114978,-0.12497638,-0.5627252,-0.09066211,-0.31112623,0.21062496,-0.90848714,0.07510434,-0.23564756,0.040491708,0.2600362,0.08857742,-0.13318682,0.17439048,-0.12472895,-0.08965929,-0.027600043,0.20453103,0.19538915,0.5536463,-0.35370302,-0.03228554,0.6957964,-0.1983683,-0.05756244
Oceania_06.png,0.15745616,0.40320933,0.21404777,0.3374877,-0.21460006,-0.09276875,-0.27975005,0.22657064,0.31519473,-0.23098299,0.5884256,-0.0030866116,0.4111608,-0.000117916614,-0.17068303,-0.27172893,0.66571957,0.18495232,-0.17081256,-0.37471032,-2.0826378,0.12244033,-0.17317614,-0.18076523,0.44840068,0.22338298,0.050586652,-0.40387693,-0.055661578,0.09257654,-0.52280176,-0.10407309,0.14838761,0.106038466,-0.71342635,-0.37812436,-0.409812,0.2573551,-0.07434546,0.7625739,-0.3662611,-0.48388064,0.6201307,0.20243259,0.30461317,-0.7427958,0.3082384,0.6121901,0.23128575,-0.23023385,-0.032567427,0.31496376,-0.20266011,-0.30129,0.032406136,0.5176092,0.4986863,0.3404381,-0.33117855,0.01702056,-0.57825583,-0.05626727,0.18638834,0.23456469,-0.062232517,0.0026639625,0.011230893,1.5347493,-0.19503313,0.24355385,-0.31053478,-0.40603006,-0.013445754,0.43081486,-0.41081133,0.22352184,-0.48641455,-0.5737694,0.35822552,0.14757417,-0.025797151,-0.4683506,0.2857906,-0.22702588,0.099705234,0.21261987,-0.3386518,-0.45980135,0.4906602,0.019814447,-0.015491258,-0.041605353,-6.1622686,0.2578485,-0.15165706,-0.1337848,-0.18200842,-0.07278488,0.3259598,0.36714023,0.036284104,0.24863476,-0.46164107,-0.11626205,-0.28638202,-0.15082386,-0.4457226,0.21663852,0.10804721,-0.4481064,0.30955213,-0.23931396,-0.002367299,-0.6261646,0.2104903,-0.49235475,0.3108174,0.11950313,0.3162095,-0.7361855,-0.06640294,-0.064180136,0.047036193,-0.3014774,0.018208355,0.4217977,-0.3624701,-0.124228425,-0.5356303,-0.0112758875,0.29512143,0.014031338,0.38007414,0.86956024,-0.23315167,-0.21573888,-0.4295275,-0.39648813,0.26245666,0.21937239,0.32662535,0.18261045,0.23276755,-0.034970697,-0.3397596,0.1650609,-0.19084734,0.0007931739,0.37974942,-0.14311986,-0.36571914,0.036345743,0.11148259,-0.040934235,-0.19630373,-0.1649812,0.13128799,0.076131836,-0.25940946,0.2589119,0.26264855,-0.2365104,-0.027544953,-0.119975135,-0.18891203,0.51444244,-0.24657446,-0.01170148,-0.35381782,-0.124261,-0.3777466,0.1690226,-0.2555556,-0.20945105,0.043263018,0.19804735,-0.61979383,-0.2550527,0.71341205,0.016169526,-0.30244806,-0.21846385,-0.14801693,-0.6526364,-0.44813874,0.60928494,0.23049864,0.023957446,-0.10457782,0.18528837,0.39757755,0.632906,0.40275937,-0.3016652,0.39995086,0.3635886,-0.2774557,-0.05408634,-0.6181545,0.3043851,0.2796293,0.00015500933,0.44462866,0.5133372,0.0903742,-0.23781416,0.10583103,0.062320575,-0.117577456,0.15850562,0.06084782,0.67544544,0.15350239,-0.035749532,0.052308768,-0.29998463,-0.04161325,0.37705633,-0.50310266,-0.11013512,0.52231836,0.31118345,-0.23911846,-0.26957262,0.48801023,0.3322506,0.05846476,-0.2687791,-0.37005368,-0.06167911,0.06190168,0.08510865,0.059751004,-0.048566207,-0.06873362,-0.022342935,0.42502072,-0.47631454,-0.3788409,-0.17965809,0.28182358,0.31939965,0.5087056,-0.38213205,-0.32145685,-0.1410944,0.27281523,0.5084728,-0.34814546,0.010675438,-0.31641847,0.2639023,-0.033710033,0.07927306,-0.45101503,0.03375018,-0.35145524,-0.26124877,0.72769165,0.030756518,-0.25351912,0.07138368,0.03254382,0.51456064,-0.05680465,-0.022980131,-0.0544024,0.26350102,0.40833724,0.15746854,0.5298667,-0.07991238,0.050763346,0.014932737,-0.23512937,0.39307117,-0.05270835,0.00038087368,-0.23685297,0.021162018,0.9296473,0.42842227,0.04620949,0.1297681,-0.11555183,0.2964341,0.102724254,0.039791957,-0.021289201,-0.23594114,0.44654918,-0.31526405,0.1808058,-0.12278396,0.018900111,0.6635843,0.4878038,-0.052816357,0.11749947,0.034281626,-0.05429464,-0.3541116,-0.24832281,0.32794324,0.07509391,0.12713802,-0.07304801,0.20780271,0.48670968,0.3604645,-0.25034815,0.010297757,0.8674893,-0.19231433,-0.26990533,0.115168884,-0.04451081,0.5982317,-0.0039521605,-0.024448007,0.24578801,1.7850459,-0.31685117,-0.33082244,0.14985138,-0.13832605,0.39015532,-0.057258368,0.2825212,0.020705089,0.027557105,0.071170114,-0.015507884,-0.71768194,-0.078291655,0.031606223,0.1555573,-0.24884766,0.34603623,0.04529488,0.20917775,-0.16022173,0.06634251,0.4246723,0.3463513,-0.2583795,-0.2738129,0.24435565,0.14913991,0.43281332,0.724113,-0.028206434,0.45815814,-0.089912795,-0.35764477,-0.07890842,-0.08870404,-0.04082267,-0.21174848,0.10927357,-1.1414516,0.23944953,0.1063174,1.1033996,-1.2808914,-0.18396464,0.02498623,0.5591599,0.524485,-0.20527032,0.29608938,0.0042884275,-0.23000008,0.13674183,-0.38326666,0.074938275,0.32536733,0.007960528,-0.43082637,-0.12777664,-0.37853524,-0.6117481,0.050373644,-0.19204924,-0.0006280616,0.008833885,0.22895232,-0.18319035,-0.1288849,1.722195,0.08362744,-0.014124662,0.08237585,-0.09192392,-0.32633108,0.020224785,0.24591933,-0.052683704,0.3507761,-0.031531036,0.124077074,0.029372707,0.5258149,-0.42855626,0.18931533,-0.025498353,-0.23699655,0.28949082,0.16445105,-0.57411176,0.17045212,-0.3783252,-0.020358747,-0.10070682,-0.27638036,0.2321489,0.057022527,-0.3858918,-0.32572007,-0.10280286,-0.42812097,-0.16265765,-0.061558895,-0.24099766,0.08410391,0.1621148,-0.12034615,0.046129808,-0.30809635,0.3005451,-0.58227235,0.1968225,1.5545359,-0.0752063,0.1844458,0.017161041,-0.28444183,-0.2062074,-0.10013139,0.63822466,-0.04443012,-0.15381043,-0.033532586,0.30227864,0.118101,0.046125516,0.17372626,-0.29191113,0.010994643,0.0731547,-0.31859568,-0.2482211,-0.08860295,-0.34509706,-0.11713893,-0.035748422,-0.0633646,-0.3514855,-0.41470575,-0.33728832,-0.3693784,0.33415896,-0.024364054,-0.26640463,0.25513783,-0.47718364,0.17831895,-0.2527941,-0.30424672,0.5250797,0.15121134,0.18793423,-0.1517623,-0.91380745,0.083205014,0.1812969,0.069801,0.39228064,0.5451257,-0.07753377,-0.02349478,-0.22196272,-0.008702561,0.28602865,0.17022836,0.151214,0.00773111,0.3327021,0.15215024,-0.6506094,-0.03044954,-0.45586878,0.45056322,-0.7348217,-0.0011343434,-0.4015252,0.34913307,0.26986414,0.19959019,-0.015632734,0.5142622,-0.13186996,-0.07592458,0.19868061,0.56443703,0.0677536,0.63750803,-0.3851925,-0.09082424,0.7640904,-0.020549513,-0.4826939
Oceania_34.png,-0.19215378,0.64434135,0.3031655,0.19432765,-0.025948286,0.2432654,0.06337075,-0.16550559,0.8486341,-0.25209767,0.23692474,-0.2226782,-0.30288342,0.006677214,-0.021109246,-0.3853526,-0.38211632,0.18105334,0.08351241,-0.25803083,-1.783464,0.2178446,-0.46618277,-0.0923788,0.04556323,0.18021393,0.3007999,-0.21269254,-0.09390167,0.38475293,-0.1733768,-0.14431264,-0.06925266,-0.39204612,0.13564208,0.07408559,-0.08013716,0.015873902,0.098068036,-0.2981377,-0.6142314,0.05772668,0.2122858,0.08739556,0.11632885,-1.0057971,0.352019,0.61536336,0.2586879,0.02272579,0.1310173,0.09403422,0.029127669,-0.27567723,0.21092558,0.30486557,0.5801867,-0.19174358,-0.53492147,0.060389407,-0.9580454,0.21727829,-0.10138036,-0.21394339,-0.5802788,0.107140996,0.37970656,1.289976,0.059567235,-0.06622508,-0.17306794,-0.08283645,-0.2876658,0.33313054,-0.13264082,0.42210996,-0.6087732,-0.32845822,0.17723909,0.38488802,0.035538547,-0.611404,0.03328836,0.39754412,0.28151008,0.24360096,0.56116647,-0.27282685,0.6508855,0.34385392,0.04643409,-0.13183604,-5.432454,0.15207611,-0.14983712,-0.16592062,0.27801886,-0.2808881,0.6291382,0.3864684,0.086607486,-0.1519224,-0.25805724,0.051042765,-0.5308491,0.077681765,-0.3089349,-0.035853207,0.1493597,-0.4540804,0.14146627,-0.52394927,0.04103825,-0.49233583,-0.013661257,-0.2703778,0.5671512,0.30697012,0.27026948,-0.8322873,-0.23954377,0.59041494,0.23316574,-0.26816845,0.19979934,0.2812823,-0.21710145,-0.40665552,-0.022474967,-0.044559464,-0.014512181,-0.5966277,0.3123158,0.7622885,0.076240204,-0.35683954,-0.32686627,-0.2708496,0.12981334,0.23394611,0.06298864,0.17544873,0.30491894,0.14859286,-0.4882424,0.024776682,-0.526114,0.22975707,0.28653967,-0.07376911,-0.5080573,0.2739377,0.056618847,-0.05398974,-0.16180053,-0.009219937,0.06484757,0.7216513,-0.22142035,0.18364912,0.042651437,-0.627273,0.20637803,0.21287945,0.27208468,0.11334063,0.49323386,0.15853888,-0.21679495,-0.021458402,-0.12809837,0.2460426,-0.25555545,-0.30817962,-0.3181633,0.47452575,-0.65553194,-0.234682,0.57344264,0.28336534,-0.4173895,-0.97312474,0.15654069,-0.017264165,-0.65426207,0.006457925,0.11978114,0.21011959,-0.019608736,-0.18628678,0.23114578,0.015095333,0.13194981,0.00935957,-0.29953223,-0.0012835935,-0.8496634,0.16518115,-0.49578524,-0.093114346,-0.11045052,0.006185144,-0.27461684,0.14906624,-0.08422154,-0.018194564,0.13285066,0.24432226,-0.44499692,-0.022017717,-0.40056282,0.7003174,-0.021906633,-0.09440615,-0.06525964,-0.25566378,-0.08215772,0.39827344,0.5160629,-0.20844279,0.24758008,0.48522744,0.5181723,-0.24524435,0.20793433,0.17994982,-0.011197739,-0.061114803,-0.08377166,0.056958005,-0.10488719,0.106752396,0.22342941,-0.48059398,0.12897955,0.17652217,0.3899253,-0.042873286,0.05029331,0.30766177,-0.2827409,0.28178114,0.36781526,-0.5927218,-0.5104826,-0.084966786,0.0148613695,0.7880215,-0.36091733,-0.26608002,0.09524569,0.20808324,-0.36857015,0.05461196,-0.22065765,-0.16742802,0.26492596,0.5702186,-0.7380159,-0.08143649,-0.34439176,0.14376181,-0.018969066,0.7142817,0.20736963,-0.105975255,0.20270193,0.2305885,0.25668907,0.29946783,0.4157135,0.14224179,-0.10794083,0.025529116,0.27932528,0.3149486,-0.15458024,0.0099273175,-0.20517635,-0.24587077,0.34932545,0.005286336,0.31609166,0.41297543,0.07307269,0.44120747,-1.30765,0.03392244,0.468084,-0.000437323,0.13327512,-0.31250364,0.16967176,-0.020911627,0.12205107,0.7684273,-0.51356786,0.20783776,0.19964598,-0.30341023,0.14511666,-0.26113784,-0.62664616,0.28368288,0.38481858,0.5469622,-0.07474271,0.02777652,-0.23672386,-0.12473874,-0.21858498,-0.28739813,0.7607328,-0.6293397,-0.27042875,0.328507,0.3486362,0.7191918,0.014427431,0.1081541,0.21557648,1.8295698,-0.22995648,0.018481515,-0.011701278,0.023928538,0.17805417,-0.31894895,-0.07145363,-0.2874139,0.07190837,-0.07661955,-0.12152871,-0.09015635,-0.07380703,0.4286626,0.3122778,-0.52102566,0.23719564,0.41558546,0.23246029,-0.20902224,0.020068586,-0.29549012,0.30522072,-0.48741275,-0.10799917,-0.05696801,-0.019344464,0.69364643,0.23933919,-0.26760328,0.37319955,0.23964411,-0.22464369,0.34022236,-0.15442277,0.5663274,0.26768357,0.5264693,-0.92838037,0.13652027,0.43330184,0.6340058,-0.8032654,0.1787376,-0.40134066,0.2943216,-0.044813972,0.12519927,0.020477116,0.16282067,0.38689512,-0.21361482,-0.021119192,0.32863218,0.6566787,0.1412493,-0.53860927,-0.071790144,-0.32438302,-0.98049337,-0.05558002,-0.25458133,-0.13672884,0.046176538,0.07092018,-0.13607064,-0.42320967,0.46817693,0.42272502,-0.048413947,-0.07222134,0.26447287,-0.20176251,-0.101293355,0.25092036,-0.92806,0.31655234,-0.26426935,0.40945488,-0.0150566995,-0.27134734,-0.27573848,-0.371831,0.006159827,0.043999627,-0.3733859,0.644938,-0.45257193,-0.009904258,-0.059369497,-0.35678285,0.31322587,-0.40291792,0.054487824,0.22496617,-0.18669066,-0.3387092,-0.3332674,-0.081339434,-0.013734937,0.009108163,0.040368646,-0.23157576,0.28173155,-0.09586396,-0.41001648,-1.4173154,0.094996676,0.16205078,0.2084744,0.5577745,-0.23872563,0.36746004,-0.23968458,0.15062323,-0.19867101,0.15838116,0.17375141,0.30613455,-0.021774843,0.13318822,0.22625858,0.39346474,0.23515676,-0.32486197,0.056305945,0.048688628,0.09208558,-0.0355898,-0.3145787,-0.25608486,-0.7678312,-0.04297215,0.07641345,-0.2488622,-0.82651347,-0.08334534,-0.3769428,-0.031968795,0.22106016,0.11451735,-0.49353713,0.10620029,-0.48261577,-0.0658266,0.27199006,-0.048939273,0.1255781,0.23901078,0.3622546,-0.031071017,-0.21661527,0.10188039,0.058175474,0.13349018,0.19710582,0.3881877,-0.35287756,-0.22373505,-0.035056546,-0.015818194,0.30089942,-0.030651102,-0.43667477,0.09344694,0.46150643,-0.08291096,-0.25843942,0.4105908,-0.45454684,0.25080878,-1.0213127,-0.05198358,-0.029760048,0.10371296,0.25940144,-0.36466786,-0.2387499,0.3737519,-0.19712833,-0.1301105,0.1958117,0.15134817,-0.10885005,0.25704473,-0.154609,-0.35067162,0.7616279,-0.20817825,0.1020257
Oceania_12.png,-0.31226933,0.46767074,0.2407599,0.28753805,0.316909,0.24781153,0.062797576,-0.26913744,0.79742557,-0.13333464,0.19889301,-0.2719251,0.24050702,0.20820615,0.26922256,-0.37765664,0.48146218,0.1984595,0.0015249252,-0.41438812,-1.6689397,0.73136723,-0.36593315,-0.19455048,-0.05647222,0.26862925,-0.12957944,0.078657195,-0.27079052,0.22917959,-0.18642241,-0.11020007,-0.1830793,0.00024801493,0.051127575,0.3046124,-0.28801027,-0.032871492,-0.012017712,-0.5462898,-0.56968033,-0.24734984,0.49761677,0.13572147,-0.26660264,-1.1102831,0.502429,0.7671963,0.43589354,0.2811488,-0.037904605,-0.03656683,0.055011805,-0.15320641,0.3208995,0.5721848,0.49573514,-0.28583464,-0.8436581,-0.10595934,-0.41717768,-0.0025106221,-0.40210393,-0.10494785,-0.6851381,0.09861356,0.16480611,1.0951958,-0.13477743,-0.099198624,0.42761093,-0.4920696,-0.34950846,0.21627167,-0.15807632,0.4333021,-0.6166038,-0.7290749,0.19771938,0.06100215,-0.15156585,-0.18646547,0.060510352,0.42394176,0.30249968,0.47506362,0.14926857,-0.29167622,0.5020596,0.2552706,-0.05998428,-0.38632435,-5.4868107,0.76168,-0.14646551,-0.124948144,0.26845658,-0.0912496,0.65535676,1.1559408,-0.06231218,0.1658166,-0.3218864,-0.14732283,-0.15557532,0.122871816,-0.24748391,-0.021683939,0.36983237,-0.35339043,0.49165702,-0.2815801,0.046286196,-0.4635526,-0.14654534,-0.17806458,0.49307296,0.35777128,0.27446854,-0.7550352,0.13970517,0.8297365,0.23897226,-0.11561506,0.06381385,0.17076993,0.3469381,0.077338904,-0.16051629,0.18888012,-0.062812954,-0.34828112,0.16118559,0.7856352,-0.10434385,-0.6057423,-0.021698393,-0.39393285,0.39042652,0.06289412,0.04261933,-0.09476058,0.17444581,-0.006976247,-0.1831179,0.036702573,-0.28682753,-0.20774497,0.26669836,0.12800963,-0.67355305,-0.2876835,0.60391855,-0.7363208,-0.0047784746,-0.041686296,0.19938172,0.31863967,-0.009391025,0.1472638,0.18358868,-0.5113268,0.25958824,0.18742332,0.038002275,0.1357691,0.55995667,0.09502438,-0.22006729,0.0921759,-0.18840975,0.2341167,-0.23736696,-0.71039605,-0.49861354,0.28059974,-0.63592917,-0.1514228,0.6882002,0.208731,-0.6791434,-0.5898006,-0.019316912,-0.2091784,0.020190336,0.07332196,0.22823174,0.19112565,-0.008666813,-0.068257645,0.06908074,0.03082738,0.014494032,0.1968627,-0.3318547,-0.118268766,-1.0257039,0.3721936,-0.5116343,0.09752059,0.15594745,-0.32152832,0.10310073,0.28574225,-0.00012104586,-0.38613945,0.2664104,0.18735668,-0.39037406,0.021728903,-0.06813927,0.22531828,0.08445983,0.25992706,0.027718503,-0.2942474,-0.31355327,0.14354554,0.14933303,-0.31767115,0.2547198,0.44216895,0.017541092,-0.09118991,0.06049283,0.2759186,-0.14245875,-0.19134732,-0.1328564,-0.26600593,-0.0024757963,-0.3283649,-0.11497711,-0.54831773,0.007408822,-0.07908437,-0.053267866,-0.2514145,0.14740556,-0.106939316,-0.117989846,0.25325042,0.21533029,-0.027316302,-0.015409544,0.02662123,0.07020676,0.5418719,0.121071935,0.108398676,0.091090314,0.4027623,-0.0088433325,-0.06765124,0.006500371,-0.55373895,0.06082596,0.39971367,-0.19937646,-0.23847231,0.003996212,0.23866466,0.19117655,1.2700396,-0.008965816,-0.17587858,0.06772724,0.20063335,0.2988032,0.10407409,0.29282656,-0.027618438,-0.2833722,0.10004316,0.3448183,-0.2740749,-0.23396178,-0.13619429,-0.11396838,-0.14983884,0.35766867,-0.15299076,0.30633765,0.15260915,-0.22398944,-0.2811343,-0.12749475,0.08592112,0.07370423,0.1501111,-0.36430874,-0.1201036,0.13798302,-0.21172714,-0.18239981,0.24379146,-0.29163533,0.22922261,0.20535114,-0.07081897,-0.019052118,-0.14683725,-0.7196561,-0.0024474878,0.345684,0.32573056,0.0197317,-0.070658945,-0.0069659585,0.015314453,0.011520378,-0.14885317,0.78397954,-0.16922207,0.19554467,0.0033085495,0.6185386,0.9620365,0.12786639,0.3724251,0.8969737,2.106237,-0.24742141,0.061728843,-0.10102019,0.10289141,0.05116421,-0.02504842,-0.10006865,-0.32426316,0.06268418,-0.3152889,-0.13947956,-0.093580045,0.0056299716,-0.08794816,0.030838333,-0.49595603,0.30073208,-0.037832398,0.21565145,-0.032454308,-0.18574946,-0.09918723,0.60901475,0.05627528,-0.10472754,-0.09397281,0.12375705,0.4510109,0.39846605,0.09790168,0.4505149,-0.052010126,-0.17929183,-0.608976,-0.15650097,0.76257265,0.055153325,0.5786137,-0.324584,-0.12363365,0.2526139,0.39432067,-0.74168056,0.15902525,-0.10898979,0.5234933,0.28106248,0.114941426,0.06164015,0.09974636,0.1483766,-0.18005013,-0.22620338,0.22258337,0.82136405,0.39625293,-0.58129376,0.21257661,-0.2331925,-1.1268369,-0.12496894,0.030142508,-0.29823616,0.12651888,0.23997435,0.033134215,-0.34342825,1.543714,0.5975973,0.28236616,-0.084801994,0.08144072,-0.10816501,-0.22184917,0.09170005,-0.590893,-0.007803127,-0.06193517,0.2993607,-0.278445,0.4328922,-0.35746044,-0.27447575,0.065469295,-0.30765617,-0.12559824,0.47800106,-0.5021312,-0.022515334,0.022205578,-0.26493275,0.2313042,-0.26475653,0.33830893,-0.109326676,-0.14600301,-0.60759515,-0.44330883,-0.2247045,-0.1356967,0.28494078,0.23665267,-0.18474317,0.46343976,-0.13821402,-0.5580867,-2.181603,-0.06279689,-0.041618966,0.34858173,0.89768183,0.11635347,0.07001949,-0.3756364,-0.1253216,-0.21211863,0.09641388,0.12746912,0.24686009,0.11494434,0.32532316,0.43395925,0.69208515,0.18179962,-0.0971083,0.053773463,0.07532586,0.27089489,-0.3383717,-0.32537973,-0.028418481,-0.5049611,-0.1589793,-0.41837877,-0.3597777,-0.62765193,-0.08430425,-0.54349446,-0.12598704,-0.15467212,-0.083169356,-0.3533405,-0.1296905,-0.4840471,0.0129895285,0.5177697,0.16611329,0.08221361,0.29530483,0.25996467,-0.014009725,-0.6597232,-0.0403419,0.24051985,-0.11770061,0.12361046,0.5344308,-0.6390012,-0.039613836,-0.34458762,0.08646644,0.019245192,-0.060174897,-0.3419844,-0.19293436,0.29487696,0.24759385,-0.29594046,-0.2266345,-0.27630404,-0.04201691,-0.75173384,0.08514908,0.26275045,0.051301204,0.17756407,-0.057597637,-0.1606219,0.25962743,-0.10202801,-0.34928522,0.50869495,0.45530227,-0.335542,0.36853424,-0.092221744,-0.30012998,0.9332403,-0.123752564,-0.010438329
Oceania_46.png,-0.074163996,0.38985914,-0.06830017,0.16938734,-0.27433276,-0.1180992,0.05451351,0.21082628,0.07016241,-0.32818013,0.40840346,-0.13421409,0.5672423,-0.080566935,-0.14661133,-0.100474685,0.25292775,0.3754881,0.5649662,-0.37399998,-2.1910315,0.21180287,0.14125787,0.090546586,0.3466642,0.56069624,0.11122632,-0.1990558,-0.44485843,0.36079907,0.06597874,-0.34553838,-0.06563895,0.116487876,-0.057762638,0.14758706,-0.20041323,0.43495283,0.21885686,1.0554819,-0.19364089,0.037821412,0.44851428,-0.021518521,-0.19523282,-0.9743821,0.92179924,-0.07506159,0.2904992,0.057417095,-0.20987615,0.48634696,0.3639993,-0.27627912,-0.29965624,0.43083137,0.024113901,0.3607244,-0.3530322,0.059799384,-1.0869507,0.2741978,-0.13192886,0.28569317,-0.23770717,0.061879996,0.30064708,1.6071607,-0.085487664,0.27426404,-0.2513685,-0.23225716,-0.27886778,0.4762124,-0.14210477,0.044324547,-0.30524108,-0.40079784,0.097594455,-0.24419516,0.031209154,-0.4997922,0.13755816,-0.52067184,-0.08917465,0.14598323,-0.19882041,-0.28621632,0.14419536,0.22764286,0.35549957,-0.16027072,-5.91985,0.3252643,-0.20502663,-0.03769463,-0.08094606,0.3392037,0.036079615,0.22551331,0.042543754,0.3685071,-0.4436698,-0.26759645,-0.028214414,0.42166924,0.06451695,0.22567299,0.2752168,-0.051904086,0.013132438,0.15619227,0.16020831,0.048342817,0.17820245,-0.123565264,0.13351503,-0.1320664,0.17127891,-0.48892102,0.09799894,0.17328414,-0.09009192,0.07289222,0.03873916,0.18090577,-0.2218676,-0.17956421,-0.35301667,0.11329426,0.10970172,-0.19964233,0.2125265,0.85706073,-0.0914789,0.2585514,0.018272892,-0.034715146,-0.07815924,0.107027635,-0.163859,0.19418482,0.40869996,0.01915216,-0.4368463,-0.10683359,-0.18062896,0.26922354,0.15350503,0.18053839,-0.8471197,0.19106965,0.8730897,0.09766248,-0.3559394,0.17557016,0.18154597,-0.05267087,0.27538854,-0.04449202,0.5191791,0.13225067,-0.016263917,0.18158136,0.0178034,0.018277496,0.19762218,0.5634419,-0.2301814,0.12907386,-0.3485542,0.04397022,-0.1982643,-0.4072019,0.15717271,0.19374323,-1.2140336,-0.04496567,0.015400097,-0.17499918,0.2918014,-0.59908557,-0.18054584,-0.21724248,-0.0957854,0.11041985,0.36798877,0.39223462,0.3131882,-0.3581494,0.21403031,-0.013046145,-0.16128229,0.11514139,-0.017393768,0.34155905,-0.4089814,0.2781176,-0.8647656,-0.042228557,0.48982772,-0.13366905,0.08298139,0.36843455,0.5975468,-0.1835945,-0.17055744,0.2008101,-0.017014429,0.12508431,-0.024336278,0.8224669,-0.18409155,0.3028717,0.073078856,0.063016035,0.27166224,0.040970266,0.18733872,-0.82336193,0.41897577,0.9097779,-0.037608743,-0.19389814,0.22716141,0.58700866,-0.19077395,-0.16698489,-0.056850374,0.089470625,0.060697183,-0.012743622,0.14489737,0.29848105,-0.19874635,0.28094092,0.37980866,0.08555462,-0.34986526,0.11545482,0.06376646,0.78656924,0.3169561,-0.33738828,-0.16307825,-0.35403633,0.12135148,0.82481235,-0.3005966,-0.008937646,0.07567184,-0.048615515,-0.04989165,0.087494865,0.24333704,0.010246262,0.1318667,0.21368401,0.22951794,-0.037555337,-0.053179823,-0.10630667,0.39524934,0.5675399,-0.3260124,0.18430553,0.34744745,0.21342489,-0.035385855,-0.05903083,0.19690377,0.022476435,-0.14806753,0.2542484,-0.111785844,-0.14338425,-0.47889113,-0.016593829,0.2567824,-0.017089121,0.79826874,-0.13633043,-0.086143404,0.31563988,-0.31821018,0.5604104,0.40589848,-0.64954674,-0.07091338,0.011773236,0.20367509,-0.41396922,0.5391903,0.008102573,-0.23048353,0.10237521,0.6382586,0.37170994,0.026896976,-0.38073796,-0.45874548,-0.45669588,-0.532495,-0.11451827,0.34420198,0.24686162,-0.5129195,0.063983485,0.38729072,-0.111507066,-0.17535141,0.19373107,0.85453147,-0.43106169,-0.1788231,-0.16884632,0.5973083,0.5847679,-0.121880494,0.0059892237,0.632666,1.3687973,0.03681469,0.057332918,-0.060752872,-0.14445849,0.5090957,-0.4120542,0.16735652,-0.14555173,0.12243824,-0.04764984,-0.1238813,-0.58481795,0.058152005,-0.5547715,0.5207421,-0.13787541,0.100569785,-0.08762216,0.1742539,-0.111325756,-0.2115053,-0.0907058,0.38089138,-0.2634283,0.09337892,0.20925371,0.17999198,0.24649227,0.89147574,-0.14686528,0.536596,-0.08537552,-0.33680797,-0.9364604,0.3695162,1.0352948,-0.06917279,0.09336917,-0.50878954,-0.11773087,-0.153168,0.48635986,-0.78140604,-0.0014208406,0.058188565,0.1241357,0.5871437,-0.37914845,-0.15759748,0.3384241,0.22642714,-0.5690787,-0.013342731,0.033168793,0.47894728,0.4748755,-0.65712154,0.24190792,-0.53180975,-0.88577396,0.12918602,-0.5092072,-0.029441848,0.07172979,0.20139384,0.1920712,0.105961874,1.7801547,0.123840906,-0.39339566,-0.15008374,-0.24814606,-0.43465185,-0.3771615,-0.20171192,0.0061334297,0.036651358,-0.3163786,0.3179472,0.44706002,0.36953944,-0.62232894,-0.097021334,0.12351708,-0.37274554,0.018280208,0.51301754,-0.27151018,0.35200983,-0.36145404,-0.17552564,0.258682,-0.35371676,0.29190454,0.100178115,0.41118053,0.020335602,0.23192495,-0.21416631,0.38029918,0.004841596,-0.62670726,0.055743687,0.289945,-0.31163752,0.3905855,-1.8206472,0.014906883,-0.44498563,0.52293265,1.1031886,-0.05025798,-0.040085785,-0.22170742,-0.24916404,-0.31492332,-0.17539325,0.58918375,0.08780273,0.33728194,-0.35755098,0.06406742,-0.053678874,-0.012588967,0.03011508,0.24469629,-0.12814549,0.2125265,-0.30022582,-0.17140467,-0.06550355,-0.19154893,0.118045226,0.10820161,0.28672692,-0.6134768,-0.24203175,-0.38244098,0.10453609,0.09068471,-0.16701607,-0.5324391,0.17649573,-0.42426646,0.062316388,-0.0061538517,0.064996004,-0.12693563,0.22193518,0.50213647,-0.054030433,-0.8220454,-0.006489262,0.16840783,0.056590885,0.12487137,0.33237064,-0.22349232,-0.02304376,-0.38419542,-0.018446013,-0.08091882,-0.115727216,-0.42282534,-0.3240485,0.14342201,-0.2720635,-0.4371226,0.45177156,-0.12440305,0.050252244,-0.4292547,-0.08116544,-0.421556,-0.009063587,0.05092548,0.05966361,-0.12095403,0.5849622,-0.013328366,-0.32427767,0.03302387,-0.014031939,-0.004537478,0.2792295,-0.419572,0.18073396,0.81674993,0.22542249,-0.13805869
Oceania_02.png,-0.64559555,0.40641442,0.21001276,0.004503416,0.36647612,0.021692313,0.16367908,-0.08615714,0.5665261,-0.3081075,0.2244151,0.026508778,0.5241982,0.28151906,-0.012550745,-0.076681495,1.003842,0.39995006,-0.16310704,-0.30490452,-1.5872827,0.34424657,-0.31705332,-0.13188514,-0.25632292,0.051887617,0.030478163,0.060121886,-0.22989143,0.7054318,-0.18193732,-0.30766928,-0.2968418,-0.059337668,-0.24222362,0.35592526,-0.033707306,0.17664444,-0.1231373,-0.45401108,-0.51205075,-0.46918523,0.23046455,0.33120143,0.058497824,-0.80008173,0.37144732,0.54423314,0.28285512,0.21432318,0.16189012,0.22098663,-0.1567798,-0.21609387,0.28961244,0.09119239,0.21711187,0.13911062,-0.7030436,-0.22706905,-0.74300987,0.0691635,-0.14103688,-0.32498193,-0.4830945,0.2839258,0.1035074,0.5442678,-0.026363123,-0.08389956,0.23775226,-0.37650597,-0.32794273,0.18694665,-0.10106802,0.6324278,-0.98483956,-0.63199884,0.3014525,0.00023815036,0.3341417,-0.024716988,0.15009943,0.37098277,0.4034618,0.30701393,-0.43202186,-0.39526233,0.072296485,0.11406559,-0.20195712,-0.15211703,-6.335125,0.8614027,-0.21372026,-0.23127432,0.40017214,-0.18088344,0.77123713,0.9748773,-0.08311014,-0.20069763,-0.58723086,-0.05101744,-0.12636004,-0.08483525,0.14515859,0.03135912,0.37157443,-0.38233256,0.7602013,-0.18500444,0.2508294,-0.12937024,-0.0012092888,-0.24587446,0.11016454,0.26419345,0.43799293,-0.54990166,-0.17171028,0.26256996,0.31377447,0.002135016,-0.37090522,0.1819247,0.23431015,-0.32705045,-0.29661328,0.12329129,0.02219218,-0.18967962,0.19845338,0.8339002,-0.38720918,-0.2581048,-0.36680835,-0.37845087,-0.12854588,0.25172842,0.135184,-0.08197559,0.1515962,0.23768805,-0.21380308,0.10070498,-0.24280778,0.13968101,0.19463992,-0.10348602,-0.45568964,0.09138732,0.62371165,-0.20698905,-0.033868372,-0.22683826,-0.11803689,0.13568665,-0.109694675,0.19826227,0.38316748,-0.7233438,0.100680836,-0.17828822,0.25817886,0.65217876,0.004365963,0.08692099,-0.15041779,-0.20878728,-0.27441162,0.25102434,-0.18302174,-0.40424618,-0.3271933,0.46950555,0.099671975,-0.3472812,0.57491,0.1294254,-0.62058496,-0.6443151,0.021120407,-0.28982165,-0.31155604,0.052094012,0.48968762,0.16075517,0.120903015,0.048899524,0.06553298,0.44341433,0.1398463,0.5066847,0.18479735,-0.016235352,-0.7130218,0.21386597,-0.64159364,-0.13315189,0.2053985,-0.33713835,0.27067518,0.29243806,0.024542458,-0.5466429,0.1599885,0.042373594,0.028522141,0.3732994,-0.016644351,0.23651677,-0.09837532,0.10284881,0.12024801,-0.23426816,-0.37143233,0.11750409,0.65198135,-0.3197529,0.52339417,0.14319146,0.026398541,-0.28855878,0.27837265,0.052792847,0.09635359,-0.24004596,0.29444322,-0.27589384,-0.061090864,-0.1394961,0.13114128,-0.6991135,-0.2008183,0.16419192,0.10229667,-0.13829899,0.18026274,-0.12979935,0.24923891,0.40488386,0.04687918,-0.35521176,-0.2008856,0.2627731,-0.22846544,0.5607798,-0.12755284,0.01711471,0.22559477,0.27283692,-0.12544069,0.05105234,0.07640209,-0.13476498,0.0027602315,0.13029993,0.04897276,-0.022317223,0.037280582,-0.17717975,0.34121132,0.63915676,0.4769156,-0.015511997,-0.15305987,0.14436622,0.19318461,0.29087767,0.51145923,0.18708597,-0.18416716,-0.060884356,-0.061780877,0.3124929,-0.045358717,-0.2716768,-0.15301229,-0.23876345,0.28060028,-0.09334572,0.23123492,0.0024056183,-0.27643585,-0.2797521,0.23793384,-0.0018171594,0.3443342,0.42846578,-0.5568135,-0.3307392,-0.01716806,-0.08449324,-0.5037905,0.21414393,-0.22768353,0.1378032,0.049220018,0.22486505,0.030719057,0.31228638,-0.43441895,0.04477989,0.35833043,0.3974408,0.05043444,0.13565853,0.2197134,-0.041684087,-0.025634434,-0.17244181,0.83168674,-0.4851947,-0.21614026,-0.005563274,0.5206779,1.2477458,0.0631416,0.4062593,0.95851564,1.8296173,-0.3311839,-0.18532063,0.020955622,-0.10488698,-0.19291732,-0.52397084,-0.21069187,0.022666767,0.1345841,0.026819743,-0.10519561,-0.07775292,0.08338592,0.1172733,0.27250767,-0.2725062,0.10909513,-0.01670492,-0.06327815,0.19477695,-0.14310825,-0.07592891,0.60792595,-0.3294816,-0.11196339,-0.52084005,0.2110953,0.41149342,0.08774404,0.36426452,0.23755263,0.0009782724,-0.18482357,0.084711365,-0.19261168,0.953297,-0.24013376,0.69392097,-0.6407135,0.01328288,-0.08189075,0.09852891,-1.6822107,-0.0820778,-0.20023121,1.0402427,0.17980184,0.22937478,-0.01973145,0.6213796,0.35008377,-0.15850109,-0.5591775,0.35823628,0.19300131,0.60668635,-0.6300596,0.1894173,-0.033589125,-0.6550368,0.06689382,0.13672754,-0.1657362,0.19077183,0.24187379,-0.22061294,-0.50646037,1.3939381,0.6722518,-0.10404174,-0.09155089,0.1290589,0.14221756,-0.04902061,-0.351571,-0.2347057,-0.24216646,-0.5411642,0.16503955,-0.02870182,0.20756133,-0.18110524,-0.40736258,-0.038592294,-0.19618021,0.048417345,0.22605656,-0.3510965,-0.2943104,0.09874684,-0.4916496,0.16970134,0.0070875287,0.43674868,0.042509228,-0.031107001,-0.79337776,-0.20386904,-0.32761586,0.10312861,0.109252125,-0.14754367,-0.025451623,0.27575305,-0.008749731,-0.35643116,-1.7286112,-0.18069041,-0.21210359,0.24129717,1.10821,-0.2647028,-0.051895615,-0.22951591,-0.34474415,-0.36309278,-0.08577762,0.24840899,0.12694207,-0.36420733,0.2676261,0.31874937,0.5029109,0.19853838,0.034467556,0.024319425,-0.0030327588,0.26931235,-0.31904155,-0.26653615,-0.3797735,-0.07953644,0.08447913,-0.20791396,-0.21358255,-0.4691239,-0.23226775,-0.558772,-0.10088663,0.27376607,-0.14013836,-0.1536208,0.13522403,-0.4261083,0.085889205,0.5658268,-0.040419787,-0.123401605,0.5530773,0.46852216,0.09711537,-0.35429233,-0.29669344,-0.16901469,0.0521444,-0.14227149,0.679851,-0.4570478,-0.12811811,-0.59458715,-0.015119992,0.36186448,0.23660389,-0.1260211,-0.22101925,0.31577438,0.3567532,-0.16104776,-0.124130175,-0.11662495,0.274668,-0.87500954,-0.32042828,0.19763595,0.24678656,-0.1917163,-0.321261,-0.31836456,0.67188084,-0.25302744,-0.089234844,0.29726982,0.63318926,-0.21305662,0.5866832,-0.10024676,0.20272799,0.7197492,-0.13650157,0.034029573
Oceania_21.png,-0.281749,0.49392614,0.12802684,0.15999351,-0.16158904,0.13567458,-0.01857116,-0.04889542,0.39383215,0.10012891,0.64410466,-0.046815023,-0.44456446,-0.15422265,-0.0057237484,-0.17788626,0.26997435,0.28819907,-0.23973647,-0.10078365,-1.8049684,-0.06051199,-0.16779834,-0.3634532,0.54125714,0.2434345,0.13364492,0.16417706,-0.00775123,0.17955638,-0.32151136,-0.45288908,0.27964172,-0.38151863,-0.1291913,0.072510116,-0.20106155,0.010909602,0.2986558,0.6064952,-0.43867758,-0.08377147,0.098878354,0.14226225,0.00041404297,-0.52329147,-0.04605872,0.15073942,0.07260447,0.49886546,0.23481846,-0.21692927,-0.12764598,-0.64421463,0.065622404,-0.02788636,0.36152226,-0.17770629,-0.02633138,0.087734014,-0.5920091,0.07627786,-0.13000749,-0.08137358,-0.3567384,0.018743293,0.3046177,1.4218714,0.08811538,-0.16000254,-0.32881156,-0.4639824,-0.4788119,0.21132463,-0.083381176,-0.29853976,-0.44449198,-0.19232893,0.23635593,-0.3852029,0.24687552,0.014666399,-0.10983139,-0.2841589,-0.24768278,0.037451804,0.3148232,-0.17804308,0.25749898,0.0716066,0.41850686,-0.21551935,-6.3113937,0.25397125,-0.22822422,0.12168706,0.123719424,-0.2166212,-0.3589491,0.23012047,0.20041236,0.28854606,0.050056025,-0.3521802,-0.3505537,-0.49574327,-0.48036298,0.051028788,-0.040876552,-0.21184328,0.15185857,-0.049045295,0.12121007,0.2189421,0.077068746,-0.5474472,0.6925498,0.030786648,0.091219135,-0.9678614,-0.022141403,0.057028905,0.3116662,-0.23335621,-0.29095393,0.00807275,0.015880898,-0.04285139,-0.071393624,0.056414858,-0.056992322,-0.19840565,0.23653367,0.85547197,0.16811296,0.056015134,0.13198027,-0.73572195,-0.054780565,0.6960515,-0.118708946,0.073182985,0.18507457,0.13568628,-0.06602462,-0.20560682,-0.46630704,-0.20874436,0.13639653,0.017229917,-0.57797074,-0.18520805,0.20269665,0.49103302,-0.08607791,-0.11745097,0.73920137,-0.26912898,-0.13807046,-0.23096588,-0.37445676,-0.51207834,0.2661279,0.2916972,-0.1636506,0.05459971,-0.08319254,0.43191662,-0.26952916,-0.16593197,-0.5959886,0.26243883,-0.30394387,-0.52470416,-0.2790381,0.25502974,-1.2677071,0.40424463,0.34197563,-0.22687174,-0.31966016,-0.6227042,0.21249565,-0.36777166,-0.16203287,0.2419194,-0.09057826,0.15469438,0.38662434,-0.635998,0.44007772,0.47417378,0.21505933,0.13913913,0.010324143,0.2283071,-0.32584792,0.04561559,0.20914784,-0.11630609,-0.21242869,-0.24544305,0.10826362,0.23572557,0.39042157,-0.09316591,-0.07792547,-0.033285588,-0.08353913,0.2974919,-0.36526534,0.473373,-0.08524048,-0.10626933,0.4410657,-0.35342836,-0.35117942,0.40999678,0.22325425,-0.2010885,0.60158956,0.74083096,-0.26378328,-0.42990565,0.18838848,0.25859553,0.022395937,-0.1558724,-0.6074309,-0.19862306,-0.45510307,-0.006072834,-0.21629113,-0.044365577,-0.2194893,0.41124782,0.28080487,-0.20445359,-0.20065668,-0.2119921,-0.4464952,0.59721553,0.47793794,-0.16357437,-0.2768574,0.25749487,0.22697055,0.51818913,0.19738531,0.14018211,-0.1388105,0.074283056,0.18763854,0.15054835,-0.4686596,-0.11311109,0.33424717,0.07142968,0.4851794,0.024683017,0.17460448,0.5335589,-0.17555174,0.7092905,0.103616595,0.17921403,-0.10427106,0.38140342,0.16434991,0.109384224,0.37323365,0.17628556,-0.2551496,0.02621384,-0.17743668,0.32375062,0.028159399,-0.02699998,-0.14807373,-0.041759346,0.41102815,-0.12855215,0.24193779,0.1253011,-0.0981724,0.059897862,-1.5744294,-0.025380358,0.5507384,-0.050853875,0.47365028,-0.076616734,0.27077395,0.16809171,0.09493111,0.36808783,0.34145692,-0.03450399,0.33815667,0.08087768,-0.25523686,-0.16047356,-0.7946258,0.019497894,0.6257069,0.45894682,-0.15322535,0.536684,0.3534734,-0.33311418,-0.6201199,0.023579657,0.8549304,-0.5409192,-0.20637956,0.4607924,0.9587623,0.8733695,0.31472528,-0.53830385,0.29476014,1.9211287,-0.16268274,-0.11850271,0.052770026,-0.14389975,-0.030804023,-0.11778255,0.14449528,-0.13509767,0.21069336,-0.37363827,-0.0876189,-0.6189937,-0.36364853,-0.21303865,0.40581053,-0.16881359,-0.12822346,0.5660265,0.21616918,-0.41781604,-0.16695592,0.30227655,-0.05959159,0.2962555,-0.11617404,-0.023128144,0.16971734,0.25210196,0.08346821,-0.0397927,0.72430176,0.16711417,-0.21721292,-0.17591938,0.23235828,-0.15543547,-0.0047898516,0.21028046,-1.0602429,-0.007941984,0.21825135,0.06499994,-0.30914706,0.38277388,-0.40889838,0.3249034,0.53146154,0.044889636,0.12566032,0.013517395,0.1449176,-0.2744677,-0.20434892,-0.39533103,0.84212923,0.2188427,-0.08340722,-0.19284695,-0.3558375,-1.1205143,0.25095332,-0.40324482,-0.08914093,-0.22798291,0.30715254,-0.29480952,-0.6057271,0.9699828,-0.023417778,0.14893198,-0.30546063,0.1671754,-0.29653794,-0.0023124246,-0.1983826,0.13244183,0.22782153,-0.12820119,0.28661352,-0.03558989,0.75641537,-0.11627583,0.14760415,-0.20729539,0.096165545,-0.024078786,-0.19462721,-0.07566811,-0.08262535,-0.19982418,0.0457754,-0.3517362,-0.5261724,0.11871374,0.2689044,0.08949507,0.027390301,0.19980393,-0.23052682,0.054183193,0.25703743,-0.021305673,-0.37465584,-0.16094112,-0.31581616,0.19579303,-1.9268731,0.3020994,-0.5181868,0.4175413,1.2783022,-0.44196635,-0.07974678,-0.56575114,-0.49264425,0.15329634,-0.15593007,0.10209877,-0.06997844,-0.0206917,-0.12646964,-0.06691815,0.1388263,0.44767514,0.23862313,0.4225071,-0.50491184,0.5436933,-0.073701605,-0.34008953,-0.07888914,-0.33723065,0.09792402,0.022696294,-0.019322108,-0.3326282,-0.2859763,-0.23057514,-0.46977025,0.3126753,0.18184444,-0.21925467,0.425227,-0.24572617,-0.034027632,0.018089041,-0.044510093,0.10884319,0.8084549,0.29934898,0.0060934275,-0.7523166,0.015851669,0.19887455,-0.023323353,0.10877922,0.5393827,-0.18069349,0.4801836,-0.08264526,0.068619475,0.39691967,0.07650462,-0.095819205,-0.27630383,0.2639544,0.32502797,-0.39191207,0.13289641,-0.40674287,-0.22003783,-0.9982264,0.054346442,0.050440297,0.3814284,0.15556532,0.0185842,-0.03513004,0.6301137,-0.07588955,0.47989193,0.26085252,0.5082835,-0.37598193,0.25855225,-0.14283007,-0.09837004,0.5355005,-0.42671654,-0.29267937
