,0,1,2,3,4,5,6,7,8,9,10,11,12,13,14,15,16,17,18,19,20,21,22,23,24,25,26,27,28,29,30,31,32,33,34,35,36,37,38,39,40,41,42,43,44,45,46,47,48,49,50,51,52,53,54,55,56,57,58,59,60,61,62,63,64,65,66,67,68,69,70,71,72,73,74,75,76,77,78,79,80,81,82,83,84,85,86,87,88,89,90,91,92,93,94,95,96,97,98,99,100,101,102,103,104,105,106,107,108,109,110,111,112,113,114,115,116,117,118,119,120,121,122,123,124,125,126,127,128,129,130,131,132,133,134,135,136,137,138,139,140,141,142,143,144,145,146,147,148,149,150,151,152,153,154,155,156,157,158,159,160,161,162,163,164,165,166,167,168,169,170,171,172,173,174,175,176,177,178,179,180,181,182,183,184,185,186,187,188,189,190,191,192,193,194,195,196,197,198,199,200,201,202,203,204,205,206,207,208,209,210,211,212,213,214,215,216,217,218,219,220,221,222,223,224,225,226,227,228,229,230,231,232,233,234,235,236,237,238,239,240,241,242,243,244,245,246,247,248,249,250,251,252,253,254,255,256,257,258,259,260,261,262,263,264,265,266,267,268,269,270,271,272,273,274,275,276,277,278,279,280,281,282,283,284,285,286,287,288,289,290,291,292,293,294,295,296,297,298,299,300,301,302,303,304,305,306,307,308,309,310,311,312,313,314,315,316,317,318,319,320,321,322,323,324,325,326,327,328,329,330,331,332,333,334,335,336,337,338,339,340,341,342,343,344,345,346,347,348,349,350,351,352,353,354,355,356,357,358,359,360,361,362,363,364,365,366,367,368,369,370,371,372,373,374,375,376,377,378,379,380,381,382,383,384,385,386,387,388,389,390,391,392,393,394,395,396,397,398,399,400,401,402,403,404,405,406,407,408,409,410,411,412,413,414,415,416,417,418,419,420,421,422,423,424,425,426,427,428,429,430,431,432,433,434,435,436,437,438,439,440,441,442,443,444,445,446,447,448,449,450,451,452,453,454,455,456,457,458,459,460,461,462,463,464,465,466,467,468,469,470,471,472,473,474,475,476,477,478,479,480,481,482,483,484,485,486,487,488,489,490,491,492,493,494,495,496,497,498,499,500,501,502,503,504,505,506,507,508,509,510,511
Europe_20.png,-0.2668763,0.66226774,-0.071416736,0.2459014,-0.1572946,0.06316838,-0.41557062,0.13175169,0.11754424,0.07186062,0.21460584,-0.13647744,0.09704707,0.16014239,0.4586479,-0.27613357,1.0547833,0.08181612,0.56762135,-0.4445981,-1.4721653,0.37074843,-0.26639315,-0.14329433,-0.21585736,-0.0022732317,-0.10202208,0.29007736,-0.24984989,0.42618743,-0.16560063,-0.15046686,-0.062229812,-0.08057596,-0.041936055,0.045260347,-0.22103272,0.64406705,-0.29902965,1.4409643,-0.48031306,-0.17799057,0.202644,-0.18471734,0.1934139,-1.6635466,0.9053209,0.43209404,0.5110922,0.050070237,-0.016978646,0.07485109,0.23102841,-0.05463834,-0.00042882562,0.45161328,0.4952386,-0.18950121,0.0791872,0.18443993,-0.15930377,-0.19005364,-0.2430043,0.035491228,-0.6229287,0.045335934,0.6834818,1.587674,-0.1876192,0.18997651,-0.21929339,0.3373208,-0.4270971,0.26287705,-0.09144634,0.12751858,-0.41864908,-0.7352387,-0.20286505,0.16212581,-0.21872139,-0.24701494,-0.03065516,0.05617941,0.42991215,0.3613874,-0.5937422,-0.45149004,0.36854225,-0.17477141,0.3845994,-0.22779015,-5.6697974,0.26651648,-0.37168628,-0.16575637,-0.262081,-0.21895197,0.09645252,0.2248366,0.042066656,0.20340359,-0.51551276,0.48332557,-0.22722597,-0.042588625,-0.22004445,-0.009664908,0.36430788,-0.38557997,0.02056919,-0.30947095,-0.040774167,-0.45446706,-0.2990746,-0.18726404,0.14741053,0.013828538,0.18805863,-0.9342955,0.07270315,0.15858895,0.5133284,0.019606762,-0.105543174,0.34251952,-0.034226257,-0.37115204,0.17714922,0.3519952,0.12793645,-0.1909304,-0.28157902,0.8098327,-0.31564865,0.0032982156,-0.40561432,0.030027067,-0.36896154,-0.103102,0.46609932,-0.03724359,0.6619798,0.24955304,-0.27774876,-0.0062456094,-0.273033,-0.18656868,-0.085347585,0.40106046,-0.5825106,0.17334956,0.4404365,-0.22130953,-0.30794182,-0.4210643,0.23432899,-0.10806421,-0.12612987,-0.20600083,-0.6129319,-0.24677981,0.6224787,-0.03370502,0.16101924,0.041994303,0.5747164,0.32877973,-0.31947908,0.0356251,0.019823745,0.06125788,0.25723124,-0.70426065,0.1628255,0.5454937,-0.35655874,-0.2108258,0.6104383,-0.18163946,0.03670185,-0.4411711,-0.10940509,0.2058151,-0.46822375,0.09193895,0.17074862,0.1174445,-0.09475842,0.13874413,0.23408866,0.3578271,0.044838637,0.17618015,-0.34837544,0.28602302,-0.40743512,-0.19216919,-0.1173507,-0.22594318,0.3096519,-0.20569646,0.7871891,0.23841918,0.31557208,-0.46425012,0.17846963,-0.27858576,-0.26750773,0.41130567,0.32727948,0.45871294,-0.09117206,-0.22892012,-0.5914679,-0.46384418,0.2389007,0.021749347,0.540267,-0.5977418,0.3767363,0.9577445,0.094396405,-0.4251821,-0.20896764,0.2820632,0.18160255,0.024484128,0.04214087,0.45763633,0.11736496,-0.33099633,0.63994104,0.112941325,-0.00962181,0.183308,0.12100944,-0.37285376,0.059310857,0.24502842,0.08026794,0.5268675,0.031353198,-0.6115053,-0.24873862,-0.2510663,0.042475555,0.5616566,-0.41547412,-0.31113064,0.14526424,-0.35405332,-0.2838796,0.20834202,0.14547972,0.19582616,0.2618259,0.3013927,0.88984174,0.06858119,-0.21900925,-0.31059548,0.03881538,0.45458156,-0.015077241,-0.016286068,-0.23705022,0.2740153,0.1547119,0.012068599,0.12047487,0.2509852,-0.23772264,-0.106780685,0.02560845,-0.09818897,0.003596902,-0.14221126,-0.3336211,0.21137659,0.33356443,-0.051866036,0.11930414,0.36636013,0.026147932,-0.054059796,0.20615435,-0.50537395,0.33543825,0.3594887,0.13364743,-0.04786037,0.27590755,-0.21801633,0.009315014,0.2257832,0.49811608,0.49093932,-0.21951683,-0.22331549,0.106065765,-0.27195144,-0.68936646,0.13457015,0.12828809,0.2966032,0.08256851,-0.08177829,-0.06270536,0.3201959,-0.13339305,0.10937052,0.80584586,-0.23377186,0.060833704,0.5759518,0.557021,0.32490644,0.20975229,0.2846886,0.41941506,1.671547,-0.42624146,-0.16831759,-0.2040431,-0.25963202,0.24396305,0.58070976,-0.06272728,-0.0847223,0.07904569,-0.44701982,0.22908828,0.12046457,0.040283233,0.0625067,0.16163194,-0.31960526,0.38489494,-0.06123991,-0.49108297,-0.04366358,-0.20062435,0.20339446,-0.0073616356,-0.014368042,-0.47568372,-0.15740536,0.66532755,0.57118905,0.04703687,0.23395965,-0.026491053,-0.42523542,-0.1287432,-0.32098368,0.5127394,0.15518358,-0.295857,0.48810235,-0.8690628,-0.29664445,-0.057168573,1.3326833,-0.0013073683,0.2455891,-0.15990932,0.4490658,-0.029785387,-0.2918927,-0.06017547,0.37819886,-0.23500723,0.30163312,-0.36382467,0.1270783,0.73472524,0.29919222,-0.9301369,0.26637304,-0.050789762,-0.7600449,-0.24934047,0.12123799,0.21445648,-0.5921718,-0.0989048,-0.24204911,-0.8066239,1.2082067,0.15774885,0.02487119,-0.19997673,0.07303715,-0.05664187,-0.08343267,-0.34987456,-0.39605495,-0.023620035,-0.11085512,0.27305865,-0.03699495,0.06163083,-0.3180279,-0.30574912,-0.08747617,-0.31894967,-0.25312337,0.44796246,-0.20029089,-0.22657123,-0.14205801,0.07710065,-0.0037001222,-0.46082503,0.15603408,-0.15022328,0.16730702,-0.49008545,-0.20358825,0.37108937,0.057478026,0.58154523,-0.35393095,-0.06329582,-0.17049089,-0.13859126,-0.3961627,-1.5576217,-0.020925112,-0.050765686,0.2552827,0.796874,0.17793232,-0.18432924,0.23750658,-0.117190406,0.019203007,-0.4017414,0.20503369,0.02138742,0.35336334,0.48164836,-0.14407676,0.16161986,-0.4041188,0.5128937,-0.30257812,-0.21534753,-0.11521621,-0.176233,-0.050257385,-0.26194608,-0.6191946,-0.23060313,0.24557325,-0.43644124,-0.27186018,-0.008699119,-0.47997308,0.0055288374,0.045650274,0.013679948,-0.26360834,-0.14006509,-0.27446857,0.5295925,-0.082099825,-0.26677805,-0.4172873,0.061999872,0.12265523,-0.21617314,-0.02833318,-0.2342763,-0.28298,0.0023767613,0.10664578,0.049654886,-0.6363744,-0.44295835,0.00883453,-0.23611644,0.38765213,-0.002440568,-0.39324704,-0.0054530203,0.15957485,0.48999494,-0.16233836,0.21159746,0.3094593,0.50552857,-1.0985298,-0.011122121,0.052898385,0.49762037,-0.42712194,0.028960183,0.19834253,-0.20192683,-0.23738903,-0.21949482,-0.21829756,0.15842889,-0.26147607,0.37068707,0.21942562,-0.35513675,0.6580304,0.12609497,-0.10734597
Europe_26.png,-0.394877,0.54198843,-0.09205899,0.07875428,-0.26973173,0.077291325,-0.25174803,0.00868088,-0.09188521,0.16113177,0.01218231,-0.41311973,0.6008315,0.027468853,0.37726858,0.13217835,1.2298746,-0.02870648,-0.055874966,-0.42321765,-1.9060576,-0.1188128,0.13541117,-0.64942485,0.37282103,-0.0323669,0.21835802,0.20569704,-0.14162356,0.08784748,-0.29915917,0.05570452,-0.033810444,-0.031296603,-0.23123907,-0.017503813,-0.332099,0.40038013,-0.7339727,1.0858338,-0.3881333,-0.32869437,0.31287864,0.1649074,-0.07238461,-1.0220807,0.96470046,0.2303389,0.09763069,0.44757605,-0.09174524,-0.16574843,-0.08069028,0.25737727,-0.55635,0.3310176,0.36148426,0.014629491,-0.018674374,-0.19808565,-0.11200249,0.095147304,-0.26764372,-0.11691959,-0.13216954,-0.10612299,0.36721203,1.6875858,0.1393612,0.107011065,-0.08013496,-0.021419296,-0.55712974,0.2969165,0.035221033,-0.08171775,-0.76245886,-0.7030215,-0.31974858,0.005145915,-0.091388404,-0.029305384,0.1426742,0.010932937,-0.04294587,0.4127822,-0.42952484,-0.54277563,0.7765349,-0.35640243,0.6473407,-0.23118761,-6.1004,0.18767872,-0.35811278,0.10215482,-0.42127767,-0.37964898,0.33942682,-0.00053796545,0.22939673,0.21013816,-0.35541257,-0.18022713,-0.31486607,0.06044381,0.31590173,0.49250638,0.29064053,-0.5180654,0.45087802,-0.19077715,-0.15166172,-0.21843235,-0.20240206,-0.20144811,0.08644275,0.37870538,0.021236446,-0.26600704,0.116600946,0.04658959,0.19848686,0.4170273,0.080686055,0.49250552,-0.21648923,-0.27988547,-0.022343993,0.03461863,0.16803655,-0.14085096,-0.37069896,0.83011246,-0.2678886,0.116211995,-0.5915557,-0.36759546,-0.085170895,0.09438428,-0.015677722,-0.03131309,0.67286915,0.39956376,-0.46373802,0.23379478,-0.034723975,-0.40485328,-0.2324583,0.04940875,-0.5870576,-0.30040404,0.38416398,-0.62550914,-0.3736843,-0.32670087,0.21917684,0.18283603,-0.26337186,-0.0008747764,0.4211799,-0.5592239,-0.20033771,0.002453491,-0.070456594,0.001750797,0.4428556,0.4212943,-0.1182864,0.47740957,0.4176918,0.37219045,0.07410411,-0.16446656,0.069084674,0.8795256,-0.8569937,-0.028472155,0.6063205,-0.06351842,-0.1850523,-0.6924875,-0.01340504,-0.011899322,-0.27536428,-0.38013205,0.3357438,0.22588778,-0.024135754,-0.11269461,0.12711383,0.4887299,0.0021626055,0.09609039,0.28102568,0.52361554,-0.760471,-0.076906696,-0.27092597,-0.43517953,0.31433773,-0.45888406,0.46249068,0.21461965,0.27120733,-0.4662405,-0.023295857,-0.5198135,-0.18803819,0.38032058,0.4480961,0.64026725,0.0934276,-0.035702385,-0.0903242,-0.07532608,0.055960033,0.3468216,0.86768997,-0.21021286,0.4793831,0.6343775,1.8939376e-05,-0.45640326,-0.07842353,0.09549829,0.12760472,-0.31484792,0.25528273,0.1940462,-0.1520901,-0.6621253,0.6608361,-0.00916183,-0.18487869,0.071803205,-0.16739607,-0.3112982,-0.16643566,0.36437404,0.5127898,0.4048312,0.1482687,-0.38555887,-0.3147723,-0.5533075,0.25143868,0.40139312,-0.45052627,-0.50438994,0.17457846,0.17804416,-0.03660591,0.69759685,-0.068919234,-0.3141535,-0.112970784,-0.087272,1.5731,-0.1099861,0.05411379,0.04020089,0.10798466,0.16917032,0.40304428,0.41318864,-0.27391446,0.18759562,0.054292426,0.16347113,-0.041234396,0.16531536,-0.15038666,0.16599806,0.37361223,-0.010067597,-0.012096174,-0.09150633,-0.40880945,0.20344314,0.28796485,-0.094752,0.028438747,0.6878194,-0.14058414,-0.039462723,0.7345015,-0.27803892,0.15745802,-0.14752117,-0.02459851,0.08023751,0.35917914,0.04141964,-0.19759028,0.49574816,0.2949093,0.15547001,-0.08897778,-0.09031296,-0.18751137,-0.2525555,0.13946894,-0.04337232,-0.2697827,0.3522457,-0.35770372,0.14324869,0.24434876,-0.012739092,-0.15149392,0.16029377,0.82748294,0.13971648,-0.051426828,0.5914584,0.7071563,0.5242402,0.3113574,0.39950165,0.31452024,1.9683083,-0.15262508,-0.31168783,0.14031956,0.047897168,0.024077535,0.23123343,0.007124163,0.008516297,-0.4901925,-0.36891258,0.2344887,-0.21237846,-0.016186226,0.19250804,0.062863015,0.026379123,0.20690224,-0.16047913,-0.09032734,-0.3506608,-0.37398767,0.141054,0.17122728,-0.029712215,-0.12353357,-0.25107676,0.39543632,0.20522693,0.3179956,0.048409626,0.10309823,-0.4322222,0.12960729,0.046215698,0.2668045,0.9419831,0.08797226,0.27446252,-0.9067985,-0.25323272,-0.23399687,0.7044817,-0.294296,-0.06723976,0.057686955,0.3628426,0.285944,-0.35423273,-0.39358658,0.01162364,-0.19009647,0.5515612,-0.48836243,0.412665,0.50645584,0.47492993,-0.5770484,0.10169693,-0.21182787,-0.8582767,-0.08571193,0.5087204,0.05315706,-0.43239978,-0.029432356,0.17040497,-1.0628542,1.0890892,0.17882109,0.1695291,-0.049721465,0.19798012,-0.18487428,-0.14543766,0.0201585,0.027091637,0.097680256,-0.09065436,0.25402284,0.11346371,0.22255747,-0.19518474,-0.056722168,-0.23160669,-0.52210194,0.057286203,0.2241723,-0.1696635,-0.34480768,0.025598533,0.061277043,0.38020745,-0.1585521,0.26463902,-0.33058423,0.41465664,-0.4083775,-0.17219779,0.14544812,0.1340147,0.2130393,-0.2259882,-0.36080605,-0.23110378,-0.27823523,-0.19268344,-1.3523977,0.3071584,0.1222631,0.71366036,1.106679,-0.06507625,0.070096485,0.18684031,-0.40885845,-0.18879862,-0.3617615,0.0878025,0.061840322,0.05608273,0.38011855,-0.15950745,0.34004736,-0.5301271,0.60293543,-0.03371218,0.1953625,0.08791947,-0.13470565,0.11345996,-0.2677364,0.12714899,-0.105902486,0.26790467,-0.67263526,-0.10558416,-0.013317287,0.049009785,0.034269318,-0.10189711,-0.14250913,-0.066056125,0.026284039,-0.076605946,0.5825318,-0.15829243,-0.6136923,-0.52356815,-0.020457879,0.26529428,-0.033712104,-0.019088395,-0.21217304,0.18104368,-0.1787584,-0.11141344,0.22754341,-0.45732814,-0.35428095,-0.06317662,-0.54304427,0.18030012,0.0597129,-0.28781044,-0.184954,0.32589537,0.12999904,-0.108699545,0.15330821,0.38248408,0.32938358,-0.7944691,-0.03887976,-0.33516765,0.4083972,0.11721868,-0.020161115,0.34848347,-0.10621817,-0.26033294,-0.28275064,-0.12957627,0.27110344,-0.21751864,0.49432606,0.09012444,-0.69681895,0.79809713,-0.07075785,0.41265926
Europe_43.png,-0.17718568,0.6911797,0.083979264,0.145273,-0.074911356,-0.14749745,-0.08404205,0.51908934,-0.08474009,-0.18534788,0.10437804,-0.81853926,0.2527616,0.11866427,0.12513173,-0.1758582,0.60178375,0.1892691,0.14440215,-0.33356223,-1.051142,0.26142868,0.027890678,-0.20342885,-0.22894481,-0.32830334,-0.12567793,-0.25112674,0.02279969,0.53061223,0.013376307,0.24373063,-0.57273656,-0.073866926,-0.060294792,0.07679365,-0.2089476,0.12940454,-0.3004212,0.8344088,-0.76371765,-0.22521733,0.52341217,0.18685508,0.19397625,-2.295372,0.78722537,0.23090053,0.25636172,0.2741853,0.3631873,0.149205,-0.05560191,-0.19023767,-0.2388634,0.29081598,0.41615564,0.12764278,-0.14215133,-0.14598289,-0.99655944,0.10933715,0.13157865,-0.29529414,-0.12175116,-0.21382873,0.26138896,1.4905684,0.009672917,0.39564535,0.04960185,0.13468589,-0.6205838,0.22312722,-0.18949053,-0.30472165,-0.931997,-0.43424287,-0.15822372,-0.4174254,-0.20484763,0.27466148,0.46643215,0.1330629,0.11452267,0.32509074,-0.49832827,-0.4187473,0.7660348,-0.21386251,0.6566934,-0.011275679,-6.1161547,0.06591868,-0.016674373,0.07589316,-0.19281314,-0.02630677,0.32789123,-0.17912474,0.10808933,0.2757793,-0.38578796,-0.4482148,-0.17110378,-0.176904,1.0222874,0.18613175,0.18769982,-0.24511865,0.3978988,0.19773608,0.17768283,-0.15716292,-0.025379226,-0.1978834,-0.060386926,0.20837723,-0.24482666,0.058562856,0.3696161,0.29346824,0.15430182,0.5614306,0.18664946,0.28820926,-0.01897191,-0.57426554,-0.07757752,0.19094911,-0.0071259085,-0.6064515,-0.33203676,0.85889965,-0.22995055,-0.21047422,-0.25727355,-0.28761703,-0.1860791,-0.005167067,-0.017239816,0.35827714,0.6658677,0.16248178,-0.5193813,0.057958525,0.091031134,-0.49867555,-0.28586861,0.19965276,-0.46593153,-0.19661418,0.60103613,-0.39839286,-0.022081316,-0.3122752,-0.1403712,0.053407818,-0.1042575,0.14309533,0.2304281,-0.5443451,0.1764438,0.09938635,-0.0008356529,-0.0050449967,0.60105526,0.6248034,-0.010342775,0.11502147,0.4686001,0.009416014,0.046500564,-0.45064276,0.037572056,0.3938048,0.13933085,-0.011518985,0.06233659,0.29911754,0.2883894,-0.8016373,-0.001650963,0.062463075,0.032903813,-0.08392253,0.20493399,-0.3270671,0.1731607,-0.25228804,0.07138077,0.7079074,0.41128647,0.2305534,-0.104974106,0.22413492,-0.3113032,-0.28395241,-0.41661906,-0.13483599,0.0046808273,-0.18956232,0.5215141,0.3697646,0.3474565,-0.16957594,-0.41781178,-0.21555412,-0.2350676,0.18438102,0.2544065,0.20906757,0.042367235,-0.26544404,-0.19570884,-0.27182612,0.33525822,0.5254815,1.2319319,-0.5954019,0.41996264,0.3435997,-0.28914946,-0.02923952,-0.17558198,-0.06736028,-0.111623615,-0.47834098,0.33763424,0.6175386,-0.13811353,-0.27812576,0.29102826,0.2822153,-0.45458364,-0.19582078,-0.12138209,-0.044684984,0.010045372,-0.0034637004,0.17193238,0.4807953,0.08035207,-0.03657075,-0.18102765,-0.23153743,0.35458693,0.4544812,-0.04019286,-0.053472623,0.10667579,-0.022454433,-0.24701056,0.40889004,-0.18417616,0.08367889,-0.2536897,0.16870818,1.1872374,-0.05536291,-0.07595814,0.079168685,-0.032281414,0.4803975,0.47855276,0.3736866,-0.14311036,0.16973355,-0.19898057,0.2096265,-0.07404539,0.14957383,0.0063599497,0.30148163,0.49751627,0.13089561,0.03511812,-0.13484049,0.08536431,0.18686505,0.4170501,-0.12036466,-0.017332122,0.26854405,-0.015300907,0.08286878,0.29588065,-0.45491904,0.29540643,0.058727693,0.25564143,-0.00042544305,0.039794907,-0.15815294,-0.22400033,0.44530118,0.54277325,-0.256431,0.19235589,0.07527008,-0.1653214,-0.14641687,-0.11937012,0.023422714,0.06032575,0.40854537,0.073104076,0.20747463,0.308504,0.07750751,-0.2535415,-0.15365687,0.8555406,-0.11356938,0.11141472,0.08249745,0.7215182,0.26574662,0.38344648,0.53554034,0.4118144,0.92132276,-0.07449776,-0.12541354,-0.2703358,0.15135787,0.32038352,0.16507232,-0.014708728,0.018879592,-0.11210734,-0.03540747,0.11747357,-0.33991954,-0.06403813,0.07323198,0.13625824,-0.4008422,0.23416099,0.08958314,0.28550643,0.12105058,-0.27528173,-0.20246409,-0.064212665,-0.25336996,0.05059421,0.11470026,0.6022563,0.18402345,-0.31666458,-0.033153538,0.060482644,-0.10355759,-0.19076104,-0.18758292,0.056168854,0.5070244,-0.032897733,0.3813498,-1.1598302,-0.14537084,-0.027158752,0.83358926,-0.26247004,0.27189896,0.074010566,0.09922379,0.052315913,-0.13345727,-0.2203143,0.25668305,0.24501023,0.2899623,-0.37613708,0.3041771,0.61024636,0.5782305,-0.42773473,0.16984445,-0.58373183,-0.71318287,-0.18629453,0.33672586,-0.112237945,-0.31651062,-0.055955973,-7.860956e-05,-0.9328248,-0.0050552487,0.033396766,0.38567227,0.16210172,0.119291,0.008510448,-0.40028888,0.023405,0.12879854,-0.3176033,-0.22488406,0.4856639,-0.018668272,0.088462606,-0.4133041,-0.15142027,-0.2469745,-0.025185212,-0.065582015,0.65732574,0.00992091,-0.7551725,-0.34528914,0.044045016,0.34389085,-0.18236053,0.06502488,-0.117672384,-0.20615223,-0.27653196,0.1419197,0.49178606,-0.03730409,0.4440512,-0.38842675,-0.72106206,-0.025785238,-0.753001,-0.4451479,-1.316819,0.49150062,-0.2534679,0.44025162,0.83127785,-0.47335163,-0.3253824,0.14427632,-0.12370944,-0.35206977,-0.41988862,-0.31099954,0.08870523,-0.0027160197,0.08646852,0.02265276,0.38975084,-0.4398061,0.18723792,0.03607005,0.058538824,0.5781882,-0.556004,-0.005811801,-0.40756637,0.05003588,0.14685127,0.049850903,-0.2146207,-0.42590576,-0.024944998,0.23481327,-0.025606945,-0.17875883,-0.016582912,-0.26137748,-0.16312136,-0.14652115,0.17215215,0.0051314235,-0.2706053,-0.74498963,-0.15496711,0.49262294,-0.13296685,-0.33376876,0.13780132,-0.3115356,-0.27900547,-0.072966784,0.31335357,-0.1840119,-0.26432043,-0.034356833,-0.5860455,0.10790577,-0.11664118,-0.49407035,-0.021887083,0.27330083,-0.10191608,-0.45638633,0.36048958,0.12177393,0.14616083,-0.47496077,-0.16893591,-0.098573804,0.14326997,-0.24360453,0.12735143,0.20130801,0.06351334,-0.21861161,-0.04559037,-0.2734327,0.83608407,-0.6580506,0.41642416,0.37820977,-0.21938659,0.6849358,-0.05387363,0.025233887
Europe_06.png,-0.4340241,0.5010029,-0.27484626,0.40217093,-0.12638396,0.14267899,0.13231468,0.26172486,0.37022188,0.08048348,0.2596472,-0.58302975,0.16421679,-0.03171231,0.49418193,-0.047387537,0.40819147,0.27708825,0.04273536,-0.46356517,-1.9438398,0.09907213,-0.07995036,-0.24038315,-0.270692,-0.2604732,-0.12293118,0.23371144,0.12678511,0.37658858,-0.07426795,-0.033745572,-0.22284473,-0.19907495,-0.21956196,0.000863269,0.23606613,0.08725408,-0.2530078,1.6436381,-0.5984586,0.045804083,0.048072785,-0.021284929,0.6739888,-1.8086301,0.77219117,0.40330786,0.12407056,0.063944444,0.26866418,-0.06266945,0.23781914,0.20613801,-0.0788491,0.52210605,0.3396028,-0.060362652,-0.03979126,0.11011459,-0.7251459,0.19138122,-0.06608063,0.14420448,-0.23584515,0.14681455,0.33951664,0.9831246,0.15506884,0.098440394,-0.05520795,-0.47030586,-0.40220284,0.3867192,0.060968034,-0.1929651,-0.6315326,-0.21651818,0.14098409,0.022644192,0.047749147,-0.37455672,0.111026965,0.23956004,-0.21998782,-0.0066726357,-0.0097965,-0.16085225,0.78425217,-0.29456306,0.46839422,-0.10462319,-6.1778684,0.3761598,0.085166946,0.382795,-0.09595931,0.24232388,0.05717224,-0.005897462,0.13370511,0.37200737,-0.4629393,-0.17515545,-0.423844,0.67863846,0.22589055,0.43200165,0.1917851,-0.021834172,-0.03524088,-0.12645957,-0.10479103,-0.526601,0.043962985,-0.24750653,0.08366214,0.2206929,-0.19497599,-0.6118672,-0.03921415,0.46000022,0.39231616,0.17262506,0.09638031,0.40596145,0.041631773,-0.2183277,0.17833199,0.25554428,0.4946937,0.05546089,-0.18593626,0.81178,-0.59055877,-0.21233213,-0.56737375,-0.26770222,0.038038515,-0.13822103,0.27001166,0.0037857592,0.25369728,0.2293663,-0.28024256,0.20861022,0.21930166,-0.2304692,0.18794717,-0.0064444095,-0.3860752,-0.26270694,1.1171594,-0.25473237,-0.24243996,-0.09590967,0.3724664,-0.19917032,-0.81380683,0.11076712,-0.014000952,-0.2958374,0.02222192,0.07830651,0.21131189,0.23503983,0.6538315,0.6542876,-0.15159288,0.123135366,-0.09080702,0.04860796,0.21212287,-0.43751228,-0.064159214,0.32431102,-0.50634897,0.08654495,0.8943022,0.03987006,-0.25927183,-0.6536699,-0.11164194,-0.007587701,0.010349347,0.059570014,0.2559675,-0.0091094,0.10009459,-0.088628955,0.45514342,0.5427998,0.12560728,-0.030695453,-0.021815948,0.60954136,-0.16900635,0.22765507,-0.54887784,-0.26660168,-0.007863313,-0.20216775,0.43887234,-0.0069657415,0.18268779,-0.45887405,-0.3346032,-0.3531121,-0.16231798,0.034306914,0.12034082,0.5431449,0.29514214,-0.082145795,0.02102524,-0.011507139,-0.029662378,0.26048177,0.54843104,-0.15134898,0.33992317,0.7521244,-0.3032854,-0.46617678,0.0046998523,-0.21184497,-0.084833175,-0.00010976195,-0.1133622,0.13975172,-0.2101558,-0.4531496,0.2788217,-0.3147912,-0.19014663,0.5839511,0.2892069,-0.25696182,-0.18561473,0.20140001,-0.15391958,0.39636028,0.53997785,-0.7640753,-0.44494885,-0.6046691,0.006057769,0.38798365,0.14726354,-0.2335446,0.28162518,0.16596055,-0.3300236,0.08650703,0.10937829,-0.088009134,-0.21575001,0.40854266,0.23020774,-0.19891784,-0.46961987,0.0416517,0.28246376,1.4096696,0.17497848,-0.042786293,-0.0012523197,0.33429328,0.040132463,0.47602227,0.49248463,0.07432097,-0.13230428,0.19925822,0.41698462,0.09037846,-0.101770066,-0.18910259,-0.08659432,0.04951077,0.4384478,-0.1503467,0.039999634,0.45469266,-0.22391996,0.14010851,-0.6710132,-0.39961225,0.42982817,0.020692796,0.052858863,0.30840027,0.4156755,-0.10633983,-0.14298944,0.5951788,0.28589174,0.54234266,0.16961764,-0.29325595,-0.2827601,-0.30268082,-0.5403143,-0.144793,0.24455173,0.50516635,0.28719175,-0.07451774,0.18514296,0.28457654,-0.200955,-0.1929137,0.8087624,-0.35749376,-0.04779406,0.34911627,0.5620388,0.5519442,0.33078972,0.43310398,0.3068567,1.1125283,-0.16037747,-0.30825308,-0.14332767,0.13583496,0.20241915,0.020451171,-0.19886748,-0.026811793,-0.28462815,-0.58853006,0.3467443,-0.14012176,-0.14610617,-0.059482403,0.23371492,-0.41433933,0.28564084,-0.043160833,0.012001976,-0.17616814,-0.30768406,0.41083312,-0.11571714,-0.13701966,-0.18769436,-0.053283118,0.52705073,0.49308914,-0.38629243,-0.024119854,0.028351437,-0.15706684,0.16633505,-0.09804766,-0.12449914,0.31128258,-0.001825206,0.39877462,-1.0920591,-0.28066576,0.13953155,0.36632362,0.14625785,0.046372995,-0.11037496,0.3189823,0.4170415,-0.23995936,-0.34421474,0.04382498,0.06384564,-0.038065124,-0.554804,0.67664874,0.9732581,0.25502333,-0.33667237,0.12759164,-0.39600864,-1.3850756,0.34771687,0.033268772,-0.22322279,-0.10150671,-0.077739365,-0.008083351,-0.9416298,1.0909196,0.33535707,0.13060564,-0.074895516,-0.18490393,-0.5709962,0.057250544,-0.097327426,-0.085206494,0.048358545,-0.065578416,0.36533284,0.06650418,0.3978243,-0.4441291,-0.18562067,0.055648126,-0.020841189,0.17524654,0.7042514,-0.6147771,-0.2798687,-0.18558581,-0.07367787,0.2824387,-0.50597274,-0.16114494,-0.25806293,0.31712943,-0.41877598,-0.14986102,-0.040832818,-0.11715962,-0.04572235,-0.71526146,-0.69819605,0.3079548,-0.19001584,0.10296213,-1.7653872,0.16785446,-0.21921983,0.44184315,1.1662263,-0.35604134,0.02510348,0.30348563,0.048096552,-0.30100343,-0.43087876,0.11334412,0.3769885,0.21543188,0.26871973,0.044536307,0.0066409707,-0.17198738,0.25753736,0.30359483,0.023655124,0.24489957,-0.08444698,0.06560619,-0.226631,0.14244477,0.33493382,0.22612467,-0.38988727,-0.5702125,0.23535621,0.046484187,-0.08497015,0.05700711,-0.05031997,-0.24339412,0.039490536,-0.23161662,0.22291392,-0.30589986,-0.5285597,-0.05018317,0.4106046,0.41623938,-0.32019016,-0.057933956,0.10522836,-0.065969184,-0.36427784,0.09789945,0.26714426,-0.10364888,-0.3500389,0.19072525,-0.21309376,-0.04322352,-0.10053483,-0.34761333,0.0012031272,0.3455211,0.15789439,-0.5234252,0.18549642,0.09645948,0.36098605,-0.89351517,-0.0026286468,-0.23691003,0.34207058,0.20816629,-0.22940937,0.43185908,-0.14442746,-0.23360056,-0.16325063,-0.096655264,0.27942792,-0.4172224,0.43016252,0.029810049,-0.47634625,0.8424423,-0.21249418,0.22993267
Europe_30.png,-0.3282382,0.6999278,-0.49664915,0.11375879,-0.015574411,0.010137435,-0.12753922,-0.09035915,-0.010152906,0.12743092,-0.32612792,-0.28091547,0.44379926,-0.2843364,0.451221,0.078740545,1.5869365,-0.010893665,0.2527088,-0.2630704,-1.4247936,0.4304996,0.320537,-0.35806623,-0.13060595,-0.09316555,0.06318277,0.26823813,-0.17707215,0.19832668,0.040155616,0.039352454,-0.08069555,0.16160059,-0.091616765,-0.031050682,-0.5115167,0.36901867,-0.41233113,0.711486,-0.3854216,0.051095933,0.6890419,0.036619708,-0.20519054,-1.0467378,1.0129461,0.094615966,0.31197578,0.20984659,0.17401177,-0.24185385,0.019611146,-0.0039874166,-0.4534927,0.4783726,0.47600415,-0.2257693,0.25279886,-0.06034206,-0.006213397,0.22043742,-0.34612495,-0.2853991,0.03381388,0.16530345,0.3126169,1.7452607,0.18029608,-0.3585148,-0.16222316,-0.10136177,-0.45964628,0.62958837,0.4134485,-0.17409655,-0.45778188,-0.49495327,-0.28480306,-0.18215661,-0.15249166,-0.07239203,0.0017736405,-0.019589836,0.15743375,0.16195019,-0.90830266,-0.06552938,1.237755,-0.3843313,0.4034887,-0.11244117,-5.6707964,0.14747763,-0.3166694,0.09671393,-0.43017924,-0.21585433,-0.050931826,0.6426679,-0.14583834,0.17417735,-0.56546,-0.12709153,-0.43657726,0.01796487,0.2870638,0.53250086,0.22549474,-0.4708012,0.44956204,-0.11704936,-0.25212163,0.013399661,0.03168276,-0.026113287,0.17836344,0.18306053,-0.2671053,-0.5609857,0.23661268,-0.043386385,-0.3833227,0.40342295,-0.08872972,0.5623365,0.27999592,-0.27281433,-0.029518306,-0.1473827,-0.013088822,-0.5136024,-0.128694,0.78626287,-0.09902354,0.18254249,-0.12915993,-0.03614953,0.3408973,0.1353885,-0.16016665,0.31057334,0.41255724,0.14162506,-0.5914823,0.27404487,-0.05786456,-0.11994352,-0.17981018,0.12544681,-0.66128,-0.5197574,0.6402132,-0.63454604,-0.31182092,-0.31353447,0.20491534,0.059384726,-0.07642846,0.40790707,0.34980354,-0.2929706,-0.12041257,-0.18999551,0.0025311895,0.1909547,0.42227617,0.63692164,-0.24717739,0.39849275,0.25439414,0.3222973,0.117673874,-0.5635075,-0.09211457,0.46111405,-0.48835346,-0.14329436,0.26867923,0.0037685502,0.025998503,-0.70644075,0.10109776,0.113327146,-0.13949805,-0.12627184,-0.027116135,-0.06441113,-0.21437153,-0.2738737,0.36265695,0.90002954,-0.05261682,0.08287193,0.24590436,0.5670167,-0.5191003,0.009302527,-0.69601125,-0.56340873,-0.022816554,-0.3374782,0.41061834,0.33190638,0.2656214,-0.18445942,-0.048816934,-0.14494418,-0.12432005,0.01695858,-0.24457824,0.9082249,0.18615983,0.28791922,0.06734866,-0.056508884,0.02409999,0.2835448,0.8354063,-0.015895763,0.4999411,0.98963904,-0.024215326,-0.2673028,0.22262019,0.13286941,-0.08603546,-0.41505167,-0.0033652931,-0.03477217,-0.048482664,-0.2972329,0.5530703,-0.24420059,-0.16883145,0.23323789,-0.16074327,0.13569215,-0.1793184,0.25045928,0.35999367,0.23680764,0.26014528,0.03973964,0.015304208,-0.52988976,0.1845623,0.57136714,0.026670774,-0.31529397,-0.035280865,0.019175544,0.06642847,0.4496488,0.17625135,-0.22562483,-0.08314583,0.29928234,1.720462,0.30474412,-0.14678851,-0.0077828914,-0.104602635,0.93837917,0.5165449,0.43127614,-0.015634572,0.06255531,0.2874029,0.3605854,0.24475765,0.1488621,-0.16902035,0.46348736,0.5209986,0.017705187,-0.05561223,-0.32385597,-0.049741995,-0.07679303,0.42199707,-0.070846535,0.04935725,0.2839139,0.17236072,-0.11783777,0.39697522,-0.095798045,0.28737217,-0.1814188,-0.13453765,-0.26505512,0.4627436,0.21314749,-0.16121055,0.609403,0.7197485,-0.03159969,0.1312829,-0.22966796,-0.22966364,-0.1799686,-0.2314443,0.20462087,-0.044831928,0.41980243,-0.13215965,0.4468515,0.11955816,0.17215754,0.076221555,0.23522252,0.78335035,0.23969257,-0.2985227,0.52323425,0.8358716,0.51759017,0.09756975,0.05879092,0.37183976,1.7040703,-0.12020145,0.033801876,-0.4036378,-0.11058812,0.62586534,0.14200807,0.012114547,-0.19728917,-0.28933474,-0.40153438,-0.009786307,-0.31595337,-0.06980865,0.129956,-0.03370022,-0.20258567,0.45112726,0.33111396,-0.1552797,-0.53605086,-0.57180226,0.30570224,0.39324906,0.24481043,-0.08345698,-0.07718414,0.18602431,0.13242349,0.41618395,-0.09016336,0.40215197,-0.40294147,-0.055132948,-0.752733,-0.09591159,0.3960188,0.097076476,0.09229037,-0.53523874,-0.26423657,-0.03999111,0.7379829,-0.37993413,0.014931362,0.17763944,0.34217322,0.20133963,-0.33970132,-0.47497714,0.10034345,-0.17971551,0.2651176,-0.1212466,0.20725739,1.0247682,0.070886716,-0.31773886,0.12241812,-0.39340967,-1.0015345,0.08032596,0.15219995,-0.118454084,-0.6183959,-0.05545885,0.19038785,-0.8237602,0.94027275,0.13281453,0.07225391,-0.01913187,0.08238064,-0.54169047,-0.2665134,-0.035455335,-0.011668371,0.33214325,-0.10717326,-0.109615184,0.04423351,-0.31956378,0.03914801,-0.1107738,-0.25734058,-0.4338163,0.040218726,0.26700193,-0.09967462,-0.073783025,-0.401344,-0.13466457,0.19518124,-0.26506898,0.3000679,-0.42546004,0.42488366,-0.48494446,-0.035917036,0.22892605,0.06397247,0.048463307,0.33853722,-0.1476591,-0.04354047,-0.47621754,-0.094955936,-2.2019775,0.25252175,-0.27910668,0.3905564,1.0937614,-0.26848114,-0.0058363043,0.33555847,-0.18602586,-0.47676057,-0.25202668,0.15167287,0.4029593,0.3675214,-0.011370257,-0.6000266,0.29104868,-0.1361891,0.3328922,0.34465736,0.32721996,0.117559075,-0.39275968,0.29418755,-0.48422706,-0.45883343,0.17040834,-0.01829052,-0.17286427,-0.15216486,0.06528729,-0.12812828,-0.039302588,0.11776288,0.21308117,0.05790584,-0.09342136,-0.198434,0.66469514,-0.025421679,-0.40893286,-0.48103386,0.23924007,0.29901993,0.058125176,-0.1776083,-0.61532503,0.045681193,-0.15189183,-0.24264094,0.41610962,-0.23309892,-0.34115517,-0.22192729,-0.34162426,0.3166779,0.30893224,-0.2958891,-0.16670655,0.16986614,-0.10909011,-0.5690422,0.31264165,-0.054006327,0.18595733,-0.7475129,0.035704277,-0.049245384,0.0869337,0.33000082,0.03810542,-0.17469987,-0.20603786,-0.35486215,-0.16739967,-0.003536567,-0.17104702,-0.41189694,0.57538164,-0.046276964,-0.33115733,0.7165601,0.015978277,0.24002497
Europe_08.png,-0.43850923,0.39676002,-0.14512193,0.30339873,-0.0936297,-0.06707133,0.10337004,0.12800527,-0.30066964,0.05636329,0.069476075,-0.43383324,0.11220631,-0.1904678,0.19326301,-0.09250569,0.48089978,0.27030388,0.12256267,-0.47020373,-1.301129,0.41974786,-0.22302102,-0.10222024,0.004995495,0.2756926,-0.09210016,0.19280678,0.15007186,0.2602276,-0.20408249,0.20137143,0.013293441,0.030385673,-0.34543484,-0.1135429,-0.12356302,0.27673268,-0.28533897,1.3418884,-0.40725616,0.066729575,0.4876265,-0.05355904,0.1417768,-1.4337891,0.99504834,0.38979346,0.42158502,-0.10820001,-0.07642858,-0.107611075,-0.17080846,-0.109928675,0.031080231,0.1866018,0.34222966,-0.07415376,-0.11678253,0.1814217,-0.84380436,-0.16274026,-0.3799649,-0.20828384,-0.41119766,0.11746113,0.2386595,1.5564846,-0.007026352,0.13965932,0.0169687,-0.44770455,-0.36182004,0.4021214,0.21837091,-0.11525631,-0.5220304,-0.43455613,-0.38620943,0.23946235,0.16211663,-0.4238059,0.1535586,-0.013632678,0.11417537,0.22536758,-0.24744605,-0.43908668,0.6921163,-0.24534288,0.52154887,-0.1729657,-6.749608,-0.18046854,-0.43538895,-0.3619824,-0.18862048,0.3596314,0.2896396,0.06455726,0.09346441,0.17351344,-0.64124095,0.006053716,0.30080733,0.26492396,0.90218437,0.22394493,0.15481357,-0.36271277,0.5090927,0.3227439,-0.2523563,0.00173961,-0.117625,-0.16302463,0.26761565,0.13050078,-0.0028326213,-0.4377404,0.2837027,-0.117734306,0.5844863,0.061972894,-0.059644595,0.47693843,-0.12126936,-0.30837703,0.15163782,-0.039204795,0.48482653,-0.000125736,-0.072611235,0.8765115,-0.09697424,-0.17439531,-0.5943151,-0.20220953,-0.23369065,0.048157312,0.32467505,0.15153854,0.7043572,0.2243402,-0.34929204,0.052844554,-0.11270849,-0.16933769,0.089337245,0.4152974,-0.74856657,-0.01839304,0.64774734,-0.33015376,-0.08436788,-0.18021485,-0.10582121,-0.17056361,-0.4667628,-0.016642142,0.22655998,-0.2920498,-0.2856016,-0.24671543,0.17867891,-0.023875356,0.3317752,0.48525447,-0.24849257,-0.14953077,0.13607916,0.21528842,0.21992302,-0.60761195,0.023684755,0.45279366,-0.80301666,0.16728787,0.554819,0.1706042,-0.10117504,-0.74059904,-0.0920313,-0.008412205,-0.18783726,-0.046099618,0.30422086,0.1406264,0.14651273,0.20904075,0.40953436,0.634205,-0.101990394,0.07653662,-0.5012746,0.30752745,-0.4213466,0.10348399,-0.17948866,-0.4019619,-0.19090354,-0.32281744,0.6266093,0.6164674,0.5203494,-0.50082713,-0.07857765,0.07379574,-0.16434678,-0.051283598,-0.20065174,0.09890619,-0.08342974,-0.050674476,-0.37480035,-0.27551135,-0.08684397,0.15006778,1.0420978,-0.59038323,0.09674479,0.729226,0.034277633,-0.5783081,0.030306883,0.17840761,-0.23255096,-0.14344509,0.007628128,-0.041408263,0.114328794,-0.27741098,0.5326542,0.2546791,-0.0950568,0.090114705,0.26147336,0.06631324,0.09105216,0.34001148,-0.04808137,0.5050712,0.023933169,-0.67249036,-0.44828746,-0.11585793,0.10233701,0.63084275,0.046998974,-0.08182752,0.33015028,-0.12854823,-0.2404461,-0.019162312,-0.030374173,-0.07647006,0.0632151,0.26980627,1.1833282,0.21471664,-0.532477,0.06745866,0.66090256,0.72450393,0.02843734,0.36857802,-0.08218351,0.071591586,-0.06863653,0.06920151,0.09996002,0.042650193,-0.20642662,0.43129835,0.34039804,0.010189533,-0.22111453,-0.15493634,0.20624301,0.05187273,0.545766,-0.35648036,0.17243311,0.25261605,0.16821247,0.08651213,-0.209082,-0.34208608,0.14364994,0.30042955,0.07302439,-0.1854367,0.27650046,-0.08243489,-0.22204442,0.08710401,-0.11279929,-0.057577197,0.045780785,-0.011242896,-0.21176846,-0.072448716,-0.36269405,-0.20781219,-0.18744819,0.18869594,-0.05097004,0.021879494,0.49126226,0.15885723,-0.10427628,-0.028391968,0.87406445,-0.43549973,-0.13220614,0.25597358,0.90318847,0.7317312,0.48519367,-0.1797094,0.22350013,1.9605367,-0.32599172,0.0039411373,-0.122090794,-0.18992427,0.18809244,0.32687852,0.036305517,0.14228554,0.29287428,-0.27869982,0.011738941,-0.45178348,-0.13020031,-0.20047048,0.18941677,-0.69257176,0.08276936,0.36770174,-0.021275323,-0.16216943,-0.33874774,-0.121137396,0.004221052,-0.27129948,0.14708419,-0.09264875,0.40830168,0.28037518,0.18574429,0.29679134,0.26997212,-0.30913353,-0.16454174,-0.19796374,0.26143456,0.025048941,0.07381654,0.32793826,-1.1994777,-0.13423012,-0.023619637,0.32621905,-0.87011945,0.008126625,-0.10031759,0.29273978,0.39465523,-0.07668607,0.035398766,0.06977583,-0.069405034,0.1886019,-0.41063923,0.46084675,1.1540799,0.38093477,-0.24449167,0.10212496,-0.3411905,-0.84154296,0.039652705,-0.29665303,-0.20065247,-0.13898031,0.18781684,-0.0132774,-0.96715164,0.8253558,0.21591954,-0.14717531,-0.006219238,-0.15016967,-0.53156346,-0.049287774,-0.01826337,-0.24384545,0.14080134,-0.2439983,0.58757854,0.37695426,0.40650782,0.14977069,-0.25439054,-0.12217275,-0.48046556,-0.2902955,0.9089392,-0.50686324,-0.5029755,0.10507332,-0.08507627,0.2717033,-0.34546813,0.2405266,-0.50402385,0.30799568,-0.2991385,0.029365126,0.042732697,-0.14112931,-0.10584312,-0.23981464,-0.03274492,0.2518626,-0.5961808,0.025684759,-1.7840062,-0.111815795,-0.20517686,0.5845144,1.1485386,-0.35961062,0.39717013,-0.1768834,-0.053010777,-0.28302103,-0.5779581,0.2579054,-0.105775975,0.3840552,0.30103573,0.020770878,-0.13799606,-0.4370538,0.37821484,0.29166478,0.04507126,0.19564669,-0.27968988,-0.14146735,-0.07816634,-0.12907146,0.22328478,0.32661623,-0.21249205,-0.595003,0.319548,-0.28166145,0.17480075,0.020738445,0.13062434,-0.07582723,0.1446433,-0.3379827,0.45682195,0.051152885,-0.688553,-0.38818204,0.5532354,0.06372664,-0.10384585,-0.12842095,0.09293805,-0.0025597662,-0.37933856,-0.28125522,0.3187253,-0.7194793,-0.19086045,-0.1273294,-0.032421023,0.1951298,0.11925064,-0.43664077,-0.092915505,0.13857761,0.12888178,-0.2730354,0.45632058,0.09586415,0.33267972,-0.71466994,0.011079714,0.17170581,0.07653196,0.52282214,-0.07338914,0.03999602,0.27694508,-0.063568436,0.07279171,-0.15767747,0.2572261,-0.7182698,0.3156438,0.01596298,-0.28475937,0.86036664,0.101755425,0.121476844
Europe_48.png,-0.65724593,0.68057,-0.35294554,0.070491806,0.11461516,0.1460514,-0.07393029,0.108337134,-0.06904136,-0.28094864,-0.030458748,-0.43050635,0.1922553,-0.15644066,0.09776034,-0.08989365,0.8061383,-0.09359461,0.37520993,-0.32018706,-1.3148755,0.4102668,0.08142949,-0.30018115,0.3463914,0.26071444,-0.19509432,-0.044842385,-0.21620843,0.32065535,-0.5276238,-0.039816998,-0.10593572,-0.36990717,-0.14250627,0.17096478,-0.54528564,0.47702098,-0.36274022,0.7523182,-0.58056426,-0.07738945,0.4222437,-0.31475455,-0.0037968904,-1.4247252,0.9191593,0.16529831,0.10244875,0.18831517,-0.29521102,0.3125099,-0.055276908,0.112939,-0.25680864,0.4149646,0.51772875,0.11909284,-0.027172057,0.09384732,-0.17321,-0.06304998,-0.6314251,-0.28360116,-0.34865466,0.012742773,0.100014836,1.6483474,-0.051467165,0.14895535,0.14014012,0.114948235,-0.23347521,0.2990268,0.1574543,-0.10013945,-0.96624964,-0.68629634,-0.020132571,-0.0035024732,-0.22848609,-0.04042563,0.31409562,0.42468047,0.32975203,0.35100806,-0.45283002,-0.33432585,0.7920301,-0.43090057,0.39179087,-0.25574374,-6.4118195,0.4553588,-0.22859831,0.19458947,-0.018371923,-0.29195353,0.07631895,0.24887986,0.15378517,0.15632021,-0.550032,0.19500123,-0.04370935,-0.30224878,0.033823147,0.2661982,0.5161896,-0.40833777,0.11287524,0.04823242,0.14958991,-0.09918642,-0.20828837,-0.44005084,0.34670657,-0.108979225,-0.15128195,-0.28095227,0.11837628,0.21129626,0.19694814,0.4649302,0.059962355,0.551014,0.24447882,-0.15901794,0.075635314,-0.083755225,0.12007554,-0.20285688,-0.1489256,0.87009925,0.15962797,-0.47339323,-0.57313246,-0.48704025,-0.313559,-0.040958624,-0.29778486,0.55567086,0.7128358,0.074351005,-0.33776712,0.06871109,-0.1356606,-0.13922113,-0.09563236,0.5074964,-0.4348563,-0.10084367,0.2859245,-0.42362523,-0.17282292,0.008747473,0.19885479,0.30206496,-0.33340833,-0.10575423,0.22095832,-0.21852133,0.16896766,-0.14027947,0.47628248,-0.20244658,0.2719906,0.36377567,-0.22411895,0.22579266,0.3757879,0.20519498,0.21160091,-0.5438165,0.3951873,0.67252964,-0.69469786,-0.2482569,-0.024603903,-0.099591136,-0.13834581,-0.7780773,-0.19921665,0.017685346,0.06710095,0.0010036528,0.27504772,0.0035230606,0.22341594,-0.098137155,-0.028272443,0.39220148,-0.3475985,0.19895546,-0.06234888,0.49441123,-0.65579534,-0.24827646,-0.8108301,-0.08869484,0.17260037,-0.26483887,0.3720479,0.2693028,0.13149083,-0.5752263,0.07262003,-0.18604697,-0.21838875,0.3840455,-0.2188144,0.49370492,-0.2537408,-0.4032183,-0.3362952,-0.45326644,0.048840232,0.33464798,0.8033744,-0.48034397,0.35140175,0.9744066,0.13840729,-0.49598962,-0.18553242,0.17948698,-0.23266032,-0.23190615,0.052285988,-0.027583878,0.18834828,-0.20191675,0.45493454,0.22269753,0.2564078,0.068244845,0.13364573,-0.19443108,-0.25467587,0.46222156,0.2836368,0.5436613,-0.22690836,-0.53577185,-0.10999084,-0.24468246,0.16877633,0.69839144,-0.3661183,-0.36900684,0.05964469,-0.3219148,-0.02914618,0.15881334,0.3320631,-0.12170464,-0.17768647,0.4890757,1.1528339,-0.088339515,-0.22881973,0.09002799,0.39026543,0.7649209,0.38304433,0.39423323,0.06288219,0.073630884,0.057379305,-0.015661642,0.3828328,0.30271396,-0.00016275048,0.53280973,0.063238025,-0.08629243,0.04649596,-0.23124506,-0.07121311,0.05963415,0.3803458,-0.011414155,0.0746422,0.35847372,-0.19965947,-0.28990874,0.48699558,-0.50717616,0.25344127,0.11979891,-0.10549635,-0.13162005,-0.13071224,-0.045035478,-0.0920908,0.32580626,0.4754465,0.24296889,-0.08567266,-0.22117701,-0.19176745,-0.14641824,-0.43365386,-0.29109308,-0.054066665,0.35022163,-0.25221437,-0.07108515,0.2155597,0.45345744,0.18423402,0.09382301,0.86747694,0.112676665,-0.1613963,0.042995013,0.4516825,0.5734324,0.4070946,0.24362195,0.34327152,1.2965038,-0.21141842,-0.11993122,-0.24594937,-0.17500912,0.55712825,0.34083417,-0.021744952,0.05401671,-0.33183056,-0.13073525,0.3399227,-0.032828003,0.06576191,-0.08220233,0.35268715,-0.37537813,0.28278017,0.26793337,-0.29186267,-0.2528194,-0.5145794,-0.11711761,0.27187505,-0.0768005,0.415704,0.022928972,0.54077953,0.15621738,0.07621621,0.21860164,0.4026782,-0.165079,-0.0044678114,-0.6562414,0.28618422,0.8511825,0.014902882,0.176694,-0.78575605,-0.07782657,-0.26665166,1.1972399,-0.47742063,0.081698224,-0.07004142,0.49670133,0.15935078,-0.5686983,0.0051006153,0.26961243,0.13191366,0.27922842,0.0053901672,0.071931586,0.7954265,0.50802785,-0.48648083,0.24498548,-0.3503506,-0.7497138,-0.1567743,-0.12282701,-0.19177437,0.0007716939,-0.09910074,-0.04284793,-0.6387099,0.4667783,0.32983452,0.27034444,-0.16454732,-0.02327647,-0.26676524,-0.02676307,-0.20816761,-0.31062543,0.06115154,-0.35998884,0.6173599,-0.10753427,-0.48170143,-0.23269516,-0.20586804,-0.3548183,-0.702643,0.113657884,0.4132179,-0.28094628,-0.21941459,-0.14246434,-0.29347825,0.48897615,-0.48424396,0.6107422,-0.561291,0.36581242,0.040598795,-0.11163061,0.26035583,-0.11715086,0.067309126,-0.36535016,-0.09350111,-0.38975972,-0.43750998,-0.42258942,-1.8859556,0.031954877,-0.22437344,0.45857075,0.85290927,-0.30727717,-0.2521491,0.15078966,0.015092708,-0.3932825,-0.59068656,0.1852858,0.05138147,0.24309966,0.26742166,-0.05498042,0.03474927,-0.10640357,0.6196792,0.11333079,-0.12027843,-0.21748859,-0.12767413,-0.32894287,-0.4160208,-0.37395975,0.501194,0.05177449,-0.58844334,-0.48836505,0.02552399,-0.19299017,0.41554403,-0.060575183,-0.16954742,-0.2452223,0.12803994,-0.06641787,0.061087772,0.10856347,-0.55039555,-0.8921336,0.025804043,0.18093725,-0.20271708,-0.4335402,0.21910763,-0.34619713,-0.24600421,0.030643858,0.11116362,-0.397106,-0.1413678,0.0055121556,-0.13653281,0.22053444,-0.118226774,-0.5804879,-0.33111772,0.093467034,0.023891114,-0.31457865,0.46225056,0.20387587,-0.04069011,-0.76888955,-0.27193603,0.047806475,0.17871714,0.14349082,0.09388167,-0.0649484,-0.12182118,0.11272024,0.041476842,0.1261269,0.40673643,-0.75206083,0.3468291,0.0729451,-0.39915082,0.6200734,0.112950265,0.3473053
Europe_28.png,-0.5918075,0.5902391,-0.28296125,0.18777509,0.05495408,0.003843207,0.045383744,0.19646627,0.2179257,-0.14345768,0.22158302,-0.31701216,0.52974087,0.012770931,0.42829764,0.036299326,1.2277651,0.054453716,0.16339126,-0.21279508,-1.7693107,0.20767948,0.27295476,-0.44982743,0.16365881,-0.15029272,-0.15421657,0.062398568,-0.43656355,0.26310536,-0.25126868,0.10793131,-0.038550526,-0.024548262,-0.32203972,0.19283223,-0.27302986,0.48058397,-0.5475939,1.4977937,-0.4827284,-0.059721053,0.21618618,0.30211872,0.2684003,-1.3722113,0.7618723,0.21243572,0.4773229,0.34149802,-0.08742218,0.17594916,0.19622508,0.20021637,-0.47152382,0.3813039,0.13420688,-0.044991836,0.05731735,-0.00044598896,-0.5486103,0.008792192,-0.33464843,-0.034020185,-0.46518397,0.06596383,0.16215232,1.7400641,-0.07296845,-0.07424,-0.1898779,-0.24125428,-0.5451305,0.017395854,0.037447833,0.0075998195,-0.6907083,-0.7385738,-0.2842084,-0.19228324,-0.15906149,-0.0334837,0.25944954,-0.10337258,-0.360884,0.16303238,-0.5788997,-0.13616382,0.55131793,-0.27151096,0.6859245,-0.08067704,-6.32925,0.32716686,-0.21952638,-0.033196747,-0.3766856,-0.14101705,-0.17049909,-0.25530726,0.19302629,0.42456803,-0.61255944,-0.055593424,-0.18217404,0.26312828,0.16337803,0.4342118,0.06484601,-0.21552573,0.52419853,0.16320986,-0.061002847,-0.22044732,0.101966575,-0.18283284,0.2442338,0.11131206,-0.19636992,-0.45697194,0.20509404,0.27370182,0.2240881,0.068584815,-0.0007112436,0.374498,0.07636556,-0.2474534,0.0914533,0.0047609136,0.010366455,-0.12354393,-0.16468494,0.84219617,-0.2721092,0.06081345,-0.224944,0.12512892,0.03665915,-0.27261862,-0.2688704,0.013254285,0.55088717,0.135467,-0.25207034,0.15565053,-0.066479295,-0.3857359,0.0044606477,0.019116858,-0.47211742,-0.3714481,1.1521243,-0.44940823,-0.43091005,-0.40231785,0.17954648,0.32851928,-0.16290289,-0.025800772,0.20496564,-0.30082148,-0.15892684,-0.16781844,-0.097445115,0.22962797,0.2580014,0.6133238,-0.28329554,0.38887206,0.22268188,0.279428,0.058277532,-0.6249334,-0.0066187084,0.51717436,-1.0963991,-0.122439474,0.22459508,-0.043892615,0.028231796,-0.6644391,-0.019306079,0.265762,-0.22610724,-0.35671175,0.20871255,0.22369823,-0.100090355,-0.08843743,0.24932656,0.5013038,0.055528566,0.44788152,-0.13115525,0.5573024,-0.49956965,0.001875475,-0.36092755,-0.15885054,0.3509009,-0.54498225,0.39540094,0.31413674,0.5507182,-0.56635344,-0.21120259,-0.22854534,-0.3058619,0.15291624,0.58325046,0.5994389,0.29513356,0.009014301,0.036459982,-0.07641721,-0.062691405,0.35055575,0.82946265,-0.43729618,0.19107991,0.87939954,-0.12622562,-0.23801495,0.079700276,0.36544806,0.09557049,-0.31740126,-0.2576974,0.0011411756,-0.26342183,-0.48678663,0.55096805,-0.21189564,-0.13156874,-0.02927994,0.2181482,-0.06203232,-0.1481107,0.36326623,0.6292822,0.57532483,0.35523307,-0.30891052,-0.33485788,-0.66232795,0.36178303,0.3419798,-0.41907755,-0.72820926,0.06980257,0.10167954,-0.04133191,0.70597273,0.16130164,0.031391528,-0.07071012,0.42359126,1.2180504,0.2530666,-0.04585695,0.1931859,0.1571033,0.6581793,0.31178448,0.48903298,-0.24533705,0.33351314,0.021156088,0.185733,0.015289472,0.16102135,-0.30178177,0.40848857,0.2651982,-0.04082486,0.081535034,-0.41445675,-0.22581384,0.19529936,0.43838847,-0.20223445,0.09071931,0.7404475,-0.015767265,0.14793833,-0.32866812,-0.27878785,0.43556958,-0.14146768,-0.16362825,-0.11895536,0.7034386,0.11348973,-0.06760065,0.64358646,0.39978147,-0.025325201,-0.085567944,-0.29376784,-0.28492987,-0.24559149,0.12765342,0.025163956,-0.0037585362,0.2921178,-0.32891512,0.019560568,0.38823515,-0.028383732,-0.24434139,0.25843704,0.8398174,-0.043034777,-0.091452144,0.40165693,0.66195345,0.37736028,0.305701,0.29269743,0.45772588,1.2363516,-0.17604537,-0.07831238,-0.3560313,-0.029262736,0.24442676,0.270499,0.03153923,-0.05367279,-0.2096302,-0.59669936,0.09247918,-0.16395682,0.007862285,0.020644806,0.16495463,-0.30036384,0.062650315,0.085936055,-0.060620308,-0.24308112,-0.41540304,0.22059748,0.1751206,-0.11887151,-0.09011297,0.0015426911,0.39723307,0.18436748,0.039321326,-0.10614202,0.2832744,-0.20386267,0.1935579,-0.3407527,0.18947887,0.53898257,0.19559312,0.120105766,-0.6019803,-0.31445956,-0.1405225,0.49182683,-0.25740507,0.0108535215,-0.14134362,0.13769174,0.003397815,-0.2911047,-0.45157212,-0.04409858,0.1605977,0.11146313,-0.4159217,0.30146497,0.9732912,0.03624385,-0.3941561,-0.0024382547,-0.27877748,-0.79907143,0.11416918,0.08772967,-0.14421678,-0.3341982,-0.28159857,0.0077637807,-1.0502943,0.5786817,0.111923814,0.026108414,-0.3188008,0.021318853,-0.5009482,-0.10768355,-0.35122922,0.16071554,-0.30446365,-0.16368671,0.31191623,0.10928567,-0.060607225,-0.37114275,-0.0995561,-0.15081392,-0.49959815,0.28660658,0.80483854,-0.32565883,-0.34189975,-0.2656588,-0.020392217,0.18613613,-0.24059594,0.22113824,-0.13649556,0.456389,-0.46518955,0.046555318,0.2143243,0.020491421,0.38882548,-0.39881548,-0.23125699,-0.36114988,-0.3110498,0.2697563,-2.5390456,0.08437249,-0.22660747,0.5793811,0.7110801,-0.2892496,-0.08269308,0.06616275,-0.16599014,-0.23086518,-0.8176302,-0.008541338,0.27217153,0.33893913,0.2951555,-0.1555294,0.3224268,-0.52533126,0.32992008,0.46105367,0.059033655,-0.065838814,-0.32276735,0.4186613,-0.108091354,-0.14819989,-0.02956172,0.14932452,-0.16485581,-0.47631878,-0.10789664,0.017589852,-0.028251514,-0.27250564,-0.002154842,-0.2854895,0.10429479,-0.09606293,0.47001338,-0.07654078,-0.38861412,-0.5757345,0.23847088,0.07733708,0.08458168,0.046711907,-0.15067512,0.037184056,-0.19054976,-0.26176298,0.3582514,-0.47088563,-0.30912775,-0.043101057,-0.5249697,0.24891755,0.40520573,-0.75386065,-0.28965378,0.42869997,-0.012488246,-0.17311776,0.38542455,-0.02572529,0.02356121,-0.7517922,0.10937175,-0.19343287,0.5243009,0.0051415935,-0.13703549,0.2809201,-0.040090453,-0.24940093,-0.11571696,-0.22942327,-0.0753995,-0.12387816,0.5268193,0.44655642,-0.5876827,0.8943666,-0.07334636,0.27817255
Europe_21.png,-0.14942178,0.41665295,-0.29135233,0.3095982,-0.0061692744,-0.11431747,0.08970334,0.22252667,0.13563655,-0.033684634,0.24042371,0.057894744,0.010252014,-0.15550876,0.4218869,-0.18702416,0.80286026,0.0042164363,-0.13692692,-0.34819934,-1.38106,0.19142836,0.07308601,-0.23939498,0.4029948,-0.022938639,-0.60977757,0.27555954,-0.35069826,0.41775832,-0.020699466,-0.15625574,-0.3813675,0.09478094,0.101159155,0.14262778,-0.5833981,0.28800094,0.032566726,1.384632,-0.30920568,0.10915512,0.6311434,0.12152719,-0.19312271,-1.0692192,0.64182496,-0.1940853,0.4648823,0.0693335,-0.032366794,0.31129694,0.020084543,0.38298148,-0.16329002,0.53144157,0.2038408,0.079020895,0.033552565,0.078938074,-0.68658286,0.058905795,-0.1289594,-0.24002922,-0.16543326,0.4133029,0.047391742,1.541498,0.14377178,0.14702882,0.41050768,-0.069271214,-0.43476295,0.3848315,-0.022551028,-0.050863117,-0.40459126,-0.45656663,-0.2895241,-0.72347975,-0.040111497,-0.3307802,0.09281618,-0.094468236,-0.0074672177,0.05237584,-0.14294572,-0.26049343,0.7120893,-0.086532265,-0.042313077,-0.25536928,-6.3338385,0.12920101,-0.22847429,0.1729896,-0.14241514,0.08326017,-0.18171169,0.5176852,0.18652105,0.14479925,-0.3051167,-0.18281014,-0.55937266,0.10262112,1.0838715,0.3843266,0.043778583,-0.7694095,0.2669025,0.5972811,-0.2583082,0.054042645,0.18644474,-0.2798948,-0.021760512,-0.0053352714,-0.096071474,-0.66982,0.35444453,0.015107617,-0.09627189,-0.20284,-0.088112414,0.11171302,0.34637854,-0.057049453,-0.3195752,0.22855994,0.04521428,-0.40704903,0.16913572,0.83671695,-0.033700533,-0.263049,0.0053629763,-0.6313653,-0.164301,-0.0039243586,0.1840877,0.10518362,0.35205314,0.05148208,0.008436289,-0.3261738,-0.019160131,-0.15084961,-0.0005926043,0.33955538,-0.5646865,-0.057484962,0.6455973,-0.5103037,-0.18504414,-0.3308668,0.33858138,-0.14649802,-0.37109384,0.017694864,0.074361324,-0.47020498,-0.30422634,0.03575682,0.0051374827,0.21238247,0.16152444,0.48000807,-0.2899345,0.029990785,-0.056397792,0.30013555,0.5470521,-0.87578773,-0.12001233,0.7965721,-0.9483878,0.13358915,0.029269336,-0.34934032,0.09426537,-0.29153833,-0.30398422,0.06444979,-0.10660152,-0.12233758,0.20830716,0.13905837,0.33557802,0.038338386,0.33375964,0.6683421,-0.0671906,0.19557743,-0.27696347,0.22985522,-0.43982866,0.22894207,-0.28270534,-0.038430553,0.16691826,-0.52144843,0.3988,0.5232968,0.33272517,-0.4873371,0.008586831,-0.13003533,-0.4435732,0.39307135,-0.1293425,0.36018467,0.14837103,0.15287691,-0.31556785,-0.32698065,-0.3290882,0.34162647,1.0216252,-0.6455521,0.11883193,0.62723213,-0.22632672,-0.15588857,-0.21187176,0.002177287,-0.291907,-0.3865432,0.09095749,-0.3361326,-0.0013928898,-0.24817255,0.006825775,0.11286031,-0.26057604,-0.0040406715,-0.08185465,0.32041398,0.13982542,-0.15386438,0.061791703,0.25542527,0.1536696,-0.0016867071,0.10314541,0.024092533,0.31204894,0.4656617,0.19306457,-0.26638457,0.23755929,0.18524031,-0.06541447,0.2378273,0.22129883,-0.1698619,0.3449128,0.14125532,1.1590894,0.1839043,-0.3257152,0.17103238,0.52855754,0.30914226,-0.30027673,-0.031805515,0.10115332,-0.1530415,0.35771897,0.051363435,0.36257625,0.19141161,0.0665915,0.17315438,-0.05362027,-0.063388415,-0.15073405,-0.2701031,0.2377626,-0.378567,0.45225376,-0.26545557,-0.08994204,-0.03805821,-0.08281567,-0.23765573,0.3679238,0.1910461,0.16847104,-0.09190842,-0.3151136,-0.17723249,0.043886535,-0.3254831,-0.254361,0.15404865,0.21958938,0.16576736,0.37260684,-0.10080676,-0.11469796,0.02578465,-0.26567453,-0.196668,0.23752902,0.274026,-0.079396695,0.27271366,0.16124138,-0.20057946,-0.40788817,0.39332008,0.83406365,-0.032815218,0.12635805,0.15783787,0.41706696,0.63298595,0.45425153,0.41484573,0.17897621,2.0647433,0.019862771,0.14511804,0.08178837,0.048948288,0.17651159,0.41546863,0.36183774,0.17873822,0.038007528,-0.24385814,0.1294264,-0.11571945,0.017605327,-0.5045918,0.014085628,-0.3357107,0.29180515,0.59335124,0.04118626,0.028321967,-0.21350901,-0.12473348,0.2895664,-0.004408419,0.047302693,-0.07481097,0.8315487,-0.20657,0.31342912,0.41053653,0.20929399,-0.32914695,-0.23773465,-0.4710198,0.32693568,0.38821208,-0.05569832,0.17921706,-1.164414,-0.052892745,-0.4082573,0.16479647,-0.7533767,0.31606942,-0.35642383,0.5600223,0.18309107,0.24805604,0.21443754,0.16948052,0.3780952,0.0569451,-0.109443575,0.3718893,1.3432161,0.26956376,-0.6473947,-0.03595803,-0.2657209,-0.85503995,-0.11890677,0.30392948,-0.32053053,-0.36672518,-0.049299836,0.39830604,-0.5182822,0.5875993,0.32107908,0.07419598,-0.24300793,-0.041404724,-0.46947163,0.08253307,0.021444589,0.22396068,-0.09698282,-0.27268672,0.44620734,0.27258375,-0.35880846,0.10083931,-0.38491774,-0.25456306,-0.37732816,0.23668216,0.56205904,-0.12028602,-0.6076961,-0.013979733,-0.045807637,0.27850026,-0.60190165,0.5253519,-0.13688208,0.008154161,-0.7320913,0.007253006,0.067910746,-0.11041075,0.21287122,-0.24788406,-0.3923854,0.03732138,-0.5596423,-0.14605302,-2.0543113,0.23233564,-0.17266425,0.57835275,1.3766407,-0.16165629,0.095174685,-0.48326567,-0.5636039,-0.41773015,-0.49922413,0.6133513,0.0058794245,0.46666306,0.20618773,0.34254038,0.3418251,-0.048676684,0.71570545,0.22964525,0.115166776,0.16682278,-0.71439385,-0.1728285,-0.12223526,-0.41649568,-0.049354084,-0.048572898,-0.3718398,-0.4367385,-0.1269521,-0.27906242,0.060488567,0.07876952,-0.203499,-0.084074944,0.15266192,-0.36839187,-0.048547238,0.43310013,-0.272323,-0.5842006,0.46783882,-0.16381705,-0.053816557,-0.6031687,0.13385567,-0.10670403,-0.10497627,-0.14036696,0.9535174,-0.40178773,-0.36847264,-0.2222189,-0.0067347884,0.093405865,0.41353494,-0.2127314,-0.26987273,0.46123785,-0.12514989,-0.3778811,0.43780234,-0.3702122,0.38670662,-0.5653888,-0.2732417,-0.40425637,0.17502125,0.12224282,0.31149992,0.37795565,0.34856686,-0.40484843,0.047660887,0.013172224,-0.148907,-0.6280137,-0.003607422,0.021954313,-0.1866239,0.94241166,-0.15169996,0.259907
Europe_16.png,-0.08569523,0.51825094,-0.29056987,-0.030924171,-0.19893524,-0.009127047,-0.13355209,0.32109854,0.043803014,0.020902086,0.34799552,-0.2326965,0.72772044,0.10589098,0.18857947,-0.10786812,1.1111691,0.27912065,0.2113486,-0.16366807,-1.7099684,0.07356255,0.29861754,-0.44322008,0.11095424,0.0024995506,0.32676277,-0.11211788,-0.4052964,0.3555457,-0.16848925,-0.050973788,-0.27925128,-0.20422572,-0.0061178803,-0.12156825,-0.15901399,0.30615306,-0.25970662,1.4473017,-0.23851904,-0.14583555,0.4383641,0.07119647,0.240933,-2.2180548,0.8863791,0.38348258,0.04273203,0.22738945,0.19384122,-0.12171475,-0.067184135,0.016897798,-0.08576499,0.20863587,0.10504146,-0.26037365,-0.19810086,0.05699114,-0.8905221,0.25469276,0.117417894,0.035223,-0.21820086,0.19392578,-0.10581429,1.0171633,0.015734453,-0.31149325,0.019234039,-0.23767442,-0.30006152,0.4666073,0.2001821,0.08513711,-0.6509438,-0.63983196,0.118621856,-0.29835352,0.028334998,0.096761174,-0.024707168,0.12743953,-0.20145845,0.26760525,-0.36938763,-0.3601056,0.49023062,-0.25429392,0.5195981,-0.056584045,-6.6058965,0.097943865,-0.28959805,0.33076918,-0.44333416,-0.07619523,0.033863276,0.20679517,0.10755712,0.34671158,-0.6377217,-0.09887038,-0.055304155,0.28490394,0.30784094,0.42389858,0.13793252,-0.27364194,0.3871127,-0.029309794,-0.10452762,-0.22881758,0.018116452,-0.12855554,0.14164527,-0.0072644725,0.06572145,-0.60068107,0.14550391,0.24625124,0.12617926,0.12013015,0.26436707,0.106049694,-0.081872225,-0.09960173,-0.31520075,0.3974128,0.5030976,-0.6301995,0.015681103,0.8484416,-0.5138399,0.18200524,-0.29649824,-0.31124642,0.22233538,0.08973141,0.28752485,0.055767804,0.6178164,0.03610382,-0.30581406,0.12152199,-0.01940751,0.040445525,0.07642794,-0.07351223,-0.85776263,-0.009028807,1.0962439,-0.47487688,-0.10271349,-0.27759168,0.18469487,0.13029766,-0.09835102,0.36232406,0.066608265,-0.14012519,-0.10955665,0.24441576,0.14632864,0.037078023,0.30146223,0.58291227,0.0038385987,0.24513063,0.21248563,0.42434472,0.09079473,-0.48052794,-0.21950237,0.26742244,-0.7194344,0.191907,0.48890266,-0.02678892,-0.30935028,-0.4695133,-0.15363045,-0.0436078,-0.0952211,0.2091299,0.07281429,0.25204596,-0.2250878,-0.21487162,0.3805282,0.6953086,0.318972,0.18170989,-0.04485765,0.4676699,-0.6369762,-0.002295345,-0.60303175,-0.09221026,0.11729312,-0.4010002,0.3701479,0.12070461,0.45378822,-0.37269318,0.077706546,-0.17444044,-0.18612006,0.5165715,0.1199635,0.7726549,0.0077223405,-0.22680014,0.39929745,-0.5839675,0.067651406,0.43535066,0.82104886,-0.4305345,0.2807145,0.9795648,-0.56034505,-0.2511227,0.3813058,-0.066504486,-0.2997876,-0.6456718,-0.06285279,0.052028522,-0.018611798,-0.30687395,0.26996395,-0.19889063,-0.1475703,0.467047,0.01747445,0.014999077,-0.3138017,0.26305962,-0.059291273,0.41946056,0.29914713,-0.5134575,0.0057733282,-0.42648807,-0.28996038,0.069509275,-0.20276436,-0.33871832,-0.2452906,0.3732424,0.14635703,0.44312632,0.083032146,-0.17312634,-0.29693222,0.13139582,0.8988137,-0.086908236,-0.19353265,0.13479483,0.023486905,1.0024465,0.13932207,-0.18276742,0.052226156,0.21174866,0.15683456,0.010002002,0.29009604,0.3917639,-0.31943002,0.3352715,0.1301624,0.2525507,-0.034151115,-0.5323318,-0.26059258,-0.22948864,0.5751189,0.051214177,0.22236675,0.5578746,0.07041013,-0.03988696,-0.201383,-0.19317359,0.18468738,-0.12208857,0.09804079,0.13530189,0.29500723,-0.1527137,-0.33808997,0.4391275,0.6570003,0.07859662,0.14396833,-0.16773015,0.18400191,-0.107635476,-0.24486914,0.21037763,-0.2538127,0.20713118,-0.41222233,0.033685252,0.21716723,0.104143165,-0.20307842,-0.083060846,0.8455794,0.000818979,0.11159239,0.44349992,0.21671519,0.37636527,0.108840704,0.11286464,0.8750905,1.0932629,-0.27346444,-0.15856606,-0.057280306,0.37728044,0.31882393,0.062988415,0.21693641,0.16751717,-0.21526805,-0.27817795,-0.053648785,-0.39703536,-0.14787184,-0.0123684555,0.38513198,0.061557252,0.23971635,-0.32072848,-0.005213648,-0.19546223,0.033514448,0.2600937,0.22547896,-0.07354644,-0.1981666,-0.1771417,0.5766623,0.46858126,-0.07530649,0.19920549,0.60389805,-0.29977986,0.057557672,-0.80476654,-0.22096851,0.14211653,0.26760286,0.5754212,-0.73632646,-0.3683893,0.1018203,0.7322451,-0.092514485,0.18961473,-0.22978798,0.23543967,-0.0049054474,-0.4529303,-0.13266009,-0.059494644,0.23467712,-0.049627468,-0.45005634,0.20289019,0.742547,0.17214599,-0.46040386,0.050387412,-0.7528118,-1.2051065,0.29721254,0.23235203,0.09344549,-0.33794826,-0.19854712,0.43285835,-0.63298535,1.1324767,0.49749997,0.083578005,0.27366772,0.083572716,-0.4667918,0.09582357,0.25066045,0.090352304,0.16623789,0.060045898,0.059027903,0.17750444,0.6759652,-0.25088736,-0.32111216,-0.027090762,-0.19683191,0.062094674,0.34840792,-0.33320278,-0.22599608,-0.050176106,-0.36698598,0.3354252,-0.37721187,-0.28673115,0.1027059,0.12008861,-0.3088295,-0.103152245,0.021087281,-0.5483543,0.27070016,-0.31262857,-0.41975376,-0.106530994,-0.33443558,-0.19371699,-1.5534122,0.30536667,-0.22677465,0.13243493,0.9372097,-0.32285923,0.28643912,0.19114916,-0.4508299,-0.5016385,-0.43924403,0.1639644,0.4367113,0.1439644,0.19887741,-0.21434762,0.42780203,-0.26029587,0.29771733,-0.0066452227,-0.022350617,0.15920356,-0.32757717,0.2028178,-0.20960817,-0.06610435,0.35716712,0.13528946,-0.47329167,-0.13628122,-0.23106131,-0.087359175,-0.12213762,-0.39618507,-0.058285214,-0.13316688,0.09782262,-0.28056142,0.32037708,-0.18863586,-0.16741389,-0.5580709,-0.34499907,0.24046217,0.35510474,-0.49565223,-0.16213138,0.067681596,-0.24460903,0.20953408,0.35226524,-0.34207672,-0.6365787,0.17281172,-0.24097392,-0.044559043,0.08535491,-0.26354367,-0.07061449,0.4929548,-0.06723063,-0.30527478,0.31560296,-0.07474959,0.42501885,-0.9277563,0.06368032,-0.21367738,0.18985686,0.06367782,-0.18040565,0.05154349,0.034204714,-0.41034472,-0.17631786,-0.19147895,0.24395496,-0.04654373,0.42971322,0.29962736,-0.76510674,0.8360294,0.10364322,-0.094058745
Europe_36.png,-0.012471909,0.32519853,-0.20998855,0.029858015,0.12974484,-0.15827706,-0.32670623,0.15392068,-0.074678436,-0.042084426,0.24373245,-0.35784632,0.51428133,-0.023789076,0.31443113,0.2533506,1.440881,0.1275771,0.42012948,-0.24149065,-0.8289782,0.43738693,-0.31873024,-0.17631304,0.26756474,-0.21896826,-0.15249874,-0.12841752,-0.15532047,0.3340769,-0.00976143,0.14465652,-0.17050247,-0.021041363,0.09966728,-0.041106127,-0.41934532,0.14398447,-0.56969166,0.47592747,-0.8856418,0.14170273,0.7144019,0.15418814,-0.048041277,-1.1666925,0.84857684,0.11822997,0.28171313,0.16728792,0.46860987,-0.11375814,0.14300981,0.030656002,-0.25992098,0.4789757,0.35901588,-0.21164015,0.19599427,-0.16894668,-0.5275687,0.32582146,-0.19156916,-0.39837253,-0.22298169,0.08488472,0.20722505,2.046438,0.15771142,-0.29594505,0.0061219484,-0.1339943,-0.5734758,0.29579812,0.18596491,0.0332798,-0.74279594,-0.49697235,-0.14190961,0.279907,-0.1375252,-0.07893405,0.1632702,0.29471898,0.5975123,0.119243935,-0.6468248,-0.3329843,1.0934218,-0.3813539,0.42215827,-0.11903826,-6.3928194,0.03462898,-0.12038007,-0.04053217,-0.23038311,0.044086076,-0.19743952,-0.057258576,-0.42216793,0.21117944,-0.4526212,-0.070010014,-0.060984764,0.02737517,0.29229587,0.43030012,0.16136506,-0.4166391,0.12429168,-0.02957606,-0.10541702,-0.103491515,0.106782824,-0.1081385,0.14014672,-0.14691406,0.0140666785,-0.71630996,0.10512777,0.05216694,0.00296532,0.5400261,0.29299855,0.010129204,-0.11589943,-0.17261988,-0.29731017,0.14726776,0.24789876,-0.77950734,-0.017723892,0.85611784,-0.25388423,-0.24619108,-0.17538227,-0.18567888,0.36049092,0.13217029,0.045665223,0.12354028,0.43195197,-0.07380211,-0.34479538,0.26024184,-0.040133372,-0.056184545,-0.17453375,0.29434195,-0.63505995,-0.33714503,0.635388,-0.39936656,-0.37542322,-0.36953214,0.19085786,0.27950963,-0.32731628,0.20836443,-0.05079857,-0.07976796,0.25953835,-0.11334042,0.03870415,-0.23186165,0.018158557,0.46071285,-0.48620835,0.35367802,0.23906013,0.44716558,-0.051313847,-0.8077892,-0.011552975,0.18725032,-0.43941998,0.2596413,0.24036145,0.0027573034,-0.035612047,-0.7959259,0.53609425,0.0954743,-0.09120959,0.160438,0.35918048,-0.3787832,-0.22382608,-0.06623258,0.16355819,0.3863068,-0.10816538,0.02641645,-0.44633812,0.46028978,-0.71112895,-0.13782088,-0.6139254,-0.58065194,0.50105107,-0.0676917,0.21284156,0.17983401,0.56389683,-0.20290735,0.010180116,-0.2988355,-0.10982464,0.3628468,-0.33828205,0.57359266,-0.12534001,0.09622054,-0.25959498,-0.033012018,0.35433328,0.4511845,0.9560876,-0.3486722,-0.058230072,0.8355219,-0.21433622,-0.32786226,0.14908746,-0.12674563,0.013633326,-0.38225824,0.053643502,-0.03966166,-0.087498754,-0.3247367,0.5450728,0.1891504,0.015631473,-0.12068769,-0.09513232,0.20198679,-0.11321674,0.3754998,0.46955222,0.11388812,0.33724645,-0.30402917,-0.22609304,-0.44035575,0.07059611,0.3034382,-0.24799125,-0.13010351,-0.16841349,0.2580201,0.01927413,0.22110005,0.005481586,-0.28054178,0.007661756,0.2970845,1.5701281,-0.085362256,-0.08429842,0.0346366,-0.18000844,1.1989661,0.34709305,0.16847205,-0.22286832,0.32390553,0.29964024,-0.03879176,-0.25267336,0.008576319,0.0058352947,0.24760273,0.0841168,-0.32956555,-0.028257519,-0.4720688,-0.17513256,-0.032281816,0.6009445,0.45647615,0.04862599,0.084718555,0.2382881,0.021866769,-0.07947272,0.017454006,0.31638348,-0.300391,-0.02471824,-0.1998118,-0.011164393,-0.17348915,-0.22365983,0.47096574,0.5682506,-0.03190265,0.18500882,-0.010070294,-0.25853133,-0.18269984,-0.10988224,0.48384556,-0.07555659,0.52623504,-0.4834472,0.27346504,0.0729962,0.5538876,-0.030161394,0.2312856,0.85306466,-0.1140394,-0.03452696,0.6621032,0.77204466,0.3907313,-0.18752795,0.26618755,0.44722152,1.6254812,-0.029028447,-0.001927346,-0.49778128,-0.49386108,0.79926395,0.006621523,-0.077858284,0.05635658,-0.21062215,-0.2050846,0.29721466,-0.40376627,0.01748661,0.27385706,0.21540855,-0.22715239,0.26939934,0.4126333,-0.18468449,-0.35788566,-0.31033733,0.007708339,-0.008679152,-0.116486475,0.18089205,-0.14209269,-0.1277394,0.22861987,0.11532428,-0.10280785,0.22707285,-0.16090973,-0.030353386,-0.54691243,0.054546222,-0.3291126,-0.10458992,0.112600535,-0.9194687,-0.058627874,-0.047097012,1.1470906,0.040107038,0.20663857,0.23615986,0.17664813,-0.10410977,-0.06478112,-0.21159327,-0.17461908,-0.02965805,0.21902782,-0.3402153,0.5651262,1.0714738,0.36117196,-0.40901047,0.036761858,-0.36448696,-0.61707383,0.24814278,0.089859426,-0.16139308,-0.5134078,0.2710728,0.14464763,-0.6799759,0.6646997,0.18059728,0.07621057,0.29787356,0.08132144,-0.466806,0.02561047,0.010839462,-0.3734687,0.09268811,0.16719224,0.18163969,-0.14059964,-0.22666526,-0.28404576,-0.11333741,0.19477102,-0.28728673,-0.101095736,0.15458657,-0.42198655,-0.4571135,-0.41174394,-0.0998016,0.19436394,-0.38594818,-0.03802252,-0.23513603,0.1676098,-0.4997064,0.18728778,0.18944624,-0.39487472,0.31847486,-0.057313845,-0.033327382,-0.106093846,-0.7174954,-0.4380104,-2.7652984,0.29606104,-0.07030067,0.42516804,0.6097373,-0.12201318,0.13004741,0.38328457,0.11227087,-0.44899935,-0.106278144,0.061093725,0.21450654,-0.19586593,0.5328194,-0.6025316,0.6773187,-0.25845098,0.43068093,0.24143867,0.299828,0.20917943,-0.44439465,0.12710981,-0.19299886,-0.4619732,0.012364034,0.19476376,0.047858834,-0.4785942,-0.37011817,-0.03972792,-0.22705518,0.029061943,0.2538473,-0.21451211,-0.124596104,-0.28232002,0.33202943,-0.029052492,-0.48520762,-0.29993194,0.039001685,0.17838417,-0.16742972,-0.5370405,-0.017910853,0.049707104,0.18128449,-0.026519017,0.17976968,-0.22825041,-0.29698157,0.060819678,-0.09015819,0.5377735,0.010415636,-0.389783,-0.2253836,0.048210792,-0.15871254,-0.782728,0.41507322,0.029993042,0.71476924,-0.68241936,0.053793542,0.09020585,0.3237803,0.3549867,0.5960032,0.21533784,-0.1681094,-0.09376761,-0.06908983,-0.22362366,0.092189066,-0.4300093,0.4065409,0.08146131,-0.45319977,0.8852082,0.23562336,-0.08508227
Europe_01.png,-0.4350156,0.6491654,-0.2624359,0.028591672,0.15468374,0.18945843,-0.2575453,0.3767938,-0.052503847,-0.44113097,-0.22093073,-0.58000463,0.4959912,0.069911465,0.34703508,-0.17148277,1.0723922,0.5026523,0.24210995,0.0770739,-1.2745539,0.34025663,-0.17246842,-0.26271796,-0.036209784,-0.044293776,0.10886759,-0.23092654,-0.15514147,0.269163,-0.1631433,0.20598875,-0.025508277,-0.4543025,0.019306667,0.09992717,-0.32567996,0.42760342,-0.55559963,1.227596,-0.676438,-0.22879337,0.56968105,0.11693879,0.297869,-1.1134311,0.72727627,-0.10025118,0.08647148,-0.014620572,0.0956071,0.03292928,-0.1639339,-0.14971925,-0.54682934,0.37876272,0.33599275,-0.26024085,0.31903,-0.35633445,-0.44526654,0.0049179904,-0.2508533,-0.2103138,-0.17210986,0.07205328,0.08975356,1.3280048,-0.024279125,0.41429305,-0.31571624,-0.08230803,-0.50734854,0.0020632707,0.258689,-0.010647975,-0.38601297,-0.33811504,-0.17232992,-0.33037746,-0.14476389,-0.17803684,0.3628239,0.20170482,0.38807946,0.2643218,-0.5570092,-0.12057915,0.8046737,-0.6356692,0.5041821,0.1868194,-5.862506,0.44146505,-0.26422644,-0.058827743,-0.3627332,-0.29547593,-0.0008880049,-0.40189517,0.1945795,-0.18025723,-0.71015406,0.071792,-0.5255371,0.10649241,0.23974955,0.26909813,0.030738689,-0.32296523,0.28164482,-0.2474842,0.15502244,-0.09445411,0.17631003,-0.33747667,0.28004688,0.13950965,-0.17239982,-0.38913557,0.42487234,0.2112402,0.61580443,0.49805444,-0.115494125,0.69341016,0.19114137,-0.37227488,0.10209739,0.25690734,0.16872299,-0.41425532,-0.26121235,0.8296675,-0.35908997,0.116271086,-0.31577215,-0.28055558,-0.23789915,-0.17318983,-0.14543697,0.27479905,0.6854042,0.096416354,-0.5071837,-0.023147466,-0.004039496,-0.32747662,-0.106273584,0.11487296,-0.4156385,-0.41271582,0.71874404,-0.5166039,-0.18182118,-0.64321136,0.27634802,0.29005057,-0.20636457,-0.024236046,-0.20718582,-0.12663683,0.0365327,0.097326405,0.34109205,-0.013651028,0.1404852,0.40629038,0.019172221,0.31073067,0.1537975,0.2158248,0.19879326,-0.16476542,-0.07704061,0.6422647,-0.4219603,-0.07307711,0.41331702,0.43861616,0.0069539845,-0.45111957,-0.12899908,0.3574299,0.12784766,0.070074,0.28588176,0.1576987,-0.08083439,0.13458914,0.2774024,0.8756918,-0.09672952,0.3333559,0.07063487,0.5571809,-0.5800665,-0.26190656,-0.39786804,-0.19232585,-0.08708075,-0.61873907,0.6967045,0.1733768,0.118252166,-0.3316212,0.3375787,-0.5288306,-0.33336788,0.6683282,0.11449543,0.7334986,-0.12853892,-0.49427134,-0.280499,-0.35826176,-0.07040548,0.6377617,0.4868404,-0.12071055,0.19460799,0.7471882,-0.028836742,-0.49265876,-0.24046288,0.0027000292,0.20823018,-0.4430946,0.037523717,-0.12826347,-0.017348725,-0.5980702,0.7400092,0.32303485,-0.11741492,-0.0072800145,0.37868848,0.05500775,-0.09764101,0.39283806,0.5789732,0.13227145,0.18882547,-0.28036273,-0.3062034,-0.7520848,0.21341889,0.07720393,-0.2526349,-0.2916164,0.511653,0.20666307,-0.099170536,0.74093896,0.019541819,-0.2313076,-0.16885981,-0.04796035,0.5245087,-0.0145217255,-0.2377698,0.08691264,0.2501374,1.393367,0.672259,0.16008836,-0.34773147,0.16041689,-0.033533454,0.4111629,0.3804008,-0.16962361,-0.46125618,0.5666883,0.1654242,-0.07172124,0.29884386,-0.2595524,-0.4877261,0.04472065,0.4591291,0.0052725747,-0.04101682,0.6161761,0.07425671,-0.18610375,-0.4582203,-0.37829792,0.39813328,0.0006812811,-0.43741816,-0.07622327,0.38183463,0.024343587,-0.31789374,0.2622245,0.46567085,0.1598815,0.061060965,-0.32707965,-0.26762408,-0.042965677,0.19691783,0.17099684,0.027338035,0.4910437,-0.094887845,-0.07303117,0.091116056,-0.2548098,0.14400217,-0.02917765,0.8267117,-0.028306637,-0.106491625,0.20120873,0.50806844,0.39853838,0.27777168,0.31767285,0.37864178,0.94057655,-0.5687144,-0.15389372,-0.055658437,-0.30993354,0.24911104,0.2255455,-0.064672604,-0.08676799,-0.3460223,-0.50225353,0.18484281,0.063819386,0.04613865,0.10866985,0.41559744,-0.02184917,0.40215167,-0.20204711,-0.010735363,-0.24377835,-0.12658712,0.595432,-0.45410746,0.12350527,-0.15158257,-0.05594235,0.14584246,0.4323166,-0.44963378,0.06736781,0.06195335,-0.2842459,0.15131444,-0.20578878,0.03848472,0.5094557,0.23083735,-0.0020220429,-0.61493826,-0.6701206,-0.2517292,0.876591,0.41086978,0.2177566,0.054543823,0.247341,-0.064878955,-0.38048905,0.22085524,-0.115242675,0.10782281,0.42245913,-0.31453514,0.28410244,0.8095222,0.18763304,-0.111869305,0.17000869,-0.5956605,-0.84049535,0.259315,0.024412058,0.09572783,-0.45841995,-0.3157635,-0.06412509,-0.73963,0.8063102,0.10378181,0.12575603,0.005234599,0.22822045,-0.25958097,-0.14262964,-0.33781263,-0.25895536,-0.39207578,0.024842456,-0.029101767,-0.06689897,-0.12615159,-0.1510942,0.18349963,-0.46475673,-0.20071787,0.12183575,0.35663787,-0.2082991,-0.41269812,-0.15937239,0.0337805,0.46955812,-0.31559232,0.49877596,-0.09190693,0.06571388,-0.1587684,-0.22263004,0.290948,-0.26783407,0.25813633,-0.17286727,-0.2134191,-0.49006402,-0.7533927,-0.016032979,-1.9971821,-0.09815508,-0.25044376,0.52813005,0.47631648,-0.1827867,-0.041826487,0.020062853,-0.044430807,-0.05046776,-0.10267164,-0.029403536,0.44204113,-0.1679841,0.28230685,-0.39823198,0.40091223,-0.2867633,0.16850221,0.30403298,-0.030257855,-0.19155535,0.0014213212,-0.013816994,-0.09022937,-0.2457804,-0.18415809,0.21557471,-0.34981376,-0.17826793,-0.30522653,-0.193709,0.026499212,-0.40200773,-0.01576025,-0.53199846,0.05328357,-0.034651935,0.5181774,-0.005521521,-0.4320538,-0.37441972,0.011175975,0.012674667,-0.0013758242,0.19833231,-0.2602732,-0.18716505,-0.18693882,0.011287909,0.22790302,-0.38058192,-0.48982778,-0.1445021,-0.4413332,0.6141178,-0.1448655,-0.68777704,0.09221024,0.33648133,0.09354982,-0.274134,0.47933057,0.3923353,0.2696589,-0.90882665,-0.32618323,0.16746181,0.45827812,-0.10132529,0.11782147,0.17994234,-0.23400669,-0.21183623,-0.06771731,-0.49054897,0.04128647,-0.29184988,0.35718662,0.5371977,-0.21865155,0.43720558,-0.33628684,0.04193552
Europe_33.png,-0.12876642,0.35036802,-0.14109746,0.104777545,-0.021619782,0.066893004,-0.3285057,0.26262373,0.31236988,0.18419127,0.23452157,-0.5892448,0.8534453,0.07978363,0.66757256,0.32423225,1.7127562,-0.07406649,0.121991634,-0.3567586,-1.12473,0.20783348,-0.22744584,-0.3809864,-0.05015268,-0.17488296,-0.21982314,0.14027897,-0.022797262,-0.014548443,0.40420273,0.22832657,0.07676895,0.13820785,0.18039998,0.087739944,-0.12837562,0.1278615,-0.84082943,0.87144685,-0.2937887,-0.20107082,0.5311175,-0.063221686,0.17191997,-1.2128474,1.0983696,0.07456218,0.23619422,0.5252189,0.012149788,-0.07042964,0.26890138,-0.109441176,-0.10953182,0.39384013,0.37606752,-0.048016876,0.2712878,-0.26415417,-0.5154662,0.19973339,-0.10748222,-0.005316507,-0.2779258,-0.015680574,0.44337672,1.5416764,0.47770166,-0.35968357,-0.2805656,0.12803325,-0.6283606,0.12532976,0.13460827,-0.23398218,-0.689818,-0.040691156,-0.40595645,0.029696867,-0.05039631,-0.16640207,-0.104806356,0.31160897,0.34267157,0.24533409,-0.6506512,-0.14166988,1.0515736,-0.30590892,0.48795837,0.11446743,-5.33204,0.33209008,-0.05892942,-0.02184856,-0.39340767,-0.21218584,0.03996416,-0.15024617,-0.0690582,0.23578869,-0.6490971,-0.10746616,-0.44288895,0.27077854,0.5997915,0.051100053,0.2077676,-0.5627011,0.03090699,0.08802187,0.09682817,-0.2691756,0.03037037,-0.133549,0.1444706,0.16802657,0.044679955,-0.39776617,0.39038315,0.052110612,0.10208124,0.5329224,0.042656615,0.6262408,-0.23863146,-0.2318036,0.022719756,0.020472951,0.134705,-0.6223349,-0.15735571,0.80592275,-0.30448797,0.002639152,-0.41506305,0.033984136,0.43085617,-0.0041036233,0.11306223,-0.21391493,0.3929397,0.077597424,-0.2613217,0.4343934,-0.016500369,-0.2150776,-0.26561883,0.100437716,-0.54079515,-0.16510817,0.5352454,-0.47283155,-0.49513716,-0.5994369,0.060469583,-0.23908481,-0.25664467,0.054307938,0.24674407,-0.27331847,0.08710536,-0.16903824,-0.062242538,-0.1901494,0.36284104,0.52889526,-0.23589662,0.32580104,0.18412744,0.1455016,0.113921314,-0.54780465,-0.18434303,0.93265736,-0.66258115,-0.10241764,0.35115978,-0.3893076,0.018990722,-0.94397235,0.45040965,-0.015246853,-0.14015907,-0.05428119,0.2912924,0.035426997,-0.26886398,-0.20082821,0.17876495,0.80108535,-0.17141312,0.15650004,0.0052932724,0.35722807,-0.78984547,0.064367056,-0.70581144,-0.79688466,0.17544796,-0.03143227,0.40166438,-0.07271191,0.45739734,-0.26744902,0.022067353,-0.5125568,0.04980019,0.33958656,0.077468276,0.8364316,0.13487054,0.2807098,-0.20519572,0.09003186,0.2986393,0.40740868,0.702797,-0.36565074,0.05434692,0.9380954,-0.15534046,-0.34293616,0.19463514,0.078297526,0.12698996,-0.30450898,0.073026136,-0.038332205,-0.25107574,-0.8614334,0.5823588,-0.10338752,-0.19585997,-0.08895425,0.11939922,0.19188666,0.013259873,0.3120388,0.18396404,0.3467768,0.1457454,-0.33932966,-0.15639752,-0.41015297,0.17617008,-0.13382027,-0.060252957,-0.67586255,0.13282351,0.14797488,-0.19870937,0.3335103,0.059723064,-0.21614514,-0.092506126,0.1746416,1.6205052,-0.12113209,-0.025005687,0.23122571,-0.077517405,0.84309715,0.28686938,0.6277232,-0.14154136,0.15948768,-0.054682575,0.22824782,-0.09767811,0.29228562,0.19321351,0.029437728,0.1397832,-0.14045677,0.09638737,-0.2951256,-0.11280372,0.39879057,0.07532092,0.40905952,0.16738275,0.37637424,0.12627128,0.04481441,0.32258847,-0.25327802,0.39531606,-0.42462254,-0.034037195,0.11981567,0.50217295,0.43814942,-0.26707584,0.51461136,0.60031277,0.178191,0.10113984,0.020926457,-0.22090669,-0.466187,0.076308966,0.28356737,-0.096699506,0.5997933,-0.17828679,0.2023414,0.2641443,0.19861057,-0.3267684,0.06374308,0.8028052,-0.08558251,-0.0031534173,0.6879523,0.507835,0.41711253,-0.07253751,0.37342685,0.51532763,1.1997148,-0.29922757,-0.074378975,-0.35281366,-0.48800933,0.26003575,0.18146119,0.28178644,-0.081301406,-0.23813176,-0.2585181,0.025743283,-0.11291011,0.3848566,0.12962534,0.1800977,-0.21840553,0.20407768,0.012773827,0.07790146,-0.066836685,0.031164177,0.050707057,-0.11771001,0.05875291,0.08988856,-0.32248312,0.019535974,-0.11223033,0.20685667,-0.5357805,0.36354908,-0.2804103,0.23295204,-0.43192,-0.0111183,0.09768047,0.19620392,0.4004497,-0.6760293,-0.22230595,-0.25715917,0.6062855,-0.026897509,0.16425878,-0.16316801,0.21368062,0.2813112,-0.14058383,-0.3788165,-0.018352084,-0.10112655,0.41360626,-0.47660378,0.35063308,0.6123428,0.6184379,-0.47756115,0.061840504,-0.3676998,-0.66016793,-0.27241638,0.45904136,-0.21938454,-0.8071762,0.15400496,0.20995885,-0.7587617,0.9491988,0.31417274,0.32182765,-0.17652042,-0.09617011,-0.22616081,0.10089709,-0.04086434,0.01867763,-0.27268836,-0.05102142,0.30501476,0.01506719,-0.17380206,-0.35989928,-0.007836344,0.24710508,-0.29907283,-0.3198108,0.05031386,-0.35145712,-0.36208645,-0.047731146,0.003467381,0.24796996,-0.18087442,0.073171645,0.018088818,0.3646468,-0.46366096,0.017147975,0.08154394,0.107040465,0.6478579,0.013530076,-0.35119435,-0.27214435,-0.48898166,-0.045995645,-1.6262535,0.29890895,0.007279665,0.54883474,0.64796096,-0.08986035,-0.07060841,0.46579137,-0.18889584,-0.1732792,-0.081902325,-0.095834546,0.2854044,-0.13522424,0.2636333,-0.34657392,0.43580952,-0.31197345,0.014124449,0.08300823,0.4078748,-0.11489613,-0.52670306,0.3099161,-0.12362869,-0.20254262,-0.056548797,0.21628743,-0.4428858,-0.20822126,-0.075962275,0.16379486,-0.2175377,-0.22797823,0.2607792,-0.40439212,0.12351738,-0.14086512,0.4032366,0.19110848,-0.33467844,-0.3828086,-0.07975387,0.124402516,0.058352657,-0.03544855,-0.12838954,0.28343835,-0.18213083,-0.25217867,0.014152616,-0.40702474,-0.21625403,-0.13757089,-0.069822155,0.25981656,0.14130959,-0.47627088,-0.40183294,0.24859804,0.025820922,-0.38026497,0.59280384,0.14952107,0.3610839,-0.6704824,0.19115546,-0.032448377,0.5591227,0.21020263,0.13249235,0.35757107,-0.45718628,0.009186831,-0.42003524,-0.28806415,-0.1763431,-0.1651591,0.57778096,-0.0025045145,-0.64706874,0.74489,-0.08944235,-0.09077904
Europe_34.png,-0.3426406,0.5903905,0.30353522,0.035054512,-0.023498982,0.1095012,-0.1605022,0.028629214,-0.17490044,0.015562255,0.085907854,-0.309126,0.5946548,0.024546538,0.1957723,0.019603714,0.84924394,-0.0065451283,0.14628871,-0.4752333,-1.6026334,-0.08012314,0.1917248,-0.37654212,-0.1864823,0.3711716,0.2682129,0.069475904,-0.20251857,0.17478332,0.16369446,0.18685034,-0.028004736,0.03341881,-0.1355963,-0.2670206,-0.28238115,0.17187962,-0.29592583,1.8063304,-0.3678262,-0.19570926,0.22066066,0.1455429,0.07201529,-1.6933026,0.59105206,0.29842126,-0.0061175525,0.38981697,-0.10830833,-0.21026504,0.07860424,-0.25289395,-0.23655137,0.6825379,0.007624455,0.20217335,-0.23763722,0.0409088,-0.9929182,0.38033158,-0.5097562,0.10991556,-0.12479471,0.028683499,-0.022831518,2.1078413,0.33431947,-0.015424386,-0.1415204,-0.141381,-0.71696043,0.078338586,-0.064290494,-0.3130368,-0.45658025,-0.70782185,-0.46483734,0.046866104,-0.29349706,-0.14406216,-0.06630909,0.16545899,0.04401155,0.24952993,-0.2784773,-0.25539565,0.82467806,-0.391918,0.5937216,-0.19870394,-6.0176353,-0.0074787587,-0.06284581,-0.19066057,-0.27726442,-0.3153863,-0.03787943,-0.35420245,-0.2514743,0.4257223,-0.28341562,-0.37821317,-0.6747551,-0.03774079,0.329906,0.50463414,-0.02168195,-0.084548526,0.31047648,-0.30750188,-0.3350473,-0.2062858,-0.2897562,-0.2530644,0.19051144,0.37309444,0.13578063,-0.27448624,0.22363031,0.14902936,0.00858984,0.3519355,-0.050441314,0.48891914,0.012149483,-0.38463908,-0.12541604,-0.33179834,-0.31836465,-0.3482486,-0.43547472,0.805719,-0.19132227,-0.03463839,-0.03581536,-0.6670813,-0.009605646,0.25263283,-0.16379172,0.2321871,0.2941495,0.19366995,-0.58999085,-0.144141,-0.2839007,-0.12103341,-0.1076735,0.19033204,-0.28615054,-0.06620323,0.4195613,-0.18418306,-0.32791483,-0.33886644,0.22335166,-0.0060603023,0.03766952,0.18780126,-0.030933544,-0.49507767,0.13027069,0.13769537,-0.1957559,-0.1899677,0.45887184,0.503434,-0.26114225,0.090181425,0.33304504,0.080932125,0.18358202,-0.46288005,0.22513337,0.4294402,-0.7698295,0.15828055,0.57302773,-0.10313742,0.29838172,-0.30658722,0.07739785,-0.06198868,-0.39467975,-0.2650203,-0.058577694,0.21277922,-0.115609206,-0.09919384,0.21367317,0.2848839,-0.024705105,0.1240088,-0.13168624,0.36124247,-0.55114686,-0.22869684,0.23494853,-0.4155714,-0.07198967,-0.42831612,0.58081824,0.45460507,0.07781795,-0.671409,0.11286315,-0.37652072,-0.2836228,0.29404062,0.16130263,0.6828114,0.55395657,0.15099567,-0.1924847,-0.24565709,-0.011087164,0.5295588,0.8759316,0.008411393,0.65337634,0.7062752,-0.15542816,-0.2532139,0.02393643,-0.14427245,0.11759086,-0.3277522,0.17616779,0.0063716695,-0.35462368,-0.19864666,0.6217221,-0.16787626,-0.34651268,-0.4531798,-0.087337814,-0.49127898,-0.18795428,0.3060363,0.14299852,0.20024568,0.2708329,-0.43003705,-0.34375894,-0.54549974,0.5115398,0.5065068,-0.34258395,-0.16243926,-0.32981378,0.14435637,0.04300472,0.48052037,0.048410557,-0.018907622,0.047502212,-0.0008590594,1.4857787,-0.00014799833,0.11825032,0.25042573,-0.10243043,0.12984654,0.49500403,0.33814755,-0.3748277,0.21387005,0.010589972,0.05471602,-0.05390072,0.17720321,-0.0020102113,0.07767984,0.20310935,0.19008337,-0.10398142,-0.1258401,-0.41453713,0.12024382,0.50523996,0.19629699,0.06031616,0.59109575,-0.05667308,0.26134986,0.013594374,0.024893768,0.07135284,-0.18308382,0.19559005,0.23419742,0.5017095,-0.029946564,-0.08018236,0.47800833,0.771896,-0.3060598,-0.04653415,-0.24716647,-0.20139703,-0.50266635,-0.00910455,0.3587295,-0.31072056,0.6574266,-0.0142304,0.22427751,0.11854901,-0.085189596,-0.24866647,0.279058,0.80311704,0.2826515,0.09060303,0.44308743,0.77081597,0.37528497,0.51353,0.0966419,0.1607539,1.5988693,-0.27805102,-0.28657168,-0.25992042,0.49570152,0.6350155,0.25047427,0.27554795,-0.080671385,-0.03234522,-0.1958716,0.027599737,-0.30801347,-0.18974543,0.004716374,-0.08052643,-0.29112154,0.07653389,-0.069224834,0.15611234,-0.26681635,-0.2971381,0.36504892,0.23946664,-0.089119494,-0.28607315,-0.12657742,0.59698546,0.37676656,0.25822562,-0.2197449,0.38833827,-0.026780635,-0.08187653,0.13544664,0.13897684,0.40134597,0.24448615,0.114994675,-0.77963763,0.18798634,-0.0057127625,0.74589723,0.34545836,0.19478908,-0.057529956,0.53133184,0.20017259,-0.54192865,-0.36646396,-0.12717701,0.20655122,0.099478796,-0.4855939,0.024895307,0.21544087,0.4635896,-0.66518843,0.11336428,-0.5932864,-1.179433,-0.13390237,0.036078066,0.12572466,-0.23706028,0.011911541,-0.08644782,-0.82412124,0.77978927,-0.022982098,0.014712878,0.10287909,0.26949933,-0.26096416,-0.116793856,-0.12543344,-0.045367375,-0.027645836,-0.025648803,0.12433807,-0.14740226,0.23754041,-0.15411663,0.12169002,-0.33342537,-0.50309134,-0.00045529008,0.7401513,-0.31619537,-0.21266612,-0.16048096,0.14477137,0.14855707,-0.37186724,-0.07453194,0.1353204,0.18396974,-0.30335882,-0.023474548,0.15563859,-0.14550197,0.49904945,-0.16385679,-0.3688716,-0.25430483,-0.13790356,-0.40715113,-1.2728965,-0.11558184,0.34883538,0.5842401,0.91370887,0.24266073,0.14876176,0.052944317,-0.018754898,0.119304925,-0.5692338,-0.0037889555,0.40907615,0.084622346,0.036492553,-0.037436053,0.4987674,-0.559941,0.20146717,-0.076354355,0.082057536,0.30042073,-0.325684,0.26526403,-0.43807188,-0.33011478,-0.24190448,0.3367516,-0.658391,-0.10590578,-0.2918752,0.20786774,-0.13374884,-0.05761441,-0.41469464,-0.33302304,-0.13664043,0.28220448,0.9234566,-0.1994832,-0.5472218,-0.33819908,-0.14034113,0.14328402,-0.22953616,-0.23267686,-0.3403,-0.1410697,-0.01577548,0.07555787,0.5210912,-0.21506742,-0.43340927,0.20506069,-0.42104715,0.24629115,-0.15767214,-0.21686126,-0.14283991,0.30966714,0.17916271,-0.22294506,-0.026461072,0.13043392,0.2907822,-1.0108981,0.068631865,0.17461485,0.16476978,0.070654176,0.041668426,0.15163781,-0.13531078,-0.2523099,-0.12999058,-0.22859174,0.14652508,-0.29775524,0.09627098,0.19619521,-0.612519,1.0484471,0.031509068,0.44738454
Europe_27.png,0.032900263,0.18853047,0.15386936,-0.047763765,0.07971457,0.14876223,0.029579856,0.39105356,-0.05033858,-0.048816845,-0.22421244,-0.3003334,0.45935494,-0.24215056,0.32272702,0.19590159,1.2011468,0.35171515,0.090175696,-0.0051813126,-1.2139305,0.18601505,0.0107020885,-0.27020705,0.26777947,-0.020997629,-0.107332185,0.10111403,-0.21020368,0.34212834,-0.22282012,-0.16341864,-0.29455966,-0.044351563,0.055212207,0.0055655986,-0.36291048,0.31848615,-0.5060809,1.1655467,-0.72598374,-0.14785038,0.5193123,0.06655531,0.32468826,-2.0090032,0.7377908,0.121375844,0.1447918,0.4340648,0.12624335,-0.10066712,-0.026315946,-0.14187527,-0.14775923,0.29121587,0.23185399,-0.09329569,-0.57291496,-0.27948406,-0.6981519,-0.23978111,0.07170698,0.066777356,-0.066195026,-0.05877516,0.371266,1.5624654,0.08419563,-0.059693143,-0.115829326,-0.32168385,-0.36520943,0.20243275,-0.34329823,0.103716984,-0.50700825,-0.7431209,-0.31112432,-0.20246428,0.117007345,0.05196513,0.26633257,0.002672758,0.36797002,0.15907407,-0.44434077,-0.16047917,0.29244408,-0.5473872,0.68535453,0.048502285,-6.457808,-0.0019810926,-0.30460602,-0.16829461,-0.14179954,-0.17752144,0.03328251,-0.30881703,0.00032930076,0.49701464,-0.68160915,-0.15188757,0.02643881,0.056750495,0.8870567,0.47128528,-0.09174523,-0.14903578,0.02941937,0.23019437,0.14927833,-0.6773628,-0.18790337,-0.20997623,0.16968668,0.20999789,0.079401225,-0.5038908,0.092948094,0.22783849,0.36881948,-0.098817185,0.20357645,0.61788964,0.059612412,-0.35377112,-0.007748574,0.49737707,0.38343647,-0.75387335,-0.09015272,0.8615192,-0.39716166,-0.123147324,-0.56060135,-0.59589195,0.07163555,0.0039448515,0.119484,-0.14216243,0.7904929,-0.10117382,-0.4605348,0.33710837,0.21821055,-0.21657878,-0.32097208,0.38972574,-0.43190935,-0.2517087,1.1485167,-0.4366719,-0.17500266,-0.35147548,-0.07397811,-0.13600808,-0.4298411,-0.09210066,0.08823362,-0.16010833,0.15767446,-0.010723829,-0.054293483,-0.13241059,0.005232977,0.309847,-0.31786007,0.25900725,0.39841405,0.30947244,0.2792492,-0.27844146,-0.16502097,0.47022307,-0.60469556,0.1532784,-0.17145315,0.14305453,-0.06433155,-0.48694652,0.15080884,0.26809996,-0.15760595,0.08333258,0.09212724,0.24274918,0.017402872,0.26082417,0.3078136,0.4002368,0.38690448,-0.012051002,-0.29253346,0.17782667,-0.7665373,0.19176367,-0.60263926,-0.502999,-0.14828265,-0.30935064,0.44878554,0.092352256,0.45037445,-0.80292076,-0.14922176,-0.2586799,-0.3236208,0.43116668,0.068620875,0.5260493,-0.19303416,-0.33391628,-0.1140134,-0.057648107,0.0920743,0.5936604,0.93283117,-0.44983548,0.21199489,0.5117742,-0.2955849,-0.563693,0.29684055,0.12656383,-0.111066505,-0.79471236,0.019196898,0.46335432,-0.13871537,-0.2704451,0.73257995,0.045981906,-0.26965773,0.027912274,0.087870665,0.10019384,0.06610372,0.23037353,0.35037616,0.6856838,0.16054761,-0.37284756,-0.07086093,-0.079425305,0.009869404,0.012603402,-0.078833655,-0.37408498,0.32591814,-0.0073989034,0.18648091,0.4236053,-0.06333583,0.03152637,-0.31814122,-0.13646509,1.2717319,0.04037842,-0.12256309,0.28105423,0.5624507,0.8405485,0.03374649,-0.036844194,-0.14649822,0.48575455,-0.10060464,0.12738347,0.21579689,0.14189316,0.2427484,0.4788769,0.20595297,0.012503177,-0.032341644,-0.001817137,-0.28291905,0.2774024,0.39700496,-0.095755845,0.069611065,0.14339706,0.3136391,0.35648137,0.09126586,-0.45117182,0.18144457,0.17115906,-0.13872612,-0.16054785,0.2897892,-0.048044078,-0.031345583,0.35176635,0.6806519,0.016000729,0.28868842,-0.5022082,-0.25258332,-0.33881888,-0.46236652,0.05023865,-0.24303168,0.34325022,0.27368802,0.20443156,0.25699198,-0.0118280435,0.233789,-0.1640267,0.8585832,-0.1793883,0.24561346,0.477068,0.7256492,0.35122356,0.04594375,0.13404173,0.66753924,1.1913998,-0.2210568,-0.3569947,0.039890617,-0.17612411,0.38269448,0.40933943,-0.07202406,0.06683582,-0.13994285,-0.6434283,0.10663013,-0.19741772,-0.069350936,0.0989334,0.06692908,-0.19033375,0.29465693,-0.19652537,-0.26232266,-0.44966665,-0.20361076,0.23671997,-0.3542463,-0.17940134,-0.10879339,0.004985817,0.40451622,0.29169083,-0.23066048,0.16682056,0.19906737,0.045591433,0.07642822,-0.50521827,-0.42972022,-0.053502798,-0.10106593,0.2536853,-0.9850725,-0.46848118,-0.010640264,0.936048,-0.32051396,0.38113567,0.017351776,0.12469203,0.15949434,-0.6075778,-0.37428263,0.11962035,0.041677624,0.33676738,-0.17311376,0.30519158,1.0014579,0.43404847,-0.7618139,-0.19151215,-0.42964804,-0.8227765,-0.22065535,0.25927955,0.1324772,-0.52968484,-0.13360374,0.117984414,-0.52220094,0.59339863,0.43015695,0.1445179,-0.18903533,0.16924539,-0.6500221,-0.07907067,-0.18954481,0.08210986,0.053633172,0.1392299,-0.127947,0.20318896,-0.3477401,-0.38314444,-0.07422105,-0.19181763,-0.29276025,0.1823833,0.52620757,-0.29579976,-0.43868798,-0.3057504,-0.049858745,0.42436957,-0.055876993,0.08184388,-0.019563887,0.044565186,-0.5408049,-0.07135068,0.11207345,-0.37328437,0.46571696,-0.3934082,-0.17120774,-0.07243505,-0.35440856,-0.15757497,-2.5083637,0.13083078,-0.22753492,0.08985418,0.5820654,-0.42046684,-0.25340283,0.10086989,0.030254766,-0.2639534,-0.47433612,-0.13713923,-0.011174075,-0.039695457,0.40749723,-0.1581195,0.23632282,-0.5186585,0.027501281,0.22357276,0.09202036,0.2245547,-0.52473766,0.116157115,0.05389262,-0.20258099,-0.18993425,0.019240677,-0.3674434,-0.2786163,-0.19396257,0.03777927,-0.10234018,-0.28094772,0.07627706,-0.16763745,-0.24801718,-0.3693925,0.36773756,-0.38857138,-0.54770684,-0.312054,0.048550274,0.4084823,-0.26366496,-0.26755142,0.16182402,-0.0058725514,-0.29613456,0.16901898,0.26760852,-0.48112035,-0.37271535,0.028647296,-0.6506935,0.02848962,0.24792069,-0.5063886,-0.09008552,0.3346905,0.1392476,-0.23988871,0.3020637,0.016953945,0.5497763,-0.59741557,0.17492867,0.20395467,0.26998484,-0.3578761,-0.05238074,0.14929903,-0.25896135,-0.18873163,-0.24285284,-0.050629403,0.8382391,-0.25409943,0.52438843,0.42646965,-0.5304972,0.7848948,-0.13423908,-0.004616976
Europe_17.png,-0.43449983,0.46799526,0.043849573,0.11852996,-0.06757389,0.19033134,0.022532325,0.19582647,-0.29928407,-0.17671686,0.14344151,-0.718027,0.6039984,0.03549157,0.19359061,-0.063178785,1.0308638,0.19795765,0.1405832,-0.51859295,-1.7748268,0.011806697,-0.07950194,-0.24054042,0.30521107,-0.13546485,0.14242747,0.007541664,-0.22627787,0.27894688,0.15197532,0.25613332,0.16128463,0.06362337,-0.08503647,-0.088899896,-0.10606331,0.31970802,-0.3594925,0.8481163,-0.65248024,-0.26152423,0.18912578,0.22755392,0.099508986,-1.0406945,0.8981205,0.32021976,0.36835885,-0.0751035,0.2310778,-0.29132852,0.25788555,-0.20727062,-0.2536031,0.31148446,0.31829512,-0.25816634,-0.035520762,0.118398115,-0.13812166,0.13021976,0.20879313,-0.4389993,-0.41228426,0.08292788,0.22251606,1.764945,-0.033177853,0.20544705,-0.22714683,-0.05992541,-0.011942416,0.5716064,0.0989729,0.20031181,-0.35948482,-0.37846494,-0.061687443,-0.3074402,-0.1396605,-0.019591514,0.34163073,0.06682719,0.12568878,0.26132458,-0.32625937,-0.1665841,0.47681177,-0.11278497,0.60206723,-0.2948255,-6.662274,0.2775662,-0.11120282,-0.20391952,-0.42699248,0.05123198,0.48273474,-0.13216512,0.06681335,0.33348694,-0.7596966,0.046669222,-0.11206357,0.21018621,0.22780554,0.66549766,0.14825343,-0.5317231,0.42435804,-0.3203146,-0.15114747,-0.379924,-0.18543005,-0.20365784,-0.010221854,0.18568859,0.035656594,-0.6509964,0.11335999,0.3127081,0.59440875,0.50049883,0.022141896,0.35136777,-0.0797813,-0.35208023,0.15914804,0.3049658,0.47399977,-0.63273567,-0.046730876,0.8964292,-0.3014069,0.08056164,-0.28932673,-0.35683504,0.062033437,0.07773455,0.15665348,-0.11547336,0.6152379,0.29552996,-0.50661165,0.16676831,0.43136686,-0.27139312,-0.16774571,0.26644087,-0.77167594,-0.041727766,0.8629994,-0.27704823,-0.050042555,-0.48416075,-0.03968802,-0.17572254,-0.34342694,0.24705078,0.31709236,-0.4834781,0.1778441,-0.19409128,-0.039182685,-0.16360883,0.52187765,0.41918677,-0.09787503,0.54979336,0.009388797,0.28839546,0.051799662,-0.1385552,-0.11987643,0.32793838,-0.21696906,0.27141118,0.8101852,0.14134525,-0.24043804,-0.47487828,0.28870562,0.20106691,-0.12793948,0.1770069,0.24430934,0.047367126,-0.20006235,0.22407058,0.5547453,0.52955997,0.28750688,-0.04004825,-0.13006501,0.3904047,-0.6271672,0.03966491,-0.32104453,-0.23341025,0.039005123,-0.29187602,0.60376465,0.3422953,0.55530965,-0.32426918,-0.32717776,-0.41298425,-0.10266248,0.2853158,0.19273047,0.52002096,-0.22159879,-0.14789638,-0.14061898,-0.26364902,-0.087605536,0.28787655,0.71326697,-0.25493675,0.09747335,0.65850234,-0.04753942,-0.36253068,0.19228671,0.29531828,-0.08959031,-0.37798283,-0.18396105,0.31637233,0.14986074,-0.39704433,0.5373937,-0.05930651,-0.12385374,-0.2538556,-0.1928001,-0.119313404,-0.057714764,0.44024193,0.15052302,0.13181636,0.015537381,-0.25117195,-0.24415107,-0.33359033,-0.08704117,0.4670821,-0.104855336,-0.12740499,-0.021165604,-0.15921019,-0.14019291,0.5363298,-0.27248544,-0.039133318,-0.117618956,0.32448825,1.0172013,0.13775295,-0.07344237,0.098759316,0.062341034,1.296641,0.12309113,0.20924067,-0.2857105,0.10853387,0.2191461,0.06967455,-0.016836153,-0.26849514,-0.14550304,0.5657764,0.34653497,-0.18379268,0.07510917,-0.015350774,-0.29509005,0.07213789,0.47422993,-0.19323012,-0.01019495,0.2850561,-0.09165531,0.32953,-0.4104144,-0.21117964,0.29678792,0.29218417,0.4889653,-0.16194625,0.060022436,0.05340443,0.023254238,0.29282454,0.43593177,0.28212658,0.1965631,-0.27056214,-0.21284771,-0.20349497,-0.48927948,0.2961772,-0.08470717,0.34141803,0.14303161,0.12702751,0.076067336,0.2103157,-0.2803381,0.02169104,0.8945654,-0.32577908,0.11780538,0.5161237,0.93955326,0.51764643,0.2893087,-0.0641388,0.30454424,1.5869818,-0.15425307,-0.044914804,-0.14923763,0.17167321,0.3127351,0.5403285,-0.2024143,-0.011349544,-0.00050112605,-0.60469306,0.032174945,-0.3594521,0.003120346,-0.012071572,0.031627297,0.0149989575,0.1536048,-0.21168303,-0.2200892,-0.50711006,-0.26391307,0.27171895,-0.29254326,0.009291664,-0.12569095,0.09008953,0.53145736,0.7323995,-0.12546772,-0.27392012,0.31262204,-0.47411206,-0.0012003407,-0.1441671,0.037252616,0.38430604,0.07051107,0.5946151,-1.049427,-0.12678847,-0.17324764,0.8765823,-0.072563924,0.17004173,-0.005072236,0.31682837,0.19066577,-0.28571993,-0.024137959,-0.051732607,-0.46197668,0.33342797,-0.47330433,0.2065441,0.9445727,0.08721797,-0.44113028,0.09440378,-0.54263395,-0.79859143,0.46004516,0.117424056,0.1351487,-0.5288333,-0.19595008,0.21573573,-0.67618465,0.41699982,0.06481424,-0.050479848,-0.080661446,0.21782112,-0.5763897,0.008459955,-0.12750189,0.088882335,-0.0023955144,0.057594597,0.24643323,0.13915157,0.16871369,-0.11316773,0.042431306,-0.3211186,-0.6565493,0.32388797,0.3674111,-0.3280856,-0.4437128,-0.30229566,-0.08919725,0.049362738,-0.4271518,0.033400595,-0.17020586,0.0456877,-0.32159358,0.0816369,0.2026175,-0.20144303,0.47774115,-0.24387795,-0.18094052,-0.21621555,-0.4092602,-0.13404256,-1.7421867,0.3774047,-0.5111356,0.2523183,0.8033149,-0.15090817,-0.16675667,0.024389647,-0.18871786,-0.41754332,-0.15017176,-0.20827703,0.23458019,0.19219784,0.33577254,-0.11791174,0.44509777,-0.40694657,0.28008077,0.27598482,0.20826785,0.53518975,-0.36896113,-0.006812975,0.13767463,-0.22608504,-0.14353545,0.27780235,-0.34638914,-0.18199027,-0.066819176,-0.09648082,-0.04657446,-0.25752723,-0.026035346,0.025654018,0.101823576,-0.69286656,0.29103383,-0.2677461,-0.50722015,-0.4426875,0.29603377,0.37907824,-0.2581312,-0.26240155,-0.37869948,-0.14495616,-0.12427441,-0.15446934,0.3309066,-0.52272356,-0.60997474,0.008211099,-0.55077875,0.24310955,0.032682166,-0.41785005,-0.29252595,0.43294352,0.06511957,-0.40124342,0.30223212,0.07237989,0.27689075,-0.8216579,0.21378654,-0.062045325,0.28438348,-0.03186919,0.02215553,0.4232316,-0.15560836,-0.44733953,0.009325042,-0.01971761,0.3973546,-0.41308418,0.3402784,0.21751624,-0.46863136,0.72084516,0.07332464,0.19951098
